-1.042790956878967501e+00
8.679142043660618144e-01
-4.206410752062952341e-01
1.211780187167351697e-01
-7.299120163823753504e-01
1.179756839115890521e-02
2.875433952582645003e-01
-2.032333408298280464e+00
3.820169616800300760e-01
-1.556948950422490263e+00
8.448439377388436977e-01
1.392496842159733905e-01
-9.465416361642935428e-01
-1.800769803529729263e+00
1.569081764075752616e-01
-1.136221778938026228e+00
2.330074587206573400e-01
-1.735412688755454180e+00
1.676397158147437949e-01
8.303414538677866830e-02
2.171492158095790881e+00
2.107322494131465440e+00
-1.369559112916828969e+00
-1.972913601607167111e+00
-1.548710524717178405e-01
3.663925944661806655e-01
1.083650713499800133e+00
6.925244739379657899e-01
-1.271706117259465141e-01
3.368583538172192693e+00
6.434560881325281922e-01
3.567681513354512557e-01
3.767453594202180983e-02
-1.300535016099501062e+00
3.092713596957924471e-01
-1.609468969912586589e+00
-8.560850173674638963e-01
-1.650123260848427087e+00
8.884114134610358038e-01
-2.832298551222334204e-01
2.809605654599922619e-01
-1.239633088954920082e+00
1.864634032286178189e-01
1.619401864922157763e+00
2.416274537007793710e-01
-1.555553373132025378e-03
4.117234972995441056e-01
-3.705855866327757431e-01
4.437689788164843052e-01
3.937196733330591281e-01
-5.588151982693683184e-01
4.473296963847612773e-01
-2.007143244093981149e+00
1.519195493204203717e-01
-1.068698097506886269e+00
-1.023019474230366210e+00
2.500310695543916939e-01
-1.250562725476131176e-01
-1.083009876579439590e+00
-6.657096276414303793e-01
-9.812062488761436052e-01
-2.876833022176126034e-02
3.428360938832461513e-03
1.002004504451134315e+00
-8.632201221754972620e-01
-6.815689624615536291e-01
-1.310329430836344899e+00
-1.247932412212538145e+00
1.368266433483035671e+00
-6.059956239886786777e-01
-4.691738382456849821e-01
-1.514461271575303192e+00
-7.165690307096334033e-01
2.904401507466833898e-01
1.801422287065617800e+00
9.081051057883531008e-02
9.669014681489326302e-01
-7.343051521227014766e-02
6.852476661449723450e-01
-6.794142268214909963e-01
2.030945810256642656e-02
2.820282368658861769e-02
9.408505020411528363e-01
4.232232437740036657e-01
3.172206821896488838e-01
-1.978354230422412874e+00
-3.927695932271392243e-01
1.771497024583452429e-01
-1.988955241302608590e+00
-4.884069780683233941e-02
-1.745282496868949540e+00
8.293637153434486597e-01
-8.832477977918411494e-01
1.020736716878594796e+00
1.017647976155896805e-01
1.315518964262225587e+00
2.378601710198079644e+00
4.329298555289437522e-01
-4.401903797367952564e-01
6.593857823303751475e-01
6.789441898711071621e-01
-3.549551254040220205e-01
5.282337186011697439e-01
5.152206291479336508e-01
8.795183241471272728e-01
-1.436028685747539890e-01
-1.443739765498797789e+00
-4.387157876058154354e-02
9.430316816157990889e-01
2.065245884193154802e-01
-6.966328779465146281e-01
-2.207268699837260928e-01
-2.066692943701477159e+00
-2.823020263528984164e-01
-1.116837575650499570e+00
-1.514975664314809345e+00
8.572817598802542904e-02
-6.504602689086635969e-01
3.402752188927848365e-01
1.460817446083088611e-01
1.211473419026673159e+00
1.739054132745080139e+00
1.482374741278138952e+00
9.444526207078102198e-01
2.000311978686317715e+00
6.390565452323494489e-01
2.732792634628374184e+00
-1.536276749574383427e-01
5.208188345739600544e-01
7.954107735786295486e-01
1.380687288753555064e+00
-2.218743238329868028e-01
5.326727539154322288e-01
9.112567388597448970e-01
9.110339641794107379e-01
-7.505625510944267109e-01
4.120122082440798028e-01
9.652360658644519864e-01
8.676805643732891926e-02
-1.411891174578174812e-01
3.752783102620128597e-01
-1.881029287579618181e+00
-1.402012045215711655e+00
2.791668840898103299e-01
2.775280476744462765e-01
-9.254516747722675296e-01
-1.145132307324518761e+00
4.426017182221626545e-01
-3.229983896094069662e-01
1.213969929437558770e+00
1.545965835912154196e+00
2.407487253353813028e-01
4.273220201963227050e-01
1.243677711240063433e+00
2.378291200806746108e-01
1.584812789237340480e+00
-2.505419020070919628e-02
-5.601550368801516688e-01
1.523110116787327550e+00
-1.909644812624314625e+00
-3.783088912801495229e-02
9.689384555118292219e-01
1.584922539296115540e-01
2.559866758938532660e-01
-1.033332572019563522e-01
8.080108640831468181e-01
-2.676611963930780602e-02
-1.507066031377428450e+00
-8.912053900930678729e-01
2.775687619686268981e-01
-1.204219469728812664e+00
-9.706389591679278617e-01
-7.851125936077554823e-02
-1.026410228595252327e+00
2.498799411100530998e-01
2.383495716142010057e+00
4.340320110154887168e-01
-6.340000561994316719e-01
-2.950507553589479803e-01
1.569573247150663819e+00
7.239125233175683349e-02
4.548887054671913455e-01
1.790670115464755074e+00
-6.720901683514975966e-01
6.321653614166373725e-01
-2.468693597219986102e-01
1.826838014072609262e-01
7.464343791108345449e-01
1.021658389527356547e+00
-7.681419022703537269e-01
-2.280963232663506091e+00
9.064561390476945091e-01
-1.364202074858991365e+00
4.220922065712481297e-01
-8.189988383570995234e-01
-1.249284618331400587e+00
-2.456215918559509215e-01
-9.606578482632781302e-02
3.862619285505107247e-01
-1.099505018271423051e-01
9.814742177497555176e-01
-2.529225568236924460e+00
8.073675470164746182e-01
-4.277159207107986694e-01
1.231273087017293211e+00
-8.988620616851425438e-02
3.336566325422342105e-01
8.907882551588599540e-01
-2.800183978648060901e-01
1.241982668416745095e-01
5.411554976921703064e-01
-1.050088386836639964e+00
1.806505951076518013e-01
-1.842706599947522061e+00
6.015303744428504018e-01
1.794947604335305757e-01
-1.455300169110322450e+00
3.232405520697527179e-01
1.351745978484546251e+00
-4.715666685198423996e-02
-1.071624348030869145e+00
9.795378200345369324e-01
1.155517482150381747e+00
-2.764100116997271137e-02
-7.944938520530453463e-01
-6.170568528901184679e-01
-5.180182788218048451e-01
-3.671582405423560180e-01
8.880547470274066102e-01
5.083913896383428499e-01
1.490373280430655478e-01
-2.297125844954188700e-01
-3.707631895713793257e-01
-8.454424931435960966e-01
-1.892954888334420771e-01
5.604965969202296838e-01
-1.565922824619164766e-01
-5.772378523174653830e-01
1.086353417745069105e+00
-9.118479089750591848e-01
-1.601518985281707164e-01
-5.521741393216551552e-01
-6.690739757630645435e-02
-2.846744914750699018e-01
-3.353342774603990661e-01
-1.073108438899347483e+00
7.165696137366671659e-01
-1.582485050138165983e+00
2.808764071960120901e-01
1.639273316883990972e-01
-1.042038447191821621e-01
-6.587292372985041611e-02
1.885252624173975988e+00
2.450799840649079964e-01
-3.651425897116464259e-01
6.593499149705862594e-01
-3.339686295492095836e-01
-2.808305598588594632e-01
1.737093524940550027e-01
7.673702769903895105e-02
-6.306146997439410207e-01
-6.491822251735653027e-02
9.993488115657690463e-01
3.472934295026287588e-01
1.185695239487091879e+00
-3.782127674933356554e-01
4.129897113296275846e-01
-1.221117341733233497e+00
-1.083856330478718322e+00
-6.922020117106258974e-01
-1.045710649300029660e+00
-5.532392305522401132e-01
3.421785426396843910e-01
-2.928246900428911559e+00
-1.362849210178454618e+00
-5.008602834202454668e-01
-1.779472747198794558e+00
-3.515857479773604882e-02
1.238613855314595780e+00
2.256698680405823942e-01
2.187445565833731342e-01
1.172810396653712894e+00
-3.374057854809225376e-01
1.082426568141514833e+00
-2.161982422316186980e+00
-1.560986459583233676e+00
-4.044042821930731169e-01
-8.596413888243163992e-01
6.882725378376027825e-01
-2.506155278471029479e-01
-1.106550540562831308e+00
3.290179907102735446e-01
5.630811145516697591e-01
1.602192712654480156e+00
-2.600191716379329776e-01
-1.659689701762990355e+00
-1.573734028802865170e+00
-1.053210065339000634e+00
1.715798677490480983e-01
-1.937519952795613509e+00
-7.263455671261325186e-01
-9.209053100182592599e-01
2.023978634739518334e+00
-7.200488135562274072e-01
3.832611565208284277e-01
6.624673546671847602e-01
-3.225148288786748307e-01
1.097479897751483024e+00
-2.183367053645383915e-01
-8.630888910580513107e-01
1.271864563531019288e+00
8.826401003239152665e-01
5.791422276794949003e-02
-7.724735751832817465e-01
-5.273388319637898995e-03
-1.459900677773166233e+00
-1.805993578748465334e+00
-8.240188105748077474e-01
-1.250140570202074475e+00
-2.821640975956699049e-01
6.167017049917216109e-01
2.015517030985478630e+00
-2.797991937320474243e-01
-2.329573312388505124e-01
-1.259644248642055375e+00
-6.105697973433804604e-01
2.598138102072707345e-01
1.471783047443045778e+00
2.738855405631031581e-01
-3.322216613784440553e-01
-1.332278212434168108e-01
-3.138619281354992907e-01
-6.834039682537191851e-01
-5.203743956202278031e-01
4.166991281986858753e-01
-7.715754008848343393e-01
-9.219816265542271627e-02
6.282155193342818800e-01
-9.177684177897667273e-03
6.062822234714434350e-02
-1.356156314858858236e+00
-2.036825039266202619e+00
2.502743736212370215e-02
-2.481585056407834333e+00
-1.152053046029732242e+00
-2.544343247473314751e+00
-9.309861185580189380e-01
1.140337515069217295e-01
-7.244352557955053840e-01
1.431783476125521037e+00
1.957471882517326789e-01
7.728673331841102723e-01
-1.142931784164000902e-01
-4.914070127254351883e-01
-1.959946861028712684e-01
-5.372856819028449804e-01
9.391734850835036230e-01
-5.452625036019947968e-01
2.769120253192264069e+00
9.988805663813195013e-01
7.711749157460202619e-01
5.706116143100207205e-01
1.490046875989118114e+00
9.221427996303542193e-03
3.161325586196143123e-01
3.243572989108958193e-01
4.316494999320578119e-01
4.764845642280164384e-01
-1.673941552679046652e+00
-6.409571666790915279e-01
-2.231471231720990378e+00
-6.806742254779082346e-01
4.237268783943545086e-02
-1.133795445420343606e+00
-1.793866006707651728e+00
-7.751191335000205962e-01
-3.074399127889199668e-01
3.654236356423389842e-01
-2.493881825023552268e-01
-1.215859813594558192e+00
-3.101438471446072431e-01
-5.288912536005940801e-01
2.643600818141705333e-01
-2.616738802112122397e-01
-2.743241293369212963e-01
-9.644866907631725883e-02
-6.415109582851513670e-01
1.164537873567316639e+00
1.302041946914253012e+00
1.731440647352257001e+00
1.884004098292521856e-01
-1.907743517453341475e+00
3.280908038362436163e-01
-1.008812083174654983e+00
-5.295992380680786260e-01
4.174467600697254754e-01
5.662389209588953864e-01
-2.296456102551581724e-01
-9.111896029996716662e-01
5.457068177398092246e-01
-2.290601047168010940e+00
-4.674172328237769514e-01
-1.044051890028705021e+00
8.888012952340368367e-01
1.241728625209144621e+00
6.408479660738970463e-01
7.913995467931149719e-01
1.236625997536636573e-01
-1.045987628669747815e+00
-9.473105664246509461e-01
-4.473698201434319621e-01
-1.258139883309500773e+00
1.919543878014480787e-01
2.020033718231665776e-01
-7.519811051409489577e-01
1.072893150408884999e+00
-1.029172106376422313e+00
2.353925937671539348e+00
-6.871658111090805932e-01
-1.337361405418789229e+00
-8.503093940309248699e-01
7.206377845518835423e-01
2.129567022986076641e-01
-2.293670255324741780e-01
-2.833262357676509247e+00
-2.353064151260287895e-01
-9.116628347757685935e-01
-1.638349749843127368e-01
-1.378855469915479581e+00
5.081394674809978085e-01
-7.353348818252578023e-02
1.501687197069071500e+00
-1.166052771207682637e-01
2.978765449909542146e-02
8.938573281547204097e-01
4.136574048673949955e-01
-6.840127787927513525e-01
-2.304457182873062226e+00
-2.716945507604889287e-01
1.338016407847524736e+00
2.216398907943325503e-01
1.003187575455512758e-02
-2.445880770838307627e-01
3.237096817520873637e-01
2.323087977273440963e+00
2.106853274644117313e+00
1.007021543965333166e+00
-2.158542267380742508e-01
-4.240803771726064930e-01
2.133619055283259680e+00
-9.676474768259765158e-01
-2.853623822823324607e-01
-4.948878957217722196e-01
-1.248003175346113380e+00
4.275598597641105947e-01
2.090646374133820207e-01
-1.123653692727816678e+00
3.156975855541494513e-01
-8.178671745718825437e-02
-1.798540323136977592e-01
-5.601376864107253661e-01
4.456652144188246178e-01
5.502293143842069689e-01
-1.162442542346607821e+00
-6.363447479011249408e-01
-1.896505418784580010e+00
-1.707706224510684878e+00
-1.713229551637903136e-01
-4.322173156999983834e-01
9.486907880821352501e-01
1.400224509826062613e+00
4.693067414892594658e-02
6.268780150918614735e-01
2.281835653357203952e+00
-1.156710224282608168e+00
8.519986824552996385e-01
-6.173260131595937894e-01
2.152651538584259283e-01
-1.731723589752172998e+00
-6.411460325511101344e-01
-7.096695846879994551e-01
9.026204536634190312e-01
2.140250634302588162e-01
1.181348657916269529e+00
1.976646299941807461e-01
4.306216171349268040e-01
-1.344437618299736625e+00
-1.195444303017952348e-01
-1.157350789472980868e+00
1.249546485165586418e+00
7.855482465028151839e-01
-1.079115130326158134e+00
1.595483199884878064e-02
1.221422002685800035e+00
-7.176866826347474415e-01
7.989119817897031295e-01
8.893882843914113767e-01
2.231677877429942392e+00
1.013396850188432174e-01
3.735283999371710184e+00
1.356622663608717971e+00
-2.271511560002985874e-01
-4.858145167985947199e-01
1.408761078606642347e-01
6.289978340563928683e-01
-3.165802433862486831e-01
3.969851558358244992e-01
1.145807255788685364e+00
1.064569623374560070e+00
-5.284096203774024669e-01
6.652204759401654233e-01
-5.820989947636948103e-02
2.436472158552952516e-01
2.006788743637977213e-01
4.133897801749921719e-01
-9.073081895393443341e-01
-2.124402975614919864e+00
5.461339652498623520e-01
-6.305551557826232223e-01
3.115882526278122566e-01
2.558389226739339328e+00
1.099755001878246263e+00
7.951539514187135060e-02
1.362179072483872266e-01
-2.107459890537726199e-01
-5.034733854179956197e-02
1.677994911315917381e+00
6.856350498140423300e-01
4.104409870909655478e-01
1.178385528010095662e+00
-3.539852542991419049e-01
7.944967135797784685e-01
9.679049674949692650e-02
1.168428297571407759e+00
1.948163511949947191e+00
5.207196585638739217e-01
9.063501074205283503e-01
2.025664313428061192e+00
1.605021024969617072e+00
-3.847905499947484320e-01
8.210888755080051338e-01
-9.774042936938743820e-01
-4.895442306988938563e-01
2.899157416891671724e-01
-5.094907403007451485e-01
-5.008060405062916276e-01
1.603132885428569798e+00
-4.491289230110113717e-01
4.543335628491112499e-01
1.112446268757160572e+00
5.910228895943339111e-01
3.206235967361104749e-02
1.930398290377947745e+00
1.695202957362690888e-01
7.865655315261055325e-01
2.058204863870038537e+00
1.212058404648712839e+00
1.541074303934655720e+00
1.544402483991143271e-01
9.714254555157156301e-02
-1.594477047610383114e-01
1.557244680016447225e+00
-1.086576033950293008e+00
1.460814290040285179e+00
-2.169376523874713969e-01
1.174074326332927187e+00
2.908882132386522379e+00
1.628531529294268143e+00
1.301118553594852845e+00
1.773989175507142191e+00
2.432992229419893793e+00
3.638701396860244408e-01
2.679167668163995875e-01
1.063072642162584819e-01
2.157716661298181293e+00
1.867728599818005319e+00
1.048225946839705713e+00
1.464228072821402771e+00
1.746023485329478930e+00
1.717391321528609183e+00
5.733845720036906402e-01
1.692345134777794247e+00
6.925373798240135326e-01
1.219966585450735774e+00
5.324433890589825441e-02
-1.899963296576490546e+00
-9.597671199245915163e-01
-8.826058740851469020e-01
3.563264224906064759e-01
-5.966457170094346951e-01
9.395834977187108583e-01
-1.197700515337312976e-01
2.503931076253748333e+00
-7.787679525329682662e-01
-1.869244159709718411e-01
8.372852139503690339e-01
1.862809265931685943e+00
6.311433304525334576e-01
8.010580822956062663e-01
6.758970053708187598e-01
1.551201775933819249e+00
1.714397937077760892e+00
2.629588351420452108e-01
1.211951783648283598e+00
1.054763104291138287e+00
1.076675125987725190e+00
1.464414707025208484e+00
5.353019821845610426e-01
9.532704560406345395e-01
1.670858239346647123e+00
9.338339867337285272e-01
-9.498363933581831509e-01
-1.272944902888764884e-01
-3.807949658790008574e-01
-1.684197873759833430e-01
4.501609179525405402e-01
5.442331182489510422e-01
-1.801499134233674804e+00
-1.052429182892925752e+00
3.060924683411936909e-01
1.121963079215424264e+00
3.325656037785644781e-01
6.357171415875289000e-01
4.733708164782470806e-01
-4.256785556967818129e-01
-7.579172127536755454e-02
1.335360253276181908e+00
2.889173249190229997e-01
-9.073940098824119227e-01
7.104267665261716491e-01
1.201692698191758890e-01
-6.018768449654637864e-01
-2.148394300524157363e-01
2.455741118356777442e+00
-1.244581566103836412e+00
2.545315405484723237e-01
3.318509796131020040e-01
1.301612527483407611e+00
9.532863083987116459e-01
1.667804922827605063e+00
-4.852923881577612675e-01
1.743749904269555673e+00
-7.546571127230624620e-01
1.382807079967593111e+00
1.358334164001879341e+00
-8.779814404344052359e-02
1.886604541350933306e-01
1.855640172806111599e+00
2.574713957638644080e-01
4.492444763024976417e-01
-1.628936753342779264e-01
1.680014817046822095e+00
-1.070546161535394641e-01
1.625914964747423586e+00
-1.565939715661864851e+00
8.600928896853238248e-01
1.229650148441652657e+00
-1.098232846899463988e+00
2.939856452594866720e-01
-2.573581968186035643e-02
-1.045485289650854022e-01
1.374428722953127346e+00
1.811130590133963603e-01
8.042905885978377523e-01
-1.080778948424346186e+00
9.305402215409485089e-01
-5.246276565985095175e-01
-6.213175041032512613e-01
-3.086460065587730561e-01
1.331559393021444881e+00
1.412298572396570195e+00
2.182997257250805512e-01
2.989847160166528850e-01
-5.730984207322437074e-01
-3.285902896686020980e-01
-1.733633136438125888e+00
3.045397037515400473e-01
7.945897220562934959e-02
7.623866354468317175e-01
8.154536144225388306e-01
2.723549226175819293e-01
2.015468278331569163e+00
1.239889683030437340e+00
-7.579241234635275548e-01
2.393748049399452515e+00
-1.309049902067100368e-01
-1.304992712252762033e+00
1.078812403115025464e+00
-9.309880615021113442e-03
-3.031747313658283427e-01
1.170256216072905892e-01
9.399189385738574432e-01
2.923022935672784373e-01
-7.287952276982581079e-01
-4.652548013496707324e-01
-1.561645351786904889e+00
4.324715318237465911e-01
-1.083761036280180834e+00
-1.009922889553244441e-01
-1.968126919919324314e+00
1.730850267236295759e+00
-1.280297340224313851e+00
1.144380888506224547e+00
1.417307449753049675e-01
8.649463800172600969e-01
1.677993141970176016e-01
1.087466630159350106e-01
3.111803545052010400e-01
1.227087770897475005e+00
9.769873845448331928e-02
1.564446201387936219e-01
9.618528000958184165e-01
-3.083465290430520422e-01
6.920497601149131484e-01
-4.279183210457038200e-01
5.198419192333227912e-01
-9.582267872068719328e-01
-1.451028285186109823e+00
-4.527295715187815150e-01
-8.859642050589804363e-01
5.552456207116956977e-01
3.585993780247803131e-01
-2.698699024811697655e-01
-5.915116083120195434e-01
7.696071930025185637e-01
-1.021391434280724403e-01
-1.117534641678828322e+00
3.449673314825729611e-03
-1.236215110389162763e+00
-1.228159175705719308e+00
-7.524398040092338258e-01
5.680209100569166836e-01
-2.282827900425946632e-01
-1.590636846291582751e+00
-2.489182617374803008e-01
1.659296697338910942e+00
2.161013002231100266e-01
8.175326207342257234e-01
-4.180665706874509002e-01
1.294700485468729956e-01
-3.641883242917882679e-01
-6.388266475162127089e-02
-2.807443181228683193e-01
-1.690097735667620560e+00
-1.378340962175063078e+00
-1.167520371308859994e+00
-7.520249685178680421e-01
4.073755216196909279e-01
-2.414415963065209281e-01
6.355824641119027785e-01
-8.984014970204787787e-01
1.230851642052944284e+00
-8.709418763113784268e-01
-1.052372102322619130e+00
-7.024995181820119505e-01
1.636974812419384806e+00
2.116097367381131189e-01
2.344248288709348538e-01
1.431848395826579301e+00
-8.588079129777937970e-01
-5.822129276024643474e-01
6.704118618999396206e-01
-1.172981717912524452e-01
7.136215192717989542e-01
1.392765934988869470e+00
8.160205102114664877e-01
-4.747850320719699257e-01
3.109044261112910434e-01
-1.972203861477919151e-01
-4.678340902324878425e-01
2.368029196482473342e+00
-1.181423585793823561e+00
3.371190553224797659e-01
1.609976593026085090e-01
3.453649622937619013e-01
7.459739925169445174e-01
2.610217839751821645e-02
6.629673680201745301e-01
-1.375580697883489467e+00
-1.151889048643971458e+00
-5.343542827079166280e-01
-1.689752582796472780e+00
1.786193202219523046e+00
-2.188495619784398105e+00
