1.964311295386808043e-01
-2.635904202779826733e+00
1.767278501957044279e+00
-1.122623474314347503e+00
2.277444897752125108e+00
7.503474843242324832e-02
-1.892574497434573733e-01
-6.886884962855831238e-02
-2.204812147188324190e+00
5.994051128008870410e-01
-1.659061970637861205e-01
-1.203162696706939760e+00
1.235975657317329723e+00
-7.841835646884235400e-01
7.195549132640953749e-01
-2.228224368301162939e-01
-3.330383912215212350e-01
7.424446104158869408e-01
-1.586353123963044620e-01
-1.290611157545760390e+00
7.825910143503804761e-01
1.660224413001044619e-01
-2.947246077115344698e-01
6.111368320084697991e-01
2.098574144174742209e-02
-1.489150747484638604e+00
-8.479661476906397155e-01
1.000667967986454410e-01
2.171966487196731688e+00
7.735183442411770471e-01
6.385697470646832796e-01
-2.146111518600140600e-01
-1.455277545976082054e+00
-1.557117304804498704e-02
-1.563980498980881428e+00
9.380672525143946006e-01
-1.226350410280398373e+00
1.199632952646285444e+00
9.185779676347163303e-01
3.047263106224245427e-02
1.283529033365473415e+00
6.367748133766381047e-01
-5.308989778238583368e-02
1.842505963378685552e-01
-4.677017952083019070e-01
-1.562648563435010907e+00
9.820339413635610359e-01
3.349653326622805127e-01
-6.115555090466856525e-01
5.342063034504848096e-01
1.475362011686204566e-01
-2.820408825514922335e-01
3.107871477980479052e-02
-1.203740577188075589e+00
1.720357329801173618e+00
4.172342023356695462e-01
-6.683797868475912507e-01
1.668911187790889095e+00
9.899515174557753650e-01
1.000076991644167912e-01
-1.528606486931955999e+00
4.441054314179588292e-01
5.239030143673204520e-01
-4.474397583605135287e-01
-4.884604637661175142e-01
-1.247003004225406331e+00
2.077748047010281318e-01
4.013845160479588281e-01
-1.760568249766706894e-01
-1.702573227335232031e-01
1.313323702974468432e+00
-6.565005970580770067e-02
6.819894038126436131e-01
-8.924660211391010067e-01
9.052898660230811467e-01
5.857306977236974577e-01
5.193484860755777088e-01
-5.624929240129651342e-01
-3.433893877453617072e-01
3.855627459330694673e-02
6.594036163255155847e-01
-2.562951678586741222e-01
1.795004165008466490e+00
4.056062315261601547e-01
-2.723607275808176409e-02
4.163895758151492377e-01
-1.060656705399555255e+00
1.362097632497049071e+00
-1.531988216214278942e-01
-1.175503751280339459e+00
-7.642843722983243271e-02
1.170720001989085546e+00
5.660619878705634989e-01
5.280974053119620315e-01
-1.775768317641837957e+00
-9.445844271965264660e-01
1.819478193940579969e+00
7.803151718027098727e-02
-5.619459252679609440e-01
1.904868149741499464e-03
-1.212743716682771922e+00
-2.252245228299986912e-01
-2.119223022446826143e-01
-4.985922342482858038e-01
-4.656841499068202217e-01
4.644204401045554653e-01
1.898799581768088329e-01
-9.175769581009318721e-01
2.034960243374543509e+00
-1.001791792304723927e+00
7.540588425334475708e-01
-1.870065538191487908e+00
2.688350660716050666e-01
-1.839856078912923687e-01
-3.051357328239977740e+00
-2.242687497903808613e-01
1.522181351919619785e-01
-7.177843344893574118e-01
-1.617953644508310695e+00
1.493061514044931481e+00
-9.928527042399615254e-01
5.698822746588482202e-01
1.199547777552192364e-02
-1.157639313093848044e+00
-7.910781711976049291e-01
-4.939702125439254798e-01
-2.627272984998702210e+00
1.515588985075786571e-02
-5.260951788021701603e-01
4.033727381997478934e-01
-2.296435788295225072e-02
1.053061335388933539e+00
-1.137853131387570604e+00
-4.442738602774211065e-01
2.081388790747239259e+00
-5.763894973164293001e-01
4.989911452387244539e-01
7.158998829227701810e-01
6.586095124817203939e-01
6.130332570965202343e-01
-2.220636344361386794e+00
1.034062056130814256e+00
-2.704212855283796846e-01
-1.655700833114981119e-01
2.705610473972208663e-01
-1.385956444895933837e+00
-1.645130969733739346e-01
5.649500759396673677e-02
1.657506968931882874e+00
6.640009642787929600e-01
-2.023778012243148794e+00
2.733788788735033726e-01
-1.949765379001830112e+00
-2.812087425784778105e+00
-1.551580323011830576e+00
-1.243476235836117549e+00
6.702697051668289330e-01
-4.740020472728264656e-01
-2.161210822515948760e-01
-8.932634934524308346e-01
1.794046724055518460e+00
3.271508814776178942e-01
-6.449925444565528521e-01
1.702200593459436639e+00
7.375136270227203861e-01
2.220596809264841487e-01
-2.318181157956839211e+00
-1.377702520522407825e+00
1.906110667670233849e-01
-4.119346026351778378e-01
-8.254747477421593704e-02
6.889308902777809829e-01
1.607374974374961019e-01
-1.821082056767887036e-01
-1.547600488691822651e+00
7.374568735001237052e-02
2.535865746227393136e-01
1.396307675366668111e-01
1.771217961971889576e-01
-1.249571012876455001e+00
-1.416556130072696540e+00
-2.249157408902646260e+00
-3.714824305737711274e+00
1.790493094045311651e+00
-1.598843652166719753e+00
1.350455099141854021e+00
1.240188005265632443e+00
5.825692066546190873e-01
-6.462782655593369840e-01
-6.381613037540558864e-01
1.448794001260385267e+00
-9.008103280407261382e-01
5.059334956053755938e-01
-1.885103906263306817e-01
2.695979167869506574e-02
-8.156767292697565397e-01
-1.089489111992774539e+00
-1.109051324417935191e+00
-1.362608565526844284e+00
-9.321798461257152502e-02
-5.720628823890967496e-01
-8.182113568592315200e-01
2.001625879818260401e-01
-7.553161574751658947e-01
-1.000425783835642957e+00
5.975444328024980267e-01
1.005566237672120389e+00
-1.505040730479132005e+00
-9.250444814749922973e-01
-2.946825695639024634e+00
-2.092750783760748856e+00
-2.362689564282124954e-02
3.200143196059139772e-01
5.037542094788716174e-01
-1.629523295267674698e-01
1.092435804828943313e+00
-4.244754683874332746e-01
-1.159190791430059625e-01
1.871405755680432215e+00
-4.041583530675976199e-01
-5.535003697107261367e-01
-1.259149813374511595e+00
-6.667096468932094400e-01
-1.170300431593516599e+00
9.931835985461486827e-01
5.327070069241348627e-01
-1.047418896582936965e+00
1.055356868153631611e+00
2.292157112557528187e+00
6.981997024123568485e-01
7.778883089777625937e-02
2.843937022784082669e-01
4.338190202825039643e-01
7.465400519839329729e-02
-1.193923640992829105e+00
8.274939232714318971e-01
-4.043190763754136441e+00
-3.248132980421001292e+00
-7.579391411374889476e-01
2.566756369090169021e-01
5.619207559402976671e-01
3.290685674639143077e+00
-8.791957348474840339e-01
4.983683359625225573e-01
-6.410487679163365815e-01
1.732533718934723632e+00
-1.234565778442241246e+00
-7.112249498474294551e-01
-4.373141634659692412e-01
8.760136359425215735e-01
1.299255767242011084e+00
-1.498593433399598496e+00
1.122318888189205000e+00
-7.148299509402186169e-01
1.531561442202528545e+00
-3.478342890172016894e-02
-1.523103747251632223e+00
1.579293130696412861e+00
-6.009262620823000445e-01
-1.017793060192369259e+00
3.386125824601918799e-01
6.378563596851960504e-01
8.326370291752149821e-01
2.534474212749165400e-01
-2.602093860438198458e+00
-2.581607830217607091e+00
-1.468065022877143244e+00
-1.230811222361012786e-01
9.314136971184041602e-01
1.686619384632503493e+00
-4.351180196879565476e-01
-1.976106113567636324e+00
-2.726021414053240721e-01
-7.069627226030057443e-01
5.923655271876135942e-01
-1.420709915696046099e+00
2.682332870283571369e-01
3.198855225826776061e-01
-1.256309230621328155e+00
-3.903234580385037122e-02
-1.339161826914510467e+00
-2.848597107180987908e-01
3.070212860784327091e-01
-2.024769331531303673e-01
-8.839135077892228409e-01
1.394367965624522698e+00
7.562724413764526643e-01
8.161878144961061121e-01
-5.869434104483399750e-01
9.989056079862601578e-01
1.414474673458646359e-01
-5.748656625613585147e-01
-2.733526471765004739e+00
-1.254411615407650782e+00
-1.896595293024075257e+00
1.054961774674406438e+00
1.476573307870403529e+00
-1.137463496548637876e+00
2.166608555772342459e+00
-5.476794482592092228e-01
-9.643280845876462948e-01
-1.028466623040850125e+00
-5.953867695590902009e-01
7.534841397254278261e-01
7.646872407485407752e-01
-1.795086973118038998e+00
1.324833092876859242e-01
2.856761366511956224e-01
1.610578868956159260e-01
1.457178626631720597e+00
2.408071345708705235e-01
7.826234346795900576e-01
-1.844052598543662880e+00
3.794616063225012548e-01
1.049684891687514554e+00
1.114996056482298603e-01
7.794694843492733227e-01
8.226562559117950313e-01
-1.952502829284779307e-01
1.564903636798729500e-02
-1.781758522998623029e+00
-1.207667904219386301e+00
1.174420817538942563e+00
6.018266819622496433e-01
2.483006636951266000e+00
5.630589276094266626e-01
1.786705940718975816e+00
-8.668053900732350936e-01
-8.156358029063608406e-01
-1.270233565451752034e+00
-9.953302424539363091e-01
-1.480755468382163598e-01
1.224384961772480684e+00
3.011346182399413651e-01
-1.793808390788152352e+00
-6.565845729355448968e-02
1.282478761232951792e+00
-7.387900211235118864e-01
-2.192132025506312032e-01
-5.241696564599064578e-02
-3.176983931651596871e-01
-8.691017920701809008e-01
9.489288789978489458e-01
-6.608487586068655384e-01
-5.809404602444659949e-01
9.820846469057541439e-01
5.494871244258838772e-01
3.450209562801677121e-01
1.006998785715759459e-01
-2.438340346151619820e-01
-6.028196607094522819e-02
8.983522263632912619e-01
1.080105310206728397e+00
5.257518684761392641e-02
3.602951268392538542e-01
1.423021207190486859e+00
-1.085569154273014592e+00
2.086610655832382921e+00
1.411730615323839144e+00
-7.039034459455049131e-01
-1.073634090002467262e-01
-6.434157902794613859e-01
4.984586851093646409e-01
7.660197244747396494e-01
-1.441241132295957961e+00
-7.309051090557956432e-01
-8.017068366620037079e-01
-4.028028428628753765e-01
-2.839553151691517341e-01
8.269889153381120295e-01
-1.083621972724348348e+00
1.339097181448550611e+00
5.413094402424036833e-01
7.856338408835975007e-02
-3.898762511862365332e-01
-8.132525917638849799e-01
2.295311464252750566e-01
-3.694230584375007842e-01
7.548385973187906606e-01
-2.217407439104134362e-02
1.031077768071190004e+00
5.577956368824159572e-01
3.511572244448016855e-01
1.419126660031973068e-02
1.073596266569703639e+00
-3.640171128573939652e-01
-1.541369665909137154e+00
-6.179225990460063267e-01
-3.074855245331911124e-01
-1.199245970013176565e+00
-5.173420814183028460e-01
-2.452312405571995257e-01
1.881855673789315786e-01
-9.824325988651494423e-01
1.472561348097261247e+00
9.252684138026088245e-01
-2.471070732358575106e-01
-5.818650602870163446e-01
1.719244681284814724e-01
4.662900126986668226e-01
1.106938439150050080e+00
5.470047056543273500e-01
1.015243679771402174e+00
6.274888014134908376e-01
-1.660009562236837433e-01
-5.551420699597421349e-01
1.394921227597882840e+00
-2.540362134600957639e-02
7.669089013677636568e-02
2.792175905130322988e-01
-2.899132302167818365e-01
9.880198166453976194e-01
-5.117605911346769787e-01
4.563149396521696266e-01
1.754769055805611488e+00
-3.593955749329106886e-01
4.177309190755025825e-01
-1.680691884797649305e+00
8.423119551067442812e-01
-8.514656546122016945e-01
-3.301912157890736776e-01
7.582740540478318803e-01
3.904096851727126838e-01
1.008454811332914147e+00
4.649679366116471479e-01
1.601090773874167095e+00
-1.022305827629805375e+00
-5.355447101476579208e-01
1.027146519043240502e+00
-1.588691976723694665e+00
-3.876780106427636929e-01
-7.978022363711165799e-01
8.988680602624340432e-01
1.627542105287905105e+00
-4.764634491379503012e-01
1.456594502185510676e+00
-2.898022414469184627e-01
7.494306096162208775e-01
-8.029367630359233177e-01
2.029601167577740561e+00
-5.136927626286195148e-01
7.251115454608531019e-01
7.016339864539831161e-01
6.423700031476717864e-01
-9.503546257925871155e-01
-1.947522545138007100e-01
-7.592271112850507153e-01
-1.125112585568380563e+00
1.047121892577416169e+00
-6.957709115395658284e-01
-7.320811074487861836e-01
-1.377844477192919248e+00
-1.111737313232082691e+00
-1.384550173655431093e+00
3.162202095596506335e-01
-3.676963968334206467e-01
-1.328257334023673630e+00
7.026081272866354643e-01
-9.474761978420617736e-02
9.752909972302421515e-01
5.038871689539540233e-01
-4.110279494114582599e-01
6.057323134912426937e-02
-4.622643951817707597e-01
-5.976633496118025635e-01
-3.728096178843783859e-01
-9.014330837350806869e-01
2.539370986822743759e-01
6.086493364891055330e-02
-1.304369716078616515e+00
-3.659917907569472106e-01
1.676857305276572840e-01
2.145749792892324148e+00
-3.047375583106127772e-01
-2.330705012103071253e-02
-1.500124920408929308e+00
3.765234333323761451e-01
2.792482397489791102e-01
-2.681596985093067653e-01
-1.867267568850240256e+00
-6.946881467663170717e-01
-9.291220084686506731e-01
-5.203141837530784741e-01
-6.690828309559003761e-01
-5.822791107082467832e-01
-4.595365252207734286e-01
-5.464056968333238368e-02
2.840002966869847323e-01
7.451778274020046666e-01
8.914007817012269408e-01
-1.580605081676842438e-01
-5.071067698829293535e-01
-9.431493210556489426e-02
-2.269223634219062480e-01
-3.799915502634810816e-01
-1.551587589950870205e+00
1.795091533576770185e-03
-2.645605016471087867e-02
-2.358171042216935742e+00
-1.164679662847897479e+00
-1.407189676721156468e+00
-1.878505853383368951e+00
1.020157391975066830e+00
1.460361502739675688e+00
-3.354247228714330453e-01
-7.564481426317050394e-02
-2.841951104519597759e-01
3.323542727293131716e-01
2.287881022886340820e-01
-8.556412940715781845e-01
-6.145464399497828634e-01
-5.177602452170935177e-01
-1.246550087345302593e+00
5.635701511891966220e-01
9.799134561547433175e-02
3.598974014546540978e-01
9.726393477200878657e-02
-9.719702848231555059e-01
7.084576221416868380e-01
-1.665681513317446072e+00
-1.026297349731652764e+00
-2.045986316406186667e+00
-3.373147573036304747e-01
7.701748094506046804e-01
2.653615579883614184e-01
-8.980890549632837561e-02
2.599933050023625070e-01
2.269579166028800610e-01
1.525889929199238271e+00
-1.163882128491398271e+00
-1.926151375576266866e-02
6.881794695065498457e-01
-5.462535574011520012e-01
4.086050519732179614e-02
4.733194502228182943e-01
5.045246149617901299e-01
-1.231862964236839053e+00
1.332140965700849611e+00
-1.608150495302006711e+00
1.861534902223165089e+00
-1.454053916986784101e+00
-5.653826889038966463e-01
-1.986535044838837194e-01
1.022689232338203080e+00
1.990918508939531761e-01
-1.140158994259013792e+00
-1.548622859188490297e+00
-1.580657182927917237e+00
1.493111344651115446e-01
-6.784105692593981329e-01
-5.602592252014783059e-01
-1.970912951034460514e+00
-1.636727790768255086e-01
-1.437156799217292891e+00
-3.860868094546252016e-02
-1.050288843588857574e-01
-1.639957638708253507e+00
-4.768555213278739824e-02
-8.511541198813731279e-01
-1.157649563451298436e+00
-1.217014866525412797e+00
1.738939469555453865e+00
1.665542771482143025e-01
-6.680539616476636189e-01
2.140667457266149931e+00
9.649315059616877521e-01
-1.900659957527444988e+00
4.161385353731476000e-01
-7.601515941180008173e-01
-1.139928486061467350e+00
-2.527348976868518671e-01
-3.353596514660232147e-02
-6.885135702187185069e-01
-1.903801975052715978e+00
3.535695041855181353e-01
-9.428528922903418596e-01
-1.960920496887379461e+00
-1.572304032149517861e+00
-5.521113028695863179e-01
-1.984995120763741072e+00
1.177025091595803152e+00
-1.643816398193610029e+00
1.460453892808824206e+00
1.674055625503243216e-01
-1.633087992208113626e+00
1.497040926796434079e-01
2.702279402861805124e+00
-1.481734355807459824e+00
-2.196381367053158229e+00
-1.853208796257769020e+00
2.633998738980035004e+00
1.590454565813752552e+00
-3.234088788087273181e-01
-6.226345304852455298e-01
-6.432885260492130497e-01
-3.065653684450266869e+00
4.827935824137780801e-02
-7.167993195759796432e-01
-6.828335491999339979e-01
-1.335616922388050298e+00
-5.106827105413380696e-01
-1.634594769651576351e+00
-2.082959128101089519e+00
-7.664014639510738913e-01
-1.254860389214383254e+00
-4.146041466982923751e-01
-8.963839393255081944e-01
-5.700228970071923307e-01
1.891084874742268385e+00
2.115134290052114729e-01
-9.988364556293609642e-01
1.080142802697987126e+00
-1.363079640320554453e-01
7.410688259585080928e-01
-7.352749167930792140e-01
1.288579849025359048e+00
-3.557894468158634971e-01
-1.904819513572570511e+00
-5.076878274547558245e-01
-2.621493786734404807e+00
-7.933322181173000365e-01
1.116587894937761893e+00
3.195802139606416792e-01
7.180151740308020614e-01
-1.818311713734879209e-01
4.331632625069068987e-01
-1.129175810831035243e+00
-7.163342602555116123e-01
8.725894618440004358e-01
-9.981857829067181109e-01
-8.767260502633050789e-01
1.433920800606632184e+00
6.461302531075800992e-01
-1.357156369838606658e+00
-1.644812705167001399e-01
9.556720559750656596e-01
-1.184528521876867080e+00
-1.802176042692364977e+00
8.504589562747207898e-01
2.020164490978657579e+00
-1.279869920875535867e-02
-1.864292424732499204e-02
-1.061984698202088628e+00
-1.073620006106432573e-01
-7.913063426803964573e-01
-2.680271823132762687e-02
-6.033311247708513791e-01
-9.764479042885948479e-01
-4.763837510345053095e-01
-5.777781996777765494e-01
1.500194388145866808e+00
8.936039638296743304e-01
-2.734992292921529788e-01
-8.655150980442346542e-01
5.785653195890112510e-01
-7.105254688320779000e-01
-2.047877605057517592e-01
9.118253917724214452e-02
-1.358192170005833033e+00
-1.350061539358357932e+00
-9.813138498683705579e-01
9.976338503685728831e-01
4.833880632438531944e-01
-8.824643144163386577e-01
1.810069313597543472e-01
3.207821303858351403e-01
8.877739102227608647e-01
1.279574338977492065e+00
-3.219489100730245634e-01
3.560709040785211554e-01
6.311521485401195841e-01
-4.134918612542562433e-02
9.573508389597927548e-02
-5.530626963884155423e-01
1.996134054815725145e+00
-5.562509329194502694e-01
-8.793608136802043285e-02
-8.420131937581715187e-01
1.451436066781058409e+00
-2.093090930221015888e+00
-8.632518793734982321e-01
-2.603238304617112031e-01
-2.087350358716073551e+00
1.533137331412573467e-01
-1.166008531040382712e+00
1.227859474736979983e+00
9.843079221378239207e-01
-5.320908721272912256e-01
8.979645744765795135e-01
1.307116324131641250e+00
-7.032780201403914244e-01
1.984346746040723142e+00
-8.937142566749040062e-01
-2.613240197919934893e+00
-4.074296635431188252e-01
-8.968054504666979065e-01
1.520489086507477994e-01
7.104723642726280819e-02
-9.093406584212084809e-01
-2.542801601283757318e-01
-1.784503516293645342e+00
-8.473600483424341689e-01
-1.066974265289244883e+00
-9.900160173055847501e-01
-7.681786767438537611e-01
-3.332959009521673233e-01
6.688660459338582331e-01
8.553084631129557192e-01
-1.260042378946121255e-01
2.111456175027749183e+00
-2.024997347151099358e+00
8.710562765540601493e-01
-6.621835761072489834e-01
-1.849061820862572814e-01
-6.180179687873872396e-01
-9.552564386474616809e-01
-1.912904256396326774e+00
-2.651975245744436216e-01
-4.620984157597989306e-01
-1.490766609315802738e+00
-5.254864372237775250e-01
1.300642986565230252e+00
5.013550627468049692e-02
6.011755841799604205e-01
-4.030400460505130789e-01
3.225614139045589190e-02
1.139003769496993002e+00
2.944747486493544120e-01
-1.250440301626616124e+00
-5.816306774302193450e-01
-4.364959438845992246e-01
5.049203261897025063e-01
4.689549194147581423e-01
-9.906024741783013843e-01
-3.042681517207054265e-01
5.464240907692424765e-01
-6.152364332320593432e-01
-1.092076123336042093e+00
-1.768750870406102238e-01
-1.246819905040946530e+00
-4.957692840847056082e-01
-1.048625948766391591e+00
-7.527972092890310440e-01
-7.254068546245655280e-02
-1.505959934512013154e+00
6.131459968325728704e-01
-6.239207181721542206e-01
3.551342857534096620e-01
-2.015462397795830807e-01
-1.392724758918316708e+00
1.437420341808523794e-01
1.576078636791739207e+00
2.310381396456882008e-01
6.052705495014318871e-01
-1.422194371040654381e+00
1.854600041374123043e+00
6.420474678438988780e-01
-1.594229999498032679e+00
1.306864868374658928e-01
-2.594650873924514434e-01
1.369083328454166748e-01
3.931243827468338559e+00
-1.445879647016955705e+00
-9.386919018872439402e-01
-7.850240649601126774e-01
8.650944615256296322e-01
-1.840420379718333554e-01
-1.713768274730538055e+00
1.244890146564891609e+00
-4.506600096677734202e-01
-1.297457046225983346e+00
8.868642601599183717e-01
5.752731203957880401e-01
1.571612631918085867e+00
-3.146359496440341297e-01
1.312957797832861040e+00
1.103424599188130850e+00
1.337889496734967765e-01
3.088206448292041273e-01
5.708026419977794141e-01
-8.110463975220368882e-01
-7.482298097650651458e-01
6.260290264904609936e-01
-2.520100499048366638e-01
