-1.332170864074374794e+00
1.322707384405418241e+00
-1.922032476149201141e+00
6.702467467258774736e-01
5.776749573554200712e-01
1.474335478896832141e+00
-9.734509126096912990e-02
1.854815509979776289e+00
-3.254457161270882248e-01
-5.052871315804672303e-01
-4.372946268824559057e-01
-3.493023156015612196e-01
1.532028940601323663e+00
-3.666342972802897893e-01
3.703011623916820372e-01
-1.295890338455952806e+00
-1.504226776028543933e+00
-3.077853917876382517e-01
-1.135721980354131716e-01
1.314835179184464520e-01
-8.131228406856061408e-01
2.618745563514702779e-01
1.093483198129236111e+00
-1.390998958474296276e-01
3.413788003840068086e-01
-7.480420887497060134e-01
5.239377427273219645e-01
9.147426621146755865e-01
-1.942988342742150598e+00
6.074463936147121990e-01
-1.061021628266686889e+00
-4.129200533095443437e-01
-2.339742726825176922e-01
-6.214356208235666257e-01
-1.533161322254732450e+00
-1.965770989207093367e+00
-8.662115811359192286e-01
-1.673927616119657458e+00
-1.594102099779056925e+00
4.727779309293573262e-01
3.531028176022264486e-01
2.362863743638047076e+00
-3.166980710301472435e-01
-1.384772879090636843e+00
1.515939554692860458e+00
3.294352407643572622e-01
8.626382948189217359e-01
-1.222846900907077261e+00
-7.750033972122125636e-01
4.269553099834288989e-01
2.063245680163799278e+00
1.712583998075654090e+00
1.151378536136295816e+00
3.779126669880942258e-01
2.605635405470653199e-01
-2.430059236719577243e-01
2.485566857116507489e+00
4.137313026188991216e-01
-7.421846475347888550e-01
2.912516769436850339e-01
6.898557396431258537e-01
-3.210755064250453428e-01
-2.332199593126201009e-01
8.200241263558110116e-01
-1.048176835118557748e-01
-3.353958030107863642e-01
5.554184742991533641e-01
-6.973823630688468223e-01
9.377723167438100083e-01
-4.403952185567684419e-01
-3.277528987828182694e-01
-1.662542580744871490e+00
-1.360955094408768717e+00
8.797178302914057113e-01
5.018677057436878863e-01
9.770320935155144548e-01
1.320804018472018893e+00
9.999006993532192356e-01
-1.007884152645902809e+00
1.134902662506591942e-01
1.148418433107161407e+00
-3.997999131302826803e-01
1.125575095309672147e+00
-1.151738391292865149e+00
5.792386793071688800e-01
1.205845159136816669e+00
-1.292977907144138072e+00
1.042504003007751257e+00
2.149367140881095484e-01
-1.775807216682982803e+00
-1.799564013459367118e+00
-2.666160987373817348e-01
-1.882675264359447542e+00
1.165044733924349263e+00
4.363249734465913798e-01
1.172978549643225732e-01
2.874930396189710399e-02
-3.346624591736831883e-02
-7.077172057864897781e-01
-1.095462671783902442e+00
-6.269981695988113835e-01
8.940443756041869250e-01
8.972381135069020797e-01
-6.417878910154288796e-01
1.261781179102725359e+00
1.261718800178529776e+00
-7.132557144862073928e-01
-4.185146669280369047e-01
3.683694752419400809e-01
-1.276153743624406145e+00
1.487918626971681757e+00
9.267061270363610159e-01
4.853472012176395789e-01
-3.620426305320677551e-01
-6.271086941167283713e-02
-5.352703930392551657e-01
-1.101673822919364110e+00
5.474706965482314391e-01
-6.644824052361376632e-01
3.222624520841783635e-01
-1.583764518750462591e-01
4.593589619662415413e-01
8.309690819555750618e-01
2.780914171168336613e-01
-9.163354857887175131e-02
-1.389864957127556533e+00
-1.179195826809838477e-01
-8.784381964112296659e-01
-6.155964068614263596e-01
-3.367856726937074052e-01
-1.083035494109518826e+00
1.637491867617149710e+00
-1.165218757179385500e+00
1.362961579954435898e-01
7.886149323547171353e-01
-3.068944892891194848e-02
7.383126922497186273e-01
6.600342169999304787e-01
-5.340217902793340521e-01
9.210036222532949068e-01
1.307234230853502113e-02
8.510896695966089220e-01
-5.685428100098740556e-01
4.962654516705902741e-01
1.061724124813209214e+00
6.534338531686770257e-02
3.079036509476905659e-01
-6.569666308662353016e-02
5.689913774072921093e-01
-9.670534035932091266e-01
2.033341302391870609e-01
2.502833682006448401e-01
8.663375293910796637e-02
8.510203585978556307e-01
6.557931638643453853e-01
1.742160965811934137e-01
-2.511943092759691964e-01
-1.604713687045386417e+00
3.340547521552412746e-01
-9.506632851752740976e-01
1.880948041871763010e+00
-8.506478083613062680e-01
3.224446784845445557e-01
1.650233558582799631e+00
1.228289918407774461e+00
6.333157815626273557e-01
-7.687352770013090586e-01
2.579959825493373660e-01
-4.006362535192822261e-01
-1.798543597364276936e+00
2.210771530124211459e+00
4.317150629845936671e-01
-8.016595786658182732e-01
6.158509835536660759e-01
-1.013117893582519358e+00
9.027660600191799167e-01
1.138840165834503759e+00
2.996286630344593416e-01
4.797678043161202610e-01
1.958021637823126992e+00
3.149265178566509893e-01
9.081202914601782528e-01
-1.087126763849934230e+00
-1.933852340685320303e-01
1.185855729882070220e+00
-7.660990271225124326e-01
-5.842074114478349456e-01
-5.050388324359202930e-01
-3.991504409339402537e-01
-1.325211716469658185e+00
-1.240883154273062505e+00
-3.886529841174363176e-01
-1.652073254527298626e-02
-1.326251832724157920e-01
9.932482757366664083e-01
1.186936050719039182e+00
-3.223778497537848620e-01
1.182223668978082676e-01
3.453244559275286396e-01
-8.227033008100348432e-01
6.409511051034070261e-01
-1.934873363247382738e-01
-5.422951004596042734e-01
5.844291058427734109e-01
7.295790719722349271e-01
9.456876844768801194e-01
-4.112364508023285126e-01
-5.811216070055220673e-01
8.070475326516285408e-01
-6.684046360953206645e-02
-9.148043631121166586e-01
1.336216733526660594e+00
-5.605920140781237571e-01
3.400070182552532017e-01
2.408595781482610054e-01
-9.433876650182243528e-01
4.935703235490233598e-01
6.602567942733882367e-01
4.633153478344718690e-01
5.688333490877427456e-01
3.345742564401792407e-01
-1.058715319363935814e+00
3.711783773136882458e-01
1.931012732695032430e-01
3.965990882592201894e-02
-9.438810184839732109e-01
-1.679697354253696817e+00
-4.258256422510324664e-03
-8.003003828480751425e-01
-3.448505327015984334e-01
9.975789507051031901e-02
1.085617722390798123e+00
-8.792788913588209798e-01
-1.728009478006185873e+00
4.064779297719621209e-01
9.438065787190355049e-01
-9.611841748085807602e-01
-1.456875692006345535e-01
3.392517257216485227e-01
2.441162651351835022e-01
2.708255516035852350e-01
-9.223957684726220574e-01
1.637415869805986635e+00
-1.665031498460086246e+00
-6.363549806715128598e-01
-5.584690618502554660e-01
8.442406937212953988e-01
-1.211373223391123410e+00
-9.846729554969501086e-01
7.238289874192886941e-01
-1.068741095436522404e+00
4.672002269727580370e-01
7.335410279938223144e-02
1.458843056187378306e-01
-1.663682636756803390e+00
6.502982429705197465e-01
9.258728598921018849e-01
-4.345138258682044730e-01
1.611026856114230243e+00
8.050075783873779367e-02
8.595153431887361251e-01
-3.668844541428041839e-01
-4.761619707291993575e-01
1.323051498191899489e+00
-1.485256018057913519e+00
1.801562830654235059e+00
5.216773116490958095e-01
4.214772360728145095e-01
-3.691168004363419630e+00
5.470177579878040541e-01
-9.549120091235947516e-01
1.998754966219708384e+00
-8.579415279504841729e-01
-8.854512973318495739e-01
-9.797058559450086968e-01
-4.093193428465525252e-01
8.264097273794025478e-01
8.009000375121548831e-01
-4.095565732447634111e-01
6.716069474259844796e-01
-2.580502006193324260e-01
1.247131374158431394e-01
4.631427316958156015e-01
-8.141107509603056069e-01
-8.482444008976024463e-01
-2.703650000251079932e-01
1.223983111043336125e+00
-6.965067182702011639e-01
-3.297004344061896797e-01
-2.657120885395031218e-01
-6.451600661580807194e-02
5.394264293559304368e-01
1.083822708117873734e+00
-1.762884231330346108e+00
-2.581972315676700491e-02
-4.485337157486735116e-01
1.697347701805842712e+00
-6.565493039016586652e-01
-1.213333885159506131e+00
-1.425703709904487804e-01
-4.117511491701656423e-01
5.914981487565851292e-01
-4.594599885774288545e-02
9.510417439439892151e-01
5.245489301068907428e-01
1.674987507127041753e-01
1.219560116256602766e+00
-2.270898159472717559e+00
1.021135718274400750e+00
-1.178954994726551853e+00
4.592548005177455872e-01
-7.300344776029120686e-01
1.117788414325034063e+00
2.398545922808371644e-01
-1.370018598328758497e+00
-7.718530182900722181e-02
3.392678375218585729e-01
-6.377293357151983533e-02
-8.996736850896183135e-01
-1.139132941698055790e+00
6.713230625998356516e-01
1.038397555656039417e+00
-4.001041608064952460e-01
3.137524960699935583e-01
1.246488954135876348e+00
9.414309900019098842e-01
1.264962234255019524e+00
-8.148454902978617964e-01
-7.829256163269092683e-01
1.658083882234004269e+00
-5.038165435096928491e-01
1.448807621622104858e+00
1.402804903480065146e+00
8.089550713113630165e-01
-2.580298418843010033e+00
-3.134315771584758603e-01
-1.727821708911804865e+00
-9.504482336419840527e-01
8.374163956183329205e-01
-1.846522897519635498e+00
-8.239220850090397397e-01
-5.051016816398302689e-01
9.948044292361671870e-01
1.872945613079635419e-01
-1.036617054531317805e+00
-1.779819084341083490e+00
9.110104554060198812e-01
4.156062943936481013e-01
9.251671421561418196e-01
4.035912246729974062e-01
-3.002370305710951648e+00
1.063202706768929667e-01
7.516762497286219591e-02
-4.927536847348484850e-01
1.790167771149774545e+00
-4.860673555204320651e-01
9.091538979413851251e-01
7.825375197139478045e-01
-3.848670571530028450e-01
-1.430717596324008634e+00
-2.924551318297980429e-01
-2.958717630493178374e-01
-2.732558578946137295e+00
9.011044823714063901e-01
-5.249992938910607032e-01
9.219726617467512986e-01
-9.583523516516686547e-01
4.502673850714821180e-01
-1.214240172625702829e+00
1.216436202896436225e-01
-5.689975010473911909e-02
1.323643860286786156e-01
4.331278035031445317e-02
2.288845984710929038e+00
-5.575813649778722514e-01
7.556697477939980923e-01
-4.930741215809809064e-01
1.317294095908303708e+00
-7.363732996025883493e-01
6.328915168468617347e-01
5.732082061775742865e-01
-7.188345497980680454e-01
1.425714198025918034e-01
6.217982746375709802e-01
3.532166523360203980e-01
-2.519290464444218225e-02
4.870902318943445275e-01
-9.274200409559574254e-01
4.748556663927054611e-02
3.448111750470091857e-02
-4.325770758729154640e-03
7.531625324148502054e-01
-1.236841848566666568e+00
-3.231940027544685234e-01
8.889027549933787853e-01
6.798006680920208877e-01
-1.890378682354134088e-01
4.857604434072977928e-01
1.405137767983807517e+00
1.225273494474544256e+00
1.482867175092800638e+00
-3.639442781128028326e-01
-8.811779318827722696e-02
-4.937683893289209203e-01
-2.703814002349408163e+00
6.228523778108217002e-01
1.156297454361234545e+00
-3.083653631338104106e-01
1.017478454326199655e+00
1.570481435625553646e-01
9.509709941850224002e-01
8.508971533223963490e-01
-2.522844045755407105e+00
-6.123021034596645151e-01
6.154750825589833108e-01
1.749853477667439039e+00
5.443635107472404311e-01
-7.428363050094214382e-01
-4.367403706989349543e-01
-7.885810669546772234e-02
-2.275648509623488192e+00
-1.534725346358387643e+00
-1.106033796883330478e+00
-1.077381904907955962e-01
1.830665168152751932e+00
-4.681524682503017121e-01
1.160428615786413431e+00
2.352350919212514935e+00
1.012929148551904301e+00
1.015707536033803704e+00
-2.499786684741583720e+00
-2.230181117525068757e+00
2.110776570290807008e+00
9.546186305816647955e-02
1.010452676807430894e+00
-8.045736804244994766e-02
1.887191307665991191e+00
-1.944782521092597749e+00
1.265828479417147878e-01
-5.738528307318714328e-01
7.155241236365084134e-01
9.389441970254354397e-02
8.274412384276012000e-01
-9.296089620627275840e-01
-3.706066984784699425e-01
-1.239616834206958701e-02
-8.772359707039733001e-01
1.476128311327366827e-01
-6.134085812857577036e-01
5.640021045432807023e-01
5.408725471784200378e-01
2.061202677138891312e-02
8.346984347440668250e-02
2.024993711075345204e-01
1.553011664539108105e+00
-1.196275863743712531e+00
-1.941574517145769008e+00
-1.005818126676244928e+00
-4.547059187470599562e-01
2.717059371394014988e-02
-1.980267868434108403e+00
-7.135331796248590708e-01
1.483195820772082785e+00
-4.821797180375840819e-01
-3.927371361528260163e-01
4.779633595377999478e-02
-1.781973186659630892e+00
-2.899543380205222842e-01
-1.953581801965216247e-01
6.775191204828741043e-01
9.014401088444723431e-01
7.389410425290330320e-01
-8.309003385187607726e-01
-5.591044313212729655e-01
-1.944099712773423860e+00
-6.184815621158089582e-01
-2.620811568295751126e-01
-8.692316557535330682e-03
-6.104179136485617801e-02
8.945942564195341618e-01
-4.571028815532212075e-01
-7.036919765317755093e-01
1.821235666732645975e-01
-7.406435993661979467e-01
-1.489976416160519346e+00
8.661956603059283166e-01
5.634309349914301546e-01
6.863315299609140663e-01
4.592916844253654429e-01
-1.233571732119547404e+00
1.039914544808202779e+00
-7.666490720389764757e-01
2.698776947195645093e+00
-1.500322365404558100e+00
1.085766591389208280e+00
-2.289546796592320188e+00
-8.683004546136921520e-02
9.101178306796432471e-01
-1.175143535248273363e-01
-1.195115835660063297e+00
-1.144631634072175608e+00
4.934386548238276632e-02
1.370645931187312261e+00
-5.689754318025654900e-01
9.477689593863666828e-02
1.628108454726682197e-01
-6.708285363140089608e-01
1.071187932313548474e+00
2.396574607746238261e-01
9.706072106196965699e-01
5.408987487961024465e-01
-2.092181682736661830e-01
-2.083506333339329775e+00
2.074803400955548938e+00
1.398754203479468883e+00
-6.343226102745855854e-01
-1.377383979445029549e+00
6.864359564893172116e-01
-1.872956556191709199e+00
1.093878577355119841e+00
2.470604113689308101e-01
-1.164280725754274659e+00
-3.984299134572434897e-01
5.063882949622060536e-01
-1.749764364270346151e-01
1.311587278077537277e+00
-7.216664282659442931e-01
-3.889753091886388736e-02
6.120520673554024071e-01
-5.280361142806703212e-01
-8.293085716011666664e-01
1.166309149130845269e+00
1.964534334697235485e+00
7.151196578227823064e-01
-4.912870466602476394e-01
-5.486421865633763773e-01
-3.355580547320771712e-01
-8.572134804054786228e-01
9.068969278108185428e-01
1.893573526621338543e-01
-7.677901657369894384e-01
-1.830985555271705367e+00
6.714952179112205766e-01
1.600750643582189880e+00
-3.899149786005146612e-01
-1.031443247776911709e-01
-2.238822697608534029e-01
1.162574946735755343e+00
1.303342181208265727e+00
1.666736982142548618e+00
-1.756507425602715333e+00
5.690498592025652336e-01
-8.186701609364233773e-03
5.194643241027439018e-01
-1.749103408074818566e-01
5.967631328044490369e-01
2.827469508821641164e-01
-3.465161366755825645e-01
-3.703169968097029807e-01
-2.184663567635908576e-01
-1.181075607791976623e+00
-9.736588702400226225e-01
1.357912209801408032e+00
-2.319848222918119873e+00
-1.695255372043737996e+00
8.692534133604537527e-02
1.390295140591599532e+00
4.265660192994660260e-01
6.039488301725252084e-01
-1.043698248178893673e+00
2.259778020321054348e-01
-1.409298138505788556e+00
1.426406129632779018e+00
-5.512003842006334420e-01
-1.881537109390766460e+00
5.790526721632162088e-01
-1.067432430715701042e+00
1.700526089312320188e+00
2.052500666598157386e-02
-7.798405403559122151e-01
-2.234781457466872845e-01
-5.866990000547386286e-01
-1.679621510428740638e+00
1.041959449762579260e+00
9.028381324642186234e-01
8.482057470799917454e-01
1.068330317341443791e+00
6.520371163052376406e-01
-5.808311834075845503e-01
-8.680172210906991204e-01
-4.132305552713250868e-02
-6.538096762976411958e-01
2.070891443504840446e+00
-3.815140064143449639e-01
-9.054701067539798753e-01
-3.999546797572589574e-01
1.144492134966375474e+00
9.037912427534626134e-03
-1.353624282408705914e+00
-1.284747558542076007e+00
-2.939303973508240395e-02
8.026623359711117234e-02
-4.221225745689120012e-01
4.542168460797733620e-01
-8.661330552543604622e-01
1.993024219156642518e+00
-1.301957755231815117e+00
-1.103494804426075282e+00
-8.173862119135588689e-01
9.091899812173576123e-01
-6.362217380087644703e-01
-1.726665682737944740e+00
-1.172986174996998088e+00
-6.261270815191239958e-01
-3.944133328264183280e-01
-4.236419108409332224e-01
-1.229348661770524780e-03
1.417727963833745441e+00
2.360601824109210822e-01
5.887108136602932085e-01
-3.935930757149167653e-02
-1.424864255867756446e+00
5.655769405182580201e-01
-8.931678588861594048e-02
3.362260501089825437e-01
4.880012368006285683e-01
-6.208245804727862138e-01
-5.619580119156062370e-01
5.456478236388454528e-01
-6.162057202495281327e-01
1.957500875523973949e-01
-1.805818971481033319e+00
1.060248701662043658e+00
-7.925001814017996749e-01
7.822004946430500816e-01
3.015651472262747546e-01
-7.013830219848356251e-02
1.246559471450229717e+00
1.934075537174611767e-02
-7.271449381611776452e-01
-4.825819130750507169e-01
1.477477947285657844e+00
-4.425540126276950592e-01
1.345596682300386447e-03
-1.852535035731377011e+00
-1.803768058969578814e+00
6.647714405424621775e-01
7.101228829741317028e-02
1.629402503926254520e+00
1.072667162715940981e+00
1.949936427735940447e-01
9.580673981074877554e-02
1.460806243435100737e-01
2.130069525646999529e-01
-7.857707714241829455e-02
-1.236588951951961501e+00
2.701179918913583222e+00
-8.692003942857950971e-01
-1.052749068055814252e+00
5.450360172116124335e-01
-5.569991407919057114e-01
-1.006990755634101786e+00
7.977635285702487922e-01
-2.484575170920603018e-04
8.149808130186347865e-01
-1.389456958942617337e+00
1.198998315151393212e+00
-6.115928823065476250e-01
-2.113190220469317371e+00
-3.430235386514483564e-01
5.736422970574349689e-01
1.706001552570017843e+00
5.964969679802015756e-01
1.491088984835835518e+00
-3.855998124355662360e-01
8.847837505648202538e-02
9.439938445026161418e-01
-6.643951374587253600e-01
4.922156297083271070e-01
-4.228986064869719175e-01
5.606916177998377132e-02
7.900252334453745640e-01
-9.646839273072826959e-02
-7.841150177131501753e-01
2.783680958195918209e-01
-1.616323746574761300e+00
-8.567331602030164861e-01
-2.804122648909233018e-01
-1.115495066086044540e+00
6.125667240020589155e-01
5.605608483032696876e-01
2.023649007064610039e+00
-2.717317590738257405e-01
7.942496413317586823e-01
-2.901286180543305449e-01
1.457563449698908054e+00
9.395226407075973896e-01
-1.895727184874419491e+00
-7.829781014334252776e-01
-1.260926098679057972e-01
-2.786758859853305514e-01
1.611766309288615862e+00
1.151554373143515164e+00
9.529828010023104756e-01
-1.133220034558619416e+00
-1.840354346519983419e+00
1.392749316821258576e+00
5.172398970616687297e-01
2.191599477758821857e-01
-1.060423532671198217e-02
1.664061817458945880e+00
-1.674447318035380272e+00
-1.333427781274499457e+00
-9.012458471071295163e-01
-1.677165435536501992e+00
-1.864736935164163611e+00
2.803176310276427774e+00
3.547251865292531114e-01
-1.665433751735707069e-01
5.564371716570113424e-01
-2.085520750132415113e+00
3.129770752905312592e-01
1.603333026221733792e+00
-3.892939327923945481e-01
-3.466028857231887583e-01
1.163598165497935044e+00
8.659520719349508289e-01
-3.760613421860257155e-01
6.552522497159486425e-01
-3.926443930260128390e-01
-7.771884591475440862e-01
-1.710088354178479708e+00
-1.054857998764331395e-01
-9.718091697022458730e-02
-1.022724748182047838e+00
-3.674158282993159053e-01
1.984516183694301494e+00
-4.395039058459278003e-01
3.042880826711885645e-01
1.131967019006660857e+00
-3.372794944085159563e-01
-2.223347637036250823e+00
-1.150643017706339810e+00
2.685908515517674844e-01
8.592789046425184374e-01
2.565479508789307930e-02
-6.901966869379017044e-01
-1.371856661365647989e+00
1.153710979863739272e+00
-1.127515925983520351e+00
5.438063150786535127e-01
-1.609854908412837515e+00
2.843284419543782859e-01
9.253140645821088528e-01
1.074251003454274045e-01
-7.556645901986023262e-01
1.245024105766294076e+00
-5.175164383237161880e-01
-7.313870834189274417e-01
2.700865232304375807e-01
-1.455614623533481700e+00
-4.053919979176048849e-01
3.109542843871170859e-01
1.200457371768657078e+00
5.616123960070479315e-01
1.326936509536219555e+00
-8.547730184404548348e-01
9.269470401575405916e-01
1.699353687350900977e+00
1.971487267974075114e-02
-7.611851905854116751e-01
1.089586082205551198e+00
-1.335685306087677660e+00
-1.589225932914894557e+00
1.332116396334165863e-02
7.946851987423692032e-01
-1.612214097956938819e+00
-2.429563696962942387e+00
-1.649276815666683438e-01
-8.552544680812488309e-01
3.350127444870200089e-01
6.397137541686531703e-01
-1.623901040652609762e+00
-4.857190411564321075e-01
