-8.404523885034841379e-01
1.997260388056291136e+00
-6.537734095522820255e-01
2.246862504412106276e-01
-1.558966297758435371e-01
1.697644563238821791e-01
2.042223395614508608e-01
-7.438083647657098840e-01
3.025316313923148703e-01
2.758545482925882641e-01
-9.049002269104102769e-01
-3.468211847812405213e-01
-5.961584773586098285e-01
7.118370700633530612e-01
1.371033127398708862e+00
2.859511523933677690e-01
-6.936671830889524770e-01
5.034859466664651784e-01
8.967144461392573263e-02
-1.665414815660142822e-01
8.976867670341682759e-01
-3.433620468936557368e-01
4.694648129147598326e-01
5.378833951422028470e-01
1.347280122165007421e-01
3.844778720778620484e-01
-1.341745659396998303e+00
2.574394095858524301e-01
-1.173191793482141643e+00
4.790915584882912692e-01
8.424921026084029874e-02
5.753421054992478023e-01
8.611036416804821458e-01
4.720193469048919455e-01
2.196389749689104054e+00
3.570625635528922870e-01
-2.489736690660099838e-01
1.328915567037286527e+00
-1.150860348712387848e+00
-6.791884384775724870e-01
-1.327791159726489978e+00
-3.780364429512952928e-01
-1.011808497811937047e+00
3.212808719070148200e-02
-4.579543334089670736e-01
6.980633874796529081e-01
-7.059099687742512730e-01
1.399694597294165010e+00
2.104309929799250967e-01
-5.701897762078335097e-01
9.296074165487688834e-01
-4.698027061365466772e-01
3.778432495748787479e-01
1.851820840982058500e-02
3.634732466833278108e-01
-3.600479637335275429e-01
9.378682201312531497e-01
-8.875894584811608867e-01
1.486279470176894435e+00
1.325652633620978627e+00
-1.121599701599542476e+00
-5.509094984547076024e-01
1.305989577012138581e+00
1.868201556288231202e-01
9.669291947578062540e-01
-1.737047777127345705e-01
1.688097174595135863e+00
-8.457848877274706245e-01
-4.155412336332235945e-01
1.419582560807788996e+00
3.704042928564421633e-01
-7.283578482792267828e-01
-3.622364841921688061e-01
7.314958953914483253e-01
3.848749251475730437e-02
5.308475118173017204e-02
7.107785627464060507e-01
1.348825018218768212e+00
2.334694552474023688e+00
-1.515347844764433960e+00
-1.345162657848572252e+00
2.646131994610441684e-01
1.043617430153974956e-01
5.262997747157445172e-01
-2.495788985050803599e-01
9.565931617739763249e-02
-1.133826574439217083e+00
-3.810315531840919312e-01
4.563307466288089587e-01
2.922691485115529453e-01
-6.391825361891670942e-01
-9.755533286299175044e-01
3.983233702007983323e-01
-2.562793300303157773e-01
-6.363544775565628253e-01
-2.831665117899109796e-01
-1.922635663897236835e+00
5.290361624602325091e-02
8.169770644186830078e-01
2.897433324765081863e-01
1.257243304780602422e+00
1.019842083751969941e+00
-6.099503379316767449e-01
2.092529538352000951e-01
8.811480319290656560e-01
-2.396382847441299313e-01
-5.189689032449881223e-01
-8.680107905435788251e-02
1.587050787114548722e+00
1.857774529106438921e+00
-1.562969724539893912e+00
3.520915255998510740e-02
2.972364557448050823e-02
-5.153824413914003255e-01
1.043601569407562435e+00
-1.566611359253129165e-01
1.266953995719675596e+00
-5.517677316281388578e-01
-2.246162923858301685e-01
8.604647336623575393e-01
-7.829683318390920910e-01
-7.189025415346105286e-01
-2.985886841174642536e-01
7.169835902516816795e-01
-3.245652787255730587e-01
-1.580573751100847524e+00
4.317479625549813793e-01
-9.062629961859053340e-01
6.238266388295511389e-01
1.298254307452634704e+00
-7.643355817684795994e-01
4.570527924718560397e-01
-7.010294505668203113e-01
7.634227412095885290e-01
1.269814875377556440e+00
-1.749736594607609330e+00
6.456125111601228317e-02
1.195692690910046041e+00
-1.394292007706702696e+00
6.360545082011549445e-01
2.264923210061744185e-01
2.460916107366153405e+00
-6.041660026476057821e-01
1.800767159329991873e+00
-2.713543161164827300e+00
9.596362932446851346e-01
8.400622709354571560e-01
-2.237919539471615593e+00
1.919839504111220396e+00
-4.508907548441075108e-01
-6.713363394298003106e-01
6.805856370553879930e-01
-1.277201794617720543e+00
5.494846292564714574e-01
3.070861292209320359e-01
8.539787912629129840e-01
-1.722414505320868372e-01
-8.176542085566965712e-01
1.231467042075123475e+00
-7.900822500696221828e-01
9.643172540388293967e-01
-1.672229141009042852e-01
5.780054244935213525e-02
3.625864585927813244e-01
-1.406927974597367736e+00
-7.671413613883213412e-01
7.918255732893171306e-01
6.117355260482346679e-01
-3.434542973291661583e-01
-4.780760108952772924e-01
-8.793380582194988415e-01
-1.603469135330401474e-01
-1.909263222009582428e+00
-1.171607502018953362e+00
-9.376562458579489334e-01
-3.313452152821648178e-01
1.327381862950197000e+00
-1.325103306710058604e+00
-1.103793279686851703e+00
1.112542546119769549e+00
-4.382976643825445273e-01
-1.491659084485970066e-01
-1.512770051832529328e+00
-1.297453337595960488e+00
7.229855831397382637e-01
-9.197586123954041293e-01
6.633866404640130776e-01
1.217030872309998291e+00
1.264053418170089316e+00
2.517101607300765709e-01
5.301807255009122199e-01
4.307674663461594222e-01
1.664043974195898556e+00
2.828567004567353660e+00
-6.627470227395583224e-01
-7.533981540518429609e-01
-1.807502969269726645e+00
-1.635993157593488290e+00
-1.064154846583473590e+00
2.999948967035742098e-01
-8.837733619196747048e-01
1.307882409384589772e+00
3.509917418378094567e-01
1.185483121643174487e+00
-2.298611073526218018e-01
-2.028746344808063817e+00
-1.335184942620764925e+00
-5.989973860606785383e-01
-1.244588861240416122e+00
1.158571307377212589e+00
-1.044890055352329261e+00
-9.311700864067676275e-02
1.802990964539576524e+00
8.199701436997270942e-01
9.296283078953535561e-01
-1.982934370194392171e-01
-4.806763790591683794e-01
1.462401017454759478e+00
-1.105086365451445118e+00
-3.230374643617897612e-01
9.302194362011028117e-01
-1.118337532759720032e+00
-2.922444020428994760e-01
4.512971679523284374e-01
-7.382510046262215075e-01
-1.665043176125858615e+00
7.179241076956037748e-01
-5.888368474978231681e-01
1.327449608113189683e+00
-1.895018335038225754e-01
1.158450415440170023e+00
1.240613997956761416e+00
-8.311481292846230051e-01
-1.168379165303804257e+00
-1.026965074730443739e+00
1.097822644668787984e+00
-1.303178963172480387e+00
3.368283252652293225e-01
-9.350102019006663046e-01
-3.845833819023392608e-01
-7.633477201851632810e-01
-1.351953887245925578e+00
4.831212667365140101e-01
-5.882382633612696088e-01
1.529866559725619135e+00
1.621887672102640954e+00
-1.222600525630005430e+00
6.339457295042199014e-01
-2.421295691063401812e+00
2.440926994701739239e-01
-2.725906122513428453e-01
-9.268291927997801549e-02
-1.507058932879850321e-01
-6.024323794224457629e-01
8.416799607799979599e-01
-2.385762369355542700e-01
-1.202958093049582455e+00
5.959503658010645299e-01
-5.585372537929764736e-01
-3.557382626903743961e-01
-8.457542335601030414e-01
1.096397571481884936e-01
-1.283085754689921254e+00
2.581556862798507490e-01
-3.005073229343220853e-01
-8.930043303816302958e-01
-1.081192029314779646e+00
2.296793374926691528e-02
-2.462367415750513211e-01
-1.637415432333100718e+00
-9.327572151741307660e-02
1.210061061974835983e+00
2.049912610648093325e-01
1.127267315243279500e+00
-2.388470422398611959e-01
1.309650144965382179e-01
1.085998189586959706e+00
-3.293538583261327313e-01
-2.635420321525855369e-01
1.055179637879387622e+00
5.117363181257810201e-01
2.628939252443500685e-01
1.245826677577971164e+00
9.764958536104328957e-01
3.015790095495424206e-01
-1.158803355567963767e+00
7.812852086823297570e-01
-1.103934618061827466e+00
1.243473970697176023e+00
8.749379718345542400e-01
1.020825126658142734e+00
-3.235970542103659420e-01
-4.479585516553048485e-01
-4.066962216337751679e-01
-1.137553598987700587e+00
-1.339936533075072100e+00
7.299833330716581914e-02
-1.430064021646246131e+00
-8.273347434981079829e-01
8.498652137078746005e-01
1.100005556353680580e+00
2.295923731324855055e+00
-7.423668645590435489e-01
-2.219412001240056165e-01
-1.097217603559310639e+00
1.938484577633720063e+00
6.939919210802559801e-01
-2.710462737654686372e-01
5.915087846055401555e-02
1.240974871119102874e+00
-1.187450092611729735e+00
8.133709453292043978e-01
-4.323587617606873823e-01
3.054681354095900581e-01
-5.503914345598645008e-01
-4.290536533214528991e-01
-3.180591287836720404e-01
-1.507412159450727041e+00
9.919683051460788381e-02
-3.354611427677071933e-02
-4.642219252848221456e-01
-1.353352403332177323e+00
-6.556331238188800592e-01
-1.445035715482565264e+00
-3.451189953728044379e-01
-1.408887240219032888e+00
-2.187472044057200637e+00
6.238026684818986922e-01
-5.026677558720385464e-02
2.805396275950401419e-01
-2.248446097129477850e-01
1.487155447768505168e+00
-3.993500016547287257e-01
4.092216277347090481e-01
-1.301286842051490034e+00
-2.859236555270933122e-01
-1.363887797062707463e+00
9.421783006436827979e-01
-1.755515100730968836e-01
2.160817298728115177e-01
-5.091612145620600521e-02
-1.757853850422457676e+00
1.189729633048904334e-01
-5.493468339625038332e-01
8.120501183148531865e-01
-1.066562134746450674e+00
4.330068734091112592e-01
-3.486922416157564597e-01
-3.645280872937319838e-01
-2.408430194553257964e-01
6.919818689844123294e-02
2.716854568627283251e-01
-6.664407325392589510e-01
3.326303041030490709e-02
-1.062764856469446739e+00
1.025440544084269101e+00
1.636883816142396864e+00
1.127721135890497273e+00
3.987220512827173158e-01
-5.493812279841072677e-01
-1.425924442557557681e+00
-8.193737040376557479e-01
2.685866773461902945e-01
5.049151458391583080e-01
-4.080619144820007427e-01
-7.957273341090372043e-02
1.934246232273317267e-01
1.362442477056937440e+00
-4.079573741579904378e-01
-5.574505119051380575e-01
-3.755105853757469414e-01
5.226039736226244931e-02
1.330616031287664425e-01
-3.697355025559437847e-01
-2.377005049617316068e+00
-4.298447124199719638e-01
-8.470647386857580452e-01
-8.291246213857721425e-01
1.022189845296925942e-01
2.418035730550533446e-01
-5.199465037181121296e-01
-1.445935589936476751e-01
-9.192875500544828160e-01
-5.694772027695067795e-02
5.705696367645234357e-01
-8.347750141854997086e-01
-7.419597400690616240e-01
-3.868788415764907285e+00
9.362810411607962457e-01
2.806736704534225635e-01
8.804377080883372120e-01
-6.771801940324242430e-01
1.900719363223879244e+00
-4.808730944390349205e-01
-1.244964302666460437e-01
-7.400905522664799063e-01
-7.585439954344488367e-01
5.806907889173548165e-01
-2.011219751195011618e+00
1.589064918966016426e+00
2.268008104334094388e-01
-5.782797299731107232e-02
-2.147704669832284363e-02
-1.563664191789066793e+00
-4.150727333439240274e-01
2.541665525960179473e-01
-1.810494443193969571e-01
-2.783032439750622089e+00
-8.029314483960665605e-01
-7.172780703024899118e-01
3.602407901902149878e-01
1.237387282034483116e+00
-1.426024394809454199e+00
-6.966017039440957070e-01
1.011942082324395642e+00
-3.211942932911733273e-01
-7.651138520886862082e-01
-1.323427582239397049e-01
-8.102575277366503848e-01
1.136266338310981672e+00
2.292292521978243069e+00
-6.120753492434900522e-01
5.982921674341170615e-01
-5.419591910941986557e-01
4.002957134716256804e-01
1.134644099481665780e+00
-1.073136048815064969e+00
-8.712258401842114530e-01
-1.596003773630545020e+00
7.449802628963813067e-01
-5.016273632859573617e-01
5.333722914429606110e-01
-1.793502392444457527e+00
2.265996412522785775e-01
-5.125856511253292780e-01
1.662234255376997261e-01
4.966590250942520268e-01
-4.354816436880694086e-01
-6.705055250095111052e-01
-7.533421905729561496e-01
9.996003353953684112e-01
-6.768437663392641301e-01
3.759630159997876531e-01
-1.397931538317644495e+00
-4.223106639462873013e-01
6.842752045939793915e-01
1.456349158414593781e+00
7.756229401394545420e-01
-1.247247209586970884e+00
-3.816977568367734275e-01
-7.466400945978150794e-02
-1.406810421744233153e-01
-4.540678476861717550e-01
1.959550327668130865e-01
1.722546432575641773e-01
2.371400523014964568e-01
1.904319491781256035e+00
1.298931142656043258e+00
-1.905225872366274498e+00
1.357555447216010069e+00
5.088700798479555143e-01
-2.081941270646678332e-01
8.528487077309757081e-02
-6.311244703315115334e-01
-1.772205005568704417e+00
1.227653503202951468e-01
-9.684730543904766786e-02
2.107720619057723010e-01
8.977076493580147254e-01
-1.357571825822179612e+00
-3.931016895315347370e-01
-7.709584418107090498e-01
-4.374282429873965761e-01
1.054984468563565647e+00
6.231333273570994341e-03
-1.188479912069721062e-01
3.037479881501262136e-01
-8.444654604374443041e-01
-4.566322228376372694e-01
-2.657843163932851471e-01
-2.918972772135261518e-02
7.572031462795416612e-01
-2.511947073541146991e-01
-8.816651243830789797e-01
-1.821014817575991929e+00
-1.544738971134069772e+00
1.900868020210254028e-01
-3.401526546514059279e-01
2.533885648122438106e-01
-1.934403746027521853e+00
-9.044984710679191409e-01
-1.195883287806231710e-01
-1.447037127850513694e-01
3.424684934491441513e-01
1.170620331614190546e+00
1.133587516586298305e+00
9.403073702571724812e-01
-8.192993024603670849e-01
2.826430177852254921e-01
1.480132814113154005e+00
4.397977272413384764e-01
-2.618831086926733942e-01
-5.555953500965175179e-02
1.043551192112629700e+00
-1.697170081527779706e+00
-1.959213919126168157e-02
5.273317143056628353e-01
-2.441134514677139045e+00
1.942100802369807422e+00
1.441315842688133175e+00
1.571708750751927619e+00
1.625808050234328839e+00
-4.452084530961530895e-02
1.592741246831648860e+00
-1.086123031556268215e+00
1.098662713121848711e+00
6.926851837199599071e-01
-7.742852923826086808e-01
-3.706160241486235463e-01
-5.740920918789105265e-01
1.159253143969319000e+00
-8.698560276743398934e-01
-5.818477115572006086e-01
1.685997325991493323e+00
-3.848540908360243984e-01
7.489783403033728471e-01
9.375776349338701410e-01
-1.667371465368998329e-01
2.324997046871286166e+00
-4.157221444327354604e-02
-3.298284626644312767e-01
6.792749318043012074e-01
7.613810959763812614e-01
2.111676081383391246e+00
-1.743473100591320657e+00
1.207305857872861266e+00
2.000474950086128079e+00
-1.216499110730025146e+00
2.259744921461114053e+00
-5.778507623654252079e-01
1.935866723343028006e+00
1.552317104017755522e-01
-9.605582652342965766e-02
1.275080314610929300e+00
4.002153773545929494e-01
6.580654590024439532e-01
-9.911655894260384958e-01
2.747311033838883421e-01
-2.065624504762277880e-01
-1.830086966647238023e-01
2.860692089112095160e-01
1.140775972704820562e+00
8.575475628243371673e-02
-1.372177657507713588e+00
-5.721568522135085377e-01
-1.122835243560190488e+00
-5.027299690304627422e-01
6.546418758342130717e-01
1.592253172968840280e+00
-8.423814038421300818e-03
-4.920815802090119373e-01
8.636637200517446322e-01
-1.233264993432878320e+00
-6.766912367494483105e-01
-9.961244639703670245e-01
1.716483035335673590e-01
-2.513995891421718643e-01
4.072566291744108002e-01
1.020298418698128762e+00
2.561655705749599221e-01
4.139515456156254297e-02
9.498711960523332776e-01
-2.394963793488703863e-01
-9.698979386023673932e-01
-3.514001514749438559e-01
1.728995036357766635e+00
2.394620843674534427e+00
-2.844541551458961703e-01
7.699511923220633269e-01
-1.531782585896818372e+00
1.953058485242311626e+00
-1.193939773374107061e+00
-8.817708351364912378e-01
3.524963525263993813e-02
-4.016067967607106493e-01
1.170307702785111870e+00
-7.554010072098115147e-01
6.141774467038976087e-02
-2.609961655844798001e-01
9.015408399162391784e-02
-1.152002788410478651e+00
3.521946489268213965e-01
-6.740595737080516958e-01
-9.743419019959135285e-01
1.664219259431270748e-01
9.187763026407744782e-01
8.873260154355496754e-01
-2.894468159527686102e-01
-2.998562217363298088e-01
-8.664549385517269497e-01
-7.266491534883501302e-01
-4.990064603731363957e-01
-2.049937887389843838e-01
-8.556181212466127395e-01
-5.128728957576889069e-01
-3.415928936130251392e-01
9.594028760590201932e-01
-3.924375867839563492e-01
3.822357008839095127e-01
-5.461438336104181834e-01
-2.005615236842231308e+00
1.441499412310798922e+00
-8.832882005474326781e-02
-2.137306160968732160e-01
-8.529243861639211888e-01
3.936547037511938796e-01
-1.109362959533057857e+00
-3.406297818667182176e-01
-7.720184629721978942e-01
-1.244285674207781245e+00
-1.880285431397390905e+00
1.709722899204574764e+00
-5.379426348164353389e-01
1.019322581668706817e+00
-3.034990878728566766e-01
-1.721670368266973616e+00
1.096925168152840468e+00
1.552575915400175588e-01
2.854123976187756817e-01
-1.394685176704022200e-01
5.835517230892313112e-01
-1.344509581353940719e+00
3.956974897348320419e-01
-3.317955558539523175e-01
1.264433021899225906e+00
3.434954814177952342e-01
5.976022636082444217e-01
-7.370901362961304049e-01
4.020172564779000979e-02
2.719668709229114967e+00
4.208843337852634647e-01
-6.330501377255062789e-02
7.242290906686027485e-02
8.150850997360317152e-01
1.042726646155446524e+00
-3.097692803753743229e-01
-1.356427300853092044e+00
5.113935025702789905e-02
-1.467800111537704011e-01
-9.376997227241125055e-01
-8.329510928845795803e-01
4.056749680786412293e-01
-7.113800169473710744e-01
-1.579263413990359854e+00
1.339820112233828686e+00
-4.114982615807946664e-01
7.499755911885005455e-01
-1.941112535552672602e+00
-1.623257545650735656e+00
2.152128793967393594e-02
1.388961350411019591e-01
-3.874790583211510375e-01
2.516529320162912420e+00
-1.225638041132389500e+00
9.265510215984673614e-01
-1.318078099828885019e+00
-1.328646748552938517e+00
2.332974509176851396e-01
6.495112380668326413e-01
6.464206148359250559e-01
-8.442484330886395050e-01
7.903700990082762612e-01
1.916449512872249183e+00
3.435145075807193721e-02
-5.334747051657926509e-01
1.458559174951280513e+00
-1.148161277279843739e+00
-2.287316367659220973e+00
6.623416535860592314e-01
5.819370866908657458e-01
-3.662455053831623619e+00
-2.502992717694025870e-01
5.469242289470513940e-01
4.347376025943333611e-01
1.206987439946666463e+00
-4.843776756866557398e-01
-4.460839579750849881e-01
-1.522451942033982597e+00
2.476111886345611968e+00
2.579080867697702839e-01
9.508484638385743537e-01
8.979928646562743699e-01
-7.269392017620323054e-01
-1.041533471592920312e+00
-1.219195239566593481e+00
3.647322188284111699e-01
-6.831167859621970484e-01
-2.942496918582403476e-01
8.862742755635534264e-01
-5.213776947650934357e-01
-9.547327510250543103e-02
4.761478687808065047e-01
-1.207828261568596906e+00
1.394984781275212804e-01
4.841196168056342009e-01
4.036326430431457224e-01
-1.217678937471401296e-01
7.533700683182644742e-01
-1.214102169267214926e+00
-8.493311796752111009e-01
3.964626056111830721e-01
8.858847130298049821e-01
-9.236304530272959612e-02
8.293554698579876927e-01
-1.343069745100659906e+00
-5.079741562332689142e-01
8.424367452166268144e-01
4.368072656841304191e-01
-4.952517136159653721e-01
1.874881425471587981e+00
2.238216440825304243e+00
-3.503081425470855326e-01
-5.360614270843944845e-02
9.832808128615999621e-02
2.454212798192602740e+00
-9.108259569478612816e-01
-2.404907391070591760e-01
7.636860014593185308e-01
-4.364998363363218337e-01
4.935799127899075933e-01
-8.699416676469879928e-01
1.194737183119439911e-01
4.007602830960214635e-01
-1.197915313660707498e-01
-1.426402316352154864e+00
1.597962233366110318e+00
3.282677858736617327e-01
1.520623950832095117e+00
-3.361904533550631458e-01
1.306214270775995834e+00
-2.081329946923307528e+00
-5.452547015236695049e-01
8.427950415197262846e-01
-3.269791291607281880e-01
-9.649101233678081257e-01
3.348262960870069804e-01
-1.717943561634411420e+00
1.121084214977488419e-01
1.328226263234023152e+00
-8.698363902466083042e-02
-4.447619859945746712e-01
1.322835701898019911e+00
1.528568113441560516e+00
7.583350988477020049e-01
1.460427019058340159e+00
1.476556946851571794e+00
1.290350442733446679e+00
2.150053866443753792e-01
-1.776928938122718460e+00
3.062766117186218051e-01
1.445018927766020145e+00
-3.559434914043446696e-01
-5.407331478451313789e-01
-1.049804424240604162e+00
-8.539062118443824234e-01
-5.358978493112722674e-01
3.234337868077347133e-01
9.588327644546904560e-01
-4.578459015713194913e-01
-1.477863718319033168e-02
2.363580935845714937e+00
1.440147055478091076e+00
-6.839329439943886424e-01
6.582180561738354418e-01
-3.452903320133533099e-02
9.990458412459207738e-02
-5.747302533983602267e-03
4.729509624601539453e-01
1.009619448597706581e+00
-7.517386174488301931e-01
-5.525262835531796757e-01
-1.318106389751697582e+00
-2.129246455070127109e+00
-8.064341024597627694e-01
