-1.252975880287783506e+00
-8.071519453529372168e-01
5.471751062301806190e-01
1.229871735860125492e-01
1.783206478425295005e+00
3.947678650924667521e-01
2.119291784452595195e-01
1.564374242987909502e+00
-4.077806886908798001e-01
1.148599083956369782e+00
8.549134840784807787e-01
-1.274365463887134897e-01
1.719849594473854770e+00
-9.826654610348813934e-01
5.155440642039085253e-01
-3.557188131307697510e-01
1.911408106989875566e-01
1.041489334504077657e+00
1.486886937744607229e+00
1.822192787107970391e+00
9.986845050448590611e-01
-2.067750073152196055e+00
-1.027833288301143400e+00
1.099768780800650214e+00
-1.870499509030294272e+00
-1.204225148723474526e+00
1.318608570860891671e+00
7.502502615997542756e-01
2.000725269682356033e-01
-1.415875327819231977e+00
4.386952156159066307e-01
9.458579141904749354e-01
1.274821222274889365e+00
-9.442153916064287555e-01
1.778762482594355543e+00
-3.775923974585685405e-01
-2.870268326505950318e-01
7.378599875723579338e-01
4.634240844440722928e-01
-3.072053443725110689e-01
-1.524309429383766124e-01
-1.339545841035561846e+00
1.653325882536854419e+00
6.457703963535146308e-01
2.126518054880408570e+00
-9.462283917446747683e-01
-6.349133377698682468e-01
-1.207829851602228333e+00
4.051086490318411282e-01
6.817595441663575340e-01
-3.543981519842354100e-01
1.893501395953226529e+00
8.945868864868128378e-01
-1.289655781031701975e+00
-6.291445139869896730e-01
-8.580945319419178707e-01
1.339983792259453521e+00
7.527139985986825987e-01
-1.117659379163981059e+00
4.426644136238123695e-01
2.455637769059142439e-01
-1.438934594741713702e-01
3.025397681819884110e-01
-7.611325533396490206e-01
-7.607873492493615331e-01
-5.103992119120620563e-01
-1.246553404708005269e-01
-8.861057690184667157e-01
-5.268350730038266760e-02
-2.135152762923634207e+00
8.662412333880331605e-01
8.198521887291901900e-01
1.635680916889074688e+00
-9.108813844489606071e-01
-9.656820610008964856e-01
-1.231601022980382210e+00
-7.830111567725633881e-01
-1.252720984561308537e-01
-1.916298452516229434e+00
-5.543903562179566258e-01
9.183922375942862315e-01
-6.747269719495131435e-01
4.240143156806269742e-01
4.463343832931253030e-01
1.256636698800101537e-01
-7.191948462259541985e-01
8.834864180844244075e-01
-1.813766568661397682e-01
1.920394589395438611e+00
1.447041735742234270e+00
-8.389419688190803415e-01
-1.846178485596791541e+00
-1.283326898087050250e+00
-9.269212669001236637e-02
-5.203982221338032677e-01
1.182970401468457888e+00
-1.304495144131539552e+00
9.780118357125415773e-01
-9.845608586665077766e-01
-1.182321981178805492e+00
7.381291035851328397e-02
-3.127211837179487697e-01
1.945710121803405190e+00
3.924454952373259697e-01
2.802553431901659287e-01
1.460316413809334080e+00
-4.995274663115555902e-01
1.545039739369844733e+00
5.831589837070892957e-01
1.142688662180762371e+00
6.571857938919968278e-01
6.000748078533286733e-01
2.493814974583435373e-01
1.857549630955054099e+00
-3.138594372688521816e-01
-1.428138540116346833e-01
4.772869380690622498e-01
1.259025177562231868e+00
6.330950793949602362e-01
-7.932077805693766859e-01
3.017555545627135793e-01
1.246483260856738662e+00
-1.261397135444523476e+00
-5.903074485023149798e-01
-8.703180582772240825e-02
-2.251829026463641192e-01
7.277645804277788066e-01
1.418001323225940524e+00
6.582892674792213406e-01
-9.860552179140578133e-01
-6.839955831767067229e-01
3.920709537069487216e-01
4.030851778001562358e-01
-9.528867594584362888e-02
7.992033432835352613e-01
-6.407510718645880177e-01
-3.348868522367757783e-01
1.067843739895955935e+00
-6.978403802432652236e-01
4.969821077554783390e-02
-2.421726516944639751e-01
1.266240716024627233e-01
8.235221406221321372e-01
-3.940630831906027365e-01
1.064725610231104236e+00
1.858753958577008980e+00
3.839909023941057153e-01
-2.246322266998605210e-01
-1.014137374057418745e-01
-2.088605761549048090e+00
6.699493686008921589e-01
-4.980884020373540499e-01
2.616304880546572731e-01
-8.695251180976194538e-01
1.200286875180947677e+00
-6.430451386607956010e-01
-1.564266879367441632e-01
-1.749431923106661499e-02
1.238560710140363952e+00
1.478233538160200311e+00
-1.788341527699999878e+00
7.013535545644425939e-01
1.162298718870365066e+00
4.972138452565665889e-01
-4.100927661596134866e-01
-3.857934549881585767e-02
-1.886256465282607209e-01
7.360235709656690606e-01
-2.051338500883945759e+00
9.714764333095504689e-01
5.596666611008266345e-01
1.210023459859126183e+00
2.068096210974349480e-01
-1.159714166354337550e+00
-2.675725782868633162e-01
-7.290303406003522113e-01
-2.338377214927863101e-01
-6.411457487838143621e-01
-4.064581460428739468e-01
2.187877585185552309e+00
-1.694556016363340634e+00
1.217531635591128092e+00
9.380620358389111235e-01
-3.743130631803646968e-02
-2.413094314632440590e-02
5.903701637556727500e-01
1.689227459821363464e+00
5.094887819027501541e-01
-2.343152293953144061e-01
-5.102862976935927664e-02
-5.272267449066594391e-01
4.452594653057236340e-01
8.430714883309476937e-01
1.771725884883674995e+00
-7.463342444312769386e-01
-7.678429763275222975e-01
1.124492661269972826e+00
1.637593629004984619e+00
8.798291712596049141e-01
-8.281642966820489393e-01
3.174691415633472125e-01
-1.960015008525149094e+00
-3.867909450290115680e-01
-1.621668687794578068e+00
1.165174003031563155e+00
5.947154913812633392e-01
3.505365832253130032e-01
1.461323400017281449e+00
1.994607736700729550e+00
-1.203531877414254769e-01
1.915647347427789082e+00
-1.515485747042043974e+00
-7.612698554988346633e-02
1.058646944191018680e+00
7.164003136469838662e-01
5.137059238987644605e-01
6.638382761546294253e-01
1.440915422759839082e+00
1.721276708803172628e+00
-1.317268948530997408e+00
-4.256379513681193272e-01
-7.528201576753872359e-01
-2.389560034539549571e-01
1.213049052479177048e+00
2.635616954733330797e-01
1.043358507817032876e+00
1.472638572616443930e+00
-1.411304487183117073e+00
1.710477141982844396e+00
6.660410819878569422e-01
-1.086828111145796694e+00
-1.028457226059180440e+00
1.292590771639713809e+00
-5.411559175162141688e-01
1.798491278966734441e+00
1.713440011200054736e-01
4.257926091435700888e-01
-1.514532000692738078e+00
-2.183758277168089956e-01
1.784861684090145006e+00
-6.515917192589936180e-01
-2.145320627345569164e+00
-9.899322389346411344e-02
5.820680772678615833e-01
4.780531139719925715e-01
-2.181238604690539429e+00
1.382566546793635442e-01
-4.933622576051405750e-01
-6.622384643059943121e-01
-1.813581126727595194e+00
4.949316490915748878e-01
-5.528158899862166686e-01
4.143463222450596145e-02
1.187290470528052921e+00
-1.059316510719496146e-01
5.932324279631896458e-01
6.570420285773684310e-02
-4.017723121959497212e-01
1.414124188179485646e-02
5.120827747836533689e-03
1.490916700577658460e+00
9.936404319592742063e-01
-9.644974655343500070e-01
8.391277959259270391e-02
1.198648653971341460e+00
-5.086154258694058905e-01
-4.967512613496074536e-01
1.143876745682120388e+00
5.823811743746858394e-01
2.224831209675986465e-01
-1.147131797143972509e+00
-4.940630470507150762e-01
-5.805742878581003907e-01
1.976580234955118975e-01
6.242682037226519043e-01
1.728172420728085745e+00
-1.190192500894698968e-02
6.539511591605147445e-02
1.044696430696556932e+00
1.654783219317864429e+00
1.347491048946762859e+00
1.049228417914329636e+00
-8.969707224485993224e-01
-1.053918537409258782e+00
1.299927361868533415e+00
-3.441681270185720926e-02
-6.023887883977323554e-01
-2.872119884733911332e-01
1.270046794195746953e+00
1.390753858856057734e+00
8.431792004192062429e-02
2.116210317620346171e+00
1.620823691725181259e+00
1.219768273192455732e+00
-5.900818112567121076e-01
-5.391515732762314217e-01
-1.105732977350615265e+00
4.667415031241597401e-01
6.330548179928762176e-01
-6.595421437861772596e-01
4.893740078274582683e-01
-1.976181198029404451e-01
1.336186925879901954e+00
-8.425793564668678792e-01
9.999617977452900375e-01
1.688421488826324229e-02
1.974704149842265721e-01
2.410575160702159714e+00
8.969061338582056120e-01
-1.152241101150314417e+00
9.075466062872805661e-01
1.500115343348926489e+00
9.427360862722260204e-02
-1.083067143325929793e+00
6.207142200093336282e-01
1.704206235453416818e-01
2.397347600430105086e+00
-1.050341571267905394e+00
5.045464728706329227e-01
1.646259997241212025e-01
-3.728800825237032490e-01
-7.461968443275863727e-01
1.744906343101111298e-02
4.671881049477945580e-01
1.956585039781761681e+00
5.557679091515614900e-01
8.559388239067048376e-01
3.019618228161125798e-03
-8.012819806187594374e-01
-1.040432738795280310e+00
9.333975890253518592e-01
8.978375526250944594e-01
-1.576746835194740903e+00
2.931875472227425949e-01
9.061751650758511634e-01
-1.971765380765876652e-01
8.919114075778564743e-01
-7.523160450781377628e-01
-3.547873293981297915e-01
-1.646316400761834275e+00
4.806630176942824351e-01
7.952681529421403717e-01
5.754117351925899237e-01
-3.678359433212578522e-01
-1.174979776619860194e+00
-1.913916374682649579e-01
-3.937585645755722202e-02
-2.658956493246001251e+00
3.070934081379975700e-01
1.535588160174717887e-01
9.817027772453099654e-01
9.655358108595674116e-01
1.256287572027946053e+00
5.999416287969445705e-01
5.603878126333058374e-01
6.546685574235090732e-02
-1.159765519888233953e+00
2.004152993014339579e+00
5.253866550876989949e-01
2.096439632538060760e+00
-6.487519354896605916e-01
2.736868201892989627e-01
7.413688199897503495e-01
1.379059076468037270e+00
5.886000847316933404e-01
2.004132904758658129e-01
-3.195716500715972685e-01
-1.075454737784029113e+00
-2.271763843912914527e-01
-1.171406782541764446e+00
-9.488773151416255436e-01
4.606164289378051890e-01
5.545111443765828874e-01
-3.496344322677253369e-01
1.522744824016873721e+00
3.646467915073228760e-02
1.545970922763509003e+00
1.013317661948412551e+00
1.728712825294502098e+00
2.460421186267364391e+00
-1.506159332438428144e-01
1.624400749086769791e+00
4.198025917146550046e-01
2.084309519898739083e-01
-1.223426061458938729e+00
-2.359700906677493493e-01
-2.624913026246057379e-01
1.169752571792024520e+00
-3.935627231049781960e-01
-2.219721204504626275e-02
1.318557276774098730e+00
-9.456137893112644965e-01
3.557544116782903609e-01
1.257350164795201675e+00
-7.411022120950256920e-01
-3.533434484710194501e-01
-2.799789652383390393e-01
-5.775756723084319449e-02
1.214704620998901863e+00
1.884241677348629906e+00
1.660799250789036119e+00
1.046637715694682946e-01
-1.733955823446269751e+00
6.516246879379952173e-01
9.930269500689309359e-01
1.138808181902954075e+00
8.286602281945496529e-01
7.908109702423030685e-01
4.219290027823131006e-01
-1.491994860484642915e+00
2.322773824777494500e+00
1.880830079306952118e+00
6.447941698797859944e-01
-2.043258010285173398e+00
-5.340254942752424849e-01
2.059799500764720737e-01
7.415113353623810077e-01
-2.313131070208702955e-01
-1.453408989322390321e-01
-2.117523415466761316e-01
1.123000780023234002e+00
5.110488627452384192e-01
-1.379431323047358049e+00
1.142944552428992955e+00
6.677999238470919696e-01
2.033120681554365206e+00
1.345161929327904238e+00
3.614356179401280844e+00
1.723830411864435197e+00
5.925685371495738041e-01
2.136853782642361921e+00
-1.147534099003132191e+00
4.636053723705541585e-01
3.757916096852390031e-01
1.864618656977319600e-01
-3.995368578916211333e-01
1.392842268307151743e+00
-3.892377722396253570e-01
1.179146417928969681e+00
-1.782777390256705119e-01
1.250364159264090835e+00
-1.482840224736597934e+00
1.166046857024873429e+00
1.182919469826127779e-01
-1.704652354258879565e-01
-5.977340406152927832e-01
-7.949850265446445352e-02
-1.040710639235835178e+00
1.015044332308754793e+00
8.141231609671089053e-01
1.542981294056708919e+00
5.491942320167602087e-01
-6.461652077663205818e-01
-1.348870273537254860e+00
-1.722696055186151154e-01
-5.479436517558118336e-01
-1.275974704149872796e+00
8.517767669425121424e-01
4.845056729071595680e-01
-7.149941885359940852e-02
6.466426729626746361e-01
-8.705466467814246823e-01
1.558298259616895942e-01
2.219468187120682501e+00
7.079419801193256312e-01
8.566281820625669396e-02
-7.444148664601527576e-01
1.219282867435213191e+00
6.616319420325226242e-01
2.915469855869606275e-01
8.004206815614866022e-01
-5.977081805223676270e-01
-5.107193962357190475e-01
7.351861367813722348e-01
2.724423204929355413e-01
6.575168087134257711e-01
-1.500820717688874650e-01
-1.106613656366623344e+00
1.527433562783778731e+00
5.048421662158035783e-01
-7.753739810254269837e-01
-1.913858702270204715e-01
1.051783938320171863e-01
9.349141690987631259e-01
2.625313914074018040e+00
1.011191105835829607e+00
1.198525880652520303e+00
-1.436606928234458236e+00
5.850176337425917472e-01
-1.798553110954683454e-01
3.919517354510337892e-01
-1.531367623232997577e+00
1.564616054606289275e+00
-1.783090517260242369e-01
1.253827403207672830e+00
-1.719065346134424299e+00
-3.558691370452754521e-01
4.004261352489375536e-01
2.219822071450662862e-02
1.508888403592810512e+00
-1.360595314177337478e-01
7.401543268718602242e-01
-1.726105567773223770e+00
-8.791992790516901524e-01
1.158408204653770701e+00
-1.718375807675388112e+00
1.798156967949498253e-01
-1.026310093867006001e+00
-1.266027685964852267e+00
-3.013330348964216476e+00
4.401574784184927869e-01
-7.875335074907584554e-01
8.193517061197704843e-01
4.175344532922993235e-01
4.230837612950085619e-02
-1.108828554920756604e+00
7.422286519713191533e-01
2.725999762104470703e-01
9.755219193821779156e-01
-3.372346644215156175e-01
2.134811356781596725e+00
-4.915636508874391963e-01
2.820041032245269030e-01
3.425466398044632599e-02
1.648475687228258657e+00
2.243070781980414929e-01
9.426792087776794116e-01
-2.513887651027833403e+00
4.697069835595567289e-02
-9.589752280743282231e-01
-4.138917397664466091e-01
-9.136242719748122187e-01
2.550318607137879723e-01
-9.884104222278464746e-01
-8.102589580389392421e-02
-1.226704934119625529e-01
-4.029533597108667098e-01
3.074337440399565330e-02
-7.386774385581209579e-01
2.071029109325473350e+00
-2.639769290365824930e-02
3.856724712222903140e-01
1.194016045360186906e+00
5.590723774554529069e-01
-6.411360354330802869e-01
1.138054407877866270e+00
-7.966216801656563762e-01
8.685690289042148349e-01
-8.574203016469710004e-02
-1.836810058479313224e+00
7.938074926763717398e-01
2.837676736631564167e-01
-6.055033155381472909e-01
-4.140044030840401845e-01
9.561832619238253006e-01
-3.982580353491204095e-01
-9.781203935784721359e-02
5.943179748844621413e-01
-1.494545829897662159e+00
1.618421061866939015e+00
-2.436983098000551629e-01
2.466910010655572472e-01
1.663659834488130929e-01
-6.758172977285258343e-01
6.241944219702454388e-01
2.040774915676462520e+00
7.545094867087901447e-01
1.475561563877194171e+00
-3.944106044572943670e-01
-4.262082538751677530e-01
-1.217762519656482079e+00
9.029837173322015076e-01
1.053244683545708771e+00
2.890662073804402543e-01
-2.400839415659651532e+00
-6.582628881718267655e-01
1.687885999327275177e-01
-9.445047764234003607e-01
7.841592784703725894e-01
2.997120234406183692e-01
8.042977014700507521e-01
-2.031271486461206255e+00
2.351035442074612458e+00
4.686957970408714980e-01
-1.262918835671781315e+00
-1.628317439582546378e+00
1.906381160534058372e+00
-2.130561177259389538e+00
4.156936519292932508e-01
3.173281015977095221e-01
4.685216584038993659e-01
-2.666416066870907375e+00
-1.670912050684268679e-02
2.132056503856352148e+00
3.311672899622454258e-01
-3.664304616255844582e-01
-6.218711345344988262e-01
1.132581655764173911e+00
-1.582084901927956366e+00
8.770824436836652804e-01
8.913503160935903891e-02
1.233331819210268243e+00
6.107345702090501982e-01
7.734361956475866995e-01
7.991183612496641775e-01
1.451068698385887368e+00
8.729003045714858189e-01
-2.709120574728520747e-01
4.167614799426205829e-02
-6.114952668804856106e-01
-6.450200026502639350e-02
5.457169065822001230e-02
1.438715988193334017e+00
1.331119454352274467e-01
-1.822088192001835860e-01
-2.875152947580389071e-02
1.240935849070695790e-01
-1.007482882360065890e+00
1.046327576147650262e+00
-1.705478784444402374e+00
-1.843483520536658649e+00
1.087022645767232287e+00
5.036890325330733997e-01
-5.784523325877392042e-01
2.057026000968530111e-01
1.690787583964340757e-01
2.273332727889897598e+00
2.581487732577790739e-01
1.436444875447794312e+00
-6.099387659886169599e-01
2.406218943984236969e+00
2.917962025957436367e+00
1.286523602808992139e+00
7.513151691128792109e-01
-1.331908711543916546e+00
1.318683756600716128e+00
-3.052238101020032790e-01
-1.260277120760303404e+00
2.678576652662003066e-01
1.779829819318966555e-01
-1.394950766846037471e+00
8.198197069343079457e-01
1.189383751066986683e+00
4.199602257983852671e-01
-7.581294818756151299e-01
-4.209162256236106403e-01
-9.045122697847075566e-01
2.375638836936962428e-01
-2.706936739033477757e+00
-3.728935141891828731e-01
1.443426047447493143e+00
-4.020174677053386242e-02
-4.762191029511938373e-02
-2.641864144110991908e-01
-1.121590724705991970e+00
1.224867175083185433e+00
8.323563275350642776e-01
-2.904026040005084353e-01
-1.235441217016257642e+00
-4.976032181423937772e-01
-1.898636936922323049e+00
-6.707143486506867980e-01
-9.465855059343017963e-01
7.852043481921262558e-01
5.343766527451586645e-01
-6.962150651514644739e-01
8.346247332166621680e-03
-1.795096324163958590e+00
-1.050057323802405518e-01
-4.873617945493322057e-01
-1.631077743563563720e-01
-2.399888623359457962e-01
-1.414384672985977420e-01
-5.185311250578154008e-01
1.054375377314733964e+00
2.510600839851610533e-01
-2.963913540237548827e-01
-1.787178664414163509e-01
-1.689331489454129198e-01
2.077650003194993822e+00
1.161922874066902311e+00
1.230972344408948344e-01
4.191724659454955093e-01
-4.401585563191185435e-01
6.513275169841854506e-01
3.239698096289892471e-01
-3.334163215109106071e-01
-2.150568362170273140e+00
-1.963764227324372946e+00
2.093053888079581260e+00
2.077674457066719105e-01
-1.456142717916663054e+00
-4.818782648808511704e-01
-4.364421533987362101e-01
1.185141246690258443e+00
8.261073639549419978e-01
-1.583677893502975165e+00
-2.120763353738666923e-01
1.478062591121843683e-01
6.138528404972918295e-01
4.133016150274355649e-01
4.235369832777059057e-02
6.021056370143559322e-01
2.141594890567324605e-01
-7.928966079293131575e-01
-1.157861434976668491e+00
-3.818569317640929661e-01
4.742650643979583469e-01
1.529513482035776972e+00
5.347235001325113535e-01
-5.822695298712385892e-01
1.732641822530263040e-02
-1.662106350903876928e+00
-1.266768310010108589e+00
1.341845674518243658e+00
1.408523401362567762e-01
-2.034096624898603378e-01
-1.361894158128423626e+00
1.791054913826371608e+00
1.748325012384493726e-01
-7.469302703738299742e-01
-1.830527836816364440e+00
-9.909970615775216540e-01
-2.099164793215684000e-01
6.344342185661450140e-01
2.928691428802976948e-01
-5.590072264297153426e-01
-1.243678233524422083e+00
-3.820456735293581430e-01
-8.402980501992631801e-01
7.104966242495871498e-01
-1.052186370305039781e-01
-1.664699151517386455e-01
1.796433868673431300e-01
-1.527522564463656085e+00
3.201706844087677251e-01
1.104935392930503024e+00
8.226215687985406477e-01
-1.234438587957223277e+00
3.452267466214694602e-01
1.333054877744935807e+00
2.496866713903631296e-01
8.129654691519389020e-01
-1.197151063516525664e-02
1.552215157640706833e+00
-8.334239487043400008e-01
2.434181964090299743e+00
6.587717550891781793e-01
-2.447079967060561134e-01
-5.365441966148650765e-01
3.767236548131251694e-02
-4.978748332077885252e-01
9.085679484504587400e-01
-1.473899997627468927e+00
-4.730952104527887947e-01
1.265021317492595887e-01
4.798215116623948950e-01
-3.152238977681610654e-01
7.373421550409731129e-01
2.937977892124897794e-01
-7.280346074411248036e-03
2.549533316786741555e+00
-7.268333515181402138e-02
-1.388082904398436068e-01
-2.003386088706514467e+00
-5.956186862337010668e-01
8.420303797084510711e-01
-1.231741252086774097e+00
7.096821890303676161e-01
-4.932554830165982729e-01
-3.903894553281981317e-01
-2.297680553746489773e-01
1.235046923697312282e+00
2.210418947162426484e+00
1.365244222106656746e+00
-7.725519217351177748e-01
2.424801025080586536e-01
-8.313458576211314455e-01
1.363524365196079335e-01
-3.622743652270349890e-01
-3.499478719977245911e-01
1.383496498254032536e+00
-1.358324948959394263e+00
2.356485719346919916e-01
