-4.732035072488591787e-01
-6.203203135730217532e-01
-3.098439653620802536e-01
-1.282676915180847255e+00
1.094842731470945463e+00
-7.381649405966629329e-01
-3.092670878782700083e-01
1.680389090176396039e+00
2.379255418014983858e-01
4.672897078571516261e-01
4.352570101335936359e-01
1.339273907717459577e+00
-5.105040963464453352e-01
-1.518237066079986430e+00
1.487807614967753489e+00
2.490825485076230417e-01
-2.396119963168849676e+00
1.550315127462671139e-01
-8.895624220491036294e-01
-9.848876862314673297e-02
1.559048889902320267e-01
2.482831898269373117e+00
8.967598880914030568e-01
-2.894842895536089977e-01
1.162835244884044966e-01
-7.034986721347330496e-01
-8.871270026599668013e-01
-1.197881778900699468e+00
2.262280507797522322e+00
4.240653604845100455e-01
2.049702851584251362e-01
-8.090413251274945761e-02
-8.130593439107518250e-02
-1.022588539765638821e-01
1.151842848436934519e+00
-2.562670450835857205e-01
-1.848606839503344479e-01
2.316137695033348154e-01
1.115682836781372034e+00
-9.653531069825797006e-01
-7.860483749306111934e-01
-7.750859102903664977e-02
-6.422121518966110443e-02
4.120838382328905758e-01
-9.657742132917545019e-01
1.659477135321094865e+00
-2.227119518312230539e-01
-4.610380581080728568e-01
-1.590723482475693951e+00
-1.367089267607635605e+00
-8.398211029692100871e-01
-7.841861154174425419e-01
-6.448147841006490744e-01
-4.254434169277484523e-01
-8.155013482396545887e-01
-2.320078591408447632e-01
-5.359839506091926831e-01
4.976909271360277498e-01
-1.631029381322343652e-01
5.465953640547354109e-01
-4.178702384299483596e-01
3.090020896781743298e-01
-3.946098719675573130e-01
-1.540996714637912435e+00
1.283540666664320096e+00
1.777014286507822283e-01
1.169360185893874693e+00
-7.834465661197985709e-01
2.150129764424960066e-01
4.566995530873693698e-01
-1.171581143228214383e+00
4.513617971096481885e-01
1.001130112432513597e+00
-2.380213119622596185e-01
-1.864088199027881254e-01
1.392153885554426651e+00
-1.970756533311914138e+00
5.902118803839375705e-01
-6.401602695862440573e-02
1.671748263344250418e+00
7.081578722270680526e-01
1.022396460341965074e+00
-6.803359299671980498e-01
2.961758652229471989e-01
-3.350067078261722564e-01
-1.571231901745292259e+00
2.217681049818378825e-01
1.400744482735965524e-01
-1.418210039586403237e+00
-5.379217543692864645e-01
-5.455534920811682120e-01
7.104137780694512738e-01
1.396275978441811061e+00
5.864237475023018620e-01
-7.714145206010496469e-01
-1.091647934115342472e-01
-5.202903443652537874e-01
5.659995540089971522e-01
1.820956222342115516e-01
-1.522042190102573134e+00
4.473538823435808665e-01
2.711772161861789154e+00
-9.879469907313372101e-02
1.516636106523900240e+00
-1.180294688633775291e+00
1.297481691004825022e+00
3.773821968058266307e-01
-1.678774959754445184e-01
8.279900711300266503e-01
5.648782331980630733e-01
1.180021231376333191e+00
-1.652610352202321886e+00
1.454966786149974878e+00
6.901977730592274707e-01
3.734118033856542174e-01
-1.700026007858529142e-01
1.671961394352061481e+00
-1.300923305733190372e+00
1.972715706197427421e+00
-1.318355088508158246e-01
8.484533759053201063e-01
7.446279039921199772e-01
-1.214510852879586017e-01
4.360346537341239920e-02
7.004820667886868524e-01
9.035597538104594983e-02
-5.817090409279283003e-01
-1.422183225077476632e+00
-2.109370515408782953e+00
-1.083639183703569708e+00
1.013000532034542323e+00
-2.537743597859071887e+00
-9.223238781754031779e-01
-1.045243798927870227e+00
-1.160661526163885737e+00
-1.741797489612825212e+00
7.384055640738673709e-01
-8.655545411582666882e-01
-3.732888479907458534e-01
3.613542110503329546e-02
9.833647219737863265e-01
7.715108187615382640e-01
-4.233185317927423696e-01
-6.487157314666768260e-01
2.823873023720846476e-02
5.123385939890024998e-01
1.490457237319089190e+00
-2.009783380990743940e+00
1.077263636208058095e+00
1.324695498774858260e-01
3.619376779854101556e-01
-8.495258456441882045e-01
2.419212578435797845e+00
1.135101044226041744e-01
9.632760189378211102e-01
7.190308452415501705e-02
1.683798542698537348e+00
-5.021345422394272312e-02
8.552764599381278421e-01
-9.218029082593691415e-02
5.810790653761651603e-01
-2.566039210998936060e-01
-7.682622195084378713e-01
1.902653585167532357e+00
1.382207036048108406e-01
-3.488476393443872281e-01
-2.369907100588067639e+00
6.577167249168187901e-02
1.315978236734690610e+00
6.696487472627102866e-01
-6.570818400473826815e-01
-7.896594209460106040e-01
-2.779897323174999046e-01
3.437528267777041902e-01
-1.550199614726373465e+00
4.235662683640881165e-01
-2.305777425643818490e-01
-4.142182783294081072e-01
2.745981072052211536e-01
-2.868237984573565047e-01
-1.264401291572371688e+00
-1.607796123580673697e-01
-2.803692708074652096e-01
6.734831165964431099e-01
1.519873867806397438e+00
3.440250026520981497e-02
8.001747100087642783e-01
-4.694371315445878823e-01
-9.637648061399494148e-01
-9.849051389737778495e-01
-1.311053130907066766e+00
-4.358055856397001215e-01
-8.985063431331263839e-01
-2.419096712638849345e-01
-1.909544107093473497e-01
-5.698858950018040881e-01
3.848578113034322734e-01
-9.124112987086031579e-01
-1.007144733394315372e-01
1.419688843086111263e-01
2.105998649819090796e-01
-1.607474634828559790e+00
4.015129098502166483e-01
1.091801641654052579e+00
1.312467379970011505e+00
-1.563059273247791925e+00
2.305392540824763081e+00
7.544355477424631307e-01
-1.319483745996855584e+00
5.087532342575065147e-01
-2.608230285268017465e-02
1.156387741152078874e+00
3.055075114156014515e-01
1.354869554538345788e+00
-2.204429073340533618e-01
4.744372329644065966e-01
1.303367541763253534e+00
-1.396062526262463965e+00
-9.142595509408818488e-01
1.801435966008440789e-02
-1.138262319056866645e-01
-1.555090514613785446e+00
1.612574907158970420e-03
-5.910081703915596174e-01
8.164696367248678310e-01
1.684221513720893126e+00
-1.337946777615955707e+00
-1.083026480329105201e+00
8.682240567956731603e-01
1.866033498503595123e+00
-1.031744281787097206e+00
-1.888547029260398691e-01
6.610212541727075175e-01
2.132961828367565094e+00
-3.041395645609415443e-01
-2.659493553044915415e-01
6.917706576746945890e-01
-7.728854121318010639e-01
1.377823290895225261e+00
-2.092106420452329640e+00
-7.802046559923635494e-01
1.224412965859066338e+00
1.447420134452521712e+00
-8.983420501336920605e-01
-2.062976065314248597e+00
-4.955520511247929472e-01
-1.160447779222740228e-01
-1.621639925468180699e-01
1.342579064452219750e+00
-1.562787026401610380e+00
-2.121927140648417254e+00
1.444192448025466979e-01
1.877193981048747240e+00
-3.222828749807121751e-01
1.563991563581688116e+00
5.099107219554224191e-01
3.841181262498885030e-01
-2.037776602990672425e-01
2.202196819485299439e+00
1.890184620800376525e+00
-4.803553973515951175e-02
-3.162008727275512077e-01
-7.870360591841329967e-01
4.403692256212728973e-01
2.552921308288316760e-01
7.851659727099927766e-01
8.419629145986324836e-01
1.004679656062415827e+00
-3.480633052049886822e-01
-1.216777492123239934e+00
2.692278932622993795e-02
-5.266124311495805621e-01
3.220515532639640077e-01
-2.295850812250532225e-01
-1.889279381458917939e+00
9.849579100063586834e-01
1.787659350890778098e+00
-1.049756403662862742e-01
1.117330258640007346e+00
-1.511035393241316471e-01
4.665240785831540338e-01
1.291102232778403198e-02
-9.719754697104980579e-02
3.598454951405009039e-01
4.175057685385545336e-01
1.241657712577939332e+00
8.541978478535802721e-02
1.423783196291782183e+00
-2.062537228645432708e-01
1.066333464909512641e+00
8.054165649793034731e-01
-4.946458530659902930e-02
-9.980825847225463857e-03
-1.337961321447287633e+00
-5.576696728703026129e-02
-1.709337016707718204e+00
8.476505517352270203e-02
7.720574976600478312e-01
-9.670028976461623182e-01
1.297640839398317425e+00
1.355703384700416958e+00
1.537149588376834020e+00
2.012730410051773333e+00
-5.627599089267010246e-01
-5.146115787859525947e-02
-2.936272608722242938e-01
-1.135310971356768839e+00
3.072056776967512226e-01
-1.025622659197927833e+00
7.276301953424491042e-01
1.242892432536296943e-01
4.879797399696056970e-01
-1.082768609464886733e+00
-9.702406074869369679e-01
8.362854462833128055e-01
9.745594187421302568e-01
-2.118083444543650273e+00
1.242385217612014703e+00
-1.112688181254716024e+00
7.845534235179987825e-02
-6.467950460044195049e-01
5.873004092731899384e-01
-5.204468961738647481e-01
3.799606411560029207e-01
-1.566286442282158742e-01
8.857943492470978786e-01
4.541405880091248237e-01
-3.260847378221896076e-01
7.599651114148000541e-01
-1.665703148796059962e-01
1.353558689799191639e-01
-1.836297986607291710e+00
9.779296291012426479e-02
-9.235415949112139034e-01
-1.150388086244982011e+00
-1.432876083013047142e-01
-1.226456705093674077e-01
8.678436063664222155e-01
3.305139361194089215e-02
-1.227021844976536435e+00
-9.812433436053042968e-01
8.987685487400290940e-01
-6.150276368347271649e-01
3.893772552112909624e-01
-1.835358551602027211e+00
-6.253939871834199860e-01
-8.746170610113567223e-01
2.741754442700924610e+00
-1.498512899520278774e+00
9.410828655559476674e-01
1.550182573141168918e+00
1.445990489028734227e-01
-3.949366198895671309e-01
-8.378411710139992419e-01
1.527860145059933838e-01
5.934703622867105732e-01
-7.907293952391562797e-02
7.876913134907320702e-01
1.499792074031114142e+00
-1.033458070981918775e+00
-4.369356631208750064e-01
4.388498965948735564e-01
2.339947254357873860e-02
1.683499537047023153e+00
1.547964494943440406e-01
-1.559055549512292860e+00
4.096505756486460981e-01
-6.855712387183886536e-01
-6.926557888517903550e-01
3.088378298088185203e-01
-2.944455812988932553e-01
3.692986767245795554e-01
8.724169086551858410e-01
1.464571050415930387e+00
-1.291898274917658573e-01
-3.682919904214779772e-01
-7.111240210667822970e-01
1.499339819089949621e+00
-5.391885172585241248e-01
-1.046350423997359114e+00
-2.423530276457713240e-01
-9.372711565871009176e-01
4.085358499771754581e-01
4.064492688875337989e-01
1.227381084275210199e+00
-4.346132098185137571e-02
-1.531983210193739176e-01
-6.696271847627547347e-01
4.865091021923152736e-02
-8.698426702494415075e-01
-1.773109002985964633e+00
-1.118852049983391383e+00
6.930849121092514942e-01
9.990511055435118415e-01
6.157505671000392811e-01
-5.970938256215085893e-02
6.105577152604662050e-01
1.856104521228429283e+00
2.417030358966881509e-01
1.297762195006752828e+00
-3.358659176471998631e-01
-1.112854633321542774e+00
2.379115546727782887e-02
8.467404506313892520e-01
1.073478159622138772e+00
1.049558413166889359e+00
3.444674436847718346e-01
-1.970218038600726870e-04
2.182141800896592876e-01
-1.129313108845257263e+00
-1.179149523378684616e+00
1.031907947463742925e+00
6.085060759939421304e-01
-1.438911549323371064e+00
1.939457211685093219e+00
2.031419034231874310e+00
-2.139014337068605165e-01
6.534705927726972563e-01
-2.138867571076272234e-01
1.277153936657605127e-01
-2.000613739609913733e+00
2.922375305902100706e+00
-1.981773126442898936e-01
2.527522822567654259e+00
7.496227985355341517e-01
9.297634120908881972e-01
-1.796703574050386720e+00
-1.317620243623139231e+00
2.564592631138942411e-02
7.856530060370520152e-02
1.031585485927358103e+00
2.086060542805932491e-02
-6.927096924711305670e-01
8.908498379290218094e-02
-4.626718258149585261e-01
-5.401558425070220881e-01
-1.646109319989927100e-01
1.526061244449411144e-02
-1.037678672747249342e+00
-9.452741132278364988e-01
-2.975151643906421284e-01
-9.970621349622665885e-01
-9.023324420586582573e-01
-3.117582178903842149e-01
3.662848318638563527e-01
6.682175512337026335e-01
2.166805401075758475e+00
1.636300063297221108e+00
-1.103098827743895116e+00
6.602626557360332660e-01
1.016939918886480054e+00
2.312678221996800509e+00
-1.955162430685493558e+00
5.167817564248438078e-01
1.011007535815242164e+00
6.699849606021890391e-01
7.973806230103006598e-01
-8.672209339177591181e-01
6.718751710247820030e-01
-8.737375322359031138e-01
-1.378962079372851646e+00
-8.034493058961299505e-01
9.995232118268319033e-01
-6.039019284684006283e-01
-1.182968620382282565e-01
-8.436673437006907417e-01
-1.049119772414781160e+00
-6.915201631747978084e-01
1.664999635457252089e-02
1.054289872205599776e+00
7.281032951007724296e-01
-4.662082019601608840e-01
-1.266602817444247575e-01
-1.673053567464738656e+00
9.994985052131980519e-01
-1.022894442031568207e+00
-1.368591492725144132e+00
-2.380792726956342698e+00
1.689608996269954755e+00
4.353572806426333486e-01
-1.049478097823438039e-01
2.976098616533074948e-01
1.260948616640070075e+00
-1.600060413097597056e+00
2.794741550847504863e-01
1.161890727330469275e+00
2.143969836990408662e-01
-1.878566877190623430e+00
3.678524687904349832e-01
-7.938926108627014644e-01
-1.599573305105839449e-01
3.025030257451221671e-01
1.172494701174118248e+00
6.008517944952072032e-01
-8.009259423943689837e-01
1.223955418952531904e+00
-2.919550441607595137e-01
1.038521262023301084e+00
1.229997841487660448e+00
9.019303362152503167e-01
1.289950397423787587e+00
1.894527754455302693e-01
1.213084237049140368e+00
1.987786481001240224e-01
4.336846052770524929e-01
1.838190989073466494e-02
9.619273194981816655e-01
-1.529640794699209660e-01
-3.227107254063267261e-01
-1.929381460554660532e-01
-4.349699366431244996e-01
-9.634464000212968893e-01
-1.677282047802930443e+00
1.724436848085064922e+00
-3.962509218836298697e-01
-3.294867515954139070e-01
1.322244169642129874e+00
4.492908224981331244e-01
-3.417293653976594681e-01
-3.678385596196366569e-02
-9.548233060675940242e-01
2.695629810335331000e-01
-8.707538853734816398e-01
1.055458621961521182e+00
5.144304355240642002e-01
-2.177543146549404673e-01
5.984689337810682706e-03
-2.062644957351015051e+00
-8.843999603372044715e-01
-6.781555887880261757e-01
4.995280093884393868e-01
-9.740599888753486146e-01
-4.359130854310460101e-01
1.551577764368132495e-01
3.217193759075881454e-01
2.532561665055028111e-01
1.298690437254887975e+00
-6.133602768755954671e-01
-1.084704722521767639e+00
1.547049717339082253e+00
1.240827198260663788e+00
-9.660156532577578448e-01
-4.985214759441649601e-01
2.329427112030053593e-01
7.889020330173919515e-02
1.772839657495261845e+00
-2.058321067369096313e-01
5.120906644434901622e-01
-2.824961916255035455e-01
-1.446267444193265694e+00
-3.357748453812411937e-01
3.324546787882060594e-01
1.065288284822751397e+00
-2.031279795764582771e-02
-1.580300453784686088e+00
-2.345649244211195639e-01
-1.026364890219907844e+00
-5.782741170930014857e-02
4.654279511954390602e-01
-1.390041349494908873e+00
6.811302620584676060e-01
-1.075160406123262913e+00
-4.674583355642605298e-01
6.336691266602839656e-01
-1.135243400499696520e+00
1.873790860460300856e+00
1.030047557036007477e+00
1.309540942289165066e+00
-3.872102486521350473e-01
-9.539199886024916086e-01
3.580262271914514960e-01
-1.877201875010164667e+00
1.064490063757254523e+00
3.416758022975924791e-01
9.204802258612738985e-02
-8.612830073327286673e-01
-8.036043271931051502e-01
-8.966399860663891719e-01
2.647388349472922231e-01
-9.290551701089642123e-01
7.945698022542674321e-01
-1.435935894699456705e+00
-1.028068943821980774e+00
-3.177783584553383056e-01
1.605718774076854594e+00
5.251748050912857790e-01
-1.199922778064357043e-01
-2.098127897867996527e-01
-9.410684547226284558e-01
-4.757422751733846877e-01
-2.214269640219021854e-02
-5.085386148829368347e-02
-3.552421730474602524e-01
-9.487160019155824187e-02
-5.547166168905018901e-01
1.167808485622545689e+00
7.556515621376463931e-01
7.386368085066389311e-01
1.047516922607172551e+00
-7.634003945791704993e-02
2.528952178008617047e+00
-6.576870630657914996e-01
6.233914030926259731e-01
-1.026706677500046849e+00
6.728625423233093317e-01
-1.169413578130389597e+00
6.308063155078706685e-02
2.722905950013247534e+00
-9.915902926456893196e-01
-5.232723127605801161e-02
7.798436920812705786e-01
1.357479715238827378e+00
-8.299566118810859372e-01
-8.882508263630169987e-01
-2.306781357352198913e-01
1.515084722586790555e-01
-2.419707839596356991e-01
-1.712064553008909362e+00
2.265793796010291683e-01
9.768014264610073161e-01
-3.748449230415821787e-01
-6.353236448435255201e-02
2.941189551269294267e-01
1.371778600748994326e-01
-5.712358014229221848e-01
-2.007725156179256121e-01
7.756472922705505146e-01
1.743068233819137502e-01
4.903208112137246721e-01
1.298674329255550264e+00
-1.546132635044364045e+00
-2.111378307045044533e-01
-1.878677308814788727e-01
-1.907571376576429334e-02
-7.216940419564266129e-01
-3.004625489326785345e-02
2.425006171435740987e-01
1.467688976708405313e-01
4.250084566941902398e-01
-1.066039062142995375e+00
-1.647125909021267764e+00
-6.425962119989154786e-01
-8.863775055716536233e-01
1.690491476705336282e+00
6.672413975690326682e-01
1.344968887495751941e+00
-1.400006283807619711e+00
-2.504050781854914032e-01
-7.261944804123726671e-01
7.170223961138576518e-01
1.418926417836807508e+00
-2.353745834085601008e-01
-1.353125406924805540e+00
3.624369602126655265e-01
-2.023717205758570614e-01
-1.202717121691967872e+00
3.028408438994380503e-01
-1.699624314624414767e+00
-4.734592249629178129e-01
-1.579546364293687999e+00
-7.993563133435409584e-01
1.590603284563977482e+00
-1.524538240775152653e+00
-1.262389408272995173e+00
1.048907285961353741e+00
-9.717192477089090508e-01
-1.760104224672562445e+00
2.748446078671382686e-01
1.117655576295944808e+00
1.507009310573357519e+00
7.815595515947931782e-01
1.981062626678103067e+00
6.268490654317590005e-01
9.000147314152232569e-01
-1.354426158650824608e+00
-3.975318946786356444e-01
1.144677087386468534e-01
-1.678747695769957859e+00
-9.861745867986989600e-01
7.756688376193709988e-01
-2.808283677198040174e+00
-1.190168208564839347e-01
-1.302717853829818306e+00
1.890844390068079361e-01
8.412177058556447040e-01
-2.300607334592886244e-01
-5.324790520364808266e-01
-1.476041583775425270e+00
5.972329823134935323e-01
1.166924742603457910e+00
-1.252553376560218812e+00
5.646915438092203754e-01
-2.148909228539873286e-03
-2.116387569466819052e+00
1.038700369753991160e+00
-1.178002955425823783e+00
2.351097630106690151e+00
-1.010439663197322036e+00
7.114131830155145941e-01
-8.332624279667204606e-03
-3.996029239238743647e-01
3.275746372889482005e-01
-7.873105404457753087e-01
1.711919617321144838e-01
-1.502615944255012992e-01
-4.776881163979710965e-01
-2.990232816381598879e-01
1.773925910636191317e+00
-1.669698594177917217e+00
1.750761695933005013e+00
-1.666385095570015185e-02
-4.430708172730892652e-02
9.647173682764328406e-01
-8.220600581152213149e-01
1.155723238453762347e+00
-1.323769043779953414e+00
-1.076820167385858229e-01
-1.826638314411550001e-01
-2.059277940850781530e+00
5.342805362252951440e-01
1.984406461839179681e+00
-7.989529000892106603e-02
1.401573365755251599e+00
-1.651431083335289873e+00
1.758618916634210105e+00
-4.651515915385723982e-02
-5.495652655264994246e-01
-1.048308777416572024e+00
1.277621822856194855e+00
1.204701279439392536e+00
-1.829681713020832601e-01
1.796307446748164893e-01
5.487200486634442598e-01
8.060413308453583392e-01
-1.342776464626938004e+00
-4.678604087909031262e-01
-7.810402490832196731e-01
-1.214704497949420370e+00
-1.254084309579778900e+00
-4.254303918394102269e-01
-1.268064131793168903e+00
3.707999656288606810e-03
-3.658106553225352053e-01
-1.596684502211553669e+00
1.040552893604969498e+00
5.309832103723008956e-01
-5.816894083489771994e-01
-9.941466779906893425e-01
1.558463675206140930e+00
4.151115385523718726e-01
5.953156221997549791e-01
5.434630938812954337e-01
2.915493891828583872e-01
-3.342814717403393577e-03
4.594768671459417697e-01
1.292877963312153156e-01
-1.195331620618019342e+00
-7.759497363617311461e-01
-6.050723998291802630e-01
-3.778641636850204044e-01
8.497305382834333676e-01
8.534315278767304891e-01
1.360618720020853045e+00
2.145996661948104400e-01
1.366411225886877023e+00
1.655283661457567779e-01
-1.329712895571195208e+00
-3.976923695264062419e-01
-1.855525918034910848e+00
-3.485871028063421972e-01
3.982999214346057415e-01
3.296654120610952865e-01
-1.334332604191006189e+00
8.432888576228472766e-02
-1.877145188505594087e+00
-1.191070161181255749e+00
1.734980764753505655e-01
-6.336661453863681182e-01
-2.134939313164767316e-01
-1.313883082765384402e-01
5.230866859732249408e-01
8.576950834289713832e-01
-9.713991852636537638e-01
-9.384447003601508186e-01
