9.856581947053159043e-01
-4.748794611684529210e-01
-8.313302295567397415e-01
-3.013227482472475294e-01
-1.145121897488774687e+00
1.660585600904958214e+00
1.393201136425934017e+00
-3.382491250071849032e-01
5.004745980254854398e-02
-1.711182141166040838e+00
-6.789808767574380122e-01
1.742991263944585034e+00
-2.229182517294864829e-01
-4.537227100146938308e-01
4.978714951315980075e-01
1.277466122029240037e+00
4.127435025137859426e-01
-1.979437186175354579e-01
3.397420442440301502e-01
-4.958347870010044733e-01
1.274512048526572183e+00
-1.105948199397572829e+00
1.754726871068853944e+00
1.255652516038648470e+00
3.908662731726977868e-01
2.918957376108615720e-01
8.171616934507346386e-01
-2.185908503162997008e+00
2.578974354206664543e-01
5.940768696174805186e-01
7.674808303149988076e-01
-4.191396257706270223e-01
8.284618211302631208e-01
-1.152790030535120192e+00
9.660362352173825773e-01
3.130531278466099354e-01
1.858781872922975198e-01
5.950637724636509418e-01
9.760594782261948488e-02
8.817471661771487945e-02
4.633861004547509266e-01
3.148808403949963086e-01
-2.330020022481460729e-01
-2.707708005813763141e-01
2.613001850030358675e-01
4.217808442894965815e-01
-2.268981387903651892e-01
7.989149664559861419e-01
2.216073697144047561e+00
-9.388882419854344130e-01
-3.399034914254290274e-01
1.639637408791547069e+00
1.841986364677050680e-01
1.456016317294475393e-01
9.358456889627183584e-01
2.223628041107843512e-01
3.846238271721011959e-01
-4.601425105332657139e-01
-8.602426347472151846e-01
-7.023317236181033651e-01
9.604893691029389169e-01
-5.895925816517239015e-01
-1.105616176049801558e+00
-5.556355994079645866e-01
3.052239005922877668e-01
7.109738785417828444e-01
1.088701712528890919e+00
-1.528428072066118304e+00
2.495646762027349475e+00
-1.309104590736601681e+00
4.635760974587629368e-01
-1.685746904731700918e-03
2.222555031499305334e-01
-1.544769179271181070e+00
7.018028033772550911e-01
5.128150282733131560e-01
-7.799523100931461395e-01
1.308975285751378781e+00
-5.037152458001727950e-01
1.780292861879743782e+00
9.025650042431382358e-01
-1.462969153573459913e+00
5.751206177796103214e-01
-4.968057474947349395e-01
2.397370487061577737e+00
-3.371098238183136697e-01
-3.497413636116780133e-01
8.117234775170495409e-01
1.475722603988161241e+00
2.847659325385111240e-01
2.433224100637471354e-01
1.322974540472938054e+00
-2.349407337787051686e-01
-2.747963222716023335e+00
-2.832648204820419569e+00
-1.844256363757866612e+00
2.011357407486473181e-01
-1.759733907840216327e-02
-2.864797606128688834e+00
-7.558633709994995176e-01
1.694464079699566250e+00
-9.923442173469844418e-02
1.335992914949032384e+00
6.295758954357724146e-01
1.464163717472595216e+00
-5.544540671428367373e-01
-1.298556329115026609e+00
-5.036991691355301448e-01
1.629469297123880667e+00
1.364188552870827520e+00
-1.247100189509561474e+00
-1.213338741079196259e+00
5.326035092706852270e-01
-3.849437886590259539e-01
-1.212536915136329524e-01
-1.942206682022297848e+00
7.745572416365841262e-01
-3.188222773908314100e-01
-2.425772986000820808e+00
-3.983772544597677934e-01
-1.794311497278930023e+00
-6.556874154658625109e-01
-8.252112382602060370e-01
1.604283551582559753e+00
-1.158323197629548273e+00
-1.795097749569326329e+00
1.122302815145171273e+00
-5.264788399968420851e-01
-1.825520216988113786e-01
-5.447185927955305873e-01
-1.068959469460299266e-01
-1.068009261093488815e+00
1.599583995197271014e+00
8.263523266949205359e-01
3.495372884446198980e-02
-4.656838262186409616e-01
-1.009486956231070875e+00
-3.582841050296858287e-01
-5.205029355720607320e-01
-7.417157542100787371e-01
4.672179706282966749e-01
7.429017028849731474e-01
-1.174830270173583324e+00
3.254443513927928189e-01
-2.727892644325643490e-01
2.893968723213755645e-01
-2.531490051287905163e-01
6.366135345314937188e-01
-2.627035105554713090e-01
-4.801844098273584382e-01
-1.867685359235999876e+00
-2.104445334608814999e+00
4.464220943769899863e-01
9.200772036654808472e-02
-1.101324934829312818e+00
-6.422069091385365081e-01
-1.398704612403421921e+00
-4.661840667993539383e-02
-1.433115759070008099e+00
-1.786824393960160462e+00
-9.583258277548195592e-01
-1.229524436882089233e+00
-4.188388731141261534e-01
-2.849877784489552202e+00
-2.767462250843447102e-02
-1.157974595016891151e+00
-1.198077393131129265e+00
2.172330842930845496e-01
-6.479208655587841426e-01
-2.069954226941463915e-01
1.618499443623115097e-01
3.103423269521910499e-01
4.846036909863251085e-01
2.575936019311250824e+00
1.776397722949174529e-01
9.637043689699013038e-01
5.522572387592951382e-02
-3.675337585142179342e-01
-6.621908384302782613e-01
-7.812108919919092953e-01
-2.077231718105154279e+00
-6.669532739868965221e-01
-1.512612295560965991e+00
-4.240758051635449277e-01
-3.912712558075626568e+00
-1.427908130445978641e+00
-2.391138404167362008e+00
-1.132446339526401724e+00
-1.283927341365777908e+00
-5.268107379120514633e-01
-7.059586929762847740e-01
-1.749824436954104501e+00
1.651459547281241225e+00
8.529818623916175513e-01
-2.203926025252140874e+00
-7.516724688000148147e-01
2.170349969207559793e-01
-3.833963737701316377e-01
1.125258934559800084e+00
1.037934782554249952e-01
-3.128609748726899342e-01
-2.504252324621511483e-01
-4.037990580538459162e-01
-2.076792293530646816e-01
-1.334892808994015412e-01
4.314282909142954509e-03
-2.610365687289193173e-02
-1.636872064652300285e+00
-1.121038411041183291e+00
-1.675434849383364844e+00
-5.508747840466240303e-02
-2.859015989580105277e+00
-1.310825098640924891e+00
-1.175953462921717652e+00
-2.255769665352256315e+00
-1.204333819047378462e+00
-1.445334215258613275e+00
-5.239559951797604365e-01
5.885569281482114778e-01
-6.171563220059509414e-01
8.143379500399334781e-01
-2.057133448688088784e+00
8.007806723510906277e-01
5.269962201394877421e-02
-9.851475397581491711e-01
6.093882481096269954e-01
1.094122029595307133e+00
-3.381451573580250280e-01
8.481452834781264549e-01
7.898152485443948878e-01
1.723600977710029458e-01
-5.966163523725723783e-01
1.881435928552070536e+00
8.797785717943838735e-02
-3.920148622788851012e-01
-1.684768554874148949e-01
-6.531726374607103036e-01
-7.685406135802475003e-01
6.579378251720808812e-01
3.469388997968351207e-01
8.724327691704882870e-01
1.579097126738906676e+00
2.206292290448776505e+00
4.716009320962268880e-01
1.285675287548053713e+00
-6.032638445914232372e-01
-6.011250047555072307e-01
2.045689379599836322e+00
9.276808001741263521e-01
-6.593335430653016749e-01
1.170141278847326216e+00
1.153473570051756908e-01
-5.651570821938602940e-01
-8.814662286207027020e-02
-1.105066523374559795e+00
1.635309696198722351e+00
2.592515411628403266e-01
1.885240917312594577e+00
6.893677697056977971e-01
-9.354029763105860262e-02
-2.478276719524516170e-01
3.250500404482267736e-01
1.868155953555659332e+00
1.846447339870814552e+00
2.369396715232456430e+00
1.243307413141387041e+00
1.198266118357689258e+00
9.843239872935443113e-01
1.338208143743679024e+00
-2.827565326185901284e-01
2.770913006556136038e-01
-7.213783680372412022e-01
2.351101624056906925e+00
9.404254733332028104e-01
2.601813707564880618e-01
-5.049466202432566497e-01
2.850930810603748977e-01
1.554262167575830134e+00
1.069446131732122884e+00
-1.235253089528189241e+00
5.497314501649398499e-01
7.276201794627265018e-01
4.158474343003418783e-01
7.404821135999344328e-01
8.314655281336240655e-01
-4.191493060454717923e-01
3.132890724932960169e-01
-4.994993353625337695e-01
8.512819221551680693e-01
9.380453493906135698e-01
5.999200692984255762e-02
1.100564419253505122e+00
1.287459031481490213e+00
9.859375932255182162e-01
2.565654120138653571e+00
1.689740566223805640e+00
1.251693991961787544e+00
1.410331477404761058e+00
1.984538278141300349e+00
7.746868420829519097e-01
5.874960287104107337e-01
-1.961185593280599104e-01
4.388533776086057103e-01
7.350986560843663087e-01
2.611894361391727593e+00
-1.738146361733929668e+00
-5.266912392310468816e-01
-2.715404355047704166e-01
6.419389625052434045e-01
-1.628978654900519185e+00
2.737310766915316065e-02
1.307271165006813840e+00
2.714398624995122411e-01
9.643798052982449631e-01
-2.666785153138019338e-01
-9.902023373158465036e-01
7.937279873949355524e-01
7.188481927314069875e-01
1.123825231260831670e+00
6.148759000841157174e-02
8.814769091392881117e-01
1.943412844135643525e+00
3.988217481660671915e-01
9.892292847048913540e-01
4.171482903786324914e-01
-1.505822029165783116e-01
5.990814003081071926e-01
4.277318635698442173e-01
4.232690241915118001e-01
-3.585644244706860939e-01
1.146003900819800636e+00
4.055425801773790417e-01
1.222082840230671152e+00
1.700187238437512460e-01
-6.421916797114876063e-01
-8.658187089693438754e-01
7.388774932737549594e-01
1.356799531044486695e+00
-4.263860305789717309e-01
-7.469777220293298825e-01
3.158390107608271546e-01
1.494248362114282802e+00
9.207546588251883657e-01
-5.042529039990683026e-01
-1.886688536997610868e-02
-8.105687560962948623e-01
1.115846454775872409e+00
-4.575051280974923862e-01
1.764024318834694072e-01
2.532586834394888187e-01
1.368408748580635326e+00
-1.639832720815863065e-01
1.256784210146996150e-01
6.780680212975710441e-01
-1.289104182604962512e+00
-1.627977055642488846e+00
6.809965597629813461e-01
1.128343731650812920e+00
2.495191379235058363e-02
-7.898305435680691433e-01
-2.320973099629880521e-01
2.556861443913451826e-01
-3.994136009812367938e-01
-2.976867305518433593e+00
-5.440483151273229900e-01
-1.805012971103815145e-01
-1.007665259234408861e+00
2.007707619359425377e-01
-4.140053640287409409e-01
-7.742183970951489469e-01
-1.782913475625015898e-01
-1.056023720320345971e-01
-1.197828794698791756e-02
-3.094709437283532649e-01
-1.871752314848553089e+00
-3.472675994286761325e-02
5.111651568228459119e-01
-5.519340069505332957e-01
-2.003375297465276983e+00
-8.369027989733827111e-01
-1.974031102057987486e+00
-3.691532574110705678e+00
-3.930248681775849739e-01
-5.597974013919116976e-01
-2.008820409910163640e+00
-3.494812501987423214e-01
-8.633600498352139718e-01
-1.306886551577945754e+00
3.341894839926300986e-01
5.539959439747192960e-01
5.836669766105025969e-01
1.618145647853367342e+00
5.341854200409449360e-01
1.040492757154134196e-01
4.170568227603114186e-01
1.040611937195663028e+00
9.402129422023969285e-01
9.363316698552861528e-01
-1.805405632230356439e+00
-1.693497542192576311e-01
-7.644947565030881798e-01
-8.185654100931302191e-01
6.543605027507373162e-01
1.474702220146388409e+00
-5.310964948558318799e-01
-1.645096458149484242e+00
-7.371628661819767947e-01
2.548831877966812876e-01
-1.861214378555218207e+00
-8.383578381741545460e-01
-9.310809438386562498e-01
-7.015137556144700470e-01
-7.628144587048889536e-01
1.493712740478571943e+00
9.228515939227250886e-01
1.122592514197234603e+00
-1.353595466556246629e-01
1.288952748354243560e+00
7.026341806123043154e-01
1.521591775067834718e+00
-1.333575861859628495e-02
-9.444233959465003769e-01
7.050158102205189570e-01
-1.874987652659309834e-01
8.779029520096510719e-01
-9.586984061510571697e-01
6.933145558138235076e-01
-1.615825320098562168e+00
-8.171597172110622864e-02
6.198143318083182418e-01
4.730469462822088911e-01
-1.484240780401771431e+00
-1.535573121399887553e+00
9.261869264623381892e-02
-1.930723990010018154e+00
-1.278682100378733644e+00
-2.218352953725642729e-01
-2.003693658108659292e+00
-6.376998695055849931e-01
1.016678435978178863e+00
-7.979422229510354514e-01
-3.169660452093253089e-01
2.550049073151168799e-01
7.249402191033460160e-03
-4.381067033990880266e-01
-9.741700457906540822e-02
1.842361762322545227e+00
5.344945879734239735e-01
-4.832725969045415515e-01
1.221299662313175771e+00
3.445728001992322542e-01
-1.460980316409826063e+00
3.881940848866278770e-01
-2.539684035840258230e-02
-5.457557303381942448e-01
5.336079405854139424e-01
3.639732312126290337e-01
-9.649823439555894611e-01
-1.184710364242894665e+00
1.606499782656837516e-01
5.981192551480446484e-01
-1.708974999001162898e+00
-8.709723762464846031e-01
-2.141576730387584893e-01
7.165808216080579163e-01
1.124667629031592897e+00
-4.780910806503268495e-01
1.471541006684131236e+00
-5.750982992479647393e-01
4.122315431208863901e-01
1.272608855389046889e+00
6.825747225021375764e-01
1.324116673240653963e+00
1.301967798399182863e+00
-1.119506383269087468e+00
1.085109459557882738e+00
-1.023331367516477908e+00
5.205050247591211932e-01
1.256363198874710596e+00
3.970705108402165506e-01
-8.651875718887093170e-01
6.205319317516962974e-01
8.945155960489721281e-01
6.502809157633993031e-01
-1.430039131149875686e+00
7.802533876676321922e-01
-6.301775717642734698e-01
-2.499967076049636749e-01
-8.906106077494924111e-01
-3.208957464231341206e-01
-1.110572750495439909e-01
-2.902385897220866040e-01
-4.971121462078177955e-01
1.000852395517366489e+00
-2.324337508351232984e-01
1.157434158133548774e+00
-1.419021115307189440e+00
-2.759410102113808438e-01
-5.079672875022456235e-01
2.717078292304945242e-01
6.913844847568395569e-01
5.812570491676396500e-01
-9.669085354915033514e-01
5.498309467036260889e-01
1.440401126329197631e-02
-3.106975588719613768e-01
-4.971461816302919501e-01
1.316819304546540836e+00
-1.250577115239347892e+00
6.166353187712387829e-01
4.577867620747371746e-01
-3.225641622208273440e-01
1.506399979378391096e-01
-3.986119848646015318e-01
-7.757924394051881611e-01
-9.253966070773490538e-01
2.762840593057148131e-01
-6.263394952651720748e-01
1.236079530156269479e+00
-6.640169813627078144e-01
-1.007615055769931267e+00
7.992913580980006705e-01
-2.109539199298173795e-01
-7.379423176825207209e-01
-5.686996997618863903e-01
-1.575534495982105376e+00
4.798012549743796429e-01
5.051024205395034938e-01
-2.634670037687951272e+00
1.892131131157587798e-01
1.882959690594165902e-01
5.826658150496338839e-02
-1.458346531636682264e-01
8.263542674363355545e-02
-7.462012597339802156e-01
5.884730672726459777e-02
-3.037125365246970965e-01
-4.412714951284404941e-01
1.166771504047420027e+00
4.018243375139667894e-01
7.581064644709906153e-01
1.678872453741438564e+00
-6.138187287068708198e-01
-8.822920633363726672e-01
-1.535147166363779458e-01
1.015276688209592049e+00
-2.941843641103756776e-02
-1.352044860489563183e+00
-2.509267275477069514e-01
8.600373159137183476e-01
4.033691728538240096e-01
-7.105122644134418408e-01
-1.297962928684157413e+00
-7.922221521934474930e-01
-1.900709134914672749e+00
-8.398508834051872096e-01
1.080271524867281840e+00
-2.748742187730570663e-01
-5.337137516868266651e-01
1.884699714384421299e-01
5.593044134771354425e-01
1.075933002926389381e+00
1.020703353843720018e+00
-6.019924249225130364e-01
5.461024392865906352e-01
-5.754161282574239422e-01
-2.310725250123180974e+00
9.210987827831597363e-02
-9.847089855897488142e-02
-7.730162917514640797e-02
-3.257729671214398270e-01
1.165009859272125636e+00
-1.435884547161737634e+00
-2.338934218962719636e-01
-9.097932873420679911e-01
-9.037594887222438755e-01
-1.686985281570999584e+00
4.139039457699362212e-01
-1.077809399455159189e+00
-5.385441313865518831e-01
-1.033616105999991541e+00
-5.553950777586543763e-01
-1.694754171395580045e+00
-1.813298297925545199e-01
-1.734762494953983269e+00
6.564520097304344937e-01
4.280963609326721153e-01
-1.285650608047853583e+00
-3.874490135198656038e-01
1.259433045278131935e+00
-9.010079922348400716e-01
-2.316973701858751955e+00
3.250427532414599252e-01
-1.569997913334126638e+00
-1.911754560008820825e+00
-1.277026743820524279e+00
-6.070784591374714934e-01
7.250915698890106897e-01
-1.879682330150092451e+00
-1.393250393245847762e+00
-3.627708235616411980e-01
-1.659294244969537369e+00
-2.854335203648332708e-01
7.044540812792607909e-01
1.035427216394961825e+00
-1.409625694655897599e+00
1.516179632476074568e-01
-1.429187682166699891e-01
-6.113947722942781882e-01
-1.714855550745038926e+00
-5.760422315663061843e-01
-7.284435638447995798e-01
2.915928717719554752e-01
-1.795187678292455569e-01
1.606429027428418310e+00
-3.008862615894003500e-01
3.856300699683580802e-01
-3.520114848347103975e-01
-1.432981381458371173e+00
-3.801001217128670007e-01
5.912302987864188619e-01
-3.773860893592161370e-01
1.114868591629617489e+00
-1.800892238025782355e+00
-9.138846024964611403e-02
-2.605509791190228630e-01
-7.175679593500446929e-01
-9.242746445723344639e-02
8.344413309726859962e-02
-7.730698697951712273e-01
9.692627844475261156e-01
-9.957669979973934327e-01
1.792737588613730448e+00
1.383756965821977492e+00
-2.860381267539478412e+00
4.413018816074933404e-01
1.871187599078693031e-01
1.711853503182965808e+00
-2.061354942082845032e-01
-1.533254062622025460e+00
1.387307260771770412e-01
-5.415057740972037958e-01
-2.099573475094969499e+00
-4.936305533267363321e-01
1.093978390942873968e+00
7.588082460000925011e-02
9.908925241537199780e-01
-1.282114652646026087e+00
-4.846666871608762972e-01
-8.754515213071568658e-01
1.598106263267500937e+00
-7.613739361830759167e-01
5.726013686088433641e-01
-4.646370957813095171e-01
-1.882901954697211444e-01
5.288030259573637260e-01
-1.000739901598828085e+00
-7.059661448681611162e-01
-7.841156993498430428e-01
-1.257710559053563548e+00
3.754638520263570145e-01
-4.552965631413901648e-01
7.486329658965659162e-01
9.464900744883796013e-02
1.960434088683327691e-01
-1.394232782888089162e+00
2.057095256472853406e-01
-1.470429732553096613e+00
-1.628524672120579719e+00
5.279325647917576525e-01
-1.320021081342519054e+00
-8.288493675089277923e-01
-1.928819113407635039e-02
2.705202932544831240e-01
-5.557640283019269489e-01
2.797658759155576338e-02
-2.466736121063024534e-01
-1.374488367725926086e+00
1.065968545211189555e+00
-1.715482917473641677e+00
5.562054292799513133e-01
1.094405332579991424e-01
2.662454324342292677e-01
-1.287141498239910593e-02
5.444686352179376465e-01
5.045329713027109086e-01
1.589707169846769127e-03
2.546148270795420832e-01
-4.536833076324947589e-01
-6.008343280954352439e-01
1.849522436619153720e-01
-2.585765847992274047e-01
-1.708232820985696732e+00
-1.389255427919021235e+00
-2.681084999278259051e+00
-1.354960238996729460e+00
6.267710089829034992e-01
7.593360455681361643e-01
-7.438832119321633352e-01
1.045450467270772288e+00
1.138436342096033060e+00
-1.426813321097917253e+00
3.467605636669418567e-01
6.388840010315476048e-02
-1.971671168820656739e+00
1.940989459375748183e-01
-5.513411416062106163e-01
1.513321128554599770e+00
-1.693217683706041088e+00
-3.120249071523155115e-01
2.868715365204763112e-02
-1.053201366954227558e-01
7.019440941687383750e-01
1.314109636675233825e-02
1.299167446183392194e+00
7.184110154120214586e-01
7.567034644583305880e-01
1.427158882612039381e+00
1.438634431723337714e+00
-2.464503074788945147e-01
3.915431334769400307e-01
2.594362803965870046e-01
-1.920006604660483007e-01
-1.321430994659493319e+00
1.600178611239172044e+00
5.738712736839314266e-01
-1.001247917049093328e+00
2.365389432692404370e-01
-7.898766318558759769e-01
-8.749282711785766331e-01
-1.508465726396776008e+00
-8.194765664107844794e-01
3.970982335434219412e-01
3.723078219087503360e-01
-5.600168772928006966e-01
7.284045331870816486e-01
1.611256850000175600e+00
-1.835995826705572598e-01
-3.799027224700168848e-01
-1.475694439961913629e+00
-2.290701297674798020e+00
3.772174357302532366e-01
-1.355306959911432463e+00
2.735133197767914970e-01
-2.432192149778253931e-01
-1.248563682021128551e+00
-5.059169610747791396e-02
-9.600268403022763075e-02
1.424377845679971832e+00
4.434723593982706769e-01
-6.377050562112234200e-01
1.592232299127909867e+00
-1.477170700965080852e-01
8.552609001476695338e-01
-1.537523698604088107e+00
-1.119606110196024851e+00
1.369776675293456147e+00
-1.537434812463823075e+00
4.709770876681603768e-01
-1.411252975223810990e+00
1.124781220827923311e+00
-1.566079546660280597e+00
-1.204769011990201921e+00
-1.119077448847547673e+00
-8.164173388980741075e-01
8.781586849063116595e-01
8.989645167320088337e-01
1.439273135502953105e+00
3.962138416689666154e-01
3.463461679295586348e-01
-1.261982051519454417e+00
3.438488846522158582e-01
1.385114643906418808e+00
5.680090578584786609e-01
1.667694696700025014e+00
2.721499021227621995e+00
-6.649058385088405521e-01
-1.268926528538641962e+00
2.045852850132528378e+00
2.820518828249270471e-01
-1.157811492256579422e+00
3.959085958745559575e-01
-3.297250578387895814e-01
-7.633033167841314637e-02
