-1.043590232142398572e-01
5.786560054080194249e-01
-7.954478879392246071e-01
1.680101963504792573e-01
5.599950803384071141e-02
1.819123343521233949e+00
1.457333535159745397e+00
1.007028635353550916e+00
2.214246797849852844e-01
-2.347289075035048633e-02
1.420032720451568586e+00
1.096596490158243453e+00
3.684891202609508754e-01
-3.485123680158544457e-01
6.917866528968640294e-01
-1.623542872125417702e+00
7.091647137529558664e-01
5.245582576820855270e-01
-2.124099361398958108e-01
-1.454799209785173408e+00
1.198516602362343697e+00
1.309206530500557353e+00
4.701302037698369407e-01
6.973797837741334549e-01
-1.340711766980665187e+00
3.913387773240760148e-01
-8.098478220788596360e-01
-1.224880305299223648e+00
-2.026050567617840414e+00
1.418294317628525425e+00
-1.992224929597663952e+00
-2.713069456768919530e-01
2.084515166991620372e-01
1.515939455539058733e-01
-1.779195198783370735e+00
9.553038370227694420e-01
1.436179851510859473e+00
4.144755848008292443e-01
2.374551753249321828e-01
9.183872631402921483e-02
4.889493639546133030e-01
2.290240886912717211e-01
1.023266660746708467e+00
-2.152616676875819035e+00
-2.333966631867066877e+00
6.731649903340728436e-01
-1.496988659133043249e-02
-1.389684717960472105e-01
-1.397452530162607565e-01
9.071260924537589698e-01
8.348588885036636320e-01
3.608052835235245337e-01
-1.659019874075369660e+00
8.476197042680344573e-01
-6.140975428737106556e-01
1.745906953198351985e+00
1.049673688255730042e+00
5.154135732155178395e-01
1.531430863811569676e+00
3.977080646171859968e-02
8.936447344504533374e-01
1.643227322566141457e-01
-9.529334703982845767e-01
9.827338855477568691e-03
1.674402351364220998e+00
9.298903443121432355e-01
1.058538606535206927e+00
-4.652137425513254709e-01
-2.736039810818639006e-01
3.088504084467684319e+00
4.155824432662598711e-01
-9.712282121634663312e-01
3.593231003808101953e-02
-1.900019999698358570e-03
-2.899787084740379051e+00
6.250714724719685922e-01
6.890611297131737922e-01
-7.109610533286465639e-01
2.288949782312498016e+00
2.931095570205234369e-01
4.290902165305255922e-01
8.208664395639365674e-01
-8.513155015562879901e-01
3.948146051758057440e-01
8.486303578892409050e-01
8.412742643984806312e-01
1.158286063956820433e+00
-2.858507611327423259e-01
3.582853903838211784e-01
9.700196543003479777e-01
-3.421115956534561131e-01
1.339575051867299527e+00
3.972631256536345856e-01
3.299719257978999121e-01
-1.013896663217207728e+00
-4.811525545472334353e-01
1.136011057608781849e+00
6.430791060604784670e-01
1.148645298605012188e+00
1.591395530294022587e+00
2.223536030836947841e+00
7.537685269677242283e-01
2.631492775996500999e+00
8.011732349935584141e-01
2.035509199283632942e+00
1.697003160454993775e+00
2.235630950696105013e-01
-1.774534032798854133e+00
3.989185755913172149e-01
4.469836239977468817e-01
4.421526588015979309e-01
9.585841266192201005e-01
-2.585983192699639943e+00
-9.954167825879196574e-01
-2.880787742483754688e-01
-1.712982613820879685e+00
1.752740455660190211e+00
-1.615391646068722986e+00
5.148109244344440949e-01
-1.126258457454960560e+00
6.563420761248375257e-01
5.710680149687553664e-01
-1.502343268055134073e-01
1.087112203590311355e-01
1.268189425663514669e+00
1.746851289475741309e+00
7.763968965875192585e-02
4.498824106937309164e-01
3.362499789643533799e-01
-1.787388466530399400e+00
2.035890152981512990e+00
8.183509523071094138e-01
7.525669909381761391e-01
-3.752203764674864606e-01
1.832699726553080888e+00
1.334190502834713854e+00
-1.433622664667113522e-01
9.610106525204409333e-01
-3.374222188068305983e-01
-4.329322844710922213e-01
-1.474090196747269432e-01
-1.046800868618802838e+00
5.505267685078149009e-01
6.521557712603965884e-01
-5.633482662141995334e-01
8.588752607539904549e-01
1.642276277667947815e-01
4.305760405535696833e-01
4.055381197369809509e-01
8.588436608279890194e-01
1.251237641791222543e+00
-8.705754463843560220e-01
-1.227421123211117404e+00
-1.377257716406504962e+00
-1.475422591830678920e+00
-1.377761728168822808e+00
-9.777766641319424190e-01
-8.908205062837695198e-01
-1.141113260891176706e+00
-1.939707198715281411e+00
-5.159361116011531578e-01
-1.651637666729977583e-01
7.207679359087045823e-01
6.255760462033130853e-01
-1.639147930062761827e+00
1.222383705222693129e+00
2.079400571169154777e+00
8.614311252409605490e-01
3.952733846386272815e-02
1.409954141026471819e-01
-5.785314033019340885e-01
-1.580157623806664802e+00
1.195805520354296103e+00
-1.828449350890067049e-01
2.873458635048047771e+00
1.940263413622053124e-01
5.024868798952203397e-01
8.099707882009499205e-01
6.539943017483642596e-01
-9.058301254428349769e-02
-1.619808372985449996e+00
3.771353977947033420e-01
1.086543268736650303e+00
-6.227867482013227374e-01
8.814105194544614719e-01
-3.017832080981204257e-01
2.407233889694282425e+00
-1.175304337012358147e+00
-5.048689900133641606e-01
-1.671739196334690036e-02
-1.391471242660536012e+00
3.773643889137309193e-01
-2.153376186664463177e+00
-1.832667004716761250e+00
6.264004300102103961e-01
-5.543189160293099382e-01
-6.596990667359581284e-01
7.375362758351275971e-01
5.768005518737725490e-01
1.378304106078036773e+00
5.800988082030584803e-01
1.333342572311292384e+00
2.772297159103441766e-01
1.354570398006415211e+00
-1.010952997262576369e-01
-1.887252360212940405e-01
-1.618382044218886984e+00
-1.518514217106955444e-01
-7.973405473994250592e-01
-8.775098826039956501e-01
9.088951348152438658e-01
2.648416918308843293e+00
6.887964757546043426e-01
3.533987418876045616e-01
-3.335566302751398204e-01
-1.124731540596618729e+00
-8.965697088436448414e-01
1.248941838979167850e-02
-1.520441330080590125e+00
-8.294490379859619233e-01
-1.253304283283520837e+00
-2.241501355133241613e-01
1.457707706362904698e+00
-1.369349085995030579e+00
1.724852142670049437e-01
5.409699033364235854e-01
1.507939171466201378e+00
9.029113815486896621e-01
2.734207483937858285e-01
1.241032762401385714e+00
-4.740709636576500574e-01
4.220286060506893144e-01
-3.542661795495027355e-01
-1.157288685009285389e+00
3.992011777077050239e-01
-1.380766684428830493e-01
-1.461550406998072260e+00
-1.199041324013776083e-01
-1.361893935171847092e+00
2.426186068249024802e-02
-1.764983280282276024e+00
9.475481360045459045e-01
-7.761216442733714915e-01
-2.718708682600295967e-01
-1.289230352518653255e-01
-1.570598145780703003e+00
-8.450625023206036479e-01
-8.334824261439419679e-01
-9.938549102181263306e-01
7.620207757853955099e-01
-1.165044105920316486e+00
-6.921974980678672340e-01
1.135771531707148174e+00
2.826096828288765517e-01
1.084147549502152419e+00
-2.878177719284342739e-01
-6.318789985020685229e-01
-2.467451224058693215e-01
-1.193348077216799252e+00
-1.686408630532774344e+00
-1.481824547756578347e+00
-9.432410096975406555e-01
-5.922858642016849418e-01
-7.202384651216003908e-01
-2.393214152750335888e+00
-2.427708379582909637e-01
-1.485643719992750245e-01
-1.111374167733741425e+00
-6.747544032828765859e-02
-3.410954002924951878e-01
-7.285992030539435449e-01
-1.434425571674574629e+00
2.042717581367541058e-02
-4.709999181953957170e-01
1.479757832507015758e+00
-2.272545609096316976e+00
-3.061186675971138138e-01
-1.623339473815080591e+00
1.779836609544123149e+00
-3.399338049162087261e-02
-1.092645524794911838e-01
1.319984340774886133e+00
-5.271000346778110801e-01
3.211247328155286129e-01
-4.484386358458750665e-01
-1.065450200843442580e-01
-1.320420776158453435e+00
-1.516023731770602456e+00
-2.029973378928579653e+00
-1.655483105721813342e+00
-2.083378652680479171e+00
-2.454705201830894801e+00
-1.249218134614782150e+00
-2.512216219518614402e+00
6.553072907046381124e-01
1.162315971556659860e-01
2.409652014131885289e-01
-2.773798637864277161e+00
-1.604076019518947127e-01
-1.575598969636414326e+00
-4.327619564701558619e-01
-5.609800134496910617e-01
-2.242324902427280442e+00
-1.615535040234233444e+00
-5.367526693242433700e-01
-1.369560808171939259e+00
-4.169286491466177302e-02
1.798700487332259179e+00
3.704823630689581204e+00
1.556986509216668146e+00
-5.572608984241664842e-01
8.984285073262758547e-02
-7.031402670100780905e-02
2.893912880636856144e+00
-1.259444147708460360e+00
-6.196245509847405630e-01
-1.185458740510227704e+00
-6.855792217741607519e-01
1.714742390366700842e-01
-3.497630999236776561e-01
-1.094594455813936662e+00
-1.543528881973259992e+00
5.711686939955326059e-01
2.289409846050126873e+00
1.889735850397187500e+00
1.265332910038537317e+00
-6.193232638451913186e-01
2.148987402472657404e-01
-1.153542709190922277e+00
1.162294899434885620e+00
-3.438671796904353428e-01
-3.529194593250954415e-01
-6.160870554451707004e-02
5.625752091853444270e-01
-1.156312860616263816e+00
6.177032462397025192e-01
4.818687895609117255e-01
1.506789398498472154e+00
3.697377986606523170e-01
2.867193816852183219e-01
-2.327984663919182295e-01
5.154951926971101939e-01
4.060754772591291806e-01
-2.240582776229904927e-01
-3.807315390360836715e-02
8.198111751961907334e-01
-1.015882890489032020e+00
1.540883484727294805e-01
-5.676835426460961065e-01
4.821574371644216095e-01
7.145494270613056420e-01
2.438317956321339519e+00
-4.861794722324897511e-01
3.936450619320965294e-01
3.814620480046818085e-01
1.974330687217000335e+00
5.213435073284367061e-01
-4.024957935756554028e-01
-6.695529127510753131e-01
-2.351271453491082519e-01
8.774794842738226075e-01
-8.777089729010527641e-01
1.446147907178992220e+00
-1.326587624051536185e+00
1.661900657144044891e+00
3.536246576489978088e-01
-4.208020698471966470e-01
1.224936211278320336e-01
1.153258495577348386e+00
5.858728191137154706e-01
3.934130605123842273e-01
4.741651603807758297e-01
2.034206271720467307e-01
-3.210473697250546543e-01
3.233510795091534273e-01
-9.306881820360792812e-01
1.426866237026507278e+00
2.001996030384438907e-01
1.649499925301441738e+00
2.239771874266574425e+00
2.303845182108553935e+00
1.811791311045346520e-02
1.265242018762522846e+00
1.810173522362504561e-01
6.888672687221623070e-01
7.937596431641998906e-01
1.403072632702041966e+00
7.719562577496421607e-01
-2.960183033900694594e-01
-9.341938150688769774e-03
8.371315041691002046e-01
1.304298503453481251e-02
-1.769717389796691798e+00
-4.325155641744137802e-01
-5.989104184201186065e-01
-1.222525162798125814e-01
1.796188381620878793e+00
2.168130984723192434e+00
-3.517520121625130058e-01
2.447654268869695893e-01
2.184524627490628035e+00
4.796084738377490164e-01
-5.022789390210665728e-01
1.130600417486601783e+00
8.311510142929178224e-01
-1.827257028564402697e-01
-5.196252455475414145e-01
1.126230936062295296e+00
4.544433084715067683e-01
1.118155028326462741e+00
1.159230306714319703e+00
1.678006151166055560e+00
1.773391256093123092e+00
9.201094972322149124e-01
-5.869384227076236415e-01
-2.286448074952095455e-01
-6.949419021523273177e-01
4.486225941191872568e-01
6.414594043465673412e-01
7.201613045247516887e-01
3.422976302228106227e-01
-6.704075478367276242e-01
-8.205702237903746976e-01
-9.185054896291743320e-01
-3.162717022788589238e-01
1.460039579888338171e-02
1.155215717161295619e-01
2.554971623236558020e+00
5.195650319883928780e-01
7.406427521965820437e-01
9.541821983561318277e-01
3.219207570910752048e-01
1.085613299122754505e+00
-5.536690999016793402e-01
2.101838362381530878e+00
8.073531899363317610e-01
3.074975253809977715e+00
1.741530249272285280e+00
1.803851280111438804e+00
-1.304076802542180891e-01
2.403815895481295206e-01
2.235223016076555158e-01
1.340865870259942083e+00
6.829835041258175421e-01
3.933569239808892837e-01
5.292753690350127105e-01
-1.185223554098575161e+00
6.655157444665523725e-01
-1.796764706854178661e-01
1.594444979247506555e-01
3.669858822845639690e-01
9.124925262204268694e-01
2.848030930335280764e-01
2.254888926689366802e+00
4.535751365129724322e-01
6.854772945394170813e-01
8.251861150857534577e-01
9.919864972933697400e-01
-4.710428189323704884e-01
3.340548061085931164e-01
1.117185627303179718e+00
1.754159741662574934e+00
1.312801168698055632e+00
2.427543988017202281e-01
-3.315523411230134054e-01
7.288918125775083467e-01
1.081718408840421919e+00
-4.859713639343923863e-01
1.891410142105655945e+00
2.588443965312952511e+00
5.221887845565179598e-01
1.177045893626363693e+00
3.752390349204661191e-01
-2.241520969435605082e+00
3.734019471772451887e-02
4.269881535655716265e-01
-6.489038685822573482e-01
-2.843419621310707135e-01
-1.204100548983574548e+00
-9.498988348337703558e-01
7.927075648672472497e-01
-2.294840721710530662e+00
1.817507189113433674e-01
-2.629230176196757918e-01
1.551525717045812769e+00
-8.270007250295499102e-01
-1.848904969426619971e+00
-4.704676380648962521e-03
-7.140850571167560723e-01
1.193324548833440080e+00
1.966235245753595207e+00
4.991727980311588819e-01
1.850448926259105897e-01
1.679601239493733467e-01
7.657600414685802326e-01
1.399836987460010285e+00
9.675730612432732747e-02
8.747887557293052563e-01
7.392289378808494793e-02
-7.154423818020917425e-01
8.040983038373550329e-01
5.500236551273124386e-01
-1.474817689798445297e+00
7.877258611975764824e-01
1.080151076144829220e-01
6.932928764234940200e-01
2.177237019603437684e-01
3.261881119338498447e+00
-2.028335833388507092e-01
-1.040077756730080516e+00
3.104346810775390764e-01
-9.143847722768494446e-01
-1.796266333629850553e+00
-1.287031634297020721e+00
-2.181762587745574578e-01
-5.974033583165890837e-01
-1.803895010539234844e+00
-7.971174361755833937e-01
2.088517401577842103e-01
6.160720296075867797e-01
6.275353826134180135e-01
5.665688751186271910e-01
-2.319441942632759768e-01
-1.285859128999122247e-01
8.994237926203196842e-01
2.393503556984582836e+00
2.152682805921732889e-01
-1.633860141317639236e+00
2.486294305930291659e-01
1.178715365956584799e-01
-1.664811011336474245e+00
-2.432527614512874636e-01
2.016697596061456099e-01
-5.323514551224636793e-02
1.411366377758253021e+00
9.184122748067783393e-01
9.124722372652869229e-01
1.605805592856384412e-01
-9.170951895742568416e-01
-9.691774741528538795e-02
-1.537137773920374817e-01
-1.089481213206050736e+00
-1.200454394429054883e+00
6.241674970455571292e-02
1.183088095702244491e+00
-6.675343935905077020e-01
-5.236883311213358372e-01
1.985778293313523180e-01
9.989382503249085721e-01
1.070279231390640629e+00
7.160987916702326039e-01
6.435925717659826129e-01
-2.861490799569068044e-01
3.685819508044447801e-01
-2.628791078538139092e-01
-9.359573826758375015e-01
-1.008771900278384592e-01
9.690234718578097928e-01
-5.074833884167065934e-01
-7.337189505730060679e-01
4.630568875014502428e-01
-2.325797096301764622e-01
6.152698057829588674e-01
-1.799715411249408785e-03
8.088865889258435304e-01
-2.161960213257467345e+00
-2.204513599485812936e+00
-1.150051391839724158e+00
-1.532388214073930222e+00
-2.022052361931715447e-01
-5.970909830044320854e-01
-1.084052962912078311e+00
-6.352880764203107100e-01
-6.868149363243791772e-01
1.604196203739445492e+00
-2.445343598160193421e-01
8.584895308789267654e-01
1.068892344672386807e+00
-6.505133309046567947e-02
7.082562920489078317e-01
4.200743124671020290e-01
-1.022096848391006008e+00
-8.073476424424064213e-01
-1.700095596985155666e+00
-1.966350828392994021e+00
-4.882593760190082621e-01
-1.097509012967586711e-01
-2.150219190251111967e-01
2.576543666458762649e-01
-5.291939831976449904e-01
-8.887539226320528840e-01
1.995734842789508023e-02
-5.129708279925001557e-01
1.632404519040929536e+00
5.433598385339922787e-01
-8.948725021445026462e-01
-5.774877857749765031e-01
-4.227505143879868310e-01
2.032688384777428803e-01
-9.899320669691682451e-01
7.196914361942028382e-01
7.034709145183171142e-03
-2.973600666436975182e-01
7.934226369882129148e-01
2.798571862763457943e-02
-1.447128484550683103e+00
-2.302059804718265268e-01
-3.833923128752407261e-01
-1.293430889879067180e+00
-5.779698901542911216e-01
-2.506196757001277753e-01
2.701976312526530588e+00
4.032236370848109597e-01
-3.741231956555501892e-02
-2.374985349416685598e-01
5.219167165520716134e-01
1.021298390896461239e+00
1.419987309466925307e+00
-2.384800093626855966e-01
1.231903244665324970e-01
-6.730787814959927895e-02
4.805880419302032136e-01
-7.458290512472104394e-02
-1.894713141653960431e+00
2.436200014195489313e-03
-1.220884550324897733e+00
-1.148505743309652161e+00
-1.591697989461225538e+00
-2.421912917039322544e+00
-1.548847402237057302e+00
-2.466048033450814359e+00
-1.414271391431836111e+00
3.446087237742924327e-03
-1.596187653234175663e-01
-1.024792653144327714e-01
-1.942788167358575624e+00
-6.598119110041269497e-01
-7.687157839187501451e-02
-1.234101179383900515e+00
-4.487122443355297530e-01
1.720264658775883193e+00
-1.404998912092989771e+00
3.102700137303469052e-01
-1.180569350167824716e+00
6.347213823649022757e-01
8.527426806862968833e-01
-8.751708431291255197e-01
-3.985257962978124291e-01
1.271697919854933412e+00
8.118087723612431583e-01
1.323869584553647449e+00
9.901708295784622527e-01
-7.013940305555008692e-01
8.998725802895111148e-01
-3.839220814921519564e-01
-1.721819227493881499e+00
-5.920671552136735905e-01
-9.251453848374482369e-01
-1.838079253161033932e+00
-1.065579381515530250e-01
-1.584758854542185347e+00
-9.047384721740028279e-01
-1.010747935800650144e+00
-1.341282502525088960e+00
-7.078529831784723392e-01
1.072527031921403085e+00
1.403488133544535055e+00
7.153231744218564447e-01
3.568884240073150194e-01
4.936200813728615078e-01
7.093073269977926421e-01
1.728368945220341235e+00
1.534432892901614887e+00
-7.400969198330170640e-02
1.637280286920409278e+00
3.597073705024514401e-01
-8.289613448045402011e-01
1.358026640120652516e-02
5.489053639870322687e-01
6.348237965790418658e-01
1.813162056304447267e+00
-7.603697194363642775e-02
-2.040557586306083748e-01
1.978502543742007846e+00
-1.720444712458453207e-01
1.695147185889134711e+00
-7.701523981496646298e-01
-3.000307546826996505e-02
1.098087898668363288e-01
-1.302319644897949713e+00
-5.292196153764667788e-01
-4.536369452860875007e-01
-1.780102876764487529e+00
-2.056383638119382573e-01
1.735966241164212720e+00
6.858708573073619696e-01
-1.403261057015960933e+00
-1.067746075415664464e+00
-1.196458214990020030e+00
-2.100120700435147147e-01
4.789051595297066366e-01
-5.662364822000196529e-01
1.696999360128352174e+00
1.345995800872411774e+00
-1.985597733520982011e+00
2.453619471468055924e+00
4.481739491852985702e-01
5.713124747172888540e-01
4.952620116100756725e-02
3.828066221874963482e+00
-6.236072532521539369e-01
-1.354660871937552136e+00
9.075497499050446670e-01
-8.319563629593759169e-01
3.888063746908778651e-01
-5.526964863683559992e-01
4.384625547601360140e-01
4.473721150975678573e-01
-7.832328966556914018e-01
-1.820244460084574547e-03
9.545099794458586917e-01
1.029279563939473174e+00
1.516330064532944721e-01
-1.582789939627183007e-01
4.170828804223192243e-01
8.505419597975942825e-01
1.609705373129018124e-01
7.003322941043544914e-01
-6.809309681492854427e-01
-1.182936261226470893e-02
8.498412889603825793e-01
-1.370752932079279729e+00
-2.895610562641284247e-01
-1.592815999622170020e+00
-7.380509727311204138e-01
7.844817922774920405e-01
-1.130540555367009370e+00
3.166132096661794515e-01
-1.243717581572724856e-01
4.462104153014588848e-01
1.157251001948823799e+00
-9.536553635209040758e-01
-2.387081881585237098e-01
-4.305140312615050591e-01
4.578248145744895359e-01
4.737214770543794473e-01
9.349320949460225572e-02
8.086186233742547191e-01
-2.186151562304126661e-01
1.822924639311245265e-01
-3.977812182229095161e-01
4.313727787225614674e-01
1.491788148798733893e+00
1.522954726137065729e+00
2.025910044295336832e+00
-5.008479645531190849e-01
7.313504090540118296e-01
-1.409452630094189252e-01
-1.898161165942220674e-01
7.616907323803833174e-01
-8.308296396247182303e-01
1.051655170328537059e+00
-2.939052344623813706e-01
-4.752143654333575440e-01
-1.261127988996140759e-01
-1.733214455459145098e+00
3.114970629387328604e-01
-1.804327702775321951e+00
1.324841747779459844e+00
9.584678040271282784e-01
6.004645248186593620e-02
-1.902211165208301247e-01
-1.479695097795900471e+00
-3.918332550287305649e-01
-1.195209661686148062e+00
1.013075544307965536e+00
1.306553865999435127e+00
2.247616863581357316e-01
-2.574653892804786626e+00
-1.357624441810318661e-01
3.627448360335402411e-01
-1.699262877179428033e+00
6.178061184842601472e-01
-1.900483320635035778e+00
