-2.335757529506980124e+00
1.235602176285408804e+00
3.813608872901485536e-01
-9.761292075144096803e-01
-5.067482327021444188e-01
-3.052679268286494274e+00
1.252139685849981587e+00
2.197949047446871029e-01
-1.202088115917311351e+00
4.686359845426276705e-01
1.480251127836224256e+00
-1.399344644769467960e+00
1.215576861232257722e+00
6.603971297408498531e-01
4.490512038946688489e-01
-9.139080177514824488e-01
9.459087001159680597e-01
-4.888276902803735391e-01
1.910343939099584665e+00
7.510192145757498272e-01
1.517164672197011954e-01
1.474904963915015799e+00
9.201565518166161528e-01
-8.370283962537766742e-01
1.153033565790903658e+00
-1.258959927601253304e+00
7.038785329170265115e-01
6.556066693031371850e-02
-9.211211363528323259e-01
1.008121086129980748e+00
1.314899807836688694e+00
-5.931250677296592277e-01
1.731618545631518291e+00
-1.330498153382653481e-01
-1.106376766219534957e+00
2.391029470954140201e-01
2.503624930559652295e+00
-1.496196026254593470e+00
-7.565258709942076498e-01
-5.042051161550965832e-02
-1.033554364133816961e+00
-1.989640552748590807e-01
-5.046193977635999861e-01
-1.157779503312970082e+00
1.538366735616939207e-01
2.935499464820970905e-01
3.815361619896527612e-02
-1.900588707770994312e-01
7.449886337331347308e-01
-9.729242077913778930e-01
9.808900916254069680e-01
-1.275763283495193301e+00
3.082222244435048886e-01
1.120199036803474657e+00
1.920996133405661555e+00
8.819821099528275810e-02
-1.194907319453005101e+00
8.386140066983006625e-01
-1.562037617271665679e+00
-2.414913902111832933e-01
3.261369443114153222e-01
1.588843407045010397e-02
2.383943518561582486e+00
-6.081206360597471994e-01
3.384510590120434204e-01
-1.576878069276297367e-01
2.319172633304941167e-01
-1.021400414492754427e+00
8.599119507548177443e-01
-7.395133438726051445e-01
1.767985856057933347e+00
-1.608926318085953211e+00
6.028591826876854576e-01
-2.614964726153868324e-01
-5.197521960400708352e-01
1.109070550598661553e+00
9.269919056366672239e-01
-5.827933651672365656e-01
-2.571245858999686162e-01
2.371242190396120608e-01
-7.295067226797891102e-01
-3.075499283302705611e-01
-2.346036008035878417e+00
-7.088535163700245834e-01
-1.347246544092845166e+00
3.294869480931711392e-01
6.387514796450055599e-01
-1.854220181522982236e-01
1.264563405064016155e-01
8.361179274109180326e-02
3.062664990618645944e-01
1.507216389418813085e+00
-1.758664250459369249e+00
-7.917844127180538594e-02
8.373715610579602897e-01
-5.544052567485643346e-01
8.834257643153458073e-01
1.907067333345129345e+00
7.384471350948328405e-01
1.125164344949157513e+00
3.010082018689109740e-01
3.608335304828240164e-01
-1.186973408974822120e-01
-4.898630656214357226e-01
-1.719515405988353562e-01
1.569174891402378147e-01
-8.065963620514540189e-01
7.362407106802606460e-01
-1.808486843784981035e-01
5.936018448210984566e-01
-6.611819970818996195e-01
1.561179113069691926e+00
-1.141263325588036448e+00
4.678239399271459931e-01
-1.148676190142262410e+00
7.217104481995361143e-01
2.527253798959829822e-01
-1.062619695518366658e+00
-5.404635081188794432e-01
-3.219178531189927917e-01
-3.299881875380375473e-01
2.070834006635967062e-01
-6.957392298093799665e-01
9.886029997195023844e-01
-6.365371169117629568e-01
7.807013494286952904e-01
-2.986711215262873309e-01
9.600022297555228512e-01
1.706516352475241360e+00
-7.778611958528746095e-01
1.833660069176954011e+00
-1.320075288287070991e+00
-8.644573220263140900e-01
-6.644559685428563789e-01
-1.619069355285799983e+00
-6.838237900219680254e-01
-9.568985257341616757e-01
9.938527044671989774e-01
3.491216694403345144e-01
6.407317753984121955e-01
-1.676628343880730343e+00
-3.307560308370782742e+00
-1.263369329219358628e+00
7.289832696686562308e-01
-6.324394685768003344e-01
-2.178304637262825916e-01
-3.401185045961580555e-01
1.827802036667150465e-01
1.215359914389267271e+00
3.158171496298638452e-03
1.109536057439108658e+00
9.086087223012627723e-01
3.988981407844354732e-01
1.635723612762611356e+00
-2.523806854600502136e-01
1.094743038865090057e+00
-2.319279014544016471e-01
1.587512764627175166e+00
8.975328702262388436e-01
-6.701630711981336752e-01
-1.849999925289370628e+00
-5.350183466643275709e-01
1.524207602533928174e+00
4.597861171620701293e-01
1.213011319578473302e+00
-3.633006282833466938e-01
1.230666924735622114e+00
-6.886638967580080428e-02
1.310308054959332391e-01
-4.505020246786978211e-03
-7.589467452127377500e-01
-1.346043774218025346e-01
3.665548918368111836e-02
3.026667190590024981e-01
-8.984819123195797452e-01
3.311822249428336140e-01
-1.398497594638785091e-01
-7.103148975927255915e-01
-5.598879806348505683e-01
-1.870676120536926001e+00
1.373708619972927814e+00
4.206531504700202970e-03
-1.798937255611820010e-02
-1.233662197245320585e-01
1.578471974397730015e+00
-2.474034392311502684e-01
1.221464373583414531e+00
8.178760065688563952e-01
1.719312355455783203e-01
1.597014998618657033e+00
-1.171185764438144261e+00
-4.446523945078540985e-01
-4.809522712639889286e-01
-1.677799199043379597e+00
5.216153423105712728e-01
1.764156087019359997e+00
-3.227495580606789538e+00
-7.701933732993768156e-02
2.474269181189924893e+00
1.316439155936123484e+00
-1.527845981655683583e-01
-2.972328680161875347e-01
-4.827043923457227659e-01
1.612566385211497089e+00
-1.677653985756992983e+00
-4.463570188601927446e-01
7.299290856994701260e-01
-3.952950108813037960e-02
7.939728476027315685e-01
1.112177864921210402e+00
2.511498148886220916e-01
2.222861956461284760e-01
2.051281412339020171e+00
1.250376169762015044e+00
1.195050209538766506e+00
1.137707597941271631e+00
1.591514553155820133e+00
1.931215848631662402e+00
1.640139157907800849e+00
-1.316522013447984696e+00
-9.512756587767308147e-01
-2.147676157744424774e+00
1.163077033578559183e+00
2.238070095095364032e+00
-2.808874046853706077e-02
1.062800666786259729e+00
-7.143893209384784004e-01
-2.073260520759407477e+00
7.190329871661376403e-03
-8.418462978430079069e-01
-4.488107114768790096e-01
-3.037905069425689830e-01
1.378685886125896043e-01
9.093483214144761906e-01
-8.141079397253266070e-02
-7.571616091258016878e-02
-1.564723556048717157e+00
-8.257640726531919606e-01
-2.377285903999470651e-01
1.634179491731159395e+00
1.866844131350230640e+00
-4.441861451757172508e-01
8.673279510090189381e-01
2.810176755328331888e-01
6.052860839573496188e-01
4.958467782017012548e-01
1.477239414804232931e+00
1.169880242384372826e+00
-5.198891348605666485e-01
1.918034341548567889e+00
5.779486518366409031e-01
1.016938290471909756e+00
-4.092231984052195903e-01
-1.557270255297324324e+00
8.095858760997725057e-01
-7.193671046442972061e-01
-2.381377052802580163e-01
-1.332320254660176728e-01
-7.538455774435599555e-01
-2.004386496562533093e+00
-1.065109952482191424e+00
-3.365325313373168648e-01
-3.361046734351231802e-01
-3.753255370409457892e-01
1.466328829105834897e-01
-8.466781611637133054e-01
2.531610319347879279e-05
1.604874028254455354e+00
3.765863888924932290e+00
2.290601254733817260e+00
1.028074363485179527e-01
6.663293236542321418e-01
1.337970922619734493e+00
-2.006513552847267068e+00
-1.281557738965895865e+00
-5.499714192638273103e-01
-2.158740940643752104e+00
-3.099720351502620042e-01
1.128872120443057403e+00
-9.395117642463006735e-01
-4.725204181323705566e-01
7.987980936928190667e-01
8.846255365748373345e-01
-3.338677737864386152e-01
1.096777797543563082e+00
5.678683141804434786e-01
1.247823992318944780e-01
9.090323220641403079e-01
-1.124395074957380780e+00
2.825706841037081696e-01
-1.827703359212211609e-01
-1.015407639931328099e+00
-1.644109296185725544e+00
-1.174307179104121523e+00
-4.204419304626422438e+00
-3.631582994907082695e-01
2.021835556661237820e+00
3.195061131335219962e+00
2.441243180358947384e+00
-8.661327528533409037e-01
5.762405486122592624e-01
1.926931023471472493e+00
2.711791980635772648e-01
-4.968163088315087350e-01
-7.183821638367010598e-01
4.197341147360670321e-01
-4.815516036616279000e-02
-6.508945114931233844e-01
-7.152677834011673674e-01
3.507457942695629827e-01
1.079286517531228978e-01
-1.036916172934007951e+00
-1.630286584472528721e+00
-1.000141809687813632e+00
5.799487016878788204e-01
-1.862665786210496277e+00
-5.985788251929281129e-02
-6.432047102724267607e-01
-8.384374353868978558e-01
-1.302906174955074770e+00
-1.301465145356375253e+00
-3.201967470331361199e+00
-2.436447824262489625e+00
-7.948803228717113978e-01
-9.264449024948074873e-01
1.707561230801477037e-01
1.294069613520091089e+00
5.397210150861468936e-01
1.026468055220546016e-01
-9.882193793176069496e-02
1.086862280340382014e+00
-1.346670201472162542e+00
-1.987768542326818100e+00
1.013863488244443500e+00
9.280927908391667369e-01
1.821335843805186316e+00
8.828881827032705187e-01
2.661915559436910605e+00
-1.184899058780120473e+00
-1.127280562628585114e+00
4.472294479436996761e-01
-1.366357786980754163e+00
6.673397313944247067e-01
4.382520987951080138e-02
-2.305712109455599457e+00
-1.336786647590578192e-01
-9.936892101247223330e-01
-2.581544873455749123e+00
-5.888497377495891527e-01
-2.126532963759168560e+00
-1.076307867835637477e+00
-9.237025177743402038e-01
-8.546919065516907221e-02
5.520744200580156580e-01
7.204148726904037181e-01
2.279233155161433988e+00
-2.480905577795515862e-02
-2.792703472878438897e-01
1.328583541260330110e-03
-2.160172030849685676e+00
-1.899935896863904905e-01
2.145294458773824520e+00
-1.526381307368992690e+00
-9.128233060427894952e-01
-1.135154374444920844e+00
-2.283485618617832724e+00
-9.664568710719508848e-01
-1.020862475979810391e+00
1.697536615783841629e+00
-7.812601650936135123e-01
-6.804620650464976439e-01
-6.891329771330232390e-01
-1.399725830210597266e+00
-1.769105260465189566e+00
5.178826080241005769e-01
-1.131537371410546111e+00
2.645145320476426920e-01
-7.610337062882935877e-01
3.194632384115960733e-01
-1.724685912537758270e+00
5.406688403023651723e-02
-1.201714939526863146e+00
3.109496300190883397e-02
-1.539665865265526234e-01
8.899309573790369354e-01
2.244344280404825531e-01
-9.472149935194307258e-01
1.875964959706177271e-01
-2.949957210768024751e+00
6.444901280526603715e-01
6.709776233802108303e-01
2.109377336380502121e-01
1.170966610650619355e+00
1.514179088603008205e+00
-1.174856862342698038e+00
1.024957278067733624e+00
1.455272916823685536e+00
-2.386598699350075958e-01
-5.454197750847964432e-01
-1.631995732494674112e+00
1.721735342478478148e-01
8.950142053450182988e-01
-1.753667805942426439e+00
3.560497903700496347e-01
-1.039941096480628602e+00
-5.648125210787475758e-01
-5.276841536047373049e-01
-1.934043131327701337e+00
4.705127221846698848e-01
-9.745105289779178170e-02
-2.483274287163343697e-01
-2.984449782939031515e-01
1.049470105137380482e+00
-3.007451713312631059e-01
-1.944361900821079736e+00
-1.270594725308727302e+00
-8.442814813795351814e-01
1.050159835063681379e+00
2.050219536461559855e+00
2.458139061310364859e-01
6.799982022504148516e-01
9.192051213629058859e-01
5.354458826303770680e-01
2.944301872318457747e-01
1.146192186072503283e+00
2.306554026843042671e+00
2.435982132745016404e+00
2.501507083018456035e-01
6.903019472193508976e-01
-6.711578145473021673e-01
2.468450922028828654e-01
-1.395035356147637406e+00
-8.594178826259948334e-01
6.736774097460414001e-01
4.630466149031816636e-01
-4.969456433237344761e-01
-2.707446524485705441e-01
-4.350621707333037630e-02
3.977016602171453141e-01
-1.227510776645193008e-01
8.117945019300079612e-02
-1.815185541427006832e-01
-1.181947758792554204e+00
1.071642392811732236e+00
-1.183928071252405706e-01
1.250007139650062049e+00
1.267162886995659044e+00
-8.550351413623993313e-01
1.109872308786588713e+00
4.477586731111693474e-01
2.307014863591087539e-01
-1.473329810755312497e-01
-3.077519181917066637e-01
-1.538151768759018934e+00
2.069867785027670326e+00
-1.792793772503678829e-01
-4.065116610662840302e-02
6.188355259593945890e-02
6.798749883300119201e-01
3.039834608802714500e-01
-1.379004717413376380e+00
-1.514069861824765884e+00
1.547615261339325143e-01
-8.852310301557460015e-01
2.797268985144291675e-01
4.889940129422908344e-01
3.465763874527009181e-01
-3.365672677883783659e-01
3.767916961911592089e-01
-8.076339963945549094e-01
-1.003548941613239043e+00
3.073859959053671931e-01
-2.416573235696575672e+00
1.527579187565699881e+00
-1.789070968976190334e+00
1.406392753363936210e+00
-8.174136004288882207e-01
4.493115259842211245e-02
1.149262643654965110e+00
8.624632528489218908e-01
-1.667351868168207574e-01
-1.225705335535590024e+00
9.459129307877155446e-01
2.334360575299756768e-01
1.582805165295201100e+00
-1.525843339677066535e+00
5.680157589773352500e-01
-7.366716953097902643e-01
1.040385702608104035e+00
-1.760291639025610422e-01
-3.584962116172429880e-02
-6.547543612947475111e-01
-5.295767469732796107e-01
-1.095337797399337010e+00
-1.018697772504835619e+00
4.525752028010187472e-02
-2.732107181955032438e-01
6.500668713477354699e-02
-1.694469177289100736e-01
2.099921986967373810e-01
4.420410778146748876e-01
6.208576186398472030e-02
-1.987614994438281490e-01
4.849976145543562489e-01
1.460560508367646282e+00
1.556940129564664613e-02
1.860386562785231734e-01
6.491415189285626441e-02
1.829062190562952939e+00
2.850086100388804500e-01
1.497036886572921111e+00
4.338294812487652335e-02
-1.050569384579435717e+00
-4.674116068884894837e-01
-1.526804848151891159e-01
1.006733024444127045e+00
1.253832899093146214e+00
9.907062638135272215e-01
-1.450993091417340564e+00
-3.909617279553288527e-01
-1.833523578755140437e-01
6.350145458176466029e-01
6.899107139653601339e-02
-9.024947646153327341e-01
1.183207350325544027e+00
-6.020614739249652292e-01
4.698843217520207727e-01
-8.857753596067825808e-02
-3.040581027684955417e-01
1.714159438871787122e+00
1.281524065720229588e+00
-2.911634089486101473e-01
-9.821757734191234324e-01
-1.442304866145191766e-01
-2.196847355138327740e-01
-2.837406007926867590e-01
-6.597885444376043740e-01
1.090012065717626433e+00
-9.449189109897905281e-01
7.780163681764201700e-01
1.195439510495124175e-01
7.054925289250711939e-01
-9.403208774896990585e-01
7.806996460837778429e-01
2.099431596199098138e+00
6.299491923099905799e-01
3.438522724412061971e-01
-1.863797581662945124e-01
4.932333893655930189e-03
3.617438005920334265e-01
1.081002472556622740e+00
-5.542065487585711159e-01
-8.458284383180374455e-01
1.222916894286805167e-01
9.595156533836912693e-01
-3.712145986041864298e-01
2.816645881299126852e-01
-7.505229628764596983e-01
-1.437575245430363413e+00
-8.698953451341923104e-01
-6.055448940002180480e-01
1.216197626692192835e-01
3.637201037915125529e-02
-2.120975937068259320e-01
3.480663515457874113e-01
-7.210113818897725957e-02
8.504522921388383283e-01
1.278683454762450822e+00
3.787795617104782742e-01
-1.086656615128857029e-01
4.934874780626971602e-02
5.835312266810984694e-01
1.371277694172804429e+00
-1.109762037975682736e+00
-1.792901245299320712e+00
-1.123741013417865586e+00
5.073700482707447224e-01
-1.434436597776683753e+00
-5.648280797648392859e-01
-8.853141967470830043e-01
7.279086039484199411e-01
-2.341935291329735047e-01
2.121753258422715560e-01
2.384233962374758153e+00
-3.454302029401557644e-02
1.683558171327087294e+00
1.411171598109870251e+00
-7.040149386008812127e-02
2.071724968957083524e-01
-7.221228563095302144e-01
-9.588232525633935133e-01
-2.095584043306046862e+00
1.316667980706990093e+00
-7.827730801161335572e-01
1.066494522649845234e+00
4.472365987566420675e-01
-1.222403944802086029e+00
6.008012885852220819e-01
8.775504448229867194e-01
1.123321717032409461e+00
2.150906606656871056e-01
-1.025367904614111092e+00
-6.076710102047837569e-01
-1.167689256130019393e+00
-5.694613816088636149e-01
5.431295486289078323e-01
-4.300798954952090858e-01
-1.799165728908779904e+00
1.755407778150024078e-01
-4.910518881865229557e-01
1.510398266508418130e+00
1.585620689996990018e+00
1.620907038896991226e-01
1.094279674113281642e+00
1.996547883890588404e-01
-6.819792326923216352e-01
4.173090542484578780e-01
1.457212659523707821e+00
-2.809850877232517030e-01
5.874326597461101418e-01
2.171429465400590564e-01
5.858223657120893435e-01
3.095636123579173504e-01
4.834734405514089506e-01
3.095443423649438253e-01
2.033320410231621356e+00
-2.935684487874343773e-01
9.294162914336157044e-01
3.667739425418569676e-01
-1.041855458532458201e+00
-3.605613174186922398e-01
-1.340909916401222812e+00
5.953270331027729068e-01
8.715116603688662089e-02
-1.120531286745532817e+00
5.625408468607147050e-01
2.431850988837623850e-01
-1.066563463826383451e+00
-3.745834380153174048e-01
1.859648588459594798e+00
-4.343563780800602792e-01
-2.929177483534057824e-01
-4.549369184982874348e-01
-4.392398602097665750e-01
-5.631307279294833767e-01
2.162186727623143512e-01
6.414668421709738277e-01
8.578516007832487356e-01
-1.187653621147379823e+00
3.210607298759799444e-01
-1.263489283685743869e+00
2.054492425039339959e-02
1.113264937848720937e+00
2.931463306520620260e-01
1.083407812703830686e+00
4.412235861920007496e-01
-1.691066922376865400e-01
-1.537468194235047658e+00
-4.190434521410161817e-01
-1.215208746216271396e-01
-1.906357493418534110e+00
-4.179181933716496489e-01
-3.356017709208287680e-01
1.129162906409294287e+00
-5.641921018581068648e-01
2.347415207810976678e+00
2.080923945625815730e+00
-7.450923756008688281e-01
1.212498055820477871e+00
-2.073561452744828060e+00
7.488240511491375262e-01
3.592329616174416151e-01
5.053499131483335516e-01
-1.673739294024564561e+00
2.603838820907789509e-01
-8.805715613252820262e-01
1.369327170852973063e-01
-9.784246078971163829e-01
2.515599078905382258e-01
-3.290342748614101809e-01
2.150043075604352039e-01
-2.076780559818178773e-01
-1.490756140846227096e+00
-2.072131975002983850e+00
-1.197418488483032561e+00
-1.166305496144631526e+00
6.152422503142773724e-01
-3.225787443451415992e+00
-1.017415878821235520e+00
-1.608739066075548729e+00
-1.940829124391267313e-01
-2.122291464128466920e+00
5.180870590616782900e-01
-3.824487502186871835e-01
-1.101480522846621790e+00
-9.775812439599897985e-01
-3.306848915035801584e-01
8.424296961799020433e-01
1.459581105994368411e+00
-4.678109078810603894e-01
-6.410440295159657298e-01
2.407049334158205323e+00
3.251899212271128908e-02
-1.347137342649756375e+00
-3.160821839558429214e-01
4.865023420956925970e-01
-9.829657749943832012e-01
6.340933242151687299e-01
9.856282128170340551e-01
-1.600046972114693711e+00
-1.587502931279024754e+00
-2.478430785200750552e+00
-1.238304158481047912e+00
-2.092148549965010262e-01
-1.465585213342735171e+00
4.004899902651054555e-01
-3.507779446395078438e-01
-2.528240051939521504e-01
4.820623996747800954e-01
-1.103777651833383500e+00
-1.128083120979290754e+00
-2.661192170519157130e-01
1.145968537633778483e+00
1.576290069501157909e+00
4.131040038932631275e-01
1.964892975176935064e-01
-8.019429144729747216e-01
7.222458356891889482e-03
5.291293437843854752e-01
2.834991339562384360e-01
-6.422785797892662796e-01
-9.295246667408970653e-01
3.508356086538817475e-01
-8.908377369983216942e-01
-2.847168921857437182e-02
-1.041102530661785597e+00
1.109753721404536542e+00
-2.539337391071402883e-01
4.021146073119463704e-01
-1.448437750325662687e+00
-4.360737294836005140e-01
1.971451822711514992e-02
-1.071906915606810173e+00
4.676624328454090374e-01
-1.000072725231665460e+00
-1.265395713144670919e+00
-1.837075558798772823e+00
2.515632424197780659e-01
1.798518998816182934e+00
1.147102637572831485e+00
1.295215076584087799e-01
-1.402609188196238588e+00
-2.848119316171945359e-01
-2.122012108855343415e-01
-6.287793894840573161e-01
-1.466927629756491491e-01
1.168733376258379586e+00
-8.389861872060444536e-01
-2.475131135080413658e-01
-4.322552445477999550e-01
-9.420752894881297967e-01
6.934742046253653536e-01
7.662748309386193668e-01
1.359886772685072465e-01
1.109553370471951794e+00
5.217086298686293144e-01
7.386097616819019551e-01
1.176442542206147301e+00
-5.363293286179620090e-01
7.510596580347395079e-01
4.965947008307348698e-01
1.530600226114708029e+00
-1.138224739757261128e+00
-1.329116350578924743e+00
-2.713535937761587746e+00
6.497193229798573499e-01
-4.308301292978256591e-01
-1.294515913075275915e+00
6.486750306761113194e-01
4.251652894897909318e-01
5.710503245147774409e-01
4.451554222205478251e-01
-5.109757472407782108e-01
-7.618478299933375553e-01
