-1.681045398745380393e+00
-4.595100316458375911e-01
-4.857359266969139833e-02
2.683851235516212963e+00
-4.298635727464075185e-01
-9.521739763999572670e-01
2.677532538086187519e-01
7.175677667999070808e-01
-1.165014524162288234e+00
2.080608714041709106e+00
4.846057331655229117e-01
-7.269169642940997988e-01
-3.802506574537502515e-01
5.320327633298910230e-01
-1.377399477977748754e+00
-8.073299561471311003e-01
-6.155706877131251753e-01
-2.422697615656488335e-01
-1.424724029803451364e+00
-1.578156248539937523e-01
3.950575671135483913e-01
1.915366825080243141e+00
-4.076940163761419988e-01
-5.683374618835848047e-01
9.345557201262372216e-02
-5.244931609525908811e-02
-9.101423704524454206e-02
1.759644574122289695e+00
-9.857994037302195700e-01
1.548762923017900084e+00
6.242252134655387197e-01
-7.425392718653304192e-01
2.239258607280181224e+00
-1.053953152931677240e+00
6.920073027297373169e-01
-9.711938732916828299e-01
-1.343485760594102518e-01
4.428378140677132618e-02
2.159946267190751001e-01
-3.045252366761306284e-01
-9.482417273344864173e-01
-1.514534450152470235e+00
4.632907577562626056e-01
-1.394936488477023229e+00
4.646002370963688843e-01
-6.632553825952126614e-01
-2.266586547248513051e-01
5.468620114178640579e-02
-1.187522019652161198e+00
-3.061714012903684168e+00
7.193076688780427608e-01
-7.568526773350612302e-01
-2.542962978398709550e-01
1.955421393442490219e+00
2.179898665118963130e+00
1.579882481923012616e+00
-1.184347367897655712e+00
2.792473310117183916e-01
3.478108411497982111e-01
-2.442236884397538166e+00
1.289770350663689724e+00
2.197034843431371787e+00
1.319719117782669038e+00
-6.963041209576923407e-01
-9.999382858966013310e-02
-8.751393635327610054e-01
1.252948662779054534e-01
1.238323222878158214e+00
-1.239592598201825435e+00
-1.868048963602079837e+00
8.887174227003056259e-01
-9.315907215315666345e-01
-2.258068137269775733e+00
-1.582617689277559525e-01
2.312766378871691786e-01
1.393137796881600998e+00
7.216463250148155706e-02
-1.715338489822463286e+00
-6.887183089294635074e-01
3.125536476311148171e-01
-7.308071021748291374e-02
1.216825462919140399e+00
5.390582603683016227e-01
-2.119505974029700923e-01
1.788226186128192952e+00
-2.113974610465343268e-02
-4.722754738905158289e-01
-1.522054664123324574e+00
7.959369017798442192e-01
9.607025277989569290e-01
5.718455256098368134e-01
-1.398491753162073525e+00
-4.750659035727406443e-01
-5.261369230787350526e-01
1.930065551799672319e-01
6.580861662434470682e-01
-2.125225893349576900e+00
-1.784909134914201001e+00
-3.271072531852747267e-01
-3.255309193226318953e-01
6.711275937957535132e-02
1.387516424700879991e+00
-2.109485363074059983e+00
8.164313999171244340e-01
-1.153363754998649515e+00
-5.784004751391869092e-01
-1.826836195720755507e+00
-4.463768296291403814e-01
7.467435076821179463e-01
1.311461911999626806e-01
-1.289834978122269993e+00
-1.361403040143009502e+00
1.574761344453945722e-01
-3.832971968500729631e-01
-3.886592758455973545e-02
1.347631510620606043e+00
3.945024451849130087e-01
5.857669611795902620e-01
-1.527501554972331199e+00
9.275117066822241574e-01
8.843109620719770414e-02
1.192431062490395988e+00
-3.482396558405337905e-01
-9.684901310621943926e-01
1.596087640713912847e+00
-5.758944806816240769e-02
6.209881453999395173e-01
1.701804820801604556e+00
3.301686034596818531e-01
-8.196746959210763350e-01
-4.129234940676589916e-01
1.077260523481859966e+00
-6.574325253105148814e-01
-8.706107231788360323e-01
1.156289289581193813e+00
-7.192961862620613767e-01
-2.295084559525302215e-01
-1.026590101819525591e+00
-1.987471762237170425e-01
-7.296299735048017432e-01
-4.791556633196203396e-01
-1.039554111775786993e-01
5.469345484608819641e-01
1.516293799506741313e-01
-1.154418972199744209e+00
9.578503217282873239e-01
1.268984899169889546e+00
-1.237073134890313286e-01
1.959914582802928795e-01
-1.196972837879960727e-01
-7.939628686644227828e-01
1.544427535620534586e+00
-8.056658170363116822e-01
1.721509578184652611e-01
-1.620977406197807058e+00
-1.292227658123151990e+00
-6.295022622684453006e-01
8.722599439273758248e-01
3.855017981515765357e-02
-1.084554635858604676e+00
-1.309586603112081971e+00
4.982830699109109807e-01
5.034825106139527717e-01
-4.852863633669567966e-01
-7.492447713434711165e-01
5.081508067854901833e-01
-1.229831297261172018e+00
-6.260135777776827393e-01
1.490115838999149567e+00
6.069912919841629062e-01
-2.855118718526534205e-01
1.219768853291524069e+00
4.673043187525349751e-01
-8.066387016178934166e-01
1.137495299925360692e+00
-9.707416441314772326e-01
2.126376365857561623e+00
8.197155828460894744e-01
2.417337289713792359e-01
1.185567057584256678e-01
2.049119843298101151e-01
1.013755235975340785e+00
3.694476003214632320e-01
4.240622790203045778e-01
7.981126445016815119e-01
1.591464961125764466e-02
-5.411739109865385533e-01
2.072438132627120400e+00
-1.179834283413027984e+00
-4.036280902549473915e-01
3.073376655567666038e+00
4.675158705481717303e-01
2.544727519196795296e+00
1.370012515241701978e+00
2.632912208825812783e-01
2.166848544762851603e+00
-4.550332688433441630e-01
-8.942010242469988768e-01
-1.580217695876730888e+00
1.797720346005556302e-01
-3.728229062075713585e-01
6.251635111298552427e-01
-6.115216066086763824e-01
3.288280390541070131e-01
-1.383348991529344540e-01
6.057585067908971554e-01
1.168383333810816938e+00
6.377046298714442729e-01
3.558586053216574174e-01
-3.078438814639926635e-01
1.795674769668352821e-01
5.968466809411563379e-01
8.043814623362760541e-01
9.361516513412345697e-01
-8.453618153064640373e-01
7.055498749035306050e-01
1.957828630588908103e+00
9.876513221045624125e-01
-2.566410012059551771e-01
3.529262635723290575e+00
8.837800932577271062e-01
-7.932701429647885938e-01
1.636508055567204467e+00
-9.143824054498645992e-01
1.306961793593534704e+00
-1.784216862249533353e+00
-1.626223279475894845e+00
-2.575037153216455654e-01
7.630846577166233713e-01
7.529293193038575360e-01
8.988995615032367992e-01
1.822538613144554454e+00
9.870724791831301248e-01
1.105628937059677908e+00
8.088061748384651750e-01
1.236087272948994231e+00
-4.385448500918789905e-01
6.392454747533049542e-01
-1.349369200881386011e+00
7.935550102103930969e-01
-1.661429514517139272e-01
3.447513221074315903e-01
8.390325563016189925e-01
1.247903835576780862e+00
-6.087714682126625920e-01
1.864445560144550040e-01
1.694638653646982407e+00
2.076876344892549131e+00
-9.924761982689169759e-01
2.396677111200896437e+00
5.442277221553684097e-01
1.757407803692815906e-01
-1.132779141669756795e+00
2.242083102236556158e-01
1.044700943668392279e+00
8.874438461253858490e-01
-2.278775659451504898e-01
1.769794172356335737e+00
1.020089980592220780e+00
-1.619505435998656179e-02
2.609991367951981500e-01
1.683829160849691919e-01
-5.386128371684843763e-02
-1.380590939736687783e+00
1.003810066002210455e+00
2.350621589920447452e+00
9.948174703779372186e-01
-1.399793656836122224e+00
2.846771895300280186e-01
1.804752046427529510e+00
1.667234283823042063e+00
7.193977310625685462e-01
2.927527821241530326e+00
1.402185356436718378e+00
6.482213998273903544e-01
1.651849433813425749e+00
1.641586487980928322e+00
6.013088583879095950e-01
1.284614642391271655e+00
1.517866297957534139e+00
-1.264873612952139847e+00
1.525772537168162968e+00
-7.723671619753126327e-01
-1.825327110769384975e-01
-2.776166409590659079e-01
-1.946815759517046995e+00
1.236264705336750813e+00
-7.257436136977856167e-01
1.537508942070414386e-01
-1.276853825113921204e+00
7.784227994219311553e-01
1.031524824695818632e+00
-3.463203226788363898e-01
-8.284946458891778720e-01
1.065800739186808732e+00
7.876263111766846903e-01
2.972131966829021921e-01
-4.702328259204303224e-02
-1.207538739316177168e+00
8.562685868184762850e-01
1.570597188160251512e-01
-7.924764437271699657e-01
1.608406349755093778e+00
1.506312886953384833e+00
1.529373427846495881e+00
8.968622179481413603e-01
5.578945710422269499e-01
8.756834687126339167e-01
1.668792542830637382e+00
4.369753139645312506e-02
-1.661079955279470832e-01
7.347328535778921976e-01
1.034862080551968377e+00
1.581517498839671187e+00
-1.287701644435279569e+00
1.236684013497095336e+00
1.038717479032912117e+00
1.237012589531882423e+00
1.105491876584385968e+00
2.785384319144445175e+00
1.479079511693264459e+00
2.412726376048826005e+00
3.182348673831365549e-01
8.972474129264067511e-01
1.134828525074663030e+00
9.203728862234988872e-01
1.410782914710141167e+00
-5.894537536721074222e-02
3.119115099784568468e-01
-1.337579664333540252e-01
2.629797379964552428e-01
1.233814504756044927e+00
2.007236281299435987e+00
-5.302492671180633055e-01
6.675320495671615006e-01
1.253796793271673815e+00
8.164658532902786536e-01
9.950536258976977466e-01
-5.143486056333376744e-02
1.515157825198448216e-01
-1.161264579866900126e+00
2.826602445213999282e-01
8.536780216328316850e-01
8.955393972164062966e-01
2.032572200933472351e-01
1.317724779976001237e+00
1.869962222189806150e-02
1.733931770881262047e+00
2.264099900981457747e+00
1.943519423655850176e+00
1.212548682277693857e+00
1.160875070394086439e+00
1.315108697171495089e-01
2.809192800735396678e-01
1.666722472069710748e-01
-6.582154458738351810e-01
-4.625093588670173284e-01
-1.641020709987017545e+00
8.551958158467101168e-01
1.035618126954837237e+00
6.334750416281529350e-01
-4.680655788492603109e-01
-8.684693219961758803e-01
-7.860256667025574684e-01
-7.710465115249858226e-01
8.727637196449639090e-01
3.930689038421982251e-01
-1.600527821968515951e-01
-2.664677946409410580e-02
1.184893432751772807e-01
-1.031993989567806080e+00
-5.464222881344189542e-01
2.701592379082103368e-01
1.910807632702144765e-01
1.349856890807103138e+00
3.922870174097442542e-01
-7.920004362711891011e-01
1.829837459843072445e+00
1.118001637553527772e+00
4.675785881436577140e-01
1.267960236532746920e+00
1.465385077496842436e-01
3.735617561824974286e-01
-6.461944158676051764e-01
-4.665151524001948102e-01
3.599758751108679822e-01
3.705592696333174785e-01
-6.333284714739644272e-01
-5.236629572867230742e-01
7.592045847356281296e-01
-1.556741782774742622e-01
-9.514904161375761227e-01
1.751930626492560761e-01
4.616577197357926154e-01
-5.602208053387218722e-01
-8.904122211883589433e-01
2.894863132700433161e-01
-1.006008518915594702e-01
-1.017445213966016448e-01
7.868863862323937086e-01
-3.348305868925309792e-01
-4.838971075954981993e-01
2.208533161325789973e-01
-8.384249330113431467e-04
1.627773647488447883e+00
-4.567304568655030650e-01
1.515458283930454009e+00
4.536221280651946963e-01
9.344946408768621815e-01
-1.144859228814625318e+00
1.068479527277441221e+00
1.070084586853754294e+00
-1.093525731612816188e+00
-1.184295358802184950e+00
7.148956464677864719e-01
1.327612709928697621e+00
-8.997580146308943316e-01
5.960881130038100384e-01
1.905134736424441977e-01
-4.488105782800351773e-01
1.095452241630821888e+00
-1.281586015032519787e-01
2.187452042161470156e-01
2.362825234343853831e-01
2.066440276613879523e-01
-7.886598232264850905e-01
-4.020475273848267861e+00
-2.524300871254011591e-01
-2.638229634627494491e+00
-1.918820965967746595e-01
-5.631573803086380448e-01
-3.513410999813539048e-02
2.395585131296616321e+00
-1.010230732792102293e+00
1.061573983933360443e+00
1.089224312975314746e+00
9.579626302926760317e-01
1.265698362329275239e+00
-6.591876345276633797e-01
-1.246347524380433613e+00
9.173399998379117015e-01
6.540633044931896123e-01
5.947917780390789000e-01
1.650165264437698731e+00
-6.389937134966454657e-01
-1.676170675628459783e+00
1.211674142199590021e+00
-2.838947361030191852e-01
6.546965594433099556e-01
-9.292073020709712416e-01
7.211471939620515137e-01
5.735788938057555519e-01
-5.658939704560411732e-01
-4.819420281762383240e-01
2.613972482569226763e-01
-2.295258549610404319e+00
2.477996308619759627e-02
-1.826775825626292260e+00
-2.570992864811705747e+00
-1.905572866582390335e+00
-6.040848753244734137e-01
3.809359019717798445e-01
-1.251364496867493958e+00
5.941107439035028248e-01
3.252273124941353344e-01
-1.029532716687477256e+00
6.443283615663138175e-02
-7.871486626174820644e-01
-1.360917792937027304e+00
6.111604397000669486e-01
-1.102062505666160375e+00
-1.133764644951406053e+00
-6.063048808852290472e-01
-1.751069855335475989e+00
-8.417007256213122623e-01
-1.261353502534727333e+00
6.606182300325382784e-01
-1.624322515147352375e+00
9.875029862570755546e-01
-3.049637230325320525e-01
2.663784272410354426e-01
1.013583623322499433e-01
1.088265888737276754e-01
-1.970714756082736052e+00
-5.370179450168904856e-01
-1.954639832343327166e+00
-1.152403325189564454e+00
-8.499177368296758628e-01
-1.051192452991879689e+00
4.476428000388454898e-02
5.844059625418461801e-01
-4.090291953755315069e-01
3.885220321709609848e-01
7.148851397987613376e-01
-1.543203187380071784e+00
2.866770809049782875e-01
-1.020107421247624657e+00
8.200843979206253742e-01
-2.115758403946109478e+00
1.411635498371048847e+00
-2.325011769020866037e+00
-3.493001846120254439e-01
-2.071855889354234925e-02
-5.582243983354596706e-01
-1.912702096493642534e+00
-2.016070961238330128e-01
2.502040286832547977e+00
-5.963225708480468512e-01
-5.502297052732570970e-01
-5.106013479080889761e-01
6.063296357935964859e-02
-2.729937334197849452e-01
-7.589724175308321108e-01
-1.343821304251275217e+00
-1.993639678794286496e+00
-2.345737305971441256e+00
-1.939531829391088147e+00
-1.816587812453593909e+00
-2.630761627263206726e-01
-2.963955019949622294e-01
-1.144362161198169803e+00
-4.797995265218121252e-01
-2.297913957753311642e+00
-2.715625876363887414e-01
-3.601172269119555791e-01
-2.291039923144993384e+00
4.781112408372073519e-01
-1.286219316801254342e+00
3.075444552111525343e-01
-9.212339635701111140e-01
-3.796417785654505883e-02
1.164940646882785258e-02
-1.394831937050282189e+00
-1.095515388295679848e+00
-5.529052661256056433e-01
-9.975720563250272122e-01
4.370661058400726051e-01
1.057345392999992528e+00
-8.945075340164528876e-01
1.238308365153220958e+00
-1.719291501365954877e-01
-1.036857663071253821e+00
-1.243400757120500799e+00
-2.495705251564340976e+00
-3.165941855315425713e+00
4.664862150822463027e-01
-1.723192235796152438e+00
-1.128705064253276324e+00
-1.123695792494763479e+00
-4.248708762271263817e-01
-1.508092000589641213e+00
-1.497633363223516145e-01
-5.406107110058568921e-01
2.972146329718215463e-01
-1.818420975818726415e+00
-6.621521662815759157e-01
-5.340696463442721198e-01
-1.862541283728480712e+00
-2.656990449052329950e-01
1.479845928222352391e+00
-5.827899414029251712e-01
-4.434412617476163887e-01
-6.260730886783776317e-01
1.113798523936881946e+00
-9.087541788630983941e-01
1.157745216892054896e-01
2.125532408013322883e+00
-1.244268840822248201e+00
3.286012086816382238e-01
6.509956033014614452e-01
1.114078297944042006e+00
-1.257021832163276009e+00
4.334832213345677920e-01
-6.192738927617742056e-02
-2.317087869681062173e+00
-1.469321571860230380e-01
-2.643351978184547590e+00
-1.085080987519242979e-01
-2.164823984720551042e+00
-1.836520523529585613e+00
-2.410556771552814503e-01
-2.057221929085641499e+00
-1.030754053157116434e+00
-8.425747594072751090e-01
-1.233386042273048044e+00
3.189003622771002799e-02
4.983008427474351354e-01
-4.382468934957591267e-01
-2.239647279017608628e-01
-5.265010465918121829e-01
-1.080612792192726657e+00
9.153516860026885693e-01
-1.119425681739489864e+00
1.319729871562965062e+00
-3.718917476134478428e-01
5.383976350380621084e-02
7.764229348703821643e-01
-5.726866841149201859e-01
-1.524538891344354274e+00
-2.454133993362486998e-01
-7.152683565628773499e-01
-1.944913370048037271e-01
4.452051421630683764e-02
-4.283260613633551456e-02
-2.909963760344284722e+00
-2.159251540457514107e+00
-6.344422468881448784e-01
-1.742363555606077696e+00
-1.683263753637701310e+00
-1.518657257503652103e+00
6.869231999968442581e-01
-2.105194768683313011e+00
-5.762292502794724713e-01
-2.395242937542597872e+00
1.335782241684118493e-02
-8.024197330635371994e-01
-1.577693638785099051e+00
-5.950088972731882864e-01
-1.410611397453364502e+00
-1.182096696231590860e+00
7.234575753063711145e-01
-1.692146364342316911e+00
-9.684154771334565481e-01
7.094224083532743030e-01
-7.942081689503115438e-01
-6.871976307942397888e-01
5.366272725613268069e-01
-5.259304909785053050e-01
-5.037380872729858572e-01
1.177110542640665614e+00
-4.896563975960295800e-01
2.358910616546972427e+00
-9.622193166705593770e-01
2.359849776893815643e-01
-1.676854472259941220e+00
-1.335008765726261593e-01
-6.446553710315380270e-01
-1.209802883477494762e+00
-3.426455640042807005e-01
-9.031488202594567527e-01
-1.406360586197582085e+00
-1.681722172597474585e-01
-1.663205961206854155e+00
-1.706178157514430582e+00
1.830716468200886959e+00
-3.085062156153186574e-01
5.929220898763405412e-01
-9.363227725353585884e-02
6.565649378696784000e-01
-6.951886351371898698e-01
3.126680700245608735e-01
1.606781919525173352e+00
4.496613922657389795e-01
1.618145982118588622e+00
5.688321714608809282e-02
-6.993722193858643577e-01
1.006350385670353953e+00
1.787578445971897523e+00
1.154919173347163763e+00
4.021761569244896251e+00
1.548464178901611144e+00
2.044846816959646763e+00
2.063826005799386909e+00
4.941445433662394748e-01
-1.897576882043132684e+00
1.692514256021429242e+00
-9.164838781969568693e-01
-2.840334974879593077e-01
4.044482194146246101e-01
-7.714599818702301270e-01
-1.126545053680361397e+00
-1.369766549135542633e+00
-3.476283081051382839e-01
5.604568367615488933e-01
8.330445106844655001e-01
9.496610838581300840e-01
2.817843242783588109e-01
-2.716633267929882134e-01
1.475386046734952883e+00
-1.061892243427685845e+00
-3.054668298531132420e-01
-5.881603980393285136e-01
1.639900241375228607e+00
1.785054942223614605e+00
9.772078244422566229e-01
2.401077234832618590e+00
1.306618180127719242e+00
1.107643550102189067e+00
2.252451550126260749e+00
1.096804713132073728e+00
4.836869639672136678e-01
-1.649073928209857653e+00
-4.192923079636562411e-01
-7.212962917813153796e-01
-5.658263142694984760e-01
6.577519675071457073e-01
4.220879943505850274e-01
-6.671485515960304813e-01
-1.235190722524310614e+00
-2.900083955257752311e-01
5.368058023004047552e-01
-1.018573416021540057e+00
-4.891724841234652565e-01
-2.548637485428800753e-01
2.286445827337064696e+00
1.097976078310539005e+00
1.121345265627291532e+00
5.436856887958612106e-01
1.315478765149873608e+00
1.057846695188770836e+00
1.504280435121900572e+00
1.620787008230879789e-01
-4.568919006388581505e-01
-6.993330701953108797e-01
9.777503414054679320e-02
-2.610669962941290501e-01
4.629750373264322483e-01
1.845556646592975691e-01
-3.096206079831739233e-01
-4.577188599354220511e-01
6.777764504157254288e-01
1.327205810419476828e+00
-3.002852452425304186e-01
-1.035363080953578319e+00
-6.793202455524359751e-01
-1.612242854490691935e-01
2.313870264151913214e-01
4.858582369292366310e-02
1.082038597365373445e-01
-5.568352296799301548e-01
-1.007502108927974760e+00
-3.586228581685046990e-01
-1.590179810806091054e-01
-1.973604652033231488e-01
3.013714066836584715e-01
1.558229713183095999e+00
-1.127249750547892199e-01
3.372268637776474898e-01
-1.399323955602298497e-01
-2.391056423862705782e-01
3.132909519905204276e-01
7.411538427429903431e-02
-5.822753852300716071e-01
5.046883565628559332e-01
5.098435602358458718e-01
1.694581384562412696e+00
-1.494759794546983045e+00
7.642360953107354415e-01
-1.138741086407161651e+00
2.025288580221769497e+00
-1.817097427782674801e+00
2.118506582759122736e+00
1.066335364101120425e-01
-2.898285979353421471e+00
8.469441609680332661e-01
-4.198852604875104033e-01
5.788103323289702784e-01
1.739866050216236359e-01
1.854229376693195652e+00
-2.745311969154084486e-01
-1.290458805613962312e+00
-4.261482468538800861e-01
1.179148014571516523e+00
-1.250079247323065967e+00
-1.155555923906898874e+00
-3.860859463500924682e-01
-2.143682085514015068e+00
-8.419584585704701363e-01
-5.492287412977266969e-01
6.254062908999197257e-01
2.601508246887149212e-01
5.416433585550797791e-02
-1.746996199248026294e+00
-3.945224850187698529e-01
5.232331058593238382e-02
-3.753180338568542357e-02
1.490317645365882016e-01
-2.849874496770232746e-01
5.436341333342326054e-01
-7.990233385937758337e-01
-9.980875178413595172e-01
5.132091636618736352e-01
4.959210166453551505e-01
-8.328377289839643538e-01
