-3.654844412329745218e-01
3.146100280760500967e-01
-3.286578533318384454e-01
-6.545540201523266655e-01
2.293211800140883216e+00
-2.772254078119379406e-01
-1.669193529166809187e+00
4.077614851651782946e-01
-7.014710094067662383e-02
-9.046867674649748670e-02
-2.225252628474095051e-01
-6.439510998937535424e-01
1.428050396478069750e+00
-1.009027507887543917e+00
-1.148266905340451949e+00
1.078892388657442414e+00
1.882957128900365928e+00
4.301780033148039362e-01
-1.863578802488858432e+00
1.175955017448501588e-01
1.058636518272842580e-01
6.971360678974779512e-01
3.450012574445270319e-01
1.269929646291374503e+00
1.388294031818933405e+00
-7.241389535064507443e-02
-3.302386083833885877e-01
-4.126200179240476218e-01
-1.985433236954411873e+00
4.930221849052557337e-01
6.277446592196808117e-01
-4.283019543456845768e-01
-3.550644740224445095e-01
-1.358319725808365463e+00
5.561789171493930484e-01
3.814374241436039870e-01
-6.062978484878164126e-02
1.296717609110748848e+00
6.315946396291896026e-01
-1.029529806026324268e+00
-7.008220713306726468e-01
-9.893484867341516276e-02
-1.522026127057382494e+00
1.850427294298949144e-01
3.707473374417427636e-01
6.669774464786072388e-01
1.865143595635099794e-01
7.375075781559831123e-02
8.070547566078992152e-02
-1.108327271828888350e+00
1.857562893940749582e+00
-2.753002969375317743e-01
-1.018451725336613628e-01
3.626781173381931067e-01
8.374355525481040896e-01
1.431993682193000161e+00
9.094422479809172177e-01
1.413179974493716795e+00
-1.976620099436801059e+00
6.021465707765144559e-01
1.215998220181682132e+00
1.103140307995805314e+00
-5.941018036203612462e-01
-5.544764741515644246e-01
-1.842739144920562955e-01
8.696821072548963638e-01
-1.067787426062496214e+00
-1.025956174241201557e+00
7.333298207484522102e-01
3.762980282036950674e-01
-5.485787456635016213e-01
2.428850488077407110e+00
9.407217002384520299e-01
5.130560488532711627e-01
7.890632088367752761e-01
8.338680331644346966e-01
-5.363627005604879594e-01
-1.521005730412152035e+00
-1.008688992141917318e+00
1.977844906041979156e+00
-7.757223774327316468e-01
-2.063522459108291685e+00
5.314988715392729990e-01
7.301263130977019289e-01
8.969206718500659647e-01
-4.289629830922887521e-01
2.939711712250898251e-03
6.020157961975562966e-01
1.018173807987063362e-01
6.156099789640245845e-01
7.648708049821021371e-01
4.282252619635292246e-01
-8.108645566079308864e-01
1.481047043046571199e+00
2.103421333960818096e+00
1.991413390383678150e+00
9.969686639385066940e-02
7.995332658432987571e-01
1.484894375086474705e+00
-7.842858817143345540e-01
3.604267433511996743e-01
7.678073084209737775e-01
-1.487968370778341987e+00
-7.282565082746670360e-01
-2.628156821029135615e-01
2.892013050912676797e-01
1.252813785091053234e+00
-1.856555581733455584e-01
1.711657029499353166e+00
4.393395116072817408e-01
3.588927214243956554e-01
-1.746383842117619878e+00
-1.003357863193857336e+00
-1.551025358128683251e+00
-8.375905275137841555e-01
-1.250015274530122400e-01
-1.517910726867074400e-01
5.623924749406893769e-02
-4.723812920728414633e-01
5.033672784358390606e-01
-1.175758301496471425e+00
7.702811002179891231e-01
-5.312698301385724298e-01
2.877819955593172718e-01
5.702955376869580650e-01
8.900357330802395328e-01
6.120743225422518030e-01
-6.885077126547504145e-01
-3.213442065215886267e-01
2.405798122614469792e-01
7.080010593004838482e-01
-5.805851305111313643e-01
-1.475494616556197458e-01
-3.947705165922661963e-01
7.580862194786966990e-01
-1.955932813903039635e-01
-7.538271713077683289e-01
5.227733766651274649e-01
-9.434868853138587141e-01
-1.256284158095457126e+00
1.127981859410456034e+00
8.294823938042671374e-01
4.638572690308481183e-01
1.727837518031445807e+00
-1.216200442210003674e+00
-8.934658546257444600e-01
-2.965266012585753841e-01
-4.040662777680684159e-02
6.568040817726060743e-01
1.620455202775026304e+00
9.490698894599403079e-01
8.337646348416047903e-01
1.734314546822816716e+00
1.641494177670567156e-01
9.791838403692730841e-01
1.133376035552595029e+00
4.831486291981317849e-01
2.396234260292423035e-01
1.588243710335499159e+00
-3.476239309825241430e-01
-1.946230791561480433e-01
-1.276837386605553126e+00
2.165087745154898435e+00
8.152091840363927533e-01
4.315767491378924015e-01
-5.767226285735674307e-02
-8.542768815662795667e-01
-7.196853089258130609e-01
2.121901870760224684e-01
5.006575413040051936e-01
3.112099954466449603e-01
-3.267853213912133015e+00
2.722748395641066410e-01
1.082309810057079380e+00
-1.527676811849583594e+00
2.321334929584248474e+00
1.687065637437363819e-01
2.854661209704399405e-01
3.721903339146404588e-01
3.937927270113388278e-01
-6.006614924015930557e-01
1.338588661439131799e+00
5.423600514979975973e-01
-1.232230322311465009e+00
1.250052905229500633e+00
-1.386005473520304232e+00
1.688319461918670883e-01
9.084519416967590244e-01
1.374928538208642914e+00
2.426654421202055989e+00
-5.352018914688905227e-02
-7.027216265748871260e-01
2.141568994118364100e-01
-7.251010356120408673e-01
-4.505359026164738601e-01
1.052469200633940227e+00
1.003284596419500962e+00
5.814123214186397437e-01
-4.762932895583376069e-01
-9.265001646956593229e-01
4.249215349300583013e-03
-2.252587303860496826e-01
9.100197959683955506e-01
-1.585541161113993569e+00
5.616048689949653117e-01
-3.198957470336576403e-01
1.825275730317414080e+00
1.290172334293978373e+00
1.891792711460064558e+00
1.363069304847341900e+00
4.281738765624299448e-01
-4.444673171516652643e-02
1.150258480110405657e+00
1.319745700493935914e+00
3.089867380945257036e-01
-4.664961890221383523e-01
9.959527033309871769e-01
1.086844633657369386e+00
-8.899565096187403990e-01
-5.624498452091641898e-01
2.146740935955775420e+00
1.718628728038322506e-01
1.450350912609401854e+00
1.531215806311384542e-01
1.083553021358902441e-02
-3.058008913040863863e-01
-1.963419706563593659e+00
-1.007033244023005203e+00
3.686427971320295205e-01
-1.224196030497194387e+00
2.683518563580635785e+00
-3.253127692869350884e-01
-3.430294023939536863e-01
-6.562802548314113915e-01
-8.510174196554913806e-01
-1.894594521329961534e+00
-4.410863202682025475e-01
5.693288391500407331e-01
2.879758171437256653e-01
1.966869345832511939e+00
6.085418499476110687e-01
7.304789519189708313e-01
1.634803297234199038e+00
1.675538237656635787e-01
-6.746654199593785650e-01
-1.611553061149049837e+00
-2.866910082856553507e-02
1.785636895597201568e-01
-1.648422366016499163e+00
4.891945683497527231e-01
-1.579715439608774696e+00
-1.553379990565999236e-01
-8.396363904900620012e-01
1.332993184980742152e+00
1.057725050394977107e+00
1.027684056371843901e+00
1.404071018957318895e+00
-1.604933568047410830e+00
-5.418556633951628898e-01
-1.496324943294448317e+00
1.038967414764326636e+00
1.171259126174502230e+00
-4.978122630914519897e-01
9.888368919146527380e-01
-1.657101592758508934e-01
5.957826036944152692e-02
1.107240698431419590e+00
-3.491459944991679581e-02
9.096386129267700071e-02
-2.563418030804074932e-01
2.612475138017518739e-01
1.343979810362025296e+00
-1.025797318514713341e+00
3.744999953577519691e-01
3.680405018598003064e-01
2.783725839582494310e-01
7.030033804316209167e-01
3.840439192181559491e-01
9.027532770861980416e-02
-1.505349678585933715e+00
1.041837430231839917e-01
-1.983422966973356960e+00
7.643462042265960488e-01
-1.472381082484482406e-01
-1.640869974873967685e+00
6.086503646917323929e-01
7.765706862673192878e-01
-1.430430624365887304e+00
-1.418207428559524197e-01
-1.288869107621951615e+00
-5.133189387318174424e-01
-1.225020722866720785e-01
1.609898227891103373e+00
-7.116845849850842454e-01
-1.132995695720751650e+00
-8.994009453219868888e-01
-8.005501072115402961e-01
-2.214737911033490825e+00
3.139739947511007156e-01
-8.232723876464043133e-01
-2.119771379990834093e-01
3.267438855418464128e-01
-1.294170386168118414e+00
5.188305097412292816e-02
1.250334096974366815e+00
6.509373631160744189e-01
-7.383827537076536052e-01
-7.785114919393637534e-02
1.146846839202768420e+00
5.644088560676732702e-02
6.547177218776681351e-02
8.716866034734289947e-02
3.829487547908078104e-02
-3.060210918278300607e+00
2.851651728875709280e-01
1.261525187251732322e-02
3.244961584914991537e-01
1.762227019397512029e-01
6.173084312325851503e-02
-8.862997727468931997e-01
9.919608475768255940e-02
-4.407315575511346062e-02
-9.158669328181731073e-01
-8.781109642808500038e-01
-8.493719949745210940e-01
-7.112139363597588249e-01
-2.204242449572508367e+00
-7.720298099190031627e-02
-6.525555701775168638e-01
7.897466367213202831e-01
-3.615213709161846922e-01
1.165800975378788185e-01
5.277495811591492725e-01
3.196255564197551524e-01
-1.821016649226133710e+00
1.336292166583836316e+00
1.294372117300500502e+00
-1.077389811299320987e+00
1.039958042751203182e+00
7.369610536063604389e-01
-3.618130032932050377e-01
8.257994142902045365e-01
-5.972117565720647114e-01
-1.027274854970387841e+00
6.831631206601118667e-01
-1.749461783817889138e-01
5.631809911022879478e-02
-1.991690079379872247e-01
-1.389629403141506847e+00
-1.306141916093175759e+00
5.758964650345185232e-01
-3.028480281636453109e-01
-1.097368543049860534e+00
-5.548502675808463236e-01
-1.343902696914560213e+00
4.455567701450127704e-01
-1.479463199028035136e+00
-1.145906138432241539e+00
-3.742111190536200893e-01
2.198158159397936018e-01
5.829625413947511214e-01
9.645870300430289257e-01
9.190032706647901506e-01
-7.424200604414358251e-01
-7.249426739504691852e-01
-4.298413866394271698e-01
7.649817073667042333e-01
-1.191543282885429322e+00
1.493641167310637119e+00
-2.927900456155505537e-01
7.314318430603602428e-01
3.002676122936216441e-01
-2.943938875809025135e-01
4.590115130084365669e-01
8.806240767989634843e-01
-1.090792576038815520e+00
4.009425455287600748e-01
-1.171814384606617132e+00
-1.594634034205375084e+00
-1.300504841372486009e+00
-1.432176196736031581e+00
-9.762716708494265649e-01
-1.574721228781021054e+00
-1.635797498998315502e+00
-4.399152559291162334e-01
1.746357004857626294e-01
-5.720142211441411328e-01
-1.352155252762796911e+00
-2.606053135022124989e-01
1.274807077927883947e+00
5.503550171038468219e-01
2.193359773296318094e-01
6.902476391544309919e-01
3.963736098883851033e-01
-1.671320248719593060e+00
-6.655606371232171137e-01
1.882440238468719995e+00
1.016217856835682332e+00
2.200533276841869501e+00
-3.703660545948052052e-01
8.031332381265495757e-01
9.747052221979140008e-01
-3.936518755414197268e-01
-1.450627362479653071e+00
6.807729550646188788e-01
-1.214356719546790586e+00
3.234778009578670455e-01
-6.603341155150660446e-02
-1.645863413133580755e+00
-6.789171849476343112e-01
-1.013363393195417572e+00
-1.258129497330660040e+00
5.902885732238003502e-01
-2.487376514944649730e-01
5.377433449800731458e-01
-3.432094643960617586e-02
-2.394093394191095306e-02
5.462525307780455863e-01
4.258044582347281226e-01
-1.276412697752293157e+00
-2.237828993654286669e-02
1.343906825781952197e+00
-3.482172568426631920e-01
-1.041454006099580276e+00
4.301600649886576089e-01
8.660209456831345909e-01
9.559668447901709110e-02
-3.664498406366645811e-01
-3.204732304061451709e-01
-1.017965082917790864e+00
-8.503957413626343775e-02
1.292341905335625318e+00
-1.152003146182965176e+00
-1.068370596447203447e-01
-1.817929661155124332e+00
1.002260521635769397e-01
-2.251399438543970621e+00
-1.157207242464719066e+00
-7.361652185913671875e-01
-1.105645319865352083e-01
1.212631786163366199e+00
6.138397075473802644e-01
-6.040730587412003194e-01
1.281315560455660973e+00
1.347170212249837684e+00
1.322556311531658091e+00
9.831413066079237595e-01
-1.989656469715464393e+00
-7.686107070905646710e-01
4.029896916392865514e-01
4.037252859039980324e-01
-1.720993167328337625e+00
-1.012539548956569835e+00
9.440508825889467603e-01
-6.646778205053126554e-01
-2.836281319901887255e+00
-1.363095150449536774e+00
-1.381051330410698386e+00
-1.148752798068549241e+00
-5.018007777482922371e-01
-7.754575537568413335e-01
-8.587296434720084193e-01
-1.023041980971486908e-01
-2.099416012881289095e+00
-1.530016742551305375e+00
-1.381831289370612836e+00
-4.530388822651076897e-01
1.950325316889243432e-01
9.880662422366993936e-02
-9.277068798248381265e-01
1.412001575158737011e-02
4.570676141576381912e-01
8.615801092698001096e-01
-1.777968311557325043e+00
-6.744002144153774525e-01
3.970108915692122653e-01
-9.790783500697525232e-02
-4.750145413613235390e-01
8.641875967582514084e-01
-8.796532654440606877e-03
-9.257010564263322694e-01
-1.307777153208017573e+00
-1.755119440551482279e+00
-2.229420918098459659e+00
-4.000476988266120415e+00
-1.356525496584316315e+00
-1.264634495261699687e+00
-3.175282528957805717e+00
-8.412375643518791302e-01
-1.095647636415103987e+00
-2.986285985825340994e+00
-1.098059100616824102e+00
6.800388350356327827e-01
4.343476118840403633e-01
7.625691002359423765e-01
9.545247838258076323e-01
3.037622540105586189e-01
8.354050803994368390e-01
-1.939255886809290730e-01
-1.347512258300907595e+00
-1.471281320177224572e+00
1.106644795926653879e+00
-1.227845175587431781e+00
-3.803438269967171492e-01
-3.647085107691750427e-01
3.667227439581122739e-01
7.433882045503358293e-01
6.877119121340288244e-01
2.009141884381039578e+00
-9.313759962646510626e-01
-4.495000715045698314e-01
-2.562660682128046208e+00
-1.224163282325769320e+00
-3.597541940053066600e+00
-1.766668021623678309e+00
-3.339055954676235949e+00
-2.876493914085681336e+00
-2.748243731613858376e+00
-1.787122970458272508e+00
-1.786285943431530132e+00
-2.062374888868172551e+00
1.339460391183591170e+00
1.184429873125824040e+00
1.151575319124449992e+00
-1.036247317110265298e+00
2.723656145902287662e+00
1.032930297326076552e+00
-7.224504584692387210e-01
5.528293886613414587e-01
1.222894325567538854e+00
-1.438700510414442135e+00
1.725608270932889043e-01
-2.441944501904125542e-01
-7.324502678833472169e-02
5.201478291850071267e-01
3.571719391564574103e-02
2.240877372575005855e-01
-4.714852091006208057e-02
-5.741621513196910609e-01
1.065009588097437510e+00
-1.299151542856343156e+00
-1.366209674214992287e+00
-1.107157404189469840e+00
-2.104497835812064732e+00
-1.031195253251804056e+00
-1.959382838057360132e+00
-1.105962520573559038e+00
1.057627090376402235e+00
6.601155180847561033e-01
-2.664125369415997202e-01
-5.139896698137111919e-01
6.214496762583436862e-01
-2.793870231039145002e-01
6.803177691707469332e-01
5.514592713227437493e-01
-7.252111499702001973e-01
-2.480921693438065817e-02
5.569062548532096590e-01
1.773643483650058306e+00
-1.928197065827108314e-01
8.966419139285276840e-02
1.126158451547047301e+00
6.416330940635401880e-01
8.328969356885992936e-02
-1.066355643251533369e-01
3.565647237845057105e-01
-5.854577953862980522e-01
-1.249141830427937805e+00
9.340340927258307113e-01
2.919472325630483867e-01
1.722996948635206194e-01
2.809886656789629678e-01
-7.444566159869349109e-01
-1.370607496312577833e+00
1.975729231769614680e+00
4.833292993453567991e-03
2.795575608954197211e+00
1.071002128447805068e+00
-3.117513215434031260e-01
8.851695729076608510e-01
-4.269559868665322860e-02
-1.527998945457574032e-01
-4.878981352510075031e-01
-9.216651018116909233e-01
-1.610460876641724326e+00
4.339010226067205322e-01
4.387142854988040352e-01
-9.566957767514483457e-01
-8.686233646985282997e-01
1.180620556484524714e-01
4.802719626415540288e-01
1.712721106938317694e+00
7.282228502890766286e-01
-1.029138400826765665e+00
9.512631201814737703e-02
7.899798984559005532e-01
2.037724831276477647e-02
-1.079612462321891009e+00
7.042886396716545594e-01
-6.502470793396165905e-02
1.902919794687187416e+00
2.232978042936339502e+00
1.494826920434919160e+00
5.455742766677874611e-01
-3.520950854696843213e-01
6.850856968563991956e-01
7.525477879231705636e-01
3.918998581670399273e-02
-8.751063486406341907e-01
1.914454991854537547e-01
1.430460556383134296e+00
1.528350800487015881e+00
2.829946402887755230e-01
-7.193750752876833243e-02
-7.317168816725918568e-01
2.483902744954080422e-01
-4.216859877011424063e-01
-6.668904491854678040e-01
1.301454371842052224e-03
1.028387740614204349e+00
-1.294860062174525983e-01
4.669020167094363183e-01
8.913796133493696594e-01
-1.170078988094819472e+00
1.696702221585858705e+00
6.489974591704271711e-01
-4.057754162420894040e-01
1.630228907066782806e+00
9.136780451267153547e-01
-3.428496242058668986e-01
2.314615129837950480e+00
1.244960638148062543e-01
4.294088804079629340e-01
7.232913378396921278e-01
1.435805339288490190e+00
9.373868498473686417e-01
1.127528078378524645e+00
-1.418765908127887387e+00
1.864083114414011089e+00
-2.019005775878881248e-01
1.470223244550087793e+00
-7.010804960853019852e-01
-4.668542665693696248e-01
-1.577203001849076802e+00
-1.859665688336015865e+00
6.438055202342521932e-01
8.750119403640785887e-01
-8.739799124405217556e-01
-7.430542834871972646e-01
2.129911974356594739e-01
2.123563703032405492e+00
1.751484136350178300e+00
2.860884930555739114e+00
-8.290596593684711468e-01
2.213154350359615996e-01
1.446439903470970068e+00
1.794036213368908284e+00
7.370032803991344306e-01
5.050892891469638268e-01
-3.376938813350743307e-01
1.088755180158388791e+00
6.586837471399239474e-01
9.644939694191678736e-01
-1.397464627392506875e+00
1.699715758794117848e+00
1.061163208017474879e-01
2.517417480756173331e-01
5.562975218093919594e-01
8.319516891362828404e-02
6.211196360016395523e-01
3.456590398832335986e-01
-2.642268496169451475e-01
-5.593067905491176939e-01
-4.581208170207628494e-01
-2.188328291840065942e-01
-4.212192894505866758e-01
-6.333696843207408111e-01
6.995567936166688927e-01
1.376051093322578245e+00
1.999938782291300177e+00
3.674837486805399012e-01
2.734785130569444833e-01
1.505469061345279247e+00
-6.466917636461350094e-01
3.071463906738064686e+00
9.501302581381414480e-01
1.113937875773727937e+00
1.035420761208293516e+00
5.420124494971939599e-01
-1.895429580315161289e+00
9.042385492409650283e-01
-7.073746339519463300e-01
-3.439388844284363977e-01
1.923782991305071022e+00
7.147963339540440719e-01
-1.287966548468797656e+00
-2.145687131039031303e+00
2.079963119909197466e+00
6.528022912645402576e-01
-1.610530594180356712e+00
-4.552355104832563892e-01
9.922299020396082581e-01
9.302900600985821722e-01
-2.745931018818287050e+00
8.340809742985861863e-01
-8.689824961759344824e-01
9.334035007070463630e-01
-1.449671782827933963e+00
1.277123668385721500e-01
9.748419400322005934e-01
7.835375158534524376e-01
5.789887035934047077e-01
1.818406264249147197e-01
2.393017873182468058e-01
-1.104796218998169294e-01
3.033686535282493005e-02
1.996390446298217602e+00
8.954732155641881297e-01
-4.702749075479954466e-01
2.882045897457534700e-01
-3.092025504805643865e-01
-1.044183348909624387e+00
-1.508550315354323379e+00
3.055209351889295322e-01
-6.556760304258554828e-02
1.409124619531219924e+00
-6.535916984491031423e-01
2.309013940274079690e+00
-2.175955330137337718e-01
-2.242150018669117006e+00
-1.382488621624411163e-01
-1.205843735199328082e+00
-6.471389520500434034e-02
-2.409378117616852999e-01
9.987870306585243663e-01
1.733755680998174398e-01
3.681971010774000019e-01
9.540845723365399822e-01
2.957349986188548829e-01
-6.554304555412565625e-01
1.720209242476545608e+00
-1.492473578801584821e+00
1.737415376802633693e+00
-1.450502460427382179e+00
6.543754577377490778e-01
-4.795462033216487674e-01
-4.975576448193063106e-01
-1.157736572670004405e+00
-4.772232905364381939e-01
-5.831837920970669442e-01
5.251539140850240983e-01
-2.163170725141698170e-01
-1.851350443210334706e+00
-1.403967176864352462e+00
1.056821551692583405e+00
-1.684644346695581552e-01
-1.912855146473202872e+00
-3.171963260514654159e-01
1.578530703505109711e+00
1.700054090742342816e-01
2.834336291871357161e-01
1.666853649906906848e-02
1.242803599072999976e+00
1.007234354908478569e+00
7.257479771298320781e-01
-6.865303368890210978e-01
8.791754351532998779e-01
5.596682892696955847e-01
-8.477894088607576539e-02
2.283334377755307509e-01
-1.413573557930462021e-01
1.201292736614811008e-01
1.505377937846341663e-01
-4.504486087627893598e-01
-5.805265002195746371e-01
6.116228335365251345e-01
1.944896066109668142e-01
1.041270776928260755e+00
-1.530188247408387658e+00
-3.996646759146187389e-01
7.231173578803447022e-01
5.925077833429830410e-01
-4.685089618711211212e-01
-2.241793083672585229e+00
