4.313118760496114645e-01
3.354773705127983008e-01
5.591424314523540245e-02
1.003749401742742298e-01
6.996433981142512470e-01
-1.558530791034954399e+00
1.220743600377881322e+00
1.989736005084350445e-01
1.181042117967574967e+00
-1.813046147008726683e-01
2.603434392751816651e-01
8.230917672152142650e-01
-9.686650087868093895e-01
4.168784789550614711e-01
2.611450571113849706e-01
-4.899552606214465644e-01
-3.429243689438051662e-02
-4.154004835302981674e-02
7.140952184908235800e-01
-9.525614950265024472e-01
4.208827208570469769e-01
4.584969207036214689e-01
-2.644910583055864461e-01
-5.074353814560302045e-02
1.085355109594982270e+00
8.002653372294982193e-01
4.775057724888784327e-01
-7.222893582073649510e-01
4.012794435475351973e-01
-1.267709735997516241e+00
8.155567557781219223e-01
3.950046405664218718e-01
-1.801117612020860514e-01
-1.354717606323121881e+00
-2.132412055418780594e-01
7.389923348253552016e-01
9.101424813512540291e-02
1.244797750957747917e+00
9.236553908563843729e-01
-1.066528897925146602e+00
1.066562006239426985e+00
-1.545706020403457615e+00
-1.507629056027813386e+00
1.610374386118418669e-02
-3.950961384634827933e-01
-4.454187738208001401e-01
6.623310628796177379e-01
-1.493226061166187169e+00
-4.630570986826685886e-01
-4.864579562420977554e-01
-1.114086200653725989e+00
-1.145050689675141814e-01
-4.387268157993174933e-01
1.115512767419879925e+00
7.040206922746185259e-02
-5.861326602195061630e-01
2.586815982483739451e-01
-4.657660004796990716e-01
2.466864572524602117e+00
-6.740912582985654489e-02
-4.033995920393800283e-01
9.848192434788924920e-01
-4.077098744583722567e-01
-6.484340087745468217e-01
-1.963874138707142059e-01
-7.365182068188327880e-02
-9.945765619908008004e-01
-6.117338607445791387e-01
-4.435145095152346340e-01
-3.359920924831663602e-01
1.116304124223150174e+00
-1.038816113414982700e+00
-2.548826789876307286e-01
-1.342434554718028750e+00
-1.183872852319124647e+00
-1.109964307811315054e+00
8.385527765744678064e-01
4.167926983814225217e-01
-1.810009731263363952e-01
9.933035499264090129e-01
-6.823958484561379878e-01
-8.835740681680872566e-01
-2.473022648307001248e+00
-6.340094235241257314e-02
1.827221212649068560e+00
1.398554998020155926e+00
9.440502998749801256e-01
-2.748610264331411979e-01
8.039020022371748952e-01
9.623010922350055951e-01
-3.645175811940617461e-01
-6.914190018016509454e-01
1.958903243327400900e-01
-1.217196508908867658e+00
7.360398525620430454e-02
2.748082955845444486e-01
1.154845540111162805e+00
-4.092930078770961808e-03
8.428056547087444672e-01
1.510516168943223762e-02
-8.007500533605468873e-02
3.526676613843185426e-01
9.146662079352430030e-02
2.015751543725655126e-01
6.151202286940249397e-01
4.057788332521897190e-02
-1.180806219115883432e-01
2.808446567713055453e-01
3.078667820390232346e-01
-1.855309886136303543e+00
-5.315174096978434459e-01
-2.337637909940120384e-01
-7.229394741614666442e-01
-6.389679840255710896e-01
-8.312431314637568347e-01
5.417160828742739742e-01
-1.705626556673418559e+00
1.190359750918833726e+00
-6.313086651689462370e-01
-1.030481883072032590e+00
5.058109241096622188e-01
1.025567465822444069e+00
1.400245936871348906e+00
-9.713286575068788009e-01
4.294102804336894508e-01
-1.114972465198245111e+00
-1.066177540172099508e-01
-3.843826306853035529e-02
4.976707129532150220e-01
1.477852966857709394e+00
5.230948728664798208e-01
1.046032005024629674e+00
1.079019444144301287e+00
5.152334403492182524e-01
1.150503518402106184e+00
-1.082751215842194803e+00
-1.482250981542818369e-01
-1.587584079088502742e+00
1.865597021905628372e+00
2.257477045599537213e+00
2.266288731205730489e+00
2.005677563604199021e-01
-2.593109220624654765e-01
-4.132300304911278865e-01
-3.839342230366870057e-01
8.350887616115588719e-01
1.196228056392465655e+00
1.286711375778179789e-01
-8.582356300720258568e-01
-6.349232845221138843e-01
9.034645413559968530e-01
1.349867318897542301e+00
-1.426665491643233086e+00
2.681949980307102299e-01
-1.162740531760720675e+00
-1.237846306186577650e+00
-2.626398190400977550e-01
4.455103897766182208e-01
1.700159078447971872e+00
-2.388442051703212776e+00
-3.262006887080222683e-01
8.013854528943101796e-01
-1.318571385117701666e+00
9.483345998256182963e-01
4.127847535491881992e-01
-1.728487616135022442e+00
-3.109000524101908081e-01
-4.344526689254200602e-01
6.147962886952713646e-01
-8.043038256162432509e-01
-2.249512553188261488e-01
-3.742442674176832407e-01
8.056800243322640442e-01
-1.155548348351207677e+00
8.453185895136724470e-01
-1.792853218922436653e-01
3.261698594411606700e-01
-2.113646644689502363e+00
2.795599913299591788e-01
3.311984562783135133e-01
4.813250466162481422e-01
-3.712794329735205623e-01
-6.663144612498368424e-01
5.141282130006660789e-02
-1.177516567625323946e-01
1.304498825318318511e+00
-6.166348455908073900e-01
-2.158186756095573922e-01
-1.400797201284699423e+00
-2.893359989239911445e-01
-1.385744593731348839e+00
5.308129785043093074e-01
-1.123080171258355187e-01
7.391282402693835074e-01
2.176971042786267699e-02
9.138140157671741370e-01
-8.502826887002492562e-01
7.504312653837049707e-01
-1.384157126748605693e+00
1.074729156439373084e-01
-2.191296308322278619e-01
1.019841711819703178e+00
-1.080553013615303676e-01
8.759292954615445215e-01
1.630139121237589972e+00
5.650540332853013492e-01
1.420920561528999926e+00
8.039845930837750121e-01
-3.135867983791428004e-02
-5.202567883568011142e-01
2.552735904830417124e-01
6.342321326703410644e-01
-3.083734502245274456e-01
-7.045553875017670498e-01
8.305383856139911258e-02
-6.030737584952537977e-01
1.844878582619004614e+00
-2.454217182785414786e-01
2.110354662557700323e+00
9.376663310725488198e-01
1.521624987330023604e+00
1.538323386027669493e+00
5.003894216585741406e-01
-2.578496780174168168e-01
8.569510532595914221e-01
-8.987659936581253728e-01
-9.778941158143280576e-01
6.160770567167906941e-01
4.351090745523666925e-01
-1.270731458355711441e+00
-2.726971864692865899e-01
7.129920872343072924e-01
1.197814948554795783e-01
1.890000225811485635e+00
-4.765096258006744634e-01
6.945405980044472294e-01
2.661968088942710420e+00
1.314236041589610160e+00
6.383066241808523777e-01
3.864892744698751326e-01
1.311736988019447825e+00
-6.678355689407906581e-01
2.624583315950936857e+00
-2.387830653651271950e-01
-7.399628499345072274e-01
-1.064456572729733708e+00
7.748182683485147493e-01
-1.823393537130792996e-01
3.186130715364868804e-01
-5.668222554206338026e-01
-9.868136605985075027e-01
-1.477546337643586671e+00
-6.160606974697625526e-01
-7.402950157176885204e-02
9.925502020582428753e-02
1.816707488722231867e+00
-3.301108018400472632e-01
-1.913373990890194498e-01
8.438161123397265317e-01
-6.700109739885775628e-01
-9.451080359646591988e-01
2.678353726614169372e-01
1.481586798575964981e+00
5.300488954347049031e-01
-8.737961944023223126e-02
1.365215086250252119e+00
5.225946396259797400e-01
-5.587740749553198327e-01
-1.066295115785844683e+00
1.256319150840281562e+00
5.901264519125688501e-01
-2.781745171485920931e-01
1.150020630618682871e+00
1.817765202174122630e+00
3.949601018334522040e-01
3.618922924508909400e-01
1.447863885294793374e+00
1.397812042357793771e+00
9.447576605716222486e-01
-4.138431426568204424e-02
-1.516509395141493632e+00
9.378490313791656430e-01
-3.699039742477333581e-01
1.510902178950772834e+00
8.006158309417253649e-02
-1.834937160047104054e+00
8.434942414323969018e-02
-1.434982217753233646e+00
2.902628374144258783e-01
8.856069353174492731e-01
-4.232147712194508221e-02
8.257784892427415535e-01
-1.566947543097190754e-01
-1.392638664855082142e+00
-5.551463281877374589e-01
-2.196521503784866436e+00
-6.892737490699724079e-01
-8.656720419247473375e-01
-2.251639211699463794e-01
-9.998905746174768794e-01
2.308822723917996811e+00
-7.229730484377995259e-01
1.792967232730753036e-01
-5.125006390993886995e-01
1.729390806316052798e+00
-4.329366883653320008e-01
-5.205715692626236568e-02
-4.461135111136735332e-01
-2.577807209848300030e+00
-2.451882682326504970e-01
1.185380085721667198e+00
-1.453224802750782585e+00
1.325154706883220068e-01
1.057088326186325783e-01
-9.422487999744793008e-01
-1.911744313130337158e-01
-1.544099216871863689e-01
1.145035406220955565e+00
4.903820722218226735e-01
5.055726696993335656e-01
6.619558426095363268e-01
2.017238022861767455e+00
8.655578396092703519e-01
4.772719214997718229e-01
2.394957219452455988e+00
-6.985132899277243235e-01
-9.370574617106074145e-02
2.884374535511645132e-01
2.124820559289677946e-01
6.847528331174483895e-01
2.080932210076367195e+00
3.757117493527823981e-01
4.280287432620900057e-01
4.319990989271251247e-01
-7.996921720044625204e-01
1.533185157751435490e+00
4.145226918053483423e-01
4.987321711356252352e-01
4.445985678100112248e-01
1.242356843118033460e-01
5.170770689058543645e-01
-5.496477231899187244e-01
2.239405081909250583e+00
9.162332980690705009e-01
-6.029957655723059418e-01
4.394006413288832902e-01
8.139862607002825712e-01
-7.636690892606229353e-01
-1.405169710530611016e-01
1.055391004473737127e+00
-2.726373235370646020e-01
-6.135034829059976547e-01
-3.406836958914741254e-01
2.100984469040850511e-01
9.943080130319263965e-01
-9.715533165456479159e-01
-5.662554892379204619e-01
-3.552394873077414084e-01
9.773417905374778836e-02
-1.968605789257675154e+00
9.983970729112644216e-02
2.762027469963620474e-01
1.060561469735318063e+00
-1.168537090101156917e+00
6.792347108902765385e-01
5.839178640535349629e-01
1.532376983490916666e+00
1.144253084364980744e+00
3.708959942731825388e-01
-9.408304950462186012e-02
-1.246239872031411178e+00
-1.257382566855756334e+00
-3.734792518271667916e-01
9.319783145970141069e-02
-1.441817787388619099e+00
1.114574925244821157e+00
6.998518662014321379e-01
-2.276961478509707121e-02
-1.005923679644294744e+00
-9.101759833534227295e-02
4.012328807298147781e-01
1.230801645528573740e+00
1.651853361297741296e+00
8.432714590725143289e-01
9.896064197727540979e-01
-1.165185656056729746e+00
-7.926254447030248729e-01
-8.994277274100363762e-02
1.279425390316490052e+00
6.845877870680321386e-01
-5.741362920906405432e-01
7.849931711799752465e-01
1.022398837056338161e+00
-1.458716671036270451e+00
-9.295254777279559066e-01
3.071663004565560184e-01
6.548591925570874661e-01
6.615427915388818469e-01
2.638237809835911607e-01
9.100008322532802119e-01
3.567416446327555390e-01
1.346272584392815608e+00
5.448780440658829161e-01
-4.933145192604932450e-01
1.135244424568611521e+00
9.119666495454300525e-01
-6.472035793256768477e-01
2.343783752944994525e+00
-3.954805983456557428e-01
1.435434707317116421e-01
7.875579844496225501e-01
7.921154863091812715e-01
4.572702390458643351e-01
-9.660602227676240439e-01
-1.871043775354942484e+00
8.058845146238639012e-01
1.217445388265180561e+00
8.598069131095582573e-01
-5.267489609275732843e-01
-1.326774624341056308e+00
-5.419039989471904351e-01
4.012214561172547378e-01
-3.966336886891553282e-01
5.022574062575010378e-01
-8.514560025925450581e-01
4.862743241237847680e-02
-5.690898338185211847e-01
-1.014764664681150563e+00
1.037681267509220184e+00
5.899197136863905122e-01
-1.501775149787776709e+00
1.297751271728291744e+00
-1.410994183194690610e+00
7.537927107373589876e-03
-2.352713956991083488e-01
-1.197832732996009231e+00
-1.502892282632393439e-01
5.239537697336080768e-01
-1.291989149342189780e-01
1.192997593114519139e+00
9.143917126501198700e-01
1.519415401568083634e+00
1.229700151014411436e+00
2.009281107070286954e+00
-1.113786308673498704e+00
-1.482745510498346686e+00
-9.881745208918802925e-01
-4.586563180314038313e-01
8.769158060599899773e-01
9.717608789324860830e-01
1.189090547952970089e+00
-4.727328428715497632e-01
-6.663788016437693917e-01
-3.794787507101559099e-01
2.038076431365591468e+00
1.703115153664596093e-01
-1.050483193338206167e+00
-6.109513744425577597e-01
1.484427419050615704e+00
4.506473460766605155e-01
3.294141657288702785e-01
9.636850204994705793e-01
7.203484606438786964e-01
6.958805524783692187e-01
-2.630153701860115656e-01
-1.247109144679430459e+00
1.490316665342040547e+00
-7.516386612702156134e-01
-6.398986982050309802e-01
1.703215393051469073e+00
-2.564931573852955934e-02
-9.300142163041069665e-01
1.153673482359284463e+00
1.624065343007222051e+00
-5.013962647440974862e-01
-1.356321497426544287e+00
2.696276651472789138e-02
1.246294887546057772e+00
5.567920001183825907e-01
1.101435287625528892e+00
5.079499375630327496e-01
1.515767237146276702e+00
9.350316286231291629e-01
3.752756336013121641e-01
1.145961902012972988e+00
1.076275268146378306e+00
3.247042242087981312e-01
-6.132822555564498845e-01
-5.543053634587046669e-02
-1.118083737867876071e+00
1.250489841154182047e-01
7.413067773371613267e-01
-4.339158502962025543e-01
-1.510600923704653153e+00
-2.216363076682339450e+00
-4.250994351280469319e-01
2.192302239489914317e+00
1.793949609208257689e-01
3.148370841085858518e-01
1.004635284765856396e+00
5.505344977646877691e-01
-1.796350132413975509e-01
-1.663674719184694561e+00
-2.371391598919151189e+00
3.689046157827940292e-02
5.804820368571442790e-01
-1.250387864080575451e-01
9.310579630593162070e-01
3.143984654585411653e-01
-7.371846842545071166e-01
1.255181197646464408e+00
7.756349259665429319e-01
1.023687710086614411e+00
1.632294281362161037e+00
1.385741092331416846e+00
2.159519028521711626e+00
-6.932299318859067583e-01
2.985433199113428637e-01
2.539854176453129053e+00
1.706709618486612623e+00
-8.393301336225141851e-01
6.411218450508698874e-01
-1.388616457561495654e+00
5.567013094342777579e-01
1.311796992677241924e+00
1.202546587121939625e+00
-1.340058447339163905e+00
-1.984804451382140775e-02
1.209469827442306800e+00
-5.403699256453067812e-02
-2.039962274819235422e+00
1.361588859676243546e+00
-6.718845933371578871e-01
-2.613685598800248866e-01
-4.452325261353737296e-01
4.180570042581713830e-01
1.388815751383636332e+00
-8.282372933026193040e-01
6.155300530963070393e-01
-2.366274784461030734e-01
-5.510838587836741631e-01
4.171404916169674792e-01
1.309040380996220776e+00
-2.651458216910900778e-01
5.628341487866617143e-01
1.627580915676343665e+00
-1.182499736803355531e-02
1.540060511223477757e-01
7.710853274750520958e-01
5.700714801020420053e-01
6.031148062203712801e-01
-5.986449964440174742e-01
-1.712416783269233411e+00
4.816499340016879016e-02
-3.177097104433195263e+00
-1.127930054478924332e-01
2.031390064343925328e+00
8.019795741187706328e-01
-9.347960517607336595e-01
7.146707680847269595e-01
9.937871616093609806e-01
1.540844497289194370e+00
7.356529187790388224e-01
2.279114613853216662e-02
7.701387504125736250e-01
6.056406155862669172e-01
1.725635457969452835e+00
1.410710249340290101e+00
3.228520248415193139e-01
-2.530019655399594336e-02
1.121665291292444744e+00
3.715886635924607329e-01
3.546218954289682701e-01
1.197507854877056355e+00
-8.314048357384501431e-02
-4.837603271847363828e-01
1.321799729630335873e+00
-7.670609584776828527e-01
-2.994492576999819300e-01
1.911376155735613036e+00
1.026303645328876302e+00
1.754155561729890067e+00
-1.002751607975026715e+00
2.319873812973492766e-01
-7.909086864933977390e-01
1.931530294412579396e+00
1.305292839647838932e+00
-1.971433803709039811e-02
7.380955514922502569e-01
-1.104337780034262195e+00
-1.569357000274172131e+00
1.800296880099514274e+00
-4.086335506658169692e-01
1.390644405830338826e-01
1.005992535003578103e+00
6.615050892839487162e-02
8.805015700454533745e-01
2.533006080489756062e+00
7.820483881674576698e-02
8.208025771622544653e-01
-7.910330867216730510e-01
-2.403917019043897429e+00
-9.022898854114428380e-01
1.755577002058824332e-01
-3.219782838494767430e-01
1.406062549082709667e+00
8.811359930180949762e-01
3.199772855086299717e-01
2.267634509440922486e+00
2.419834743125001797e+00
3.290205114059858160e-01
-3.239819808512068300e-01
9.888966118046720322e-01
6.726660838132137998e-01
2.987418378531740970e-01
-7.478248112442730244e-01
1.111495496173243058e+00
1.314559050524452023e-02
1.693451497960878349e+00
-3.455505814448397439e-01
6.243464175789085191e-01
-8.542894707113058983e-01
-1.454866968740004207e+00
-1.594572815382492847e-01
-8.408934530101694338e-02
-1.572216321231826308e+00
-9.923399968241365388e-01
-7.110403027330465253e-01
-8.633384993077881930e-02
-5.619758157770841089e-01
-5.734034919029355054e-02
-3.669467511394616244e-01
2.981408492771148833e+00
4.982238887983337916e-01
6.977101654653037333e-01
1.583024762962063292e+00
-2.794669255201647287e-02
9.856206314314014394e-01
9.307628307637566545e-01
-1.593572428122419504e-01
2.934974835736363086e-01
1.924598755747332968e+00
7.950340571854744298e-02
-2.187795500223030487e+00
-1.538991681503998787e+00
-8.891289162276102553e-01
-8.174090183926577824e-01
6.201257337032028971e-01
-1.079825918153946684e+00
-1.294199826894359695e-01
-2.658301623543120606e-01
5.014310634808840650e-01
2.577544316866296481e-01
-8.459132972424888708e-01
6.049578016278075454e-01
2.799335195634236606e-01
-4.180788654371322965e-02
-4.234092527748360424e-01
1.314786974830667976e+00
1.252786801756699819e-01
-1.369899563440906964e-01
5.145833406581088454e-01
7.209358432242949366e-01
-8.087197090079419892e-01
1.583161304469285838e-02
7.151554550925091902e-02
6.172159317105746501e-02
3.089863579439840469e-01
1.798445186534190832e+00
-2.597059743392954978e+00
-9.679249457626746267e-01
-3.252230796705538052e-01
5.810523631052023213e-02
-4.145638585486838279e-01
-6.114052010863784553e-02
6.958556728818184045e-02
1.079366174561639941e-01
1.643155880521698808e+00
-2.803396693071696921e-01
3.417546567421216319e-01
-7.215935040229848330e-01
1.332748507697258500e+00
-3.647503195690951494e-01
7.364084658450397169e-01
1.899136805964816987e-01
1.414835528864008873e+00
1.276522393822957131e-02
-7.307146074878505537e-01
-2.559643422197150908e-01
-8.873577574473000551e-01
-1.245853096371835500e+00
-2.197737878765726460e-02
3.451006918610824425e-01
1.003150366399101490e+00
1.806866422152530127e+00
-7.591755374261477396e-01
1.192570177907728013e+00
1.578621808167367524e+00
-6.321867507239311568e-01
9.098743914503423236e-01
-6.108091757568383517e-01
-9.488103181061564584e-01
1.249010008087333562e-01
1.233673729296458799e+00
-4.934609173211461086e-01
-1.038681926671847444e+00
2.320258250504957598e+00
-2.690562546008319900e-01
1.236287113347724231e+00
-1.149992100548611340e+00
1.534616411766686062e+00
-1.421738428051957159e+00
-5.740293639961427941e-01
-8.880634553978845602e-01
-1.204515761097731286e+00
-6.350501840814455345e-01
-2.418753563990496402e-01
-1.439999032474225338e+00
5.442530176568401989e-01
-1.961039580961015591e-02
1.493490244700837799e+00
-4.279865911017264879e-01
-2.580227216960774839e-01
-7.679110444586429995e-01
-1.772354750315162208e+00
-1.869596477252704503e+00
-8.608416057626691043e-01
3.098762486820122453e-01
-2.120819025429156124e+00
-1.298370367597645458e-01
9.489604106510066694e-01
3.176887218914060673e-01
-1.742116492224085489e+00
1.329583226935847351e-01
-6.103926989252584506e-02
-1.877734246435611432e-01
-1.587970545916829179e+00
1.676292589942177391e-01
-3.914224074767024275e-01
-2.890692424138603389e-01
-1.036719369376699201e-01
4.503690990095680219e-02
5.583554403949513301e-01
2.027206382190951839e+00
-4.845220992124951165e-01
-1.483782035136465671e+00
7.363816461318770656e-01
1.331798833372981106e+00
2.025944088721856939e+00
1.105723336696630810e+00
3.963649163533421171e-02
-8.092990057719164909e-01
-1.433774524261401062e+00
-4.729150303763553498e-01
1.946771389282969889e+00
-4.801288100624305222e-01
5.636693910757498704e-01
5.853968148495900525e-01
-1.118778815043245833e+00
2.017867910673602216e-01
-1.224043437374386922e+00
-1.501612365860120146e+00
-8.128099541448382537e-01
-1.011641371380817001e+00
-1.768060505577578656e+00
-1.427631954519094359e-01
1.610290623518376846e-02
1.146803036598115222e+00
2.004268051883505153e-01
4.013982405378961893e-01
-4.272643189545437259e-02
1.183012666145041303e+00
-5.333040608942829497e-01
-2.141113325241403409e+00
1.541504758243584350e+00
-1.010236825512245556e-01
-4.497433635060142376e-01
-4.238231157573993935e-01
-6.383701735396200005e-01
-9.293008963308416193e-02
1.439009518590291803e+00
-1.100582307236349422e+00
-3.638179866630248394e-01
-1.185156158869293819e+00
