-1.129329013980749474e+00
1.163549089320192298e+00
7.097879238761399812e-01
-5.393741841613010068e-01
-5.512748699749649983e-01
5.947675702985946167e-01
-8.303354145202569425e-01
4.374934468728725045e-01
-4.743412912174675977e-01
-1.267598526348167498e+00
-1.362605087204875831e+00
1.528164605016327227e-01
1.823268616243151286e+00
3.219528273155672360e-01
-6.165236237835617361e-01
-1.233304693733275448e+00
-2.009833894768440210e+00
-5.362881089394982287e-02
1.127078461018262923e+00
7.533420372165586798e-01
3.521137580039919723e-01
-1.956620341927614470e+00
-1.690110491663658676e+00
4.597552506489369084e-01
9.995247020732398457e-01
-8.622343010308840539e-01
-4.457061004343318977e-01
-3.361613840801295772e-01
9.219203671274453504e-02
-3.951799422519832738e-01
3.965796259457169404e-01
1.109942677494899943e+00
4.903929021375714181e-01
1.002840056261465662e+00
5.350710041466419931e-01
3.844154044547211657e-01
2.798744092084725840e-02
-4.355431591964130100e-01
8.417147385348970612e-02
2.479148277048505433e-02
1.037118414148886947e+00
1.172512584842424488e+00
1.570988515139593700e+00
7.207317714439165357e-01
-2.446079024446426997e-01
5.724765190758016598e-01
-1.044121617458921181e+00
8.382411044560954261e-02
-2.240163003078348425e-01
-6.143297674995104041e-01
7.053907143861597451e-01
4.375872331543329552e-01
-3.835693020377982654e-01
-4.046151557029078472e-01
5.405378398787040739e-01
-1.448477683499740598e+00
1.276490118138334573e+00
9.214215822456870431e-01
-8.699594131690848720e-01
-7.033238357777010785e-01
4.539772417447240221e-02
2.734274742375505385e-01
-6.494024538098182031e-01
1.070116366954439346e+00
-7.531074834552373698e-01
6.969991695351607230e-02
1.289667909118981104e-01
1.311001719166524193e+00
-8.579176894649206409e-01
1.440979058184826689e-01
-1.053647575987522567e+00
-1.536286532743367683e+00
2.199032908725865987e+00
1.434744354861184831e-02
-1.208905096330418427e+00
1.234499534657680364e+00
9.227000224423573815e-01
-6.664539095358795739e-02
-7.489207660093457619e-01
-1.612447243830928745e+00
-1.481173460026820488e+00
-1.897895617347076236e+00
1.461960949039271318e+00
-1.103325509637486768e+00
-4.758537212822686602e-01
-2.916314033357467750e-01
3.436510209954369843e-01
-5.410236285270632051e-01
1.268078694047352517e+00
-8.474903084229479244e-01
9.005941580246444866e-01
4.396409792876876388e-01
5.651428591382253730e-01
-8.857638961112868081e-02
-6.551696204013434111e-01
-1.262281176900055257e+00
-1.647665205536364752e+00
-2.872638605492421338e-01
9.460694228536336015e-01
2.017737803408520492e+00
-9.508450192280762936e-01
-1.022856876188414504e-01
-8.530201663452444683e-01
8.897850821985026082e-02
-3.412969760398957830e-01
-9.432443773298664347e-01
-1.824731555179444520e+00
5.365640945304963293e-03
-2.359712605112319200e-02
8.856235757895027927e-01
-1.226222494076022684e+00
1.060484084344874428e-01
4.657471150274802851e-01
4.978860087464473949e-01
1.318513047608312005e+00
-4.352794796209214501e-01
4.307609041757776147e-01
3.158185047897337783e-01
7.324246017674513887e-01
9.517883229879295914e-01
1.334379064390198433e-01
3.685718236827424943e-01
-6.344724351729957856e-01
-1.120944104562532573e+00
4.587540865974804594e-01
1.042458532168466734e+00
-9.484936349742669748e-01
-3.500470973456736301e-01
-1.248232320142298457e-01
8.156596072857187352e-01
-2.118875317593251761e-01
-1.551455417257180169e+00
1.987224480704818663e-01
4.941501110588906176e-01
-2.080181195809053918e+00
-3.923143951484391878e-01
1.829454818552075090e-01
-1.450644660629118454e-01
5.683201441140985771e-02
-5.624349372073794706e-01
1.333069928545106198e+00
-1.509544058815240231e+00
-1.354209378756561222e+00
-2.485152120214123850e-01
3.348119686932354150e-02
-7.111510153515833155e-01
-1.246136130731704039e+00
-5.047411373705549265e-01
1.010328853756563117e+00
4.294976285873567945e-01
-3.592363571528405242e-01
-2.492143186779402775e-01
-3.102678323221825241e-01
-4.891644401024888844e-02
2.797637233637777915e-02
6.668409596079528656e-01
-1.298310445328962004e+00
-1.839170139247181979e+00
-2.203821685242113748e+00
6.244655689645056684e-01
2.188949786802024955e-01
-6.217647126796315149e-01
1.025071088849394796e+00
-7.302087830407604230e-01
1.542340998926685858e+00
4.121528545527509135e-01
3.121272746314707192e-01
3.566643351580664478e-01
-1.179077777716690756e+00
1.564976026815819488e+00
6.174590040062774010e-01
-5.041941851948092967e-01
7.693542227292036184e-01
3.816296255888547151e-01
-1.067266157164338258e-01
-7.516549998592235715e-01
-2.972702929869577293e-01
-1.476098362470637193e+00
-2.696107202901012023e+00
-1.720986486468557009e-01
-8.883148116779986392e-01
-7.434077307177352489e-01
1.186870601425921989e-01
-1.019807230191324798e+00
-5.935941882672918224e-01
1.653278403015331355e+00
1.589737586575517891e+00
-4.890784852498017421e-01
-7.297682507441987099e-01
-6.129833054123466907e-01
2.051877949352284514e+00
-1.373370862152035743e+00
7.275847409470943550e-01
-6.152741816553407989e-02
1.510212012082241761e+00
-1.218851662360247223e+00
-5.551696394849988669e-01
1.776710110238882034e+00
-5.667430406151817701e-01
-6.938340013355653868e-01
4.380019503183825713e-01
2.082660400996465266e-01
-8.567575586874934812e-01
-9.097453972073598072e-01
-1.496036599343864015e+00
-6.302658437262026458e-01
-8.519735145220214134e-01
4.321032512331070552e-01
-3.489893387639642075e-01
-4.533925130143227622e-01
-6.312967789711989575e-01
8.522586663920874717e-01
-3.437771678236016815e-01
-1.034317463750963118e+00
-8.821371574347762756e-01
-1.060932008526110248e+00
-3.273902465345834845e-02
2.678662390734922738e+00
1.122548482769320399e+00
4.842105147903019713e-02
2.928901559660931353e-01
1.969469488296083481e+00
-1.275555745989142842e-01
6.513125427681416557e-01
6.096867535628823775e-01
1.064176658337719461e+00
2.587997931696708886e-01
-8.247148300518006847e-01
8.224238812014362798e-01
1.462634618961004884e+00
1.666857085207455347e+00
-7.200818027234542340e-01
2.299566933003581101e-02
5.999045302675042324e-01
-5.864603245340533899e-01
8.117295336688764573e-01
9.124954648716722405e-02
-2.562263681920788905e-01
-6.275525273738994381e-01
-1.750003057397778727e+00
-8.322358412604236033e-01
1.746604973629064250e-01
5.076925233544854477e-01
1.045574300193572892e+00
2.848054336540147835e-01
7.392943713062952726e-01
7.222874316987122345e-01
1.952612181497595634e+00
-2.545781280379989520e-01
1.279939541267728631e-02
2.014219528099265577e-01
7.579919170662302585e-01
1.480189067672141423e+00
1.950200482576252226e+00
-4.589558195607449931e-01
-1.117413154926193863e+00
5.652528014283716429e-01
-2.117676893549958750e-01
-2.095403801417610179e+00
1.513664318798431940e-01
4.954306375684898178e-01
9.001960336321007672e-01
-2.559191387203960111e-01
7.076538578700624083e-01
-5.387558191377550543e-01
1.091849886829782124e+00
3.031276204510809369e-01
1.510069817152841942e+00
9.520819703690874825e-02
7.145589174579971559e-01
-5.520295140060884620e-01
1.837392637112637450e+00
1.050731671993548888e+00
-7.822159490683056049e-01
-1.167500920235103212e+00
-9.820975418581795457e-01
1.305992247019065244e+00
3.935306557054283894e-01
-1.172121276452650629e-01
-1.621820745952766429e-01
-9.367904153980550763e-01
2.823076035664044969e-01
-5.483750719064262036e-01
1.058475602193275966e+00
3.074701140548565803e-01
6.106371293373431541e-01
-1.070723942978753618e+00
-2.345659061040118176e-01
8.064557493583899284e-01
3.385173318212354454e-01
1.228609210007389096e+00
8.876304504360825465e-02
-1.267089530649754492e+00
1.185814962190339994e+00
-2.659240975523783135e+00
5.470645126626204613e-01
7.885928058962555776e-01
-2.852528861215538059e-01
-4.027062748064532127e-01
5.540545645692540599e-01
6.078444331933335887e-01
-3.564076603209120897e+00
-1.761462885159118530e+00
-3.554411549630479006e-01
1.199298264363969135e+00
1.009434049899478714e+00
1.205349894615169282e+00
8.204397803288797641e-01
6.906888952205474386e-01
-4.321783367074313181e-02
-5.706013233894007275e-01
-6.630078254229580803e-02
1.626961675424981602e-01
3.313289532091991396e-01
-3.312704237075925207e-01
1.505015631713407243e-01
4.547039366206662714e-01
-5.775183477354596251e-01
-1.289196614317695833e+00
-8.440131790246554466e-01
8.896884913449693011e-01
4.031748000129158349e-01
-7.198018975954874332e-02
-6.400460501286050485e-01
1.114219032118521691e+00
9.723399269700861991e-01
-6.916280018102117788e-01
7.214286562548638537e-01
1.025874201948815623e+00
7.396459110404537407e-01
-2.522181073444538790e-01
-2.070622291609155674e+00
1.992714878015729774e+00
-8.388230003512758826e-01
-9.293384351688897815e-02
6.589937187051299050e-01
-2.415694353047983245e-01
-4.311440164334696123e-01
-5.920649492913572509e-02
9.946028215885535650e-02
2.060975514090809813e-01
-4.906750525388432482e-01
9.398350120088030391e-01
-3.048725639300895462e-01
5.222457339074645932e-02
-8.570218421740793957e-01
2.700347007022968482e-01
-8.328797870698995132e-01
4.230566885550464673e-01
6.073102863560629894e-01
1.473148335807790074e-02
-6.561502261310615536e-01
8.607564949474370009e-01
-1.993680186773371943e-01
1.004746496858254012e+00
1.748563143169161282e+00
-6.761353222466885970e-01
5.402890531146898878e-01
-6.299476520818981795e-01
7.927245672497622575e-01
8.689303648890929210e-01
1.207424719234920663e-03
-4.856105903919267774e-01
2.008364905119336130e-01
-3.400319644308112399e-01
9.382593983251761305e-01
-7.794710390305233938e-01
-6.701133814433736235e-01
-1.747391480696079968e+00
1.501198744939819196e+00
1.050367301399814490e+00
-1.057229732556023594e+00
-9.921978677842060446e-01
-1.285227684148179339e+00
1.804320667994535610e-01
8.363635643612363779e-01
-1.030952668485426882e+00
1.446488560105046561e+00
-9.850829463505743344e-02
1.669868998283182471e+00
-1.409463654478183489e-02
-2.623546159531879307e-01
8.519450642153040265e-01
7.383765334647673928e-01
-4.055184779326873046e-01
-2.083591373257815960e-01
-1.075444914281967534e+00
-1.325348248385536332e+00
-9.111885240936444808e-01
8.608755483736356684e-01
3.476686746947947881e-01
1.864357682696750340e-01
-1.285755254114759216e+00
9.233007604491616505e-01
8.035400598024255991e-01
1.008485529754689636e-01
3.857536478948747627e-01
-1.742738386794144556e-01
2.159472002454555783e-01
7.991595063342837868e-01
-4.145545788702616474e-01
2.143179696237492438e-01
3.501233016477555693e-01
8.385805675929259850e-01
-7.520506357443150769e-01
-1.920472779739567093e-01
-6.482514901185497669e-01
1.431146119733641919e+00
-4.757317033768254100e-01
-6.230733632585584714e-02
-1.522286724229673927e-01
-8.052308633211995303e-01
-9.199088962556535576e-02
-7.760565664608861658e-01
2.358694838440500430e+00
-8.587031500350000846e-01
8.604025992960850910e-01
1.443874985246032194e+00
-6.139401143529158236e-03
7.106695358031958065e-01
8.300709086666657743e-02
-1.490179035866111112e+00
-3.399355780141709582e-01
2.521561358304945100e-01
1.148672258475059493e+00
9.474262331742162591e-01
2.778935941405500515e-02
1.133502405625846476e+00
1.116664185846595048e-01
9.896183296494974746e-01
-1.564187377106757593e+00
1.209179154186952598e-01
6.066358828086981098e-02
-1.017025836340008427e+00
1.570360420175688887e+00
-7.645309737172493181e-01
-5.403998107617564717e-01
5.067172450953825180e-01
7.673000375187346567e-01
-1.349022065820924876e+00
1.525904558259122190e+00
3.015431348216033869e-01
7.723846221072093732e-01
1.924482124250628257e-01
1.574505203326915792e+00
-1.067276340115454358e+00
-3.718516163890220327e-01
-7.408367631082281024e-01
-5.964790639523624982e-01
4.050274898589927702e-03
-8.708696040270390570e-01
-7.497838442345383658e-01
-2.227850351001355644e+00
1.763472669512435032e-01
-2.814836781697383286e-02
-1.367862101187715007e+00
4.320067166460848235e-02
-1.394102430893818134e+00
1.142051466678633664e+00
-9.217916042603869764e-01
-8.500285830850278224e-01
-3.245022279581257219e-01
9.575681592137765819e-01
1.410568592222047890e-01
5.034680762320752345e-01
-1.103751754915315741e+00
-1.504851390414861101e-01
8.529524028623934884e-01
-7.794172607540381659e-01
1.661733454921497655e-01
-3.533025239925839389e-01
4.948938444377881107e-01
8.276847627863954671e-01
3.627168169573257162e-01
-5.315398455475447426e-01
9.016836257993180448e-01
9.039920588445247152e-01
-5.016064826279681421e-01
-1.106878932988523578e+00
7.470265867389012104e-01
-1.851218378337094739e-01
-8.283522657058449701e-01
-1.713097457623906861e+00
-2.373826247661146582e-01
1.363403019671200811e+00
-1.317323497298932278e+00
3.453216073321814239e-01
9.044788243132296790e-01
-1.410105192891309145e-01
-1.135448656237397075e-01
-5.192878326262605482e-01
-5.457807009712836166e-01
-3.947749047466654337e-01
-2.171792650967078853e+00
-2.839426350531851218e-01
1.492587606685910506e+00
-1.140376713840602352e-01
-2.239375307155199168e-01
-1.434479934457150829e+00
8.860412784755036797e-02
6.855981305844369711e-01
1.587613048791345571e+00
-2.567885471701980005e-01
2.429520801814022690e-01
7.565439074711910461e-01
1.475646076007892937e-01
1.224877525162147984e+00
5.116860122492009610e-01
-1.614144444961124469e-01
-1.506795877513357862e+00
-3.200116727228864977e-01
-7.139275500077985059e-01
2.005071951022999066e+00
-2.940981981526164524e-01
-2.247330996540278791e-01
-1.411214808335381710e+00
-2.350584275610212714e-01
-1.174895255303234798e+00
-1.608516614259668520e+00
3.842602870691278483e-01
-8.015150180059952278e-01
1.764322896635124982e+00
2.419610536878083362e+00
3.314277168568010024e-01
-2.007012552128568939e-01
-1.810167079797447842e+00
5.865893328425125786e-01
9.196541529304077534e-01
-7.475682600498320118e-01
-3.626437266626223455e-01
-2.643107132581141716e-01
-1.515401371382813223e-01
3.321934287125306029e-01
4.145311335295244204e-01
2.081719067002699042e+00
-8.317829103526712675e-01
-9.801031929785731789e-01
5.851330691713109156e-01
1.857013504962060413e+00
-5.314454419600976864e-01
6.167026451038408741e-01
4.350277804748500232e-01
-1.422834573076020570e-01
-1.059511238935629596e+00
1.985691322109214507e+00
1.501888950319483662e+00
-1.164089074179968542e+00
3.881240058139647786e-01
-2.045997636284233867e-01
4.197522321221734409e-01
7.412428827930326314e-01
1.785742336129973129e+00
-6.786976386298257946e-01
1.076703167367264458e+00
-1.337847517473781389e+00
1.152862556603782451e+00
-1.390761100861804600e+00
-1.497176415039980002e+00
3.802002525725622917e-01
-9.354143149463282070e-01
-1.072036574169319634e+00
1.429171351893684105e-01
-7.127355190014328379e-01
7.852430175507953136e-02
3.771220933382796736e-01
-5.227922954515373116e-02
-7.388717781200867529e-01
9.336786464334332347e-01
-4.196956345058850402e-01
1.226930846410967391e+00
-1.561823884242206306e+00
7.033302961112658513e-01
2.012605044664241560e-01
-2.503954780488988272e-02
1.387006805618430150e+00
-5.830836608576281943e-01
1.228070307900420988e-01
-8.557604583959791400e-01
2.883417807126921473e-02
-5.381734935363414740e-01
-1.197526493773267475e+00
-3.170416147784302918e-01
4.690308606793172630e-01
-2.484475751127336984e+00
-1.463064180142758852e+00
1.307105018196973889e+00
-7.366486865012009666e-01
-3.714164286128844861e-01
7.691280894514260225e-02
2.554739327261140378e-02
4.309722940827278026e-01
4.361842188193597591e-01
1.545002861918756576e+00
4.415144764289851698e-01
-2.095423635958681974e+00
9.891062308434832584e-01
1.627090034822883391e+00
-2.753143374258162565e-02
2.067985452981381533e-01
-8.470059038176825927e-01
-2.910803185823383488e-01
-4.578857781045354014e-01
-3.701473833518678647e-01
-6.931010649288962266e-01
1.445318561586069472e-01
1.231640466382356802e+00
7.385544435720122758e-01
5.351484699100274023e-01
-5.796170341490063382e-01
-8.190356367972457807e-01
1.046897775974684919e+00
-3.328362934317312394e-03
8.143271758222496715e-01
8.523291230501096605e-01
-2.353895569043852609e-01
1.443174725809041936e+00
-6.870426232454934778e-01
-9.066679987816519404e-01
-6.602879687860437885e-01
-5.646695945404848205e-01
-2.356214347473570392e+00
1.652817427009651008e-01
-5.129555110645609428e-01
1.362749511502617583e+00
-3.864794698603474798e-01
1.109804828814773270e+00
-5.515369686277959982e-02
1.480404326257787062e+00
-1.790206631497444523e+00
-1.202435954968203990e-01
8.480312512343662901e-01
-3.048503616514206538e-01
-7.204914761894340991e-01
-2.674458619926270431e-01
-1.303853214867133938e-02
1.163343780345085454e+00
4.246247881028194365e-02
-9.837973029308016981e-02
-4.634547721667215958e-01
-7.233920325719735978e-01
1.184253787752145071e+00
4.909164342222358535e-01
1.119561386671732217e+00
8.766332289065348338e-01
1.035776769693163013e+00
1.027372089430288460e+00
-1.082467177883666976e+00
9.020204088092125261e-01
-5.618565974700018284e-01
-6.363138794633255158e-02
-7.334335816988747370e-01
-7.009625628931601682e-01
-4.144463502828729662e-01
-8.659097127390086301e-01
8.663681352360207422e-01
-4.313097841815372591e-01
-1.427253427958471876e+00
-4.454997475776591442e-01
4.857861236059953791e-01
-1.622821539117039524e+00
3.091570907932590997e-02
6.988715570148400502e-01
1.024801579773513271e+00
-1.125125194099036302e-01
-1.428719131104624784e+00
-8.254245389091676710e-01
1.150627515283905833e+00
-4.831460452079460732e-01
2.115914313962312387e-01
-4.052064584800874752e-02
-8.804984666827826434e-01
8.756079830308101386e-02
-3.388910193840224960e-01
-2.860542715964312088e-01
-5.554518333467890479e-01
6.555229487752095574e-02
-5.763328092803426950e-01
9.390763020857781362e-02
-7.123859769691858190e-01
1.036687103540628652e+00
-2.236875953943517070e-01
-8.193112592782441084e-01
-3.668628239036366145e-01
-1.296074117076742693e+00
5.965237545352894966e-01
-1.196318041723266168e+00
-5.416319868536415560e-01
-2.282633629752899296e-01
1.189575106461457699e+00
-8.157789764781616659e-01
-8.445389540737011647e-01
-8.339459440730174755e-01
1.145948479125301622e+00
-7.463813782996870927e-01
1.257348805153375881e+00
-4.152368256355742221e-02
1.117125424855759608e+00
1.857034395178845942e+00
4.004596383703400431e-01
1.326844085878834845e+00
-1.958388808384925184e-01
1.403431825485554452e+00
-5.170272688700324748e-01
-3.982019883210033417e-01
-1.193623334037976935e+00
-1.486680192408655676e+00
-4.338535675468223607e-01
-2.591000597221632340e+00
1.528443791436710164e+00
-4.699281613791652656e-01
8.751980966504961934e-01
2.473145534003734769e-01
1.350771022893729745e+00
-9.732094301707965300e-01
1.581964163770575915e+00
2.503615183843493353e-01
-2.616276956114241877e-03
-6.525777418862782620e-01
2.573369860107804774e-01
-7.393081563387676747e-01
-2.156927493135704643e-01
9.913195260179351598e-01
-2.179825369594269091e+00
-4.689693903263769115e-01
5.677894432428634008e-01
5.302935282528011829e-01
2.032788847174191726e+00
3.741005563653977961e-01
1.912847654746015813e+00
2.211021828071220163e-01
1.418227702112006439e+00
7.680984045515790171e-02
-7.166044226501023795e-01
-9.089229692791281900e-01
-9.699292235499101800e-01
1.146758858498484912e+00
3.889019548467258502e-01
-1.287543867490443805e+00
-1.260769412172080273e+00
-1.252523880121446886e+00
2.309002834704644569e-01
2.128316583841032700e-02
4.619216160595475129e-01
-1.439781962792221481e-01
-1.115214937110404980e+00
-5.526907131478480117e-01
4.796009337848087806e-01
-1.307016572726655557e-01
4.770376489536650166e-01
1.051017463720590683e+00
-2.657799396010342430e-01
-4.660723654282313277e-01
-9.988938619040914624e-01
4.717723225683730925e-01
-5.843446093503037453e-01
2.263280744130371780e-01
4.965994163708147835e-01
9.680819515251563034e-01
-2.031285653631223376e+00
-9.213171749460449256e-01
2.526998691676848097e+00
2.705707211129857459e+00
6.443626630469767580e-01
3.239008645819156373e-01
3.236748050901135931e-01
6.965717481567314240e-02
-8.554032916158893496e-01
9.826737325057409433e-02
6.719874779494124928e-01
-3.375822099685883981e-01
9.741584170162012057e-01
-3.043666210853330778e-01
2.395096230489684175e-01
-9.369552385734809807e-02
1.095591870397225165e+00
2.039430968921761844e-01
6.858969498796609887e-01
-1.255598182651428418e-01
1.378981416792012249e-01
-5.300447552733414391e-02
7.581449137817303230e-01
-2.120217537475163616e-01
-1.151937389470694351e+00
-1.129458959712787286e-01
