2.614362804400553131e+00
-8.864300338180070016e-01
2.270423601587235329e-01
-9.859346858487567922e-02
-2.358306029555326866e+00
9.698440551613205507e-01
1.114711260228237188e+00
-1.015425569719643262e+00
-2.364397605817037118e-01
5.142618404054239978e-01
8.608558439416269525e-01
-4.941971402820188874e-02
1.299271903362873015e-01
3.594163983481796221e-01
-9.945313541219888975e-01
2.799648167578840940e-01
4.358381546287514730e-01
1.075304553168017430e+00
-9.152508956375492444e-01
-2.290340281835971659e-01
-1.235645237268775676e-01
1.571225587370922439e+00
1.108781508697571860e+00
-3.481811039847848011e-01
7.573059081745628363e-02
-9.953858627747916854e-01
6.723892355107469188e-01
2.082298016274878538e+00
-1.683218314884523226e+00
-1.590984672069480910e-01
2.744063498777918886e-01
3.677416794800313360e-01
4.049611192968513573e-01
8.664566638320585490e-01
-2.963850329947893547e-01
6.666596000206490569e-01
-6.750197182736018542e-01
2.263249717890156720e-01
-6.875296878632656261e-01
1.141795767907245684e+00
-6.400812254733178053e-01
2.997915063684007397e-01
1.044565023163558593e+00
-2.942542756086304889e-01
-6.143130330824430052e-01
-1.173956919176554647e+00
-1.423185040258034162e+00
-2.143442354942704409e+00
1.362481181920353057e+00
3.487839087727087617e-01
-5.808615663517397998e-01
2.386133007146736262e-01
9.544383988236744276e-01
-6.078095146456938963e-02
2.770483286886197827e-01
4.507940338469024755e-01
-9.524270005547720297e-01
-2.110529444718920900e+00
6.232135348805514230e-01
1.590864620568800403e-01
1.453888481876875804e+00
7.932231605128589047e-01
-2.591058271279578218e-01
-1.288198806499384064e-01
1.244367489182616859e+00
-1.574488854105657032e-01
9.362049583040613632e-01
4.663086489120962241e-01
-9.430471732077299052e-01
2.388686520847862482e+00
2.905999516161274498e-01
-1.138268579351787935e+00
-8.506781464658089709e-01
-6.284020368586480387e-01
4.534860623339087571e-01
-6.340596003395496671e-01
7.830334738583832888e-01
-3.345962254705922012e-01
2.224541282608879789e-01
3.727276684845377552e-01
1.216115622243446881e-01
7.349202549474534996e-01
2.468196210443747596e+00
-3.317259849180190234e-01
2.183188555023455046e-01
-3.310050928505973711e-01
-2.189551741968505993e+00
5.922336168362632436e-02
-1.173727444140584969e-01
-1.822917515500522556e-01
2.918389046234730055e-01
9.750602731108428678e-01
-1.081662033800019795e+00
-2.691275959773804516e+00
3.654280491647504125e-01
-2.360023357071668604e-01
-9.421967602740468628e-01
-2.892120525997782798e-01
-5.906707330631678632e-01
-7.810406597980883436e-01
-1.032558563046195532e+00
2.298051318459932990e-01
-1.275716610275390073e+00
-8.889171493651182310e-01
-8.017917839219006471e-01
3.009072302436769375e-01
-8.008368890122634642e-01
7.515546270304117593e-01
2.189591999462883187e-01
-8.419604968220232299e-01
-8.832607188519190355e-01
2.297292143911375262e-02
1.083751835776263439e+00
1.558567602910742034e+00
1.037158639184834641e+00
5.319175151374128802e-02
-7.721474476458881631e-01
-6.545726760944052813e-01
-9.956333204207987175e-02
-9.111031724917628694e-01
-8.574846388510762862e-01
-4.920090131131829581e-01
-8.563631995001773634e-01
-1.826599318463075994e+00
7.092795967282573555e-01
-1.090972445902919086e+00
8.048158432308474275e-01
5.208729651236559954e-01
-6.773793049807379507e-01
9.144834334118665531e-01
4.734566175881901179e-02
-7.703223139969423983e-01
8.231179988137096379e-03
-4.134185848481027742e-02
5.106840882025661527e-02
5.343823393416037293e-01
-3.836222819925605987e-01
1.280074068836099643e+00
-1.730616783466287334e+00
-4.896093208055906087e-01
-8.852684490639485260e-01
-5.329974050460386525e-01
-2.307846226639239884e+00
4.916703287123652677e-02
-1.019957512634803443e-01
1.587738259778503913e+00
9.187178586172728423e-01
8.884806560338734949e-01
-8.301225344967090303e-01
2.598164473489045778e-01
4.917152870579504231e-01
8.561804397031890224e-01
-3.701661900159696761e-01
-1.614683616169000913e-01
1.747955964424989239e-01
-1.441007534456453520e-01
-7.013625136219500678e-02
-3.211564995749159601e-02
-1.487195722401126963e+00
5.086383006251806727e-01
1.464431038623073889e+00
-1.782166967462061047e-01
-1.686059762306611143e+00
4.281373217312386958e-01
9.537689130601166854e-01
1.088210482497317777e+00
-1.065528945806336170e+00
2.563678343688519767e+00
2.015184990275126431e+00
-4.098840386139526726e-01
-1.335071484960120181e+00
1.229174648844237883e-01
-1.260617553805553515e+00
-1.903462265766897810e+00
2.681780567804998405e+00
2.018995602502090259e-01
-9.876081075482144866e-01
-4.522865055114178578e-01
3.710070647599649218e-01
-5.867207349081207113e-01
9.732026753149740639e-01
1.089329654651064239e+00
1.986889111742633052e+00
1.672007459631851045e+00
-1.208573842824890887e+00
-2.689750756298449619e-01
2.015866417052410431e-01
-3.467436738595744972e-01
-1.386976501163827091e+00
-6.970531907043242548e-02
1.119939499187712517e+00
-1.301738323977219836e-01
-5.825697459305512194e-01
-1.935822019598229637e+00
-9.847545393560599436e-01
-3.928404922000988120e-01
-1.537035201803163220e+00
1.218291768823466459e+00
7.441588299922803351e-01
-1.161170887474839208e+00
1.113960997826404453e+00
5.157896320375826571e-01
-1.203805787286771345e+00
-5.739678636181312354e-01
1.213394827230460660e-01
1.042455482746155626e+00
7.625309368847887903e-01
-8.653055403783780353e-01
6.845780548939768284e-01
9.088736393863781071e-01
2.892118735149599162e-01
1.483260151078602984e+00
-8.590345165270497629e-01
-9.290167928481865012e-01
5.807126898629750844e-01
8.987423335201180086e-01
1.300653228110041582e+00
4.925532005313301154e-01
-1.375568491678455407e+00
1.520554985022569472e+00
-1.332085810081381494e-01
-8.866673520224768179e-01
1.503313170271122656e+00
1.753559483705201094e+00
-2.706630965277462497e+00
4.085470250332819409e-01
-4.670026588340100981e-02
9.371163865962560680e-01
-3.180083891935160667e-02
2.176744826036794422e-02
1.380515701419843477e+00
1.562373561527212462e-01
-2.100286503300309859e-01
-1.406679826195433414e+00
-9.440574755654913552e-01
-1.071411893997074483e+00
1.254937978222542716e+00
6.099143287318122830e-01
-1.409669501932246716e+00
8.592600562227690197e-01
2.645211258849053948e-01
-4.404946809161375265e-01
-4.666113886968583646e-01
-9.804674707302161174e-01
4.552627656118992672e-01
-3.389733632966575594e-01
-2.585806443355916917e-01
-2.092403261179007767e+00
-1.953132587910149320e+00
-2.074280171160156894e-01
4.352495502865695309e-01
-5.169522556499704935e-01
-2.638402297337877345e-01
1.798664897002663077e-01
-1.592887258493533187e+00
8.655420949627428140e-01
-7.653389478395579149e-01
-8.909732649836277218e-01
3.928159672629279453e-01
5.890903535814395742e-01
2.520146703414610778e-01
6.053364470194509961e-01
8.537802366553328692e-01
-1.877521083799028601e+00
3.755393154897664343e-01
-1.158722779651334855e+00
4.731178435653214387e-01
1.507565849474749697e+00
-5.955085035943498140e-01
6.936239898923030056e-01
1.571581125036193516e+00
6.164597240210636375e-01
7.180555435440562351e-02
-4.380775013288199515e-01
-2.828015749256360678e-01
9.315152150231865713e-01
5.071602258730747437e-01
6.758647527294945334e-01
4.847058064766400221e-01
-7.749535596264540693e-01
-6.174735334149872301e-01
-1.881560651407405915e+00
-1.490358493188988775e-01
2.282389905941487329e-01
-7.324229954939326381e-01
-1.699574208416147758e-01
1.056835936755000649e+00
-4.305064332202636068e-01
6.417503871700346307e-01
-1.684374508080644262e+00
1.977168318332201552e-02
4.692122237973462284e-01
4.201443095050919618e-01
9.589725234784084451e-01
6.201650512040450813e-01
9.290630568499200770e-01
-1.827642021291537633e+00
-1.008795091631655927e+00
1.104161493566961222e-01
-5.016111608665504429e-01
5.331169753651794629e-02
1.694838469039305906e+00
-5.819172031805851519e-01
6.518447881321898230e-01
-5.020849886038155629e-01
-1.474424582231866010e+00
-1.288764063439922669e+00
2.099454989910795322e-01
1.751419922580786936e-01
1.206875841432165863e+00
2.311616138217045258e-01
1.007941033877344461e+00
6.417598604008050156e-01
1.218062413358686147e+00
-4.796611322656558346e-02
-2.632799647218359573e-01
4.137974617854471848e-01
6.766694544132292322e-01
-3.190888232458280460e-01
5.009493681411055777e-01
5.906345860181215768e-01
-1.850042037998567146e-01
1.128068050050813564e+00
1.629936562702665181e-01
5.047084442973771568e-01
-4.084203070959502302e-01
-1.216899707693164912e+00
-8.688973290009480710e-01
4.880513102945436832e-01
8.198138218008897693e-02
2.423506994778987234e-01
-3.610413374673911435e-01
1.749167719124304077e-01
4.821181922764539163e-01
-2.238540193441711512e+00
-1.619236831137188970e+00
-4.784926052111074801e-01
-2.313405651761651638e-01
1.784551481922162786e-01
-1.204724451876560964e-01
-5.952453881424853988e-01
-4.185997763461612314e-02
-1.533572207494988682e+00
-7.846250219457102659e-01
2.291118016105182509e-01
-1.518498894686599598e+00
6.741089147642760349e-01
1.121026853833384240e-01
5.859560275086483916e-01
1.562891304819574723e+00
-8.479159012850201460e-01
1.062611989472381113e+00
8.212986891265566802e-01
8.887888921536255538e-01
7.685310038050053860e-01
2.472550552185546202e+00
-2.556093312018482555e-01
9.707929347476533799e-01
-4.766583475267502368e-01
5.298263557683651204e-01
1.021261852348111843e+00
5.022954236232028968e-01
5.219591410593165115e-01
-8.926809751562935213e-01
-1.010474685946202822e+00
-9.231455654953677481e-01
4.893430241914856760e-01
6.548013165747701425e-01
-4.039276846687852585e-01
1.430319230216731574e+00
1.224695402132526034e+00
1.453680429061011914e+00
-9.692463955770221906e-01
-1.523883084302747992e+00
8.041762606948171799e-01
4.638476782227937689e-01
8.467844540681601639e-01
3.607561798100812900e-01
1.117757424935636790e+00
-1.933355889502610114e-01
5.777600008489207524e-03
-1.226231965723382666e+00
2.562153592684749182e+00
-4.473051466359022621e-01
6.507130489152145036e-02
-8.621803240408490443e-02
-5.969830199704624363e-01
1.260756440558052568e-02
5.706200302536812430e-01
1.418717494179358773e+00
8.992040407335777363e-01
-1.895591206162849485e+00
8.958304932835950973e-01
-1.085164601761383629e+00
4.067054903267867255e-02
-9.942193235504367399e-01
-9.747956910215427317e-01
7.038453348430327994e-01
3.124985929242042326e-01
-8.765909958549793490e-01
-1.056687620534255245e+00
-3.397566031952614640e-01
-1.158758959751699402e+00
7.070310044059403831e-02
-4.931965896818378825e-01
3.159469048586263651e-01
-1.948254248868835081e-01
1.734400332403726930e+00
-9.233118816154433084e-01
3.828839143548058710e-02
9.187910648850553530e-01
-7.005833257915330403e-01
1.748577801519222708e-01
9.087856011741169970e-01
2.749253948414672744e-01
5.446321450923654606e-01
-1.811446216099255491e+00
-2.598211203381871837e+00
6.273847946794696151e-01
-1.833108382156175331e+00
4.324300169123757032e-02
7.497539455332628000e-01
1.557296853585599328e+00
4.093460023431090833e-01
-9.574570282281531508e-01
-6.226302010767830186e-01
6.725239203582349390e-01
7.706154301783109117e-01
-2.149403816279025770e-01
-6.471580683322772920e-01
-1.052327980148562991e+00
6.038024069348629785e-01
-6.289432694333132456e-01
1.312245739435709657e+00
1.137544906850371129e+00
-1.305915804142135039e+00
-4.927795271530735488e-01
1.722808879159768436e-01
8.425102493185252506e-01
1.624212601780599563e+00
-4.911842105313518614e-01
1.095975279089615562e+00
1.332353144282842461e+00
9.350949087626949652e-01
-6.560212631947461848e-01
7.849622252845204207e-01
2.074068892976731471e-01
-1.397567923100603515e+00
1.218510005624166670e+00
-1.117581399400530584e+00
-7.407863561106359240e-01
2.102281032515323222e-01
2.375358310734612122e-01
-9.494620365994120847e-01
1.860633843159449907e-01
5.882160750513616698e-02
7.404753982073974949e-01
-4.195190325293737810e-01
-3.561167656777466828e+00
1.803463417488351261e-01
-8.655485257615724848e-01
-4.466195485203859339e-01
1.109780648291624594e+00
1.027501607430372221e+00
-1.445122919102282966e+00
-2.905852702902770313e-01
-1.142033920204083897e+00
-9.911767994452431729e-01
1.337717516952882324e+00
-6.765966770969515931e-01
-4.019279873059528607e-01
-6.192629878898432416e-01
-8.128251994105651912e-01
6.560743367283298211e-01
-5.514126659611288117e-01
-9.402918207921753257e-01
1.124583367231137276e-01
7.022099635664870165e-01
1.493911411380612009e+00
-1.417903605145782064e+00
1.026805962022057317e+00
5.955551592992549548e-01
5.351961151098938441e-01
-4.541084944647157950e-01
1.720922940429330694e+00
4.293212594517185204e-02
-4.920268700743480328e-01
-4.897433795213835817e-01
-2.507917767798806818e-01
3.171252176029152881e-01
3.103129972187104180e-01
-1.914057650422719137e+00
2.489077705854671141e+00
7.311043451219475520e-01
-6.058596557253679293e-01
8.654591478169833263e-02
-6.473474117925196447e-01
-5.287271756777299769e-01
6.147343460458564168e-01
-9.927251477145572212e-01
-1.798630112055440877e+00
-9.550783413476383599e-01
5.146438318247914534e-01
-1.321052344859927619e+00
-8.117871075295941818e-02
-2.874250483401659673e-01
3.922214046516746266e-02
-4.584101798133761729e-01
-7.482121180050320675e-01
7.821117714899081808e-01
1.293406893982166350e+00
-1.482763215523952294e+00
1.296526200839459575e+00
2.189493991345984103e+00
-7.783673658334097079e-01
-6.910551555631094800e-01
1.489795603804538349e+00
1.345537942087435268e-01
2.387279180619800434e-01
1.603580019003199020e+00
8.215601261141831646e-01
-5.333079148200427916e-02
1.599082972440113881e+00
2.457497585686249320e+00
9.001907339069592506e-01
-4.530316540378367951e-01
-1.130837075300775041e+00
-7.659325327147141760e-01
-2.773056591772675786e-02
-7.374729818740810572e-02
1.157162395661969073e-01
-2.717022376302889786e+00
-2.338594595646056595e-01
1.946187781927240623e+00
-1.466317178199696425e+00
6.619376375076476693e-01
-3.163344966086237608e+00
-1.321698335351434883e+00
3.223824214545086275e-01
4.769651983359395886e-01
2.281889969316670985e+00
9.785096247273718240e-02
2.053507247622423648e-01
-7.958337368799031086e-01
9.151339635232853542e-01
7.211066346207791744e-01
7.580626511197112449e-03
9.435161251458029641e-02
5.107021420159182368e-01
-9.462651229876074543e-01
-8.063349600949415441e-02
-7.902690604160721444e-01
-2.021972016539508754e+00
-1.160632003558857539e+00
-1.193218333435446032e+00
-2.206117222935392308e-01
-3.522188027333419957e-01
-4.295085585506985271e-01
-1.262258001907742511e+00
-1.260817451896316221e+00
3.441253596710427964e-01
1.655374136082896908e-01
-7.846722671511130454e-01
1.028359169048398414e+00
6.434956354450134253e-01
2.109297008359601655e+00
3.110645669314295869e-01
5.433136311273357721e-01
-1.023971464902161843e+00
-1.318485967853231022e+00
1.442036240224902288e+00
-1.531097881439589914e+00
-2.620472709055247096e-01
9.387564622896078514e-01
5.190640839585245470e-01
-9.218283878112514262e-01
-4.319673168308580391e-01
-6.017437522355404411e-01
4.553590437242953093e-01
1.986810921410318009e+00
-6.728803748061842338e-01
1.814916615833311875e+00
-6.401487987224707688e-01
1.062592169769169148e+00
-9.499227316944972577e-01
-3.027183641922784330e-01
-6.697875176758827376e-01
-3.447945299212293868e-01
1.150421833474990774e-01
2.479517127548865663e+00
9.732895530936709338e-01
-2.338188941744246685e-01
5.869147018513156677e-01
5.857773310434322145e-01
-2.775768948858626795e-01
-1.299935261324990932e-01
-8.898693400450212732e-01
1.206910992403292138e+00
4.261806748673769608e-03
-9.084087332336907572e-01
6.420610011854226418e-01
1.456290722587982867e+00
-1.069333074410116158e+00
1.638782481640878919e+00
-5.175239562153979289e-01
-6.249791469106114050e-01
2.058260392213649981e-01
-4.617839049975058230e-01
-1.975165706216558681e-01
1.688754039231082915e-01
-9.307976834680107281e-01
-7.037572751843658159e-01
-6.162786397535975347e-01
1.530426515423613854e+00
-4.613842396915786015e-01
-1.616504932053756116e-01
6.415429992753510779e-01
5.392234027672936358e-01
-2.352293511569689966e-01
-1.115483670631634977e-01
-1.737445427866972869e+00
-1.465922721866086853e+00
2.359920455125990302e-01
-2.400462150107609549e-01
-1.363692637182512338e-02
-7.217859682718323899e-01
1.354266173452945976e+00
3.567752614095711094e-01
6.578829257775685724e-01
1.252478298687779823e+00
-1.631888260657101908e+00
1.392961398763040926e+00
-1.856095263555702424e+00
1.688750248397503428e+00
-8.151227921944051991e-01
1.286992076130325513e+00
-5.915221469704261548e-01
2.305088223304516404e-01
9.825392568947295402e-01
2.247977302246338294e+00
-1.481959976973471260e+00
-5.933858280782404737e-01
-1.123796685172295140e+00
2.307324742638677151e+00
-3.456805431259282191e-01
1.069087032767160883e+00
-3.345515873120930017e-01
2.546481905768477674e-02
-1.364537996145872789e+00
8.154860737376133928e-01
-2.905928390537541040e-01
-6.956799440843122739e-02
1.600492092194634619e+00
5.592638856068532505e-03
-1.771651386780650261e+00
-1.834455891581169062e+00
-2.166560993402153468e-01
4.370149864910640169e-01
1.821375673445754240e+00
-5.779486956777837303e-01
8.977164976433910093e-01
7.428670331255010639e-01
-5.023542619205415560e-01
-5.319527152585360463e-01
1.563563621563579975e+00
2.236891175449073454e+00
3.477111669249351444e-01
-1.046540766047082904e+00
1.832705028963628413e+00
-3.839919964869547564e-01
1.065978933124164252e+00
2.139201885168926509e-01
2.334474664858514348e-01
1.277810170470189188e+00
-1.011119198196365643e+00
-4.099940753709470087e-01
-6.300598816417809500e-01
1.988978903261822695e-01
9.886765014050856726e-01
-6.294048139295714550e-02
-5.797898602123205958e-01
3.997390746993343402e-01
4.059652736398803863e-01
-4.770231623108905361e-01
2.829407344322884543e-01
5.239859328382557857e-01
-1.733389807601724564e-01
-5.743034662335794877e-02
-3.153319218782567379e+00
9.162349426398065377e-01
-1.058158516414261063e+00
1.181257249320293301e-01
-7.471150169705276234e-01
-1.538224599744417054e+00
-9.120396989407429933e-01
-6.576214932036490435e-01
-6.562525699899018905e-01
-1.149976680484783742e+00
-1.343770277011250958e+00
2.552619516737211214e-01
1.045924596528750694e+00
-1.155701204010856076e+00
3.978131138152148361e-01
1.304260748898064648e+00
-7.706979290886233347e-01
-1.952354771642509590e+00
-9.932052441427566825e-01
-1.871011205909795250e-01
3.400943800812240569e-01
-6.976391200142123550e-01
-6.258571282533097468e-01
3.849476711800021156e-01
1.613957267729230871e+00
6.847621356460082964e-01
-7.762290785646408509e-02
1.556867166675354852e+00
9.845475488805131015e-01
1.442363672983881795e+00
5.693698115510187341e-01
-3.379680540540903610e-01
1.440485474179808767e+00
-1.187789331770404827e-01
-5.277697860335908153e-01
-1.012757914611725152e+00
5.137651883933506136e-01
-5.595397558367921631e-01
-5.498628568273067341e-01
-1.188081516225627521e+00
8.435566923183400734e-01
1.357916726160142584e+00
1.479237907281188535e+00
5.823547138135594103e-01
9.185068713722444045e-01
8.571346407563379399e-03
-1.937186957299913970e-01
-2.372808586991361768e-01
7.679250283856030590e-01
-6.427182974827937434e-01
-2.096089776614845412e+00
1.125933702708692280e-01
5.692986715570336198e-01
-1.285456157573147129e-01
2.605547904172684781e-01
5.722385065685797745e-01
-1.761217402997849568e+00
1.727136040447201648e-01
9.215668456196008940e-01
-1.299700664004816097e+00
6.576115824870286675e-01
-1.064779826557720410e+00
5.984228694343367572e-01
2.363427940306141561e+00
-8.143474869880901190e-01
-9.733012937107612395e-01
-1.109036683415919100e+00
1.200739250281584125e+00
2.209537237878007321e-01
7.366478227771383613e-01
1.601299270558886212e+00
-6.333922449560241974e-01
-1.717883121250667777e+00
9.042540420626210551e-01
-4.876016594866658393e-01
-1.222950001767145967e+00
2.619077624312153574e-02
-9.367644104656408510e-01
1.164804178994909151e-01
-6.456797044064294111e-01
-1.394761731611823263e+00
6.279892537152070679e-04
-5.157284491943382454e-01
9.984770155767440647e-01
6.567575074358197318e-01
2.134343857531021682e-01
3.763881925918560190e-01
3.828435862712788462e-01
5.542432464207093235e-01
2.952543871367073747e-01
4.239753374568423494e-01
-2.260220743387582609e-01
2.003508849206522502e+00
-1.206481159113557133e+00
-1.260886300123468917e+00
2.571807339636600354e-01
