8.532182308403436499e-01
-5.355220434212192293e-01
-4.157898470611919306e-01
-3.019961968878921432e-01
-1.980155615087130783e-01
6.788321064468961774e-01
-5.875536304153147205e-01
5.842812483288120640e-03
9.265622771230058730e-01
-4.473275296701867965e-01
-6.305561089224838781e-03
-1.133253987738735286e-01
-2.673133715386341591e-01
-8.721827527180898709e-01
1.421660338316622640e+00
6.794372711154593736e-01
1.247854762998088285e+00
5.353558024927177472e-01
3.510922615624061938e-01
4.867488569375263419e-01
-1.102478131372170767e+00
-7.730773037833290617e-01
2.735752377179255235e-01
1.595500550446733445e+00
8.149084592678390582e-01
-3.433033728826573316e-01
-5.244689977390254443e-01
-5.042495086046103747e-01
-1.338907874878632720e+00
-1.759529611641417857e+00
-3.848847787205156995e-02
6.190841372511012297e-01
-1.504087596072526178e+00
-1.110107593448695917e+00
-5.839651723860974641e-01
1.649696623811549578e+00
1.037890129338390199e+00
-3.748657220868379936e-01
-6.161541197882691723e-01
-8.348815222601332353e-01
-1.168539358554661733e+00
4.815994722129253447e-02
-1.159397044793734954e+00
1.166513825813069838e+00
-1.216767977717733151e+00
-1.531301123985569501e-01
-9.046334231702685136e-01
4.249462287173729202e-01
6.934911391873878062e-01
3.176888819261869945e-01
6.253121026368604896e-02
1.083111269367101670e+00
9.649863662891368099e-01
7.554874385424771299e-01
7.502472302598277298e-02
8.553104870922589864e-01
1.205997814849218308e+00
1.443971644635157370e+00
6.239607268045208599e-01
-8.329914058635683183e-02
-3.710272605150096575e-02
-7.311769394024805191e-01
1.656349472943584811e+00
-7.136497715622317495e-01
-1.661939188005606027e+00
2.317331381830357584e-01
-3.495474395475046681e-01
-1.204409701095134899e+00
2.797451479308190603e-01
-5.177026726009128499e-01
-2.313241706970321943e+00
-2.346273888103695082e+00
-1.196719849600675456e+00
-8.005982006333466350e-01
6.712167872009180414e-01
2.053747759139044060e+00
-5.586305453763685813e-01
-9.092511361146745630e-01
-1.436135769622657765e+00
1.180506435000231238e-02
1.106353576168897401e+00
-5.164688912834707046e-02
-1.548822243184176939e-01
4.746895487719620665e-01
-5.818535451668446212e-01
2.557173085176497329e-01
1.571617046114869021e-01
-1.498990935467390262e+00
-2.414319220144788503e+00
7.232525686273286736e-01
-1.119626379109288417e+00
2.437937538040699514e-01
5.768856389672438745e-01
1.232474229780928354e+00
3.158305729804043449e-01
-5.663398444251611652e-01
-5.938902025220909042e-01
-2.754489290528082390e-02
-1.269486796892033142e+00
7.231933433129852373e-01
-3.620341357229286960e-01
-3.995416001870195077e-01
1.345810307959541152e+00
-5.608052525474060968e-01
-9.393594038151681369e-01
-9.024857542270865451e-01
1.516356874264511045e+00
3.076992815734976849e-01
-4.803933834132548819e-01
8.159478379999574038e-01
-1.319605123600020857e-01
-3.146415245516510223e-02
-1.004202360657343363e+00
-7.926311566045017853e-01
3.924462119388266168e-01
1.927674030065201327e+00
4.232924972278504505e-01
-3.119962581546291691e-01
-4.678151063153428435e-01
-3.239368132532757238e-01
2.767252774743030330e-01
-1.082580296721316504e+00
-5.110285396165666905e-01
1.442301893969199611e+00
-2.699392883420728584e+00
-7.271912759739298515e-01
-5.371768133066217449e-02
-3.206138681288089876e-01
9.030648182617324604e-01
-9.103192328810055800e-02
-9.274171050830697371e-01
6.863511078262550802e-01
4.535971197787064813e-01
1.886799686335374482e-01
1.296543355969189903e+00
-1.975831499353547516e-01
3.633394079843677571e-01
-1.230410541439290073e+00
-3.800359332680036117e-01
-3.565764349582008497e-01
2.190885571323505587e+00
7.486271816499878717e-01
1.401288837536817544e+00
-5.355284667305110213e-01
-2.400637942999365393e+00
5.017497774317863923e-01
-6.560565058176736075e-01
-8.706109366841947583e-01
-6.797240116609176708e-01
8.217201586950646508e-01
7.682614054720937613e-01
-6.433446755878353684e-01
-1.339364169109971137e+00
-3.582901961408553326e-01
-1.457910958475066021e-01
6.876917313830002154e-01
7.102405216895317785e-01
-1.380122297377029739e+00
6.261837655797398705e-01
8.876643396048971013e-01
1.178321719546618018e+00
1.875525918338379228e+00
2.571666946854759273e-01
-6.408814019406327001e-01
-2.162841975544382012e-01
-6.304803623475107033e-01
-9.643239475420534168e-02
-3.334203247867039144e-01
-1.463708033322794089e+00
-2.348806136290134960e-01
3.843194409023166225e-01
-1.393804662883445289e+00
9.536120176739811827e-01
-1.326360927458115034e-02
-3.486085881776166961e-01
1.743049708987368107e-01
-1.768905442715020260e-01
-1.643558910350563229e-01
7.347525118188720505e-02
-7.041638141075783341e-01
3.979827056608357116e-01
-1.710969056150645873e+00
-2.051703697166721574e-01
-1.464650853542749820e+00
-2.021732175116005781e+00
-6.192205171405604780e-01
1.166295549528455044e+00
-3.301341466100653488e-01
-6.061715598172922048e-01
3.478723951002839210e-02
6.793768854033648275e-01
-5.417992625290232733e-02
-2.094957279437778264e-01
1.460411089777933880e+00
-3.810598327245733330e-01
6.464479395933597772e-01
-1.462976275002415782e+00
-8.099488246516109990e-01
-2.852078181705046123e-01
6.058817285687901899e-01
-5.294177193191299535e-01
1.439406474534255187e+00
-1.696585508403872233e-01
-6.575213085640683186e-01
2.389318104443664659e+00
1.461538044887894294e+00
7.166304635490698960e-01
-5.568393185540397861e-01
-3.506121017503483484e-01
-4.940669439116566197e-01
-1.414260696709923382e+00
-1.447866578982760277e+00
-3.446615868562216800e+00
-4.803477039899238799e-01
-1.326524642523772002e-01
-4.049651959955350433e-01
-8.834009248051195584e-01
-1.458361068843962161e-01
-4.913751817078180206e-01
1.642658877609272983e+00
2.760153045637628311e-01
-6.269072983331646087e-01
1.483167102831791206e+00
-9.964447922905609323e-01
1.716083678248563615e-01
-1.858557444473779227e-02
-1.388050497862602928e+00
1.787653772403729358e+00
1.348753024969861491e-01
-1.092976783819626263e+00
-7.448075137543629376e-01
-6.638507394401617079e-01
-9.680541556531300218e-01
3.080170018707231727e-02
1.223080728591229294e+00
-8.176467873223762783e-01
-8.507875037192776102e-02
-9.071020191428783574e-01
-1.020326166012865743e+00
-2.202848362970083240e+00
-9.331448301822390379e-01
-4.581034191713190262e-01
2.294318850826539136e-01
-3.524870724296886304e-01
-3.104392947593236363e-01
-4.929602337367104403e-01
-8.948694457524918322e-01
1.214169709630842586e+00
-3.505625059232739260e-02
9.396319030215831702e-01
-1.017708524537737497e-01
1.128613691534961383e+00
6.175462420782159567e-01
-1.134704505980859812e+00
1.094438292912152874e-02
2.821196532874026275e-01
1.471519175812327607e+00
4.901239989943535491e-01
2.463636846766953381e-01
2.047551963804958020e-01
2.176197815252143841e-01
1.305008592106654985e+00
2.110242445520720267e+00
1.563149071171147986e+00
9.383694398748498866e-01
-3.788797745732131461e-01
-9.203200585352637741e-01
-3.861606968308801680e+00
-4.645524365703800895e-01
1.434548207047707580e+00
-9.364905413323963354e-03
-1.606782613318431752e+00
1.229020788717927193e+00
2.984775742974603019e-01
9.207935464397690728e-01
1.213853009118251336e+00
6.411308495364218540e-01
3.784286769215585711e-01
1.215910052071813130e+00
6.105708432941592267e-01
-4.331956874523213430e-01
1.054991800108876498e+00
-1.610732159890533310e+00
4.591316361845765304e-01
1.104119234807274363e+00
1.002495425837739845e-01
3.641665483004815629e-01
-8.057819839805647755e-01
7.116799881355501123e-01
7.751171935901157717e-01
2.242587213715891981e+00
3.663153939280984428e+00
7.046019760400934473e-01
4.713821689008854815e-02
-1.442686692786203650e+00
-2.260653050988598700e+00
7.188629609686055799e-01
-2.753727626636802150e-01
-2.370881839008594227e-02
3.235096021233918595e-02
7.571972774603562550e-01
3.031975374328714778e-01
6.067512977803639629e-01
-6.542867183863527725e-01
7.520579563541802681e-01
9.085459970369810234e-01
-1.642069971414459595e-01
5.310325874564001403e-01
4.821101242407120346e-01
1.643022230141396367e+00
-1.282268158152366500e+00
6.838740208872350346e-01
1.342791140206174738e+00
1.026733987737786347e+00
2.148677421422548750e-01
-4.753937867129350292e-01
-4.604618707876620975e-01
3.707882664807766737e-01
-1.413544977010327552e-01
3.163829941662927414e+00
3.201460900074319937e+00
-4.670811617243689207e-01
-2.818599316123040932e+00
-2.696085635928626711e+00
6.189618456594660201e-02
4.593390509404146616e-01
7.477685838378325123e-01
7.220889615404261219e-01
-3.904892684326966568e-01
-1.475197250240468660e+00
-2.709498529141391443e-01
-2.451005821701001786e+00
7.439713595428897319e-01
1.019095494214425912e-01
9.176318323596471815e-01
1.072392384418316275e-01
-8.141825633047732325e-01
-1.811011026790854794e+00
3.471592337127368255e-01
-2.224709356972356389e+00
-2.206410992555340567e+00
-1.078845303930590527e+00
1.293002678838830244e+00
-2.287716881170403505e-01
2.547256454825042926e+00
-9.708952612657492653e-02
1.878119622993881466e+00
2.859910437424683316e+00
1.292112838900556282e+00
-9.863049430028848763e-02
-2.307092946280859369e+00
-1.200965453930350479e+00
7.608256598025590067e-01
3.481160905297029373e-01
-6.933673037432910302e-01
2.963865608073080193e-01
1.135626499315460336e+00
-1.327195000747591003e+00
-1.248613103769002919e+00
-1.160853636885581741e+00
-3.420001932537826694e-01
1.535051029294511649e+00
-4.013869975010289637e-01
-1.407387813261853582e+00
-1.641571339128814477e+00
-7.074617473122953859e-01
-4.109858131161734374e-01
1.794528830990593349e+00
1.153084192429301824e+00
1.455444874651719678e+00
1.038305731155246159e+00
1.340658092050850680e-01
7.918876129179993617e-01
-6.606408917215778054e-02
3.927021396529655206e+00
1.568785909632034459e+00
-1.421447231632374242e-01
-2.790133191378272315e+00
-3.564949838727024645e+00
-8.492115686403329811e-01
-1.085696094012908119e+00
1.316410612983236472e-01
7.519788048923688184e-02
-1.106260572978811085e+00
-2.074966757793572203e+00
1.316361134316624382e+00
8.597314249681006215e-01
-6.632593807564833854e-01
-1.315039044151446124e+00
-6.930995146314803401e-01
7.166094613734018681e-01
5.942787633818008564e-01
-5.195107160724401346e-02
1.290674848787972229e+00
-1.649844871714487127e+00
-4.233695073385154162e-01
-6.928137163876364746e-02
1.293365616242499350e+00
-1.572223363798049278e-01
1.511334344018545828e+00
2.103981603096913844e+00
9.576177047833859257e-01
-4.551695855024296411e-01
2.825130868132233464e-01
-7.472166572713369037e-01
-2.670678819022192840e+00
-3.987334023556016183e-01
-1.306249121045776063e+00
2.908000843310860062e-01
-5.866122474737489600e-01
-6.079415318858089057e-01
-1.389124408643878927e-01
5.713896029912430841e-01
-1.957901893688180461e+00
-1.298159305929521778e+00
-4.312506583163269736e-01
7.737516461277361701e-01
5.036303890148610130e-01
-7.360938696634367062e-02
-8.708980900343232801e-01
-1.208809150651891789e-01
-3.995897790357080120e-02
8.915730154614392999e-02
6.913730201011659693e-01
3.438228995828397916e-01
4.720466316692753517e-01
-5.708392555047333561e-01
3.950191536324730857e-01
2.323536747977439643e-01
6.656823384838805868e-01
-1.162328714409298858e+00
1.934981173957633083e-01
-2.788384141271798455e+00
-1.086012149882247035e+00
-1.800607855180480943e+00
4.646954687981189741e-02
-9.190291672405292989e-01
-1.198132711447246868e+00
-8.505864785063647071e-01
-9.332718654405433023e-01
-3.879658878188477211e-01
1.085171706941609582e+00
2.744927753068045484e-01
-1.091044718572214967e+00
-2.481362563782898434e-01
2.640146533211171764e-01
4.156519535020597456e-02
-2.524419795338174843e+00
9.504682947972519225e-01
1.070338041370186177e+00
1.697828764833209381e-01
2.094102756063835613e-02
-5.243931031236348517e-01
7.882893254846519149e-01
4.977895317894440175e-01
4.820524107071370579e-01
-8.111729326758398972e-02
2.437161625574719714e-01
6.353650845755248744e-01
-1.098880863342527325e+00
-3.166719853822898667e+00
-1.945879016854899779e-01
-1.758608091695383013e+00
-5.131997027374536335e-01
6.127743701446384250e-01
2.781809537774941332e-01
1.407413922418367713e+00
1.048560036188322053e+00
4.167955275566646578e-01
3.971655000776485034e-01
-9.326672328503015086e-01
1.367830630674641945e+00
-5.669183769612488044e-01
-1.183361090181955788e+00
5.647884188913104841e-01
1.157740279775407721e+00
6.915260070009932036e-01
-1.647433573315757682e+00
-1.078447918250757587e+00
-1.466377853853195079e+00
4.282912400878503556e-01
-9.578062074306671336e-01
8.701007190185779949e-01
1.004170238726696113e-01
1.377090788040903568e+00
4.990022431901448147e-02
-1.063364896265346582e+00
-6.172876338717341316e-01
-2.964191405944966440e-01
-1.648561219134188072e+00
6.877633515862584535e-01
4.898282808127875643e-01
6.086844309294199284e-01
-2.196530773661515279e-01
1.093908775726822658e+00
1.955769419442659585e+00
6.225508192547595243e-01
2.161183307902435902e-01
4.075712663021811011e-01
-9.938705361599707577e-02
-1.061459608246061587e-01
9.851953235944009846e-01
4.430236338366664306e-01
1.664672652001411013e-01
-1.208074257834707455e+00
1.696035059132315004e+00
9.211139576976319354e-01
-1.062933956635876837e-01
3.776802707348696220e-02
3.084240966173904530e-01
6.059861971602482633e-01
-5.783560637373581503e-01
-2.765559204743359700e-01
-4.690387189641260779e-01
-2.958745163378680765e+00
-7.447576676507289273e-01
-1.930999814326857245e-02
5.896853876967441677e-01
-5.706046533840537505e-01
1.926613519209302017e-01
9.492136344683907989e-01
8.205280931866189009e-01
4.184778686484833671e-02
-1.222577898486537640e+00
1.428682016885422235e-01
6.730534818086288951e-01
-1.657139896027111758e+00
-3.832407042263775154e-01
7.521697272991726413e-01
-1.862246211011900243e+00
6.324900223389380294e-01
-1.589990390322905789e+00
-2.624235044144953566e+00
7.612504952360894528e-01
-1.015030965377136385e-01
3.628291898855848241e-01
-1.623345972229125328e-03
-2.793863615578667248e-01
-1.938237826877524217e+00
-1.301070332012066455e+00
-2.072748587240262896e+00
-7.500511642102142273e-01
-1.989247926429758451e+00
-1.571584563752806751e+00
-1.532609589902745456e-02
4.621266348475326358e-01
-6.386528994769634648e-01
-6.630522383215539106e-01
5.367747884957843052e-01
-1.852828787060399884e-01
5.441011044439973965e-01
2.971209631973388277e-01
7.266734333568830584e-01
-6.130344508811748083e-01
7.234758740979381209e-01
9.190827024885953045e-03
2.116586247980533492e-02
-4.881292078056453376e-01
-1.590175729398102533e-01
6.509853123893399873e-01
3.265417383568609555e+00
1.640939294362736001e-01
5.591794541744147390e-02
-2.221996495207089195e-01
1.404739715753075657e+00
7.257371054742508543e-01
-5.034429415809660302e-01
-8.130537957311354536e-01
-9.058432574331926057e-01
-1.415347966005146230e+00
3.264150131727778376e-02
-9.230147300246998032e-01
-3.845440597271114758e-01
-1.092870279507950571e+00
-1.924398326058805453e-01
-1.122927597353814422e+00
3.399138509157810240e-01
-3.855924048748635147e-01
1.060777925552321754e+00
-1.643394101572507759e+00
-1.389569585452136602e+00
-8.572477253474161674e-02
-5.177527840340224730e-01
4.052711435651566996e-01
-1.054937579585487173e+00
-6.191618362979901535e-01
-5.479022846933169211e-01
-1.962675854886712090e-01
-3.320286202641722362e-01
9.099828955966707822e-01
6.148267093357013408e-02
1.137496360040224586e+00
-1.258102701783375688e+00
-9.353246877583857311e-01
4.412878467782982428e-01
-2.660898158596649021e-01
-1.075305190346079520e+00
-2.991071680753958906e-01
1.430596791214131747e+00
1.297868005357926124e+00
-4.125082640929226274e-01
3.242205694717481546e-01
-2.304012782510874713e-01
-1.839024335013022204e+00
-7.095796947205568195e-01
7.564118756718994918e-01
-1.662328133295609134e-01
7.418052973299086306e-01
1.212877711214239262e+00
-9.888244470351386095e-01
-3.717463322726374253e-01
4.183337612880671519e-01
4.189366096799315708e-01
-8.050491425949372060e-01
-3.855066268453559153e-01
-9.949008993498642539e-02
-1.092212495983983178e+00
2.531569936157275214e-01
-1.755213832324334033e+00
8.801402866394992808e-01
1.102314590610803391e-01
2.118810891874389313e+00
3.610039811025018280e-02
-3.043611497207653338e-01
-1.774268038030983430e+00
-6.212729853771521427e-01
1.032464851890017687e+00
9.109461252416072297e-01
8.627567810802340142e-01
3.301996013289642540e-01
-2.886697955220851597e-01
1.278810331520388255e+00
-9.048643148438885175e-01
1.778209237246668240e+00
-9.519681869309745692e-02
9.511850683897474790e-01
2.893274144828925087e-01
1.530583378764925895e-01
5.444828682944767850e-01
-6.522887074925399764e-01
-1.860310709234405557e+00
-1.389379978325258960e-02
2.086100498965781924e-01
6.528326729974253118e-01
1.191656425076655479e+00
-7.290863727513976489e-01
1.673658303336972075e+00
-2.661989953069635040e-01
-8.505411571792906300e-02
-5.594230591897871863e-01
-9.976903225523867658e-01
1.054949997696533748e-01
-4.644174915637926948e-01
1.266475319816690259e+00
4.870205365941385200e-01
-1.996866578402203829e-02
2.097439947272094207e-01
-6.971933218097520202e-02
1.535159134994567465e+00
4.510120916567603166e-02
-5.845050855343045804e-01
1.454013205603869707e+00
8.006085797684386884e-01
4.680787286829652949e-01
8.829020043297438614e-01
1.852638223599331890e-01
-1.264432179397622757e+00
-1.181046075139142948e+00
1.905847845334532220e+00
6.665937599379884171e-01
-8.516136544192693947e-01
1.060383860345982310e+00
2.367562950736977201e-01
-1.249942373084969027e+00
1.172874873049113642e+00
-1.457108119350925435e+00
8.052303103907950677e-01
-1.066449154545660694e+00
2.236075138892285041e-02
3.124543423139063969e-01
8.712427037825389853e-01
-6.917419352920196884e-02
3.609529172704252775e-01
1.057512327446717137e-01
5.757978037800992599e-01
-1.287160251597411209e-01
2.435627417416640073e-01
4.635135788079466912e-01
6.903514901773284695e-02
-1.702504052457452399e+00
-8.849935874561594418e-02
-9.157092221372180596e-01
1.415119105673646516e+00
-1.224393425873545382e+00
7.796137524888258064e-01
-1.170751892220796009e+00
-9.560905296930581887e-01
2.453471086510602972e-01
-9.932890587142940708e-01
6.792880548911505167e-01
-1.489978126768329636e+00
3.877060684352187647e-01
9.699505900440827388e-02
1.954408841165558575e-01
-4.345173662761890598e-02
-3.210253782336207062e-01
1.645532927919910737e-01
-1.026874068345041247e+00
-8.907391733991830707e-01
1.462156544607372100e+00
-5.823216564186179944e-01
1.285687974079150697e+00
-8.898381299861158888e-01
1.692656737518190679e+00
-3.612185812525832151e-01
-2.107437070421447345e-01
1.649688835690138744e-01
1.068686195669668715e+00
-1.777705773493498453e+00
-6.610282534984349700e-01
4.444722240565446292e-02
-1.515301422707552303e+00
-1.132259889542976961e+00
1.031750424714814818e+00
-1.142376976759039264e+00
5.055725075953636516e-01
-9.352351811126594083e-02
1.573302021253101923e+00
1.735419344376695205e+00
1.716881836188673960e-01
1.704446271693248471e+00
-1.592265427102423248e+00
-4.500774304971838502e-01
-2.767634789486358438e-01
-1.054448115360810956e+00
1.645569982316577029e-01
8.902527986092799717e-01
-1.708640691870216166e+00
-1.728174145992984911e+00
2.915689239738066263e-01
-1.235569055014668516e+00
2.815152018300338121e-01
-1.833305766642566059e+00
1.187970136377548780e+00
-1.366223552394598695e+00
-4.057931888911071594e-01
8.462345980439062165e-02
-1.294880885478628008e+00
-1.394443035784134199e+00
2.774371360533800512e-01
1.369676372370137063e+00
-1.751669980557768902e+00
-9.484091032588198855e-01
-5.241697881870159836e-01
-8.804928588750088325e-02
-9.744749852472026075e-02
1.825766319059148213e+00
1.408313662165211477e+00
-1.565186936800225803e+00
-1.108745259879913014e+00
4.589705983265668886e-03
-1.920825361670683185e+00
5.326643302002077585e-01
-6.153012124628186585e-01
8.681717283631498194e-01
1.482726898112808556e+00
-2.165064446297092215e-01
-9.422817190310043278e-01
-7.061311313443241477e-01
3.565404772827578395e-01
-7.924346060060157848e-01
1.619381078094024762e+00
1.551425198568791242e+00
5.671125114757045171e-01
-8.204236158535118673e-01
8.049972368187763294e-01
-1.527371547826698261e+00
1.970654363532521047e-01
1.525152755858658615e-01
-2.158622142330623717e-01
-3.674444017693678788e-01
8.109742658882429511e-01
-1.986104945834650692e+00
-8.295690244812588265e-02
