4.858415174958319316e-01
6.207401910451078031e-01
-3.732191702660977439e-01
3.534316295033091970e-01
1.877332834349805024e+00
-2.111932006454168842e-01
9.696873721453620476e-01
5.944104396694445125e-01
-2.024852683127228714e-01
2.927897595735547975e-01
6.080272433604611004e-01
1.235303706907108667e+00
-1.496696402926418257e+00
-1.368923151797144300e+00
1.113634561078676644e+00
7.158512593468737695e-01
-2.212613107308555038e-01
-1.417135871380845735e+00
1.593723735868343594e+00
-7.763492623664953740e-01
3.945233308002237815e-01
1.422294294009470939e+00
-4.074286557355908389e-01
6.364772453023038734e-01
-1.236178720783753127e+00
1.820501967025417445e-01
-8.268360461822378271e-01
4.155452832474009206e-01
-1.617804581312876300e+00
1.818023092246911387e+00
5.513888530966382095e-01
6.661663610681110015e-01
-3.978128067587111127e-01
-5.694265699687764970e-01
-7.353488060733277820e-02
-8.234529223548209265e-01
-7.513348356868954081e-02
-5.041214461481632325e-01
2.950760290775427119e-01
1.702024224037444577e+00
-1.052728220399791637e+00
1.108761168772312455e+00
-1.228547931157089934e+00
-2.598123083642013498e+00
1.865236128504120128e+00
-1.130444571371537643e+00
5.563700590347651076e-01
-7.386529521086472316e-01
-2.773506436554059373e+00
-2.486897998023722245e+00
-5.596746024990727486e-01
6.244132464583576070e-01
3.301220560019399120e+00
-5.168821999194657124e-01
-1.136398553223834318e+00
1.146495828802461592e+00
-3.077249278226115714e-01
-6.855731690133618494e-01
1.358596944055266431e-01
4.592392188037803247e-01
-7.402588905110614181e-01
-8.665154005818732630e-01
-2.176176959892910101e-01
-3.915453217413243925e-01
5.109077760963465220e-02
3.136062798031836740e-01
-5.915830397775915239e-01
-3.591340359202807031e-01
-2.169102319766904041e-01
-7.403637002807530454e-01
-1.315325176764228499e-01
-2.221864157193121844e-02
-1.416281281763148714e+00
1.911680596396005072e+00
1.926002742232477694e+00
1.583356170904106630e+00
9.474069511680672795e-01
-3.876447744561285491e-01
7.593144050389131205e-01
1.208511147101728744e-01
-1.686523315811435442e+00
-3.850425184279310242e-01
9.798806815575429319e-01
5.022298524022453803e-01
-1.772009479294346601e+00
1.311999967195750738e+00
-6.245781292198977486e-01
-9.228590415757523813e-01
-7.784014484264699663e-01
6.262906024954113526e-01
-2.908546671131720940e-01
-8.595009160871553977e-01
-3.556281207628219643e-01
-5.041904626613016860e-02
2.047497992220397300e-01
-6.099097538471766056e-01
-1.022239890533101381e+00
6.740749712294257234e-01
8.672417637571919191e-02
-8.358751730431872584e-01
-1.394665356986855287e-01
1.546268746542360240e-01
-1.655499327058213455e+00
6.122592642165789467e-01
1.500442103554310069e+00
-1.252390672424866791e+00
-2.820760146350314024e-01
-1.375521446315199015e+00
5.102575771954011019e-01
-1.002333218093425016e+00
-1.475077850153967418e+00
-1.503375113146659281e+00
1.157666688789512843e+00
-3.650078634398825073e-01
4.899180191397516371e-01
-1.772972518035758338e-01
-3.396663130801958475e-01
-4.478602403354303707e-01
-3.256305644436431890e-01
-5.796994356286305772e-01
1.072608119627440182e+00
5.912755203154512751e-01
-1.702374217587278249e+00
1.184779347968982988e+00
-9.881224395060849153e-01
-2.895987806290565292e+00
-1.075809932140695535e+00
1.324251557909192023e+00
3.080763589930304858e-01
6.098307526579307414e-01
4.949601887482085738e-01
-1.515735376866412576e+00
-7.598079052480859463e-01
-1.786229378952967739e+00
-1.250546297130681994e+00
2.220417905378868802e-03
2.087815727442905445e+00
-1.870562498164632270e+00
5.035273236599950852e-01
1.936088967445275533e-01
-4.275038272669803158e-02
5.242234463200975414e-01
2.271586317476238237e-01
2.201898317269030958e-01
-6.334654163287589679e-01
-1.079722269355183339e+00
7.017084260763259973e-01
8.274651570288658053e-01
-1.111207972864888260e+00
-1.218673434699147018e+00
-1.506210931145467224e+00
-1.660281913928737252e+00
-5.421310210626065773e-01
-2.522915584060574368e-01
9.892347854363823245e-01
7.199695364567945122e-01
-1.301074605440024401e+00
2.616072483103197288e-01
-2.652974325419260038e-01
9.826121739403198552e-02
7.095523317060435931e-01
-4.483022801358251819e-01
-4.264548628161625443e-02
1.303617851117653714e+00
2.035966895192548254e+00
3.357979449328659105e-01
2.310853134257115082e-01
2.631319381330558538e-01
-2.700521754485785131e-01
-2.184792745519227863e-01
2.326917447388033633e+00
-4.734279468549667524e-01
5.709797961150677725e-01
3.944312051372705352e-01
9.827248986059536895e-01
-4.505451785358980943e-01
-2.077359241487686248e+00
2.537070912373973197e-01
-3.323678395029531440e+00
-1.056629782493887948e+00
-1.679145855581089419e+00
7.425225010088957189e-01
2.405640455267175626e-01
-6.535392977602532127e-01
-1.403079135341206207e+00
-5.761656833293564706e-01
-1.384342838718697566e+00
-6.711985802980148241e-01
6.842364748356216664e-01
4.864298490162499156e-01
1.477789715361699785e-01
3.669496112552661504e-01
-1.215559310714642294e+00
-1.188069934309305742e+00
1.604263108982045161e+00
1.793573154534051861e+00
1.046628578789854380e+00
2.613134004050297055e-01
-6.956764409859479692e-02
7.687564526522500108e-01
1.293987044742773485e+00
-7.908577516224344350e-01
-1.594401184523565884e-01
-1.676272448976855900e+00
-2.276454202318806408e-01
-2.329065179603777125e+00
-4.099381749577050149e-01
-1.615047810995399624e+00
-1.662318456408625744e+00
-1.071299978318462243e+00
5.577168283199994692e-01
-1.538426912329127427e+00
-1.489301833694775201e+00
1.013441809502411806e+00
-1.619713492632268492e+00
1.696687177993136508e+00
-1.396188597128958930e+00
1.273900774080348963e+00
-9.011888307922213959e-02
1.104044502854701681e+00
1.598837504824851319e+00
-8.610483883203029487e-01
1.187502268649690995e+00
-1.824330469941263466e+00
-5.734982524005779458e-01
2.672048270144917748e-01
-7.983320595863164781e-01
1.736074013186560627e+00
1.774696685399771212e+00
-5.601972591007925439e-01
-1.071441114413053564e+00
9.852263325702911301e-01
8.027181915946728363e-01
-6.272819843416737040e-01
-6.146723324728158300e-01
-1.001152677894084464e+00
-1.703112704711286507e-01
-1.006207665645752813e+00
-6.912559727393234876e-01
3.125567020632438187e-01
-1.478917934752151719e+00
-2.583024727211026828e-01
1.649873192114866549e-01
1.522132110148796569e+00
-3.509980032948450956e-01
-1.943322319537381104e-01
6.371918407157493025e-01
-1.212677840813619484e-01
-5.163925556923533167e-01
-1.101907561940778546e+00
2.205023801176224207e+00
1.242349133504886405e+00
1.140695419115746567e+00
-1.960045082276456574e+00
1.180051120981295609e+00
-2.756963926285254107e-01
-2.391811236115722883e-01
-5.295642174144490344e-01
2.910367197255585570e-01
6.298589292256234762e-01
-2.475603977466989569e+00
-7.397979718470165666e-01
-5.321797939000089128e-01
-6.045094099568502077e-01
-1.528199720795123673e+00
1.365860808110479774e-01
1.898021768851357427e+00
7.940240520534718183e-01
1.329131718644588789e+00
1.556196578033540945e+00
-5.109910754812060363e-01
-1.473857525620639430e+00
-4.086270580082332349e-01
-5.650609900072491865e-01
-9.018015398606591404e-01
-6.820556724089711365e-01
-8.582309413393833797e-01
1.717559489036059928e+00
-1.588610256187567293e-01
-1.131684224392945637e-01
9.584260524149953442e-01
-7.709878271526230398e-01
-1.442450655232464518e+00
-8.070071933828284472e-01
1.751859872223650583e-01
1.487273891442606022e+00
2.410020315045949824e-01
-9.981583394862445502e-01
-1.497973883887505187e+00
-2.451064176300775943e-01
2.374222283385700738e-01
-9.452467985751620283e-01
1.149458366869265502e+00
1.204842309820000290e+00
2.895872471545874571e+00
3.108835504522785786e+00
3.231739480615625215e-01
-3.480952987966836054e-01
9.261785803006079842e-02
-6.746352091594024492e-01
5.802544882765994783e-02
-1.606127575435522398e-02
-1.951879830132618177e-01
1.211496775460737391e-01
1.430035292671517189e+00
2.993845407779440304e+00
-8.984307738629392359e-01
2.416121509802713618e-01
-1.584930564377044382e+00
-8.765319664334345617e-01
2.298166046351745706e+00
6.491759941798000977e-01
2.407751370675946800e-01
-1.014563053359017974e+00
1.107113717370680761e-01
-2.154034152108655231e+00
4.394764997166254461e-01
-1.285754639755504636e+00
-5.847337746579800433e-01
3.724208961228985260e-01
-7.563872931861865823e-01
2.475724117405792568e-01
2.497958150170915825e-01
1.366390512208764507e+00
1.781181327768960321e+00
1.368171977687301644e-01
5.935395619679270651e-02
-2.114800607419467404e+00
-1.624300119450365454e+00
-1.930733231427896324e-01
-2.070317472574596807e-01
1.681109221870475512e+00
8.191295705802749127e-01
2.252973202796642038e+00
3.884936888297424451e-01
-2.315084135538929999e+00
3.426572728028411952e-01
4.382277814356225903e-02
-8.539652435598917013e-02
1.671886001055452153e+00
4.899089532044180184e-01
4.932497167998345922e-01
-4.022743138698257614e-01
-2.346943074296163889e+00
-5.954285333163374938e-01
1.422907767655608779e+00
1.073914058916018321e+00
-1.187462586896946615e+00
1.272821652253508073e+00
2.599907808423123079e-01
1.240391807527886581e+00
5.971862491703487930e-01
-1.460788772791554169e-01
1.323912027979074368e+00
1.519142128832217942e-01
-1.821091853487857848e-01
5.026148879161710381e-01
9.128134270599154165e-01
1.113820901131988617e+00
-9.190838900780573528e-01
1.086211961603762211e+00
-1.326897382576852635e-01
-8.383543047096583267e-01
-1.450743710725949931e-01
5.042566526366224489e-01
-4.986722461140502549e-01
9.669228714637334576e-01
2.472649631145827087e-01
-1.562930718395272034e-01
-1.710602544461436780e+00
6.072345094782009012e-01
-1.523087382345328367e+00
7.323936449120282965e-02
6.396689563690516334e-01
-1.137522451572833493e+00
-5.297485588834293102e-01
-7.899847054860743567e-01
1.370765245036120739e-01
1.542906896033696906e+00
7.745349102557144150e-01
5.028148798352259641e-02
-5.768279961332889449e-01
-1.150573011455778838e+00
-1.155648508346737824e+00
-9.293170726314615715e-01
-1.686402818548955462e-01
-1.214535215929572198e-01
6.380137254148257608e-02
2.086497830224290917e-01
-9.818213846334051809e-01
1.650464697733356134e+00
-1.185627284725634834e+00
4.646419700657692387e-01
-1.229426612743688141e+00
1.285524125725854561e-01
1.504961478930195051e+00
-7.602938234037913690e-01
7.866916450599608090e-01
-2.283511665648041866e+00
2.393142233908202021e-01
-7.846143060527399626e-01
-2.035053584381282921e+00
1.360911690547933206e-01
-1.276727959310076210e+00
-2.924906054818595669e-01
-1.520867499558485880e+00
-1.360958821610629421e-01
-1.107659572884708288e+00
7.720362117416814047e-04
-1.701266207446676226e+00
-1.295815686271046596e+00
-2.952149607420918032e-01
-7.451941332260532125e-01
-1.889985176090140273e+00
1.067800416544613773e+00
-1.449214156529247954e-01
-5.366411202751186771e-01
2.483328807987206233e-01
-1.054512278664161418e+00
-9.322022157467910741e-01
1.205935541579054693e+00
4.662671088533087427e-01
-8.785360769754647636e-01
1.441165743979739400e+00
2.276538736515288930e-01
5.125105846942310528e-01
5.007489754647548308e-01
-1.907291192564126159e-01
-7.238835639013397882e-01
5.294994752464302623e-01
-4.698760150473434427e-01
-6.343428885011803686e-02
1.230599538895057882e-01
-1.754331886741384849e-01
2.125512388546246523e-01
7.825493597232097143e-01
1.541010289508390196e-01
-6.677719353381442735e-01
-1.846899732914143888e+00
-1.098064623269073170e+00
-3.432369948002905735e-01
-8.159348680564658396e-02
-1.064792768618004981e+00
-5.831699162977658224e-01
1.026198910652679486e-01
-1.404886445108259663e+00
-7.831652329140698088e-01
1.171361558463968722e+00
2.824928150960311912e-01
-8.277488679532623017e-01
-1.748450829164755610e-02
-2.086752070182694041e+00
-4.714977530945666517e-01
8.766632660569696478e-01
-1.614935844731948678e-01
6.963342511198362672e-01
-1.565808024071851268e+00
2.527643857579355696e-02
-6.177273511852431342e-01
4.010005788153973572e-01
-1.958176243227769175e+00
-3.941000805878345226e-01
1.339793735830908439e+00
-9.105010398768659252e-01
-1.124988326509157588e+00
5.531052917193163970e-02
-1.840296287328480718e+00
-9.845535210818535665e-01
-1.994067737883600810e-01
1.030425056618812230e+00
-1.204486125849548062e+00
1.073012373086765114e+00
1.282920096624988071e+00
5.181115833666073422e-01
-2.784405111181286196e-01
8.187864278663183892e-01
-3.547596874164179320e-02
7.515291383254414370e-01
2.444233921103797780e+00
-2.297216288643351145e+00
-1.133186489272195230e+00
-2.020548386450629952e+00
-1.166549353534719113e+00
-2.456693319270143672e+00
-3.342731402621706427e-01
3.609794397424053169e-01
2.926444960385795602e-01
3.543626967037590281e-01
-2.387995388982230502e-02
1.201279546801983011e+00
9.100047134392323933e-01
6.588259771116234953e-01
-1.436301686630900631e+00
-2.817934042432403530e+00
-5.551285329110530187e-01
-1.956895879754949386e+00
1.036271463610261429e-01
-9.828441291444086625e-01
-1.694636987849493570e+00
1.330782481231407299e+00
5.958603799698174441e-01
-1.271895432533909132e+00
-3.865772567976627494e-01
1.196952510779024786e-01
-6.482782748966121888e-02
-7.270405196471342313e-01
7.337263896753027925e-01
-6.958132208992037770e-02
9.083582194794748155e-01
-2.896874124865971734e+00
-9.519422889227233675e-01
4.366149175397833759e-01
5.302563902897059478e-01
-7.516063303924597205e-01
-1.252828124412225685e+00
-6.131504660043449739e-01
2.092520097119523470e-01
-8.628983150153705095e-01
4.941641683248530481e-01
-1.111403870821294326e+00
-2.174005292146343304e+00
-8.369848096282279659e-01
1.453590069628510340e-01
-8.908932233198103567e-01
-1.631687341008127623e+00
-2.646168872647786330e+00
3.002979214976083111e-01
-3.314110775005395526e-01
-1.021240653447283951e-02
8.886584634085603618e-01
-2.602056748162568378e-01
-4.796576736695802867e-01
8.588729472698293232e-01
-4.873258915348808173e-01
3.448977071658107518e-01
-1.141383225854019079e+00
-5.698799706425251577e-01
1.052749405881984179e+00
-1.939146052310299240e+00
-6.443431805406429902e-01
-1.978047866661755805e+00
6.948162206374436378e-01
-2.141650320882889647e-01
1.304845212886374117e+00
-1.859023233873203784e-01
2.420448057313181744e-01
-9.088121714660175876e-02
1.439739893642298652e-01
-1.439814475314490139e+00
2.273070054501327986e-01
-1.054201020163709535e+00
-2.029723866216230022e+00
2.733623338946383541e+00
-7.182352038152031160e-01
1.910688952203517532e-01
3.120532951324527793e-01
-1.031782375471076874e+00
3.025792759040770163e-01
-1.458085198721652542e+00
2.963653021137078181e+00
5.530911667962454814e-01
4.841005874649687013e-01
3.114226712390782414e-01
3.430258532940426153e-01
1.148278063240870672e-01
5.086919440266070638e-03
-8.198820006372637970e-01
-7.634223129455011136e-01
2.011707135035180061e-01
6.471168064571319878e-01
1.019132305998259103e+00
3.918384939775616527e-01
-3.788493556704825016e-01
-6.002363473165850394e-01
1.012305067474386533e+00
-1.705465049152817825e+00
4.807634728109480560e-01
-3.851965505373013132e-02
8.786136590173897198e-02
-9.221321556320429824e-01
1.846588135369652550e-01
1.317927228662081618e-01
-2.096095403461848417e+00
-1.059876369470745372e+00
-1.651698945369663996e-01
-5.252602202426125411e-01
-2.958021563506864626e-01
-1.201402864303202866e+00
-9.999581068478221590e-01
2.103685534599886442e-01
-6.123794002344720155e-01
-1.129374324653631856e+00
1.199581872341475286e+00
-2.131478535114779069e-02
3.725812727254050327e-01
4.881431071291000845e-01
-5.695106607810103139e-01
-6.161371906666076106e-03
1.326676977239383548e-01
-3.092943844518263874e-01
-3.190738604193347761e-01
-6.440655400209047698e-01
1.164875182514625074e+00
-2.773929883927025442e-01
4.667964143617318040e-01
-1.272723631460608518e+00
1.266403475786913146e+00
1.757557726939422971e-01
-1.952582764307148944e+00
-1.121529442038340152e+00
-8.285788317885772747e-01
4.350978510390035026e-01
9.725765787660606287e-01
-7.270840127534564656e-01
3.704222072800524290e-01
4.296527264937085588e-01
2.098509762215161889e-01
3.235467439277812662e-01
5.295008719558660371e-01
-2.211671122089508557e-01
6.621767578873294369e-01
1.097149525621543692e-01
1.043472086902045737e+00
6.111818472881020980e-01
3.119969452845792190e-01
-3.494641679575926640e-01
-1.218464646969594556e+00
-1.309154788671553771e+00
-2.139169099284631503e+00
-1.149532003448018536e+00
-3.720148840745884922e-01
-2.200762781564753467e-01
-1.578475351979137908e+00
9.318947131680863638e-01
6.477340103064009869e-01
-1.131751507831431525e+00
-1.060784736423107555e+00
1.701144962589164811e+00
-1.587930188317293823e+00
-2.273224184163626482e+00
-3.444692664033494056e-01
-6.563789090692940809e-01
-6.153397803393815257e-01
6.978885776131418250e-01
-1.700927011691361762e-02
-8.165203764606377979e-01
-2.001478024988485149e+00
-4.519398295733660642e-03
8.233598010791041144e-01
-1.170974498782040157e-01
3.304549300215258723e-01
3.727250624889705821e-01
2.592081452893250648e-01
-6.599612919118466037e-01
-3.225141570357144272e-02
-2.983542768063170980e-01
1.240219402234081780e+00
-6.712223797718180895e-01
3.719424482787582198e-01
-2.390992260662483382e-01
-3.265939797821079127e-01
-4.207274497770979171e-01
3.642261187634316943e-01
-1.002074530058265411e+00
-1.065747675910483583e+00
5.047010162906716974e-02
1.757467337040626854e+00
7.751136853371108915e-01
6.562993848102056660e-01
-7.940509687251590121e-01
3.699968951297376019e-01
2.396638300874430083e+00
-9.694489219417281589e-01
7.552296064760113392e-01
4.449991422608586267e-01
1.060736463620800679e-01
5.338852140579977007e-02
-2.136920978500919777e+00
5.201563894368227414e-01
1.060842067244117670e+00
7.499096412517606280e-01
-4.003691082472386475e-01
-1.800022232475787964e+00
-5.729752661327722763e-01
-9.075051986895603384e-02
-1.281130197549363192e+00
-6.559654620996021590e-01
-7.352579277965591853e-01
-1.125414133643776404e+00
3.661287178581024149e-01
-4.531742335877337324e-01
5.254390860562215826e-01
-4.426331048065730578e-02
4.815269663696293279e-01
-5.710961958772334812e-01
-5.551952603085049537e-02
-2.783366193151194379e-01
-3.601857182377200539e-01
1.052211559120786566e+00
1.101125006905556480e+00
-7.768869208068935883e-01
1.339781145793066397e+00
8.297763155368393928e-01
9.876077138295288327e-01
-2.330559500695309760e-01
5.832113765669317829e-01
1.197618480197501167e+00
3.331011555918187428e-01
2.310169438303789402e+00
-7.200364790976209184e-01
-2.118566308794328723e+00
-3.568506170511973608e-01
-4.566642508539031087e-01
-8.928919308750957740e-01
-2.929840701665072933e-01
-1.748496998913743328e+00
1.783918089234987736e+00
8.226561511060886955e-01
1.094358125633976275e+00
-1.480303634045887717e+00
-5.414599752856248394e-01
3.498218177940862761e-01
2.320709658068847714e-01
-4.423801687425681362e-01
7.905580063270577496e-01
2.101029744533370047e-01
3.295091241326745246e-01
1.759979289432318517e+00
6.593890279147811562e-01
1.822701361578890733e+00
-5.405157113109145817e-01
-1.570185782977665109e-03
6.680651564305165602e-01
2.012619695255955798e-01
1.177632560318081223e-01
3.326139648099795676e-01
-4.274833071191389000e-01
3.352292254195389509e-02
-2.456017811157038988e+00
1.671752925243022103e+00
-7.613250453261445339e-01
5.573401528272371452e-01
1.650966342060124825e+00
-1.514761234331253759e+00
-2.612425555114569753e-01
3.121163854112694591e-01
9.809921470822883238e-01
1.564219220553772161e+00
1.651992497336801202e+00
-1.143382713524021099e+00
1.510728095008483596e+00
-1.437650573729567949e+00
9.681450685563171010e-01
1.455017946372996418e+00
3.866037550334103234e-02
1.207479482974064711e+00
7.563507470527204291e-01
-3.590703298489975048e-01
-1.458724659005714852e-01
1.754294750552627624e+00
1.089793722925190833e+00
1.781154487280291576e+00
6.985165513164250106e-02
-1.261837532174677756e+00
-2.394045323514248924e+00
2.198407756423635950e-01
-1.296034083289419936e+00
1.388983634044304305e-01
-6.553038339409218427e-01
-9.311876556960084761e-01
-5.319769005765919712e-01
-7.821659009567976106e-01
3.173383231722269882e-01
-1.841397000675113693e+00
-2.423671965139321927e+00
-1.592269486886391583e+00
1.166802200832878639e-01
2.003383526469916520e-01
1.149394060424854036e+00
-3.834476767840048761e-01
1.357107689596236177e+00
-1.140346242244045377e-01
9.365364704060206158e-01
-2.466597502978906675e-01
