5.367158812152030833e-01
-2.441504021697070148e-01
1.027247482136436796e+00
6.951821044938630845e-01
-1.197598207403233861e+00
4.357079143478051475e-01
-2.703334787170377673e+00
-2.062278532913799811e+00
-5.278013450413002738e-01
2.454573915364094194e+00
-5.385962629889846642e-01
8.518244044373384227e-01
-7.067175554929866488e-02
7.138096802530402574e-01
-6.322858586455216978e-02
-9.703483466274785696e-02
-1.044834481757475952e+00
9.177287944436924860e-01
3.847315136906985233e-01
3.858117906461839830e-01
1.601676638570604272e+00
-4.439902527297348023e-01
-8.560151395031618815e-01
3.083435276765634780e-01
-1.540400919458118523e+00
9.898752001910769982e-01
-2.003596873818132562e-01
1.981493124920708226e-01
1.016381368235169225e+00
1.397233572482623476e+00
1.757011070694345367e-01
9.306761247532798764e-01
-4.896869351210522692e-01
8.691634419790286170e-01
-2.775936892479786700e-01
1.702099224124567489e-01
9.521438807825297612e-01
-1.724014120275897399e+00
1.198427328750947707e+00
4.940432055762632446e-01
-5.491320416441252128e-01
2.104426763205285988e-01
1.105362107222724599e-01
7.089664740709628044e-01
-5.724467568424943531e-01
-6.490037315419246999e-01
4.213739772925416682e-01
-1.358688974202376387e-01
1.678648036728780824e+00
9.559026780385506683e-01
-7.857091203575062854e-01
-5.517754753470732743e-01
-6.239177565888346377e-01
-1.493209915754145189e+00
-5.508932624834387282e-01
9.940363267599520158e-01
-7.742375642929945068e-01
1.091108381660810256e+00
1.312312162912885771e+00
1.429299341494836284e+00
1.026040642821339111e+00
1.364477750367810993e-01
9.465600788129606702e-01
7.202309593712106217e-01
-1.285414499431237201e-01
-7.798182944499237879e-01
5.191911179932164888e-01
1.067431546441112600e+00
-1.675668498572234544e+00
4.093690898664725797e-01
-1.379281552935140709e-01
6.378234229520738374e-01
-1.300808325788423092e+00
-1.164356136129018476e-01
-7.958284441029610246e-02
1.451719089805242335e+00
1.515648093869314261e-01
-7.933904463767003090e-01
2.114567830668486081e+00
6.475617754380507129e-01
1.623974477973332498e+00
8.801598907777890002e-01
7.866131719381149745e-01
7.694612688311084359e-01
-1.760906051244521264e-01
1.164985577585159859e+00
-1.168377368317105258e+00
5.219844815625055735e-03
-2.589440089336631612e+00
-3.483984869412469765e-01
-5.833053694003671463e-01
1.441169871747230768e+00
-1.343639453394481986e+00
1.084212381148798920e+00
6.817799449079997576e-01
-1.731015065689570420e+00
1.439217393253704236e+00
-2.191293409581757667e-01
-1.098959079304078212e+00
1.241597812576539922e-02
-1.100886626307371552e+00
8.576504660790711387e-01
9.545318576840075009e-01
-9.457094874527113282e-01
2.471600671337800481e+00
8.275839808871883196e-01
9.477081967157194864e-01
-7.003082165144225435e-01
-1.092246871600980551e+00
-1.176042657602694330e+00
1.834251120001196389e+00
9.705664580531765395e-01
2.439373157785449386e+00
-7.807117299949686284e-01
-6.450607927759511862e-01
-1.205369128614872443e+00
5.497259423525568955e-01
-4.607683676747073021e-01
1.097877193603231216e+00
-1.220700238580551267e-01
1.509751080446102733e+00
1.490225193633781364e+00
-1.325221209139423040e-01
4.691939359623143457e-01
5.499440686122099992e-02
1.181576398327497668e-01
-4.607230120360732983e-01
-1.370369520679023678e-01
1.972705682204740851e+00
2.529166641285817141e-01
-2.242121275349421072e+00
4.247508409300787546e-01
-1.539130920985403606e+00
-2.165244144561987161e-01
-3.529428705421440160e-01
-9.238397662006183619e-01
6.950926146916440729e-01
-6.221730518512975650e-01
1.507847400558847140e-01
-1.985689477414892767e+00
6.720763455822714727e-01
-1.679821213377501454e+00
-2.213421781309714287e-01
-6.753356692315130860e-02
6.364094426188505738e-01
2.568629217767377515e-01
-2.027934478946710417e+00
1.615844278708517268e-01
1.940776179799345913e+00
-6.833638045508720893e-01
-9.169734458164364721e-01
1.280972806311821977e+00
2.282799795737074089e-01
-9.209155464416094450e-01
6.225955863333976215e-01
7.921788636417761431e-01
-6.735679421494028540e-03
4.879377917638363232e-02
-3.256372671040721478e-01
4.433210834526377098e-02
-8.560335703396565465e-02
1.274073038054942097e+00
-7.885362307750283239e-01
2.443512971040495418e-01
-1.033227914309624990e-01
1.798120411043349964e+00
-9.181868600602903774e-01
1.766219288904468998e+00
7.974290820749631026e-01
1.959290532332505497e-01
-1.691331620899214627e-01
3.820468284040539619e-01
-1.992891531357276202e-01
-6.667251267129692405e-01
-2.174010453539438892e+00
-3.616038171657620093e-01
1.352832951622958912e+00
-2.519308223966266747e-01
-9.617227955423686137e-01
-1.260609412348319580e+00
8.639735205638516824e-01
-6.739458291005741009e-01
5.025631439513449789e-02
-1.304241710201009985e+00
3.809770890809338062e-01
1.413747545622118462e+00
5.022141541129020448e-01
1.633016911205835253e+00
-1.215030549110600822e+00
7.810449658403226803e-01
5.049520202157192078e-02
-4.911509691591661175e-01
4.335508192711288733e-01
8.232831202036554608e-01
3.557618686857592083e-01
1.257818437492435049e+00
1.192082604966353265e-01
-6.519706703362311562e-02
3.967578883782331700e-01
-1.303268959821881401e+00
2.351674583751962519e-02
-4.779362989028825282e-01
-3.261214850429799972e-01
-6.594926030081005308e-02
1.235655820283778628e+00
-3.800672955784764051e-01
-2.187312901337828741e+00
1.605314195975738045e-01
-7.006777279135323333e-01
-2.311980047634151769e-01
-2.078495397344945206e-01
3.416785320492363425e-03
-1.017755796223013043e+00
4.356886304235265128e-01
7.152721059254403546e-02
-1.258095623034448662e+00
-5.347041564124829227e-01
1.149326903364756403e+00
-1.187216565431525039e-01
9.545524688695383730e-01
-1.494885885858161789e-01
-9.300813018538466315e-01
-7.918505414091125960e-01
-4.423364483531136981e-01
-4.425885782762910975e-02
-2.146799901469672811e+00
8.365817614171517924e-01
-3.120378950379479668e-02
-1.544772687349457829e+00
3.995197758221061823e-01
2.196161971765462628e-01
1.339725550766489359e+00
-6.869423506178971017e-01
7.741850879386654727e-01
1.411702684135913932e+00
-6.878977216893812363e-01
5.694754890880373566e-01
-1.253761167898833406e+00
1.048699553276347007e+00
1.570182236237002704e-01
-2.223136362646304320e+00
8.019534123696404893e-02
4.856595506324034028e-01
1.145981725180832411e+00
1.550142937538225629e+00
2.631686951562971222e-02
6.016110469301768626e-01
2.460216780095252770e-02
1.274891440363979056e+00
-7.488164709234932381e-01
2.820565829498400401e-01
8.802663237700771859e-01
7.969791667182306583e-01
4.538041356938521953e-01
5.504258519449387599e-01
-9.585517930042738444e-01
-1.828016983365765569e+00
-1.937439755506085826e+00
7.510212049319711092e-01
1.082041274287874222e+00
1.504338272979339086e+00
7.994142215152755249e-01
2.062968826409317114e+00
-8.058238281842822204e-01
-6.472480914455985834e-01
7.905913879296235791e-01
2.498252957432831045e-01
-4.050287361155807675e-01
-6.017300348858213299e-01
7.320793785689334587e-01
-6.843111011764635432e-02
-1.029930747591993656e+00
-3.672347464502715222e-03
-2.127301281594530025e+00
-1.854946115327293699e+00
9.105862894311785027e-02
1.164091189184093933e+00
-4.064982257718762204e-01
5.818542301423333951e-01
-6.665818950567775625e-01
-1.081876898149338073e+00
-4.031780767891336437e-01
-4.457567128818443747e-01
1.994915549294717649e-01
4.201118842886548688e-01
2.265190531575568489e+00
6.452869744199589697e-01
1.945608131204017710e-01
2.181929542712121028e-01
-1.383893579297289733e+00
1.288824376836160468e+00
8.835691451284432008e-01
-2.414815233449903453e-01
2.235566521107748006e+00
-1.993873581945531104e+00
-1.928251434613953985e-01
-7.062679457100075053e-01
9.754487817752497403e-01
-9.067756039170683513e-01
-1.588699434057029958e+00
7.272071012872626250e-01
-2.524788735165672815e-01
-5.453208733058783064e-01
-1.397654337799468793e-01
7.765678881570722281e-01
7.664608221512754505e-02
-2.144873919695613196e-01
7.699421891940557705e-01
9.950280659465071675e-01
1.911159921924363569e+00
-2.860391722512509727e+00
2.393534250399281804e-01
8.345199528222676522e-01
-2.308637611981263937e+00
-1.273923979881119495e+00
-6.484066864274284914e-01
7.771128450148533373e-01
-5.186480696645670019e-01
-1.404215554801006016e-01
2.607001793464588602e+00
2.304576723740141553e-01
-1.601881985032611588e-01
6.461269438781705454e-02
7.296811741962452857e-02
1.619982038749216979e+00
1.956217867544766120e+00
-2.975895940366473091e-01
7.146736823610523592e-02
-1.205990421368482585e-01
-6.181445201261147604e-01
3.690107775872448759e-01
2.003708618491004123e-01
-9.679371688706229770e-01
6.653615252299326377e-01
8.121033072177109569e-01
-3.333401051617514432e-01
-5.849778137699692682e-01
-5.462512207655125795e-01
2.011140233406672473e-01
7.051457283084273664e-01
1.718980349211351566e+00
-3.802859145335059088e-01
-1.173034547137699279e+00
-3.864031337146800471e-01
4.477134694617298516e-01
-8.416723423945603466e-01
8.396258421712396447e-02
1.252379866088296767e+00
-1.785863986772275591e-01
1.092457493139186386e+00
-3.952383251164294786e-01
-1.211557148615381552e+00
-3.574677704010947310e-01
-8.254934670604734404e-01
-1.718697258074888046e+00
-6.833600745064610793e-01
2.603126039494519373e-01
-5.672715378385253526e-01
1.240705148078956155e+00
-9.320454728696916380e-01
6.880195938708940639e-01
-1.483738826607795103e+00
-1.206200718762663548e+00
-1.153947978344615377e+00
4.355136934216639055e-01
-1.175314973528777257e-01
-9.143550717089627966e-01
-1.556509154939186734e+00
-7.901377372206219718e-01
3.100459877457310554e-01
-3.904613511440329088e-01
-6.451912894603606397e-01
-9.643536787962128098e-01
-7.599367341960794331e-01
1.104659845433673349e+00
-7.955563072873780284e-01
-4.188465085714153102e-01
-6.786330662866803254e-02
4.479209255525746780e-01
-2.337912265117937094e-01
8.980616445397554548e-02
-1.733853432872945133e+00
2.023949217487115870e+00
6.311643225315195505e-01
2.045431079745246850e-01
3.558063506763707307e-01
-6.008147761256107389e-01
-1.804322595255948958e+00
-1.423674520566723112e-01
-7.191916169522875046e-01
5.910274745526538157e-03
-1.623669605423492257e-01
-1.129535890759733041e-01
6.479476482643323765e-01
9.492770789878559601e-01
-1.554041106779900372e-01
2.595576122275263242e-01
8.030612780113098870e-01
9.437924248812851191e-01
8.776947755163640175e-02
1.389646745242682613e+00
-8.078192994068095212e-01
1.143607900960021961e+00
9.955703244347201553e-01
1.703959579080617237e-01
7.043545161030605462e-01
-2.131906635291776902e-02
1.073134746261394656e-01
-8.174836845008949249e-01
3.987105162502358469e-01
-5.869705289005908710e-01
4.302728243491498183e-01
8.110698518268485424e-01
-1.032634908258535988e+00
1.283843922500937484e+00
1.190816179160254062e+00
-1.303319584674269116e+00
-1.000938113031667881e-01
8.545908561691947236e-01
-2.266027820171711074e-02
6.281000432330576810e-01
-8.316785517557735707e-02
8.306870311198679691e-01
-7.689235445029738436e-01
-1.691080087232932905e-01
-3.365263162253336326e-01
-1.079257188596023598e+00
-2.251531936626642416e+00
4.776506955050729419e-01
1.140023504889389416e+00
-2.361070927529711483e-01
-9.801022588073525776e-01
4.948404064750751008e-01
1.358388096334225636e+00
5.290957109318887852e-01
8.304603285600422602e-01
-8.617394859196488843e-01
2.612443593015684740e-01
1.978600856316959700e+00
6.742432921221069853e-01
7.693630108356492858e-01
2.025279986174884084e-01
1.255581687122403256e+00
-1.027352511060610540e+00
2.051971697574826781e+00
-1.015014242034667502e+00
-1.281596519669413237e+00
-1.551135063427234451e-01
-3.966522517907414280e-01
-7.395744436214584105e-01
-1.133565864846092452e+00
-3.531157717013407860e-01
2.126374140404801438e-01
1.395257896470680770e+00
-1.386308060688346222e+00
-5.671981970453738447e-02
5.157113324871949178e-01
-1.514191873709080038e+00
2.245030680050935423e+00
-8.451797033595709330e-01
-1.226610936954209308e+00
5.855855034719860130e-01
1.399296150068627398e-01
1.124126465217648807e+00
-8.321044376374640006e-01
5.793366511764354021e-01
-1.240625146836149773e+00
2.682864530156091831e+00
1.472257371234984902e+00
-5.469810845695282087e-01
-4.445825782736596565e-01
-1.960537043374659394e+00
-7.347651992440751290e-01
1.904480029794817231e+00
1.263997837951714942e+00
8.679406112981187249e-01
-5.443160723676876422e-01
1.956930295335484460e-01
7.207361303355996895e-01
-3.117033902771078613e-01
1.299719365210973088e+00
1.410462588142659124e+00
-6.698929500548286287e-01
-5.808534381812499037e-01
-1.372380139623009976e+00
1.352036980576899694e+00
3.822633376375317860e-01
3.388952979310552727e-01
-2.622429811965679147e-01
-8.389224731832729542e-01
-1.041067153896551467e+00
1.995543316645931986e+00
8.532584851260898162e-01
7.911375409807872572e-01
-8.047589970380729651e-01
-1.093006557912760135e-01
1.056584024228684582e+00
2.760465751321553030e-01
7.663642335384696080e-02
-2.647223945968218417e-01
2.717517118370240126e-01
5.139785790961518552e-01
1.322552915241903548e+00
-1.812515111781621169e+00
-9.615865289085229195e-01
-2.861214297096790760e-01
3.246629611067099186e-02
-1.304538841783393188e+00
-5.922016658887923057e-01
8.768830597177267316e-01
9.572096727201864219e-01
5.956263976196389809e-01
-8.697258833017960100e-01
-1.628328050867165366e+00
-1.541942741069840306e+00
1.251464559217077444e+00
5.092929024922862036e-01
6.511552278324102792e-03
-4.361430423946145440e-01
3.170560111514979518e-01
-8.442742487173418020e-01
1.894946725391370990e-01
1.401884850470771493e+00
7.940589547204817134e-01
1.147999740295461701e-01
-1.595270455910135388e+00
9.900541885905850270e-01
3.181362014248823034e-01
-1.306414673883402600e+00
1.085843095954381443e+00
-1.892392160672778711e+00
2.021298186297322552e-01
6.980060487533031877e-01
2.978880532872861586e+00
-1.390698429360079258e+00
-2.760711839767760467e-01
-2.939378457207730833e-01
-1.233355262456332424e+00
8.035860943253678723e-01
-1.318538103826075059e+00
8.796506600077319549e-01
3.591463216857596064e-01
-5.407677056480360012e-01
6.659273085374439738e-01
7.800731550046036133e-01
3.088381948466428772e-01
-6.610621417041078196e-01
-5.546150075926539191e-01
-2.406743547554679730e-01
1.729530554562116240e+00
-9.368489030840647658e-01
-1.049386558961337590e+00
-8.312925231286252270e-01
-9.622033085476937586e-01
-5.159469834251302345e-01
-2.178426551802028488e+00
-5.094877512214089910e-01
1.450222809863065121e-01
1.439953240386447619e-01
-7.346088153154476386e-01
-7.048584691861325968e-01
3.515814295725491756e-01
6.654541817384636015e-01
-8.678669213789265424e-02
1.239146163711807302e+00
-2.424881567192735676e-01
-1.675847037644151660e+00
1.109931832701324783e+00
-2.241882807539593292e-01
1.716283753403973766e-01
-1.937835646679285428e+00
-2.979850467147707738e-01
7.025469809169472279e-01
4.507352676627749410e-01
-4.915361758020675986e-01
5.904454107890806380e-01
7.861794933588949208e-01
1.759912132004355922e-01
-1.319516820574873905e-01
1.424881124029943713e+00
1.377042164434385096e+00
-8.601341035533299761e-02
9.069620930770849743e-01
3.231555960365138924e-01
3.431080335573351570e-01
7.744278046868886545e-01
-9.657753789217350393e-01
-3.263964751032800704e-01
4.360769905360805526e-02
9.811622080781347011e-01
-6.196256093982925872e-01
5.855046557261740503e-01
-5.228286841133454876e-01
8.205836875107650474e-01
-7.183914484444111626e-01
2.262667327363909464e-01
1.319886200355873673e-01
6.741365848165599139e-01
-3.691353256797022531e-01
1.125011445704603430e+00
-2.146605506996646540e+00
1.368249671627488895e-02
-1.338702683372422486e+00
-1.244015421690865653e+00
-3.924078797827069282e-02
-2.379933888500670724e-01
2.532846841377743297e-01
-9.690308733079284753e-01
-1.068196256946023492e+00
1.590592156703099835e+00
-1.898094834634345585e+00
-6.137154738618053607e-01
-2.489835080716620574e-01
8.081715227458319273e-02
-2.806931029621692053e-01
-2.299253571318019551e-01
-9.262175994549042279e-01
7.948381675920500600e-01
8.275739806466920756e-01
1.776133621679748087e+00
4.311205986612397234e-02
2.090307995927826179e-01
1.064379300508748599e-01
4.460770070233919249e-01
1.161222061483065948e+00
1.546833353477160777e+00
1.561024196125599395e-01
1.746718618823402736e+00
1.653553035860830522e-01
-6.414132824009550760e-01
-1.782301772081721358e+00
6.302669230591161353e-01
5.701865953501921158e-01
6.398775992867642426e-01
-1.873448116668982699e+00
4.161236998409987842e-01
-3.440380447078636994e-01
2.197474675634245866e-01
2.345303706949786460e-01
-8.420734149954290926e-01
1.237146361268669281e+00
-1.824440781406186929e-01
1.323873149682574246e-01
1.191804731672168272e+00
2.594431059689652486e+00
1.575753077145840841e-01
8.292459874335674774e-01
8.789188490135247944e-01
-1.011349760041222595e-01
-7.420932279905559925e-01
-7.555326473004023713e-01
2.578427518493811021e+00
-9.258741767002698353e-01
1.786739710794591485e+00
2.356576984680464282e+00
-2.293667207185232926e-01
-1.136724343113668878e+00
-3.530129700215938193e-01
-8.842596174766947925e-01
-5.620406059928739068e-02
9.448288796942677648e-01
-6.178069765564199456e-02
3.176835951777216560e-01
-1.917775114701162575e+00
-4.240534372870446433e-01
-1.005580475032901377e+00
5.800399848742892051e-01
-7.360737813288498188e-02
1.233598581355778157e+00
7.105445539949008238e-02
8.803719050500342647e-01
4.698199393435517068e-01
1.321245277373627847e+00
-3.015518472265084626e-01
1.683874857557191851e-01
-2.085019458079997445e-01
-3.352208880486989284e-01
-1.600842643892721018e+00
6.161671112677631346e-01
5.261186199058515145e-01
1.255092381182544736e+00
-4.404361166092874980e-01
2.668552896556260490e-01
1.268662156467002200e+00
-5.874052169440123761e-01
6.628703097268249245e-01
-7.124807835808527612e-01
-1.406539046416491745e-01
1.129779718440979464e+00
-1.464436222923872766e+00
9.119512547087524901e-01
-2.442318947741467794e-01
6.596641370144304961e-01
-7.780195437792223334e-01
1.653956428370894516e+00
-1.521833555036576913e+00
2.346472200143077558e+00
-2.705254403252084217e-01
1.563992639494797610e+00
1.178980437905368550e+00
-1.889788913358404265e+00
-1.207677289304798451e+00
-1.687777334394174655e+00
1.168592079478140366e+00
-1.136680187720290558e+00
6.860658455909864895e-01
4.351944398593004387e-02
1.184597669773608669e-01
-2.343591929264271512e-01
-5.544493872067091100e-01
1.488719319118392503e+00
-5.138656994351212814e-01
1.194367087800245197e-01
-5.467089585997702006e-01
-1.156832363634755945e+00
1.247355085766180594e+00
-2.103364365611407383e+00
1.882597504559991586e-01
-1.170458987008682339e+00
8.131430497841301008e-01
-5.675389469872784698e-01
-1.103563712538821573e+00
-3.964445669312647857e-01
-4.724278319188808251e-01
4.346381143234022693e-01
-1.927584406549411211e+00
9.415467460428821322e-01
-3.160822034570939243e-01
-2.126334767828762740e+00
2.282215531742597669e-01
-5.728082696209019220e-01
-1.912799011744747535e+00
1.265021694590827916e+00
-4.042392596450789521e-01
-2.269327467515824370e+00
-1.509260079957500666e+00
-4.427030984195163277e-01
1.031734323351301219e+00
-2.394060330744661180e-01
1.181884577594929153e+00
7.888325258071690049e-01
4.196644033464224099e-01
1.962650887010482584e-02
-9.688609803594175895e-01
-1.726328938894685860e+00
-6.035380440234640043e-01
3.784118157483168376e-01
4.264645317344881725e-01
-1.527299770122926281e+00
2.496507163403782315e+00
5.377828592513389516e-01
8.768076516489589078e-01
1.742412008447948302e-01
-7.676994312289122657e-01
1.164630098548891379e-01
9.359047407552136821e-01
8.564712105615683232e-03
1.867359506305368289e+00
-1.580297998590653563e+00
4.937615523322919642e-01
-8.706305498806156395e-02
-1.493677896006174954e+00
-1.492082260644866376e-01
-8.869484976550155997e-01
4.638422425037863617e-02
1.292557135698399196e-01
1.661452671913010937e+00
-4.250135994341238121e-01
-1.846254329807612171e+00
6.470634141725264410e-01
-5.905623794759474743e-01
-3.016219880442759571e+00
-1.674613401901160925e+00
5.582838477639658764e-02
6.458375760061929594e-01
-4.556333355976278088e-01
5.217299315965682194e-01
8.753574576232527882e-01
3.072637171538446510e-01
-3.517984656613837857e-01
-1.343520521444092619e+00
-1.073817359219995105e+00
-1.089940463773287682e+00
-1.008427685152733400e+00
