-1.074687896028628575e+00
2.083455870286388567e+00
9.010696975068159809e-01
-1.231797996407408391e+00
-7.643137630236136459e-01
1.186094748106942126e-01
-8.564689965659388893e-01
5.220301691166450153e-01
2.378924462151363883e-01
1.031884737301918875e+00
3.201705522622587452e+00
1.218354660272005230e+00
-6.884122705056624492e-01
-1.469903162095135940e+00
4.352900738721677265e-01
7.385291491730270330e-01
-1.039355763348994710e+00
-3.363166564220090304e-01
1.279010966909371216e+00
1.064101734995504422e+00
-6.352026556766244836e-01
-1.887887183663043533e+00
-1.870594514396257457e+00
8.893611291360509208e-01
-1.422466201797979446e+00
1.225564174382815619e+00
-5.421024714893472041e-01
9.602076115289962521e-01
-8.848615658311725918e-02
1.358668231692892414e+00
-1.161182614167517668e+00
-8.316312878656912932e-01
6.744451463706878647e-01
-2.694475494719011932e-02
7.272577821206154258e-01
-1.521148640624534198e-01
-3.311148377177209889e-01
9.390925554061999025e-02
1.683499093323486573e+00
2.601823502874306970e-01
-6.179980955284594124e-01
9.917409256611027235e-01
-9.703608490748486526e-01
4.765132762851907455e-01
1.633990486458935409e+00
-1.052996063727994480e+00
1.085532695410164727e+00
-1.931392457849564481e-01
2.755719329544970564e-01
-8.336443752851865341e-01
-3.302554007228490907e-01
5.343109298332833490e-02
-4.509620866256041083e-01
1.253469859863702629e+00
3.248774643025384989e+00
1.023069049648646089e+00
-1.060536736007537284e+00
2.799677693910974652e-01
6.466466583264619539e-01
1.269958002533120744e+00
-3.768433901150835541e-01
1.776744709487798612e+00
2.913096491861873472e-01
9.918884910420078249e-01
3.208193996534967618e-01
-5.627145576945800087e-01
1.721909343601264242e+00
-4.835552764489085553e-01
1.607780534748998402e+00
2.538495636154068702e+00
6.960352093696970943e-01
5.462804389416838768e-01
-2.888267293797994184e-01
-2.394376231512952979e-01
-5.069157898100502303e-03
-2.403788695614928472e-01
2.657993118306200664e+00
6.599832820178878068e-01
-5.922222819505424951e-01
4.545817690661378696e-02
4.255342306181628814e-02
-1.659122295295611282e+00
-3.648697863366854310e-01
-1.039913702533693751e+00
2.827445136665624137e+00
1.861135138437659764e+00
2.877022043553584263e-01
2.577117619937722148e-01
-4.326954228343504738e-01
1.064677367157548238e-01
6.108121951522451631e-01
8.330515905236790530e-01
4.093240692987591967e-01
-6.191080060577842659e-01
7.032840434783266259e-01
-1.063361190482924767e+00
8.382207782977619814e-01
7.485441604944977900e-01
-5.979153123602823916e-01
5.903572506401858488e-01
-2.026225270828987401e-01
4.232978362827855001e-02
8.475244976003258879e-01
-7.632151558572957128e-01
7.708299659731160380e-01
2.452473488298293258e+00
3.013383412185965948e-01
-7.267779710156281325e-01
-6.144932929981621328e-01
-1.346016030531143881e-01
-2.081218408353694704e-01
-1.948827594903509153e-01
9.889987765907936046e-01
-2.502336009645280135e-01
-9.949261612261645071e-03
9.191586646233473878e-01
-1.052373427710850268e-01
-8.519403465601868009e-01
-1.006569473686668159e+00
3.687072187080964181e-02
-2.905979286440752984e-01
-1.981163004150259477e+00
1.843846644500049647e+00
-1.142166716036637775e+00
1.000075205792045008e+00
1.589689128983088062e-01
-1.068756616092560174e-01
-4.976847321621082065e-02
4.397099583095549491e-01
-5.655352732690061002e-01
1.274593955725267236e-01
4.932103744546449953e-01
1.220693422117156812e+00
5.286717942954699545e-01
5.290319410304203940e-01
4.976140683392539232e-01
1.301528366204633524e+00
9.646241311071995783e-01
-2.190700648172956566e-01
-1.179858058328377979e+00
5.829124002260201998e-01
-3.951301289991581145e-01
-7.431948952207000358e-01
2.623303614140638507e-01
6.997867819350566190e-03
-2.141732315889314009e+00
1.477110166233472355e-01
-2.816186018399076119e-01
6.039629625157160175e-01
-8.525888778503323273e-01
-1.191439943508135313e+00
-2.686563385601684617e-01
-5.411294853648850739e-02
7.186076273177277596e-01
8.201256975057714671e-01
1.377991275888836367e-02
-1.652700670557094575e+00
-8.279298046567987734e-01
-9.828089046619302716e-01
-9.623869753288254447e-01
-2.204802780004150975e+00
-3.549003098111983001e-01
-9.957607362082415703e-01
-1.031887730890462374e+00
-2.269978788255679891e+00
4.632289457003359034e-01
-4.110469044214107304e-01
6.677848920183199199e-01
7.853178314553530548e-01
1.215243935730467850e+00
7.081688475876602995e-01
-2.941994944610256124e-01
1.549955583005046655e+00
1.529971760996713614e+00
4.140382861699971606e-01
4.907189980499843673e-01
-1.141778405073919700e+00
-3.143171125725183757e-01
8.351263155751317280e-01
-2.176783415942864952e+00
1.785944457253759499e+00
1.781567478609734856e+00
2.441094386018384021e+00
1.270507714898176266e+00
3.754475236996315246e-01
6.964695442935356917e-01
-5.618610501427429016e-01
6.444116716911693632e-02
-8.817006843621673084e-01
-7.691978915894461810e-01
-2.949389958824022440e-01
-1.636362098544576815e+00
-9.851492708758484707e-01
-8.752621023623111673e-01
-7.840238557226160143e-01
-2.941998356108777024e-01
1.033267046227116293e+00
1.287044791773663599e+00
-7.095514980429085128e-01
-1.286855546287935859e+00
-7.089495257816860185e-01
5.843671476691715272e-01
4.280340485867814015e-01
-2.099201805222060901e+00
-3.358236776474444740e-01
-1.955645571285354212e+00
-1.197670370750390179e+00
-5.812092807373825387e-01
9.841931643426048426e-01
1.043656838177866364e+00
1.528628032649714141e+00
1.933631316663156907e+00
4.705200208582792087e-01
-1.212180710786101345e+00
-1.210550502547007135e+00
-3.129464268546329642e+00
-1.436063501899719430e+00
1.604960149493893096e-01
-2.793473187240460121e+00
-2.037790391311954163e+00
7.429433183629031712e-01
-2.703395428309994575e+00
1.092194299221378895e+00
-4.800345630861085899e-01
-1.769273759278755742e+00
-1.076940969839304124e-01
1.019270711548869945e+00
-4.256561601526770988e-01
-1.361471026432765186e+00
2.685523849459425239e-01
-9.821656980213976373e-01
-1.157102123246337877e+00
-3.987871985501456606e-01
9.997236321150423377e-01
-1.557364140583554768e+00
-3.061089486392618714e-02
-1.750362508369664338e+00
1.969426778039502057e+00
1.243975426981129617e+00
1.114639042194872198e+00
-3.686838990538104377e-01
-4.467183585079630426e-01
-7.663198486474734894e-01
-8.217449324112552356e-01
1.439096960495099831e+00
7.516632067712804011e-01
3.323395765971655369e-02
3.241929619238831384e-01
2.383134658186695010e+00
-1.065036442572157016e+00
3.709523244302293521e-01
-6.881376217526278261e-01
2.763481736640293132e-02
-2.486597159783934252e-01
3.990942543539292564e-01
-2.350085733058552950e+00
-2.389765352459233827e-01
-5.690293962609942191e-02
-6.737795445636457492e-01
-2.654062693404222184e-01
4.984062457637384869e-01
-1.084742240530855550e+00
-9.540905174330776006e-01
7.259587369352424879e-01
4.111134942535540349e-01
-8.248729692645490053e-01
1.097144058695404878e+00
1.875459867248027157e+00
-1.138510335723596834e+00
-1.393644905234777243e+00
1.225003751722739814e-01
-2.026450648049116787e-01
-2.392835522091667222e-01
-1.414399692576801426e+00
1.019634087813150181e-01
9.244067160892944779e-01
2.321784471790714122e+00
1.836144723787320743e+00
1.283296426104316046e+00
2.786653799921743335e+00
-1.871417635363809229e+00
-1.293304276416013199e+00
-1.319167589502837634e+00
-2.261441654595750972e+00
2.068229723945763876e+00
-7.763953138375448981e-01
9.060416049756754575e-02
-2.871866984132253608e-01
1.623346219261851964e+00
-3.301321360310779385e-01
7.300183418379461164e-01
-1.923766146064563642e+00
1.831084143167651113e-01
1.123968837613723348e+00
2.095145152966670921e+00
1.062548207863831307e+00
-7.631533806973330725e-01
-8.756166290213081016e-01
2.185367342433393312e-01
3.571705411783296369e-01
3.557279558873093772e-01
5.967748963708328080e-01
1.084288073067544378e+00
2.462169599690168020e+00
6.043935349240491250e-01
-7.476096107338797703e-01
1.659586405349996019e+00
-5.828339876328730851e-01
-6.811092710101832592e-01
-1.799933308331034543e-01
-8.854681741736224188e-02
-6.067180886848493326e-01
-1.350060258311386874e-01
-4.044739772828767621e-01
3.438911788604527509e+00
1.507716799027532639e+00
9.896878634503871730e-01
4.747043153851026459e-02
1.466722729660030700e+00
1.022196516091165686e+00
1.768848204894611698e+00
-5.272696322463420460e-01
-1.277443448031206907e+00
4.209471824863556533e-01
-2.056337338636828049e-01
3.247965645287759218e-01
7.435746607674860176e-01
1.690872698522177253e-01
2.049898277205760788e+00
2.210429400506435105e+00
1.764225868315677515e+00
3.525576993600855746e-01
2.888466785465723663e-01
-8.566097049628826898e-01
1.077097133314564692e+00
4.006104475203660087e-01
-6.194094614448704128e-01
4.930542085147520126e-01
1.009278429604379301e+00
-1.218021385211335739e+00
2.198215641303949974e-01
1.116017908414323329e-02
1.196895762011904507e+00
1.658048332290686711e+00
1.231573006624536282e+00
1.775303209606963861e+00
1.953686953961521588e+00
2.149833264988481318e-01
-6.445574473884901900e-01
8.305920745941623995e-01
1.743877550708468949e+00
-5.536424568766846743e-01
1.212189361049435643e+00
2.545240851629823609e-01
-7.393697245747332669e-01
2.267785609612875675e+00
4.419973341554859769e-01
3.548559402729471457e-01
1.414806611256162805e+00
1.844536942397158263e+00
1.889463695053788417e+00
6.170762495713711937e-01
7.328487291560842332e-01
4.164930855997240888e-01
-2.709517204372843824e-01
1.313524616886407648e+00
2.154591799905913874e-01
6.926940062348800886e-01
8.764433720011584050e-01
3.801468270241974978e-01
1.524056485842138153e+00
1.539929972359946442e+00
6.313237121821935194e-01
1.494111984967899653e+00
-1.888858775737104964e-02
-1.228044970833019001e+00
-8.548581662894703115e-01
8.913296996359175717e-01
-2.582488092295383009e-01
-1.877335674414331301e-01
-1.515610566277979299e+00
4.661856855480044914e-01
-7.161026190690686355e-02
4.493298204781409622e-01
-2.489238749554294472e+00
-1.260730405125074227e-01
1.276985594418116987e+00
1.332338456730863152e+00
1.353285529049516045e+00
1.222199317242352173e-01
5.918221378809264133e-01
1.866809652171400602e-01
-1.467551225599894371e+00
2.810986864208481761e-01
-8.326760459608911757e-01
-2.069014116521613600e-01
3.288338355733634311e-01
-7.989530574666899865e-01
5.084841821271245399e-01
1.227845327656876595e+00
1.049751553481493627e+00
1.118655524922898659e+00
-8.062440874413904224e-01
3.125480092962551470e-01
2.819424989618738997e-01
-1.255007632001807094e+00
8.322576396699452594e-01
-1.034542375307296647e+00
4.990752222754292755e-01
-1.042706151018876648e+00
-2.335531479921174047e-01
1.047952757830077214e-01
1.795987078526828373e+00
7.946698940690887225e-01
1.625372461447316619e+00
1.973638125619746608e+00
-1.281995636136195049e+00
7.601507607316584370e-01
6.262072474262010691e-02
9.541932111766128488e-02
-1.145952530889256193e+00
-7.735043688352973845e-01
-3.934603041917341115e-01
-3.836548370230158378e-01
1.360893150848306643e+00
5.042691278508876218e-01
1.896484867375617944e-01
-1.807739934082194244e+00
-5.083026873182068250e-01
-2.383100916388531942e+00
1.086839933360254307e+00
9.854232820363872936e-01
-1.839618890194791856e-01
-1.012195406099748229e+00
6.818668995762531271e-01
1.351529038833643170e+00
-1.023415150510446764e-01
2.247818171486215266e-01
-5.244685366033130514e-01
-1.273734344654183226e-01
-6.809496107501323836e-01
3.637252602890490016e-01
1.419533502816483772e-01
1.519696301164257912e+00
-1.420292210721547654e+00
-7.319391833622127530e-01
-4.283921592927496941e-02
9.734855332838585062e-02
-3.668695049562015753e-01
-6.048177228430547947e-01
-7.910809567401481113e-01
2.627148180812791889e+00
1.791109590876686086e-01
1.281643633600526133e+00
2.408877796947427596e-01
-1.012029041265318785e+00
1.480108637453841025e+00
1.245595490979288789e+00
-6.082168158883766163e-01
9.171634311701043485e-01
1.900431317093375649e-01
-6.171469431801602790e-01
-1.161465513477457190e+00
-2.746877186859371101e-01
6.184809565939303200e-01
-7.007865878263087600e-01
-5.177489333146101380e-01
-1.552489081785088709e+00
6.517104891091405339e-01
-7.755071299727751555e-01
-1.816767297239918921e+00
-5.633266140242981779e-01
-5.501334349833899573e-01
-3.695692403749045174e-01
6.787339632245028564e-01
-5.610623998822091701e-02
1.413098980369702717e+00
7.252766712846586694e-01
-1.087511340729799603e+00
-8.448481696787832895e-01
-1.334162650286710106e+00
-2.879631804834775211e-01
-1.213248887393771014e+00
1.230599618562802311e+00
-1.965067533168911584e-01
-1.239967763268766815e-01
-6.183830963048885243e-01
9.387940059306232321e-01
1.256460875351268491e+00
1.645212783560684455e-01
-8.091051994019264892e-01
-7.339810715454494483e-01
9.719897846601795177e-02
-2.105956710439226345e-02
-1.743466715245395871e-01
1.615361746273730470e-01
-1.041250328130553626e+00
-1.827873779635577511e+00
1.806143782217220606e+00
1.742958761983553762e-01
-2.249969915887848337e+00
-1.768832758891099255e+00
1.437797024334240004e-01
6.060414910521684240e-01
1.683315253481880991e-01
1.127821963628655499e+00
2.021774681657318329e+00
-7.082988010034555471e-01
-1.870547656218528809e+00
-7.384097467595924780e-01
-1.576188721751021315e+00
-9.420392012047640318e-01
9.468797365202804572e-01
8.116571117712144678e-01
9.939734320632842568e-01
1.886369225628987900e+00
1.933400241978141088e+00
-1.260955444971377348e+00
-2.040928942497560739e-01
-7.421818235605213976e-02
-3.517481220793350349e-01
-5.911829046955514172e-02
-2.979427205786081001e-01
-1.970969048021706360e+00
6.646669100822012455e-01
-1.016876704392661201e+00
-5.791838502107027331e-01
-1.039660070061611208e+00
-2.143297855600043711e+00
-2.679028620946687367e-01
-2.810513940252628462e+00
1.665846357542279499e+00
1.608956241896205785e+00
1.110375830644847878e-01
1.936689962542023302e+00
-1.124066419261078087e+00
-8.210742369627174186e-01
-1.168009082022066492e-01
-4.927357048927782923e-01
-7.618749325818757745e-01
-7.993660339282144811e-01
1.330155958933924687e+00
2.163528012408547085e-01
3.303110388341706227e-01
3.043031334879308658e-01
-2.936213972154949059e-01
1.747635583903626610e+00
6.531475430598416843e-01
-1.689858804614050580e+00
3.708199115168676896e-02
-6.952924798181265853e-01
-4.032706315407561526e-01
1.738679012588248418e-01
8.282219650556488233e-02
-8.427636861839157278e-01
-1.622844865178188600e+00
-1.652964896503076098e+00
1.235065178409580300e+00
2.308823596214846369e-02
9.810665394294737496e-01
4.225645425053790594e-01
-2.403721267179462995e+00
8.162858649789539456e-01
-1.294740145973936274e+00
-5.148397577797425573e-01
-1.668023242586169852e+00
-9.058323756676069927e-01
-2.784956075476682003e+00
-1.739248699958825695e+00
2.835910686418408599e-01
9.744638837768951900e-01
-7.891438592567036059e-01
8.345356763132716349e-01
1.387542014692511927e+00
-1.888592492764093467e-01
7.370087818985475714e-01
-3.900008550812568142e-01
-5.094472151530119244e-03
-9.438311999193867985e-01
7.834675783363148627e-01
-7.419661663408826380e-01
-9.321165665640553100e-02
-1.553436546237685123e+00
-3.678432612387476097e-01
-5.614159128527332898e-01
-1.253031709556498230e+00
5.686198001515558875e-01
-2.947268276002191767e-01
2.354656153105215921e+00
-1.356936920236830879e+00
-1.866659554350577732e+00
-5.924574589023199334e-01
-2.622020615880301886e+00
-6.996928370170867051e-02
9.325895587017541954e-01
-3.155817731942128779e-02
-3.473785277407907546e-01
1.046556942798242851e+00
-7.720428996318600134e-01
5.084633714040642793e-01
4.870990319635351562e-01
-3.594204087909821932e-01
-1.195298823234386826e-01
-3.638042198983860720e-01
-5.093524814052361460e-01
-1.523454625700123577e-01
6.090783642824337818e-01
-1.387393871214951169e+00
9.936171169935489322e-01
4.926351037342986405e-01
-1.327131140427075806e+00
-2.468700123194927265e+00
1.106682683553158186e-01
1.008875829404710212e+00
-2.753024398984382434e-02
4.003522034667617580e-01
-1.995545320665332412e+00
-1.975906747456954438e-01
-1.053291156388303840e+00
-8.167195069049988376e-01
-1.880183341069655345e+00
-9.670642973405454423e-01
-1.233275885999511656e+00
6.927780790382037646e-02
-2.058456771601636426e+00
-9.852040477683978725e-01
8.909801484256147930e-01
5.310075376367824340e-01
9.447795419688352903e-01
-1.097512548704271396e+00
3.457309586382582012e-01
-2.873740662001383339e-01
-2.697646819968226722e-02
-2.855160144139887723e-01
-7.117455405803312374e-01
-2.837567448712398299e+00
-4.190328498255150858e-01
-1.695615602268257360e+00
-1.251083925632947791e+00
3.629248442717927098e-02
-1.473427703780241904e+00
-7.553387379607084950e-01
-7.370394264071368218e-01
-9.803415848924721399e-01
1.900351955224152400e-01
-7.188111799049996531e-01
4.694471394621662075e-01
1.173934852267025208e+00
3.104920840811526417e-01
1.232262265385679623e+00
-1.924645038786899909e-01
6.202560491685390476e-01
-2.109332193499680930e+00
1.004019028120391344e+00
9.523671001826037319e-01
-1.066013889778969048e+00
1.468859378002501215e+00
6.015673835801239600e-01
-9.229837396333795407e-01
6.766302354998693369e-01
-1.315615259169820028e+00
-3.329528678222138938e-01
-5.497470517783430433e-01
1.131074290461510506e-01
-8.188867728486152187e-01
2.015300518183152367e-01
-9.369704678895376393e-01
-2.561313940240914189e+00
-6.220107076891864817e-02
3.331628574060712111e-01
-2.378471500356568402e+00
-5.682497378957117595e-01
5.452274957778758396e-02
-1.150229785532938420e+00
-1.454076615967620612e+00
-2.040385982552182231e-01
-1.051492172062187036e+00
-1.170781782054139075e+00
6.877149186971105443e-01
-5.293156735150785636e-02
1.105878092312275074e+00
1.089117858127616856e+00
1.156230068677780887e+00
-9.349683199882311557e-01
2.050153200610296544e-01
-3.136151011136380506e-01
-6.827629214901677068e-01
6.016323170100543738e-01
-6.274645221095491721e-01
1.203288287925361244e+00
-7.228480066895459633e-01
1.203185213355666194e+00
6.925491631592677055e-02
1.033299579871457485e+00
-9.631320802941311099e-01
1.617375072175990747e+00
-4.051484663396803243e-01
1.429373616554151759e-02
2.397482188523226920e+00
2.176187331075297715e-01
-2.870943197125702118e-01
-7.827370020364196046e-01
9.189405021576463328e-01
-4.116401780619096673e-01
-3.794760609760887415e-02
-1.258817469547519385e+00
1.562232436669822866e-01
-1.694333046995951941e-01
-1.551834258723141791e-01
-6.752874757495135327e-01
-4.989831154945167935e-01
-2.256766514669421575e+00
-8.565237795640116003e-01
6.015936542564234157e-01
4.611011307441451046e-01
-2.491741977769697802e-01
1.298354262084162158e+00
-1.783761103322324126e-01
8.382405847428070489e-01
6.498530758006908492e-01
1.530981680526890321e+00
-7.758675121386002793e-01
-1.582764152114260581e+00
-9.332781116336077987e-02
1.407847873687348317e+00
-2.929673640716088934e-01
-1.598793772628179233e-01
-5.831678253576875193e-01
5.009467934152856960e-01
4.427255918877207042e-01
-6.130032339922024676e-01
5.821649517692158993e-01
2.353887533719856151e-01
-8.387281580056098473e-01
1.101473009137197812e+00
-1.172801818509157989e+00
1.130079330903795531e+00
4.368696090820495953e-02
4.120932776243153017e-01
2.358283085918633504e-01
2.865381015371663564e-01
3.198527815561699184e-01
3.908232900334047133e-01
2.267640688898149737e+00
1.494933761151425511e+00
-3.759542449254044127e-01
1.925510216389702434e+00
-6.036916334100579373e-01
-1.340679978006859230e+00
2.667726165461287824e+00
1.226316842533578116e-01
-2.757011029926370593e-01
-6.726145232584991307e-01
-7.012353596475049411e-01
-8.472568527046175912e-01
6.429175195779281982e-01
-1.434169214656583868e+00
-5.190780359217461726e-01
-1.382080615022832415e+00
-4.471785399901719305e-01
-7.534863516312939602e-02
-2.540397335633119980e-01
-9.551764231051033116e-01
6.216433709615752923e-01
7.276114540049088975e-01
2.325835853800113373e-01
-6.348517046025640154e-01
-1.249934747011659297e+00
2.594684117058776440e+00
-1.472302351470837323e+00
-6.087408926763784867e-02
8.165169098188779229e-01
-1.027394852418996640e+00
7.582590822716314682e-02
2.792666646094583260e+00
-5.815766650799385484e-01
-5.451735590006778764e-01
-7.227103899391637554e-02
-2.962386514960879680e-01
3.731138786838358867e-02
5.956554618180640581e-01
2.322043806465345084e-01
-1.911650500621771553e-01
-6.847919504830672910e-01
