-9.396616577071283949e-01
4.927292675172514902e-01
-1.126837365779647548e+00
-2.157757926679296778e-01
-1.506196361284146024e+00
5.307271210027040276e-01
-3.713811299644789177e-01
-8.507783845756775598e-01
-1.915275025331164560e+00
2.328817604701002075e+00
-5.146197812737609567e-01
-5.806935959387533597e-01
6.443703486259088065e-01
-1.279469627594466141e+00
-5.542016765276313039e-01
1.188174167362020771e-02
-9.376901733116822513e-01
-1.724813715333040620e-01
2.132320854113377573e-01
-9.179741144167744560e-01
1.837929350556980923e+00
6.304820268314911269e-01
2.338768304044389675e-03
1.465064939923371723e+00
4.752037606593370600e-01
-1.260198210387664997e+00
-1.440809717107679244e+00
-6.742770873740973336e-02
-8.065078246824994856e-01
1.395009170028213452e+00
-1.837338395791153101e+00
-1.187704446349095777e+00
-4.811724815318508819e-01
-1.772075173544314930e-01
-1.885325533584565616e-01
1.874446222371520365e+00
7.353332164691010753e-02
-3.121302998038917309e-01
8.472114786881652926e-02
7.004840411844560633e-01
1.007432157791819050e+00
-2.365743014164944480e+00
-4.692082041626195743e-02
-4.270960514316073930e-01
-3.257847393175510864e-01
-1.071820110940966408e+00
-9.156027773087651589e-01
7.305858690814980294e-01
-7.327915538578717580e-01
3.028640058153772574e-01
-2.641317192598117147e-01
-1.147917437840186017e-01
2.653548250063135217e-01
4.552377736788043028e-01
-2.503600829382252591e-01
8.878304787963765543e-01
-1.249674035552122531e+00
1.603966228707228714e+00
2.407048005778356092e-01
-1.743250527706137865e+00
5.073759833753983539e-01
-6.585105026468252021e-01
-1.438074266050365591e+00
-5.323577523052474003e-01
-3.071787668774669244e-01
3.731099089028658833e-01
-9.853141481730335327e-01
1.352337277284952455e+00
6.126559689866646341e-01
1.200416160939852706e+00
-1.022595807232575593e+00
-1.289925284782978743e+00
2.105268165915237522e-01
1.945111073705884860e-02
-8.851347949044872099e-01
-1.322338221809852055e+00
9.912223156436363869e-01
-4.346468261182061532e-01
-2.279327070317929138e-01
3.877649662789596219e-01
8.127078931154645414e-01
4.106730053234387001e-01
6.784104178094269022e-01
7.770578791880349279e-01
-1.644595668229770657e+00
2.959280782318789854e-02
-1.417506553098418554e+00
-1.180869665485650005e-01
1.922191273774533915e-01
1.564314849399268903e+00
5.451639632125038215e-01
-5.077884028685707846e-02
1.241638934045430132e+00
-8.852982747532635310e-02
3.829763581454980192e-01
7.762894971573520708e-01
-3.339692759002391709e-01
-6.530876244333300162e-02
8.085682865644968631e-01
-2.671271317120297445e-02
3.784456443590277636e-02
6.070672590495899135e-01
7.935043878827104935e-01
-7.878416964184896676e-01
-1.319228306872009426e+00
9.903632838704203856e-01
1.312476192394470331e+00
8.027865853290078180e-01
9.616707751708547525e-01
1.727075229929425859e+00
5.624350010800956978e-01
-1.798374161722263942e+00
6.902900658837247683e-01
-5.489338980836708792e-01
7.612640115937263641e-01
-5.877542112247548939e-02
4.620118100403396988e-01
-1.960029642759561763e-01
-1.426436811973603724e+00
9.722363116729905164e-01
-2.319698840116176664e-01
-1.508630965632176357e+00
-3.908145437822014845e-01
-3.804607068843411932e-01
1.183316801039294569e-01
8.711146322000963282e-01
1.772940353644621436e-01
-4.607666205563044626e-01
4.897638552837734749e-01
5.917598136404852299e-02
5.684405861142646232e-01
7.377594148534846186e-01
4.507177899951241851e-01
-1.051617555171153295e+00
-7.440151821814028343e-01
-3.065456227417868718e+00
1.640044856228142889e+00
2.195982751271861044e-01
-4.933073150122544992e-01
4.857255978920581030e-01
1.499292715172104939e+00
-7.941999396673879441e-02
7.544448679614118580e-01
-9.532003778486067835e-01
-2.226346132379733334e+00
-4.827261942466234412e-01
-2.340175313029523030e-01
-1.143812172002715899e+00
-1.456989308489764934e+00
1.241751680946357572e+00
1.039549191162306263e+00
4.331047832412215914e-01
4.236684586692066601e-01
4.946949258875825151e-01
-1.914389867792078148e-01
1.027668126917176572e+00
3.716656556494178920e-01
-1.268024753750280481e-02
-2.259667165812331291e+00
1.531003567785139241e+00
3.140629048760830155e-01
-9.622830340342243272e-01
2.395957725838217534e-01
-4.983734070899253910e-01
2.098103039109205259e+00
-3.958275704686509133e-01
5.677937733202016446e-01
2.096186112172216287e+00
-3.867770110633670377e-01
-9.098210282864779286e-01
9.861877909149419086e-01
2.741102741648795416e-01
-2.862190508551266110e-01
-6.604116530973237476e-01
-4.628208613776123581e-01
-1.402572643592193025e+00
6.720631638340489322e-02
1.893875079123531202e-01
9.776999258028414852e-01
-1.002608622989583198e+00
5.885385896664321326e-01
7.007540878703557574e-01
-8.803690538050166214e-01
8.528173942748564773e-01
1.991166200787208629e+00
-2.272033191242087913e+00
8.026809167013563284e-01
1.494393159903756596e-01
-5.512037181672129194e-01
6.544040431596174212e-01
7.424256759619177748e-01
-7.067264686496552706e-01
-9.956497819863044940e-01
-6.116089501687307362e-01
7.177372551663047107e-01
-9.692832410507031815e-01
2.490279036315375283e+00
-5.606705388277415381e-01
-1.322987391201167151e+00
5.632375385421790615e-01
1.396168158755209054e+00
3.566030468083551952e-01
2.689040936321564490e-01
-1.377375017151432512e+00
-4.152053438014985387e-01
1.429715577274425664e+00
8.384278686704087491e-01
6.185355750288294985e-01
-1.592497375836907425e+00
-4.037292379631223782e-01
-6.943012202849232484e-01
-4.193253079172562514e-01
-1.575321485247221265e+00
5.514435814561016169e-01
-7.876536808141729740e-01
1.065792448053612285e+00
-2.281051318317723342e-01
5.969394670089069876e-01
1.883332302841827788e-01
7.367626797836238084e-02
3.361999817219145648e-01
1.554169501103949344e-02
1.301348981832587626e+00
8.290328797134457472e-01
1.268735866540778856e-01
2.764910849585031083e-01
-1.031740974140855194e+00
1.646870034092631219e-01
2.712852278126368089e-01
-1.367058758081139969e-01
1.396891498720864044e+00
4.439537127934586325e-01
1.255139253002547584e+00
9.521827595501483055e-01
2.767170936417465699e-01
1.195925941706587753e-01
-1.948078411768882634e-01
3.562390345038711215e-01
-5.965919217743241854e-01
-6.014077025377638774e-01
1.708526970577383119e+00
1.080112934368958388e+00
-1.816158154673208625e+00
-1.053656124502519553e+00
1.286832289690728715e+00
-2.020685003315164874e+00
-2.609291825543140764e-01
8.715835613952284122e-01
-9.178424790286255908e-01
-8.640964436395657255e-01
-1.940375324257990863e+00
9.288058898756314241e-02
-1.529100339988814228e-01
-5.049059533693304180e-01
1.529607904127367357e+00
7.746278028237949531e-01
-1.808588902766552042e+00
-5.567240846763789053e-01
7.222607107112412050e-01
-5.583901064640089951e-01
-1.056780923448216614e+00
-7.803704790915247935e-01
1.784532195600242677e+00
-1.461374341235638141e+00
-6.752405100277474211e-03
1.338865034364225659e+00
-1.206313284565147637e+00
1.975446095744563646e+00
-2.018812413292877805e-01
-6.999120789220031336e-01
-1.470513439012998580e+00
-3.213215059456805966e-01
2.465480411552699591e-01
-4.196485122461575124e-01
1.158135164249872590e-01
6.268000998889328157e-01
-1.291116718677397801e-01
-1.157961758009954600e+00
-7.010433610674398075e-01
1.776002249574294145e-01
-5.699702719330910876e-03
6.766278341316256384e-01
-1.223538161240404765e-01
2.318805393862570785e+00
6.505659085177600831e-01
-2.352981689497856965e-01
1.677770230090728898e+00
3.464252951658411406e-01
-5.390166722773968022e-01
-4.773760670109151172e-01
6.974543830232170227e-02
1.481760464196779647e+00
-5.904056906805083688e-02
6.428744640497499052e-01
-6.278435525142651574e-01
6.226560654546936524e-01
-9.343716174712136668e-01
9.020800919267624174e-01
-6.713396311428394547e-01
-2.946939441645639590e-01
-1.573052042548690244e+00
1.415029846081125475e+00
-1.681759431974645835e+00
-6.766636922515385510e-01
-1.781093387577323384e+00
-7.755961177773612603e-01
9.875209229748028728e-01
1.658005368619086539e+00
-1.540016134188847197e+00
3.563167339671149958e-01
-1.494084779088323822e-01
8.935192948425948467e-01
2.011316762801522162e-01
-4.336007053289310242e-01
2.008807376729055516e+00
6.615895354686502916e-01
3.010578046466576563e-01
2.349144942395602897e-01
7.490796626445548334e-01
-4.063126752508767758e-01
-4.611506944024492127e-01
-1.236981125632907963e+00
8.702013801140258409e-02
-5.295598522062359148e-01
-1.675889009318219311e-02
-5.211673650591068796e-01
-1.753130074172376318e+00
-2.716579879888109117e-01
8.383198610161980424e-01
-4.976742371948374433e-01
5.139963805650269446e-01
-1.344917067085686257e+00
6.961654991067371956e-01
-2.539070572796539582e-01
2.651627279406018958e-02
1.388575221116937763e+00
6.226535761821501425e-02
-3.391599205733598632e-01
7.243266540913845253e-01
1.347955868810972180e-01
4.737897580566557965e-01
9.998592878693957076e-01
5.334927189983822426e-01
-3.153347203741450611e-01
-1.513515901321865476e-01
8.681642221326300035e-01
-2.184026763129941762e-01
6.839748620610233143e-01
4.728200430407192290e-01
-2.526718047153375668e-01
1.306291676035617577e+00
5.588876039098147341e-01
-3.978540572003757547e-01
2.418974535256168679e-01
2.363490289670781230e+00
7.620497149118833635e-02
-6.956366749734343990e-01
-1.769287023853339136e+00
5.304127890748487895e-01
8.016247871143679371e-02
3.523677864161576245e-01
-1.028759550584094740e+00
1.062025444462729284e+00
1.772368887212833144e+00
8.573654084406948650e-01
1.112652252657780449e+00
-3.784849325850329071e-01
1.108696198368548796e-01
-1.215347505432096131e-01
-5.307628167518763096e-01
-5.544885422075346987e-02
-5.328085894697844882e-01
-2.637229299613043754e+00
5.532294559855992500e-01
-8.041736818460916147e-01
-1.149472630923056501e-02
5.352295232509314549e-02
2.261417208453583294e-01
-8.342220720024757785e-01
4.140807953096053429e-01
1.025420509963268501e+00
-1.164312531462408096e+00
1.235373275189268316e+00
2.137512586471257858e+00
1.475501584250734854e+00
1.608954579160658607e-02
-2.005320378578634877e+00
9.872455675745580583e-01
-2.402724704084573115e-01
3.880889379934857053e-01
-7.115995301735591472e-01
-1.999918102518619012e+00
8.208813053144072835e-01
1.233631523259690832e+00
-7.845247795568066618e-01
8.297421404590447913e-02
2.467235967516862583e-01
1.572478473571004287e-01
2.419159047571719234e-01
5.955096978532111729e-01
3.450895092868264125e-01
1.074325533216741180e+00
4.426120518740969123e-01
1.202642593287494899e+00
-3.695012237409507350e-01
-2.430483818091175585e-01
8.940066102175685536e-01
-9.323790276316842318e-01
-1.305922567554685054e+00
4.160008674535008999e-01
-1.016158691888047416e+00
-1.109316889695750596e+00
-3.039498188247799493e-01
6.093505374105778749e-01
1.864218497858395995e+00
-3.144843906362453367e-01
2.750544013804125942e-01
-1.808877570597378637e-01
-8.170367385943010374e-01
-3.936890881819686272e-01
-4.956272210741528017e-01
6.823097703128007119e-01
6.777711794592726768e-01
-2.198027992300868316e-01
3.783702823356151490e-01
-2.810573910155511057e-01
1.012295194835128864e+00
-6.800571501486063486e-01
3.917081923014900102e-01
-2.187136547254128760e-01
6.344543366678850882e-01
1.220674330847314915e+00
1.785232229763173306e+00
2.233213659487408798e+00
-2.278130622935590488e-01
-6.292450582976141793e-02
-7.020101058106517078e-01
2.664759374403546932e+00
9.892601743990300234e-01
-3.737788540484435207e-01
8.729897236295121044e-01
-5.012071934436106435e-01
1.287006355497156251e+00
2.307719755109785886e+00
1.075587720324512997e+00
-7.319088311164693161e-01
-3.934337193697114987e-01
4.768703305588529173e-01
-1.814717095593420815e-01
-4.967765564616932195e-01
5.684156803931824514e-02
-3.378864237857658881e-01
4.820305429879769843e-01
-1.051279331605345091e-01
-2.468723663925410650e-01
4.620942757138970514e-01
-8.870947903662571576e-01
5.272224797059944512e-01
4.266420093753743314e-01
8.982053051811317301e-01
-2.185960047663943140e+00
1.944457799912465479e+00
-1.221621095750757419e-01
4.313997900207451885e-01
1.192808205185763804e+00
-6.207829994953595332e-01
1.170579642012669508e+00
1.002561588236665191e+00
9.420617292247880359e-01
9.490382427107486585e-01
7.109508373113931912e-02
-7.613837086966810386e-01
-5.892476135782421798e-01
7.032452610674155835e-01
-3.685593381955834524e-01
-6.487910367725662208e-01
-1.429973036162134115e+00
-6.058776014809421628e-01
1.270297828402384921e+00
1.422490083031069830e+00
1.556198221385529878e+00
6.298025155327562352e-01
-6.221719080914691613e-01
-1.003843067729096178e-01
1.825625806707438015e+00
5.621949687371081694e-01
1.105012297104467356e-01
3.556646775383517589e+00
-8.519866776271718400e-01
5.054604614435812548e-01
-4.174025586101242635e-01
-4.188739431368370680e-01
-1.391375273090814879e+00
1.631658105345237919e+00
-3.478606119844777633e-01
5.903209512562027639e-01
-9.253370325264465013e-01
-1.788522224211730904e+00
5.038920239194446538e-01
2.662250272040025956e-01
-9.590751666916462470e-02
2.834039637352895880e-01
3.730998886767147305e-01
-9.144684489689851592e-01
8.891373083538693656e-02
1.314275860271381102e+00
8.794645715754828563e-01
-8.366921718707424904e-02
-4.083409831814148738e-01
-1.172529043457324560e+00
4.268025839316925141e-01
8.272849932097062764e-01
1.221248003730538313e-03
-9.164126094077428009e-02
-1.656037147451214553e+00
1.071136699979328810e+00
1.363868564994099308e-01
-2.470590100855926119e-01
-8.805492177572340484e-01
-4.288203283746209737e-01
-1.307162800881713771e+00
1.944460215272202586e+00
-7.788155098388369613e-01
1.071831500154665440e+00
-6.626637376339269414e-01
-1.494572143691459187e+00
7.387256595252850166e-01
-8.786230474270144419e-02
1.011500689576250445e-01
-1.008134938326689767e+00
-1.711242855499560955e-01
5.900559057324890055e-01
6.677503111168467953e-01
-6.410393053737930558e-01
-1.012577206006255670e+00
-4.394910598904367971e-01
6.996601258280249480e-02
1.503732909351845226e+00
-9.219989402666036726e-01
2.268581177307040786e+00
-1.674363071614697884e-01
8.373693525263063986e-01
1.069143112018600683e-01
1.023986479434209063e+00
6.096039303243571128e-01
5.606581595544811725e-01
7.530034308027497292e-02
7.984118472695515001e-01
1.496539432389304702e-01
-1.054996555350027343e-01
-1.448427038462963390e+00
5.037827002918733310e-01
-2.993770396849371185e-01
6.518300108488768174e-01
5.967452852867616286e-01
1.402206772444736460e+00
-7.466219361528425580e-01
-3.260736586165167150e-01
-2.925180885246876916e-01
6.677614218995370221e-01
-1.128790147736886268e-01
-4.015543661001697018e-01
9.020423360458258433e-01
-7.109141865189994025e-01
4.798245636678778459e-01
-7.557331136009020067e-01
-6.743145894437169163e-01
7.139838919490005820e-01
-3.684195453712806878e-01
2.500207622015958586e-01
8.220420111524912032e-01
-4.469706943072048189e-01
-6.084645327776818657e-01
-3.833825329185814312e-01
2.201604023854774717e+00
1.360822391103187146e+00
-8.762434054133751149e-02
7.838496097421548958e-01
3.080897065981103577e-01
1.041460902530186416e+00
-8.833533161577097892e-02
-8.041090826425657534e-01
-2.010078087830026727e-01
9.936154820410632027e-01
-2.108303808345232400e-01
2.573252948996346268e-01
-3.067714190274105357e-02
-2.030840138885643409e+00
-1.580115636885947028e+00
-4.219191442607586051e-01
-2.042127464361018774e-01
1.630982040076245143e+00
2.258135351620109976e-01
-7.724556939273428124e-01
3.322562697146233202e+00
-1.891424576900730292e+00
-3.796876607784111513e-01
2.035816168042820618e+00
-1.095939940950632296e+00
-1.105477557719841020e+00
-1.130704610030056845e+00
1.100925359369305134e+00
-7.951954777511863748e-01
-1.060803331476546374e+00
-1.385480670702003536e+00
1.813612296048317252e-01
1.344822636084719747e+00
-4.460587826907657649e-01
-6.495159125845457737e-01
-6.180627628469043122e-01
-4.578959253537643881e-01
7.289284729455816070e-01
7.101807082665712034e-01
1.915232076686635310e+00
1.603515798956270388e-01
-1.306078274588517107e+00
1.400276629471262302e+00
-1.666406520945232561e+00
-1.178767966065175310e+00
1.355564639594468712e+00
5.866560428163715146e-01
3.184226738664848178e-01
1.529014398430037225e-01
-1.942127675756975647e+00
7.970444070666453662e-01
6.445518366528061316e-01
1.019198009810404378e-02
1.465123306619938948e+00
9.209790760663003617e-01
-2.401891625850891554e+00
4.123088118788527101e-01
9.131363501051957821e-01
-2.275636341020635944e-01
1.449013510264629323e+00
1.979774765375252876e-01
5.320017184221736972e-01
-9.638368604638268833e-01
1.964142707028925461e+00
-7.386946092478266501e-02
-1.782907812168516570e-01
9.349223206238713724e-01
2.382151259530563558e-01
-7.553829917686039064e-01
3.728360546744100557e-01
-1.198041707228960223e-01
8.472059950261109362e-01
3.368483128813730132e-01
7.994185292106473217e-02
-7.233304925921547612e-01
-3.358841648170698413e-01
1.882733197856383267e-01
1.015998168949899583e+00
1.259233723022722996e-02
2.440102731346570075e-01
9.650753193952642528e-01
-1.715840093452694337e-01
9.559441434185749209e-01
-6.066770112363728540e-01
8.221978664627568323e-01
-1.214786889812075499e+00
6.346686685355046320e-01
1.828988262491050565e-01
-2.414417010000887487e+00
-2.226773242428170096e+00
-7.275207445038677223e-01
8.356033514466142398e-01
2.501173605038323533e+00
2.151031373163315497e+00
2.081214137290248178e+00
-9.508089711876990813e-02
-7.523558731988835291e-01
-1.411977499677856462e+00
9.203548342448317210e-02
6.537337936951777007e-01
1.927467410858119679e-01
1.338764288352202403e+00
1.810389933613271995e-01
1.030291305719073458e+00
7.563905991630733849e-01
-4.109124639990522354e-01
-5.844588505721707294e-01
-3.646115162048527147e-01
-1.478967701803131085e+00
5.573039574314422318e-01
4.597412472733056199e-01
-8.557924085830821703e-02
5.833048668261454628e-01
-7.081656198649553813e-02
-9.022639978968493013e-01
-1.320293619930619444e+00
-7.623768726008045560e-01
1.561795259757182697e-01
9.341473037404686153e-01
8.217957717873394241e-01
-2.033184389790402946e+00
-2.030408589650980034e+00
5.139841860795637540e-01
-3.635026270010709437e-01
-6.172959017065976495e-01
1.549657227699647866e+00
7.247264601117940908e-01
1.565742855274022460e+00
-3.859146289045839451e-01
9.021097080443528371e-02
-6.800233075338384114e-02
-8.647424811548013457e-01
3.051858433786762692e-01
-8.262528993873700101e-01
-7.654592629848354646e-01
-5.147340442354049195e-01
-1.671913940484047956e+00
1.107158911744403396e+00
-1.930101141374512608e+00
1.544670121354931647e+00
-7.248587084881059628e-01
-2.159681830428682725e-01
-1.782119327039034251e-01
-2.298266496808036852e+00
-2.984042176030139992e-01
2.755336601309624767e-01
3.972142302859958674e-02
2.279915949768347716e-01
2.284338911560991059e-01
-3.720870481159562204e-01
-1.745721952885869843e+00
9.495564893214261115e-01
2.651938155481250448e-01
-1.954512834289685863e-01
-7.687372569617697549e-01
-1.187170387711555253e-01
-3.340871617230067314e-01
5.193999000960006773e-01
-1.673557734343326109e+00
3.019825188087427170e-01
2.373818228061610913e+00
8.251340486930716089e-01
-1.013381824064645276e+00
-9.378616053452779600e-01
-2.157483215721352821e+00
2.393769924858844877e+00
7.770197339204030218e-01
7.154336119117324921e-01
-5.119343859750800085e-01
-2.188221169217416939e+00
-1.199003162682267920e+00
-1.825559635207084419e+00
-5.563523144300400736e-01
8.219671450420314995e-01
-2.039307384426910785e-01
1.108533596506299457e+00
-4.273003370539581458e-01
-1.762402463418190068e+00
-6.084191464875927657e-01
-3.026957572823429032e+00
-7.999781145465248988e-01
4.815035280265441697e-01
-1.264383556743247317e+00
1.537069289599439503e-01
-2.235275713290891739e-02
1.236160703819380036e-01
7.573078043998650033e-01
9.870591608018844942e-01
6.251011728478089724e-01
-2.456599159144085831e-01
7.125715403912545876e-01
3.468591188942650172e-01
7.207925359018801242e-03
-3.319014075708285327e-01
1.188476402413511712e+00
-2.734273189220465472e+00
3.060853210840646099e-01
-2.550637605253994744e-01
-5.662301327437284648e-01
6.597346054284039529e-02
2.507497081073212231e-01
-7.118793579029709662e-01
-3.069557818664124804e-01
-8.318188401810296950e-01
-1.631729881156071427e+00
-1.128913057711584234e+00
2.471282232520410072e-01
3.143285712718183467e-01
1.052258787154370046e+00
8.751081562951360526e-01
