-3.210530958018193104e+00
-1.075695973424335872e+00
-3.460306702244292931e-01
6.277142257103568435e-01
-7.257906842779240364e-01
1.250072290077033910e-01
-8.523862489947101606e-01
3.272375226994139741e-01
-7.180552094853518419e-01
-1.549011268990550194e+00
5.291341065269950655e-03
-1.127816513549830368e+00
-9.298024611228160319e-03
3.449055485895285988e-01
-7.083099372341671307e-01
1.630992394136283608e+00
-6.442793161226535448e-01
-1.020474389121214909e+00
9.438621553073872628e-01
3.014715320052701597e-01
1.339928218860742259e-01
7.613054998401169726e-01
-6.698120312848016011e-01
-2.428723787007234514e-01
1.211319670108449431e+00
-6.570563698246271178e-01
1.439950984131914025e+00
8.841427918018734955e-01
4.672979432689897128e-01
-2.068861579549480911e+00
1.189510852827147414e+00
1.213369149207010667e+00
1.692074140624656664e+00
1.032383276314914111e+00
-3.156255428009032693e-01
-9.440264477824733547e-01
6.377778410762044992e-01
-6.395842196129913892e-01
4.208581052756102947e-01
-9.104787643520286800e-01
7.846461597994673909e-01
-4.739453043670529553e-01
-3.842441111947442201e-01
4.958912154396293848e-01
-1.343738047827115034e+00
-1.073146431418269930e+00
2.856431427315156313e+00
2.599040611100101317e-01
-3.060184143483747343e-01
-1.304557700720893054e+00
-6.676931707649484959e-01
-7.045571483154812187e-01
-4.399872482480854385e-02
9.916253019869720742e-01
-1.782705039627279886e+00
5.858938320309790004e-01
-1.390047866566515911e+00
9.122196727487799084e-01
-8.620928675702742572e-01
5.848577315722566089e-02
-5.715269100810295155e-01
1.257422196630110234e+00
-1.481690226684772294e-01
-3.181379002242410436e-01
-2.651820233066910504e-01
-6.999771426869566548e-01
-6.737714447771802062e-01
1.971174455455646957e+00
3.747048627661204723e-01
7.558267683419270799e-01
-1.574851979828640447e+00
4.607612312129353849e-01
5.265485063529911081e-01
1.292645319486189548e+00
-1.306360725438540316e+00
-5.110318488847264140e-01
-1.496565449197025721e+00
3.339572601941572794e-01
9.400849034162040985e-01
-1.240993404467976902e+00
4.497108810758644881e-01
1.268227793434713924e+00
-4.069664114620186735e-01
-9.519586776383686111e-01
-4.036510599067096305e-01
8.154027071387255354e-01
-1.798801462473871071e+00
4.462589107111255560e-01
4.775118828501312418e-01
9.684361068236655434e-01
-9.432657348613033843e-01
1.574962240013597081e-01
-2.276698713774576444e+00
-6.899346741815276518e-01
1.775479777128315284e+00
-8.658334397446894037e-01
4.786236654508888577e-01
-5.062262123922594004e-01
5.100252108022709230e-01
-3.144903975320023637e-01
6.801572088231805369e-01
1.981915163767831833e+00
1.303198184970004503e+00
-1.132167858405556338e+00
8.327114173897395277e-01
-2.610803967271260184e-01
-1.403063681286613740e+00
4.159634244696634453e-01
-1.298056218526045802e+00
9.172145839099860032e-01
-1.638856784301514491e+00
-4.888978697242202243e-01
-9.120341068492404668e-02
-2.602178797103269804e-03
7.317355231103919166e-01
9.721734808903007563e-01
5.338974978751717115e-01
2.328281530590377291e-01
5.222953237726008641e-02
-2.259116996456027593e-01
5.045204621683487822e-01
6.799410728907185897e-01
-2.977658469082273829e-01
-9.346181704354705744e-01
-7.485047135361510007e-01
-1.785289855734821796e-01
1.927626255350564644e-01
-8.387918032378874900e-01
-4.996638416255153037e-01
-6.993257729099841002e-01
6.142987649194859845e-01
4.622032743613720962e-01
1.923698192483585201e+00
1.054091335758625680e+00
-8.452831315249392796e-01
1.302893592035704040e-01
-7.819761859958602734e-01
-1.118210580589232173e+00
6.759527017415951633e-01
2.701011387900242311e-01
1.012898933320338424e+00
5.498088215932896983e-01
1.434656104539199450e+00
1.845018825259994388e+00
7.473527365802239419e-01
7.199119127398018181e-01
9.829784445986461394e-01
5.393368008223671239e-01
2.440899991394588908e-01
-1.603044902116294690e+00
-4.106123423090696223e-01
-1.243470261598616844e+00
3.724084863367572162e-01
5.968183679995177522e-03
-4.417483422297517337e-01
7.110960760123322122e-02
-2.677049613859392996e-01
4.078126563780479774e-01
-4.227783773556280100e-01
-5.961630230510125417e-01
-1.129198640690067368e+00
1.800532445011265636e+00
1.579469507281738405e+00
-7.985553357058131629e-01
6.831563684402945924e-01
2.333145202915257510e+00
-7.143416078695598026e-01
2.602269269334135382e-01
6.958978987570144659e-01
-1.071797545689207598e-01
1.811812302948272446e+00
-1.000270104066914439e-01
-2.060142891119549624e+00
-8.334009340578949487e-01
-5.855128730027195916e-01
5.954136344281145687e-01
-1.992488014041149169e+00
-7.736526566732970789e-01
1.450267644181153504e+00
-3.167574952339971550e-01
-3.230772894726716138e-01
1.620889410027633870e+00
1.300697159822301607e+00
7.542249468829952397e-01
-5.703667042745429461e-01
-1.852298164846831297e+00
3.494869678274754587e-01
1.104397399877189656e+00
-1.432538100029877803e+00
7.732224027282693646e-01
4.877407788026247859e-01
1.699809391095304656e-01
-7.978337424299941638e-01
7.374752785056696291e-01
6.405188786137793189e-01
2.112746795942384292e-01
4.365799715297100647e-01
-1.206524627458749610e-01
-8.475274583821876817e-01
8.916191600486650382e-02
2.056095186473580583e+00
-5.300655730410445132e-01
4.699088184736630591e-01
-1.577438517255446981e-01
4.576648422005081818e-01
-1.298094346143592315e+00
6.747873422496061258e-01
2.231815153188203116e+00
-8.018665309797170515e-01
-5.072164341305657187e-01
5.935515685912308437e-02
-3.624815808025715347e-01
2.681766631152527669e+00
-1.542909874117410096e+00
-1.253034837795391043e+00
2.243301631162103682e+00
2.279738529201304487e-01
-5.396326708718810622e-02
2.072939100524218703e-01
-8.514442970024557189e-01
-9.893645773858180670e-01
7.269689230886098308e-01
2.080464900491790559e+00
2.865214212401849536e-02
-1.997576526911955253e-01
-5.323766555703826064e-01
7.696662369042128748e-01
1.011199029626735024e+00
-1.275914737145557698e+00
1.510855120396602524e+00
-3.050619380526706226e-01
1.298537118859064143e-01
1.711743233563379318e+00
-2.614892633661213273e-01
-5.285442715960958493e-01
3.876426472838017112e-01
1.160798181022938858e+00
-8.560260530289963699e-01
-6.156054046998155060e-01
-1.246764358751239810e+00
5.178941519414849148e-01
-1.336530276807178508e+00
8.228049995001374128e-01
-1.787168744656307817e+00
-3.150352825801970846e-01
-9.480290521067843423e-01
1.749357218856467222e+00
-3.915093753443973368e-01
1.025460264605026151e+00
1.179981468620605378e+00
6.030522112439286042e-01
-1.122278650338731198e+00
-2.445208505128924625e-01
-1.089559999833894288e+00
7.979763145436098715e-02
-9.043076330539779883e-01
8.512347700137971040e-01
5.063344343704501149e-01
1.558832604479226447e+00
-1.152322359241714889e+00
1.823748291683240152e+00
4.256014986715822568e-02
-1.454432119723924333e-01
8.400947236733173895e-01
-8.196338021551807795e-02
-1.855470548777412021e-01
9.554718438953486992e-02
-5.548960127454627411e-01
2.667532231193311398e-01
-9.457159155147495389e-01
2.626342741424472771e-01
6.731913725446906360e-01
-7.228707907109900299e-01
-8.994998063241242958e-01
-7.647319884081258401e-01
-9.954085229613855376e-03
2.303732361816057950e-01
1.481530755488565942e-01
7.419729893013756739e-01
-1.207314500797556756e+00
6.811626226388033112e-02
1.176051598158629252e+00
1.361171689124589523e+00
2.068262760054948857e-01
2.098604959734308828e+00
1.496683949396348634e+00
-7.428842573386237325e-01
-7.600720362692714449e-01
-1.131421352956442972e+00
-1.139830692113842359e+00
1.442702024847613451e+00
5.435732039625986722e-01
-5.108980665978172242e-01
-6.288092154557167746e-01
1.062790621350268694e+00
-5.631809225706817523e-01
-1.932780249913811643e-01
5.480541916093222277e-01
1.393421753677301256e+00
1.229398344595324266e+00
-8.963792991606436278e-01
-4.330724977178049828e-01
-6.959435379284443189e-03
-7.448483633312313890e-01
2.462897435782174682e+00
-9.189301147778925483e-01
-2.483589195289511720e-01
4.517779906395112954e-01
-7.048146420369446608e-01
3.259437651408325642e-02
8.350752726221194466e-01
4.466739941149347470e-01
4.545277227991600388e-01
-2.816337066732578887e+00
1.425915261045206828e+00
-7.174161608804245915e-01
-2.127991104960484936e+00
5.423652245959269536e-01
-1.504554033155453663e+00
-8.499391778613490933e-01
9.430410352483534764e-01
-2.645229081425133355e+00
7.670872520700245945e-01
-1.739872126332669744e+00
6.419402236867846057e-01
-6.869712377189015617e-01
-8.615412153451349475e-01
-1.176462098427422776e+00
-3.839105069340321696e-01
-8.382388112803166313e-01
-6.868254803184912216e-01
-8.819486340678457659e-02
7.822366284234164580e-01
1.635610048653355575e+00
4.507218137272939185e-01
1.253981498958145036e+00
-2.530556691532425129e-01
2.882866855940634521e-01
-1.410450599092929691e+00
-2.604667092417474739e-01
-1.513755455812148876e+00
4.823783846286951865e-02
1.177059108315712477e+00
1.154545797257857942e-01
2.470321736041953056e-02
1.330576470962649971e-01
5.593635893371955436e-01
-1.380109077559465103e+00
1.197005193679842261e+00
-1.636477020034241281e-01
-1.256775260666309180e+00
-3.818364401819421272e-01
1.537223792361414709e+00
-9.903774250071228913e-01
-9.201785927431155310e-01
7.260585563226027439e-01
-4.946607917648230407e-02
-7.331521529633885925e-02
7.546085141350725722e-01
-7.276247787263986355e-01
1.847297287898493234e+00
-5.239319141096642207e-01
1.742373654126885718e+00
2.056590363533423171e-01
5.859799822596968299e-01
-4.935366281618547291e-01
8.137727297064423215e-01
5.138018341112103871e-01
-2.118061094146236056e-01
-1.009264464260034577e+00
3.812595511547270943e-01
8.448725041582068052e-01
-1.627829568854145315e+00
-1.812881220821085604e+00
2.026679951077882791e+00
6.185766191531137936e-01
-8.004799256589111289e-01
-2.975963604693711018e-01
-1.456481126622701128e+00
-2.732530488021633897e-01
3.176346211095915084e-01
1.228561913756582413e+00
2.084499553102180103e-01
4.444309121257434270e-01
1.613545718923022232e+00
-5.139455439160908190e-01
9.099905827263212732e-01
4.586405189992309728e-01
-1.801030142901300479e+00
2.728441200173460923e-01
1.109583664046914997e+00
6.272523161504651723e-01
8.772257538506285091e-01
3.336130578576590455e-01
-7.963266281782211964e-01
4.060624110012843735e-01
-1.497513554618455034e+00
8.621478443952097503e-01
-4.756680544645751629e-01
9.195905143657097103e-01
-8.791115481957848532e-01
8.690803099086030770e-01
1.321980301772738731e+00
5.757488779917318000e-01
-6.142187232463099944e-01
3.923379782989973030e-01
-1.077586320884692528e+00
5.864692694245100535e-01
2.633521982009006113e-01
-1.154691410537026286e+00
-6.443713989137535014e-01
1.230448902949139889e+00
1.068389031629425112e+00
6.458985621902177954e-01
9.942411120014968962e-01
-6.768621797556793052e-01
9.714291860482214824e-01
8.477929653734809223e-01
2.687892437297901282e-01
1.153362638429470677e-01
-4.583261718205858259e-02
-1.475685869093503078e+00
8.834104486442074800e-01
1.203363741175540236e+00
2.430330556719959123e+00
1.034726886863702955e+00
-4.378177439239275270e-01
1.328470446634856916e+00
-6.761350213031822598e-01
3.325755375113314538e-01
2.051829663221492517e+00
-1.129599552232468218e+00
-2.283230353740224594e-01
1.471211713057935411e+00
2.135388218037929248e-02
-6.569940828278302281e-01
9.813570858975328992e-01
4.911748701656882821e-01
-7.012583869663214786e-01
-1.554196414074922261e+00
6.631480952932635731e-01
-1.491196456836132667e+00
-4.741388832720709878e-01
6.222511507230281680e-01
3.937005971780190294e-01
5.647917893054330563e-01
1.671386904796124506e+00
-1.976728948357512339e+00
1.081042433399910685e+00
1.207663582219947074e+00
-3.091459224049645238e-01
1.131526115952950162e+00
7.582585504408402288e-01
-2.443132426447711114e-01
-6.494745506976653537e-01
-8.097598146602952296e-01
1.167475478366292840e+00
3.402914011626585467e+00
-3.438436893064085731e-01
-1.082878723899165729e+00
2.752229826054872208e-01
9.916057343454006689e-01
-7.619870102475163609e-01
-9.534531656227269725e-01
3.652524757417339729e-01
9.472129019470173494e-01
1.313120921214447068e-01
-4.125374798280088129e-01
-1.267412778641409332e+00
1.005183725661205618e-01
-1.013090256828201863e+00
5.645942784336687170e-01
-9.892213670202498754e-01
1.424460941184037877e+00
2.964378472230820849e-01
9.295240229970553880e-01
8.330121634568417033e-01
-8.523363418246123757e-01
-1.722107991376837344e+00
-2.255786874761545047e+00
1.205779235464325749e+00
-1.256873315167528031e-02
-1.342115170435346228e+00
1.335191332868933767e+00
-3.825943732911698536e-01
-1.602145580245811773e+00
-2.284541758012163526e-01
3.638851839702060553e-02
-7.970172161246765752e-01
5.152676061502169391e-01
3.774981041906542156e-01
-6.775003015609852852e-01
1.638414419764631369e-01
-1.084703610100206106e+00
9.759227104974568245e-01
-2.883325682686044833e-01
-5.502371623262237721e-01
1.218629216487232547e+00
-1.112590312887535182e+00
6.886690038687971749e-02
-6.103777246580371213e-02
-1.659336770233475367e+00
1.052114087100812556e+00
-9.752549982124614214e-01
-3.186151258233882455e-01
2.021791371318081065e+00
-1.732140262445882803e-02
-1.705240167433066389e-01
-7.487515551177000850e-01
-1.513080789155421435e+00
-9.732953999035870440e-01
-2.672518493139952600e-01
4.191381086077823337e-01
-7.103199407129979770e-01
5.530265667454346834e-02
-4.942947487853881217e-02
2.406358469274103573e-01
-8.808959016146267196e-01
1.875925206750464147e+00
1.378250294105143992e+00
-1.847911727519801817e+00
1.096737123848553264e+00
-2.861101216241936362e-01
3.489797025443081013e-01
-5.484236353276769060e-01
4.327294915819889787e-01
-1.226669481692078012e+00
1.897635782541024496e-01
1.130484199187227423e+00
3.588143949715569825e-01
6.040820269251925279e-01
6.264978635303515286e-01
-2.451719434502114270e-02
6.821501797238256337e-01
1.009610018370784568e+00
-2.883009083049468679e-01
-2.343231976541474207e-02
7.462218849411537125e-01
-8.462012146087636300e-01
2.767274551832099583e+00
-8.445374876923081864e-01
-1.569080398585047109e-01
-4.712406736549759612e-01
4.283482499333843840e-01
2.032705027941524578e-01
-1.581431449000824996e+00
1.297764042660568329e+00
-2.188391560748913722e+00
1.646849037202762656e+00
-2.409434560601022082e-02
3.427949470773188345e-01
1.953104536178416506e+00
8.905540420570369209e-01
1.750485713628436857e-01
5.082235834733480617e-01
9.535911341634349947e-01
-3.457308016100485437e-01
-5.779825382645941145e-01
7.917509698543152563e-01
7.150238269073784514e-02
1.865082772296242197e+00
1.065401256213205014e-02
3.381240601955537439e-01
-7.938440157553330323e-01
5.380928977519598977e-01
1.563272191307887304e+00
-1.609394616633132102e+00
3.743231838079181806e-01
-8.964432004346160054e-01
-7.176676975206653930e-01
1.911883236642839323e+00
9.124569787049456870e-01
-4.254173215846299150e-01
1.735198717138498603e+00
-5.606405065494142193e-01
-1.009213505360468055e+00
7.025107400677849112e-02
-9.584548249867277936e-02
-7.898551369896040786e-01
6.924194206713391031e-01
1.798485112741742553e-01
7.796944799147412786e-01
2.598807365925522861e-01
1.747517770860386399e+00
2.597680502655411172e-01
-2.377817779858599767e+00
1.265538719722047123e+00
-2.962740670911977459e-01
-3.035689114399428568e-01
1.878752417043932643e-01
-1.495736637353459964e+00
2.004933980882154021e+00
1.055240292008354563e+00
8.582253041356808776e-01
4.823287043642661698e-01
-1.952338561902898562e+00
3.664843875771964243e-01
1.181733755577290435e+00
-1.128472599019150202e+00
1.414502769984632868e+00
-1.228951991856030546e+00
7.733935221590735321e-01
2.953106688606829122e-01
2.363617649830829226e-01
-1.348688097968931521e+00
2.365539075306127614e+00
4.880768509683164891e-01
-9.422350218080267903e-02
-6.516314432813096191e-01
-4.195333494263242535e-01
-2.368494029265924006e+00
3.112441434455516243e-01
2.219419604236297014e-02
-1.370401894450903879e-01
6.385597479082083527e-02
1.327692425176519864e+00
4.683848189560064212e-01
4.920826826694382206e-01
5.250211051243709737e-02
-5.902846574110767186e-01
-6.072593739953664471e-01
-1.628523158673400806e+00
4.993446374004061883e-01
-2.204037341879481193e-01
-3.914334649239896713e-01
-8.303479134082196456e-02
-1.164857229568290409e+00
-2.137103919806618846e-01
6.680847656810893209e-01
1.517727445154887223e+00
-4.379442876053883937e-01
-3.826133871870027181e-01
7.646229922044336380e-01
-1.483659595455998126e+00
-1.352490036012516716e+00
7.892790188505862670e-01
-9.385947469835251855e-01
-7.949376790944263638e-01
1.194521999778264787e+00
-1.433217153589114057e+00
-1.070787347235006903e+00
4.066795260097101905e-01
-2.960408606745835169e-01
1.230184615792937253e+00
-5.235853969078333447e-01
8.272219889968802919e-02
-1.133117606332227245e+00
5.988086262806847637e-01
8.775796745534952814e-01
3.477412124763028523e-01
3.290147796609332320e-01
-2.027486865651846604e-02
-1.289687730620813877e+00
-2.807185041119644175e+00
1.275759195631894105e+00
-4.073929854427708053e-01
-3.623026128427839776e-01
1.688247377040597574e-01
-1.345255725714795236e+00
1.210272640949698220e+00
-7.904629849989646129e-01
-2.268299913827455327e+00
6.876144145547502529e-01
1.023525297755273566e+00
-1.511054433368161642e-01
1.215971629217719729e-01
9.623527342717026478e-01
5.476242707707494883e-01
1.087093324932622229e+00
-1.597634012046162733e+00
6.359653182592290843e-01
-8.823078662520340565e-01
1.759128213671058427e-01
-1.485512002100493723e+00
-1.280773635219498274e+00
-8.396948278743777694e-01
-1.153094176483695943e+00
-1.284270009701841131e+00
-6.345339610000294561e-01
2.002452696163023182e-01
-3.319577250122900947e-01
-1.851360313139643540e-02
-1.606292607284073026e-01
1.440742177831616067e+00
-1.905367996310017631e+00
7.502847126988341220e-01
-3.894201812343056016e-03
2.341117030608474148e-01
-1.005358937726030355e+00
-1.545646772477926867e-01
1.389706080181133618e+00
6.579754729428449744e-01
-1.055444271832863129e-01
6.652933674012149190e-01
5.281092588330360549e-01
-1.692403642459372470e+00
9.141452572317843028e-01
1.908494539912999999e+00
-1.348029760540626398e+00
-5.855719901219941237e-01
-2.612003610105730012e+00
-1.891337392446952759e+00
2.245844168746290670e+00
1.522110554320146858e-01
-1.077643806532202486e+00
-3.353739540433966354e-02
-6.742427819763981978e-01
1.149739732661283043e+00
7.441362995083376786e-02
-7.091851326653371423e-02
4.725118432917215783e-01
-8.242450156151465146e-02
-1.219642229646976217e+00
9.058319387461922778e-01
-5.024531403669307839e-01
2.925128561257400034e-02
3.619301351917577625e-01
3.476176901142463138e-01
-1.379656656377977519e+00
1.435694476574733480e+00
9.310075975778913104e-01
-1.331168075342984869e+00
9.643937532615126651e-01
8.167919586555598688e-01
-3.851125271392197985e-02
1.194250703747527842e+00
-9.950057177831546085e-01
-3.048695959634150632e-01
2.558637152153462879e-01
-5.757799148104765230e-01
-2.213325539428229405e+00
-7.627812497888562804e-02
3.064149968791269885e-01
7.240023237489685570e-01
-1.793314258397713967e+00
-1.171817744018229579e+00
-1.278766521576312432e+00
-6.881661302164739924e-01
-1.388022966102758771e-01
-1.782908380392842940e+00
2.444190099852684150e-01
2.417212373778749868e+00
-1.401980069602734857e-01
-1.000760808510742894e+00
-6.371982230114180412e-01
5.899064340690315239e-02
-1.524656016383341361e+00
-1.305569066117944210e-01
-1.340092386546449355e+00
1.050143484834380025e+00
-9.500021761296280065e-01
-2.004499889103326549e+00
7.536482195094358350e-01
-2.173886485794713219e-01
1.167801778955735031e-01
1.220326949976169528e+00
-4.763318407807182187e-01
-4.417564258117969711e-01
5.833076812249841092e-01
1.550637697318190789e+00
2.204818798750084741e-01
-7.547766659665542388e-01
3.822721912345455886e-01
4.683482631659344197e-01
-2.049883174361889077e-02
-6.902782534797946568e-01
2.356595033860588106e+00
6.251059849129150248e-01
-6.003409909711687753e-01
-3.373533622347020255e-01
3.585684308204532544e-01
9.721258175201770435e-02
-7.992188771516131052e-01
3.579852458863396758e-01
1.570337421495081154e+00
2.408653908304080993e+00
1.292290292703074828e+00
7.720459422428116447e-01
-6.472953095182860661e-01
7.070181652751700296e-01
3.095947157830708507e-01
3.371541240495951608e-01
2.647668156085568603e-01
2.366756361064166758e-01
