1.723458069144421234e+00
5.386657538275846369e-01
2.912023027132034647e-01
-1.326857434234038458e+00
5.722656612139582766e-01
6.112893507962617878e-01
-1.396947072481803165e+00
-2.006910979294212471e-01
-4.707314562959674098e-01
-1.214505112896850036e+00
-1.105347353547339248e-02
7.817878549785474418e-03
-6.092991274187052886e-01
1.253026770464742645e+00
5.460365165983335212e-01
1.045297404876343705e+00
5.307141265264879726e-01
1.793770985310589039e-01
-3.417555547377973957e-01
9.955905342264237401e-01
-3.019878877283120877e-01
-1.570613663203175581e-01
-9.647699754228418190e-01
-9.086801642152676495e-01
-9.862592536413959943e-01
-7.444107524059142555e-01
1.406929026941692751e+00
3.908589840917467417e-01
-9.922680932567590206e-01
1.129701906096316932e+00
-9.687302905665398089e-01
1.400254952517352991e-01
-1.145796559504389744e+00
-9.675494260742730779e-01
1.135029308124648972e+00
-9.465460125825083670e-01
1.205886970781636699e-03
-7.667992326969265415e-02
8.718823013981574777e-02
-1.128958100851828128e+00
1.356873884984523548e-01
1.065783923725825755e+00
-1.237726631361175444e+00
-2.767712984491593087e+00
-1.052371028409881948e+00
-1.472469300145349935e+00
1.029834986283818671e-01
-1.068959039910638287e-01
1.186170968425675210e-01
2.233223807499164770e-01
-6.645726478611568844e-01
-4.264576795262828846e-01
1.183432990049625655e+00
-1.044808286958150978e+00
4.599947274155699040e-01
1.147617090982607502e-01
-2.762063399088441340e-01
-1.113354244610765376e+00
1.156994332085668375e+00
-7.594704494789158433e-01
-1.206240619308876161e+00
9.479772407420062885e-01
-7.735389635820208998e-01
-4.042584584850809071e-01
-1.084522101230371224e-02
1.894037252387249237e-01
-1.651602380382043878e+00
-8.836733401984827596e-01
-2.756620746683853818e-01
-1.800209122329061495e+00
6.749234725976259730e-01
4.853994538665661329e-01
-4.354493928715519879e-01
-8.939784451868835191e-01
1.012215836381171075e+00
1.232326525180745813e+00
-6.899310855821311206e-01
-5.096243731890021111e-03
-2.419813137196787645e-01
-6.850826684615254347e-01
2.872100876727596425e-02
-1.518873324511375023e-01
1.253594466810048269e+00
-9.880313497368748976e-01
-1.042026038290154721e+00
-6.221181013846414087e-01
-3.027483234217776542e-01
8.967205772720021617e-01
-5.326930314317012138e-01
-9.125787216513840672e-02
-5.115173203170659821e-01
-6.328535047176461759e-02
1.270529384692966168e+00
3.889010099026545264e-01
5.926103377021679774e-01
5.045153401048599884e-01
-8.132240615199065603e-01
7.045054696122807769e-01
5.377967068178510779e-01
1.146601177089195400e-01
-9.324129663284210778e-01
-1.180567314662622325e+00
2.062451066094873886e-02
-2.107975083631884239e+00
-9.517704088836130838e-01
4.173384794105363671e-01
-6.201286995125804280e-01
4.513236252752832467e-01
1.992961718585110953e+00
-1.008487273616193169e+00
-1.578233308615586417e+00
2.447476077725121713e-01
2.543372699383443167e-02
6.490400158085651849e-02
-9.581408921716486060e-02
-1.297329268255306589e+00
1.716500416918433691e+00
8.444325474245910693e-03
-2.163775644700189460e+00
-2.220794983200831130e+00
2.700974156700650108e-01
5.297739513399678524e-01
1.564863175782878146e+00
-3.194217998010958071e-01
1.080243340798653140e+00
7.133563215375352540e-01
4.498673871127467638e-01
7.036293975806432455e-01
-8.017774777838133637e-01
-8.231095584017832090e-02
-4.718646253793794543e-01
7.430523970357760799e-02
-2.095732687370369884e+00
-1.084766066034046572e+00
-1.017256882646808691e+00
-5.764763105772792162e-01
1.974391851839101930e+00
1.213501613712298255e+00
-9.278894727601291192e-01
-1.855342833336391939e-01
3.711543420478922300e-02
-3.299656758481610552e-01
-7.770684110297525482e-01
8.531966951973697366e-01
5.523926809038669505e-01
8.216143521646785963e-01
2.086252598616138987e-01
-6.859775026457320957e-01
4.485889295882051764e-01
3.630441532998554544e-01
1.503758400588580679e+00
-3.515147348882973199e-01
1.658196103988847980e+00
-4.010636177986188766e-01
1.622542412301997139e+00
-4.758853820086044184e-01
8.757976374684073306e-02
-1.355301527508442572e+00
-9.430738077047893242e-01
-4.456919809532641219e-01
-1.739996105038095431e+00
3.119760049474023522e-01
-1.163750066023259366e+00
8.794711021330569034e-01
8.743448627987296939e-01
3.189897180435501967e-01
-3.661003056926087629e-01
-4.399639078920176138e-01
9.164716763527192001e-01
1.249965063235126017e+00
-4.985125875635330051e-01
5.984581941951657713e-01
-2.137300108328342052e+00
8.974645677720537451e-01
1.301566726538172292e+00
1.534435900308048217e-01
1.405583518194329473e+00
2.750781162667228497e-01
-2.716224045250876795e-01
2.790071167973898984e-03
-2.426967927680319104e-01
2.873855886370533241e-01
-1.181779731436571668e+00
1.389743283413194419e+00
8.140157865405134308e-01
2.629112887967441914e-01
1.525314169724423463e+00
-1.797369807845591527e+00
6.251750773702829944e-01
-8.356216011492699769e-01
1.105567762234001439e+00
-1.362299408609102924e+00
-7.902305301966501272e-01
5.511704594726415385e-01
-7.423298126838645539e-01
1.882574357396686049e-01
7.332660303770662802e-01
-2.675886701861713429e-02
4.176090683882225929e-01
-6.019105269586901841e-01
-9.835002134683008546e-01
-5.776643162785327634e-01
7.716642227095963369e-01
8.878981696478684127e-02
5.397197738175855131e-01
8.656525553684173424e-01
2.046270623085263418e-01
1.894794017263279784e+00
9.812575820925101278e-01
4.101954452366938231e-01
7.694982191381514181e-01
-2.961875299862233857e-01
3.957121524306690952e-01
-1.534570950566797320e-01
3.822424983175400914e-01
-4.897828585457954520e-01
7.831026827891799380e-01
1.550270140189163870e+00
-4.320811401409969943e-02
-1.277298132918231133e+00
-1.312733759292058489e-01
-3.383400146606722614e-01
-8.127305961559347924e-01
1.668484104011299429e+00
2.592813174663335385e-01
-2.504033103112945913e-01
6.836080249925041707e-01
4.361785616747665406e-01
-1.149266187478334311e+00
1.810706399459276472e-01
5.766997112375492618e-01
1.465485771548769911e+00
-1.405424098328182714e+00
1.188257143285492923e+00
9.289270907715773129e-01
6.377060220251067335e-01
-5.740943919551385645e-03
-4.160270860547300442e-01
2.097605672632916640e+00
-9.314082144891321358e-01
-5.954438002120820972e-01
3.915623231349129457e-02
-9.232318590836221528e-01
9.089233001202796647e-01
9.284606499216980779e-01
-8.565951656635579781e-01
5.191346592587346986e-01
1.228358741649443031e+00
-1.398181698534425088e+00
-1.994519434805761104e+00
-4.250693919405756915e-01
-1.108404283967400650e+00
-2.565611250269663191e-01
-2.229935443637169890e+00
-2.041372832256684589e-01
-1.385297863729539891e+00
-7.943355930958664324e-01
2.520676746373850530e-01
5.817648470871650268e-01
-6.345332562425881617e-01
4.746568333749923152e-01
6.329620315702980671e-01
5.547304565050067415e-01
1.504624876491536534e-01
1.333563655081833055e+00
3.524623857907513425e-01
5.027576270475904163e-01
2.445437177582538535e+00
-3.466503247500231644e-01
1.308656389820377353e+00
9.872725632134355944e-01
-6.996192280761873716e-01
1.787688508788831010e+00
-1.039753014232620343e+00
9.120399650864593477e-01
1.212347610889619037e-01
1.948676956842358754e+00
-1.894931946197041528e+00
2.325108769718498003e+00
8.382888733707641871e-01
-1.206934088192656684e+00
-7.108270095644774189e-01
8.070050042599061779e-01
1.017482998791833904e+00
2.319523980294880827e-01
6.498609616008592660e-01
-1.040908525580419575e+00
-1.117214275929343970e+00
4.554539209534873290e-02
-2.123479093684752794e-01
-2.181302728427394033e+00
-7.723888279204403906e-01
2.220509961293892776e-01
-2.547665883523910213e-01
8.973458884529922353e-01
7.451204718870523269e-01
7.323398091292568357e-02
1.003066466652082767e+00
8.317981992131823210e-01
-1.104222422586265684e-01
-1.292865589007971217e+00
-1.179768549208201206e-01
-1.777977289876704337e+00
1.075896026266980998e+00
-5.413181812612000154e-01
-1.501345108478219004e+00
1.102650246490036512e+00
6.695656240449934238e-01
-5.509313192744746956e-01
-4.171285865937747750e-01
9.021086712137632579e-01
7.310395722856096734e-01
-2.686465984682261943e-01
-9.452221927486612607e-01
-1.827524391299094386e+00
-2.247280012485924683e+00
-2.165308524981466753e+00
-1.310622796784605359e+00
-1.208368274788605090e+00
-1.408645792296784327e+00
-1.823172610553474460e+00
-2.451066149901089730e+00
-1.836528968436214715e+00
-2.144707405802353861e+00
-1.013565431931459093e+00
-9.992595127061335569e-01
-1.850039099585291780e+00
-1.496076692660335050e+00
-9.098142181624350178e-01
-2.160966394319865369e-01
-4.344187623348599314e-01
-7.021426758497246734e-01
-3.701831962414913746e-01
7.633819462101876230e-01
9.045160332163413308e-01
-1.925759636392631868e-01
-8.228241886662448490e-01
7.037824908736172169e-01
2.997941043075811468e-02
-1.690931548879053503e+00
-2.495108242131722331e+00
-1.364707268372091997e+00
-2.584166463780498635e+00
-2.869033161029081125e+00
-3.303953509637035157e+00
-3.263491051507829255e+00
-3.988877939393939531e+00
-2.162831177246037573e+00
-3.181637879427937410e+00
-2.507150101420692057e+00
-1.709653162612681854e+00
-2.811192905373613438e-01
-1.747522004393829098e+00
-6.531281430535821331e-01
-2.325375662678886013e-01
-5.453508212291826585e-01
-1.719868923078790912e+00
-1.909533222778962314e+00
-6.174497445920789085e-01
-8.247777464945594827e-01
-1.062195250872021823e+00
3.825937698245673174e-02
-7.995747423093607642e-01
-1.547936319997051946e+00
-5.832333197699819394e-01
1.048749230566250024e+00
1.143407276373149761e+00
3.566926633670797764e-01
-9.589530158873962318e-01
-1.537903739456106145e+00
-2.180586146425586236e+00
-2.549755357163971947e+00
2.400279377443332030e-01
-3.003376659358314882e+00
-9.647404643835419957e-01
-5.952192397335916152e-02
-1.317781735948873933e+00
-6.497632765330593196e-01
-2.005554282296234447e+00
-9.774946415336249750e-01
-6.836496997178470592e-01
2.167993183521292055e-01
-1.743384771625603680e+00
-6.313505085757444846e-01
-8.722620790238145849e-01
9.656109290295953329e-01
-1.878122808414096845e+00
1.569182736863525274e-01
6.785861355732512035e-01
6.127398746951548958e-01
6.367278231964217383e-01
5.347054956099760448e-01
-3.764582672501073923e-01
5.458044425182515536e-01
-1.140581680691019895e-01
1.510833357824348022e+00
1.786807526941743343e-02
-3.710280284352082125e-01
-2.802463848704003890e+00
-8.185807559264369759e-01
-1.590034813602663855e+00
-1.159262534842937509e+00
1.359760703657910685e-01
-8.337209519009112224e-01
7.601359659443594763e-02
-2.414497115816412465e-01
-4.810175649047627178e-01
-1.242865370099174083e+00
-1.546525807631537797e+00
-1.504858652258876939e+00
6.391706865556177064e-01
1.974075596565224022e-01
-6.938397643807058257e-01
1.854042714107498879e-01
-1.992438587281552265e-01
-1.403201312127423384e+00
-6.057696241310348007e-02
2.016504563300698383e+00
3.995607172160082765e-01
-7.956001197865153474e-02
9.092584566773891375e-01
7.494757503807734089e-01
1.549017827642639733e-01
-1.639865211839602210e+00
-1.494270771723739566e+00
-5.959157327010614624e-01
-1.365930861423789056e+00
-1.702604642417387071e+00
-4.433331691078037373e-01
8.311092253218819170e-01
1.404234840474621882e-01
4.467785408811867365e-01
-9.074616116013451972e-01
9.467860626239846256e-02
-5.136918912329145881e-01
1.508365875877187012e-01
1.706906562566563590e+00
-3.890243697980848014e-01
-8.228444870087965324e-01
-1.170497477491393434e+00
-1.327283098357417090e+00
-3.936250474440831648e-01
-4.939589136466456809e-01
-1.290016639908309504e+00
3.783484856453265266e-01
-8.154453623794367667e-01
-4.753170513690403026e-02
-5.763675773505860800e-01
4.354441020247761251e-01
2.925156701874344289e+00
-1.014418287132238472e+00
-1.069561537882244062e+00
1.469795303971204836e+00
-2.502054259658632596e+00
-6.528793956424928657e-01
8.758041648645580324e-01
1.892604953236832310e+00
3.326929431761089795e-01
-3.386618231439510879e-03
-1.006895006697287265e+00
-2.340816368950712489e-01
-4.048526308017901809e-01
-5.177338844672835227e-01
-1.320149507480356324e-02
7.451030968446499259e-01
2.054782100022890801e-01
-3.715099259422030009e-01
8.313566191753524182e-01
7.367379534165198196e-01
-5.067867906412580892e-01
1.018585003251998744e+00
1.490177964274361500e-01
6.424810591577915231e-01
3.079343303472829030e-01
1.855562992146251977e+00
1.026102764995220473e-03
1.139144448359578510e+00
1.261272042226857293e+00
1.337754939787212161e+00
4.679768320810150928e-01
-7.652640867719689988e-01
1.340441816456756197e+00
2.532786957570645203e+00
1.057968843094308831e+00
-1.502982776209452309e+00
9.119922698113931414e-01
7.355601395256606834e-01
1.255484791248300924e+00
4.492347682417100474e-01
7.790628936521116765e-01
3.162798184034059101e-01
7.116960881117591065e-01
-6.756307063341473462e-01
-2.350885077391059175e-01
4.304070984194963145e-01
-2.306299341494741917e+00
1.075551937362593469e+00
-1.510031221283694158e+00
4.193689445515403347e-01
-9.855282390568131934e-01
1.111613992705254184e+00
2.107550949896571879e+00
7.425655548585342880e-02
6.952716773687275253e-01
1.502969955730825591e+00
-7.082295582312247983e-02
3.097387810923042384e-01
1.989499201154766583e-01
-2.395318752500152637e-01
1.371220178498227193e+00
-5.017025396036863677e-02
2.304961300697729865e+00
1.464623675375567258e+00
-5.511613499161314988e-02
7.826091316929940644e-01
-1.782322859586921715e-01
4.838038756118531181e-01
8.188901209590100372e-01
8.313185670741669586e-01
2.139326344390414525e-01
-7.756481865075239845e-01
4.018457212599849671e-01
-5.091089206096217623e-01
7.932277147878682433e-01
-1.271885411616792361e+00
-5.040732968189770569e-01
-4.900349366056652722e-01
-6.068184954730101444e-01
1.338931242117650688e+00
7.007044805293735079e-01
-2.324790139492483865e-01
6.142894911328879992e-01
1.951208503553609530e+00
-2.212601494395507462e-01
-1.044488798999648083e+00
-3.952228665214745917e-01
-8.636776953667112400e-01
6.874671965242281635e-01
-9.231549363562696620e-02
1.584378578052568320e+00
4.864550684625469357e-01
4.796063384629708493e-01
2.941998115792380464e+00
5.900101799283690163e-01
2.142867122406763247e+00
1.592848939985636258e+00
1.721760675804940854e-01
4.756207743967170165e-01
-8.885160017597659721e-02
-3.798753135815025606e-01
-2.480611984858421826e-01
-8.771557701609049573e-01
5.727937241264996482e-01
8.358694354719272690e-01
1.010765758516994461e+00
9.053239513055308940e-01
-2.584494377654164565e-01
8.831696159410180602e-01
-5.037389469084491145e-01
-1.163213477024376830e-01
7.592635959350071406e-01
-3.954704404995906253e-01
-6.872797548053130035e-01
1.261147576162433115e+00
1.634634892771289760e-01
-6.730551646070530580e-01
-8.095746866086769300e-01
-2.587116394822874255e-01
4.824520790107156287e-01
1.139122474383356343e+00
5.694418345750816568e-03
-1.075849134391941408e+00
1.590999178389876478e+00
-1.182526342188204405e+00
8.957184580247546934e-01
-4.058197173484220932e-01
1.169601441433672784e-01
-1.140908914069438396e+00
-1.317073526158256236e+00
-5.464648140572384710e-02
-1.840471990924229806e-01
-7.607048006215342273e-01
1.628405070489949980e-01
1.908232042465358047e+00
-7.058436043415358130e-01
5.777593120159347367e-02
-5.584544942626034070e-01
2.387725941379175598e+00
-2.398486088161876584e+00
1.982578383404496325e-01
1.491772008785462733e-01
2.366693578451105895e-01
-1.158818660530182010e-01
1.104129444124715836e-01
9.988203968922250153e-01
-1.567869914108831697e+00
1.924223958271249257e+00
-1.490486761776666613e+00
3.625863174768645392e-01
2.892281318577062388e-01
2.318572609992222422e-01
1.267915475668454084e-01
1.781180152899344490e-02
5.262343343627298164e-01
3.694218818121315362e-01
7.774388552281102927e-02
-9.833087207112507500e-01
-1.540047023833187811e+00
4.337208330295770353e-01
4.971584737228804118e-01
-3.019149857435740048e-01
1.314374542316072647e+00
7.107556258324326803e-01
1.247768158781879633e+00
-2.409212797836661202e-01
2.199258011959565717e+00
1.274024183015177725e+00
1.326696421794860026e+00
-1.477918104078799866e+00
-1.190716381118402500e+00
-6.150983198063950802e-02
7.093914483332784959e-01
8.523267205956379378e-02
1.355161268607545100e-01
7.416185166833445530e-01
-2.832139162054061465e-01
6.484013186886520286e-01
-2.524291129047085969e-01
5.400768667530612133e-01
2.753031021579913640e-01
7.146519679770322320e-01
-7.661244716113309039e-01
-8.633813597756825331e-01
2.472726398008208079e-02
9.027511572026151176e-01
2.634498548262276252e-01
-8.135879631996918437e-01
1.272776207831619155e+00
-2.628006850085963797e-01
2.360707958515334770e+00
-5.868410643177895958e-01
-4.462847907014461657e-01
4.637359465799676950e-01
3.066699551635674870e-01
1.792074779445821830e+00
5.505796391805713175e-02
-6.621576008116838441e-01
1.269739405008617483e+00
2.172501119835047734e-01
7.489574824700780953e-01
9.702601768400118676e-01
-4.594116432177776099e-01
-1.717769152476713579e+00
-3.890104777714060158e-01
4.806274027169039620e-01
-7.354837123960901168e-01
2.972394039083007811e-01
-1.153322540533108231e+00
3.469095838067128290e-01
-4.778525407120828294e-01
2.852104201146168361e-01
-1.188009832121360576e+00
-1.272394083351895189e+00
1.694139502941276743e-01
6.810964453464986024e-01
9.071300772598609452e-01
8.512989055462976129e-01
-1.876638615924302034e+00
1.515687904619528403e+00
-1.825936105334301507e+00
-8.127551267710553251e-01
-2.996477624298622966e-01
-7.002246032363369510e-01
-1.635371542596057437e-01
7.666246961394318493e-02
-6.276101149867416851e-01
9.425156583753866446e-01
1.840163443638489216e-01
-9.608658513423895542e-02
-1.060051750126650205e+00
3.600122016185285378e-01
-5.197560676317485306e-01
-1.363883453267207724e+00
7.978267835505155336e-02
2.060529379740991610e-02
2.736977074791170361e-01
-7.987373964727396691e-01
-1.455331983627308645e+00
7.355523742728686809e-01
2.965155218180429708e-01
-1.682612273579243700e+00
1.861254105667133896e+00
-8.036025690798872523e-01
-1.789363758817675010e-01
5.384207774453112494e-01
3.585210292005348420e-03
-2.666016127271675362e-01
6.735355145490287132e-01
1.236541063610923752e+00
-2.977888875786890988e-01
1.283576982111950260e+00
-1.085251963505745154e+00
-4.900041827770785785e-01
-2.883204937084134917e-02
2.437102999928198455e-01
-5.677458751381426749e-01
-9.249733278704093398e-02
-1.015876161537836442e+00
1.518416710561483862e+00
-6.267463272555674758e-02
-6.348645141205168096e-01
-2.107493584642586182e+00
-1.523452014934334187e-01
1.666081994721635706e-01
4.405654972610351106e-01
5.537708970924553054e-01
-5.077922664781797657e-01
5.196481758359886571e-01
-8.033485181177819900e-02
-1.640800897558351235e+00
-1.363264619801036526e+00
1.201460089048920210e+00
-9.128795666045548263e-01
-1.787299539016735661e-01
-1.181253605908449300e+00
1.301620420621694696e-01
2.000948453222518797e+00
-6.459924338615562478e-01
-5.910135735278648078e-02
8.973220996565976770e-02
-8.104633754003091883e-02
4.062185593116794946e-01
1.140829563945874758e+00
4.906754963417945814e-01
4.133890852547275618e-01
5.286009334299240914e-01
9.670955378253905943e-01
5.293495302329161989e-01
-4.202638802808575935e-01
2.222068964151690196e+00
1.212368966144684368e+00
-7.564740423851307183e-01
1.521813354117394823e+00
8.966577192431302024e-01
3.287809204998069501e-01
8.501176542598717356e-01
-6.280280928911764482e-01
-1.238248383689595084e-01
-3.069995758182739523e-02
1.104807935927265561e-01
-6.204658784422225487e-02
-3.766362227185523492e-01
-1.051535433198422798e+00
3.899361759258025972e-01
-1.826697236956722481e+00
-9.003302258855837292e-02
-4.709491918456268911e-01
2.923000881232930004e-01
-8.675819235855490863e-01
2.064167611223697851e-01
1.297224570544415645e+00
-9.625519222886055881e-02
-6.538345219244876549e-01
-1.231101246982382547e+00
-2.079926618520513415e+00
8.762210724834444964e-01
4.025192676602827313e-01
-2.658466377175606743e-01
-2.718646362962804930e-01
9.801375872874884543e-01
2.404676984347996482e-01
-9.180155703145733703e-01
-2.261395676234846941e-01
-5.584161513943612931e-01
-8.812530851562661027e-01
5.116737967332946752e-02
-2.639236269927167644e-01
4.458725446723426633e-01
-8.674690901670115695e-01
2.130226641794533138e-01
6.413353264133216936e-01
-1.935923791214242962e-01
1.181699869212879950e+00
7.586053564724366538e-01
