-1.385795674424805446e+00
-2.636360805371542812e-02
-1.470661511827745294e+00
1.263886726769031466e+00
-9.457535548376914125e-01
4.836770796877159495e-01
1.115608849049904538e+00
-6.941149339059159429e-01
-1.801035500969195256e-03
-6.372944349667690744e-01
-6.448897329803233713e-01
6.009639083705985430e-01
1.151528148388609063e+00
2.441590411821439044e-01
-2.328335882469033447e+00
2.373537064744097036e-01
-7.003927055077939778e-01
-4.821937872300031264e-02
1.721196973640250372e+00
6.325485794188805411e-01
1.657361855266640538e-01
-1.562612578929910123e+00
-3.542254331342858942e-01
9.430636322193244325e-01
-3.827844780170682748e-01
5.853437323713622797e-01
-6.505509928287641630e-01
7.093659815087094422e-01
-4.405328111819928338e-01
1.569357053741276264e-01
-2.712330851124120645e-01
-3.063274837986440513e-01
2.808300137524458173e-01
-8.958812387744411465e-01
2.131923694424160964e-01
1.080543871462289252e+00
-8.749694655806400378e-01
6.210973004300239797e-01
2.616304142096709806e-01
-8.673970042633402100e-01
8.701761728996996181e-01
-1.721057817790150324e-01
-3.324939829392830615e-01
-1.201785978994625692e+00
9.477393376028008243e-01
-1.004013739880061706e+00
6.825196282029416528e-01
-1.700250422431948683e-01
1.806713980617274729e+00
2.727248285287853236e-01
3.655736005859419047e-01
9.377635991766608559e-01
-4.692653765045542436e-01
8.171963218472440005e-01
-6.994065012307437712e-01
5.098232028701729646e-02
-8.775077644074884553e-01
2.067802774882060990e-01
9.931372109789383673e-01
2.014731898478932859e+00
4.360002475648566134e-01
-2.354971823830357691e-01
-1.967350026712192390e+00
1.398884783071650428e+00
-1.726282581789301940e+00
-4.026467972637458037e-01
-3.342532366968675173e-01
-4.431288279929105345e-01
5.447037397012808313e-01
-5.756764031487834332e-01
1.607421310683186944e+00
1.708862662196384760e-02
3.449458614946082635e-01
-4.859053744692642396e-01
6.858485759726032915e-01
1.657592021977085883e+00
1.556407268432737023e+00
-1.876768253289620436e-01
8.340439306422744448e-01
-2.181683707466300692e+00
2.769976432871728012e-01
-7.941671156265363019e-01
-2.525692328619185550e-02
6.806282844667064236e-01
3.495158239481822027e-01
-1.683963859391486517e+00
1.419818639762099988e+00
-2.266215877675880619e-01
1.031901580481142222e+00
7.075349569571428576e-01
1.084951046515256534e+00
1.258269466882782073e+00
-1.220821189893802616e+00
2.459551322395917561e-01
1.297673270800352219e+00
1.928434573419891551e+00
6.228379035992442914e-01
1.189393319887450007e+00
-6.234685672455263505e-01
7.099991378629334493e-01
6.248736184198251387e-01
-5.974792609942287946e-02
3.598340162352230420e-01
1.002986448700952105e+00
3.116114481524862034e-01
9.079780846826582819e-01
4.384434935976579406e-01
1.163899977696988941e+00
-1.189014800960990215e+00
-6.128134361396248009e-01
1.752041770524577213e-01
-1.449182464500445022e-01
-6.681228229192769097e-02
1.434850240786223585e+00
-3.090857694463188324e-02
2.316124196107873789e+00
1.695310335041123828e+00
-1.636246442055872663e+00
1.354454937335399123e+00
8.144612425019132074e-01
5.130561872300801740e-01
2.359525671735143368e-02
6.589709127569119973e-01
5.280035855338011119e-01
2.772031342596607217e+00
2.617584929001504079e+00
2.023123610259246696e+00
8.357256252885838510e-01
2.746149057451466646e+00
6.052416574880279398e-01
1.278534995993946932e+00
7.830193086390156987e-01
7.639403754017384252e-01
2.632206014894200030e-01
1.077719343181936101e-01
-1.041397735693279536e+00
-5.191878701040490984e-01
-1.844020202241790363e-01
-1.630322852968525693e-01
7.061330574663446935e-01
-1.792529517933716399e+00
-7.124980256176512983e-01
-1.257269839490255725e+00
6.318628737882739932e-01
1.082016392508852176e+00
-7.200074032863263973e-01
-8.778425705081969177e-01
-1.376423574586181697e+00
-1.747831543138378962e-01
1.223560840921760207e+00
-2.196968791158356027e-01
7.159319987487452464e-01
4.420356952364645764e-01
9.474545770355671248e-01
1.085255300300285164e+00
5.642198764975422248e-02
3.826970946252079564e-01
1.156762814183326382e+00
-7.562251349831648761e-02
3.675662344206818144e-01
1.227124696465772713e+00
-2.965252991807336147e-01
8.958732498920021214e-01
-4.430235919053639448e-01
-5.413937714563337167e-01
-2.873873990159729330e-01
-1.410851294710344372e-01
2.988171929008003880e-01
1.744980916614002620e-01
6.760254195425194901e-01
-2.407450022980129056e-01
-1.316932006497155694e+00
-4.061069680946991500e-01
-7.914490099485904651e-01
3.842020158238005356e-01
1.410705234533238039e+00
-5.078635100946141817e-02
1.709553121171974444e-01
-1.060070144042252194e+00
-6.906003461233087837e-01
-7.291669296022752489e-01
7.226898139516334529e-01
-1.966150963950763220e-01
9.737369842172058920e-01
2.045693304388022937e-01
-6.156454403920263996e-01
1.761071199368508422e+00
-6.228655341468386508e-01
2.382321764268583164e-01
-9.313170286725094837e-02
3.272770498878541101e-01
7.327140551520165968e-01
5.505230961858825767e-01
1.312751949654100136e-01
-1.015434478334509061e+00
5.470467664413320996e-01
1.664545504294210332e+00
-4.501330828238174209e-01
-7.602885141572852667e-01
1.636426196403720112e+00
-8.481005653612846418e-01
1.179732507866986468e+00
1.710753469763161894e+00
6.735594584007789098e-01
-7.214828469470011552e-01
-1.041215731520529264e+00
7.850558703913398384e-01
4.728526766472129772e-01
5.949168301167120365e-01
-1.247672558114693686e+00
-7.939281771927533260e-01
4.366418036555322346e-01
6.638921369369887859e-01
1.598537088504758508e+00
-1.722008481253993084e+00
-2.910058026310352597e-01
1.681231289681351937e+00
-1.673731334056854925e+00
2.096720336688724096e-01
-1.536082276911752809e+00
2.713352289199423839e-01
1.039026421084094376e-01
-4.462537119045833500e-01
-2.415795070421439261e-01
-6.688885801567114875e-01
8.039317242428051236e-01
-8.255438610186422999e-01
4.363795947068170866e-01
-7.590446066138407666e-01
5.917632925970534030e-01
8.479732529284232934e-01
-3.173860536070134408e-01
-1.058377915337144204e+00
8.124013811826206188e-01
-7.720930465684870958e-01
-1.408151768465277232e-01
1.223457734550539855e-01
-1.252320950304273151e-01
5.985005134929014536e-01
-1.119170365134618317e+00
-5.809847619311349076e-01
-6.056536216192265343e-01
-1.411137903800600002e+00
-5.325780577885179667e-01
-7.035367218266407319e-01
-3.524085025248304137e-01
-1.837605771900248097e+00
-2.550533602122114774e-01
9.677978140329860368e-01
-8.385681236982520104e-02
-6.852712611175533208e-01
-1.193950252342367513e+00
6.750387365736433276e-01
-2.008567598743200122e+00
-5.460646792102065161e-01
-1.555313272886093071e-02
6.900187974677631786e-01
8.745892391109428843e-01
5.642342892935208187e-01
7.199927993654096081e-01
6.786157012541055300e-01
5.932186157582054475e-01
-5.461034661153688075e-02
2.382883073632142690e-01
4.791572536663022963e-01
-6.972135154075750352e-01
-9.608232866572462560e-01
-1.522970877368420961e+00
8.476816928317435496e-01
4.947456717030415119e-01
-2.226675678967828254e-01
-7.642792646233639298e-01
-1.431083174756061727e+00
-6.040027792941629059e-01
-8.728850188328555193e-01
7.929266757324786585e-01
1.343187583002923402e+00
8.044021709832686051e-01
-4.539061440139984249e-01
4.607203301162211551e-01
-5.517048192066141832e-01
3.898401467320791181e-01
1.964515006087456328e+00
-9.856828556968234567e-01
3.503617485461395925e-02
-1.144504007002505652e+00
-3.343078462030758119e-02
1.928676080962230088e+00
-5.287108661229709961e-02
-3.683972145933007702e-01
4.861345784633481215e-01
-5.646635754944751007e-01
-2.232586008796670907e-01
5.274077376071033552e-01
2.266539623521308666e+00
-4.096344423246089939e-01
-4.971489354677540162e-01
1.698642178117376958e-02
4.533456505048115148e-01
-1.818137785831649866e+00
8.378657380432874557e-01
3.130335298796025345e-01
-1.627293349128553723e+00
-1.005257259522051250e+00
-3.474740080487758731e-01
-2.009809403556778451e-01
-2.018948915688989043e+00
-1.363942393506334172e+00
2.028537747208893072e-01
9.568451183273649630e-01
-1.514206467208512874e-01
1.577045350615697616e+00
2.008737231232235132e+00
1.261053632072064223e+00
5.601714905590200466e-01
4.708252000463676312e-01
6.140114793182783332e-02
2.131607676952627095e-01
-2.812274273025436866e-01
4.152992019382196198e-01
-7.917802165064276032e-01
5.911508067940544203e-02
1.756629698448291421e+00
-9.129340742584129975e-01
-4.557781663320177312e-01
-1.142546342300120032e-01
6.051153137463429754e-01
-1.995796735759852725e-01
1.287255580647530984e+00
6.260442125559929627e-01
1.243003025082656032e+00
9.170351083175009022e-01
1.661577800789655779e+00
-1.615975481490146581e+00
-3.335628504777912173e-01
-1.492712693449348205e+00
3.482851230222184791e-01
5.494507875530652008e-01
1.222201218922403632e+00
1.724178435001353149e+00
5.610784815229946654e-01
-5.525071488531297925e-01
1.079191514900559173e-01
8.871450737565251821e-01
-9.236620965781853210e-01
3.115255426303367714e-01
-6.969909155906784948e-01
-4.261327115609080118e-03
-1.912447725049257474e-01
9.613532033191891646e-01
-2.597118099723347839e-01
1.505006302954916553e+00
-1.068426177996648407e+00
-6.152642623003816702e-01
1.508581349843115760e+00
2.389483079349900840e-01
3.235511299713421107e-01
2.830780531545721845e-01
-8.754340298958830646e-02
-2.843744104241819892e-01
2.831408753432118619e+00
1.017829877116328996e+00
-1.493361328480848016e+00
-6.109289343505908132e-01
8.503249565820586442e-01
1.319238489681103133e+00
2.187507664310710975e+00
-1.402837332961676294e-02
6.100854283019280233e-01
-1.184114576871448249e-01
3.449074822467624313e-01
-1.733487970173912540e+00
-5.517097050568386951e-01
-8.020096293475155180e-01
-1.420611240632808858e+00
-1.314376616105790818e+00
2.737201114202799102e-01
-1.703264351602381321e+00
-3.747840952315399932e-01
-8.390410210807198732e-01
2.567701740848274058e-02
-1.408518658039029203e+00
7.963730278848883681e-02
2.604572403384645685e-01
8.811170825023191544e-02
-8.402991542192643770e-01
8.262688238995984369e-01
5.429096117113674236e-01
1.146405090482594202e+00
1.411786160259010936e+00
-1.156736554422678864e+00
2.475041223999923379e-01
3.853545921873011149e-01
1.993366594798523295e+00
8.056084340011214762e-01
3.397221176391402309e-01
-1.581163104761919902e+00
-8.903758247344523147e-02
9.132697053627970574e-01
-1.363526181758111244e+00
-2.550612549284105857e+00
-6.393708643709983264e-01
-6.720404931843817486e-01
-8.906990809769868012e-01
-1.722086247433824324e+00
-3.480016167509923930e-01
3.151220902127954138e-01
-4.718848984734473097e-03
-2.431491492891818762e+00
-1.682727554006909987e+00
1.002614213913792796e+00
-5.511821587991274640e-01
2.446218391503229284e-01
2.225046850015471644e+00
-3.601860452070985985e-02
1.453222098138031493e+00
-5.327602760886103461e-02
1.883658727495427954e+00
-2.541454895564373428e-01
-1.660966420084934336e+00
7.672288576310276609e-01
-4.626430666723917173e-02
-2.066470762969223163e+00
-7.652172263553834730e-01
-5.031792418369063213e-01
-1.313271063796668692e+00
-9.202418734907213960e-01
-2.086334537789293009e+00
-2.911051159682366496e+00
-1.514334411050973106e+00
-3.173175836952342177e-01
-7.733963100891770859e-01
-3.067522539327171560e-01
8.163393048880197567e-01
7.762194669811655068e-01
-1.432607479653428939e+00
5.554440402301928925e-01
-1.050251282631755156e+00
-1.025225121561347708e+00
-8.850264812905551670e-01
1.209150437930065047e+00
-1.468279715281918474e+00
5.108747000798730120e-01
2.074924179710959660e+00
-7.540242893745616182e-02
-4.347065058602750387e-01
-4.756511337021007702e-01
-5.689676096046245024e-02
-8.247854787025731271e-01
5.072286451139308427e-01
-1.018246889346825723e+00
1.201592817743829089e+00
1.506623098352751454e-02
-2.274420875607233938e+00
-6.278543622419002768e-01
-2.561599102137634532e+00
-2.544798029611174961e+00
-5.632040587085401784e-01
-5.216182271735054776e-01
-1.171039362200834821e+00
3.283823584991592548e-01
4.195861829337093063e-01
6.965032679727660714e-01
-7.854215895976678352e-01
-9.607546891635019293e-01
-4.730520638962493196e-01
-1.732086245770463606e-01
3.937409667461789775e-01
-2.287393637677691272e-02
1.377927341633232716e-01
2.294594049139615510e-01
3.600219417267017108e-01
1.697087082998330887e+00
9.299503467634661069e-01
4.066404752116082877e-01
3.061659070381846093e-02
1.901198345657401978e+00
5.584577874679590437e-01
5.411917723431655114e-01
9.322598013338009304e-01
-1.676483925692141108e+00
9.996905509298982251e-01
-1.173200551073872555e+00
-1.146312700230115000e+00
-1.127020169015395590e+00
-7.681111353329782288e-02
-8.509032111846863700e-01
-8.189441157844539187e-01
-4.371676579003551666e-01
-9.913048881991842753e-01
8.693735271166481704e-01
-2.293346511217917882e+00
1.211639825462734077e+00
-1.367485543061514486e+00
5.204121478414162061e-01
1.416374297641344260e+00
-5.340342847999336451e-01
6.952537863681050867e-01
2.906571239321515510e+00
-8.909722809144286770e-02
1.439398442183909443e+00
-7.484755867568861076e-02
6.631746863499715650e-01
-4.658697467271811776e-01
9.300147330821452174e-01
6.967084770096875213e-01
-4.969050505939109907e-01
1.374131784573284776e-01
-6.595547801252622626e-03
1.324694486352826939e+00
2.650492101663437516e-01
3.048044515445978431e-01
1.320909563297111733e+00
-2.555391490315931935e-01
1.047913473397523942e+00
1.256666684107984530e-02
2.356164553572541731e-01
-1.049997689473794793e+00
-1.244324473120797636e+00
8.169631738947744637e-01
-2.519698600563182733e-01
3.222057975893162785e-01
8.379772043108875135e-01
-1.000476249162645104e+00
4.734037031658825390e-01
-4.555369033855959371e-01
-1.535748914463478609e+00
1.044900998743311105e+00
2.322546732243764012e-01
1.029918166807516799e+00
-3.288836774561679777e-01
-2.864609252010699714e-01
-1.149819307257324147e-01
-1.029812902133077746e+00
1.169231889548067560e+00
-1.340332670315000030e+00
1.631635291090784978e-01
3.286874235729177585e+00
3.340199399688910109e-01
2.245510812996776906e+00
3.542897913179870462e-01
1.772838334620212342e+00
1.204904871793121890e+00
1.329579125842451637e+00
1.760460515807487969e+00
1.628811998715377518e+00
7.291414196725439778e-01
1.082256377712820239e+00
-7.737026004044265104e-01
7.138910830122782158e-01
-1.749388805205245867e-01
1.066504843417186432e+00
2.587724806053933735e-01
1.154299576675626771e+00
8.067909437098738090e-01
1.336440945615719578e+00
-3.266144249155758517e-01
-1.628514847427312007e-01
-1.651629051961549521e+00
-2.330063626900944762e-01
-5.339935935638011610e-01
-8.069134910439129671e-01
3.923445916634846764e-01
-2.978792670364972112e-02
1.477063894473896521e+00
1.009217396000317457e+00
1.232482594704940704e+00
4.451000786689598421e+00
3.205725190143534853e+00
1.948929484077082774e+00
2.821395708321432494e+00
2.602054686672190975e+00
2.276102127903809613e+00
2.161073389163822078e+00
1.072971285859171342e+00
7.862228042120420479e-01
4.131665456123055913e-01
2.453064843522270444e-01
3.564265954201155107e-01
-1.446355583092954755e-01
7.737106317744792960e-01
-1.139372536654525807e-02
9.622237648579253788e-01
4.911399528948012794e-02
-1.151076770797267557e+00
-5.788215848123695606e-01
-1.015421340535077599e+00
-1.028108848747435022e+00
-1.620041591973416573e+00
-2.518570307266101982e-01
-1.540039190514729706e+00
-1.184250039356940176e+00
6.507165722842450650e-01
1.383638056675361883e+00
1.034119535692215486e+00
2.098072311172004767e+00
1.392376767730151288e+00
3.187403068585886956e+00
1.093488513280273411e+00
-2.966966654815707538e-01
1.518733171478390709e+00
8.679369816186818243e-01
1.447205537013129539e-01
1.245395122315069880e+00
9.809637139229505642e-01
6.247298106669854079e-01
6.691409868503087610e-01
-4.197398317314516292e-01
-5.321429209042098929e-01
-4.481640387566681039e-01
7.850222197515880351e-01
3.976512922101654302e-01
-8.725202083119951713e-01
1.030135368990047429e+00
5.324820518406129244e-01
2.441684265417114030e+00
1.086531339397078383e-01
6.954412991836115276e-01
1.146421368671411561e-01
3.188269671409065253e-01
-2.088192744274061319e+00
2.221373834762516264e+00
-9.226730923964715503e-01
2.744045270363920874e+00
-7.865705026050429094e-01
-5.125178956510295647e-02
-3.312646436833437819e-02
6.389518087776469013e-02
-4.259106123870466387e-01
8.538616328048270754e-01
4.976890952426469283e-01
1.190700673263554110e+00
-1.110049864135574049e+00
4.234503129881745376e-01
1.949087789551811056e+00
-1.533890890564301834e+00
1.806473096907707188e+00
-2.797958819169048539e-01
1.732344881761879452e-01
6.531102567078966858e-01
-4.076241468750712582e-01
9.220436046059662383e-01
1.540418704081686629e-01
-2.269217620888467346e-01
-1.070519610036006375e+00
1.489620646285241823e-01
8.364324452261192588e-01
-9.514000415270533473e-02
6.721963102299807202e-01
1.052132165052185986e+00
-9.786420536946173199e-01
4.825875070633809522e-02
2.931166945985772543e-01
7.049455821539415412e-01
-4.920625711529024726e-01
1.483636858435495087e+00
-2.231899549378079661e-01
-4.128415855379650168e-01
1.004959210884788651e-01
7.935768090010313358e-01
4.973575971119446049e-01
-2.041247920553089512e-01
3.622680870981854206e-01
1.158015956888730075e-01
1.028700917763366585e+00
-9.628678976669101663e-01
-6.097661886309713175e-01
-1.470378962069152085e-01
-1.651466453852402871e+00
-2.060988102095152374e+00
6.264267322840092467e-01
1.345829306835155448e+00
-2.053727800372420642e+00
-3.075221645292117723e-01
5.036165210826732963e-01
7.860316810822283173e-01
2.456226265195900371e+00
1.184762642313433423e+00
1.967653751739868728e-01
-5.349990127768372572e-01
1.056933384471666626e+00
-6.844179525689939592e-01
-6.901173187942879483e-01
4.170701766130188726e-01
1.362877314855526878e+00
3.108362069041951670e-01
1.491042697963398167e+00
1.514809634818418127e+00
4.102829983739066932e-01
1.140104063471275797e+00
-1.503067321845555637e-01
2.218697386935479798e-01
5.021182189889410452e-01
-5.162256819804990071e-01
6.510538285391509472e-01
-1.795509315096646796e+00
3.179947117364034237e-01
2.418268082570747268e-01
7.353433801633851852e-01
-5.510699622350697657e-01
-4.686146322656673524e-01
1.033475673293861918e+00
1.867643554537385508e+00
-1.045592327479331063e+00
9.147606687633048628e-01
-1.825437337702346952e-01
-1.400172235927450437e+00
4.808390420460573189e-01
-8.879671387703976793e-01
5.154702030281499425e-02
5.317693979025999163e-01
1.053730746674712698e-01
4.578249955682140437e-01
-1.082435643109674536e-02
8.832219381948412940e-01
-3.995739804997885947e-01
-1.129330124828500148e+00
-1.317545462468773798e-01
2.172525895418653707e+00
3.478123135611289607e-01
-1.103547764569448697e+00
-1.385211195437640042e+00
-1.006209402636487837e+00
1.026837304180895805e+00
2.066203070018390042e-01
-1.538524000193523422e+00
5.890934808791561395e-01
5.507298208952881025e-01
-5.912681097508949019e-02
1.523903872935956416e+00
1.218764338108148770e+00
-1.217237144393876980e+00
1.437592731158977566e-01
8.833208450264864453e-01
-1.143893602015324668e-01
6.979237231849615419e-01
2.457939180528097012e-01
6.038506075102415549e-01
6.778106139097886951e-01
-3.673992327632220611e-01
6.583482965903224571e-01
-1.278521819050694841e+00
2.428472312529018351e-01
1.108550165815748612e+00
-1.334181939251787297e-01
1.466349331094221276e+00
1.663742153951260350e-01
3.405943696563361600e-01
1.099051363895341193e+00
2.124660247265949042e+00
-2.295180856091048938e+00
5.814064532896219273e-01
6.111364121825615947e-02
2.478619271039500249e-01
3.374155173063005941e-01
-1.703373575069283996e+00
-2.890111093328706082e-01
2.746609210810242452e-01
1.383968377466525901e+00
-2.509717101704535963e-02
-6.808244498370653597e-01
1.267959214977273819e+00
1.016679210158377922e+00
1.066664462782982437e+00
1.756570209201159249e+00
-1.178839421626136863e+00
3.001460948507596593e-01
2.403126479727935305e-01
-2.426215715778737625e+00
-7.845420599679207019e-01
-1.668501683988179218e+00
-6.929113817661002039e-02
-6.679396413121380105e-01
1.781754537624418433e-01
-1.144343195254607481e+00
3.600801096782831334e-01
-1.126556894172690892e+00
1.193508147916582773e+00
-9.701605774619533745e-03
1.695074984155506004e-01
4.874327808386528793e-01
6.978354057465561144e-01
-3.166301953988295281e-01
-2.982585037872882358e-02
