2.172869705773390614e-01
-6.127139808159614009e-01
2.066228513487446961e-01
-7.230012814179955782e-01
-2.059352277346764293e+00
-8.325124848344166439e-01
-5.088213974762939573e-01
-1.255729601380586313e+00
-8.016482991007913839e-01
5.295397053770545259e-01
8.636613522240071950e-01
-1.600517139657136934e+00
7.412793375650109651e-01
9.769683020675007379e-01
-8.338017493173011108e-01
3.497288852319326846e-01
-1.329024244903648233e+00
4.807599884094280740e-01
-6.401769692636224418e-01
-5.608301237353383734e-02
1.719505246234529272e+00
1.602742310056338493e+00
1.839498339449396891e+00
4.422543621743595943e-01
-2.576228021832067672e-01
2.061153195851537709e-02
-7.200104860117195749e-01
-2.041563137363339386e+00
1.618430617688813911e+00
1.286987864670236847e+00
-3.480991097148883884e-01
-1.745567211626130461e-02
9.963598448286592468e-02
-9.032410598497212506e-01
4.089262308460223094e-01
-1.435316119968613968e+00
7.837631563317541961e-01
-1.637208918702733218e+00
1.169741836652985895e-01
2.297046795132168806e-01
-2.333829778765072138e+00
-1.972142153161149103e-01
2.725314849974634357e-01
1.003923762640259509e+00
7.136046392484177714e-01
-2.021229129910887268e-01
-1.012195704139659119e-01
5.675544273642795234e-01
3.458706527101716999e-01
-1.843053197875288873e+00
8.748428469521504214e-01
-3.065368308518646168e-01
3.199389507816358669e-01
1.500180715759735106e+00
1.878937160166946896e-01
8.175579699602637529e-01
8.799905788922375294e-01
-5.850664988959558555e-01
-8.266749769590074903e-01
-1.646177938476320435e+00
-6.371804487293273311e-01
-5.908264924501874793e-01
8.133283144445799806e-01
1.602815842625452541e-02
-5.645320855358471057e-01
3.915665682214110599e-01
-1.422625552307864361e+00
1.170352852347730233e+00
7.623471394140470814e-01
-9.297326281166894413e-01
-5.074450068543687742e-01
-8.899125464161313781e-01
4.920500533778462415e-01
-7.055928844308848591e-01
3.608715760159507124e-01
-6.900945039606961595e-01
-2.455001554690146859e-01
1.760449725891103170e-02
-1.005445098215881128e+00
5.612385806690909362e-01
1.038875958322416082e-01
-1.218105883702051834e-01
1.208162071062158560e+00
-5.861664069743460770e-01
-2.476661487081720237e-01
1.681911970023900249e+00
1.618926475193581682e-01
-5.252788206763890910e-01
9.630846827855211734e-01
-1.998042042863125367e+00
-2.237944357305396981e-01
-8.981019535182164226e-01
8.583727558104647937e-01
-2.073443835156085324e+00
-2.345509345090307285e+00
1.511632261545992950e+00
-1.542310704176995007e+00
-4.424172629919207594e-02
2.410040374736262425e+00
-1.163737057452693291e+00
-4.826945916061714525e-01
-2.270812504842752766e+00
-9.586836056551829577e-01
-1.214290952060600892e+00
-1.869732019303811610e+00
-5.343794767123468681e-01
-2.170379351148070235e+00
5.444001142318599662e-01
-7.958844998990404207e-01
-4.666620935433010708e-01
4.830898300977694571e-01
3.626113170187043599e-01
8.707412772117177902e-01
-1.109965082838931361e+00
1.566725485353724912e+00
-1.946876451523773810e-01
1.191800699579388167e+00
-7.559618980734555786e-03
8.456049026705492189e-01
-8.932649596656239144e-02
-9.276353245286104166e-01
4.700450610136865381e-01
2.014296016670006906e-01
-1.632870200684616857e-01
7.212917301674948156e-02
-1.873678669606901326e-01
1.559857653266449040e-01
-1.628689123730492572e+00
-4.098636064660294287e-01
1.626938522549438826e+00
-1.114051273383878327e+00
7.384445747999981990e-02
5.417368478286358480e-01
8.624334010191982980e-01
5.606759960108803620e-01
-1.501173512504818675e+00
-3.526580942314867517e-01
-6.668137218584012649e-01
2.608688046806234784e+00
4.487821739140074317e-01
-5.097472310813730978e-01
5.287771517426733681e-01
-6.374965552396659740e-01
3.835362228263683448e-01
-3.762546885792282247e-01
1.600782386741122387e+00
2.240196874533234794e+00
1.323177422062813413e-01
-4.931610229915703997e-02
8.604532741790252293e-02
-1.226460975374704221e+00
2.819038330936874726e+00
7.552129979334608612e-01
3.214925783886545263e-01
-3.774054609373140301e-01
-2.776065684696889413e+00
-9.462553684964645218e-01
-7.878233817345201562e-01
6.595111046374767527e-01
-7.459853816071476684e-01
-7.556608250729093257e-01
1.357245742924688692e+00
-1.716204536091910704e+00
2.353428956205263489e+00
1.985030680998318142e-01
-8.901482453107413262e-01
-8.424332239988030491e-01
-9.682661953660387510e-01
1.061989516021851487e-01
-3.033359270772676211e-02
-6.117390136415045143e-01
-1.213424493459247522e+00
7.882580279833455439e-01
-2.281346786334272070e-01
-1.699930597663802834e+00
-2.176886433708082047e-01
3.794962185737579428e-04
5.324053522074490008e-01
1.845436444741660909e+00
-5.123907945180253831e-01
-1.726201641797054487e+00
-1.083766407240602136e+00
8.506709721283599590e-01
-3.071357627275485280e-03
-1.442771621224127498e+00
1.031408135581457636e-01
-1.199198880415316637e+00
-1.155702568161416088e-01
-1.245870210633937269e-01
-9.948070541220164209e-01
5.040863319843602586e-01
6.762062783770865781e-01
-2.928473155672745021e-01
-1.561182075450628370e-01
-7.026344723203136189e-01
1.314273186224432566e+00
4.041243212669647783e-02
1.282965701757261767e+00
1.591060406602789468e-01
-2.549595485041330489e-01
7.218150691776328287e-01
4.521601536969571677e-01
-1.696806400536952975e+00
8.333864652914297899e-01
1.450335580951557457e+00
-4.999657167268436453e-01
7.394370151986756623e-01
-1.122937523649339964e+00
-5.235184716202584410e-01
-1.137855563576417595e+00
-1.338014757887895589e+00
-1.177799097220730840e+00
-9.811400461657866501e-01
-5.135964827935154409e-01
-3.589052309933936646e-01
4.805274422992723005e-01
4.557351707318526013e-01
-1.868565164550827495e-01
-9.369968560507100364e-01
6.947225661784898199e-01
-4.758344170289086628e-01
-1.336868705498228227e+00
-1.279988296882090815e+00
1.649144388601840872e-01
1.284217649489887592e+00
3.840549598342387072e-01
1.305101880182469865e+00
-3.005837527877485704e-01
-2.136524903383871798e+00
1.774946379229980220e-01
-3.498583478722034901e-01
-1.426054572948975141e-01
-4.171972065585398681e-01
-7.574867551446317071e-01
1.019381732279445174e+00
4.802739662720403313e-01
7.138937692005827840e-01
6.035569157044264887e-01
2.953270707254981309e-01
-1.486030856583521187e-01
-1.794339378398690510e-01
2.721898407404258480e-01
7.725095955536971370e-01
8.619176579265689364e-01
1.022664100272733689e+00
1.514219805548488784e+00
5.550456081371597516e-01
-9.246452861936456102e-01
-4.642492241273982190e-01
-5.507643717754330259e-01
-8.795650445974325660e-01
6.938291448913050941e-01
-1.629219849317746327e+00
-1.043179149391098903e+00
1.231865285612337546e+00
-1.116186705596548645e+00
2.575982438363647042e-01
9.169791410611686233e-01
-1.483720432436210768e+00
-7.016729517054219600e-02
4.053078990183775487e-01
-1.929792533330735527e+00
-4.673894011709145424e-01
-9.383399849870222020e-02
-1.013297117548776161e+00
-9.934083706915791678e-01
2.201407292809030303e-01
2.133496568589743347e+00
-6.055229249314573181e-01
1.507189162275015537e+00
2.974691788503692536e+00
8.936293164425154201e-01
-7.651333334463386038e-01
-1.286148665728774898e-01
-9.526320417076469260e-01
-3.024711173613360282e-01
6.757266667556729445e-01
8.220706232611117992e-01
1.136463340827805091e+00
-1.344083150967906981e+00
-6.277103093730715955e-01
1.325036733208166062e+00
-4.253530037692787036e-01
1.627255938169506755e-01
-9.802461260953287958e-01
7.329643009574393631e-01
1.828802137712298048e+00
8.589781976350813197e-01
1.023605382311706613e+00
-2.160711617703439322e-02
-8.266818260020990516e-01
-1.533431559840273239e+00
-7.355020805896035352e-01
1.650122465796770854e-01
6.862503236473851409e-01
-4.745352660997645966e-01
-6.876016423092633223e-02
2.452562304467589271e-01
1.910565452887197369e-02
-2.489611089366908225e-01
4.265480153002371155e-01
1.306375664791008973e+00
1.253914940415917556e+00
2.637795343598307030e-01
2.659784193229645655e-01
1.523146364695323163e+00
-1.844350838849867502e-01
-1.094209892621652802e+00
-4.401075415924850520e-01
1.871376097553831830e+00
-2.419622377919036782e-01
2.547021088338893291e-01
8.106101193349850575e-01
-1.300602270839529506e+00
-1.976064891623366071e+00
2.220414392642776846e+00
6.474479007903373162e-01
-2.361954136826927009e+00
-3.801251612132622859e-01
4.064183760492199871e-01
1.355928484199665052e+00
5.220420882031676785e-02
5.228866806395272571e-01
4.287626472554187940e-01
-8.302312874495696438e-01
7.558287830496771553e-01
2.043456800732238732e-01
-1.879119335908568111e-01
1.750763640374699559e-01
1.615772851597581106e+00
-2.069534204985940207e+00
5.831416663887713930e-02
-1.005551201463325883e+00
8.246772832291187072e-01
-4.558303166492516101e-01
-2.008148718868000004e-01
4.342515146102585710e-01
-1.797155487112368277e+00
1.859151484723180259e+00
9.645557268659648020e-01
9.257309062808322109e-01
3.267951003140856514e-01
1.792415747171823392e+00
-6.949897652856318331e-01
1.602578858383133742e+00
-1.087522248758368004e+00
-1.152895614371711730e+00
2.979804191993770668e-01
5.193060545238483705e-01
-1.018568597795481034e+00
5.106514038528445765e-01
2.365077408489723032e-01
4.826581389360679597e-01
1.367144073620988332e+00
8.063828382280152640e-01
1.519290153256941389e+00
-1.293179789599553653e-01
2.067194575497912190e+00
-1.472182771676381563e+00
-1.900443054072912918e+00
6.270516193997813792e-01
-1.242154810768332451e+00
-3.598182087602009444e-02
-2.189517143483543649e+00
-1.050338324823762548e+00
7.325375388457472381e-02
-9.844896723328447896e-01
1.969532345011327512e-01
9.557910849495668271e-02
3.111071475412143794e-01
-2.039326052451284621e+00
-8.608133112772076156e-01
1.970040915820299998e-01
3.839117252847237122e-02
-6.297906294352426659e-01
-1.933456216462350996e+00
4.395691050028462804e-02
1.473084160877487392e+00
6.670684090431110436e-01
2.281341222206165198e-01
4.981931330621595100e-01
1.333267013885857777e+00
1.062431165204702044e+00
7.526226173651580087e-01
6.867734041709114834e-01
1.170958394386248519e-01
1.116269879384240542e-02
1.133655859668647903e+00
-7.142129716290611663e-01
-4.071326880833352480e-01
2.513059013100318762e+00
5.749772834687317813e-01
8.894645851347620091e-01
1.350487972497783851e+00
9.054618294815086621e-01
5.689385256160871540e-01
3.258228345024054007e-01
-1.267337984536279105e+00
3.318875218826933260e-01
-2.663308502203767802e-01
-7.249168622191310973e-01
-7.590336048103505373e-01
1.997200501455900779e-01
-3.408466803640803899e-01
-1.880131584722410099e-01
1.243484262280413061e-01
-6.774290196405002851e-01
1.712227913914551591e-01
-8.263176153490839893e-01
-6.194168085685175518e-02
-1.100232411727444903e+00
-5.606483087045611713e-01
6.284799640918531383e-01
-9.003392264289161728e-01
1.104181260159106559e+00
-1.795840284075184978e-01
-5.755248339752208064e-01
2.846791532623013654e-01
1.258324995837529214e-01
3.013215358995676163e-01
6.858842380976821751e-01
2.410402473198008585e-02
-8.498082051590818975e-02
-4.393592684668500836e-01
-1.127912679574826771e-01
-8.260130378353158775e-01
-6.384816286994030587e-01
-7.417428575159127346e-01
-1.488117635351707602e+00
5.520582726966574150e-01
-1.644985942905626553e-01
3.579149481129016014e-02
-1.350334783752333567e-01
5.531687990862151905e-01
-1.311398645237102256e+00
1.993723064478770901e+00
-4.683282416246650759e-01
8.325986241364042861e-01
-4.435510670859287852e-01
-4.846918779875194483e-01
-4.980026508171777611e-01
-5.661739784647030760e-01
8.104196796521979593e-03
4.659349024979206888e-01
-4.675937530426950151e-01
-1.719120833112185887e+00
-8.426524398005194039e-01
-1.923667203211965493e+00
1.889668453945615889e+00
4.705841304728085039e-01
3.213295798758589727e-01
-1.681014667900972148e-01
-2.628861044283217763e-01
-5.776541369533781944e-01
-1.948919198444341250e+00
1.215732802324410944e+00
-1.615107696824233052e+00
-3.113419372721726655e-02
6.703306387763851015e-01
-7.244050377186234124e-01
1.210927708042856654e+00
6.040759001013152885e-01
1.851267660848531227e+00
7.226801085478778974e-01
4.207387969434899788e-01
-7.281019162273533185e-02
2.038011168307563459e+00
6.151589515440925027e-01
-3.008390395912244678e-02
1.009730413925471026e+00
-3.167360842590712933e-01
-1.444413990639616507e+00
1.007987038903317645e+00
-9.618440189230922921e-02
-2.290374133973549844e-02
4.770737160756980400e-01
2.021213644178808111e-01
8.595067524572244100e-01
-1.758611523535874577e+00
3.007056612526353145e-01
-9.447948444660533296e-01
-6.391746018423616338e-01
2.621717954647290877e-04
4.589955689827541763e-01
9.612018799443796668e-01
7.428622420514872093e-01
-1.490625591492284796e+00
-6.157487427917056610e-01
1.871496331308499128e+00
-3.820727761724692084e-01
-6.726610627603329950e-01
-9.640111019102370893e-02
1.351682258441570861e+00
1.043449848324347506e+00
-9.738375967102149700e-01
1.841507530564153727e+00
2.507203930624371524e-02
3.088136774011917551e-01
-4.405494661079535912e-01
1.630106997761223475e+00
1.963499064551198936e+00
-4.053120315518900507e-01
-4.089427250591785024e-01
1.755022790355318829e+00
8.525611725137506314e-01
-1.488966607085738358e+00
-7.233071443096295017e-01
2.887033346544502516e-03
6.907850750574191512e-01
-2.335433341061043666e-01
-2.357440532907760788e-01
5.718258856749072055e-02
-3.078150815485526381e-01
-1.131904757647673954e+00
1.223226224273843865e+00
6.513110454175173869e-01
2.022289566553701901e-01
-1.865355620332058928e+00
1.863360930404637517e-01
1.503075647832069039e+00
-9.344355915171931315e-01
-1.290991736412007429e-01
1.264913817588242617e+00
-7.581845725823049831e-01
1.035582227102376907e+00
4.610834277744613741e-01
-9.472495114472672118e-01
2.052105682640865236e+00
3.229523033825933420e-01
-7.215612901217617337e-01
-1.294228505459891210e+00
1.255206984809311421e-01
8.237510523977682464e-01
1.972047379118849308e+00
3.986076098060905570e-01
-6.174342840375457442e-01
1.185993054732414009e+00
-1.657329921646088389e+00
7.753632955598559195e-02
-9.490524648050734369e-01
-8.280330420583866813e-01
1.397383749751254678e+00
3.150912346332815361e-02
-6.248330505307069915e-04
1.007144612420120433e+00
1.286218421603484208e+00
2.422714958054910106e+00
-7.339898648590669206e-01
-6.981200441320607741e-02
5.654656397288708725e-01
8.158104683750027064e-01
4.370367327130003643e-02
1.333255458755949752e+00
-1.559575545843837840e+00
1.572038393538856438e+00
1.732467891835187956e-01
-2.382518598268367482e-01
-1.439781518374340541e+00
6.834468891713783856e-02
2.004267622345518862e-01
-5.022823843619361739e-01
5.312634468620716643e-02
2.635646000083625706e-01
-2.091124875412988804e-01
-6.079213577992143708e-02
-7.850554800669397038e-01
-3.670095328854056649e-01
1.052529188479667255e+00
1.220356755142203209e+00
1.344094780452367077e+00
-7.834652422131017646e-01
-7.724303144397726140e-02
-6.251701680525113547e-01
8.257542334724783384e-01
7.438161686220053914e-01
6.858212172155326858e-01
1.558242802920968950e+00
-2.133382560817646656e+00
-2.545209648237645617e+00
-1.337840664496409371e+00
2.237277229531398515e+00
-8.867130808975735023e-01
1.222333216927988131e+00
-5.752245303176106717e-01
-4.718897133980776148e-01
4.687605910412319110e-01
1.513080964333904377e-01
-9.474528799285926173e-01
-8.984888829215404993e-01
-3.462394860240510241e-01
-3.412772417012972515e-01
-3.996946026291313125e-01
1.028110836500389258e+00
1.119581178314460024e+00
2.266827807288165075e-01
1.007286643844221397e+00
-4.345948274750439100e-01
-4.682425505106508901e-01
1.108268562745356123e+00
-6.181047227254048426e-01
1.932312832444063933e+00
6.915740059038902876e-01
2.521193532539945936e-01
-2.764262773508552762e+00
7.395436754349987707e-01
1.237801788936865766e+00
-5.105116422258417774e-01
-1.965698620219927806e+00
-1.531071836518738405e-01
3.462317624460244381e-01
-1.822718606798556129e+00
-5.197032159215421165e-01
-1.986922176454949673e-01
5.636425774559414986e-02
-9.347003641104706384e-02
2.936305910955161469e-01
-6.986436042443883165e-01
4.444875849497012532e-01
-3.270312647394550964e-01
-7.898730272368772454e-01
3.709987856891209024e+00
-2.320272517618799046e+00
-1.790563827234050498e+00
5.740000252181098883e-01
-2.366028593485760556e-01
-8.369936938272236615e-01
-3.695220164970659527e-01
1.745885810134904237e-01
1.602677240914148760e+00
-4.850795924927144287e-01
-1.494479015494065977e-01
-3.961545263113953608e-01
1.298633225974908711e+00
-6.750563497604772367e-01
-2.462536153109222761e-02
-1.174670213947667796e-01
1.567773772771035301e-01
-3.324246944746440113e-01
-6.085948942421174346e-01
4.801959600173775766e-01
1.197024646304874818e+00
5.107420078865572144e-01
7.595000668166296265e-01
-2.680616798758640035e-02
-3.421575159926770748e-01
-4.756703969750948335e-01
3.566639309796179602e-01
4.192716042323186842e-01
-1.299098206468539130e-01
-1.418162649385953600e+00
-1.533388459298895112e+00
2.227794014858806571e-01
-8.695333080174626195e-02
-5.076057094730455077e-01
-6.519384728795236672e-01
-2.274344154632273796e+00
9.920401513853374098e-01
9.778953501800984327e-01
4.340281241195180773e-01
4.893060088154497778e-01
-3.058012357320073704e+00
-2.495235109889833991e-01
6.675087783522241913e-02
-1.865216999360050698e+00
6.039640108099311039e-02
-7.998753803601856838e-01
6.911321594989447981e-01
1.861487015832680725e-01
9.223082631027808009e-01
2.768659337196527001e-02
-8.054182222746986142e-01
5.598549782564615773e-01
-2.253324694474740930e+00
-3.002854566733841324e-01
-8.924664805280447810e-01
1.036690848526951481e+00
4.499492756649615260e-02
1.971210832718418016e-01
9.331347543307350056e-01
5.983928349288950566e-01
5.652266290347385258e-01
-1.263177874686967517e+00
-1.170739667148464225e+00
3.093590868546205463e-01
8.591499991340463271e-01
1.826675822711545383e+00
-7.299993949300817020e-01
6.681054138982963631e-01
1.002538722160387197e+00
-4.408604276762100871e-01
-1.739536968112235016e+00
-9.080385632897519654e-01
2.416176591851556810e-01
8.789557335149797979e-01
2.380928413029257840e+00
-1.939118444564025268e-02
1.981760559722463011e+00
-1.825762160944438550e+00
1.017284002051160208e+00
8.813904827094886096e-01
-1.002666501655530285e-01
-9.895940724588028203e-01
-2.658083043468154050e-01
-6.735906257831867361e-01
8.959161159278539177e-01
1.956441699973100190e-01
-1.416207014000840481e+00
-6.978594375316501397e-01
-1.382909391106895258e+00
-1.825144525277639040e+00
1.057968001002607128e+00
1.083540800000581117e-01
-2.254919858538065203e+00
7.318550183048780911e-01
3.824892136931717368e-01
1.437949937142003920e+00
2.024417209767368053e+00
-1.200253635408800729e-01
2.696175816506227729e-01
7.483793901615438671e-01
-1.792458781764331432e-01
-3.323227159423330357e-01
-1.414467311667536586e+00
3.612781625714995282e-01
-4.059710586470497984e-01
-1.414090523148669121e+00
-1.099567623207971856e+00
8.732002568382569718e-01
-1.208047388799126765e+00
1.016174590306361258e+00
-1.542921936990843679e-01
-1.592988873693726992e+00
1.234743432521468787e+00
-2.602604735537681901e-01
1.548408768307338423e+00
5.971425115216657392e-02
4.578872580879262966e-01
-1.627839356614935395e+00
1.150664027224670871e+00
-3.855965883129216509e-01
1.467230270168424777e+00
1.318609606897808373e+00
1.963361439821389443e+00
3.472170532930115433e-02
-2.634833302469971605e-01
5.372018324702366732e-01
-4.073062241489587287e-01
-2.402464078974457240e-01
-1.996668698267627384e+00
3.852822881957167489e-01
-6.495230971138366005e-01
2.081179796860005704e-01
2.114379414027983017e+00
6.832014790239760993e-01
1.478441811984106069e+00
-1.267841193506120900e+00
7.723315526814187315e-01
-2.583438812353095138e+00
-4.704443772811335855e-01
3.637342905849033636e-01
-8.056826751031757050e-01
-1.311513399033774396e+00
2.692195817215132236e-01
1.489465885729030825e+00
3.430750689830202038e-01
8.655429320244487634e-01
-4.490221724373846812e-02
1.277056804553372560e-01
2.220602292953955115e-01
2.791917949883098160e+00
7.946869392480341299e-01
-7.776186550292715771e-02
-2.083226765127959013e+00
5.108578614346231950e-01
4.445022527708728521e-01
-1.455624867831323499e+00
1.911365795259491740e-01
-5.690765147560709059e-01
-1.515404948122463180e+00
1.779630189228934845e-01
1.410431018058078134e-01
1.090683348154745769e+00
-2.363866866878811535e-01
4.681308398866018683e-01
