8.474912939940659751e-01
5.307869876299469158e-01
-1.577279368033152052e+00
-1.398696350757377277e-02
-8.313971667647166441e-01
9.353154388830916544e-01
7.314205631223140713e-01
7.928803357289914144e-01
1.701038153145252085e+00
9.029219577855671641e-01
-2.931312643058885392e-01
1.310820864918304629e+00
2.900801629454628494e-01
-1.125164296235554362e+00
4.118110352920130168e-01
-4.423614006907842788e-01
-1.347110890302311237e+00
-6.197171410716832973e-01
-7.671238834449807253e-01
-7.780502501646170410e-01
-4.058924490862717005e-02
3.836135582662374977e-01
8.617001177490511976e-01
-1.862043396595842282e+00
-4.190599587450045682e-01
1.876236224853128909e-01
-1.145461689605237199e+00
-2.459239050941761096e-01
-2.738598585273280817e-01
-1.148956801825963936e+00
-9.069291100075077550e-01
1.259164784786826585e+00
-8.603068173665050222e-02
1.126814846811590387e+00
4.571840877237693945e-01
-8.916821995418368063e-01
-1.662464186222827545e+00
-1.947421364518636955e-01
1.310801713159163440e-01
-2.404503832912221917e+00
-1.797703734203735193e+00
-7.745022125050923245e-01
9.632584725786182966e-01
-9.283248860730159979e-01
2.085984672084479907e+00
5.088174037783653736e-01
-5.882660834542366990e-01
-1.410585314983511473e+00
1.481310192009421822e+00
-1.015188518072901225e+00
-7.620072873682677272e-01
1.519786592655300930e-02
-1.106546927887897214e+00
8.045192837105742678e-02
-2.448842774123226373e+00
-5.860039006892633351e-01
-4.729646814565964807e-01
-6.817065824791169737e-01
-3.923268792750960743e-01
-1.149928831163211207e+00
-8.306009462507362162e-01
3.104255663450776748e-01
5.207971061306563287e-01
3.381780495685072219e-01
2.672691132798741265e-01
8.638362866816065022e-01
-3.011504656442072214e-01
1.228389831501216944e+00
2.118397443197329866e-01
4.586425362426157504e-01
-6.297737710950142009e-01
-3.675362995225934237e-01
-2.825991704900099322e-01
-1.035913922437494472e+00
-9.178409554046473851e-01
-1.516004368054564289e+00
-2.159575435183684056e-01
-2.062474505810333869e-01
1.725738402085801593e-01
-2.460522861844289533e-01
3.918044796558156073e-01
-5.126138375111932710e-01
-3.844107804064168799e-02
-1.818604324371854430e-01
-7.440429005172327637e-02
-2.477873607728126704e+00
-2.520696634360615751e-01
1.003271739226754944e+00
6.178739698864155194e-01
1.313297725133024361e-02
1.586757643051205591e+00
-1.620622918722630867e+00
-2.772257717562146562e-01
-1.862889975368753337e-02
-1.679890848732691122e+00
1.499949400385650833e+00
1.050957433956541731e+00
1.193976392034042044e+00
3.409830976299492167e-01
-5.699271401279676352e-01
-2.201945050866197517e-01
1.268763436848576953e+00
1.426036144589212684e+00
-1.014855420928181262e+00
-1.357460639895262944e-01
-5.417732906736693055e-01
-8.277440028478975087e-01
-8.626381143738528490e-01
-3.952563417275273272e-01
-8.378585900000460329e-01
7.293179120703388030e-01
-1.004803576865765172e-02
1.364815463886095981e-01
1.084506372747772396e+00
-9.177562767286747691e-01
-1.415463373117202606e+00
1.050441375295568108e-01
1.450367306525622180e+00
1.808835186117146443e-01
3.980672985895370442e-01
1.442799045920681200e+00
-7.515585892233714316e-02
-8.452201485396554359e-01
1.390850301142333656e+00
-8.541125587344106096e-01
-1.539497591023264444e+00
-2.503758361833399171e+00
2.125421211419446510e-01
7.468714301896646202e-01
1.820830140560236510e+00
-6.766952444983775905e-01
-5.918917102436577204e-01
3.615591135571231129e-01
1.190972026808395201e+00
2.093186524863388076e+00
-1.275502844471783748e+00
1.114773836156434245e-01
1.372884568192204446e-01
3.619820052912440245e-01
-2.642898105700008937e-01
-9.168648580424546557e-01
-1.614210430205973879e+00
3.184748311146324840e-01
3.389761114399988395e-01
1.656089266982064379e+00
-2.660239577277211942e-01
5.951381427710735750e-01
5.018061334759282843e-01
-1.542431495397677432e+00
-2.425461674096529130e+00
-1.244699602350567424e+00
1.635332966797193102e-02
-7.883552792499142203e-01
-1.071800324701619234e+00
-1.697050392045234418e-02
4.568135589894241066e-01
-3.082167950678094126e-01
3.569849870427135863e-02
-1.259215619594836522e+00
2.188478011353170351e-03
1.062551755759438832e+00
-4.880223900040582263e-01
-1.358079660079456019e+00
1.135293331681626494e+00
-2.587657042053932988e-01
4.783291348523719400e-01
-3.942452465907339554e-01
1.202455709604481449e+00
-1.621192445277843230e+00
1.424630677178682303e+00
5.021749770885328701e-01
-5.580051928964525620e-01
-5.581554067343734715e-01
6.731936983459797519e-01
5.993702579132701436e-01
-4.505525677037487409e-01
-1.022552745998688728e+00
-2.210769323879515080e-01
1.623778420305896253e+00
-1.399338688698072986e+00
8.032012788542248760e-01
5.579911177425769253e-01
-1.968685898935270406e-01
-1.838914375013709135e+00
-8.097272127521554230e-01
-1.032280810379261560e+00
1.292925079939736266e+00
1.275794273411073876e+00
9.926709720703004169e-01
1.361560159967511341e+00
2.788512656934127865e-01
7.168894352428158145e-02
1.355348985662828909e+00
3.730918695298121590e-01
-1.542025203988684590e+00
-3.976869071632465058e-01
2.667602553702253410e+00
3.090643153241721675e-01
2.022275527282767771e-01
9.630953145929371795e-01
1.165329578311167902e+00
-4.003237819315995649e-01
2.050200926108370680e+00
1.108754568798061335e+00
-9.364599516048202066e-01
-1.308870370373364511e-01
1.290455446486914681e+00
-4.106928739594680744e-01
-6.193317430840142856e-01
3.319186937173509433e-01
1.462687521582378913e+00
1.728842908668008604e+00
-1.110116597479269690e-01
5.261820330692101866e-02
-1.770297469697196480e+00
1.579127816069489709e+00
7.243381289125497280e-02
-5.909538663874401854e-01
3.253029017432017000e-01
1.100112181986013099e-01
-1.640046095615395327e-01
-4.888107124354588717e-01
4.482427102188064633e-04
-9.457771257795626330e-01
1.561697373292491475e+00
-4.842800371312158680e-01
1.356676048793611367e+00
-5.467505692893772640e-01
-1.033932894457793017e+00
1.383656393888943015e+00
1.709770217853059604e+00
-1.846607429158780567e-01
1.884003737531845690e+00
4.062494698256882697e-01
1.058985369281559619e+00
-3.783213790512593988e-01
3.763606993705949089e-01
-4.149219132353141881e-01
-7.159957000981987951e-01
2.451512189269454467e+00
1.576488227320365088e+00
-2.479254843917260420e-01
1.734660847340604883e+00
-1.107511246631027513e+00
-9.209153146231714437e-01
3.479590570970156893e-01
-1.289567638550010553e+00
-3.734914700022685663e-01
9.069270493745194006e-01
-6.387394474892615914e-01
1.100633348226770725e+00
-8.077287700905505519e-02
-4.250467404840627822e-02
8.317555088109032657e-02
-1.921454469794812436e-01
-5.255996006513918850e-01
-8.707994885385322847e-01
7.926267235975924530e-01
-5.794625117047126350e-01
-1.202645745795549059e+00
-7.237556045254533998e-01
-2.893341970727995260e+00
-3.905496643466718765e-01
-1.193750535111790967e+00
-4.225111016522022922e-01
-1.196441369945017152e+00
-1.643964779197019777e+00
-5.911292088712475357e-01
2.747324897451073888e-01
-2.267751024459180864e-01
4.065093027193661945e-01
-1.651249576682068884e-02
-3.244183033540597449e-01
-1.545657518124198271e+00
9.662450490672911396e-01
-3.580667441776986260e-01
-1.179181096033499188e+00
1.317490699684445321e+00
-3.446251073850736812e-01
6.467834850062520458e-01
2.325340055720284127e+00
-4.635024590271086820e-01
-1.296661282950916927e-01
2.140494800001507547e-01
-6.166779542592851771e-01
-1.008574336282485717e+00
-3.261740491971360650e-02
2.868068633869426676e-01
8.417393508606803021e-01
2.248696013909469160e-01
1.206246048929930925e+00
3.133453019355071367e-01
-1.146098847572602386e+00
-4.127381141102501871e-01
-1.579194524913890119e+00
-9.418317841570046367e-01
-8.983927941439498466e-02
-2.063975345902861191e-01
-3.248052840073569203e-01
4.226754473635991327e-01
-6.993485382351010138e-01
-3.156223781503895154e-01
-8.693843389870620220e-02
-3.917324422402017059e-01
8.382689254083122155e-01
-2.986523565121323442e-01
-3.572807336411440993e-01
1.579177097602787183e-01
2.271104615806685545e-01
-1.884495727111812902e-01
-1.323601657002736909e+00
3.167083388616026784e+00
-1.400588422185301551e+00
4.512626621931037363e-01
2.735612400632996266e-01
4.159528908555977234e-01
-1.970141510709527977e-01
-9.199822634623909534e-02
-9.051945566978228941e-01
-8.929116593708430472e-01
-4.682943344951721043e-01
-2.591068399405573874e-01
2.006328418619454657e-01
-2.752746150565225092e-01
-8.078942059904659079e-01
1.288923378813070064e+00
-1.091892211944170521e+00
1.205470510044860610e+00
4.495042782636607392e-01
-8.710925025696086843e-01
1.667839359750627193e-01
3.509363541106354512e-01
2.673194695343215077e-01
1.417732430881338268e-01
-1.074860525618347440e+00
-2.803854741337171941e+00
1.093400673827683800e+00
6.745258083026014484e-01
2.141601035028672662e-01
7.433139689055919819e-01
-2.700604125643894515e-01
8.033546466551084730e-01
9.836475281925320946e-01
4.748876137034974687e-01
-1.075024046266339905e-01
-1.745960059390113117e-01
4.869270057151085518e-01
1.111461766430637210e+00
1.170518488707124938e+00
1.440596617562514004e+00
-3.014930005569049082e-02
-1.369738771285078649e-01
1.520879443436004563e-01
1.209650627868515071e+00
3.016028596124279981e-01
-1.400230312374089348e+00
-8.102802022235505719e-01
2.905340210168271264e-01
-1.800096852835599170e+00
-8.847839273205440058e-01
1.485806806129934265e-01
2.833166511085166039e+00
6.703474621008032042e-01
-4.661643127375936224e-01
1.126505586056603558e+00
-1.928821338618139369e-01
-8.575833814586547588e-01
8.614603238005842656e-03
5.081109709235238636e-01
2.528222730017697373e-01
8.475891914792822376e-04
-5.328195094147689659e-01
2.651013445915974653e+00
7.407099650037347605e-01
-7.450521274259229720e-01
-3.867019757140571778e-01
2.243905098245478069e-01
1.202030809985793480e+00
6.293905885125435917e-01
4.943921058123952328e-01
-3.931385244094275921e-01
8.325653883674805078e-01
3.527592084105616310e-01
-8.610559021027813786e-01
3.257501786980432357e-01
-7.249516337561752177e-01
1.164250957677642528e+00
-1.203395972651725598e+00
-1.150295425548701012e+00
-7.016447924946395132e-01
-2.510270184548782368e-01
-3.090657478858469531e-01
-6.379376655159959553e-01
-6.047916960883964466e-01
-4.808293591980448145e-01
-8.764991396388839284e-01
1.345874648151027531e-01
-1.198988675468626530e+00
1.023469582296088198e+00
-1.991292695211265701e-03
-1.364659730654706367e-02
1.018161194653015800e+00
-1.240837279100018842e+00
-1.987599663442026987e+00
-9.246025851173277355e-01
9.784507217622572250e-01
1.213688478511998348e+00
3.359695637336816976e-01
8.333583089038246183e-02
-1.351156084625164233e+00
-2.026362191151567682e+00
-1.365398234862536198e+00
2.756167844155985147e+00
-3.869579167947412857e-01
-1.326282210356864777e+00
-6.750654100351799469e-01
-7.386452854000904455e-01
-1.310579369265108818e-01
1.092249581699465732e+00
2.518767860860071650e-01
-2.996719603194964998e-01
7.574549817610894964e-01
1.586144804666189234e+00
8.400337589197541810e-01
7.063516280206394438e-01
-8.926350618426525108e-01
2.084098418986941148e+00
-4.325045954244214896e-01
5.632820912352187737e-01
-1.210953866873861751e+00
7.906327431587705235e-01
-7.563306293332211494e-01
-2.689441645271278269e-01
-9.016577612678888798e-01
1.218471979846334596e+00
6.734784472639790964e-01
-8.168752140217175883e-01
-7.190310042442525917e-01
1.171840437442131400e+00
-5.848239699047446116e-01
-7.521879391625330147e-01
-1.152225675760089052e+00
-5.047648798597802883e-02
6.080203409493685658e-03
1.415763855399856608e+00
1.628214633114051457e+00
7.862341615956339735e-01
7.344382591794076376e-01
7.089907453598252030e-01
1.340860384235886271e-01
4.701716296490856539e-01
1.616910637780411220e+00
1.784220507962165636e-01
9.309321330811440864e-01
-1.822933842244553349e+00
8.197466338834371591e-01
2.819506703018665461e-01
-2.848616651796614940e-01
-3.445567032026862209e-01
-5.733232935986813938e-01
9.692566899723631391e-02
-3.672256388011980316e-02
-8.554256029925095817e-01
6.784583334587726000e-01
1.150185837421014767e+00
-1.388051228164967066e+00
-1.356512392031510084e+00
1.245909171095500451e-01
2.179948173916246845e-01
4.391576954829718993e-01
-1.270485585483639435e+00
-7.674702510561438595e-01
-3.336955341881939208e-01
4.296435693716819659e-01
-1.253791298844741275e+00
-1.501241759249129504e-01
-5.260293227756106527e-01
4.864989215715447290e-01
1.797031007296358285e-01
9.059498676683986895e-01
-2.753741878736374986e-03
-9.067621490656342376e-01
6.294497276000287078e-01
5.930113147007299856e-01
6.592989360895019635e-01
5.960726530120203925e-01
1.323626989461031300e+00
-1.069184204262310756e+00
6.360388707553130683e-01
-4.169427710289795863e-01
-8.126971144067166586e-01
-4.049489748200231221e-01
-7.566306954223912529e-01
-9.405045191373021529e-01
-1.053737467689789264e+00
-5.438202550155726289e-01
1.608665637873364918e-01
-8.813865805101750439e-01
7.511378660248252404e-01
-4.410429054787700087e-01
-2.084853430652530148e-01
-1.816867961894923722e+00
-7.705266319594357427e-02
-1.068308867080976610e+00
6.907592251315880505e-01
1.831948761655659841e-01
1.153699604589259797e+00
2.303978538957197397e+00
6.807183838329017300e-01
1.559843860026336682e+00
1.050597510789574862e+00
2.448728764334158203e+00
7.121335759833543610e-01
1.433631520289990469e-01
-8.235218363150001997e-01
2.489480519390198765e+00
-2.359900921213515523e-01
-2.947676446565348218e-01
-3.695525209376557818e-01
-4.275434803909822223e-01
6.053667067557452208e-01
2.320905685535603613e+00
2.666256438815048369e-01
1.728338688610449481e+00
-1.274616697086607964e+00
-2.688347878032556482e-01
-1.762919342369713982e-01
6.470812190232211325e-02
-1.091708963220553025e-01
9.475039965372218376e-01
3.557275580464945852e-01
1.569110698223233236e+00
4.468294958971716357e-01
3.459074757066956662e-01
6.489449846399323318e-01
-1.578264077277476141e-01
-1.128224948953529205e+00
1.570509532906024130e+00
-8.082390456249760602e-01
8.681707405362081298e-01
1.158175571687340699e-01
-1.875024637573952102e+00
8.757221454117379844e-01
-8.444546598712700247e-02
1.434658709627766981e+00
-9.411493844556393373e-01
-7.560036078489744682e-01
5.991315895656349477e-01
1.994911275600064759e-01
8.144903611748537386e-01
-1.702086497299831302e+00
9.730419095734219592e-01
7.000711336042184652e-01
-1.686584503993087125e+00
-6.405811173514801560e-01
1.505304313264095306e+00
3.414803680569991617e-01
-4.307878536454456397e-01
9.100714102648532755e-01
2.841214927248751909e-01
8.444516107251283099e-01
6.940647989715528765e-02
-2.438987433255932202e-01
-7.107487015400895114e-01
3.503630510060710274e-02
-1.969409955219912078e-01
-8.640956022655150726e-01
6.742484121702276845e-01
9.448141586829463812e-01
-1.211028592084404609e+00
1.886345673569011616e+00
-6.315345090891302249e-01
8.277657162659203538e-02
-7.478445915947764533e-01
1.972715578733805986e+00
-2.364494383215864026e+00
7.310788311816218688e-01
8.122764556302420891e-01
-1.198253155801175751e+00
-1.306954505830382890e-02
-1.182794763129860760e+00
1.775619485734402536e+00
-1.048486172268839223e+00
-7.256456809220059867e-01
-1.022635150169581175e+00
-1.032023597384973179e+00
1.860804376497582791e+00
-1.092551310532286157e+00
5.763520266381543244e-01
1.390665454682613045e-01
-1.920252093131135096e-01
-1.492800321314849965e+00
-2.225410487851297858e-01
6.696936119555502165e-01
1.107190546144466659e+00
5.099014786095602547e-01
1.211476524134116994e+00
-6.326059319728962738e-01
1.183746285785017172e+00
2.873468531878355381e-01
-9.782702780803619325e-01
-8.957752008568006241e-01
1.291401017254670380e+00
-2.731664517233639566e-01
-1.512522316572855852e+00
-1.195500538364076409e-01
-2.121696314107852921e-01
5.276905736342827336e-01
4.545986147622335660e-02
2.102228498292603720e-01
2.481192884469141380e-01
-7.760393496349905496e-01
-8.055178903650557221e-01
8.284674729033394414e-01
-3.513292832558991691e-02
-5.944406200524049444e-01
-8.966228095181814073e-01
1.120039686417041880e+00
-5.398246380082848406e-01
2.423472552833186855e-01
-1.676472224243428510e-01
-8.851578294964075333e-01
8.066123795493476134e-01
-1.739811794687009749e+00
2.321966336869976388e-01
1.308849024950114348e+00
2.124963200164736721e-02
1.014488084185085626e+00
2.738624845120170015e-01
-6.609059632491851577e-01
7.103305329883123909e-01
6.475580778445838570e-01
6.820730425535210806e-01
-4.686620324498049217e-01
1.423372273779407005e+00
1.556997260758956059e-01
-4.429259125285631704e-01
2.911427808661358752e-01
-7.536114632550545700e-01
-1.793145171020765982e+00
2.376129657629700298e-01
9.991793371703555637e-01
4.662793878047881424e-02
3.170468026317735388e-01
1.497119631056803013e-01
-2.423440241392669225e+00
1.262433692410918074e+00
2.192928690741919873e-01
2.463524103719003933e-01
1.081642726152633571e+00
2.145219250558154100e-01
1.529690207627951271e+00
-5.278263268026880395e-01
-1.638757562415262270e-01
7.792941364059194909e-01
-4.311977772535156017e-01
1.584994158332617253e+00
1.589872622409658875e+00
1.163812957093800921e-01
-1.619490324502388834e+00
9.929688885528993314e-01
2.049975792286109350e-02
2.298467043317361291e+00
1.380288150639694678e+00
-7.481146666872751094e-01
-9.661927224141445558e-01
-3.002537836608307198e-01
1.777032281097352395e-01
4.037934837662026100e-01
1.164238447767770523e+00
7.145178379725529091e-03
-3.331154605465888596e-01
-1.120370627724132317e+00
-6.639840227533939654e-01
-5.714189925655099866e-01
9.258039441201399988e-01
-1.554955523982227104e-02
-3.092111621177797698e-01
6.616502421613751350e-01
8.237771555457779060e-01
-4.388468736311930130e-01
-7.997769012174293923e-02
-2.043691531476339751e+00
-1.068447465090854420e+00
-8.753002951561521527e-01
4.767336927583377681e-01
-8.130873726105485311e-01
4.671061378961254840e-01
2.999770891396345895e+00
-2.718367180917456993e-01
-3.171442160933053978e-01
-2.115192730304875646e-01
2.123456786495984794e+00
-9.779144461449111869e-01
1.331619758822246480e+00
-2.951729637588971222e-01
1.488658200214920457e+00
1.533809270047347573e+00
-1.003715918096732274e-01
-7.412782353272578950e-01
-6.067161285100953760e-01
1.057240075507764443e+00
-7.803856187722527649e-01
-1.477305647231791363e+00
7.281639340315279041e-01
7.063466926484824882e-01
-1.802047213043065921e-01
-7.433942774851842739e-01
1.929805282574462932e+00
-3.450656590428460152e-02
8.250548224155934696e-01
-4.189787736820425046e-01
5.972769148881443835e-01
3.620704155475131247e-01
-1.310495120666192781e+00
8.010105381462793162e-01
8.135341353382617990e-01
-1.773535680759146027e+00
-1.847008301140573572e-01
-6.653512722380471311e-01
-4.374135601353286162e-01
5.081960815384920643e-02
-1.557808813243668933e+00
1.620834385239469100e+00
4.894332180345373901e-02
4.717213515093863219e-01
-6.223834767131555257e-01
5.744615503096576203e-01
2.952056187068369253e-01
1.204708935677984316e+00
-2.266289912026949946e-02
1.050208515727922981e-01
8.520696112643253439e-01
-3.511130696642255633e-01
9.863457955822446666e-02
1.029736704542864922e+00
-1.055817836988780067e+00
1.011193227076939039e+00
1.880823203288503054e-01
8.748826962159778065e-01
-5.524695649351119009e-02
5.881614104672030496e-01
7.264939626811971474e-01
2.559884700427471071e-01
-8.233018468272936818e-01
-6.026227957604286534e-01
-1.385582385128315330e+00
-4.680308349986033734e-01
-1.498662361004572396e+00
-1.172323842787818426e+00
1.997620286610052087e+00
1.571862857897985133e-01
1.239995365107471104e+00
-1.180201924511888878e+00
-4.524824570836658011e-01
1.902137840061408847e+00
-9.607207214266080819e-02
-2.124535669948905525e+00
1.072714010070656698e+00
9.675927648874544929e-01
8.914429154511877007e-01
-1.940400808569419322e+00
2.035719501428114864e+00
-9.208237147574620529e-01
3.224465055462573115e-01
1.921776345573888711e-01
-1.924676009277021427e+00
-2.688827909384088749e-02
1.619476014751562026e-02
-9.042013981536749512e-01
-6.642863074440336080e-01
1.878933106809576259e+00
3.160234156628846103e-01
-1.183051072952766791e+00
1.618481597094340696e+00
4.782646815551864772e-01
-1.785150078969917509e+00
8.512417557329738926e-01
1.648525650461680980e+00
-1.202299196701617667e+00
-8.851157937243926688e-02
-9.388606369896914661e-01
1.787604228524127814e+00
1.403025410768934167e+00
