-6.934898112477576593e-01
1.953464957126741952e+00
1.922268153345563668e+00
-7.417654083395215370e-01
6.830538366787012317e-01
5.844234224075181006e-01
-6.382972691942433441e-01
-4.763625086530566266e-01
1.908625708379931174e+00
-1.003226593650469456e-01
-1.516953835780280535e+00
1.464402566427727148e+00
-1.039456051911504808e+00
-6.993026335830085927e-01
-1.019559989888522367e+00
-3.019231788976900477e-01
-1.166993149306548183e+00
-9.790663929634810803e-01
7.415885007032297915e-01
-3.270900403167693593e-01
1.604391968439266680e+00
-5.194834662669444159e-01
-1.521540643650505453e+00
1.208494815991800198e-01
-1.767971265921716162e+00
1.577036061906648134e+00
-3.895044341662797227e-01
1.281053558784576163e+00
-1.034074119847747247e-01
-7.073264713667375414e-01
2.152510102388503821e+00
1.838783458605012466e+00
2.393146537185682210e-02
8.882701699091809511e-01
-1.373283750793344582e-01
-4.364806906561671251e-01
-1.024876979256766685e+00
2.195873993997865814e-01
-4.159707072858894739e-01
-1.249199191781369123e-01
-2.417120969997640645e-01
8.755079894844935984e-01
5.367095267265932501e-02
1.516693961980171701e-01
1.869021159638082630e-01
-2.717095549994597570e-01
6.067371646744473823e-01
2.107885664500685152e+00
-9.472647529185436177e-01
-7.139774610312653313e-02
-9.337807813822586456e-02
-1.346096942385287321e+00
5.885166110614313828e-01
8.340307505969220270e-02
5.404233777299903840e-01
9.641565442952056975e-01
-2.496592152627004513e+00
6.974385010349601899e-01
1.048718863294595578e-02
-1.486680981362693110e+00
-1.435389123149300339e+00
8.379330817397753206e-01
1.526332230375884613e+00
-1.001578301003125671e-01
-1.014659391334526983e+00
-1.053795252109957392e+00
1.328942401996747957e+00
-1.545000360659555705e+00
-1.707478829689259570e+00
-9.499422491485414177e-01
3.603041900234916356e-02
1.086507231690170716e+00
-2.365439039717369685e+00
4.450687738019949991e-01
-2.746782470255629272e-01
-1.188450509625407214e+00
-1.230965426545173713e+00
5.501015979351394636e-01
-2.394198442454542053e-01
-1.582589157941021840e+00
2.761725217635233598e-01
-8.502692302123628920e-01
1.548864120367022590e+00
1.566046189435036595e+00
-6.214355577548605902e-01
6.752011637188231052e-01
-4.649980713251252729e-01
3.783525930674654369e-01
1.273941818100489676e-01
-4.540669215987166440e-01
-8.315599769123034335e-01
-1.925766302402190044e+00
-6.156957502723873210e-01
5.471616329315153182e-01
-1.902865399580334183e+00
-2.232596569910035189e+00
-4.474069951557826941e-01
-3.270084002113456290e+00
4.327922002561539472e-01
-5.695333764531766985e-01
-5.698428916069419037e-01
-1.075042476886126641e+00
1.277085141042771932e+00
-9.988679866707046440e-01
-1.134508755640271094e+00
5.933886876211541539e-01
1.371519296265726329e-01
5.047684205715863293e-01
-9.026589247191020293e-01
1.024082605212329522e+00
7.143070026107639636e-01
6.272741097278288214e-01
1.859225249064196395e-01
-4.041679926832200676e-01
-2.109101857380137890e+00
-3.725431532753012420e-01
-3.860767854154233958e-01
-3.177096410490147238e-01
2.273166545816656114e-01
-1.217934778982754374e+00
-1.104660306784543078e+00
-1.199953718508216527e+00
-2.378080613542971733e+00
3.392268657259014941e-01
1.798711331252027534e-01
-1.592782356592050474e+00
-5.132926777162507559e-01
1.658455477105876819e-01
-1.342083377113214793e+00
-9.972393997924770825e-02
-8.280553784399395933e-01
-6.479355127111585677e-01
-1.685789930572445305e+00
-1.416724978283858238e+00
-1.634034346848985686e-01
-7.057218603417088065e-01
-1.183030249065327055e+00
-8.725975452908699137e-02
2.216890838101709615e+00
7.486564245412665741e-01
1.880092906848317424e+00
-2.587982125268262767e-01
1.911839364693184828e+00
-6.016493790798487229e-01
1.474470274950018034e+00
-8.638596647768890732e-03
-1.507112020811853803e+00
-1.086609719235472449e+00
-2.386063285562498582e-01
-9.560430855959657359e-01
-9.424785161363616881e-01
-1.927368115899423806e-01
-3.708886611882924456e-01
-1.134912511592296003e+00
-1.450109074977391943e+00
-5.881373527818049007e-01
-2.206436008587949610e-02
-5.775582594237814726e-01
-6.754509561611089508e-01
-1.051827711170576718e+00
1.252237070420740839e-01
1.385069651144202052e-01
-2.914795033018645620e-01
1.177307463759587947e+00
-8.735706975562641530e-01
1.232381483752913010e+00
-1.330156903741777530e+00
-5.463854382113109143e-01
8.901351067617918611e-02
-1.229425502065321307e+00
9.930852731173807346e-02
8.135806455708270990e-01
-2.083253837904572581e-01
-1.250384508287761598e+00
-1.096468489710741068e+00
-1.926257569033810180e+00
2.549447826824110530e-01
-1.174244513724766042e-01
-1.455295581128707161e+00
3.019607893241287866e-01
-3.204856602049859227e-01
-3.092700164527008647e-02
-5.492461118487249605e-01
1.011002647516445752e+00
-1.421801433725409680e+00
-3.963950623669070250e-01
1.105997489586161703e-01
7.024349974253664142e-01
1.078419651477794616e+00
1.655240825294707341e-01
-8.299320065167897775e-01
1.133858096162053242e+00
-1.254659878517396132e+00
9.919192456729929164e-02
1.392030677143314632e+00
-1.003892303693897592e+00
-2.566223878580858653e+00
5.028998689191558347e-01
1.212072953323679869e-01
1.272949599674995991e+00
-7.708608860816268393e-01
-9.582059182772150255e-03
4.434154040321713897e-01
9.062078400577109338e-01
-1.534963025666561620e+00
3.010883790494838230e-01
-5.129073722570368782e-02
-8.473832756727600612e-01
6.246598811312374655e-02
1.704441093568568322e+00
-9.546265605758531558e-01
-7.949227735189970390e-02
7.405003147141587805e-01
8.516715797801197585e-01
9.756824934388784731e-01
-5.049370757032773938e-01
3.478761620780019825e-01
-9.565826900045171222e-01
9.529590006561847737e-01
1.921312180473709441e+00
-1.010679330443843060e+00
8.428034268312238897e-01
1.097941685107480803e-01
6.480099645120190877e-01
-2.940120629038197597e-01
1.542348490257042792e+00
-7.811254216088111546e-01
-6.928120753852621272e-01
1.506964194147107639e-01
-1.167596016965786743e-01
1.329382667648309146e+00
6.074391419470425157e-01
8.830767403998937004e-01
1.303559768160002630e+00
-1.307200735369163855e-02
4.490724695664180532e-01
-6.717749443839192702e-01
2.178011661695717915e+00
5.078437771135165812e-01
1.644069629363127394e+00
9.302495622422617405e-01
8.170666929642079745e-01
2.130501920970264251e+00
-4.783860459774610385e-01
9.255319180568550852e-01
1.546116847196342015e+00
-1.241558191201846129e-01
1.465423422694862809e+00
1.772111991460623703e-01
8.600531078789397377e-01
2.803908406671196674e-01
3.988047541913000704e-01
8.732193524299124432e-01
6.402046637394859241e-01
2.350674659471579719e+00
1.445495443182280626e+00
6.129909263718116286e-01
-1.052480532649435307e+00
-9.800628609440493744e-01
-6.812075529189876022e-01
-3.875826726937137146e-01
-1.584678326364640677e+00
-2.718382069412872415e-01
1.572114657178396602e+00
-2.857523813314815642e-01
-1.554026566437359813e-01
-1.480275056878888273e+00
-1.309494709257157163e+00
1.311706999479737235e+00
1.612513609023963124e+00
1.369449389405821949e+00
1.537341240614613413e+00
1.405962200408899632e+00
1.108587469636365785e+00
2.099137592308112588e+00
2.416965849630290375e+00
-4.775173759340337609e-01
1.737530448753059065e-01
1.380091619557612725e+00
-1.393517677056414772e-01
1.906357898404126949e+00
2.033859106119285109e-01
2.345636215835671390e+00
9.572972582266887631e-01
2.078181605537465781e+00
-1.433818890655074618e+00
1.079089431490340312e+00
6.644873283186893964e-01
1.370612030353720368e+00
-1.855754592182425333e-01
4.664350063470361629e-01
3.397439590365853301e-01
1.787280346014294141e-01
-1.821567783992518619e+00
-8.194132384534732472e-01
-4.165706719064952712e-01
1.197167078435636745e+00
9.107208110785979249e-01
1.605479491187900676e+00
2.240967185877085210e-01
2.152269590048835113e+00
1.426525107801513148e-01
5.724998075409748477e-01
-3.715911194514635585e-01
9.900974833622134819e-01
1.075779605024254071e+00
7.302862771264958530e-01
9.708068386834497465e-01
-4.609800624421592774e-01
1.340991845855971532e+00
-2.940867740418757759e-01
8.453833586218574281e-01
-1.217829863513699429e-01
9.074195036194234731e-01
-7.654574769562530467e-02
1.818600482939370933e-01
2.898965320675579993e-01
3.500610126817813583e-01
-9.886543951007258357e-01
-6.001846611361589812e-01
4.126925807408890479e-01
4.447029193727108365e-01
9.913895950953853786e-01
1.819641151330655626e+00
6.082435735909865748e-01
1.199405267179788792e+00
1.762706516947419644e+00
4.294185024420217878e-01
-1.509612081153969276e+00
-8.761414696872321661e-01
8.007162819983579816e-01
-4.492580884898750848e-01
-3.516434718693649542e-01
-1.727014898948435739e-01
-1.726971229514201012e+00
-5.263222054666680805e-01
-2.459098874218701436e-01
5.810505530686425196e-02
-1.623262978231454046e+00
9.950726528090315659e-01
1.044751960291825377e+00
3.718037122769065617e-01
3.602460420099287686e-01
1.549369505887610465e+00
1.692899915337189087e+00
2.197157608886683100e+00
-8.886825113575577140e-01
5.317885278661629161e-02
-2.421683194784880755e-01
-3.382051753075774325e-01
-1.926420282659571659e-01
3.056234503642512590e-01
9.880928263611701290e-01
-1.160609069258483617e+00
1.648007463135043593e-01
1.713642519354927340e-01
-3.058568168018370725e-01
-2.160399507871334501e-01
1.242045585697354237e+00
-1.422645915406277606e+00
-1.237442042579491863e+00
-1.557046802756158546e-02
-4.458964290703585909e-01
-1.122049469902513641e+00
1.414553388510057186e+00
-7.761073700506517792e-01
1.300071527863855936e+00
-6.218315406916504751e-01
-1.044341797748246981e+00
9.278313781748103589e-03
2.249134041759471847e-01
1.340772318794306139e+00
1.802933524130280851e+00
2.172267761821613963e+00
2.143906845482232537e+00
4.156651199127011642e-01
-2.517689512806789431e-01
-1.118664803140988928e+00
5.146040194905606574e-02
-1.009682349644336619e-01
-1.020800468913277248e+00
8.772394806935804867e-01
-6.783385591629229605e-01
1.070077028882880033e+00
-4.686452666022085656e-01
-2.318725234165439630e+00
-4.606047655401558361e-01
-2.575634954555817480e+00
-2.821682593872665734e+00
4.258548474993955613e-01
3.643962941075623019e-01
3.550510720390600561e-01
8.495912046095939196e-01
-7.613497941101132760e-02
-4.684321815489523866e-01
1.162795053935209572e-01
-6.942725299297085595e-01
-3.052256874909201612e-01
-5.061390056838467322e-01
1.390060277873110151e+00
5.931819846228137960e-01
1.219442360136103520e+00
7.225518238312300667e-01
-3.841187938504134758e-01
7.907067331087799245e-01
4.380018592302603597e-02
5.418070234415175435e-01
2.649902191301619081e-01
3.613912774172747810e-01
1.354364334193896013e+00
8.104997490465722931e-01
-1.242947501717941883e+00
-6.825000318735630067e-01
-6.940408836583359387e-01
-1.030555542683505577e+00
-1.504013854109926163e+00
-2.141497572418137096e+00
-1.654320480740275601e+00
5.730240645591473669e-02
2.474517980970225572e+00
-1.743763785922574749e+00
-3.591516846392581175e-01
5.446339166915566965e-01
-1.591738062757185768e+00
1.272629520497378541e+00
2.639564480645157030e+00
4.715053456196938719e-01
1.182580081324027033e+00
1.951693551133883542e+00
1.536121189068828219e+00
1.240775351526246961e+00
1.586628591911976249e+00
1.115762459772824622e+00
1.133785001666129527e-01
-1.313209251558589141e+00
-4.883492696941786337e-01
2.322416326348151649e+00
1.687452640594179432e+00
7.796174939580590157e-01
-1.129356675606315585e+00
1.038077142153536747e-01
-3.093896819901301720e-01
-1.451252019679667882e+00
-2.822991871550422152e-02
-1.146749921228978453e+00
-1.887894873857471012e+00
1.235563736762266829e-01
-9.204636598868721764e-01
9.972453479832440459e-01
7.324891458983729953e-01
2.022065721448152165e-01
9.959920369221685332e-01
-8.369174934339917993e-01
-2.057089016734070963e+00
8.577185178910038399e-01
-1.110964591320527939e+00
1.420298738214230139e-01
-1.575091522241653719e+00
-2.680849756952067287e-01
9.822656189844597430e-01
1.388092772764158989e+00
3.694688821631667563e-01
3.521305406414757533e-01
6.232313564815177287e-01
-3.710565906942443481e-01
1.310187607522465436e+00
6.227882842532828783e-02
-1.346821867434593312e+00
-1.008419532494550630e+00
8.851332907277937867e-01
7.766755268460174833e-01
-9.740963845840575619e-01
7.245481788368388631e-01
4.988202214216354013e-01
-1.078985283718960630e-01
-1.428344593427804066e+00
-1.469642594323552709e+00
-7.454530130468353111e-01
-1.552151685409488835e-01
-1.246961236590627548e-02
1.206641447962551572e+00
-8.258059817639384903e-01
7.096465019264253105e-01
-6.841649609220985528e-01
1.667779370323795529e+00
-6.009802037931972762e-01
-2.374148821965792466e-01
-5.377349412271140716e-01
1.284169590034189623e+00
7.279796390709454279e-01
1.451159026822088194e+00
9.969444326392710165e-01
4.970903597141578811e-01
1.582518866134343671e-01
-1.139769720147588927e+00
1.768815280015780811e-01
-2.114256770980250888e+00
-8.899342821768014833e-01
-9.687400285774137032e-01
1.152063998328361594e+00
-1.645867756962233974e+00
-1.730878749347138923e+00
7.057671101830615967e-01
-6.538196376340229543e-01
1.144518317956561670e+00
-2.535216434212910763e-01
1.608653907343217115e+00
3.229072102914807285e-01
1.163185659883861529e-02
1.485129488956712651e-01
-6.826512722663979904e-01
3.931802558571934753e-02
-2.588548697801250006e-02
3.360697696841729587e-01
1.260640493601662970e-01
-2.668255040971129755e-01
-1.076860368360054165e+00
1.073203396362299555e+00
-4.235557357815534218e-01
-7.353901299973063244e-02
-7.177383758724796836e-01
-4.518442179117461710e-01
3.211009350452220801e-02
-9.224284511888837523e-02
5.316456556692796681e-02
-6.515048329693079454e-02
-1.368377436783960066e+00
-1.803365494034687266e+00
2.245851668162046899e-01
-8.364760548603599188e-01
2.290976812938121832e+00
-1.595902643235894924e+00
-1.908543836519211168e-01
-4.932491351117367362e-01
-2.256606102708598183e+00
1.416494420417877320e+00
5.477111273425037119e-01
1.097035567445967974e+00
-1.610925678798582061e-01
-8.207655556930431029e-01
-2.127470628329076963e+00
-1.989985848425269988e-01
-1.535675577311356843e+00
-2.403916774108222132e+00
-3.024303719551492353e+00
-2.949179638639392032e-01
-1.592694246222218890e+00
-4.926959300712765444e-01
-2.834646827700710414e+00
1.359736755588690116e+00
-1.810481874407356750e+00
-2.879235122373906552e-01
-4.522181001957966684e-01
-1.820942213531709652e-01
-6.165204028341079168e-01
2.645395306787430290e-01
-4.650132064663697329e-01
4.771769881321088480e-01
4.373297002376521081e-01
-1.160099045163637044e+00
5.716203579351953890e-01
-1.318334657927575093e-01
-1.406350541863262249e+00
3.249871904606929096e-01
1.252234866991037698e+00
-3.255576693444384717e-01
-1.578119056077759153e+00
-1.544301848741234773e+00
-3.017781302197221738e+00
-2.935282960619571835e+00
-2.751631642978059400e+00
-1.719465222292417161e+00
-1.269507928905824867e+00
-6.038304352316610224e-01
-2.654623932105796058e+00
2.014031408302379700e-01
-6.829055692933497790e-01
-9.627722424441093052e-01
-1.016338077389445704e+00
-1.795093237529032049e+00
1.838140837616862866e+00
8.271683445928548206e-01
1.851481795357321714e+00
-5.817023185723808609e-01
-2.610145453486554384e-02
9.523199337472036952e-01
-7.670395328894417109e-01
-6.869804382913169416e-02
-6.432969899176882445e-01
4.039362497534765839e-01
7.378469195276327053e-01
-2.502768212955461813e-01
2.446254401209112805e-01
-3.679216511153357017e-01
-1.125622093634042642e+00
-4.333596179821385536e-02
-1.732176911456692281e+00
-4.584164290244363560e-01
-1.595088168056930211e+00
-1.708302326543994720e+00
-1.098420822339179370e+00
-2.289901936526235193e+00
1.337374498140214141e-01
-8.403914233194865746e-01
8.163132003710088513e-01
1.730151559811157480e-01
-1.451067568388560991e+00
-4.294337262959246893e-01
3.607165541429475930e-02
3.487965272088497382e-01
-9.074304019939556376e-01
7.478064050961503728e-01
-2.017779667080680905e+00
-8.376643868809882654e-02
-5.113944459342788518e-01
-1.202198561413015537e-01
-8.249384420730544454e-01
-3.984945745991741450e-01
1.976606659945240096e+00
-7.170608399423342716e-01
1.490560342556963125e+00
4.734950958276794020e-01
-1.026877002329032784e+00
-1.381984640187938096e+00
-2.064106985011882944e+00
7.967812808446163020e-01
-1.614178450489039074e+00
-4.565112795332808004e-01
1.032624707951500298e+00
3.551557547824050198e-01
-5.489129164986301657e-01
-1.635841692491021959e+00
-3.659387286931791716e-01
9.878834854814408928e-01
-4.348123650209869129e-01
-8.673308931002320366e-01
-6.778169892781835126e-02
-7.016530269625065319e-01
1.933628933287692586e+00
7.827851236389005152e-01
1.705806449718107798e+00
-4.420521858966692252e-01
-1.682277229509181682e+00
7.041712603585961183e-01
-2.865599341085947604e-01
-1.143458555603614757e-01
1.105642231415984833e+00
6.687112547447348065e-01
-3.251490527178544365e-01
-7.963324092490653427e-01
1.160562810314646143e+00
6.958619353429299492e-01
-2.035891611918293209e-01
4.589466133074650012e-01
-9.508497376872452334e-01
2.707834677049220651e-01
-1.323224382334776905e+00
-1.159282900394442484e+00
3.713210343703390870e-01
-4.532421160179198050e-01
-1.009800927220010081e-01
-1.219722357028827586e+00
5.513311948792541939e-01
-3.659334221551880928e-01
-3.566989913669352252e-01
1.064729240801681742e+00
-2.645461319801849509e-01
-9.510534238375473182e-01
6.523311014100544591e-01
-1.294555812862333344e+00
-4.274812612803705753e-02
-2.658784124292598028e-01
-2.172790594034780032e+00
-1.766434685371655045e+00
-1.509609025858621445e+00
1.255496641026896398e+00
1.381655904242882205e+00
-4.410294788805408928e-01
1.376403979368256980e+00
-3.954197529630813501e-01
-7.729435225363753825e-02
7.850718752024622438e-01
7.397310329576614052e-01
7.309879202667372011e-01
9.055470569613145448e-01
-4.189560228635747507e-01
7.492536170447637936e-03
5.093674202265631168e-01
-4.495448284768726599e-01
-1.644988091563366783e+00
1.650818208262551989e+00
1.040929945529281531e+00
3.338051444495895304e-01
-2.174857100042824509e+00
5.125696352870841022e-01
-8.018227977756922087e-01
-3.381187902408314683e-01
-1.088295097927101329e+00
2.862095951305571595e-01
1.464737479864954006e-01
-9.777514890034028072e-01
2.611954315484220635e-01
-2.930262497951479084e-01
-1.419469735654102227e-01
1.540967315672946869e+00
-1.245382942948217719e+00
-4.786810264339740884e-01
1.895702803451713381e+00
2.444206252190447570e-01
2.363665324013901170e+00
5.011232485205973086e-01
-5.163214495873217347e-01
8.001490597022811180e-01
2.671195317717371065e+00
4.630760570133080067e-01
3.961356267720861801e+00
4.570260577610332220e-01
1.054609522481293693e+00
8.457075287646163009e-01
4.877022306266972085e-01
2.337745609339464181e+00
-6.947953395304509727e-02
-2.898054707445489431e+00
1.949524411348252662e-01
4.693765325707544567e-01
-1.002706613906660493e+00
-6.555742671063458094e-02
-9.971078513660045495e-01
1.337566613784350322e-01
-7.076415864800754685e-01
-8.410802891629500788e-01
-2.253591364400211461e+00
2.154876621517734403e+00
5.440476727119621936e-01
-7.451153973510872552e-02
1.507410646421891709e-01
2.266945767686005531e-01
8.267161012468488002e-01
-1.296681343665468500e+00
1.453333058766884012e+00
2.184540019159578517e+00
1.207640143992758236e-01
-9.478378839540495260e-02
-1.863303317002150683e+00
2.625695195493017220e+00
-1.405683304668328415e-01
1.988856628408361304e+00
-3.575141361175614430e-01
-2.408462099422521152e-01
9.306460830419812646e-01
1.425684167331799479e+00
1.576763431858137388e+00
-1.885169086098804625e-01
4.119126414169898553e-01
1.296810892559027373e+00
-6.303629542261699470e-01
1.233749881856324837e+00
-1.294061591801022759e+00
1.051882459638444622e+00
3.017383404699958693e-01
6.445889559931335944e-01
-3.230932241414658512e-01
1.303195103919170483e+00
1.197239156131119503e-01
2.215043970097028581e+00
-1.390307862841610342e+00
2.816213377140587837e-01
-6.406605167047486615e-01
-1.081771856039581980e-01
2.160455586969949771e+00
-4.333495872293064433e-01
-1.476940966605935657e+00
9.481587511079507813e-01
-7.001594184511984453e-01
-4.736037217046785291e-02
-2.622944199963685552e+00
-1.632208060762027624e-01
-6.869444303977111366e-01
-4.964790347115370650e-02
1.356953185497747905e+00
-1.014685383181799905e+00
1.012040527500807530e+00
-6.585179985992180018e-01
-1.386068948190229300e+00
