-7.112309071873669231e-01
4.464966378241153749e-02
-1.109614600030199627e+00
-4.184399628780653413e-01
8.167003679323140419e-01
-1.799054146275178290e-01
-1.308953259175540396e+00
3.122336652398066681e-01
-1.176158035807032265e+00
1.091566541560442749e+00
8.981637130116816303e-01
1.222805415384592198e+00
-7.834689830686265843e-02
6.471761347718765212e-01
7.508742397612244712e-01
5.403232597506117951e-01
1.949393435847298628e-01
1.052576038942719228e+00
-2.696259092717205874e-01
6.962706415726331588e-02
1.284268519336196235e+00
1.152315230284471914e+00
6.852565330751432260e-01
-4.147833502927062432e-01
-1.111838664874809757e+00
8.976217808970607948e-01
3.046996093826230892e-02
7.064696866505043582e-01
5.951020324738850453e-01
-4.328364622897357128e-01
-6.470789315836406042e-01
4.163519340919498157e-01
9.927935247162131271e-02
1.003306181651043572e-01
9.720893823896842312e-01
1.807239019816915926e+00
-1.031237585522386313e+00
-2.978717688185345547e-01
-1.459056042197357739e+00
-8.164866019394743102e-01
1.605826649933959960e+00
-1.120465225765606698e+00
3.705544927184618587e-01
-4.629956330271250281e-02
1.485735320090407319e+00
-6.730752426227787355e-01
7.935950897159858020e-01
7.153038339140066482e-02
2.869778936566974581e-01
1.074331067213649460e+00
-1.417150883667412042e+00
1.536214147343881509e+00
3.354726679501662256e-01
-2.707809763045415097e-01
1.046443798423883020e+00
-7.026075987406037449e-01
-2.262177239152907415e-01
-9.606484818527805114e-01
1.946770929057663135e+00
-1.585420850766441625e-01
3.532168374517697940e-01
2.735747121564844897e-01
-5.399061658770936134e-01
-1.668211828919217155e-01
6.922954811351462734e-01
-2.456266269122532986e+00
1.586822510534338759e+00
1.021900522278867740e+00
-4.285323244661326525e-02
1.019588149532788313e+00
-1.554433702331773359e+00
-7.010684449580273370e-01
1.066351855186178144e+00
1.268401670851220686e+00
1.381144203395929804e+00
3.397859667676841888e-01
-1.350911680106816615e+00
4.827596598438191333e-01
-1.712481170715996370e+00
-3.054215163066653638e-01
-1.295257622253425334e+00
-8.507653100924088552e-01
-3.632328358615823788e-02
-1.416879486047219583e+00
6.218421097874744091e-02
-1.607952127455946734e+00
-1.496826835941308664e-01
6.202097809098235937e-01
-4.773197282512097739e-01
-2.130978227952243564e+00
-1.391445625968150912e+00
1.700854708268204341e-01
1.148608416426357470e+00
2.812020688788419154e-01
-2.893369993843682431e-01
-3.306424174372602498e-01
1.242633835342021431e+00
1.264753163841263239e+00
1.047369433029875285e+00
5.519581674782439960e-03
1.012083683709748445e-02
-1.109758566207359687e+00
-2.062741868999346806e-01
1.734524605671114106e+00
-9.409145265082632936e-02
2.928275241686087438e-01
5.399881830683718187e-01
-1.228412816469233393e+00
1.403745385020435776e+00
-5.496069731585697671e-01
1.465777036271690204e+00
-1.181793757556708790e+00
-6.010233781826002097e-01
8.597092750041186449e-01
2.101634829353392908e-01
-3.740913986541641867e-01
-3.267907717327393491e-01
7.382144536424966041e-01
2.876120571814746452e-01
-1.083218757136906518e+00
8.712648504085965806e-01
1.521791861038702676e+00
1.540431465592635718e-01
3.315800864250470492e-01
-2.360100597091372709e-01
1.824972063584317516e-01
2.379314450163571570e-01
1.651015183491703286e+00
1.564623568804870191e+00
2.220040072885991200e-02
-1.490986670692449279e+00
5.562494269872240299e-02
-5.098194838344719537e-01
1.080697902277103051e+00
-4.497883690818341162e-01
-9.582676174195489116e-01
-2.238489055626733393e+00
-2.219473218593201805e-02
-2.153288851742037602e-01
7.343866163291310478e-01
-4.311981392643557398e-01
2.263505877388453935e-01
7.431474405435495312e-01
-7.748434633862376630e-01
5.302823048498618297e-01
2.124626880447675614e-01
1.014975577010657881e+00
2.175559016657734324e-01
-8.304256092194507444e-01
3.391924367086994740e-01
6.632902165943552752e-01
1.119372628688596327e+00
5.311794057065319929e-01
7.429809448445622022e-02
-1.979521127560020244e-02
-1.105917381701143398e+00
7.574783683802324141e-01
-5.679826642722770602e-01
7.968469934647079977e-01
-1.757274460904401925e-01
9.925763166667136428e-01
-1.791816660599569122e+00
-5.323771869400194534e-01
9.618196154569278681e-04
1.326351973570835563e+00
-9.845106172922027943e-01
-7.216338934736576949e-01
-7.228867886188551362e-01
2.679806340647045704e-01
8.779484000075233885e-01
1.189320815293437361e+00
8.337101512104760914e-01
1.890477738791170426e+00
1.294054616087963572e+00
3.420132720791577707e-01
-1.085190762232062234e+00
2.766863979914856997e-01
-8.175819450640923192e-01
7.534420458281773092e-01
3.275830400222620731e-01
2.095207809847888514e-01
5.213372083711451666e-01
8.047240443165863955e-01
-2.842967924667605950e-01
1.280446868091599910e+00
-4.542298588237643209e-01
-4.645182731347666238e-01
1.481234304686969150e+00
-4.592463862222739279e-01
-6.376013247967482478e-02
-7.833537283316366340e-01
9.949165638719232874e-01
-1.632140861871472226e-01
1.237172949054577975e+00
1.714703937602083117e-01
1.108058111435138215e+00
-6.138850441656291679e-01
-5.048972397835616022e-01
-4.084314106673047617e-01
1.065058996516094481e-01
1.475418514729254449e+00
-1.352957932851831746e+00
6.356731245198692370e-01
5.537104100909374660e-01
-1.749449799938309624e+00
-3.988115602395526649e-01
-7.339115039385940564e-02
1.012083317722219489e+00
-9.524077851113300630e-01
1.396986312251276896e+00
7.514113002521561890e-01
-8.301469881466095879e-01
-1.382535843855006719e-01
-4.625085375420457945e-01
2.468992531877901797e+00
-1.446681464898649794e-01
-8.637941012773019400e-01
3.666678739195228798e-01
1.081419938447076179e+00
-2.788224103584731051e-01
-4.910110536716213447e-01
1.723137267198454836e+00
-1.887604862031230679e+00
-8.500302855387380507e-01
-1.014857544697792102e+00
1.509795443705032714e+00
2.009384475586375174e-01
-2.634974329326149611e-01
-1.596911797625423513e-01
-6.752184372779073129e-01
-1.728093883959764265e-01
-6.741997903766258071e-01
1.035634472642883441e-01
6.235107389450391668e-01
9.783895338235698569e-01
-2.522527538169033523e+00
-1.246256775559316354e+00
-1.368047757761870598e+00
-1.378892159765712444e+00
9.978757949727228294e-01
1.719824479933748096e-01
-8.039050926385549189e-02
-4.009959689113923309e-01
7.453995880106097094e-02
1.235113501188787488e+00
-7.300730233431584892e-01
-9.909345815526470203e-01
-5.626398290712949501e-01
-1.571492221292333513e-01
6.357238362976591617e-01
8.426752109611930219e-01
1.487463429066353260e-01
1.007497475066239767e+00
9.793845443619240143e-01
-8.496898414723040860e-01
-2.198015509810975487e-01
1.515829362385285428e+00
-4.635110244560031179e-01
7.514957594670195196e-01
-6.913762741919020627e-01
-6.148412173041204465e-01
5.350054425681161074e-01
-1.356664884341673094e+00
1.336255382469120123e+00
2.520297951756874877e+00
6.961246893602590635e-01
1.445163417033614506e+00
2.257243125100300229e+00
1.287148950190683871e+00
1.122396352881358667e-02
-8.958679896814419896e-01
-6.269790714631834350e-02
-7.035410000223519811e-01
-1.203056611950562127e+00
-1.709263604273372428e+00
-8.085986646715551673e-01
-4.928102101410747338e-01
1.145791231746161154e+00
1.684120200704662396e-01
-8.320510218375527511e-01
-2.994140700303906111e-01
-5.880295125171395298e-01
1.191282469301419844e-01
-7.730083763662823904e-01
1.222742653845152461e+00
9.317778702247270228e-02
7.405679969529084250e-01
-3.916378645932618863e-01
-3.835423423053176406e-01
3.071702017164127524e-02
4.029330557929545198e-01
4.874575283921762092e-01
1.065047374241135492e+00
-7.846757761625224870e-01
7.092177601912977858e-01
8.027480382874266907e-01
-5.777614615214208410e-02
2.868856736495892790e-01
-2.855055634084419647e-01
-1.343588503754552965e+00
-1.713233271104936664e-03
-3.731964648853136612e-01
1.797682744329448246e-01
-6.325671302054842737e-01
-9.589015542903410738e-01
1.122462854716298031e+00
-1.261981807399962241e+00
-2.123687155880808142e+00
2.545331269486628689e-01
-1.352775221211750534e+00
-1.413085982820942998e+00
-3.481617561202121625e-02
-1.806084083470757828e-01
-4.391621099729962063e-01
1.294447081898330465e+00
-1.079444560582987434e+00
-3.732516077183953285e-02
2.005369563301407698e+00
-1.044314821305811991e+00
5.854969935488060218e-01
-1.242935355463623409e-01
-1.470005949358080544e-01
-7.053550578294865980e-01
-4.349893385947131152e-01
-8.759442923745638931e-02
-2.150691896816345899e-02
9.977592736522493677e-01
2.555416247773820260e+00
1.735586623417484597e+00
-9.389862159783686213e-01
-3.243245462538715262e-01
-1.594262510212144379e+00
8.244206114299642563e-01
7.533900584338889539e-01
2.843511964470923914e-01
3.001591406394048533e-01
-2.326494197914837692e+00
-1.025465779463474059e+00
9.511909192054550377e-02
3.241615910268613177e-01
1.831892731625143350e-02
-1.409364832799029355e+00
4.432818743172726172e-01
-1.410048151426132712e+00
-4.774227436557689219e-01
2.255026980504997169e+00
-3.502377507683629987e-01
-6.217273956633909693e-01
4.725769025448151583e-01
-3.719873485500872490e-01
4.495200336929099372e-01
-1.132282176559568088e+00
-1.636630705478186565e+00
-7.854630940476277079e-01
-8.051818654413109844e-01
-6.712265415839704374e-01
-1.693893367071798162e+00
-4.340095936918584862e-01
-3.002250863567109129e-01
-9.096508009912737114e-01
8.090368696739538290e-01
-1.846505817854793507e+00
-5.991453110306008689e-01
9.189277807509114160e-01
7.747755810732304127e-02
6.034042203709240049e-01
8.945606728656456674e-01
4.650660325122260019e-01
-8.994271428520205225e-01
-1.953897945857646201e+00
-4.491656608789806882e-01
-2.138169884407241650e+00
-5.565712635459191260e-01
1.079800753289779980e+00
8.148743348542577536e-01
-8.025743112485272945e-02
1.684831670657359060e-01
-3.597335468415070042e-02
5.486967471111230399e-01
-2.706650779938564733e-01
-6.192617044750026167e-01
-1.278042133414666992e+00
-3.072834188137191780e-01
3.753507687961971651e-01
2.130169861014983290e-01
-1.680229809291590160e+00
8.961031409895907629e-01
-2.430986561397305568e-01
-3.537451307725993366e-01
1.013478385993204833e+00
1.329016992395732899e-01
4.704933690350381892e-01
6.821837578181786377e-01
1.574994801411739864e-01
-2.341821374940844525e+00
-1.178247248810760789e-01
-2.147082055465257266e-01
-1.310639793602942582e+00
1.840339664460935720e-01
-1.906315693867591254e-01
-1.887238315062210958e+00
-2.633841861673854812e+00
-8.014688966532531600e-01
-1.050517567454889722e-01
1.765908284721414145e-01
3.894094090198496616e-01
3.009062612341281140e-01
1.464369277520320145e-01
-1.731819352674197177e+00
3.742409299309808479e-01
1.979596613486745427e-01
-3.038879376379682307e-01
1.322766676198913638e+00
1.642066934851472482e+00
9.586867196068850350e-02
4.298827413889676485e-01
1.822281555012589038e+00
7.208773257221845476e-01
-6.618362243377644560e-01
-4.197499317978271027e-01
6.580663647346713940e-01
-1.644729717539376024e+00
2.827984097691559340e-01
-2.435570743701228336e-01
-8.251757345706517421e-01
-1.033712467287557918e-01
6.170548915570508441e-01
-1.008974136653325963e-03
1.247944630086612827e+00
-2.028522234949590164e+00
-4.273560085528165242e-01
-5.530497721522335125e-02
-3.032531380603140092e-01
-1.340168725874451461e+00
-9.735537663672606812e-02
-4.776619432096843726e-02
2.789439406917885722e-01
-3.072452416402903785e-01
3.432048570984083669e-01
1.107186700848170890e-01
1.033918552680772818e+00
2.264572111787789277e-01
-5.953987285240561755e-01
2.118446654284536379e+00
3.637150251635992704e-01
1.024898812990101105e+00
-7.976359553152151394e-02
-8.035836943105046926e-01
7.612206000084306701e-02
2.114566472861664437e+00
1.458378710603755124e+00
-2.764749216969925039e-01
-1.160264360365651726e+00
-7.501933948367855987e-01
2.868651912490860489e-02
-1.049386786776552727e+00
-1.411927687572892109e+00
-1.321459215969096102e+00
-8.179956334303645216e-01
-1.302121525998973128e+00
-1.662707768078650838e+00
2.058491307337451948e-01
5.517369088980970115e-01
-8.516362237963385207e-01
-2.513558160275809694e+00
-1.214903597563124077e-01
2.296918150905751688e+00
-5.845270925147690866e-01
-5.344526741066185638e-01
-2.685583171940052472e-01
2.130512383651594066e-01
-3.291941649180378238e-01
3.953571095492753873e-01
2.247629169529861970e-01
1.549544453162818858e-01
-8.919576780922265635e-02
2.465111334179423755e-02
7.778313780884841266e-01
-1.646499778627453781e+00
-1.897966042528396180e-01
-1.200393693790346161e-01
-3.969022944989359925e-01
8.880550331548121568e-01
6.897004822886421138e-01
1.737347276461243206e+00
1.571185485942543592e+00
-9.853692806204211729e-01
6.029292681922699959e-01
-6.178549264848932632e-01
1.033255405515906000e+00
4.743565061521515247e-01
5.288754153695703897e-01
7.457022239852445500e-02
-1.604402678810239680e+00
-9.793059478630576908e-01
2.925932560789577461e-02
8.617923445623223433e-01
3.342301222090529600e-01
-3.502594074760963516e-01
-5.551917374089772039e-01
4.828654842365340261e-01
3.143234155900558879e-01
3.900588022032120961e-01
7.824135167150986225e-01
-1.147119494285070651e+00
8.955816031001041511e-01
4.006669985027657699e-01
3.146232289783006397e-01
1.427755620082302279e+00
7.034851364089253489e-02
6.403221200489944698e-01
-1.827693278430496740e-02
-9.420129519015363329e-01
1.836202993337299860e+00
1.255681034733340251e+00
-6.118409361018712911e-01
-3.835966377646646969e-02
2.638858138241617080e-01
-1.632918468448780303e+00
-4.211565066063248097e-01
-1.314088204882809530e+00
-1.086702993986232713e+00
1.978615577651587909e-01
-8.672251658324602319e-01
6.504415022748396558e-01
1.934742849004504661e+00
-7.073372337562903178e-01
-8.649899889891259352e-01
9.218476690490845504e-01
2.445616618300094636e-01
-1.677497047850050826e+00
-6.419377340910235041e-01
-3.776245244045647320e-01
-7.812368445881430201e-01
1.979811643533281595e-01
1.209988896849264250e+00
-8.899249322922899719e-01
2.102605628122375059e+00
-7.227496791426144540e-01
-9.670450653018194398e-01
6.181843533557269676e-01
1.470572828767327256e-01
-2.224473760282112411e-01
-4.094495796834789481e-01
7.363746795773162823e-01
-3.018815079545902336e-01
1.414392728774721109e+00
1.351328909028041425e-01
-3.305437203111111222e-01
-6.090826852259290103e-01
-1.194604160631056011e+00
1.840516597349544925e-01
-1.492365042638932049e-01
-7.394886438685749352e-01
-3.710841211620261731e-02
-1.556204553314738614e+00
-1.411505189174019126e+00
1.938238325998777323e-01
-7.343578941836831353e-01
-7.283353902600134266e-02
-1.552627768997434599e+00
-4.594448011844414204e-01
2.990568607683530972e-02
4.605607278121728876e-01
1.731861611682627422e-01
2.242833613378634461e-01
-5.524222364383140071e-01
-1.155048730859587813e+00
-9.964171204204886889e-01
1.062605428415923425e+00
3.515721552580797216e-01
4.821809327667214706e-01
-1.371720724540588909e+00
7.159549281849997282e-01
-1.093907636302489550e+00
-2.595684472988522007e-01
2.757552272098911517e-01
-1.729981197616006883e+00
4.970101109477263746e-02
-5.842440556217967096e-01
6.369179366208660431e-01
-7.362566086888755468e-01
1.297287656380756715e+00
4.816556134451900895e-01
-1.384587678145609457e+00
2.915941288502598705e-01
-6.122974551508959529e-01
-6.280885397377213852e-01
-1.273876610682914023e+00
8.498518854852936399e-02
-6.259090780869535076e-01
-4.570352688304406552e-01
6.064235851793218224e-01
4.471832445158272461e-03
-2.187004338033921025e-01
6.609625375709360373e-01
-6.968249543263440593e-01
-1.524844062918765120e-01
1.392200451297661568e+00
1.578416336835092082e+00
-3.219312944522686459e-01
9.388911132121388059e-01
-3.817108058341010524e-01
-1.066084192329743052e+00
-2.166056403342823122e-01
1.853521584151538892e+00
-8.681194452421334695e-01
4.117805154981753479e-01
-7.990913944928508261e-01
2.419975959455105408e-01
-1.630438419976479869e-01
-1.036618191624846919e+00
-7.889097097684281135e-01
-8.578025149788749415e-01
-4.075184476780337461e-01
-5.570895590171175416e-01
3.954333843142230354e-01
1.931297901418005947e-01
-8.273538907069607484e-01
-9.354058865646504017e-01
4.999174336113460515e-01
1.341588649868752370e+00
4.661888143750383406e-01
-4.986148356308963137e-01
-1.186027087627189225e+00
-1.712395128285239432e+00
8.012006322666711533e-01
2.881717390797179368e-01
-1.165957858441392769e+00
3.826383603412132350e-01
-7.878725142483840038e-01
2.757634019897683975e-01
-3.204325279019803463e-01
1.539102548394656100e+00
-3.505318491658584446e-01
-3.372380831047135374e-01
-1.232669437979520444e+00
-5.316867985030576671e-01
-1.087345083344769980e+00
-1.076181478217361098e+00
-1.603420510888953654e+00
8.140180911027176114e-01
1.414823806746922541e+00
8.474537660062779754e-01
9.216052889105873502e-01
-2.561015941092196213e-01
-1.506735590182729734e+00
7.057004232920374154e-01
5.235019923252552942e-01
6.618123254296415237e-01
1.968027998579775950e+00
3.590360756987887036e-02
-1.772450055558490778e+00
-2.597690418664495016e-01
1.037955187815741809e+00
8.268313710530985627e-01
4.960562348625687235e-01
-1.157767072723274282e+00
-1.621923491740548728e+00
-1.941863504210594449e-01
1.077168409188131726e+00
5.998253568976096295e-01
4.924949563656245699e-01
1.908266176360295052e+00
1.102167974981006937e+00
-9.760955060390188454e-01
-1.224629500206366739e+00
-1.831073557136710661e-01
1.074692460141333683e+00
5.040690240197551741e-01
-3.939423403684316066e-02
-1.028839946598718580e+00
-3.614406756150151390e-01
-1.494169586400422522e+00
5.805122926868755417e-01
5.449022586753864417e-01
-9.800796138509219046e-01
4.903311134865352000e-02
-6.120879850725865490e-01
-6.295532637476333182e-01
-1.530913157855213536e+00
1.232845569677103015e+00
1.708971557008388764e+00
1.301817765085819367e+00
-4.720204239200340157e-01
1.597810848565435482e-01
4.798496249855872531e-01
-1.900582826368893974e-01
8.351413496339504805e-01
-1.765989633864757824e+00
6.023780331767364382e-01
5.322531088608391248e-02
2.001831917120611426e-01
4.422116670091943424e-01
-4.470846745535107108e-02
-1.117280014339767868e+00
-3.541649490760664931e-01
1.503348065927501365e+00
-1.049733917106009828e+00
1.264317365103310165e+00
-1.247077849368126046e+00
3.126627478366488244e-01
5.417607923281200222e-01
-1.203338474052611407e+00
4.578897161210184752e-01
1.065694635423000830e-01
-6.848964306879392616e-01
-4.395430842278232747e-02
-5.306610497711689023e-01
-2.165413053472928340e+00
1.385504738271815084e+00
-2.008174516705168444e-01
-1.765551999055755550e+00
-6.843300742430956651e-01
-2.946916529320969813e-01
1.558557298624271503e+00
-9.125116137775898251e-01
-1.181204366021411767e+00
1.032732834221769647e+00
1.418586576431233537e+00
-6.774088845939367776e-01
5.794072347136330903e-01
-7.851426008415852698e-01
3.689186049532638956e-01
1.946826295535916351e+00
-1.007468356097219964e+00
-2.050741812791715191e+00
9.095360853420235703e-01
1.393804200053343045e+00
2.435400036392954826e-01
-8.615259941194106652e-01
1.942822182622410410e-01
-3.774804005548997119e-03
7.210311237620380398e-01
4.275433145410509339e-01
6.377262130466352374e-01
4.760473673015795382e-01
-3.032114600966200890e-01
2.300738764867617525e-01
5.612023353568983408e-01
-2.637925701873825579e-01
-1.502997025935650210e+00
-2.432101059284608735e-01
-9.142117434714963631e-01
2.294646592109077066e+00
8.852532480351021915e-01
2.526684526332552139e+00
6.580119332689045031e-01
-1.551741970183997121e-01
8.189266153338208287e-01
-4.638679216463481025e-01
4.933104553845034101e-01
1.231171938461262272e+00
1.537824565599611726e-01
-9.106338227680107478e-01
-1.475349284549271722e+00
1.378318381362646505e-01
4.910726860178363934e-02
3.907174053638221012e-01
1.091444345285673467e+00
2.702692100741264647e-01
-8.019703221432594731e-01
6.104564878725214638e-02
4.031556083935877166e-01
-6.770268538723713814e-01
-9.256697640256402737e-01
-7.507425432128957965e-01
2.382325967324830096e-01
-7.405000857182332252e-01
1.708305194643146008e+00
1.150379970601216550e+00
3.586614887756865766e+00
9.620034541360703573e-01
1.077921845822118474e+00
-5.444455999715954730e-01
8.276257284912759138e-01
-6.957523561777549936e-01
-2.832151852983453080e-02
-1.227340474509121260e-01
1.311164273684755077e+00
-1.112707627916487807e+00
7.110033692484976076e-01
-1.649100413742385918e+00
-8.628459918565959397e-01
