1.128231419954466963e+00
-6.704729237043194345e-01
2.039267183535687256e+00
-7.330144533767283255e-01
-5.790538832340206277e-01
-1.498281974998701527e+00
1.073276645564583465e+00
-1.984701696093044698e-01
-2.431222995062127246e-01
-1.221541417018713105e+00
1.206665515379344189e+00
1.805455102570338477e+00
1.906469841639401475e+00
-9.731063536003807801e-01
7.020660655860965216e-01
-1.517943028948142703e-01
8.510511870683260538e-01
9.282430243061305930e-01
-6.928331982339077655e-01
-2.386288405925691247e+00
-1.763842949937671545e+00
-5.339378807585169057e-02
-8.127251310568703868e-01
-2.094554176403354617e+00
-8.468725562041741484e-02
1.731895866590076327e+00
8.259957274762963486e-01
6.906314606323408212e-01
-3.389216993858797933e-01
3.518486539245334055e-01
2.261022465646636892e+00
-4.814477423634004327e-01
-1.509552424601212861e+00
-7.704356178020910217e-02
1.351713506336879922e+00
9.963190687562302195e-01
-1.707473867996263661e-01
4.694626455250460739e-01
1.387761900169731222e+00
-3.382046031101847428e-01
-1.305738092692780405e+00
-1.709453737361929238e-01
6.542392122922184861e-01
-3.249573308046815323e-01
-1.247251275997383946e+00
1.319898967758605268e+00
-2.198501958446407167e-01
-1.031716749910249753e+00
1.442033334684807766e+00
7.731510076545523857e-02
1.363201442282662157e+00
1.182895209898705779e+00
1.336609720384854816e+00
-9.167548123096481705e-01
9.742602790967493931e-01
-7.402012765619553347e-01
7.604066902426070973e-01
3.398795825092234546e-01
-1.594359137152668859e-01
-8.030811083452156218e-01
2.078057445460615771e+00
-7.094057322095483897e-01
-1.162889309901817381e+00
4.359394539206141173e-01
-2.799342906567691899e-02
-8.000077097149006500e-01
3.397229897122124864e-01
-1.139260278417526528e+00
-1.818328016934466440e+00
6.609610224320450200e-01
-1.138567938884630815e+00
-8.440385823952609168e-03
1.473935857903443614e+00
2.330773729009447126e-01
-6.738590183513020193e-01
-2.323738444351705068e-01
7.141686852051436496e-01
7.107093195289713172e-01
1.037590736666766933e+00
9.076336311689718883e-01
8.721050158195259305e-01
-2.049925618097415914e+00
2.748644692045081328e-01
3.098290571813776539e-01
1.708338226652744984e-01
-7.064782298969052299e-02
5.432011629004903641e-01
1.603964456841205033e+00
1.199893055295106342e-01
-9.032373581039742083e-01
-3.349774525349338283e-01
-2.743538235617847265e-01
-1.635716842118893455e+00
-1.860449609703727747e+00
-2.836499250866591826e+00
-3.769269062597252473e-01
-5.365022732631015145e-01
-1.550061388210467461e+00
5.857880120984780559e-02
-1.334138287266425804e+00
9.939607849453936383e-01
4.519722834819639434e-01
-1.454389406875378654e+00
1.277787093026032883e+00
-1.050672588334726321e+00
-3.617635027645670354e-01
-4.734822185763793989e-01
8.884117756544821498e-01
-9.516308638001879858e-03
-3.717690728818420220e-01
1.215214749365188807e+00
-1.602997854046822823e+00
1.373791390739372842e-01
1.227797594690521188e-01
9.891532959006164027e-01
2.379807860166480160e-01
-1.378480822806370520e+00
-8.535515879916127924e-01
-9.239428604140398349e-01
-6.817085827850623003e-01
-8.170110144905035066e-01
7.362667009766507564e-02
-1.482974267001637037e+00
-1.868046267963332729e+00
-5.752310422406335944e-01
1.028484748231909718e+00
1.851009761209700510e+00
-2.018606486025722013e+00
1.517219286829075031e+00
-3.538167842834502586e-01
3.039302102778052017e-01
-2.332254176338866836e-01
1.962542826158523712e-01
-6.692471499104057919e-01
1.121721432117061656e+00
-1.611767880336734793e+00
-1.739220850749296110e+00
3.498548009614143028e-01
-5.780411336913789944e-01
9.500390789378311274e-01
-1.741068833658098836e+00
-9.116675417759703137e-01
-3.437428615134313636e-01
3.013157316961885823e-01
8.702661347063540553e-01
-1.076200086207858231e+00
4.866669589063267742e-01
-6.590815886598081486e-01
-1.479443842493418204e+00
-7.097718216139982106e-01
8.809592244775521497e-01
-2.490844899451267747e-01
-1.574293160254245594e+00
2.364200084092304196e-03
1.072825266472609229e+00
-1.310702460656170798e+00
1.350892177566140884e+00
9.981452259003221750e-01
-1.163586113812773437e+00
9.100365024358724186e-01
4.449242598969720408e-01
-5.532522930808185802e-01
6.826459377294075148e-01
-6.376909519149990269e-01
4.512169089620606671e-02
-4.200178384937517939e-01
8.103764549049740085e-01
1.298684899356940536e-01
1.479442287110910581e-01
7.937701431435725263e-01
-8.680298613182638734e-01
-8.541950238433874132e-01
-3.278674423950865835e-01
-3.531514956453425946e-01
-6.646123718096265121e-01
-8.499770694346253652e-01
9.092038517174715062e-02
-5.244667032573260279e-01
5.753204552242665581e-01
-6.910653931743184764e-01
-1.142503759986898959e-01
-6.149780573537450001e-01
-9.659794153258316474e-01
8.086240921847154262e-02
-1.788600338243645727e+00
2.277607834247591112e-01
-7.032510014430889411e-01
-6.911669855831233111e-02
-5.729141618266955227e-01
-1.285304274925486677e-02
-1.889680908542769257e-04
-8.259705461373322288e-01
-3.074040426335313825e-01
1.803775765528269792e+00
-6.904947261283078674e-01
-5.278028102033540669e-01
3.918224535673912046e-01
-9.064488927565150789e-01
6.877727184240678415e-01
-3.904225944370302570e-01
-6.767223379468391142e-01
1.597100263956988953e-01
1.057615470130680357e+00
-7.051575224850704648e-01
-1.132809958478887769e+00
-2.622811782511584422e+00
-9.266757502160566373e-01
5.577036481863933970e-01
-1.743610096852590940e+00
-8.108892201673880695e-01
-1.348358978356373639e+00
-5.799200238079281755e-01
2.668920972406745307e-01
-1.401334808632067330e-01
-8.103727540970627752e-01
-5.170177988506526878e-01
-1.766768520581450730e+00
2.652137860012208082e-01
7.446511482549569294e-01
8.695706522488930723e-01
5.994230892814729206e-01
1.731099210591606763e-01
-1.909074498506724837e-01
-1.343390508562759766e+00
-3.839862736571271751e-01
3.108030414346649173e-01
-2.397298473855705936e+00
-1.107559907331480131e+00
-7.870971881420359972e-01
-1.170303692832740827e+00
-8.252152204734863883e-01
-3.431013854317611911e-02
-1.258262041678509302e+00
-7.325127442702561442e-01
-7.652012333340095784e-01
-4.713100340793065501e-01
-5.745494392227928904e-01
6.541743425225082786e-02
9.566009720970208852e-02
-1.474643202349804394e+00
9.384087142691248662e-01
-7.076786868939884123e-02
3.277649203683541956e-01
2.891529521467667285e-01
5.670454422922809323e-01
-2.469698554160250636e-01
1.100853258524936873e+00
1.018312158938559309e+00
3.751250533128928644e-01
-3.741518401672442873e-01
1.445771877609863809e+00
-8.106585709202208667e-01
-1.147756364992332800e+00
-1.054071436109745630e+00
4.407979667560047998e-01
1.028062612319483149e+00
-1.221367370119105455e+00
-8.344640577341526644e-01
1.165125246827530381e+00
-1.534622467574404958e-01
1.907948252896061847e+00
-4.913757743295393832e-01
1.308335688318984502e+00
3.206720118479472470e-02
1.193734983467017008e+00
1.503232805393723004e-01
5.671943551793982852e-02
-1.139589065164429815e+00
-2.045846206513214138e+00
-1.980853498048719130e-01
4.057478039950369597e-01
1.542916948482698336e+00
-3.811712430857473466e-01
-1.029241552083558497e+00
3.431101409361747012e-01
-2.160778028917634597e+00
-4.371133650505483192e-01
-1.540219659146176534e+00
1.516311455521534679e+00
1.058048383084009725e+00
7.200385666021469344e-01
-2.186672430842658554e-01
6.422018463847491976e-01
2.627874835303818934e-01
2.495200724941090797e+00
2.476822772049016130e+00
3.858481974792443148e-01
-2.171453596960973287e-01
6.371002139777202922e-02
1.309897462237776367e+00
2.199031628079072487e+00
4.088718411704275191e-01
1.487354010123788539e+00
9.409645636258908707e-01
5.370908132002026880e-01
8.256455059405285457e-01
8.505978324856100503e-01
4.326090915262938430e-01
1.120552135862258991e+00
-8.547070864521814915e-02
-7.463895863691146770e-01
2.446244355462845466e+00
-7.782995418877584892e-02
1.908006182556158947e+00
1.782603951903743322e+00
-1.453793662996434755e+00
-8.616885033589728737e-02
7.949021393926033463e-01
4.748875009899116151e-01
2.794921376424266968e-01
6.392609545254251957e-01
3.763443740736271415e-01
3.576340850138164107e-02
-1.305730910040595161e+00
-6.090152608512854338e-01
1.199923374286832267e+00
9.007229737080265641e-01
2.010216737193462944e+00
1.690165798471881642e+00
2.178932812544466469e+00
2.230069597741919374e+00
7.798188843321797181e-01
1.862873533561129724e+00
2.345317276000238760e+00
4.919547125075468541e-01
-7.068253249183557019e-01
3.625708541223809922e-01
1.134376698049903931e+00
7.301795458627823310e-01
-1.036245186180900113e+00
1.236447612285235031e+00
-1.745403507839665136e-01
1.023618856099568042e+00
2.224938843495601060e-02
1.511475734517603531e+00
1.637289724903236543e+00
4.890745823269650877e-02
7.749739245256594133e-02
-9.407451699838653703e-01
-1.215267562575180094e+00
-8.171061925204391452e-01
1.000202857436721660e+00
2.667135705247764665e+00
1.293512337377342059e+00
8.964130282313109710e-01
-1.619855518519273785e+00
-8.465107346806162447e-02
-1.710337418051487979e-01
8.680693035166809901e-01
8.060316844636945532e-01
9.321427036204513183e-02
2.901587246516299651e-02
4.340549286276484398e-01
-2.289166171097390401e-01
-1.561274660567769645e+00
-5.746620995832937284e-01
-3.384787870486222761e-01
1.050101341497522656e+00
2.246981399483131692e-01
-9.125967726937118663e-01
-1.288435235100825194e-01
-4.135205593689460501e-01
3.323981195821963830e+00
1.443030799883448179e+00
1.178439000018088600e-01
-1.440486230160949788e+00
-2.004961714354513980e+00
4.235027788777125934e-01
8.791079312005888047e-02
1.449527675994955578e+00
4.221163078575245198e-01
1.072154001626862474e+00
-4.407163414669421631e-01
1.810862450758224940e+00
-1.382524268208047413e+00
-1.613000806452825064e-01
-1.933266011169688214e+00
-8.408474827303753507e-01
6.384899789612160648e-01
7.335450334861940425e-01
9.793403877761717169e-01
3.436018595056327674e-01
3.371448115933218803e-01
-1.253643506627961368e-01
2.926923121556256890e-01
-4.461992687163016669e-01
-7.427522623478443053e-01
3.116004807717171476e-01
1.918771909587135560e-01
-1.799551316159822834e-01
1.278268144078910540e+00
-1.084396345009917439e+00
-2.215639384049787886e+00
-1.114978698702480786e+00
-2.214937381870321631e-01
1.075261433846304904e+00
1.493152134741038140e+00
-8.639196824351980109e-01
-8.175518048276365635e-01
-4.282172927870370183e-02
5.567707795060230502e-01
-1.254945136294369545e+00
-8.871675736355232322e-01
8.434949246430897274e-01
1.743313011753548691e+00
1.026951163334904216e+00
1.126333868193838850e+00
4.329012609508680054e-01
2.455932595639337634e+00
-2.574117177319695249e-01
-7.619460354098006594e-01
1.127078642658380980e+00
7.297116891418449491e-02
-1.132943622081558979e-03
-9.849177542196220214e-01
-3.045450232491891951e-01
1.197745178004950561e-01
2.028725656394332777e+00
-8.876981236815243426e-01
-5.332388798475174996e-01
8.472460370917495043e-01
1.911860853610796385e+00
-1.453612560799441900e+00
1.278567277708276273e-01
2.209131179349105967e+00
-4.123549518860253893e-01
2.833029319763426535e-01
9.192011520471256025e-01
-3.770091791328043507e-01
-8.564823549382316603e-02
6.789071627024801936e-01
1.122738892660214871e+00
-3.430975903506382901e-02
1.917919079664176518e+00
3.032532556751734165e-01
1.716863121065930642e+00
2.076098968849382498e+00
-3.530325706978661437e-01
-6.967420131759196611e-01
3.553125266173551289e-01
-2.518097131017039469e+00
-2.786178240397039763e-01
9.280784877417845857e-01
-2.730256510536082648e-01
-7.327272766430428241e-01
8.512493131586271744e-01
2.488638067213548299e-01
-9.958497420553128476e-01
-2.673341349956170898e-01
5.102149232851665994e-01
-1.177971985423017509e+00
4.187486216350033014e-02
-1.234632581078315638e+00
-1.604020923322995396e+00
3.957474983317112449e-01
-2.418724480258005460e-01
-2.078545951346414677e-01
8.245437933178472178e-01
-3.634285691021684195e-01
1.170975648427798443e+00
1.837791571717060313e+00
1.102596739365497847e+00
1.397585790779132031e+00
1.252795077784280009e+00
5.712439776453053231e-01
2.490158856072557936e-01
-1.052303494713740628e+00
-1.821690395188005240e+00
-1.074310844002511756e+00
-8.657366678914507618e-01
-5.522541198229307113e-01
1.444522406385806867e+00
-1.501215576957439346e+00
7.467984497711762648e-01
1.675278934645644924e+00
1.435660304285234723e+00
-1.145617449010172484e+00
-6.474834054801492655e-01
-1.845382556231090598e+00
3.701046641054993591e-01
-6.166336133680009324e-01
-1.527932778004227554e+00
-4.711321368614390659e-01
1.609725342250342972e-01
-3.033743574428866552e-01
1.294707080213808981e+00
8.379138529785774558e-01
3.431924293618391908e-01
5.573803054065520346e-01
9.485678306056355424e-01
3.483552376213350232e+00
2.460614477605554129e-01
9.820825456890157623e-01
-2.054685534427323379e+00
-7.686161634095037831e-01
-6.666014781227583841e-01
-1.950018477364327818e-01
-6.483301589300868306e-01
-7.388234419472518022e-01
-1.502134925185957481e+00
-9.007827486638013692e-01
2.228260949689701009e-01
-9.763865232673958339e-01
1.452748415366317492e+00
4.669405946339793556e-01
-1.540706621267516230e+00
7.410142731233549940e-01
-7.248389377182921922e-02
-7.290083768751386140e-02
3.300603047368053100e-02
1.311237103753495337e+00
-1.476942491547370118e+00
7.470150872429134337e-01
6.044738734018542115e-01
1.484057622224016715e+00
1.642727361690878574e-01
6.348264196914851221e-01
-1.152590444129553360e+00
-2.951326777720629790e-01
7.389612156013145583e-01
-2.160657037853194407e+00
-1.328516964697112446e+00
-1.290733248138866696e+00
-2.021862768339597882e-01
-2.978295077492104648e-01
-2.906161312342997682e+00
-6.061733914275819757e-01
-3.258810625076220546e-01
9.235840357800071398e-01
-1.063068218679664501e+00
9.758015275706786174e-01
-5.874744887990531739e-01
-2.499324612380399435e-01
-8.875116591768160423e-02
-1.209712196792960048e+00
-1.853392270441316936e-01
-4.499141899725209726e-01
-1.331444991054474974e-02
6.458507183895327852e-01
-2.010910830549655248e+00
9.471214831177303672e-01
-7.629792814434086523e-01
-2.537763652197163600e-01
-1.078088113067170228e+00
-1.838052677161557735e+00
-2.549652207246386193e-01
-3.903570930877585665e-01
-4.004273390261944954e+00
-4.913769458379949051e-01
-1.591534082996884036e+00
-1.296959303604545477e+00
-1.503999850055613319e+00
-1.338636905643031949e-01
4.523522015501552085e-01
1.440561485191900193e-01
-2.020693082100863125e-01
-4.918543289404997410e-01
6.836112955174676875e-01
3.175490656755237256e-02
8.566203703399262182e-01
-1.704682508379474992e+00
-5.010961179239711294e-01
5.679235675254729054e-02
-2.845238708355648516e+00
-2.406249091653015704e+00
-3.130135345661043123e-01
-1.019958954437451437e+00
-6.493654987494189290e-02
-1.761044048152326846e+00
9.193477588515247545e-02
-5.306948985887661729e-01
-1.686943573535309104e+00
-5.007465152853683987e-01
-5.023289879611758657e-02
-8.406968106593321055e-01
-5.529848845788379874e-01
-1.361853670048267739e+00
-1.585600712533212553e+00
-9.476001895779720963e-01
-9.788859157010193490e-03
3.265612105033665613e-01
7.925118632578151967e-01
-1.640635441182278775e-01
2.389275218503858766e-01
-5.098920923431774499e-01
-1.019685965480410655e-01
6.117151333904740085e-01
-2.095566256584876275e+00
-1.196987992798765194e-01
-1.661786659859176840e+00
-8.933375199666954147e-01
5.826275479135932800e-01
-1.138672248831473111e+00
-4.262834347723433726e-01
1.023671624568832650e+00
2.892206898284368499e-01
-1.453470223190982624e+00
-1.433997594063411096e+00
-2.122256680605460577e+00
1.213343585161219762e+00
-1.959928670442836696e+00
1.317075115575214346e-02
-2.393533803992744236e-01
-9.596688972682740904e-01
8.274971329291053168e-01
1.254579102594724382e+00
9.396468228507619536e-01
-1.905057862975311656e+00
-3.169392459092546521e-01
-1.395829619148710954e+00
-6.031564610333923354e-02
4.257318093281607929e-01
9.758258157713698422e-01
5.782113006170731540e-01
1.396430521014600412e+00
-3.781123640415564036e-01
8.718634025755402917e-01
1.500326924101661241e+00
2.084017869651743071e-01
1.309491269875175057e+00
9.685939126493624540e-01
7.159408155779901639e-01
-4.139772548006210307e-01
-1.272451910316094503e+00
-1.860592574489396078e+00
-3.698922612774142582e-01
8.746524296118358688e-01
1.306602990109821949e+00
-1.180936079932928928e+00
3.039813728353420452e-01
1.258652772811824416e+00
-1.801998260392854823e+00
-4.280341243597672596e-02
-1.043842236615541541e+00
1.982581034427472799e+00
1.891454796578125208e+00
9.093678504328717160e-01
6.405630804094722963e-01
1.387417964072582333e+00
-4.310467115649911363e-01
-1.486347439355820477e+00
3.320963057903802973e-01
1.045606999610770860e+00
8.187221972223217570e-01
3.574023915221274383e-01
-5.009938654363340627e-01
-2.777010562281544970e-01
-1.476445282024062625e-02
-8.491837554270705857e-01
-9.471264188608493617e-01
-1.317860757474005329e+00
-6.778663117543940464e-01
2.042177830069774325e-01
7.316363872109782340e-01
-1.818607205830780060e-01
2.323644067669753399e-01
9.250260644867162041e-01
-3.769365114280130019e-02
5.523323283780864346e-01
6.857273559491711135e-01
7.776522941323842364e-01
1.200542794749639874e+00
7.458517524104243401e-01
1.495250537028719906e+00
-2.880229609437551241e-01
6.203809240274701375e-01
1.716103827667464055e+00
3.431642208589835707e-02
-1.151552744226275848e+00
1.553819141060577280e+00
-9.781807251418046523e-01
-1.094902715280002381e+00
2.144296886174455741e-01
-1.425801485920244582e+00
9.827107274165298723e-01
-5.431590265120916916e-02
8.165792992581448750e-01
-3.297226566747458731e-01
-8.504064216096239859e-01
-5.792841577249646656e-01
1.168815381186713437e-01
-1.272032491790414221e+00
4.984586908335949390e-02
-2.886298456916853716e-01
-3.162051216524649350e-02
1.474807743772367785e-01
-5.794716330003565341e-01
1.112996893764175876e+00
-1.486333067581433742e-01
1.611861935553628333e+00
-6.539037685572516301e-01
5.300511552246881530e-01
3.658114291426448061e-01
-5.073749782276512077e-01
-4.786986818607592564e-01
-1.189524973992167889e-01
4.056021951090502120e-01
-5.445981690821751764e-01
4.855905310129003394e-01
-7.588415270851361916e-01
-2.561682176979818704e-01
3.882081779735371829e-01
2.648019893981174988e-01
-3.576870621345529799e-01
-2.403859626582593445e-01
8.192827698166599282e-02
4.599386063055574403e-01
-9.209030160491929462e-02
5.348110011671055597e-01
-6.272153887915350445e-01
-1.166996167377847504e+00
6.906111795303560008e-01
-2.526081620960142438e+00
-7.525326869140849251e-01
-1.019148760429478662e+00
-8.012583567254154548e-01
-1.293800464346297252e+00
-1.021820095456089872e+00
1.095240885681705717e-01
-6.012515832194138543e-01
1.315418684507330127e+00
-6.034011393386058408e-01
1.851261599548395531e-01
-4.394988704920216316e-01
-1.088712156473620629e+00
-1.932452818787839144e+00
1.113912065989250078e+00
2.204395452136500844e-01
2.623422843621243949e-02
-4.037687661401812567e-01
1.610283804090956838e+00
-2.177590226903825421e+00
-2.815476758232328125e-01
-7.479301146500103581e-01
-1.152839051858404851e+00
-4.681806888039807824e-01
-5.715576187922766227e-01
2.524318523833073979e-01
1.552171722902980777e+00
6.312152449489815131e-01
-2.123499606558188812e+00
-9.571441669800460073e-01
6.455258585235403856e-01
-1.380115222610686532e+00
4.719084622658000772e-01
8.847788518276779035e-01
-6.007156227359025102e-01
1.358382727845524052e-01
2.708908347179302956e-01
2.738450209343675779e-01
-4.084623942283095027e-02
3.320514157983106562e-01
-1.426974304738903299e-01
7.776242066225605987e-01
-1.365080940101868645e+00
-7.400573000641621491e-01
-3.551223696365206073e-01
-2.983330396243218385e-01
-9.095156024459909450e-01
-1.265599781148687653e+00
8.785113742340004972e-01
-1.498919487613212587e+00
-7.687068261746209386e-01
-7.317024047031853717e-01
-1.245567597940634430e+00
-1.446090752017955783e+00
-2.190108160268929183e+00
5.151003980257491399e-01
-1.622427939227813198e-01
1.015639130421201575e+00
-4.920417843727821761e-01
-9.243528361504012303e-02
-8.806393168439130559e-01
5.269789584369644064e-01
6.457719516111165570e-01
-1.623525961859829225e+00
9.472277721155575314e-01
-7.239248640257877065e-01
-1.220593541470847310e+00
-3.367384737170915354e-01
-3.416718537923019716e-01
6.343663265525992800e-01
-2.053727276149149183e+00
1.041159684521647755e+00
