-1.291435865928359128e+00
2.195056342201376909e-01
-9.125572983380184633e-01
-4.849827934453332379e-01
3.738596983416686559e-01
1.500134556214284931e+00
-5.135474273963634012e-02
-7.395778919879302249e-01
-2.142384148023603330e-01
1.432962875358293094e-02
-9.487399911508805905e-01
-7.590815233215184588e-01
-3.563154634390493514e-01
-5.566709582875561946e-01
-1.302136788073936513e-01
4.715939068608478446e-01
9.906534944617868543e-01
9.367437048284134038e-01
3.229063194971436013e-01
-2.482272109932597282e+00
-4.754230395273777443e-01
4.412024794520865156e-01
-1.744583966862685687e+00
-3.271089639655737069e-01
-9.393394257887179716e-03
-6.687262503995302643e-01
9.403127047929650262e-01
-9.365469314388743527e-01
-2.705699821724686857e-02
1.332392879956904030e+00
2.452752256251624630e+00
8.705846921393770588e-01
-1.190683809805814786e+00
-5.248156748035106567e-01
1.488598678805548969e+00
-2.406265125649006631e+00
-1.432455106847728699e+00
1.392232264348413517e+00
-1.078698627736914162e+00
-2.189163171539211916e+00
9.561385736074624608e-01
-1.300153707565569361e+00
8.461969110956655271e-01
-1.332463045025102932e+00
-3.363090278986000659e-01
1.000719281704843588e+00
-1.638751370740883839e+00
-3.076349685992504357e-01
3.446849853142589515e-01
-3.321253968578601334e-01
-4.358534810228422152e-01
6.483502062370604113e-01
5.115302152430382110e-01
-1.153779672692225144e+00
1.006218837994796056e+00
-5.037625399745498944e-01
1.810646504121912193e+00
-9.529359172752517315e-01
-4.708295468825100527e-01
-1.173681205875873601e-01
-7.291294549345223031e-01
-1.087644338262415133e-01
-9.793744271988104044e-01
-1.362018433187942357e+00
2.638485180345697678e-01
1.827651860123968297e-01
-1.144782991017289975e+00
-1.031161217648459916e+00
8.753185962533194253e-02
-1.011110809861038629e+00
4.875204659111972427e-01
-7.286842241838663581e-01
-4.709846115105863484e-01
6.314408348658074877e-01
3.203398831321350726e-01
-5.670556168946819242e-02
-2.211634472076901670e+00
7.509942073186499645e-01
-1.655865520806036217e+00
-1.273505195601457141e+00
1.353519569978312020e+00
1.437215569493532019e+00
-3.804856119333713815e-01
8.893003688377418836e-01
3.192430102920576496e-01
1.358807863513262326e+00
-2.208299452831657295e+00
-1.090252851775465881e-01
-1.254854828057814509e-01
5.089760547156255699e-01
-5.481935855435413618e-01
-7.887111158948065803e-01
-1.253836434520704035e+00
-7.717119616432716045e-01
-2.300408397655382131e-01
-3.694191274604159969e-01
-2.449571970261953613e+00
4.125543723272492858e-01
-1.244606619844404349e+00
2.027212513041665720e-01
-3.607596760382278389e-01
-1.594145953635092816e+00
9.350809004268939573e-01
-2.283129897389617025e+00
5.557958501967552589e-01
1.111659455582567624e-01
-1.354134094013684564e+00
-3.083907391536204190e-01
-7.099120968263170628e-01
3.244392417021476488e-02
-1.078878770466926706e-01
9.549452269624932876e-01
2.235030247585742813e-01
-8.760179669724666995e-01
2.110596525327196993e+00
-1.524536709086607988e+00
-2.975574021886700504e-01
1.122756927731768606e+00
1.869824745997228810e+00
3.087738286100427110e-01
1.139679677919534173e+00
-2.482104416560418692e+00
-7.053333933266254796e-01
1.811727519896376148e-01
-1.880512286369160124e+00
-2.474563999146305537e+00
-1.383695750352461840e+00
-1.205847405552285867e+00
5.626743903097640720e-01
1.097655544397285965e+00
-1.194974970390393909e-01
6.988212212152795644e-01
1.755820064457956686e+00
1.627785011893904565e+00
-3.026481001573352869e-01
8.983231426767851469e-01
-4.564988838571825136e-01
-9.962828919497589419e-01
-3.248668622208575885e-01
1.140501345062271188e+00
-5.723241963624559059e-01
3.155533116743982069e-01
-2.161607670934264647e+00
1.097316753988063276e+00
4.879806768493929470e-01
-5.561580012118722688e-02
-4.574234401855085674e-01
8.973966612860573289e-01
6.423216108020376458e-01
1.086024756454803536e-01
6.467761172503208034e-01
-1.372455207448404213e+00
-5.960891090304825113e-01
-2.728349423171605004e+00
-1.159575221392237898e+00
-1.200630975289683322e+00
-1.497413919430802931e+00
-2.102804285589165545e+00
-5.971621505318350787e-01
7.060270615881170109e-01
1.241322327490999911e+00
6.855342382120483968e-01
-5.091710928717044782e-01
-5.237644368462671673e-01
-3.774904340822144988e-01
1.150571124733958395e-01
9.373713012971104375e-01
-7.552442102624696840e-01
1.433650202914883709e-01
-7.279783727751986122e-01
-3.008380105447787667e-01
-1.258280386654661853e-01
-4.740141032150978484e-01
-2.971176341916362262e-01
4.797907984336426401e-01
-2.647512186505248666e-01
1.274551577247377665e+00
1.089604785829264844e-01
-5.616647678233008811e-01
3.579078445870721437e-01
4.604823839227902837e-01
5.394183691279531567e-01
-1.850778795289311773e+00
-2.350278480169653239e+00
-2.840647340738897686e+00
-2.178328791577704315e+00
-3.158525368914107401e-01
8.120282449482502107e-01
6.029319232084968672e-01
2.418596090792741460e-01
1.749794978957242231e+00
8.208185955539556433e-01
6.411701591372189757e-01
-2.995379089470664447e-01
3.312522730953380012e-01
-2.237290394281794548e+00
-1.681696694418191029e+00
3.111308901000879312e-01
8.433434296844237732e-01
-1.275256248045244734e+00
1.726260899362370260e+00
-1.949600361457657360e-01
1.080968500277788458e+00
-1.339560037814802596e-01
-3.246896075176800567e-01
-2.306167148394262956e+00
3.280017623631353185e+00
-9.035249321670034695e-01
9.767500041100804498e-02
-4.980952986662370297e-01
-1.044582479076577641e+00
-1.853424466774776347e+00
-4.465072610398694408e+00
7.506034352524423303e-01
-7.105356604117282204e-01
8.048651741309554852e-01
6.453575062753380553e-01
-1.617562185626953419e-01
1.376330222649882584e+00
2.830097318336124435e+00
1.214918312093046932e-01
1.194830236242945043e+00
-3.064470465184646053e-01
1.290405010649966523e-02
2.489206487400656975e+00
2.000166435003760679e+00
2.980658124709172907e-01
1.133824439611946788e+00
-1.522024723994040707e-01
-8.988733889856953541e-01
6.122646831543611112e-01
-1.973387069656104276e-01
3.105006538113338488e-01
1.547658112247531914e-01
6.330837658697293646e-01
9.406873128365373926e-01
-2.182517427489368833e-01
1.593216480373840893e+00
-2.538847892420798669e+00
-1.132544863417262127e+00
-3.132433595292976936e+00
-1.400471746211140456e-01
-3.975228904915475425e-01
6.028258381404135724e-01
4.858044061345604403e-01
-1.426729471628650048e+00
1.605918785983936859e-04
-6.170105590910487381e-01
-8.616925497391190181e-01
1.168957441921324447e+00
1.153905033620247433e+00
2.408269538432746160e+00
-1.832550513126200098e+00
-2.154697895522115769e-01
-1.791453941557529239e-01
3.817130224151517315e-02
9.580132599095777524e-01
7.276910585463891579e-01
1.521793077213487555e+00
-1.477337526795678535e+00
-3.287479452879675246e-01
-2.946181448616757570e-01
1.362236888588346517e-01
6.847422432398810876e-01
1.701747887306807039e+00
-2.803729857951735016e-01
-9.057889672007418680e-01
-3.636834899714142200e+00
1.534558809903974752e-01
-2.433632158176672611e-01
6.763578208143464776e-01
2.298448436037055509e-01
-2.487818072087752755e-02
1.387167290788812180e+00
2.000881172367915184e+00
-3.517476389106390378e-01
9.894896563786946819e-01
-7.578540687671653231e-01
1.967050278141674990e+00
-7.943509996082670499e-02
2.914366117761887365e-01
2.715835032128935574e-03
2.791103333561104072e-01
-1.843669512273136579e+00
-6.697240185728688955e-01
4.536679394444687596e-01
-3.011289123270978196e-01
1.241437008427065614e+00
2.334400587901365842e+00
1.917321992501252348e+00
-8.507165285556750334e-01
1.605618639391216629e+00
9.756880930746816283e-01
-9.525237827142474245e-01
-2.477030910868352809e+00
-2.005152757485022974e+00
-3.541162228676372203e-01
1.024617408230823257e+00
1.524895898256789284e+00
5.147115226150599243e-01
1.050981087199159170e+00
5.923664964501619279e-01
1.766712399395619748e+00
2.299802990570548877e-01
7.039275850599310269e-01
4.455995289717001318e-01
-9.112898544780946297e-01
-1.166606784602337354e+00
2.119677688737593435e+00
-1.348644198126066618e+00
1.036393265317889334e+00
-1.034032054450765736e+00
5.597019377922896055e-01
-1.156378938918049881e+00
8.601764930602955050e-02
-1.813818002930185136e+00
-1.673674893775742856e+00
-4.100700312132825598e-01
2.577199340151817286e-01
3.622564504913706518e+00
2.698021757193124426e+00
-5.922013277357897065e-01
-2.591570937607703407e+00
-1.979891389013163749e+00
-1.267268327316895427e+00
-6.176467807705411373e-01
1.968755891511226208e+00
6.724800144401916757e-01
9.286017177859928751e-01
2.605090655024785429e-01
-1.657502305039148194e+00
-2.411868586882039978e+00
-1.372264121836522799e-01
1.282534693545715365e+00
-1.746490178530590853e-01
2.674909737898544804e-01
6.198809217981412489e-01
-1.036938272016002971e+00
-6.938705777552661713e-01
-2.410745274623725398e-01
9.509229079202882184e-01
1.021710544836607060e+00
1.848849236647273075e+00
-4.877027645782364834e-02
1.364078792407014129e+00
1.729569040770108757e+00
3.406553956899355806e-01
2.075463711511501330e+00
-2.359846958438582831e-01
-1.011845824262693316e+00
-1.571458954947994036e+00
-2.497529734958191305e+00
-1.287838356843085119e+00
3.423779622839115522e+00
-8.608082182086423950e-01
-1.416811126476434923e+00
-2.059105260156118555e-01
3.634576170161404884e-01
1.105495270883981807e+00
-8.174602920864110223e-01
-5.962336340193153950e-01
-1.946102719778369350e+00
-1.702261184010747330e+00
1.076969179860559400e+00
1.197967402642472035e+00
1.745129247980480747e+00
1.660629413001515342e+00
7.536982023217376758e-01
1.762289379810691115e+00
-1.328871506361543053e+00
-4.327772362226379732e-01
-4.999388798775812881e-01
2.423196521021263317e-01
8.625102107208786339e-01
1.124829191314418386e+00
8.207599955913370549e-01
2.668842756527344817e-01
-1.971580779563654628e+00
-2.383656536368463641e+00
-1.343801388894218629e+00
4.163181611612649935e-02
6.975140679847804392e-01
-1.449108240731593611e-01
-9.805694509006779302e-02
-1.945954225330377430e-01
-9.954542039261942143e-01
-4.608395133083308393e-01
-4.777849262926691654e-01
-6.728850501168979203e-01
2.450770419941651124e+00
1.114131749094270235e-01
8.310665358934955504e-01
9.775784407574630297e-01
7.759587807994404729e-01
-9.312702093937831327e-01
-4.066553139934850347e-01
-2.728668993080280835e-03
8.386074015119399094e-01
-1.597466151530561318e-01
1.269354227373966193e+00
-4.276504216075391884e-01
1.076222218649768442e-01
7.333479346681986977e-01
-4.248249501471819678e-01
-2.790682643089630321e+00
-1.343315352546580632e+00
-8.842456647998674368e-01
-1.298768727044275817e+00
-1.208712001720087248e-01
1.214986170522862174e+00
-4.914652629406037754e-01
1.537571469933638246e+00
1.664320151279764071e+00
-1.558120169579606751e+00
-3.486021159030038841e-01
2.136977528505125346e+00
-5.880335901769423446e-01
-8.283456734048458836e-01
1.186490102164790006e-01
4.384753065084281975e-01
-8.432222712636676665e-01
-2.053799362848103716e+00
2.524410687640957995e+00
1.483667607638032182e+00
-1.986383566817618407e+00
4.776123319648324372e-01
1.408768031521528963e+00
-4.373533269942290747e-01
-1.954931408650262825e-01
1.961266408486090240e+00
2.699128886701977481e-01
-1.556348263863136072e+00
-1.339097605950948955e+00
-8.530019534638445533e-01
-6.960812373567114575e-01
-5.165658828192392082e-01
6.065976490611741934e-01
1.241460378439059209e+00
1.995142505822901979e+00
3.369686219517474546e-02
2.086156171329615616e-01
-1.941429389735843669e+00
6.901805257008685190e-01
-1.713204444448352959e-01
4.268154770859109437e-01
-1.694248891542400326e+00
8.673661701502874966e-01
-1.474940348283803493e+00
6.802639946802457871e-01
-1.579917897883756472e+00
-5.915820732259956527e-01
-6.388236896154280142e-01
-1.355398105703297329e+00
-1.253942323321506125e+00
-9.468249106520432168e-01
1.299557357465547236e+00
5.711827069548887081e-01
-2.461148415716353455e+00
-1.881727892824608839e+00
-9.148751491571787131e-01
-3.215052795840452671e+00
-1.976123408405436432e+00
1.162465978145279966e+00
-6.485442409304528200e-01
-9.985904312400052385e-01
-8.591685528699191110e-01
2.440243058122132935e-01
1.011637439601571264e+00
2.509508351843106055e-01
8.267421432800318160e-01
-9.856558771814412367e-02
-8.320575098214272325e-01
5.257998773588880015e-01
9.905917915342777880e-01
2.781154225983380190e-02
-7.268992734847168347e-01
9.844806838313252539e-01
-6.496993324682499849e-02
1.269149697584504244e+00
-5.251367737226854127e-01
-1.181209877697037225e+00
1.392314983599121758e+00
-8.177566842556112103e-01
3.303334733059833939e-01
-1.032486557023976514e+00
-2.489730066571788636e-01
-4.895102842885273864e-01
-8.858609380723406757e-01
-2.362042468085861380e+00
5.220227744203244091e-01
-9.016502325103010751e-01
1.046682388890724180e+00
4.728566218634871476e-01
4.350563951471556612e-01
-1.377430658254856777e-01
1.775874170859893075e+00
1.376498470405800090e+00
-6.963436440905581559e-01
1.016204024151598828e+00
-1.028530471735079610e+00
-6.829346678279672733e-02
-1.553194201486772230e-01
2.057937410533726974e-01
8.107850861329632952e-01
-4.803545776652720645e-01
-2.382169449251622773e+00
-2.496188738186090328e-01
-2.509746658740619196e+00
1.115502279154502396e+00
1.386856940720735620e+00
-2.590185435703570849e-01
-7.402430238205697233e-01
8.019986013598641439e-02
-1.622916021515188545e+00
-1.709360963356872931e+00
-1.075685572151460434e+00
-2.125552394641231357e-01
4.530140765598992258e-01
-1.245655343431786993e-01
-3.685529329211069682e-01
1.568091753354549978e+00
-5.330849615291370636e-02
3.349400596700425337e-01
-7.084397912688119581e-01
4.589222221863846762e-01
1.085547711898745993e+00
1.156857811842654016e+00
4.369315614434253203e-01
1.059694066937057810e+00
-3.658575996341944525e-01
-2.052487724872296582e+00
-6.131345935474914466e-01
8.352814834771782326e-01
-3.024855263029734842e-01
8.698345423162980872e-01
-1.169174157175037199e-01
-5.507410064854241227e-01
6.547252676119943438e-01
5.019552613340924063e-01
4.530957598713105106e-01
-1.364369398086134055e-01
-1.514168361864998369e+00
-7.443964999242895786e-01
-2.711901566072097980e-01
-1.803177859015287154e+00
-6.711539778009746327e-01
7.787813826386504878e-01
-1.466583130912400224e+00
-1.444915720700096218e+00
-8.984687999588906182e-01
-1.145830577525592808e+00
8.579425822648315547e-01
-1.280210404325428764e+00
-1.027961029483128730e+00
9.972686914130243219e-01
2.875724605311328341e-01
1.056897288431274395e-01
5.878397966985253742e-01
-8.216859534624508521e-02
-3.546040850680567402e-01
-1.016482823434277316e+00
5.719304753169919264e-01
-6.728631522080564809e-01
8.943250829875210028e-01
1.364013410105459734e+00
1.256698576166438874e+00
-3.218893650045958621e-01
-6.859812831285424517e-01
-1.549125555532056442e+00
-8.092269214057993265e-01
-2.075838233051102932e+00
-7.896530955660959750e-01
3.233086360381614566e-01
7.329858363457730785e-01
2.521640356699904606e-01
-1.039905375638036977e+00
1.718379985850098657e-01
1.236487724351039486e+00
-8.673763762904190822e-01
-2.838470635457554861e-02
-1.392461051145716500e+00
1.158534922945590129e+00
6.785989120075537340e-01
2.106205225533900549e+00
-6.194015190095182311e-01
-1.318449436029018429e+00
8.148074279617613103e-01
-5.899338663210180744e-01
3.413794069673515841e-01
4.211739901964806077e-01
-1.239173815267868850e+00
-8.492096583473692784e-01
4.744546818855316928e-01
3.272961350680561043e-01
-1.520586399706712388e+00
2.483120636487723409e-01
-2.241573240791411958e+00
-2.777533008897319800e+00
-1.616171974315513848e+00
-1.382406717186909439e+00
2.206965745086828523e-01
-5.022647492213709874e-01
-5.505094669584124079e-01
-8.970539400185540968e-01
-1.488611637994428083e-01
-4.379091298343504302e-01
2.819572833177739768e-01
-7.298206819048412841e-01
7.135662428544711777e-02
-9.741062911572730965e-01
-5.876268063104389539e-01
-1.659884654593882125e+00
2.095707496217990851e-01
-8.363284080054154135e-01
-1.956506821671111451e+00
-7.396327534048814656e-02
1.085406220476071271e+00
-6.726137317429147222e-01
3.907525284728477488e-01
-1.452485370740543402e+00
1.204945692283328817e+00
2.527237212731937022e-01
-1.759808302378226719e+00
-1.989568762301904492e+00
-5.972203928334656187e-01
-9.802739834654164985e-01
-9.958754302253695068e-01
1.096739355886330314e+00
-4.417223224703280549e-01
3.961624753798093646e-01
-9.924906596603537690e-01
-3.086360547225076023e-01
6.350237983426633426e-02
-1.595583069543278887e+00
1.928316103816085425e+00
-2.325056335792952678e-01
-1.007217743478880517e-01
7.381949304725478334e-02
-1.617795672591777700e+00
1.389933113891419270e+00
1.012916915826363562e+00
-1.998657862002351404e+00
-1.134198663545740865e-01
-1.707492074730582177e+00
6.272667332344313840e-01
3.632111820199121155e+00
7.793068210948539409e-01
-2.060346317765541890e+00
-8.852531797302422290e-02
-2.770680205847687039e-01
2.232748132706431354e-01
-1.271114439956346986e+00
-2.463361551984104114e+00
-7.570732555547838860e-01
9.163610644831721164e-01
-2.061742602284819537e+00
8.140284820527720067e-01
1.156738839672468711e+00
2.264152054523149715e+00
1.538073171544274420e-01
1.293346851510049245e+00
1.830375665625854908e-01
-3.850201999897418653e-02
7.616755897669705844e-01
1.552357065142863313e+00
3.718289266401338389e-01
-1.147821002401819390e+00
1.898689694279144025e+00
7.112940429752059313e-01
-5.281725234050466122e-01
-5.530053177932576780e-01
-4.159266144626158623e-01
1.609016791673539615e+00
-2.780427001843428503e-01
2.282913603754285425e+00
6.853376747394896995e-01
8.665218236814360431e-01
-3.500397961741208985e-01
5.140800325535089810e-01
1.286567719244582908e-01
2.443843128049700386e+00
7.937639998824640442e-01
2.555949655260106312e-01
-4.634609758123705014e-01
2.071599931077341694e-01
7.257962938773160344e-02
-1.453971140290417630e-01
1.047935420715501831e+00
-4.217073995610317039e-01
-4.430954046459547047e-01
-3.650585379967277166e-01
-1.252274729051979119e+00
8.310633467374298200e-02
-6.837273768774604354e-01
-1.035228860893613767e+00
-1.698119154584399215e+00
-1.983355357596444379e-01
1.927905761305479526e-01
-9.671536024363542872e-01
9.862770477147377035e-02
-1.727643018408299369e+00
-4.957630802903144063e-01
-6.104725076424450947e-01
-3.723027927904435930e-01
-1.065399252300292643e+00
-8.295166189778371280e-01
2.284670066842075797e-01
5.066963325951933106e-01
8.975872965760353095e-01
-2.919848243431443988e-02
3.663562789161616262e-01
-2.530189570424639656e-01
-9.869212908410496254e-01
3.961603044669612661e-01
2.284708180442948378e-01
-4.762456982484398332e-02
6.268356638300534023e-01
5.324925358113602458e-01
-6.739729837906174303e-01
-1.355437481286589696e+00
-7.957782469212437704e-01
2.630287745220496021e+00
-1.415677134454667918e+00
3.509245453270597448e-01
-1.113853892449372385e-01
-1.176500781056533551e+00
1.423214458328422166e-02
-1.160114939255942890e-01
-1.391738896998154340e+00
-2.470680398517068055e-01
1.219141014123820005e-01
-2.961363261310296369e-01
5.529794209712284303e-01
-1.645352719155361021e-01
-1.829973766832511672e-01
2.835081865703197868e-01
7.617441759002938073e-02
-1.255320433238980682e+00
2.424151871939659308e-01
-9.962266613957844463e-02
1.035199175253370907e+00
-9.708016713771101813e-02
-3.663829716606644138e-01
-2.516496514751317415e-01
-1.130274785713332619e+00
-1.107012719794484346e+00
2.108297500346229536e-01
1.034561905655705161e+00
-4.846913153845210376e-01
9.149864164552550250e-01
-6.266449263443503448e-02
-6.183952177992094734e-01
-1.167250472848305964e+00
-3.414833286643604859e-01
1.629927088676619951e+00
2.651531365102762550e+00
1.184947824736470867e+00
1.951049108852063174e+00
1.159869052622785501e+00
8.086489941046661745e-01
-1.603601462876083350e-01
-7.791964971791644212e-02
2.282074990951642235e+00
1.272488209466981379e+00
1.440718447215389442e-01
7.265096614998006741e-01
8.754390444513389102e-01
1.270083523400141967e+00
2.016508730447611197e-01
1.100534746852773971e+00
-8.757018109112402193e-01
-4.482697470267655443e-02
-1.470403975337676972e+00
1.824949006841110277e+00
-8.526873256435441029e-01
-5.522297122191967000e-01
-4.452915180097924419e-01
4.247240290357491288e-01
-7.810975055500716246e-01
1.801170480757642856e-01
4.909991841523386746e-01
-6.821782212953683144e-01
5.448572260778198340e-01
5.732185136578001050e-02
