1.768556151290644474e-01
1.522054350115235710e+00
1.613134808385751906e-01
4.002637019952108299e-01
-1.683421440673141811e+00
-1.104405474715669966e+00
-3.134272735108947772e-01
-6.757517854259048606e-01
1.242017696871025478e+00
6.479262234028134726e-01
9.558324986230950504e-01
-3.858485498416592829e-01
-1.084687733630112616e+00
6.560309610002600378e-01
-1.611338502792761584e+00
-1.305223479171744527e+00
-5.303713890313471735e-01
-4.516895145119066979e-01
-5.681114252624275274e-01
-6.331029539977003906e-02
-6.670771378690628639e-01
1.133294895462511942e+00
-9.002438771957697872e-02
-5.059016337460232604e-01
9.356512592001519080e-01
-2.366025804446943437e-01
6.678138384190326349e-01
8.553935261342329177e-01
7.192635426052789160e-01
-7.048830995907860997e-01
1.487762136039430194e+00
1.754138899083215852e+00
5.563448841077102136e-01
3.519179236522663734e-01
1.139990662073623540e+00
1.605812202389818255e+00
-7.993450442991337224e-02
-1.456938633245246084e+00
4.286459428291599649e-01
9.013641709607536079e-01
-1.299071118903846855e+00
9.221748511102310086e-01
9.897564379074792751e-02
-2.799985528397334056e-01
-5.741372998027575170e-01
8.300945539423173480e-01
3.866759013170987247e-01
1.072146122027223258e-01
-7.843003064078586384e-01
2.020653871617519748e+00
1.341474748975298725e-01
1.631177244281642569e+00
-5.534460722108081043e-01
-9.479602273527714118e-01
-1.922577516479707649e+00
-4.563903217396100276e-01
-1.640578262168064905e+00
1.024242480892982199e+00
-8.790132094063642931e-01
-7.468006946124062795e-01
-1.437388763067060926e-01
1.039263823520569341e+00
-8.552329703268049532e-02
-5.969424087688469938e-02
-8.586937291191779620e-01
-3.954287785367068819e-01
8.346583700419374363e-01
4.081569486755939891e-01
9.560755453536903259e-01
-1.735061931972573745e+00
7.027867664471527664e-01
-1.047278754670439432e-01
2.114632501467951453e+00
-1.498327984259219425e+00
-1.271383347821568144e+00
1.052241771550125993e+00
5.694432161672209336e-01
2.709075261793472134e+00
2.919245363293974105e-01
5.778554623106356702e-01
9.338180351354202768e-01
5.589863493414444218e-01
1.758835467348580206e+00
-3.570067343375159519e-01
-2.172583788071830391e+00
7.264026524831790343e-01
3.719967712346334832e-01
6.062990117322072381e-01
-3.463309470785818078e-01
-5.391023839927117089e-01
-2.818100116301427871e+00
-2.069392442980488411e+00
5.506616442448988291e-01
1.082098512613119956e+00
-1.415007544298820585e+00
1.592095300270318370e-01
-4.296738956021545208e-01
-8.259053482596011575e-01
-4.203779479704077837e-01
-1.519595287559780905e+00
-4.123138301307330833e-01
-5.324435008739868413e-01
-1.043794077119496677e+00
-5.800901834142436764e-01
-6.528982028287827477e-01
-1.849596136475136543e+00
6.616230422919235910e-01
-1.549739849705797257e+00
6.857897562038384187e-01
-9.994100047406914156e-01
1.472135708668678822e+00
5.934063585921166561e-01
7.584295204309994543e-02
-1.034676077317856713e+00
1.327552835439126611e+00
-4.322401514850104931e-02
1.026289936098515376e+00
-3.258759433609650369e-01
1.341007801798507648e+00
7.031564691452306670e-01
3.006086790816457355e-01
-5.493560613630048550e-01
4.443167764410028697e-01
-5.400726868980283424e-01
-1.004199477786563488e+00
4.457969739870542014e-01
-9.214177178022924242e-01
2.069975026234140703e-01
4.554858791733585877e-01
2.679228498920836476e-01
5.555058472988504414e-01
8.945943564083065347e-01
4.237910677072131288e-02
-6.182102054217317733e-01
-9.672438701236388825e-01
-1.745937769133770079e+00
-1.981313642857085000e+00
-8.663209988855898047e-02
8.320636269804605467e-01
3.633981550269189120e-01
1.328107815814388637e+00
8.044273475088502545e-01
1.362707438583106390e+00
3.015464092938300866e-01
6.205473217681377607e-01
-3.320203287620301924e-01
-2.643966260539244995e-01
1.053277011737843605e+00
-9.224638772330586711e-01
8.540443807031090628e-01
-3.451594080888569782e-01
-9.171154815604370958e-02
-5.715632546528625069e-01
6.994515473907811920e-01
9.591072872848074304e-01
-1.777989001051959450e-01
6.427382339955450830e-01
-8.404244768793830422e-01
7.679233468803603468e-01
2.971010593366369412e-01
-1.600458051610772481e+00
1.298370622347933878e+00
1.317295293359131314e+00
-1.618132600368185903e-01
1.236939445860179981e-01
-1.930575663408176379e-01
8.763326334426722874e-02
-1.481620686393533504e+00
-7.356184638302276646e-01
-1.992938472866595756e+00
1.199878277088175516e+00
-1.241392106795262462e+00
-3.036802057613916528e-01
-1.055747559952345815e+00
5.841303398012902548e-01
-5.249383381147858935e-02
-8.972088441653308655e-01
-1.466945094603245403e+00
-3.498268964471449305e-01
-1.881258336526704655e-02
5.304152432326602051e-01
1.296955990765178646e+00
6.789327214496549967e-01
1.824161158512852765e+00
4.740180962555740618e-01
6.863819769060696130e-01
7.762442894995192910e-01
-3.551172020460314105e+00
1.976553850469818865e-02
3.676932853468928286e-01
3.997338632517259405e-01
-2.095930265210560750e-01
1.837859412732580633e-01
1.299278698821038525e+00
2.191964780784930955e+00
7.494358792597133334e-02
9.552963565199330542e-01
-1.041429215947116571e+00
-1.320990006395340588e+00
-3.430032930457234674e-01
1.978826435608798118e+00
-6.290840989835662089e-01
-3.444409606007954594e-03
-1.042307953332214820e+00
-2.781419186597672288e-01
1.551808078288738235e+00
9.170167579302114513e-02
1.553408666726088017e+00
-5.685470773514775811e-01
-7.771108870862037943e-01
-9.574945418162951194e-01
-9.521745110743540241e-02
-7.850381195590708794e-01
3.406620286481575888e-01
-5.626439182694469021e-02
-1.799383467799724690e+00
-9.049182409345111200e-01
-2.246123757317206038e-01
-2.512335877315299282e-01
4.394122517848302323e-01
1.279427461032259128e+00
-1.265120415675147214e+00
-6.837970906261934267e-01
1.324364535112363628e+00
-1.248465781777083894e+00
1.565759896809060692e+00
1.035095029827297841e+00
-9.373726308538087304e-01
-6.812732046875070724e-01
-2.574436048544080924e-01
5.637142751203624291e-01
4.522093047400405075e-01
-9.432973258809419503e-01
5.196951304245163161e-01
1.224895389756194719e+00
1.350020005240020415e+00
-8.089371244778463810e-01
1.055616362650663165e+00
-1.335506351259311497e+00
1.418750962847636077e-01
-1.426547872000314632e+00
-8.999409585975659542e-01
-3.352398884735103834e+00
-3.860406084298346197e-01
-3.278544264286293863e-01
-1.362067616786022950e-01
1.795684562035329279e-01
3.652536630767552195e-01
1.893667807121847124e+00
2.413402698927649581e+00
-9.730688806192887563e-01
-1.376210764032164136e+00
1.108702458404361713e-01
-6.281485632906482763e-01
-3.041202006208009179e-01
1.790072417355307033e-01
2.176335406787816229e+00
-8.573940993835352797e-01
-1.261193347735964698e+00
4.737458669342869966e-01
1.701191200676404891e-01
3.772879437662729485e-01
1.027927049269056203e+00
3.879931596323075993e-02
-5.892828252332292793e-01
8.880272099041003342e-01
-2.292526364868331612e+00
-1.745551459303662734e+00
1.204762090587030654e+00
-3.388123809387209029e-01
8.563122231902960957e-01
-1.545355036231414125e+00
-8.258645934701220881e-01
6.190554820247544665e-01
5.992654489777892168e-01
-7.605589764067248737e-01
-1.059290706777944013e+00
-1.964746662553601420e+00
-5.286383150806331921e-01
-7.626420524331447570e-01
5.511586988596129943e-01
1.131878508072884593e+00
2.797792573571274977e-01
2.012290706788679995e-01
2.440877027658928389e-01
7.454966477553521820e-01
-6.370180999712721226e-01
1.360628543878080431e-02
2.820775115894822993e-01
-4.419430836836386045e-01
-2.220605622345806496e-01
4.802306204517413635e-01
-5.826583319920779491e-01
-2.388960817040057805e+00
1.151919495000030130e-01
4.678732857885898322e-01
-6.493471882644730186e-01
-7.734868288139618020e-01
-9.740356183035850934e-01
-2.422264830237768340e-01
-3.450982558624462460e-01
-1.167534618840813332e+00
5.384540205812966551e-01
-6.710025306780335042e-01
1.050304393392832880e+00
-1.693388253480906935e-01
5.092494148276942578e-01
1.722471114406457948e+00
-1.154583351067909547e+00
-4.990296414343161069e-01
-8.024082018077585143e-01
-1.027791418852657346e+00
-1.559096853816443751e-01
-1.692418937974984994e+00
9.048955876475243132e-01
5.051336552200679231e-01
-1.552237972295509860e-01
3.594923562329317979e-01
1.093559628722543309e+00
1.822212938597458587e+00
4.260069239809959885e-01
-9.508686713662662937e-01
1.289176705495777453e+00
-3.773808026416538425e-02
-8.086159249085954626e-01
1.769147249535835131e+00
3.436495490191606161e-01
-1.024295469652253487e+00
-9.365369778533348954e-01
5.202786321200175701e-01
-7.681435511024370388e-02
1.450863901431073133e-01
-5.424142836432002124e-01
1.264897585906562094e+00
2.694465309650395657e-01
5.235307323558580084e-01
-1.415782167996717300e+00
6.360369464478835555e-01
-1.641453667225507340e+00
-9.121174448595626982e-01
-1.357617287070713941e+00
-6.612865696648022595e-01
7.647382070830420764e-01
-4.613537325865799676e-01
-1.912044920263013426e+00
-1.899065665681279658e+00
-1.018843637643629396e-01
1.730244662898384189e-01
1.418445559861890581e+00
-2.854765389628975969e-01
-1.988105635326513701e-02
-3.474670522078936452e-01
-6.924628183016929839e-01
8.342084424035913770e-01
1.100280279381243398e+00
4.147978307816873600e-01
-7.274236235250274296e-01
-7.519875478330734220e-01
8.505389796160197635e-01
-1.007343786438489097e+00
1.090234821890804673e+00
-2.428518411147626288e-01
-1.700551447082210066e+00
-1.778465417062369269e+00
-1.975258758201543063e+00
-1.595683667758374558e+00
-1.052392128199913568e+00
-6.459364548505435177e-01
-2.948180301584024110e-01
-5.845742533616842262e-01
1.063848377450586691e+00
-3.167439798106141402e-01
-8.989134849739045530e-01
1.059299483375847117e+00
-6.374239593051537200e-01
1.489283545562688271e+00
-7.854111169836965889e-01
-1.273906577070087032e+00
-3.542418991388098237e-01
1.361658616166572522e-01
-4.491736600899453591e-01
3.682990098294811054e-01
-1.382820763218226778e+00
-1.321455665425640413e-01
-3.159361649654340298e-01
9.530830025746178658e-01
-1.602448193626542006e+00
8.144862241862607100e-01
5.248402678351453687e-01
-1.020310414599677973e+00
4.682418123195052906e-01
1.504900380400595372e+00
3.373011280079616925e-01
-1.409578238255857485e+00
8.275522548591434102e-01
-1.119799198895297776e+00
5.043992046290720621e-01
1.543606295898090952e+00
-1.618079470334519987e-01
-1.041374360533998455e+00
-1.420772059656807418e+00
-1.262891359708503636e+00
6.157049612316142229e-01
-3.098396152300199047e-01
8.217273714739206092e-01
-9.396012172671270868e-01
-2.204335263339845863e+00
4.194901479354896656e-01
7.136991378239538886e-01
-9.268056109248868912e-01
9.855770897538662645e-01
3.364206077115540761e-01
1.581051317208218343e+00
-9.723596063241181364e-02
1.144421030949395401e+00
4.066610574410982060e-01
1.431507973626511498e+00
-3.236845747261073991e-01
-9.539798853503799192e-01
2.170479201375911382e-01
-3.700690567655225416e-01
-4.271905213001221391e-01
7.524735720923431126e-01
6.237236624254913764e-01
3.153842945902260997e-01
-1.260950878723030133e+00
-1.062199360757220434e+00
2.889074490564056408e-01
2.864309273693144697e-01
6.646250109054542277e-01
-1.618908581145700021e+00
1.785231375821230815e+00
3.708833394916568604e-01
-1.245670865350019696e+00
1.612542474198545017e-01
-1.521141647501257355e+00
6.119717163165853124e-01
7.927590452895456608e-01
1.446020433465234012e+00
-6.655307855314456233e-01
1.959693822948948283e-01
-2.044972420803551572e+00
-4.143963653840768147e-01
1.095936846245945562e+00
2.656356360781785830e-01
1.314942250220948905e+00
-2.582562567722323510e-01
-1.310805670579203053e+00
3.391641202218633744e-01
-2.517695392693951040e-01
-1.043084657267870474e+00
-1.857916879381362185e-01
1.889791718633015094e+00
7.133636611410151263e-01
-6.250775005508087956e-01
-2.750520969804584048e-01
4.403817978152188006e-01
-1.237126902889382984e+00
-1.944901176539872573e-02
-1.509993614980295051e+00
-1.204740722405106768e+00
-4.199075579650222156e-01
-2.158194106967870951e+00
-4.850305806378786729e-03
-6.327883007002065296e-01
-1.350111884589494382e+00
1.143583349460564724e+00
4.739216013570058950e-01
5.109386142830263378e-01
3.365037933939697967e-01
3.602286363032609628e-01
-1.549944763405289860e+00
-3.512219061113890373e-01
-1.586096777416406756e+00
1.389316654455147182e+00
1.076695671499615425e+00
8.890323844132471676e-01
-2.419812534175542318e+00
5.513838939040844878e-01
4.009003927168985904e-01
-8.814378040025948602e-01
8.872917727573367275e-01
1.200280944723035370e+00
-8.895722247013697626e-01
-9.131790109592279325e-01
-1.245758738848318448e+00
-1.331022293058207406e+00
9.715895270999687361e-02
-6.403407751339657006e-01
6.328065477006673545e-01
2.118062044601655702e-01
6.463458806067466922e-01
-9.953867690889402209e-02
2.355316699010003401e+00
1.747968236127456221e+00
3.752048149405097233e-01
1.773854315721986818e+00
1.900149932294613875e-01
9.793752110585794979e-01
1.153469433836350477e+00
1.885409647870313732e+00
-9.442749850175513604e-01
-1.204010214923573852e+00
-1.325101505068403407e+00
4.558385962124089641e-01
7.591873988274800977e-01
1.731889123435680355e+00
2.003755855161248045e-01
-1.483484621957211536e+00
-1.789237457686187194e-01
5.159904395046788911e-02
-7.033297714731787664e-01
-2.099742467920449940e+00
-1.037121880169937782e+00
-1.200297701110484283e+00
-2.296176227746922205e+00
-5.212797001206368463e-01
-6.187440866223894442e-01
1.151650115329831081e+00
-1.908708829515618266e+00
-1.560654402153507592e+00
4.344740973867994849e-01
-3.049256448007152676e-01
5.096997324540232244e-01
-1.271732371726094657e+00
-1.890762236287128806e+00
1.540877838417929580e+00
-9.509373451404524724e-01
1.642451420679640783e+00
1.206404159888424532e+00
-1.022427075224673354e+00
-1.355580405023395496e+00
-3.149309697319741197e+00
1.362019821258540027e-03
8.566074976513620154e-01
1.242759429794143035e-02
-3.224520073096311112e-02
-8.430043816343377738e-01
-4.824475067792623195e-02
-1.719855997043855389e+00
-1.257190437346454637e+00
-1.672105563470729916e-01
4.477371239759004862e-01
-7.172685156501168446e-01
-4.868304260880360057e-01
-5.813697216745036256e-01
1.671754576735013043e+00
-1.445070373740309000e+00
-2.575962121026172391e-01
3.055552588078585541e-01
-3.623363068790343422e-01
-5.607500540129959354e-01
3.011212209851373348e-02
-1.014487791877002110e+00
-1.143394388429353370e+00
-1.774235580885601404e+00
-1.005660277086268595e+00
1.501410153282244919e-01
1.033779487518656559e+00
5.424484654049980259e-01
-1.804756529093069495e-01
-9.875175701780700699e-01
9.880729779849431460e-02
-5.233344420740081437e-01
-1.447147372739857163e+00
1.477091065224376942e+00
-4.261341955155909522e-01
7.573062045274403520e-01
1.083330634688604910e+00
1.515297610464276246e-01
1.531214864706037515e+00
1.558819901028130894e-01
-2.119826519258264375e-01
1.397079618944540247e+00
2.405206836417651262e-01
1.104530794500631075e+00
-4.884127401156888038e-01
-4.117528076288035632e-01
-6.708051047512277876e-01
7.960472738667000447e-01
7.954581163779167463e-02
-8.414915445623308843e-01
7.413456221647503064e-01
-9.269456052616341646e-01
-6.460815803261267254e-01
9.943679338528514933e-01
-1.370889276130113466e+00
-1.938520888139974696e+00
9.324252023435558590e-01
1.504377020279662691e+00
-1.156050073191009941e+00
-3.464915899870429916e-01
9.200235024901406433e-01
-4.485081878421303681e-01
-2.277145838811091005e-01
-3.760032627785319659e-01
1.189544815061454708e+00
-4.574581846559572784e-01
7.208025327511057012e-02
-2.037156673518184802e-01
-1.209982673398045661e+00
-1.456150961466214033e+00
-3.268074296974200488e-01
2.692464227664962961e-01
5.095924501136923634e-01
-1.421379968671855565e+00
-7.291843511582657422e-01
1.143417452943706475e-01
3.747810445903441146e-01
-2.142357251364958248e+00
-2.671752836962471567e-01
9.303813971899650426e-01
-8.604105341352910608e-02
-1.070239423071049023e+00
-8.533984355688438717e-01
-1.498525505943508529e+00
-1.148095518077699717e+00
1.682573861235943546e+00
-3.204465449804105304e-01
-1.287545324976265615e+00
-9.607856171611570684e-01
-2.129334608697822873e+00
3.028055484969722766e-01
-1.117437667397889411e+00
1.199963241237090639e+00
-1.326721581425146068e+00
1.085996846631745338e+00
5.178232491825441874e-01
-1.221822158775602407e+00
5.207701618326380233e-01
-2.832751931911678955e-01
-1.843251083110774458e+00
-3.864927790155542331e-01
-5.513499821482080454e-02
9.860059924461868075e-01
2.862577583889519550e-01
-1.324064089308045089e+00
2.380201574756309058e-02
-1.528298477999576077e+00
-1.972371329522687011e+00
1.221757583583836126e+00
3.949450268666634400e-01
-1.251629600485914873e+00
-8.702620136636934900e-01
-1.541661049519810200e+00
-5.631363376741443938e-01
-1.391831348117463563e+00
4.852707620211612061e-01
5.217468133773645045e-01
6.232695895731283908e-01
-1.702181887440568975e+00
-4.443148476349470521e-01
-5.815494105006832060e-01
-1.126390759705013789e+00
9.965893925027309308e-01
-1.118130523995349984e-01
-1.344085462174913759e-01
-3.696046203922114803e-01
6.792034064508112312e-01
-3.717344550781387924e-01
8.054848953704158987e-01
-2.623549936885041234e+00
6.389021005656657648e-01
-1.210805124671061606e+00
-4.115422194093167341e-01
-1.448111587090991081e+00
2.120636613126250847e+00
1.347029103363166058e+00
-1.684755210426671646e-01
-2.932386445394926516e-02
7.734161200071061337e-01
1.569891347413907845e-01
8.527547836371646151e-01
-1.827736681794557061e+00
-1.102862624970596533e-01
9.718855867077216271e-01
-1.907540919341847996e+00
1.314164111198245832e+00
7.568858271513977387e-01
-3.493537458613148461e-01
-6.418946951669936007e-01
-9.040794107008371938e-01
7.970410736238611182e-01
-3.063060594450240925e-01
-2.116714651169599726e-01
7.379157230603021755e-01
-2.622866518169919003e-01
-5.186824709589988869e-01
6.427570123647502465e-01
9.374649302065977963e-02
9.529257977569289828e-01
-7.149451868813972988e-01
-6.610464568214065029e-01
1.177448754911712525e+00
-2.297347884361593262e-01
8.863782094317519400e-01
3.308007890702475140e-01
9.437671455459604175e-01
-2.064812795585644789e+00
-2.136210767955382672e-01
2.293291463165412658e+00
-6.297218044488717137e-01
-1.418732252216486911e-01
-7.907326839692091491e-01
-2.117758951083460461e-01
9.786822248661142254e-01
-1.050783030207891766e+00
-1.183467927479710635e+00
-6.071471380094942139e-02
-1.683750943453037330e+00
-6.224829938133968898e-01
-7.434258408866636914e-02
4.145064162775442540e-01
-1.603221620262889280e+00
-9.641887972740689206e-01
-1.139338779978455563e+00
-6.133248415276012500e-01
-1.423033389625962819e+00
3.075276162924761025e-01
-1.086374755675947462e-01
-1.520585257630042042e+00
-2.962909822580922503e-01
-1.094216617172204753e+00
-7.758479535652176295e-01
1.593678863157689252e+00
1.291416301036580228e+00
5.395385946054984672e-01
3.313382236124053776e-02
6.053880323171699773e-01
5.451710511588948593e-01
-7.829145974684298404e-01
-1.257265872873066570e+00
1.163336040638700830e-01
8.856054437443817706e-01
-3.704035330887772703e-01
-5.037278318801423627e-01
-9.063199055937677384e-01
2.667913189372808080e+00
-3.692542964917668036e-02
-6.218466170753395722e-02
5.782033845579617054e-02
-1.051395222910392224e+00
-9.113397142606577406e-01
5.195765688502177598e-02
-1.162242653073806586e+00
-2.200555865306728920e-01
-1.282155535736247520e+00
-1.697044362679527518e+00
1.096669165115105482e+00
-4.037988415041190993e-01
1.923634283675554335e-01
9.770590527541374304e-02
2.015285654080414823e-01
4.724018867462380644e-01
2.695934243222547488e-01
-3.970862529438884958e-01
2.254052812869469680e+00
4.812714424730332174e-01
1.191025964332401044e+00
2.569064058040530618e+00
-2.827315374217198030e-01
6.018862715439483591e-01
1.906571321118620266e-01
-2.624667536829318748e-01
1.839931877297584228e-01
-9.435947191534302947e-01
1.268509008469246024e-01
-3.812418734429866285e-02
-1.774635976323346853e-01
-8.326041130141793589e-01
1.510351449616076147e+00
-1.660474868281214267e-01
1.373649423876257769e+00
-6.514440610876759408e-01
3.861584145392594758e-01
-1.658884266715202171e+00
-7.699862265333101696e-01
1.464726256662998827e+00
7.021080118425255812e-01
3.523312525509362803e-01
5.219560635026840867e-01
4.539659398510051957e-01
-5.640126082018848130e-01
4.082163245426789766e-02
