-4.736177129245310868e-01
-2.561161162108600120e+00
-3.812912017762752903e-01
-5.427023206109726772e-01
2.435434572863140357e+00
3.518576432802741905e-01
1.232475329467227265e+00
-2.559994405097021919e-01
5.536141801814113972e-01
6.877483514903335315e-01
-1.258354085803870870e+00
-7.410915501038372044e-01
5.341863823522559063e-01
6.827504585248893587e-01
3.637467849279328314e-01
-2.886738819448933513e-01
-1.318104239375700315e+00
-3.434819920434582508e-01
-1.124957800863140012e+00
2.584217354395533239e-01
-6.170229903065662658e-01
8.354747519117952104e-01
1.539014718628055389e+00
-1.569247720311647942e+00
-1.918172785897479971e+00
-1.181057045900871572e+00
6.654676861288302825e-02
-2.487861966738626474e-01
9.514391381319383667e-01
-7.093247612197173257e-01
-3.208892624398047844e-02
-2.409811621578145102e-01
-5.624900521444735624e-01
-1.330845275034588049e+00
1.756414483786554737e+00
2.204713546739175634e+00
-5.494945643329229856e-01
-2.229142383888548018e+00
-1.233372927991353007e+00
7.433226901533388498e-01
1.423966763605991170e+00
-1.301792498296839851e+00
1.350311335569801763e+00
-2.551550177681585416e-02
-1.382575860347769359e+00
-4.903372794206996010e-01
-3.974979125615415443e-01
-2.290310109868357591e-01
-1.867423262658469418e-01
-7.090620771455998783e-01
9.382222194251802483e-01
-4.074135587377346046e-01
-7.836837677503180055e-01
5.539809987975636840e-01
1.371990624695875738e+00
-1.688135422139001474e+00
8.923722184378005684e-01
2.050083846506204122e+00
-1.595528338928107415e+00
8.892565768825088091e-01
7.814763933547180796e-01
-3.074661562715062524e-01
-3.521773394785779332e-01
-3.362901634054908384e-01
-7.083256591664280899e-01
-8.543789541938767718e-01
1.412945343789218100e-01
2.103837979258423641e+00
3.505382569755300382e-01
-5.234859400573240729e-01
-1.848686729954677643e+00
-9.109462224575582967e-01
-1.163581590399663579e+00
2.699520237887495511e-02
-1.618802835601751422e-01
1.167580603114186655e+00
-2.216851739313691616e-01
2.106706251180993750e+00
-4.932781190918115732e-01
1.632701717475641523e+00
1.527655682022659667e+00
1.551333575109163088e-01
2.084284187968628022e-01
-3.463662763890816287e-01
1.321600882391113396e+00
-1.703582118555953429e+00
-1.146983797076561284e+00
-1.306106497412423240e+00
1.413683533383918167e+00
-1.046503561444245944e+00
2.729115986424861529e-01
-4.197472206983564602e-01
-3.643486245347419272e-01
-3.940654231343642677e-01
1.359611155430397123e+00
-1.770695630205919649e-02
7.810842330933051025e-01
1.290067438833745861e+00
-2.073723701604757441e-01
7.707412274774091965e-02
1.092602413706755371e+00
-8.242510285038989748e-01
3.428775647222513934e-01
7.974079412542791623e-01
-4.742604791203785530e-01
-3.928262118701236760e-01
-1.755423424665639498e+00
-6.162086182344356233e-01
-3.353076237085238498e-01
5.141625432127750611e-02
-1.887003107740330421e+00
-1.088144392112096348e+00
-2.127798507441845732e+00
1.147169479625417710e+00
-1.502610907121474604e+00
1.025665977669063533e+00
-1.580183493224465441e-01
3.071025934765515553e-01
4.107273085048920302e-01
1.239258585018335523e+00
-1.190515098611657052e+00
-1.016753950039607224e+00
-8.887715383845349315e-01
4.999014594718755311e-01
1.527784552796645212e-01
1.563856865205847935e-01
9.865360858313756420e-01
8.774785314500038735e-01
1.618573041811633972e+00
1.110697268946190253e+00
4.865443886187779676e-01
1.059992364507262641e+00
1.364483013730180661e+00
9.825357924748413518e-01
-4.592869219930911240e-01
2.975807813578860705e-01
-4.177934606425390274e-01
1.436995662635130566e+00
-1.878173501948919577e-01
-2.739690034162824417e-01
6.001226967780511762e-02
-1.039507884375645785e+00
4.615826730027939862e-01
-1.624909863344037753e+00
-1.079385269565167782e+00
-3.178732919819842739e-01
2.346260826723321202e-01
-2.062154515201904736e+00
-5.326166217552014137e-01
-8.150557074241896460e-01
1.394588562313278102e+00
3.613985816253348915e-01
8.011850478147970744e-02
1.776723931136685863e-01
1.608278446557996899e+00
-6.801380353967286796e-01
-8.619639897334316903e-01
1.510802982965750996e+00
-2.335912501029976940e-01
-1.808134418542075128e+00
-2.710999035936996648e+00
8.267355612537377052e-01
-3.228790502347623770e-01
-3.012338964144998799e-01
-3.548879777146896619e-01
6.071911740163103699e-02
1.965088471140918003e+00
-3.150713930886303693e+00
-9.001150488493367408e-02
1.047948726503438399e+00
1.010296260733098306e+00
-8.905870776904795116e-01
-6.100966026933584141e-01
-1.648149397561516238e+00
2.933086799047566640e+00
-1.158235131891506738e-02
-1.697741664526678074e+00
6.533106195173113973e-01
-8.138204788226811592e-01
3.344308673261400799e-01
-6.208170992207642236e-01
5.008498779740104823e-01
3.348358197042162199e-01
1.701091252360224404e+00
-1.309491897267081928e+00
2.060197308008469008e+00
-2.101740220869037848e-02
-1.598303164590809233e+00
-2.695117751195657552e-01
7.545441215579148375e-01
-7.747722721938325730e-02
-5.168054121011137481e-01
-2.665774151824928939e-02
-2.333516328172041410e-01
1.843675980217205357e-01
-3.075108456122759293e-01
-1.233779545446846981e+00
-8.164610525237288308e-02
2.581393610336648603e-01
1.191019429994473328e-01
7.926615084574388792e-01
9.292400546899944880e-01
-2.646702334708282978e-01
-1.931831166509236780e-02
7.643022790820496182e-01
6.755275630505457318e-01
2.075075707132575942e-01
7.139262407602180449e-01
-2.103214241313565047e+00
1.432893501978825368e+00
2.922794849830980257e-01
6.318033534727697242e-01
-1.409858370188884769e-01
2.282521310414048835e-02
7.039283553809756455e-01
1.789842953488483435e+00
1.634320569034106496e+00
-1.042137694535338222e+00
1.830856328230108687e+00
1.923436679400380434e-01
-4.536488326337890231e-01
4.632916813409241885e-01
-7.588432765084491827e-01
-6.012338277235714651e-02
-8.540032803029086184e-01
5.366048744999323272e-01
1.048326235441790599e+00
-2.952066683946366066e-01
-3.424624896314555356e-01
-4.044826991881982359e-01
3.811446298845959646e-01
6.363000038907534739e-01
-2.978187156490457732e-01
-7.658775327325951787e-01
-7.265755900061372508e-01
1.447527215666237765e+00
1.343156770669651889e+00
-1.358641762897637717e-01
1.842818157348362351e-01
5.017168822418199836e-01
-2.774027245508318140e-01
3.924040479964296252e-02
-1.110150970986999441e+00
4.751161262908110139e-01
-4.952159257870536457e-01
3.406762051990536722e-01
3.900746819096622686e-01
-9.271968800128739252e-01
-8.691241071468998047e-01
3.068917482947604025e+00
-8.965772471257807963e-01
9.425379805465231020e-02
-9.464861795244252640e-01
-4.639197239155982144e-01
3.833543555087221000e-01
-9.598836631082664494e-01
6.302187884017987907e-01
1.318945557851401162e-01
7.920103180842879009e-01
2.247017111570054348e-01
1.879130055255681109e-01
7.045978938366190825e-01
-7.498992424759264308e-01
-1.674570195373071280e-01
-2.016405640784530717e-01
-4.650706707722092048e-01
1.511570937123843938e+00
5.733457331443884142e-01
5.666065916641563893e-01
-2.892354415237379239e-01
-5.692032722506500386e-01
4.694562628310782193e-01
3.090916450338245247e-01
1.936668824832092239e+00
1.257075890039089927e+00
6.447953390390118722e-01
-7.837972493607074931e-01
-4.404222562583148814e-01
-8.850194759774683284e-01
3.322864525987946904e-01
-8.845288186518374118e-01
4.668449098081086102e-01
-1.163831013874768949e+00
4.931036581824893572e-01
3.944725712922786398e-01
-9.978416716724795021e-01
-5.710217644433396300e-01
7.820609056389672409e-01
1.176361247552665912e+00
9.581199239305798754e-01
4.877625402961767165e-01
-2.337874648641462993e+00
-1.368369679652902793e+00
7.093710669742722130e-01
-4.959783091448539127e-01
-1.393952176215952909e-01
1.169611027476312293e+00
5.418598829005245171e-02
7.238843174235132238e-01
1.393959012271649422e+00
3.399546179919544775e-01
2.546589353223563723e+00
-5.214897270609691882e-01
-1.780783225848013851e+00
6.524085292760448684e-01
-1.500009303617913792e-01
-1.001419414522613793e-01
-3.651623143869181520e-01
7.031699896417229478e-01
-1.072595647129015450e+00
-1.220908451553565532e+00
-2.017584769858995042e+00
-2.743755521118351748e-01
7.335470802373231791e-01
1.364543408503838373e+00
1.143928549064436417e+00
1.993804795513919315e-01
-1.671538955659208847e+00
-6.082283066678312311e-01
5.375035875867503199e-01
1.216950436200449071e+00
7.412138076222515304e-01
-6.406795281676458398e-01
8.738422524115798673e-01
6.209149246242604003e-02
-8.976871822561041103e-01
2.217927226032591737e+00
2.203379148265616205e+00
6.110639261402913691e-01
1.394067536550459563e+00
-9.901633062095327453e-02
2.029007734700276899e-01
2.382849692662206031e+00
9.955912279058780623e-01
-5.687212057413879585e-01
-5.836892085049711909e-01
9.667261744394782530e-02
8.768425222380740180e-01
-8.231821896383787474e-01
4.004671190806798758e-02
-7.455765764099657467e-02
7.022393422049476586e-01
-9.422905003824373349e-01
-3.021503975483504356e-01
1.489898891095768063e-01
-1.702243752374077435e-01
3.251881833690289936e-01
2.531369992823517268e-01
6.994454047786856643e-01
-4.194244873290566000e-02
1.594065556194528277e+00
-1.127617793037314575e+00
7.821114855325875248e-02
-2.161684963273559745e+00
-1.697968885322523658e+00
1.487533515512719506e-01
-1.188970464022764073e+00
9.438056695963702447e-01
-6.659574802185829201e-01
-2.719803487978851853e-01
-2.659856698685231571e-02
1.038392865884851357e+00
1.947149489362834274e+00
9.627465619889135073e-01
1.356378718721669374e+00
-1.460811409525234028e+00
5.952577628275991239e-01
-4.339817696609495346e-01
1.689330926846720482e+00
-3.380132884291664475e-01
-1.279083777297412183e+00
1.242696056574600499e-01
-6.283545003263894813e-02
-9.037263151815401185e-01
2.842744274605343291e-01
-2.304984055506109186e+00
1.003681569330543866e+00
1.905445732600573594e+00
4.821113124978404496e-02
1.383948524353720622e+00
-1.096284487471058222e+00
4.868080609969205330e-01
-5.608858511083494314e-01
-1.678972274979070978e+00
1.442618709361243923e+00
-1.073588218365851610e+00
-1.599375156731225989e+00
2.063968250149031292e+00
1.801787923285360152e-02
1.368552890477782169e+00
2.795628242203797020e-01
8.127992420559566888e-02
-3.208516130376589670e-01
-7.827657764739208712e-01
-6.790684214285700460e-01
1.458889207566390844e+00
1.653087644564867675e+00
-6.657723456682406171e-01
1.274857341956439294e+00
9.884481108334736144e-01
2.983673605683357932e-01
-2.138394954678171977e+00
2.341782986584245718e-01
1.194386985204053619e+00
-8.242825154184432179e-01
-1.569706130405604805e+00
2.486878344779819006e-01
-1.153434533515611760e+00
1.442302088403695226e+00
-5.640662392398290148e-01
-5.080374404584048209e-02
1.687812715490026427e+00
-3.950833718609883527e-01
-2.017616814250045298e-01
-1.281706321795962999e+00
4.917772650103406362e-01
-6.538102238229309693e-01
-7.056619066881749669e-01
6.926100946089558397e-01
-1.585923389718796317e+00
-5.018645717986340848e-01
-1.991320740438232928e+00
-7.705923278773553209e-01
3.483682649530427389e-01
1.339304688861353121e+00
1.699934857745535877e-02
-1.989657634325394178e-02
-1.641618307844777691e+00
8.499139821173663512e-01
2.009215841681470938e-01
-1.104849094656021213e+00
-1.580133440473725948e+00
9.532322988913826123e-01
-9.755764882660420412e-01
9.912166639078242580e-01
-1.420282179037489545e+00
9.434881136016459724e-02
-6.944051453590159850e-01
9.533117377114029845e-01
-1.211096958600134110e+00
3.183226417299617195e-01
9.997012549008617299e-02
1.532403114485254569e-01
2.150935309630937209e-01
1.192271030546356858e+00
7.112783220123840566e-01
-4.524019574575421226e-02
1.356883824835382057e+00
-1.031273442047698774e+00
2.273525637776143693e+00
2.047724762329699855e-01
-1.539106698080369595e+00
-7.992873416694296074e-02
-1.557355832036051435e+00
-5.489665126119711580e-01
4.747769558076189722e-01
-1.574317756940150304e+00
-5.963877201789016119e-02
1.838272978158083548e+00
6.770537483659858635e-01
1.217902106375380544e+00
1.706992780948513866e-01
1.383717608368045526e-01
1.467254856755570158e-01
6.433252555229772573e-01
1.182788362424498467e-02
-3.718632547463125437e-01
-3.903140173952218683e-01
5.232302286319842066e-01
6.434228969008018995e-01
-5.491852685540589141e-01
-3.979514293725221474e-01
-9.511205628902638098e-01
-3.456561326435330650e-01
4.671416540546968754e-01
1.694636111360832420e-01
4.359547432957456836e-01
-5.226635831343510175e-01
-6.037674729348444652e-02
-3.785311738564778317e-01
4.648394118687880217e-01
1.603334199702519225e+00
-1.237397283609635634e+00
4.969832990650480675e-01
1.358648529110671466e-01
1.069178259675188647e-01
3.937743183406703928e-01
1.989721812563036152e-01
-1.984430201200928501e-01
-1.771537419971461524e+00
-8.069184686687833619e-01
5.337977905364085229e-01
-1.996977208299992035e-01
-1.480968736282116671e-01
1.930136168879303948e-01
1.070693453027976444e-01
1.418675172947517549e+00
1.033683188097986427e+00
-1.383372376365187062e+00
8.447477441877529469e-02
4.826279712262313559e-01
-1.086846953339668742e+00
1.531147938216351090e+00
-4.698087809041015528e-01
-1.074500848055129465e+00
5.786753683323889730e-01
4.096508605731225688e-02
-1.243800042655031524e+00
-1.503800073777737056e+00
-1.909119151060348685e+00
2.090114606677122566e+00
6.158110164235284234e-01
-2.007127553311778834e-01
-3.544500543920381941e-01
-2.092841011337524815e-01
1.755196947070204017e+00
7.189485180317769508e-01
-5.634751166449142312e-01
2.806258416003176159e-01
-9.302715125338442137e-01
1.489003414786470303e-01
-1.354981514114674268e-01
6.394868205566770492e-01
-2.699881334863810656e-01
1.057684112765423290e+00
1.016788679357800013e-01
1.122333831808822957e+00
-2.745468118584692974e+00
8.124928354984626289e-01
-1.574223666722254000e+00
6.423157680514967049e-01
6.118409518536167546e-01
7.119103860461145628e-02
-7.979150823946995486e-01
5.309412936609048117e-02
5.334209219210415132e-01
-4.026255037524379410e-01
-1.054044839280045442e+00
-1.077325476293903961e+00
-6.977656028040309932e-01
7.979918765362535582e-02
7.495359226805828334e-02
-4.246367151942874507e+00
-1.111091311349839295e+00
-3.868576886054456154e-01
2.219319441371284674e-01
-1.954644832738273053e+00
-1.020389358208827757e-01
-1.750042473241713303e-01
5.353339936392267351e-01
-4.093775482268283139e-01
-9.801352180966057537e-01
-2.469321837056567825e-01
-1.646278130406125584e+00
1.148183813471980175e+00
-8.937607111035338336e-01
9.983590052723472219e-01
-5.478446401383941788e-01
-1.094708894254447229e-01
5.995508099486884096e-02
3.071089120400141703e-02
1.280929527942295199e+00
-3.737229919558929803e-01
3.131704317765950374e-01
-1.134412372072905795e+00
-1.570014394135091473e+00
9.368595236238387303e-01
-1.196939555175725589e+00
-5.193832486569500972e-02
-2.834001749658173752e-01
1.007072203791460119e+00
-3.023699139838491035e-01
8.541310022383756806e-01
4.272186444636953406e-01
1.438351610782204526e+00
1.337400804401158050e+00
-5.869078645170812125e-01
4.136459664578995832e-01
8.438180514378865738e-01
3.409378980872793119e-01
5.099716196308249350e-01
-3.495464624836283618e-01
1.510564232989251465e+00
-9.913104918372416252e-01
8.883618958409684740e-01
-6.747295882968666891e-01
3.355671741741548697e+00
9.094917740920301086e-02
-1.183165737824094732e+00
-2.852454859860254488e-01
2.118244608281825286e-02
-1.388131138115760409e-02
1.446970222756502888e+00
2.792227103366705099e-01
-1.068698200080567373e+00
-3.289728621049691215e-01
-1.047459228341575677e-01
-8.021799060599060782e-01
-4.818356546781402128e-01
8.573907443156609798e-01
-2.508820600553924862e+00
-5.947225352640915785e-01
-1.022008194771659051e+00
7.821795820383756759e-01
-1.270891358559964157e+00
-1.160474990230933479e+00
8.533807999191552751e-01
-1.420917743216097096e+00
-2.280355013051650337e-01
-5.081503095209798371e-01
7.366029691087966347e-02
-1.852652008133385486e+00
-1.189916691053863440e+00
8.252493935449528584e-01
-2.303459322666324027e+00
-4.299369864351899190e-02
-6.692302690342649685e-01
1.137039651767524751e+00
-6.501641737028711621e-01
9.694742937169308072e-02
-9.236763760240872534e-01
1.611273370229025170e+00
-8.810768121313827805e-01
-3.179426227166416985e-01
-6.642346833226363545e-01
-5.617854135749540401e-01
8.196942562485142192e-01
-3.089351949239433834e-02
-9.206811607127362018e-01
-1.061849105159348161e+00
1.868481782719489948e-01
-5.010917689514952089e-01
-8.461957810445612793e-01
-1.589648391158541285e+00
8.018947235527487116e-01
-1.197115146668042834e-01
1.200057059032796358e+00
-3.798766837320656786e-01
-1.243096073790665557e+00
1.655154794506732197e+00
-1.040033743760976570e+00
1.293677781675963735e-02
-3.607544273151909175e-01
-8.123484536750272822e-01
-4.457345530915027276e-01
-3.459328275198889080e-01
-1.767622508443073004e+00
3.231608018385406234e-01
1.278646543296889870e+00
1.276805940554098448e-02
-9.521957393366549116e-01
-2.085334541746020898e-01
1.157176877550594618e+00
-1.570005979054630574e+00
-4.717925678691634039e-01
-1.963373317407094976e-01
-7.434691257882126703e-01
1.049148659691432894e-01
5.698114310529373006e-01
1.976153518568483758e+00
2.337178701021257465e-01
5.424246568646052813e-01
8.345737206567361843e-01
3.583443346396223556e-02
1.442375337493199350e+00
-2.050203904453386183e+00
1.315111533442818281e+00
-2.481551670719246427e-01
-2.058308068957499071e+00
-6.099718185530194070e-01
-1.713213385735179672e+00
1.654777049425828761e-01
1.618811076105090563e-01
-6.108844200652923107e-01
8.248457625648034641e-01
-2.480292961209744629e-01
-1.074028076060303150e+00
-9.778402374642084505e-01
1.895983081036227480e+00
-6.352246145940327882e-01
8.364186146372274422e-01
-3.330449305337876420e-01
1.088938062174033217e+00
-1.587322440238086330e+00
-2.323841370663670969e-01
2.332099201608173633e+00
1.169537828368078403e+00
6.299211679066004654e-01
2.030880953193948679e-01
-2.947933210332183140e-01
1.186205782588870966e-01
-2.000791957114967712e+00
6.488861221621041731e-01
-1.459079472021184432e-01
7.615990370639549312e-01
-3.368067422070779582e-01
-1.193625328667037300e+00
-1.585197269361373174e+00
-8.124098162010858770e-01
2.927846373919276712e-02
-1.754358979632026028e+00
6.500942480345031638e-02
-1.406550794682148275e+00
-2.625577132226714738e+00
1.874822543427957733e+00
-4.292850032544026639e-01
-1.341863356858353118e+00
6.370301321322516808e-01
6.247394945315085102e-02
-1.163868893215086908e+00
1.713550513579642720e+00
1.002213329841156852e+00
-2.664791635663715130e+00
-1.581219152500064506e+00
-3.405578747221548741e-01
-1.400651754473624777e+00
6.468615452729484794e-01
5.238911868998821220e-01
-5.779494071111167530e-01
-2.791000822903319523e-01
-8.779396670707613481e-02
-1.556923660394674780e+00
1.082778808864591769e+00
2.960001193130890051e-01
-1.943751747663140739e+00
1.116508673932377071e+00
2.555563882893914784e-01
-1.688304193562146782e+00
-6.732547300790928113e-02
-2.040368426951669201e-01
3.771700343163008617e-01
-2.032776597601440027e+00
9.387689619888361925e-01
2.192722993554030719e-01
2.102376502290103755e+00
-2.069123304013228193e+00
-9.192536971834114334e-01
-1.181849247058333718e+00
-7.121693735918439572e-01
1.192533893377912824e+00
4.458616090869453319e-01
7.473140939415779949e-01
4.716207706740475208e-02
-3.986296549202557049e-01
-5.257756272177731560e-01
9.334316999844358698e-01
-5.022059523561669403e-01
-5.333792280276180575e-01
-8.489860723183427771e-01
7.113182825146882049e-01
-1.424267053938976790e+00
6.771072240595444880e-01
4.609264161817118177e-01
5.130916555024430670e-01
6.056507814064311379e-01
1.879822432452693093e+00
6.066110108695285108e-01
-3.783523771263076485e-01
-5.219186732391082328e-01
-5.264465664666978517e-01
3.744919976943433260e-01
1.288119207029050584e+00
8.171353783944509397e-01
9.118288222254313791e-01
5.309891076312011071e-01
-6.835907945986252621e-01
-7.954257707096744623e-01
2.912980302758408357e-01
8.020611218790251185e-01
-8.397320689671262661e-01
1.818445764600821413e+00
-5.332804891342757952e-02
1.852266010168608812e+00
5.333532407998045066e-01
-5.699192071227855427e-01
-6.099451378453303318e-01
3.421409978824503650e-02
-1.617301364891291296e-02
1.455518106952231161e+00
-1.042852716588599682e+00
1.025524172486487862e+00
-1.244881732121823736e+00
2.504602507220591301e-01
-5.539126948909494086e-01
