8.651446166095230206e-01
5.846932392703964032e-01
3.125559038636130937e-01
-2.498851508037612523e-02
-1.287424711762476415e+00
1.500653761131131247e+00
8.763904883645533550e-01
1.568591992630055110e-01
-4.650475714690254225e-01
-7.585583960936545522e-02
4.585983778085851448e-01
3.947280697663387294e-01
-1.322815721012918777e+00
1.153726129759203411e+00
9.859625914004926939e-01
-8.939114770707700108e-01
2.161917831157856629e+00
-8.513637296752402106e-02
-5.477205944176343211e-01
-6.232984195259684279e-01
6.393355075057375325e-01
8.483996285504812329e-01
-3.295387722653306262e-01
-7.301992800740439438e-02
3.222297833074806023e-02
7.471600008329568610e-01
-1.527418838584685190e+00
6.195099117836991853e-01
-2.128947043020221308e+00
1.163101256861421157e-01
-1.476864877116930430e-01
-5.073049617541318668e-01
-4.617982502205248974e-01
8.665540603304922040e-01
1.434082172046652337e-01
8.278760912123303006e-01
-7.332325878658717544e-01
2.163741748087211203e+00
1.251340924965480772e+00
-3.053850766589508492e+00
-6.688544520936604565e-01
3.638147498891874942e-02
-8.046144811314662748e-01
-5.041344471740492050e-01
-7.632626080647679778e-01
1.383444521840515584e+00
-1.371714609128835249e+00
-1.409923613655875041e+00
-2.102391632022202472e-01
-1.877681993508067970e+00
1.266364610614427955e+00
-1.199406567001217283e+00
-2.340005071299171291e-01
6.193066550501893364e-01
6.899643954703657545e-02
-9.431307194715219389e-01
5.465426295179306448e-01
-1.014984700582107990e+00
8.094674715131408016e-01
-3.437124676529602074e-01
1.550217859225780925e+00
3.795191541311999095e-01
2.277163008358935870e-01
-1.741441609587456085e+00
9.876325763806359515e-01
1.734668470785645678e+00
-1.069852025843584187e+00
-8.789775874527798460e-02
-5.323221229694501400e-01
6.163424872987357528e-01
9.910907813121099252e-01
-1.164535087217578813e+00
1.752079325656907161e+00
3.158314374333285879e-01
-2.285367646549739007e+00
-1.923034617754695752e+00
-1.169432086335401744e+00
2.006087006355687929e-01
4.105246219254831685e-01
1.805911010007533735e+00
-3.056500436583258207e-01
-1.038785445926217132e+00
-6.981663341298135483e-01
-5.680320763001415335e-02
-1.589830787871024942e+00
-2.286321316536181314e+00
-1.037561845941177979e-01
-6.237852187130755732e-01
-1.126849002747789319e+00
1.256076905127610610e+00
3.101729376212370326e+00
-4.858830975815240372e-01
-1.254418465159170104e+00
-6.167726520562981651e-01
-1.262577271072451955e-02
2.730222893064664813e+00
7.640180950237281110e-02
-2.591537141066490024e-01
5.254059640665103004e-01
1.689786539768607654e-01
-1.045793887416241352e+00
-8.646086652717399623e-01
-1.084007063943345894e+00
-9.173064253134886048e-01
1.145080752477574348e+00
1.064419938053840609e+00
1.481020778932465032e-01
-2.800347919239761785e-01
6.009494558030767930e-01
1.497173149132890346e+00
-3.531388711745453990e-01
1.048413414252397091e+00
-3.714572214049942644e-01
4.682741605524616824e-01
5.275776930072978432e-01
9.071777189859921986e-01
-1.148247546001863295e+00
-3.735056965796804684e-01
6.651619848240830635e-01
1.766383904037965302e-01
3.821023342083398888e-01
2.355631653173297479e+00
1.233576189842134019e+00
6.114767632752592386e-01
-6.329906003885342747e-01
5.257242099685921488e-01
-6.297545687456813923e-02
-3.330582314812372546e-01
-2.927213656487041571e-01
1.426562582899569387e+00
-4.139863510660112683e-02
-1.503773422547260319e+00
6.372670670508521207e-01
2.894356609906744704e-01
-7.185995381701348883e-01
-1.310801394556517119e+00
-1.203728267468704871e+00
3.778141970115103665e-01
-4.383859898199526928e-01
1.217690568057554490e+00
-2.251367524085317318e-01
-4.410205143814966422e-01
-7.083891667983788221e-01
-1.134785266845840801e-01
6.523660062644408564e-01
7.390840545956284258e-01
1.125462378376259398e+00
-1.164583334235813616e+00
-1.408566837460713650e+00
1.771864016524322127e-01
1.359320494719938655e+00
2.106427759050168991e+00
-6.761541487458504474e-01
1.164859664532853278e+00
-2.125710681497116339e-01
1.412418855815071039e-01
6.065901004093502413e-01
7.649395538065105749e-01
-1.653283911118291760e-02
-2.301641554833843362e+00
-9.952563029733058064e-01
2.143247189790010943e+00
-5.840026906912607618e-01
1.048244254177979340e-01
-1.111248898671229224e+00
6.506449637372356543e-02
1.166371483185867919e-01
9.060353675623540326e-01
-1.001425814396070590e+00
7.294400700373279145e-01
7.415460731214480461e-01
-8.782091919771345401e-01
-3.261895696052083404e-01
-4.543946709577049714e-01
8.924210246239200339e-01
5.120579945865926241e-01
-1.421430428755940278e+00
-9.377321489445952230e-01
-2.140017140354785463e-01
-1.964182611711802862e+00
-3.343104573011974612e-01
-2.384942345716158485e+00
-5.376381648229645593e-01
-4.697100541019911396e-02
1.945981665117259896e+00
1.617031634227995118e+00
-1.867428731180783841e-01
-7.129389472535503369e-01
-1.115820147253635319e+00
-1.430101548265912959e+00
-3.645632070848843775e-01
8.523907420259462242e-01
1.965967314542895528e+00
6.740453309630098921e-01
1.769980318108406614e+00
-1.004820095980596406e+00
-1.716407846335841869e+00
2.746043768115423722e-01
-1.659138216670893673e+00
9.734146923585160760e-01
3.947069765411164166e-01
5.146778925910625579e-01
-5.278510698116204575e-02
-2.323037024300963760e-01
8.755536345278667198e-01
1.608706591130571351e+00
-1.320292258081713577e+00
6.246548037182748647e-01
6.881638775820143605e-01
-8.200627464392699073e-01
-6.699122109758451904e-01
4.049487072003942756e-01
2.426804578372469212e+00
-5.018246480679053878e-01
8.363094330500205897e-01
1.057748600411827056e+00
-9.126927023084145940e-01
6.836129840938014457e-01
-7.872140364414016434e-01
1.861926216208124707e+00
-4.189725235430242223e-01
1.505707005342254767e+00
-7.089693561303435088e-01
1.946295160223572573e-01
3.205058939793049566e-01
-3.296262205364748787e+00
-1.234859807767420881e+00
-9.259126584088822609e-01
-2.888466054622744750e+00
-1.995621308860408005e+00
-5.587310792288457950e-01
2.033546815383208806e+00
-1.255514787277818956e+00
-2.784819398020976222e-01
-1.313801033930011020e+00
-5.961895616784748109e-01
-6.488164623057812719e-01
-5.822999225954089697e-01
-1.802549533245831337e-01
-1.885457658130115011e+00
-1.779843685259961283e+00
3.413227814932269788e-01
1.275246015666042121e+00
7.857308104405067439e-01
-8.459619086853194247e-02
-9.767351448683122550e-01
-3.156516938272248551e-01
-1.201713948816413302e-01
3.642430578712570477e-01
9.120907898813663817e-01
-1.356229178801484858e+00
9.738723150043990251e-02
4.522325452767765874e-01
-7.112991800382494345e-01
-7.006429674316287937e-01
4.480076943680943447e-01
1.218834321455316561e+00
-5.576271557851421035e-01
7.621451314607815553e-01
-9.373985026377120722e-01
9.878487073968612586e-01
-1.275785959368993250e-01
-8.516023873866077620e-01
1.048168244557883266e+00
-7.294161916921255984e-02
-2.218968887850921501e+00
1.717801046321101754e+00
-4.312419924052965925e-01
-9.323109962475549795e-01
-5.252309789914831883e-01
1.091013229138601215e+00
-7.260335798280752595e-01
-2.772756623771881479e+00
-2.985868610720504579e-01
7.768114714364470208e-01
-1.173540926129006817e-01
-9.203244873482419042e-02
5.884007324890068169e-01
1.503416182968543735e+00
-6.944196977058700870e-01
-9.803685813535623073e-01
2.515681880980533691e-01
-6.681335080993354714e-01
5.915873399400699562e-01
-2.288294534899776855e-01
-1.125449798667416679e-01
6.816158699461891679e-01
-1.076244164437406337e+00
1.024912852566858712e+00
-1.151332369938045108e+00
5.584201147764573658e-01
-6.220511954960059597e-01
-1.718387216601610312e+00
-7.496292188510810250e-01
1.478033123000817461e+00
-2.126742025963381799e-01
1.949025022175975841e-01
-1.315039391827334647e+00
4.235749899704713828e-01
-1.028864856657947247e+00
4.991046381817135225e-01
-1.123241247820088856e-01
-7.347321113278967308e-01
1.639869523235866877e+00
1.175683685537804557e+00
8.427445157724947622e-01
-1.603535317704294361e+00
-7.377024958710318714e-01
-1.765924706602687300e-01
-1.833770583365132545e+00
-2.019862463515545714e-01
1.378223815434453048e+00
5.922277364189599824e-01
-6.074423080252302487e-01
-6.008941419736958389e-01
-3.222078440421861645e-01
-1.150509823016938382e+00
2.313490451713334783e-01
2.323839425345867404e+00
-9.525934275817481145e-02
-7.341602226322928582e-01
6.681812590438341859e-01
8.352235134699935726e-01
-2.437444488862890335e+00
4.109518629686818580e-01
-1.895864959964597585e+00
8.249843146947450495e-03
6.039605106091180259e-02
1.755781986632716007e+00
3.816626371872668955e-01
-1.226977417247420155e+00
3.001029511661417182e-01
1.087421034636388562e-01
-3.977295151812031970e-01
-7.163365989681838020e-01
-1.176412298786741993e-02
-8.666600598936528010e-01
7.764907901639022704e-03
-5.353671791083545184e-01
1.215695071621584411e+00
9.963708682782400627e-01
-7.025099807533942142e-01
-2.330920117180537710e-01
6.412564511348569640e-01
-2.414194874238092758e+00
-1.209392694835596388e-01
1.173401185777740219e+00
-9.585185860416188530e-02
-2.409737582094794717e-01
-3.443841538845352490e-01
-5.846259506692984553e-01
7.976062770005423186e-01
4.696550759110764139e-01
6.909855439011337586e-01
2.076983511854402220e-01
7.612832635316173491e-01
1.403770807346986560e+00
8.417478195927281526e-01
-6.654433762685332820e-02
2.760974780083243485e-01
-3.410573523900654047e-01
-2.725495681399583633e-02
2.578247406353952886e-01
-2.121706184586591160e-01
-5.343325143283267353e-01
-1.090662346175313102e+00
-5.755309178685178578e-02
3.008406261888315614e-01
-2.028256179355437672e-01
-4.112756017526291719e-01
-2.649533928646851333e+00
-1.685930224775497033e+00
-1.624329757310604416e-01
-1.533311475262831403e+00
-6.968846726744681863e-02
-1.552591766568464982e+00
-1.092701930581856801e-01
2.279952575573919393e+00
-7.851383965638221163e-01
-4.295062332908892166e-01
4.837528199623895020e-01
-1.059639272652435960e+00
1.584989661633838531e-01
6.691657635024583772e-01
4.169131593069125979e-02
3.275860962105368590e-01
-1.084214117505413411e+00
1.390694647892313895e+00
-1.016230828856542701e+00
-8.188794929619810370e-01
1.105906959890321506e+00
1.284486043831664981e+00
-1.535922307278780208e+00
7.899871006083202252e-01
6.191558973955327838e-01
1.008798039184587214e+00
1.595186279233273163e+00
-1.214901314292944789e+00
-3.551103765618645602e-01
-2.276398548266195920e+00
-1.078474310290745475e+00
2.119829131770876729e-01
-1.379553406085599843e+00
-1.695132279554115939e+00
-5.802103812772934077e-01
2.895547661807417739e-01
-6.504113701524657509e-01
-8.511768792277679685e-01
6.659490429844669990e-01
-6.437142164022739976e-01
-8.676857462344247374e-01
-1.090982630900116518e-01
-2.185084000755035838e+00
-1.197381500361480944e+00
-2.312074063752335817e+00
-6.997201193917061968e-01
1.012999909102862556e-01
9.460137288418961621e-01
4.704076057545593659e-01
1.299708329614075897e+00
-9.740620294391724165e-01
2.048299203824658077e-01
1.163999970483931140e-01
-8.094871229092658049e-02
5.364102474945052768e-01
-5.481516177142600199e-01
-5.600993577968766957e-01
9.802991861240192284e-01
1.640946186441877952e+00
6.256996988343312971e-01
4.567026857426129682e-01
-1.189595960521105944e+00
-2.498350004832649685e+00
-5.331767547090095725e-03
-1.592160755215711099e+00
8.199888903200546197e-01
-1.486407945491060867e-01
-2.865544111695480026e-02
7.149013477040970788e-01
1.059339701929699507e+00
-6.501273181023737857e-01
2.239611350516045540e+00
1.255795983663675897e-01
3.260966350225115162e-01
-7.545702821381405911e-01
2.883737076296291266e-02
1.728467859350591926e-02
7.400518837425880403e-02
-1.230866198708072901e+00
-4.199313456935708233e-01
1.498084883312316151e+00
5.159021915768532418e-01
-4.317240629823431569e-02
-3.267857968391388312e-01
-3.149121745722972543e-01
-1.614970656657947756e-01
6.815936890165645856e-01
1.359486969771962261e+00
-2.498681026047838150e-01
-2.855067794216923915e-01
3.986709284366821704e-01
-3.961974098917646625e-01
-8.190864038744219977e-01
-1.858540399924498709e-01
1.135012585464342694e+00
-1.990061549757593751e+00
-3.668267142008417858e-01
-7.137144982717794628e-01
1.184625454033204850e+00
2.106011857198035186e-01
1.096403221684355556e+00
1.200288743412254444e+00
-5.092883278542870151e-01
2.269931498227792666e-01
-2.832174385913052150e-01
3.728635102133305290e-01
-4.969862288014207513e-02
-8.506614088185586731e-01
-5.267246458899148553e-01
-1.649063212572651871e+00
3.487702988166111462e-01
3.958071723649632667e-01
1.747762509979685408e+00
4.448890643937642997e-01
-1.478893081076686933e+00
1.086896302687147431e+00
1.439326276872677113e+00
-1.670839086314326760e+00
2.427569540720461383e+00
1.102024802818226540e-01
-6.277775000600321897e-01
1.415498544916438561e+00
4.565838750503161125e-01
3.287403784280731323e-01
9.726469132635122694e-01
-2.304197976530344139e-01
1.675504942990464485e-01
4.147126877008911472e-01
-6.888901165312439900e-01
6.435564499391474014e-01
6.630437060169619423e-02
-3.315879954430681620e-01
-6.880753489716857907e-02
1.281519521870837286e+00
-1.357396156890954719e+00
1.395067771256567613e-01
5.173869008639082612e-01
1.207957108938979340e+00
1.553980811143414575e+00
5.683157989077511907e-01
1.043312668058597126e+00
7.448489785306654509e-01
-2.970257984026348774e-01
3.655743161465092594e-01
-9.335489217902506187e-01
-2.024551635675082492e-02
-8.886379811951915508e-01
6.559144083468907427e-01
2.650645209242303291e-01
4.184483182668236045e-01
-1.804057883034177356e+00
-1.405811257356195387e-01
-7.513814490452431771e-01
-2.296060957974114913e+00
-4.296931242670303241e-01
-3.435116724795058141e-01
-6.864127905772163807e-01
9.557111669618760796e-01
-2.289975875048476939e-01
4.726874158313128516e-01
-1.181635516071355196e+00
5.681647840051123888e-01
-7.440736173180864110e-01
5.377394181303800647e-01
-6.487019902098888346e-01
1.694272468150660016e+00
-3.203692767421123522e-01
2.300325135128046483e+00
1.277047748779493563e+00
3.987954796165089910e-02
-6.542140712358786026e-01
-2.703994396195589234e-01
4.117127285914883306e-01
1.953076137060688056e-01
-8.446561033494508486e-01
-2.564055539149943108e-01
-1.286424894841730948e+00
3.218441667018606678e-01
5.688229291186643055e-02
6.214850511364356650e-02
5.645405188224631443e-01
2.040918988333919604e+00
-8.614554662037960941e-01
1.163991828679404650e+00
2.174264714328661530e+00
-5.966095192046161344e-01
7.642449841027461055e-01
1.615249461419208332e+00
2.612989040787775163e+00
-9.101814299807812203e-01
1.657871785642213602e+00
-9.480338898723736918e-01
5.667762880873433717e-01
1.370046333292890495e+00
1.786510414849849626e+00
-3.476546602367546202e-01
1.544436601542298115e+00
8.229138847826699132e-01
3.483436638025256826e-01
-2.724292046454861449e+00
-1.591119640670458413e+00
3.580577774294433357e-01
-2.017696583469843485e+00
9.355878589500147280e-01
4.688083202240048708e-01
-4.014026619517310213e-01
9.462389257784497021e-01
-2.876845209799224271e-02
-2.061355586408434082e+00
-3.208270563554169175e-01
3.805708708938065898e-01
1.837027834629939127e+00
-5.178026668196369364e-01
-5.947909776437440010e-01
-7.857054975781843087e-01
-1.998574220956457648e+00
1.532120434624740235e-01
-2.526400172421304213e-01
-1.620099789253660827e+00
6.281451367010959345e-03
6.650751999146382598e-01
-5.168971138465097148e-01
-1.340004407896825844e+00
-8.194856896850818417e-01
-8.794643001310347152e-01
5.343994850229294435e-01
2.373778576427472586e+00
-6.282484346140522480e-02
2.061104254870345098e-01
-1.025331634497382849e+00
-3.792707994535197691e-01
-1.759136473180558546e+00
-3.471124028271623807e-01
1.523523754706443689e-01
-2.769841909534730973e-01
6.052642623472247463e-01
-7.138871469253497137e-01
1.060966771187338287e+00
8.072468259121833023e-02
-1.696154999663244123e+00
2.575504308334308767e-02
-1.197316586703205177e+00
1.730887770263248804e+00
7.179158755871473119e-01
2.826666865452750477e-01
1.042468896030506187e+00
-4.010902697625360891e-01
6.684460033153781788e-01
-1.047896291199483132e+00
1.956111209477487956e+00
1.675156767363656374e-01
1.613170742415227066e+00
-3.480186780694957682e-01
1.793249776634098680e+00
1.309774881727873430e-01
-1.223452244929792654e+00
7.695734696888504311e-01
-1.174282414964479049e+00
-2.287730168777079687e+00
1.118599708806130577e+00
-5.124256929059679555e-01
5.696527428533593174e-01
-5.299843766233988118e-01
2.044100575030020073e-01
-2.775035445542503032e-01
-2.431072159741563432e+00
-1.201404842906551806e+00
1.042639250981927113e+00
-6.645307845325825191e-01
2.248644453055534509e+00
1.556276650276959116e-03
-8.193603378417956273e-01
-4.297405685301457501e-01
-1.035402374991585411e-01
-8.909505486212430103e-01
5.160660943659947097e-01
9.185413850225038201e-01
1.782070495659576981e+00
2.740748856893922558e-01
-1.290805711527342137e+00
2.341335191838330443e-01
-6.052133469523318134e-03
-2.321905892081269407e+00
-5.056807156601277331e-01
-1.040419531423465216e+00
8.607213918575085110e-01
-1.165962981036837043e+00
-1.289738075300900455e+00
8.745503198557120772e-01
-9.527217360899024046e-01
7.207096108250036215e-01
-1.101733281502521145e+00
8.784418531250174356e-01
5.498281162291016599e-01
6.980897393374088100e-01
-2.280138511018554304e-01
-1.940697496589617543e+00
6.062585201723427186e-01
-1.631598671211607898e-01
1.365813311415832620e+00
-9.119163377760313161e-01
-1.529450116730832893e-02
-1.708119132218109737e+00
-2.224015118497163213e-01
-6.247427113347209238e-01
1.717179506981683978e+00
1.119580609079817046e+00
-6.555914404420999375e-01
1.159366415028432851e+00
9.835816983037873329e-02
-1.760108853797239137e+00
-1.216482329956008357e+00
-1.171961222776904954e+00
-1.684775961468672145e+00
-1.683354447437567458e+00
5.671261697651628353e-01
-7.070667173635302172e-01
-1.561536073040158401e-01
-4.605752017061165264e-03
-2.800090092863285030e+00
-1.459062868602517327e+00
9.544176529932368869e-01
-1.322495876700404693e-01
-9.286070144569207041e-02
1.772392966388854685e+00
-3.115246229156394264e-01
-4.519229044098040798e-03
3.126464569974424235e-01
-5.547522961146148512e-01
7.921571407475430648e-01
-1.086934681701684946e+00
-1.300795511979510710e+00
5.858314826139736642e-01
2.305650259376821776e+00
-9.410856998668337692e-01
3.106878401154674063e-01
-4.986138365548361540e-01
9.017994515927577615e-01
-1.569636639195269412e+00
8.626743492819640702e-01
-1.274226298259512058e+00
4.976239879157565160e-01
1.335912478845497908e+00
-2.212804779622246976e+00
1.302247803766906076e+00
5.300925331040572397e-01
2.787566870634983207e-01
1.231005088178910717e-01
-9.326474563683407881e-01
1.353782097838329035e+00
-1.842375641369338846e+00
-1.873717987069114521e+00
-1.580393838472385015e+00
5.050955206286605881e-01
-5.502116058313536451e-01
-1.755612764991612673e+00
-1.646051511778218179e+00
-1.211968644328455857e+00
5.659104875483220720e-01
-2.048047776611370413e-02
-6.906521317872296173e-01
-6.830769229334622272e-01
9.267401577086439302e-01
-2.581290942801038324e-01
-2.422665306608901281e-01
-2.855190393627727308e-01
7.563471829349507347e-01
-9.872795565909241455e-01
1.008796633505325113e+00
1.390816595588161064e+00
1.165700079422985480e+00
-6.743332352259875373e-01
3.243485663870447344e-01
2.004841798024424637e+00
-1.886569431167786970e+00
5.448890871778111489e-01
6.541281239292172645e-01
4.491705328782980011e-01
-1.283340593192321410e+00
-7.451577410471825758e-01
-4.211002992744939943e-01
-9.833248464545872869e-01
-2.056487573249333956e+00
5.389194565848286489e-01
7.739675786328773510e-01
-4.883462470172726388e-01
-9.181129781153417324e-02
7.204004807707569125e-01
1.919569690237309612e+00
-1.068637749925956282e+00
7.671402816437141725e-01
1.064967217929888355e+00
-9.698257770084581786e-01
2.045721265211993600e+00
2.299817264657700033e-01
1.364545306112685763e+00
9.231480140332568585e-01
-6.416262988949298363e-01
5.063507987674032984e-01
1.345078970209985236e+00
1.030831869029444015e+00
-1.061792919875784724e+00
-4.922996918260996169e-01
-5.841074873922462718e-01
3.640051739150227950e-01
-1.339979897103666717e+00
-6.341554078645388337e-01
9.533026294595455807e-01
8.404866824257029023e-01
-9.954606656647177129e-03
7.216524470474207087e-01
-1.131832389977643238e+00
1.002287528229099722e+00
-1.433227468193018606e+00
