7.252318215717744598e-01
6.060760664058767455e-01
-1.061483269953417574e+00
-1.162003224913866900e-01
-7.313885402586743911e-01
-1.268024526931399665e+00
1.999753544627824453e-01
5.668849220869074390e-01
-1.962402592006005309e+00
9.347613789209415769e-01
1.747595972998830627e+00
1.453343634340686252e+00
-4.922325019433768656e-01
-6.077202795866604168e-01
3.500765723190308876e-01
1.094143731715021994e+00
1.032288690107391327e+00
-1.721857261634616720e-01
-3.567950798206239726e-01
-9.250562461224344224e-01
-9.992250418093499009e-01
1.326644884183564521e+00
3.308808344707476756e-01
3.250222027673494440e-01
-1.834516758714642481e+00
3.403535026732515956e-01
1.249910492156108693e-01
-6.540796293184083510e-01
8.799834025835125972e-01
2.494020971382753249e-01
1.499496762147931150e+00
-1.248140918808781363e-01
8.033026143795883867e-01
-6.257200862226239835e-01
-3.727465773487480261e-02
4.676497054662506758e-01
4.639971334651712964e-01
8.304256320421138371e-01
-1.517107734448299050e+00
-8.276603957313313220e-01
-2.013016898949281097e-01
-1.065640127325543085e-01
-5.607708481695017344e-01
-8.650958403230077920e-01
-6.466000930878513797e-01
-1.424451144987168183e+00
-6.072766330532939349e-01
7.691593319606303547e-01
1.154343940856611184e+00
-4.399565488740231345e-01
-8.019899262929693906e-01
1.992010170423003448e-02
9.642971763474235125e-01
-3.907044212467585820e-01
1.858603210313100051e-01
5.405216293543567696e-01
1.734079090203050066e-01
2.267540014119542757e+00
-1.096695275585778395e+00
1.582600009805948726e+00
-1.661327443476829258e+00
1.731781385937385953e-01
-1.724764322071434819e+00
5.327728653742438425e-01
6.542660177960755163e-01
-1.522156630544273970e+00
-7.402665976708764362e-01
9.673646034057777066e-02
1.173540039171131255e+00
1.770821708970574226e+00
-1.299864232695372213e+00
-4.542132130183884620e-01
8.981518460631133793e-01
5.638200644661734984e-01
-5.952497003570330625e-01
-1.122330603853787689e+00
-9.174159253067073472e-01
1.398717686496985912e+00
-2.447981422695443554e-01
-1.568607876055905459e+00
3.565593498528414340e-01
6.325735305429500688e-01
6.487796293395610148e-01
-8.750458281360686819e-01
7.680323483064327439e-01
-4.292675477144431428e-01
3.115685722324447737e-01
1.106247667729814976e+00
-1.663784861242586025e-02
-5.173689499039839657e-01
-8.479736087905825892e-01
1.316229988889106306e-01
-4.504294107977996897e-01
7.589603549951225991e-01
7.275385423874219937e-01
5.282148474891286416e-02
-1.274798268359861764e+00
7.402838904355195648e-01
5.717862817330434874e-03
1.768235589120425721e-01
-1.120303575664070461e+00
7.975640428120204239e-01
-1.219140696796157108e+00
-2.427122756012017213e+00
-8.863469858469974483e-01
-7.280077376668889766e-01
-5.747996043486468531e-01
-1.076227339421726326e+00
5.724047612586538047e-01
2.755664492761730755e-01
-4.962274448914043290e-02
-2.739252863381595571e+00
3.934571018151266641e-01
-1.049301623401604155e+00
4.414978557364757084e-01
6.901043592648941072e-01
9.280278132450823225e-01
-1.384495114498001334e+00
-1.166181789831843701e-01
-4.301383733371011431e-01
-1.462081284704063400e+00
4.159756925274814970e-02
3.954798654945133607e-01
-1.769512971788123612e-01
4.948758162788495785e-01
1.267416584161013215e+00
-7.867323675582457709e-02
-9.200199357398197719e-01
3.208420269263645985e-01
-9.784640072755516893e-02
-1.223574823805367195e+00
-9.023452229506094824e-01
-2.225171730471469170e-02
1.624499472172456771e-01
-5.860941215705184337e-01
-3.357462495835886740e-01
-1.206673779917224465e+00
-2.658214183790682528e-01
3.681034890261499215e-01
-6.499582892538214862e-01
1.614986960898487645e-01
-1.325336228197376398e+00
1.791680214370160229e+00
-6.075444716246075627e-01
1.779958959432301979e+00
-2.328020109709099561e+00
-1.275998598496031367e+00
1.508211205724367121e-01
-8.329082128359683868e-01
-7.080635700497580620e-01
1.924482518899115202e-01
-1.024336305218113835e-01
1.892239248701667043e+00
9.503067392247132039e-01
8.527233114521144408e-01
2.078492458206378846e+00
9.499502958263674746e-01
6.524038908851664820e-01
1.513795854613477210e-01
1.367954032750626769e-01
7.156043996871980228e-02
4.143746940498074099e-02
-1.316207830902784259e+00
-7.799384030512387378e-01
-2.027633071954149102e+00
-4.341241756182666611e-01
-7.510996443235140596e-02
1.685910993699593297e+00
-9.539427559632900344e-01
6.271986557852681221e-01
-2.276229731540178047e-01
1.613610212128518961e+00
1.371803930942936178e+00
1.109361611676352999e-01
9.278977586162066860e-02
-1.529576213275577912e+00
4.666195291736197071e-01
-1.203388525225506989e+00
-1.305222742133842262e+00
-6.329409125324406693e-01
-1.988342354487778518e+00
9.896045605716304872e-01
1.247611829599804434e+00
-1.813409353608007590e+00
-2.053219526557714114e-01
7.187734229155270937e-02
-4.990217138037270073e-01
9.188903449095909837e-01
2.425969966829087665e-01
5.487572179852628906e-01
-3.137888803501694412e-01
2.299607543325143943e-01
-2.674049133381203869e-01
2.522076181954487906e-01
1.362530411813717368e+00
1.065682556489513821e+00
1.786925606963519764e+00
-1.094151827178521552e+00
1.015993230685964116e-01
2.056102612118591466e+00
1.855275943193891885e+00
2.910372064521751234e-01
-2.298869020882839287e+00
-7.415054511536496307e-01
-1.483985045542391301e+00
1.411894430266030120e+00
-4.047207963555444765e-01
-1.787778931015711614e-01
-5.649044516935913807e-01
6.242341925124681584e-02
-8.406544276463725485e-01
-3.931225655494645088e-01
-4.292355963506677696e-01
-2.020226146843107973e+00
1.088393402557502831e+00
-8.104994844851605151e-01
1.817376233057010682e+00
-1.706406966375003942e-01
7.655263293657336154e-01
-1.485239088413132125e+00
-4.096277781499798043e-01
-1.231053311405930550e+00
-1.640266723596367493e-01
-5.839595295868763719e-02
1.794916964261795478e+00
-5.444262847003086270e-01
-1.430356186627983694e+00
5.034917155471233530e-01
4.361591449141032917e-01
2.096737375257997194e+00
9.765615614227269869e-01
-2.690945197333142747e-01
7.744385944967991930e-01
-5.232712548799994812e-01
-2.264791112463814482e+00
-1.642946281541258546e+00
-1.664377494939287327e+00
-7.394233461045340849e-01
-5.709680210421647084e-01
1.147580689383834507e+00
-5.220349603222671497e-01
7.558343953205058641e-03
1.572898782740461021e+00
1.415131958172369808e+00
4.519318598681825172e-01
-3.617302611082331282e-02
8.504879209439420995e-01
-5.345148970703852420e-01
1.439310442862085537e+00
-2.073313661092290872e+00
-7.211846147269620477e-01
-2.446076630650951267e-01
1.134302200886897261e+00
4.398274064522516014e-01
9.160169668117603692e-01
-4.045916368575277478e-01
8.463585398932380599e-01
-1.105790254044325405e+00
6.852994110810247674e-01
1.292729988425935561e+00
-1.532546653287915284e+00
4.998950983849204110e-01
1.630626364598556810e+00
3.182034921001680172e-01
-7.615686913360364407e-01
-8.481026205887188807e-01
-1.628443517232881277e+00
6.136274232478676760e-01
5.899805331932248542e-01
1.196938982562452569e+00
1.607862500189003674e+00
-8.471728246782110894e-01
5.288258633090869854e-01
3.884338662141174070e-01
2.177182310221765338e+00
1.056056760002398009e+00
-5.576717554313121994e-01
-6.343503093217489619e-01
1.220596774492471059e+00
7.308076874547617674e-01
-6.062816115683388185e-01
-1.342537950368865474e+00
-2.084242830455386830e+00
-3.520221714512954403e-01
2.973032326853809471e-01
1.874466053637358520e+00
-6.760707373810330711e-01
-9.155347382838781023e-01
-8.140789684685771910e-01
7.923666711548946751e-01
6.283072324029084221e-01
5.022137585889279165e-01
2.692697862798607567e-01
-3.954990899165168883e-01
1.450009766346281204e+00
1.911956531793710390e+00
1.678769988974935456e+00
1.989021256285015360e+00
2.016748695194085172e+00
1.310302625892027617e+00
1.713307081110748920e+00
6.483183891053945214e-01
1.029382182620838249e+00
2.962329914239943740e+00
2.480830801397722607e-01
-9.516119160389450160e-01
9.822678088135525787e-01
-5.245428322448734276e-02
-5.142819801411367964e-01
-6.353520924792531721e-01
-2.938270257949475162e-01
-1.071487820200841545e+00
1.515175436688822375e+00
4.328094154176698738e-01
-1.113883702472346249e+00
-1.470471218994670926e+00
-1.925242408287263507e-01
-1.023111062492691570e+00
4.812896549548147940e-01
-8.534604846458598848e-01
3.919991513525019622e-01
-1.578935294128873235e+00
-1.997419706419018448e+00
1.052633572081475455e+00
-1.500350067487843830e+00
2.153022695105181850e+00
4.913197709168828919e-01
1.583759676684330264e+00
1.942321329752024983e+00
3.268674602031441112e-01
1.254854093128391357e+00
-1.877128233745687935e-01
1.353204088272486505e+00
5.168928490825893673e-01
4.008788859838943036e-02
-3.040762860416424407e-01
1.173559553189515769e+00
-9.396463668767587318e-01
-7.771264885937869682e-01
-1.539570459067623465e-01
-1.356966515115342720e+00
-4.913381064382029151e-01
7.665164431786047894e-01
1.568011306274754157e-01
-8.891335127311194020e-01
-7.023774816284063249e-02
-5.833943175029340233e-01
5.275809804690764215e-01
3.884348691498616946e-01
-3.817748921222912650e-01
6.435207241287013158e-01
-7.380636908862863166e-01
-1.180433810590637150e-01
-1.360332973257457612e+00
1.881095383992450909e+00
3.615358842780621584e-01
1.311286121332059018e+00
-3.994045949667635598e-01
-1.840301533113976040e-01
-4.023877231408310995e-01
4.004463188382655359e-01
2.762088972305993748e-02
3.764369250816345658e-01
3.371164151320056868e-01
-5.968735648120836457e-01
-1.200155763429721301e+00
-3.448301885837872782e-01
-3.573808640424313426e-02
-1.447534270062065476e+00
-1.695500866880245372e+00
-1.846190591229391664e+00
4.203386244571097885e-01
-3.350237007738009476e-01
-2.626421527444321447e-01
-3.168954576329552908e-01
6.419791393905445176e-01
6.381928098784340336e-03
1.535882599697775852e+00
-5.893762660854557911e-01
4.003878103470572269e-01
-1.566979309790177410e+00
2.406125628985691101e-01
-1.661772666546512456e+00
-6.792907245095395341e-01
-2.359832338390501216e-01
-8.240418268336685559e-03
-8.183170663372557607e-01
1.429293244792822382e+00
-1.127334994542993213e-01
-7.026752029006481104e-01
1.011807473733071783e+00
-9.972217740096794847e-01
1.172772443163685036e-01
2.795816428382222441e+00
-3.279198504295318117e-01
1.656225796460198518e+00
-1.450295395452924074e+00
6.538398328775547885e-02
4.263614001882375937e-01
-3.254351929403468957e-01
6.766891517301864001e-01
1.297591042403517803e-01
-1.215924883257814892e+00
5.024179293329726903e-01
6.725309747076693156e-01
-8.052568984700013699e-01
-8.947575441554515008e-01
-1.363686941071981240e-01
5.255796887500908676e-01
-3.135690321312928353e-01
5.272290781779871427e-01
-1.503539371433220140e+00
-8.653597460518025475e-02
5.789790188921731945e-03
-3.098502890620505879e-01
-2.617671695678776000e-01
-1.500727002711428337e-01
-2.060359655420323399e+00
-7.402687036931927533e-01
5.223675997917841540e-01
-4.607483003452797488e-01
-6.573622223050713531e-01
-2.570911458198841815e-01
-9.622886897575284870e-02
-1.026970506371542857e+00
1.470041255582969386e+00
-1.662590409409219205e-01
1.422579595503300487e+00
-1.427719162003980191e+00
-6.895004878710789820e-01
1.210192066065893801e+00
-6.012323535576686862e-01
3.023813483543335567e-01
4.662034237633973510e-01
-3.998346064894587881e-01
2.757269281867941735e-01
-7.197362635970310230e-01
-6.876429031439678097e-01
-1.494288029640402193e+00
4.610353047250655423e-01
1.050261986984756701e+00
-1.262313788168930362e+00
-7.783942201891913548e-01
1.589692974927731928e-01
-1.309049901835437901e-01
-1.668270860230290642e-01
2.702915284319003852e+00
5.348375015314758008e-01
9.703969765321392993e-01
-1.234597713645504635e+00
-6.762603982630349675e-01
-3.955841768235824896e-01
5.970208690269036556e-01
1.956775703454754378e+00
4.216934087000376863e-01
5.098329937632035680e-01
-4.490989544337855022e-01
-1.912761638396811778e-02
1.765010677324372335e-01
2.588757864417919330e-01
1.713103371540415920e-01
1.306679254171423610e+00
-4.733197215794766044e-01
-5.011065591692897003e-01
8.068528435115734920e-01
1.796321246326642695e+00
-7.098322956340684664e-01
3.989313675886896338e-01
-1.202089632771859762e+00
-2.399886526743957027e-01
1.556789542880913757e+00
-2.327494750590834716e-01
1.426144985150418654e+00
2.108382422678793056e+00
-1.314787752777401841e-01
2.634872688652972056e-02
7.710600488070830094e-01
1.054503516627721238e+00
-1.847702318770379215e-01
-1.799368075113848331e+00
-7.072177242622936788e-01
-1.503765128554882535e-01
8.518908709638790544e-01
-1.024710443647685931e+00
4.702239147480029025e-01
1.919185680924282433e+00
-7.991170687267983297e-01
6.260895479376487049e-01
7.294129941163420838e-01
-8.062923716204801750e-01
-6.086395736386092103e-01
2.796874883662483935e+00
4.601789282272933934e-01
7.754438232595253222e-01
-4.301599579450555710e-01
-1.682101048286940070e+00
6.813475715667631771e-01
-4.218064593809841556e-01
-1.686452935619487503e+00
-6.592027461550156175e-01
1.707521732068353337e+00
1.103749013741739171e+00
-1.009041864933112542e+00
-2.895942438934518970e-01
4.991467144059779648e-01
2.856068670126196696e-01
9.591086996485624627e-02
-1.033944711282608564e+00
2.248633290267493035e+00
1.662115964575725080e+00
-5.557047608685433682e-01
1.123855923634346832e+00
1.491314133311285817e+00
-2.139454566547156211e-01
4.637264673387888059e-01
1.425432339396915271e+00
1.560571144187783643e+00
1.754337016863187104e+00
-1.324231307156917614e+00
-1.554245536895240143e+00
-8.128820784235164520e-01
-9.105695145173476890e-01
-1.890242576752136916e+00
4.937335669330756432e-02
-2.660917061266764860e-01
-4.032854320176538776e-01
1.105738519850854029e+00
1.894251433365280901e+00
-6.528993305506140821e-02
5.743179325446230443e-01
-5.739739877681074853e-01
4.666560250667455695e-03
-2.333541239066300177e-01
-1.698499985047207117e+00
6.492119562026887891e-02
-1.739239006716186697e+00
1.304895362592766068e-02
1.438730488042868627e-01
-2.013060581673209726e-01
1.732953136741313405e-01
8.587517901511085849e-01
-1.130321888491028659e+00
1.928318936668294015e+00
2.702981396873974651e-01
8.663142695118909442e-01
5.284356972881198294e-02
-4.766182980775005573e-01
-1.119257583272324164e+00
-9.163426035696506933e-01
-1.039340710909657961e+00
-1.314759561995040849e-01
-9.901138174278669712e-01
-2.187296131020934453e+00
-1.849753290470635969e-01
-7.985759533291629797e-01
3.915031365848339884e-01
-2.792288405517027311e-02
-8.812684354047786162e-01
-3.404722631808247413e-01
-7.549181087933144463e-01
-4.502879118581089579e-01
-6.931710212816394323e-01
-5.876525413460497171e-01
1.104910285517051805e-03
6.649129609228481286e-01
1.158842973995137582e+00
3.823915448872949319e-01
-7.748200680183851830e-02
8.043217160286583178e-01
-2.039589174311605690e-01
7.168845461485096049e-01
3.853890489961502297e-01
7.035348709004521917e-01
-8.176179778252605779e-01
-1.414082146460759748e-01
2.347677086063467700e-01
-1.012433377875754825e+00
-5.762159900099971255e-01
-5.324737260279386319e-01
-1.031934399389203838e+00
-1.662306699503699192e-01
1.228865127555633791e-01
1.696734927406865490e+00
-1.143888319134923615e+00
-2.666891076405645822e-01
-1.889748511755261706e+00
-2.827434625695647852e-01
5.106418313736053038e-01
-1.206014120334571782e+00
-1.409192794258399495e+00
2.087757711191365662e+00
5.735529953081630605e-01
3.734379153271039642e-01
-3.429723228838705285e-01
1.002070334076378355e+00
-3.209172187515130781e-01
-4.774432500488669517e-01
-9.735022150914681704e-01
-1.585689050969516234e-01
9.393206607272367448e-01
-1.130645735847372491e+00
5.221340819318520676e-01
4.561479795482700772e-02
-1.768338734134255352e+00
-1.427227458789928960e+00
-1.799568626159323781e+00
-1.620213909244688499e-01
-3.516768600244578047e-01
-8.957544158260946077e-01
-6.501220974549758169e-02
7.071068801246738200e-01
-1.976356404797817268e+00
-2.342884363915160029e-01
1.470585979515096398e+00
1.124639618315572909e+00
3.212641152209729234e-01
8.967266076021841448e-01
2.057756130908461767e+00
2.047877098923059358e-02
7.880898732435587251e-01
2.301606892948532823e-01
2.241785380466635169e-01
-5.066602782367309876e-01
2.446261580132281788e-01
5.392245701317788242e-01
1.037296124923252183e+00
1.353684817469407831e+00
1.330593310265253626e+00
1.351571162467833043e+00
-3.966010331644011511e-01
2.044390705362343574e+00
-6.020448390260461080e-01
-1.046943818238875279e+00
-1.042759321733421896e+00
5.440671419870276582e-01
2.413453941432733285e-01
-4.215557199999300786e-01
7.066334094019220968e-01
-3.812280710618057844e-01
1.375267727429766440e+00
-2.265838802217110329e-02
-3.871194408518482954e-01
-2.325151483471339653e-01
-1.117434878877799020e+00
-7.979699406718386845e-01
-7.684778370822873406e-01
5.933852057606991970e-01
9.366526663005818598e-01
-1.540083513665582993e-01
3.980112673128369249e-01
2.792255896882697708e-01
7.797160799496680728e-01
3.537669624148880032e-02
1.627318854729744579e+00
-8.039675909756253125e-01
-2.619076874153422607e-01
1.468151386749566134e+00
-9.152726140611592287e-01
1.569850662050762846e+00
-1.243680795864512099e-02
5.429234259090076620e-01
5.838814781881955795e-01
-1.262247324664972137e+00
-2.593345295263668193e-01
5.370695258307786046e-01
-1.709483136217307297e+00
1.457494650882024567e+00
-3.384184921706847038e-01
2.889064119935114583e+00
9.446440794342068903e-02
6.803622662449841929e-01
6.025240725371356909e-01
-5.605542052432694877e-01
4.251806980894245469e-01
-3.269834740884611346e+00
-1.385971916102100909e+00
-7.585651592634283791e-01
-3.486722998507890692e-01
-1.376087366622181341e+00
-2.435835819399366498e-01
-9.624318724368829958e-02
-2.774097486964674508e-01
5.583689221764260857e-01
3.833068764201094103e-01
-1.220619452934901039e+00
-4.633691786946158575e-01
1.046805717446930739e+00
-1.988163208605381538e+00
1.026819103421114487e+00
-1.240438695093080551e-01
-1.332458421273410076e+00
-1.094267053287404812e+00
1.506593608755004421e-01
8.976786471963696945e-01
7.165931491384119889e-01
-3.982761354508031482e-01
1.041627300589986760e+00
3.732166459277713733e-01
8.138563595754318980e-01
-7.131363613074626073e-01
2.988952594401459578e-02
-3.310006697610788917e-01
4.912454441258294613e-02
4.019417721082158002e-01
-1.085450897340051180e+00
-9.693549110512015288e-01
8.688250782127471261e-01
4.593813559235441213e-01
4.162946293379293783e-01
3.106580506537348629e-01
-1.488402907088436811e+00
4.921584389735433329e-01
-1.986324245514488496e+00
-2.845438680114889540e-01
-4.344094334459714934e-01
-6.320462894092762074e-01
-1.887675905490291184e+00
-2.919345939243543908e-01
1.350490801606228364e-01
-1.892490631037540227e+00
-1.418247272112881929e-01
4.451046956211996419e-01
-4.961769174712032243e-02
7.482200722577962704e-02
4.703110139879571605e-01
-9.786329212320065141e-01
-1.594807669467241951e+00
1.723786317777731059e+00
-4.158605598267396952e-01
-1.048284268998243229e+00
2.537107713151098842e-02
-1.639208184804832547e+00
1.783886836623200800e+00
-8.564694799581401563e-02
9.698667786175317884e-01
-1.738080281693370033e+00
2.733280326579478614e-01
3.496817935047006887e-01
-1.489069782375844309e+00
-1.088127679030984840e+00
4.360251465740542232e-01
-1.015948703615360937e+00
-2.080971458222040216e+00
3.914351923691599677e-01
7.399651359906779247e-01
-1.927450953276770296e-01
-3.829899096631363964e-01
7.853061461949581989e-01
-1.663105610849740720e-02
-7.647619441207953450e-01
-2.376793718943965295e-01
-1.572856023965763794e-01
-5.629452660805041309e-02
5.982832996134329964e-03
-4.735309640275683352e-01
2.971056258388039134e-02
-1.820461632543537434e+00
1.055815754309630955e-01
8.117725084062286101e-01
1.449834209395378881e+00
2.250080775459063209e-01
-4.881994544422354476e-01
1.078556005784478300e+00
-9.945664805688849697e-01
1.033209606760283172e+00
4.112733350506801999e-01
2.716592694190321233e-01
-8.341358378563482612e-01
-1.657215258149440595e+00
7.302853547728178629e-01
2.005633434193938580e+00
-9.946058219426788805e-01
-1.147132820026790512e+00
-1.905839230697271347e+00
-1.181244114925556810e+00
-1.004536063207911001e+00
7.710497830384556162e-01
-1.385694188842651053e+00
1.131589984435855900e+00
-5.206424628578507630e-01
2.648821659589187250e-01
1.100203567232134860e+00
-8.834995283497938390e-01
-2.109270517395107181e+00
