7.672286367053363643e-01
1.708532233181301319e+00
-8.770419783962848381e-01
1.022514628521542068e+00
-1.198743504283527050e+00
2.171398250176141687e-01
1.134740052596089621e-01
4.537659058740720619e-01
-1.270173338675925967e+00
3.758486904003918716e-01
-3.056068923590796738e-01
-1.186884320630542250e-01
-5.715179304444161223e-01
-4.950415776985079286e-01
-5.524390702312453882e-02
1.041704714442327484e+00
2.673543244687407450e-01
-1.008839258717647347e+00
-7.278465083403608260e-03
5.422579716410068640e-01
-1.152532147451625244e+00
2.030552847859561083e-01
3.986838201800740195e-02
-4.036114945062931891e-01
1.666402712255978663e-02
7.133046377752237932e-01
4.192172146198671068e-01
8.505689306214004874e-01
-5.035608005648475327e-01
2.445609493229731424e+00
-7.839388408250534956e-01
-1.054052679177881258e+00
4.926846246205754398e-01
-7.794322201735796041e-01
5.039878812613252101e-01
7.673329783147915251e-01
-8.172351316115413766e-01
-2.018085601581577279e-02
2.237663562931967665e+00
-5.969433574876922277e-01
1.880390882176936618e+00
-7.762175132029172087e-01
3.970857792389183294e-03
-3.947989310115178618e-01
2.721908076807993404e-01
-5.844945725661632174e-01
5.424297374260111937e-01
-8.660845663906376890e-01
4.391644436056002521e-01
1.936088441983441433e+00
-1.732847157588911224e-01
9.024714238013401557e-01
1.637252841689038618e+00
6.785020501845283603e-01
1.521874290629592785e+00
-1.186470422054841434e+00
4.421104621822602998e-01
8.781452969843384082e-01
-7.742804677033500171e-01
-2.012874554242713165e-01
6.918935962834487086e-01
9.165060736567179900e-01
4.192085382189338350e-01
1.830077609700488495e+00
5.884221022633918247e-02
-2.092164044036741721e+00
-1.387065264893774019e+00
-3.849344885051702025e-01
-8.508047358505393953e-01
1.532732362783701952e-01
-1.407677053966817082e+00
-2.103969253852581989e-01
-6.754720228170365548e-01
-9.779548202428343107e-01
-6.111279272385120587e-01
2.179440944194001306e-01
-1.071476096583787285e+00
6.744465566538255796e-01
-1.021492729812772060e+00
1.330334851010449571e+00
1.128238079275964978e+00
-1.638028633463930184e-01
3.937056736231597243e-01
-9.754762410519274979e-03
-2.950828856477753503e-01
-5.125797536691162337e-01
-8.320895623670077068e-01
-2.935214086721480223e-02
7.352273938191473679e-01
-3.182522038190151559e+00
-1.084201054984468948e+00
-9.590440589437748686e-01
-4.522305813340031233e-01
3.790707330731034053e-01
-4.943775182015927583e-01
-2.047116399662314568e-02
-6.376292621588867116e-01
-8.310112075873048454e-01
2.042534078767070493e+00
1.974190118780223990e+00
1.051640540640159216e+00
-2.927431126912186654e-01
-1.976797881762569764e+00
-1.383106088091338837e+00
-1.191345476709740892e+00
4.981628705132947199e-01
-2.593589265058048321e-01
-1.543354281307670384e+00
4.133688368874003927e-01
-7.924427746551816754e-02
1.677085233830479805e-01
1.841510475619557941e+00
1.418962958418582776e+00
-1.135546462648467037e+00
5.325414033019966187e-01
-1.084625565480090703e+00
-3.769513177813679228e-01
3.385444628143299828e-01
-7.260188422835764932e-01
-9.571663736760119279e-02
1.760688590823669131e-01
-4.721955363714930853e-01
-1.386984346543350954e-01
3.723335884896969983e-01
1.486999333441078930e+00
-1.614805050063062020e-01
4.189971005332654985e-01
-5.206002443907178368e-01
1.215196396834602677e+00
1.708376161981078667e+00
-8.873249744480148360e-01
-1.098936468345727668e+00
6.122027991310343698e-01
-1.743427574882180142e+00
-1.096379402219099353e+00
-1.947634871322085903e-01
-9.783801876927065155e-01
-4.292634778895539072e-02
7.641700668835289534e-01
-1.051001601984601574e+00
7.554804100979085613e-01
-2.492693422305328532e+00
2.764595546383976643e-01
4.480495279397478381e-01
-4.839114437629312704e-01
1.251186636030663157e+00
-1.369019531563453684e+00
-1.361105179441932878e+00
-1.029677925561131913e+00
-8.728479802098521034e-01
-9.800487039752848739e-01
-3.015048244898514529e+00
-5.213974206417152368e-01
-4.943857824844452575e-02
-8.994474811114608892e-01
1.326054187572074827e+00
9.067631503360629175e-01
5.736410595676798563e-01
5.762938906800668670e-01
-1.960747076129260913e+00
7.082013103268029741e-02
2.232440259473637667e+00
-1.696151688964815163e+00
6.694645598208077697e-01
4.636093768922456837e-01
-1.091677591563533500e+00
-2.847842211473959328e-01
1.428889337913651636e-01
-2.559462964559235942e-01
-9.872518552298030770e-01
-2.375819181928704005e+00
8.631604999018856195e-02
1.649063413013281687e-01
-7.591578348907597196e-01
2.562584974493408718e-01
1.053318646063454711e+00
-9.841277103964108930e-01
-6.669470435840829659e-02
-9.478047570943776146e-02
-1.764495392132461538e+00
6.098701699867123960e-01
-1.748399728976097522e+00
1.897616020445539009e+00
-4.953309016840005130e-01
1.680925657099906489e+00
-6.279173479891844156e-01
2.840244180751358094e+00
4.390541599153585106e-01
-2.602382708015405499e-01
-2.642312726424843050e-01
2.698602310741988752e-01
-1.925067796548802779e+00
-1.275177725381107852e+00
-1.181052894843574341e+00
-2.902826147980466787e-01
4.700408940734228103e-01
-3.655279284856297606e-01
-1.568374353382553932e-01
1.296725073598751665e+00
-1.490473249228029706e+00
7.624612717170108356e-01
-1.767734011392371740e-01
-8.360630283585094302e-01
4.572377866105201694e-01
-9.466827090083815843e-01
8.289004809227314974e-01
-4.589860175912625073e-01
-8.621171342721479780e-01
-1.914156821385788243e+00
-1.851234050662254882e+00
7.248547401106653076e-01
-4.876608672225729024e-01
2.207300846456502486e-01
3.442588421728118298e-01
-8.406633553258542335e-01
2.296470837740452742e-01
-2.950492899689965420e-01
-1.015466420973556022e-01
-5.173668202600724131e-01
-4.013972396104174556e-01
-1.554798368181651735e+00
-1.160066870910505088e+00
9.322911882464447464e-01
7.467856830336835339e-01
-9.462497259047647491e-01
-1.509109889069735477e-01
-2.276285932986108040e+00
-1.534449350428043202e+00
-7.216211862976740221e-01
-6.124663936731252756e-01
-3.952644770715506573e-01
1.381856808222683197e+00
-1.632039719816464673e+00
6.908019607486449720e-01
-1.153504417839039453e+00
8.967748185463380040e-01
-4.055049095551634397e-01
-2.211408448178517006e+00
-9.400232618209727331e-01
7.801755214098357039e-01
1.528014340129542903e-01
2.623032918124699187e+00
2.812838709455554587e-01
-1.438167121278949821e-02
-2.116737992309256355e-01
-6.120581340694603023e-01
1.092540124905439121e-02
-1.464757188409463451e+00
-1.152448225635742451e+00
9.982033468275882671e-01
8.446877367876635123e-01
-2.177274733785630745e-01
4.220125928703946094e-01
1.523465280343069939e+00
-3.906860270432200299e-01
-2.065680797282497316e+00
-4.402112621385014801e-01
-1.912223831344253555e-01
-1.762158107277378427e+00
-1.919316101756348703e-01
-1.026154746446713700e-01
-6.992019483555829140e-01
7.951966550618230212e-01
-1.058429399303363327e+00
-1.391312514374501541e+00
-2.828110968384671686e+00
-1.331016093249124399e+00
2.585046472895379033e+00
3.020769012649976659e+00
3.010384660019812531e-01
1.638606603948678408e+00
1.927597172831057304e-01
1.166362846318406588e+00
7.532296556808337762e-01
-9.392391447001501026e-02
-1.261672082337798706e+00
-2.625661728394109717e-01
-8.468878648722113489e-01
-1.895048746976484566e-01
-3.385618862631628589e-01
-2.604975282955683369e+00
-7.464998063227172853e-01
-4.748595264245931702e-01
2.970800730828984659e-01
-3.573358453253976386e-01
1.254069628402778358e+00
6.858953123692170806e-01
-2.480083090814854188e-02
4.892165916680462079e-01
-6.442267324441454113e-01
4.770176842994489630e-01
-1.246067021349092308e+00
-2.354479166081020036e+00
-2.637324443251070072e+00
-1.767830089746028399e+00
-2.048247970670781237e-01
1.804538478726250839e+00
2.005993022353848687e+00
2.062835664546150305e+00
-1.015036961525308090e+00
-5.245221127602358591e-01
8.140258529267477838e-01
-1.251064907834640527e+00
-3.044065576135341011e+00
-2.279182488233912895e+00
9.708617174926980065e-01
-2.120398403264030229e-01
3.824332925581184206e-01
1.285207704524124139e+00
-1.173717120191770213e+00
-8.855923093091808695e-01
-2.002091375482612623e+00
-2.039828060041619651e+00
9.412587170470957387e-01
3.875974858236160281e-01
-6.113882868923189440e-01
9.656456664224066788e-02
5.455673823205144102e-02
-2.058473696157294697e+00
-2.212793197417780300e-01
-8.231443999256601307e-01
-5.626656593994366906e-01
-1.530073898205391414e+00
8.527344333390580733e-01
5.939650895058455893e-01
1.150022526728192052e+00
1.041482297461992168e+00
1.314024226515019489e+00
1.190852663959715230e+00
-7.568956775472960308e-01
-7.465509969234637166e-01
-9.991457922080893006e-01
-4.753489371656559603e-01
1.191824703945200126e-01
-7.132070266806815884e-01
-2.166459001273800755e+00
1.074531753596194017e+00
-2.253947862765150745e-01
7.969236347400520115e-01
6.910637881935411952e-01
-3.288918784225538516e-01
9.176633023368914455e-02
-1.314046477925527423e+00
-2.061626694877485733e+00
-2.345534047767364461e-01
-3.938165092538945533e-01
-6.684265209047497436e-01
-1.532994824703801440e+00
-1.113129166159914224e-01
-1.830616680018604336e+00
-2.153385585507372912e+00
-9.429035091339070529e-02
-1.413837984386240310e+00
-1.009706921254011514e+00
1.320012586730343385e+00
-6.817140204724143615e-01
5.232473544299004464e-01
1.439938229254192015e+00
-7.388750478847541103e-01
4.288618082429930256e-01
5.253869145452637612e-01
-1.247175932907199414e+00
2.088538337890041507e+00
-1.056335079123560172e+00
4.212241230617198018e-01
5.914914058451901102e-01
-7.139721645388451554e-01
-6.665112095543891391e-01
1.622338670104832570e+00
7.142117026030700977e-01
-9.794380338425797694e-01
-1.301577856502945885e+00
-2.387762055133824668e-01
-6.115821272212620396e-01
-1.453614912718620145e-01
-4.696011972758737940e-01
-7.946391716349757717e-01
-1.016912279050955714e+00
-9.693207656652137461e-01
-1.267511252775043396e+00
-3.814568281166579311e-01
6.743616968311865190e-01
-9.136722975478379638e-01
7.638119491361124169e-02
6.817232620054768377e-01
1.241440519477404608e-01
-8.859612809267206623e-01
-2.017121279125935640e+00
3.436873874719864053e-01
5.881979385764758428e-01
1.239206493932952340e-02
-1.061676380642134765e+00
1.281417024238036273e-01
1.325686921555606357e-01
6.945529277674391544e-01
9.408280915379159115e-01
-2.954061485061625358e-01
-2.030699248856204508e-01
9.522238008400064624e-01
-1.405532449442453702e+00
-1.894196985455365301e+00
1.121364335952084623e+00
-1.836487614207366503e+00
-3.516004344944205218e-01
-4.803661080712773312e-01
5.681581273511169261e-01
-2.349112080024491789e+00
-9.373927906078309835e-01
-1.119367635324853394e+00
7.317792057222480828e-01
4.556039587729631031e-03
-1.347413475038824693e+00
5.828816950341002556e-01
-4.201361506442292670e-01
-5.556989942159661355e-01
-1.477930423884601385e+00
8.946650862063948439e-01
-6.702257630273583677e-01
1.166886469070939736e+00
-4.108336943038527478e-01
-8.168506168932108125e-01
-1.511130703931092834e+00
4.155773791353880586e-01
6.121514605579644330e-01
-7.325985829535931748e-02
1.546818978706562708e+00
1.243913293911862006e+00
3.053139089522207139e-01
1.415585554989985395e-01
4.734201919127448838e-02
-1.054475827679149713e+00
-8.950502780998021990e-01
-1.606252016208924882e+00
-3.101414721657813969e-02
-1.326036199849088604e+00
-1.000477217693454435e+00
1.793719289595174515e-01
-3.321826309303597680e-01
-7.603702967914716115e-01
2.542854344842589431e-01
-2.095266846504143798e-01
1.480096105379131943e+00
-3.393531399905116985e-01
6.065327498467769640e-01
1.667267239550367597e+00
-7.715710509549021934e-01
1.116913138774515923e+00
-2.248564198461264763e+00
1.453185124222406421e-01
-8.809091566458290279e-01
-2.732617916249516776e-01
5.691278869625702175e-01
3.105781604659615946e-01
1.963703337144821592e+00
8.859342945167130168e-01
-2.508081455954978556e-01
1.525030688914764676e+00
1.729231262190383533e-01
-3.169334231497887289e-01
1.823587308564630582e+00
1.958394439421310140e-01
-1.007559453742815914e-01
-6.260761812456084874e-01
1.161112943107431628e+00
-1.268149986438545485e+00
-1.807745265269378399e+00
4.902691455774912388e-01
-1.394342736118153736e+00
3.214677623073302626e-01
6.750825717313053698e-01
4.369827793972503871e-01
-6.343599227818371711e-01
-1.484647875515550108e+00
-2.057099112693344667e-01
1.152311378378233053e+00
5.911074536389449019e-03
1.140942292045900253e+00
2.959309748749568980e-01
-6.553343020777431249e-01
1.532085261209815696e+00
1.057437051615316426e+00
-2.023033162227657888e-01
-1.344181431393128290e-01
9.221747515714945331e-01
-1.393948276900238425e-01
-1.060311172293457282e+00
-3.806346645197155043e-01
-3.743834487956141377e-01
-1.127851118892327087e-02
-4.759585591392449799e-02
-8.226895737560674382e-01
-2.835127583371417348e-01
-7.071578018368854801e-01
2.955506649532984031e-01
8.421529268246552569e-01
-1.133893643656546546e+00
-1.809024194579400002e-01
1.301978540436693303e-02
-3.956447496396042762e-01
-7.296329422242562313e-01
4.746858017654923545e-01
1.043237016365294201e+00
1.305060970221140648e+00
-1.550065174181727290e+00
-1.286069315466960461e+00
5.829528415281660658e-01
-2.519941257260368550e-01
-1.080374364006834398e+00
2.969681739144264032e+00
8.269393730686956934e-01
-3.758817671883077360e-01
1.098548664567921440e+00
9.036355258698790527e-01
-1.111305305596276272e+00
1.844165115005855782e+00
6.443770576351295909e-02
9.688511151354822770e-01
-1.450131645758010901e+00
-5.104516643106397078e-01
3.442435457697956003e-01
-1.153438451142262178e+00
-1.011759594831549869e+00
1.989619399262965604e+00
4.085792289183471371e-01
-9.895582140923732117e-01
-1.399089405526541263e-01
1.250437667775792017e+00
1.526951374441680720e+00
6.454502944813915732e-01
1.333864467325376335e+00
2.156647104671532755e+00
-9.003619525122489309e-01
-6.581982815994368297e-01
2.625348261330423538e-01
1.566888452385093722e-01
6.238357633537570113e-01
2.845297810021808482e-01
-8.844127008139625046e-01
2.881273977487009752e+00
1.024486231395741465e+00
-5.553799619613276617e-01
1.895220879184596141e+00
7.725026483045265291e-01
1.983934842345978833e+00
1.759421228487771272e+00
7.633141672348571216e-01
-3.848883111525798206e-01
7.892543280174356690e-01
-7.922101048060282702e-01
-3.365703157611019125e-01
1.506669422271961212e+00
-1.122460737979887879e+00
-2.527501052476393895e+00
-1.037470843669686893e+00
-2.762516165428578141e+00
-2.676021850383410339e+00
4.563951408234681040e-01
-7.669499045204719589e-01
-9.135294998010594636e-01
-1.488892565819017189e-01
-5.686108063666294177e-01
-9.316623899586078117e-02
-2.379680392296070757e-01
-6.848810896311395835e-01
1.645588775588636699e+00
2.537446223465988915e+00
4.860779921467228148e-01
1.905282619799693267e+00
1.546708009097861991e+00
1.975383338080837659e+00
9.197137530640676628e-01
2.044851827912311126e+00
2.513046423743766411e+00
1.200725356481171097e-01
-1.311092232995580309e+00
-8.333532504969999311e-01
1.684259834966779001e+00
2.128187581737671363e-01
-2.100474104122917463e-01
2.160871847384130628e+00
-1.058404074794816241e+00
1.272926822099718747e+00
1.092087071702028123e+00
-5.543964734121877708e-02
-2.317032268876596746e+00
-1.540092806125726022e-01
1.811226332539937367e+00
7.138813728660662328e-01
1.112789881305299877e+00
-2.296867731968910975e-01
-5.593986918989268114e-02
-4.950960165518640266e-01
1.122604917696486515e+00
3.412717838038911156e-01
8.481772339301729691e-01
1.005900305622168478e+00
6.363593371007630894e-01
1.067363398079797798e-01
1.427360348916579591e+00
3.707753131511848377e-01
-6.707141640149602013e-01
3.836856543646801621e-01
3.785014651506310446e-01
-8.318531915811463451e-01
-9.151038360042480502e-01
6.800904701273182695e-01
2.240173698932189927e-01
1.002347381341292198e+00
8.352327534206498427e-01
1.285739874481431677e+00
1.934797607101359229e-01
4.232835177747745758e-01
1.312184200680963260e-02
2.257665564246142065e+00
-1.210005354030424085e+00
-6.623920386350742318e-01
3.756587725299719294e-01
-5.167945239543514369e-01
-3.829049819901278462e-01
8.553661374607283152e-01
1.184325386165149929e+00
1.056960606474434794e+00
-4.459672234957413606e-01
-6.649524023795941874e-01
4.287893316031312074e-01
1.283636198226863145e+00
-9.785529532458819846e-01
-1.877616433836596377e+00
1.374761857671503051e+00
1.412522622361506996e-01
-1.934380622718883391e-01
-6.837812699756358192e-01
-2.221260462706004635e+00
1.118769385363436397e+00
8.270134155972355128e-01
1.665291353602318114e-01
1.417902378617791559e+00
6.311246766863530810e-01
2.604230643710863990e+00
8.305020147644023298e-01
1.208107841564713736e+00
-1.353216224302776327e+00
-1.407345116753584424e+00
-1.414625525659560568e+00
1.789370494475135187e+00
1.119870603262691500e+00
-1.782692026149216957e+00
5.862274648871269589e-01
5.433439700720306131e-01
2.783316943328946191e-01
1.809059454145302670e+00
-4.988552596755472246e-01
-1.451661135760592636e+00
-3.623691812520842270e-01
-1.363865342364031008e+00
1.796736278144873689e+00
1.423211629390851884e+00
5.120946313435128516e-01
-1.224900645455245130e+00
4.629606623523497277e-01
-6.428556229138768785e-01
-1.394904838627919474e+00
2.113675767896516344e+00
1.708051559307869116e+00
6.281840938496052740e-01
1.131226305775347579e-01
6.912909104233757596e-01
4.011750917616278000e-01
3.252879279926351730e-01
5.888744004199840676e-01
-1.208381086030694496e+00
-8.033521541344267325e-01
-7.836377598689668877e-01
5.054345160483871696e-02
1.116172717978097362e+00
1.245970623829967705e+00
-9.863032952605601533e-01
-5.769643694370512055e-01
-8.481110666756327410e-01
-2.464415169688925378e+00
-1.722987035800410016e+00
-6.344705603934043259e-01
-7.200125055459505319e-01
-6.615102474134944011e-01
-4.487928061016918102e-01
-8.431830681072598477e-01
-4.234506375673358081e-01
1.709389980997925995e-01
1.443276342181200045e+00
-1.480491186283274585e+00
9.863025413105465100e-01
1.686996636849170228e+00
1.621436105933300675e+00
4.041912656780902724e-01
-7.954607377286224690e-01
-1.841112681603935819e-01
1.280648247959921937e+00
2.076842115056158011e+00
6.944055797792113571e-01
3.900760615457116720e-01
-1.198470919190558259e+00
1.898039231012168537e+00
-9.996575702077538095e-01
-3.754689671812764251e-01
9.538673429175731355e-01
-6.888011635355402174e-01
-3.278696471753874547e-02
3.172569478219867123e-01
1.676938312297401590e-01
-1.204384023021338290e+00
-1.701599341451348613e+00
-1.631405272196864598e+00
-7.727919531105464923e-01
2.290335649277439045e-01
6.833328581282530623e-01
7.293355901556919374e-01
3.051377116015239199e-01
-7.235006966219279523e-01
1.151371918724017007e+00
-1.491849411185169227e+00
1.438392783978586387e+00
-1.587397356944482585e+00
-5.012001631489845233e-01
1.198668004009462384e+00
1.840166934490736095e+00
9.083651422025114108e-01
2.459168210408520239e-02
-2.297834969258424620e-01
-9.092231026973558727e-02
1.496000004117278070e+00
-3.890812347363828971e-01
2.935022781942063785e-01
6.330747910457450445e-01
-1.429250148247354968e+00
1.378913143478737169e+00
5.091735589141432872e-01
-8.549036550885797947e-01
1.319277192094218787e+00
1.115552356070061091e+00
-1.218861180195358385e+00
2.389803284787218318e-01
8.278278566914953895e-01
2.817973525502269205e-01
1.516250302974119224e-01
-1.591103276155923438e-02
4.107665467492591649e-01
-7.299995866472656081e-01
-1.874726547137650856e+00
2.485455422656202285e-01
9.247180804761524486e-01
-1.741639941118603152e-01
-7.718263138481108454e-01
-7.018861050259470602e-01
4.087089072540432411e-01
1.152735960571593887e+00
1.407317649666324666e+00
5.775489007048173473e-01
6.523701559686831963e-01
-7.544436552485237479e-01
-5.229769063603852963e-01
-7.384253906911306675e-01
1.155922648508973971e+00
1.639396966496247776e+00
-1.369902611898501599e+00
-1.755162812219209334e+00
-1.009941073537983458e+00
8.354271074515483564e-01
4.160302557023319858e-01
-2.023058850100008854e+00
1.546600314183708358e+00
1.293204497467866261e-02
-7.900385638718790959e-01
1.010598492541114612e-01
-9.115876394987232345e-01
-8.093595456496857632e-02
1.290647212434449020e+00
-3.591995928331261911e-01
5.185457125591941274e-01
-1.737232341602614749e-01
7.237184091610300296e-01
3.201004759239839403e-02
-1.048072171530999075e+00
5.546465046055447656e-01
7.967843303730314242e-01
