-1.587535706306927030e-01
-6.677481075201454619e-01
1.293625703539223570e+00
-8.616636251187552442e-02
-4.464047641618876794e-01
9.325064964790077404e-01
-1.409049486204835722e+00
6.995721987572295353e-01
2.063409460113419414e+00
-9.012415645783304896e-01
2.612104485800505471e-01
1.587120789195285431e+00
3.714045415597538868e-01
6.570034818264866017e-01
1.240600078491898017e+00
1.839125799809618877e-01
3.196260014482830702e-01
-2.182479451597029996e-01
2.396060146974826388e+00
-1.601517213070269285e-02
-1.030426204566047277e+00
3.052292730627272355e-01
1.143462011126633371e+00
1.137954902638154353e+00
3.148519105437241894e-01
4.434311394487841507e-01
-4.397217753489746084e-01
-9.171652002606571763e-01
-5.241034831045340292e-01
9.848591557287474929e-01
2.329751825165278512e-01
-3.960724915449136407e-01
-1.782850723505112200e-01
-3.483172259160221551e-01
1.734843163359196749e+00
-7.499236670738725899e-04
-8.739672116335914787e-01
3.535550595820592945e-01
-1.145208019640958419e+00
-1.250874740439642252e-01
-5.101601673757238942e-01
6.048086190752020030e-01
2.051523030421503968e+00
9.591920055262478373e-01
1.412983576429522659e+00
1.842244108223310306e+00
1.987457434853743266e-01
-6.294773519821726948e-01
7.764963008813282608e-01
1.223365295806869035e+00
-7.588835886334466263e-01
-7.593233886199743932e-01
-1.984758213214015354e+00
4.607841773694696386e-01
-1.830343982481363874e-01
8.746981054533752298e-01
-6.827752702467988488e-01
-1.690730597836392457e+00
1.215006456025580078e-01
-1.132577719487853907e+00
-8.683363301024757952e-01
-1.337559950299097355e+00
-2.366396015703609579e-01
8.139520342449879653e-01
-2.094979107306412236e-01
-1.727504232015884655e+00
5.488444828441981782e-01
-1.481098590828834549e+00
2.231675817430273323e+00
2.454327410843524238e+00
1.217275517623697345e+00
3.932376332627070259e-02
-8.497702662541600782e-01
1.065458393207070698e+00
1.526661206696727335e+00
1.697773761927520442e-01
7.367115340954176472e-02
-2.296276613785437348e-01
3.172849576825614304e-01
-1.962549807779365274e+00
1.782587652668860434e+00
-3.401591389300242518e-01
2.308593365941764119e+00
-5.548293704482550742e-02
-8.144179577674383330e-02
6.440162263961377587e-01
1.176390127518923134e-01
1.370344192890038670e-01
1.381682247384659057e+00
1.821873333302965747e-01
-1.247700446600890356e-01
-2.885784983876428789e-01
5.787965992202765975e-01
4.998764266754920915e-01
7.149083354570338056e-01
-1.638966440402873648e+00
1.577369636290859578e-01
-3.666273807071382951e-01
1.174214718632650006e-01
2.031126477381483553e-01
-1.506802821824209992e+00
1.359147483286648805e+00
-1.284790384674986186e+00
1.204848427494763952e+00
-5.838600635471892231e-01
1.160120936577735851e+00
2.327934941296338212e-01
6.064619125921694859e-02
7.808629440219394535e-01
-1.525045608066561309e+00
-1.757485459983827658e+00
-1.183634671525714666e+00
-1.916029059509666732e+00
8.470571935148185627e-01
-2.299568586890043953e+00
-1.371451398241531949e+00
5.357608303583579756e-01
-5.427124007186501231e-01
-5.064794155857719193e-01
-8.399028143181546113e-01
5.206681745392661709e-01
-8.585116935083140222e-01
-1.597053782379049158e+00
-9.268557391395042255e-02
-1.325938533949111431e+00
3.168684483209765479e-01
2.397652341266379050e+00
1.106637337277133648e+00
-2.715293680805729304e-01
8.837069969306885486e-01
4.662717370036428832e-01
2.946309682773020078e-01
2.706384230150254977e-01
2.180181136287026311e-01
-1.162744774025968653e+00
-3.325564000123333863e-01
7.504659156946150711e-01
5.551294842096459181e-01
1.125799503326814888e+00
6.267463147361002074e-02
-1.371315781940595002e+00
8.936145084714423870e-02
1.385760676738059027e+00
2.124647054359564136e-01
-7.288360785585814572e-01
-1.284623203649021272e+00
3.072514073131026313e-01
-8.870705198466201369e-02
-7.818768392241634002e-01
-2.335521308547935104e-01
1.845409704263636930e-02
-1.828671198381053076e+00
1.539829566252173487e+00
-9.185458778303466909e-01
2.168355051349509510e-01
1.394001962137950912e+00
6.458794378334884456e-01
1.976418611388994773e+00
1.588127135504025303e-02
-1.646982066552995727e+00
1.143960078410256376e+00
-1.111964915067664039e+00
-2.268658145128456205e+00
1.047670205893266315e+00
-2.041897474435397708e+00
-6.447391539210203248e-01
8.229269243588397398e-01
2.538812751709228488e-01
-2.181243679986036632e+00
1.221154405659668624e-01
-1.147370003260308025e+00
6.979061313716170556e-01
-3.758941773729504998e-01
8.662531418699713770e-01
-6.831183206091779869e-01
4.572628913435547449e-01
1.405930040624937538e-01
-1.557937005260539909e+00
-1.963948247130684832e+00
-1.341923168552720425e+00
-1.994620949915796970e+00
-2.368702942896711239e+00
-3.355519900798243249e+00
-9.292922133483317859e-01
-2.152318117417537202e+00
-2.368461440840174959e+00
-1.770427076958137391e+00
-1.033594669323592674e+00
-6.663297425308487565e-01
-1.209753021417047769e+00
-2.277156683437177587e-01
-1.433795807152913986e-02
6.524525617291530022e-01
-3.383690493683049194e-01
1.391623423389600989e+00
9.226446093440235918e-01
-1.483045625872261963e+00
-7.302282573298052304e-01
1.560642698769345138e+00
4.410268642648058068e-01
1.650693128279958621e-01
1.450374893941102084e+00
6.901413339398093649e-01
1.244622705281657637e+00
-6.269257139478195962e-01
-2.489532733706105727e+00
-1.486904821622445860e+00
-2.310310602720550222e+00
-3.121513642247487397e+00
-1.317577387226769314e+00
-3.635378265224590066e+00
-3.577340365386262100e+00
-2.757350682492147875e+00
-2.099686326026788397e+00
-1.875346116979548450e+00
-1.787827740668868515e+00
-3.402547374378288136e+00
-1.044472925755136616e+00
-4.619206560823269636e-01
-7.771410891972835300e-02
4.527295797918013398e-01
-1.114138743359454307e-02
8.285333804304825245e-01
9.154241204335611393e-01
1.670670688336464149e-01
-6.368658510535124551e-01
2.397152209825476332e-01
-5.317789825168167672e-01
9.262950026987035734e-01
4.045484959729773178e-01
6.366886640231714800e-01
1.759973489576524885e+00
-5.457252400557416339e-01
-6.482166394986434987e-01
-6.965362122111579124e-01
-3.336751375355941462e+00
-4.829062948665415078e+00
-9.441301774662885782e-01
-5.552940816033556715e+00
-1.738810993732153864e+00
-3.331944487968590440e+00
-2.790668745193168654e+00
-2.820631178504599212e+00
-8.619776442808809724e-01
4.452000864953321591e-01
-1.487780770307996381e+00
-2.832648950815375155e+00
1.414021884294981990e-01
-2.233860283227609711e-01
-1.192527230965161111e+00
1.260037968972397060e+00
1.845352604041128552e+00
3.839783628186356212e-01
-2.171723994960102211e-01
1.944334822820989794e+00
-3.691571922106725578e-01
6.086537218744858535e-03
2.258499265862197625e+00
5.203582076942552259e-01
-9.261822456636773504e-01
1.299115350694802995e+00
-3.655003389772094602e-01
-3.762811515207229451e-01
-2.917406121037552591e+00
-7.710992180472123758e-01
-2.865520663404369284e+00
-3.627532265626724595e+00
-3.699786296866582447e+00
-8.513036924705845720e-01
-7.456683694521401007e-01
-1.333633985827229251e+00
-2.867811913566293835e-01
1.109746404219588145e+00
2.116019265959442119e+00
-6.547748248248822511e-01
7.049453750201671864e-01
-4.921678112973222885e-01
-9.602050814590543659e-01
-5.495177642391159134e-01
1.996898208873242042e-01
4.881394175329477336e-02
9.283109926459316430e-01
1.943164303957630179e-01
6.186708602053369033e-01
1.237411077209357613e+00
2.160928757280435875e+00
2.790203904276781382e-04
6.589254010388077010e-01
-1.619962382248045507e-01
1.587772000037993347e+00
2.333936147141947082e+00
1.018011212785567166e+00
1.741034682088934693e-01
-1.694610954846609951e+00
-2.848359514155445193e+00
4.796475204560845529e-01
5.138511718819426255e-01
1.216606202276589332e+00
-1.229140796177784933e+00
2.242713631507070371e+00
3.174736544979520625e-01
9.775467018041239520e-02
1.324983043901528657e+00
1.108096109125763284e+00
-3.277077301425143308e+00
1.751133719827943636e-01
-2.149239272427088399e-01
-2.508527513059534697e-01
-2.205836108438937515e+00
-4.249037188885522454e-02
-1.568451990390023337e-02
2.978063041463593574e+00
1.134078544083621631e+00
3.918714651925160886e-01
6.891178258056056549e-01
-1.483727205446925268e-01
1.992739311362219601e+00
1.315026310487665828e+00
2.817018232590343452e+00
1.824859174319180211e+00
3.926832176687981679e+00
5.173354212943283015e-01
1.541865642639813183e+00
1.160628678995483165e+00
2.440110260336235015e+00
8.880108096355597835e-01
-1.266313547147401575e-01
-1.201732002188026005e+00
-2.284704672973517425e+00
-1.853651760568737927e+00
3.104913063094886239e-01
-4.665187876348897422e-01
-1.788832715281472030e+00
2.697403445618191675e-01
-1.305397320646044745e+00
-2.885311233899154892e-01
1.372894283802329252e+00
-1.153460755246239033e+00
1.046619756899622056e+00
-7.756893987130228929e-01
-8.830364290974294095e-01
-9.024038391375026613e-01
-1.615203731438149326e+00
-2.494545805962017915e-01
3.766510469876397597e-03
1.093457334642653045e+00
2.056594454797377125e+00
3.458842215930636677e+00
4.290123807589922400e+00
6.996605751932418737e-01
-2.179711041617716560e+00
3.927573832328140058e-01
2.862114561234191390e-01
-1.936284374161524102e+00
8.212254776429440684e-01
1.311421660251574639e-01
5.713691134491596380e-01
5.114027622158574538e-01
3.033819028171643173e-01
-6.829050724675455042e-01
3.518312590623173253e-01
-6.105078355088252584e-01
1.030545556539216978e+00
2.824999892818158553e-01
6.916115455547787449e-02
9.746103168663244887e-01
1.274809403474998160e+00
-7.033338035503509111e-01
-1.157445144746483079e+00
1.913017197738062558e+00
1.467483451597214605e+00
2.402947897890263196e+00
1.221229313401453798e+00
1.496555921663943689e+00
8.122565886338095620e-02
2.426014938372503593e+00
3.444261218820449777e+00
-1.731807243007045249e+00
-2.828617613512386164e+00
-1.343874584738204314e+00
-1.505788939123284820e-01
-9.961980546882733822e-01
-1.459853387838650818e+00
7.640308735945984253e-01
-5.188414844404142245e-01
3.225255028318708139e-01
9.150277029508518956e-01
-1.382064868470807562e-01
1.074447984632250552e+00
2.875415536221226365e-01
1.141390541361024802e+00
-1.201154198528643358e+00
8.916030869440952911e-01
2.444998482634697656e-01
9.378929040094839964e-01
-2.664350075609844826e-01
-9.020897946605437312e-01
1.205951005445018875e+00
2.861633407807424145e+00
6.031288621396876382e-01
9.780342941233883813e-01
1.775742093895747997e+00
1.352221604559321610e+00
3.557819579427117240e+00
3.386225644783594557e+00
-5.719818185902365570e-01
-1.311198821255972646e+00
3.744913457756838815e-01
3.618101573256579107e-01
2.088878826463466343e+00
1.966653588398576069e+00
7.417574241383559919e-01
2.108786357184322391e-01
-3.656107591536865709e-01
2.957978129542791379e+00
1.336739557428755498e+00
-1.485798736418541821e-01
3.211239360789541752e-01
-1.631715174738349386e-02
1.955717702413811487e+00
1.860241682689882936e-01
-9.651505399684794095e-02
2.239450184605867311e-01
8.370002749767142536e-01
5.288541759835094780e-01
1.243242175585252740e+00
-5.240085240224156005e-01
1.355669676452027739e+00
4.869138409694381275e-01
2.713078531481290412e+00
6.641108392343131328e-01
1.089962322392925564e+00
-1.063228702306100226e+00
8.543660090023753595e-01
4.623182395225383656e-01
1.004194010952895511e+00
1.561703700440722820e+00
1.306762771256642530e+00
8.350111036593558245e-01
-4.482092057613140113e-01
1.413920688694408900e+00
-2.469175850101976329e-03
2.649611617326796065e+00
2.199750258722980245e+00
5.036323302248601336e-02
-1.403477972354416181e+00
-4.914301529386714273e-01
2.077821311103502933e-01
-3.775553421556762101e-01
8.075628286642484444e-01
1.269162532103347729e+00
5.397112190748242222e-01
3.788491166294352119e-01
1.148113909107067121e+00
-5.217385605881161847e-01
1.326765237023072030e-01
9.447127276136828566e-01
6.448926044114197120e-01
5.146642440378252914e-01
-2.893649895746193690e-01
-8.265489057907470238e-01
5.517481010623911386e-01
4.494626971822794637e-02
2.834414992107727738e+00
1.905320373846294268e+00
1.038989440579093232e-01
1.319762205026467461e+00
7.783110128503628600e-01
7.165404512110172819e-01
2.181222057450432850e+00
1.257389906003653746e+00
2.497061850030821262e+00
-1.087562545073078146e+00
6.517442863899004513e-01
-1.358986881393434265e+00
-8.976055835628190538e-01
-3.329924148103610149e-01
2.613659487195669207e-01
7.619881744282885894e-01
3.619574290080059820e-01
2.958215210342451384e-01
-5.863529560924426454e-01
1.937781517472358050e+00
1.108974249071259077e+00
1.324884076688428669e+00
1.347276293161921545e+00
-1.243023622056058208e+00
-2.600848727782308356e-01
-2.642619106163907272e+00
2.633592141244750717e+00
7.956141706824068072e-01
2.790064263193985816e+00
-6.517757695815339369e-01
1.220949094939796309e+00
2.028756933234264537e+00
-3.879365864696642796e-01
-1.061773273853032357e-01
4.087085581185713190e-01
6.978453699144432365e-01
-4.235387247115534604e-01
1.089942042181049731e+00
-8.930597782901210646e-01
-1.179570467341747086e+00
2.179141967596856244e-01
-8.621480160742335530e-02
7.937274772376335941e-01
-3.879063144152275489e-01
4.743593659638268289e-01
-4.910688491590883831e-01
5.833133840013964289e-01
2.955769459178615999e-01
1.889574449618299345e+00
1.114569298199658443e+00
-8.069913413043127148e-01
-2.814360211827488634e+00
-9.479091921996890546e-01
1.033507670525978028e+00
1.655852054197133549e+00
9.357641815524471163e-01
1.950015598340185674e-01
2.482094818298224759e+00
4.376772199313511691e-01
-6.677288791703669402e-01
3.971894877304631977e-01
-2.754006445948154469e-01
-2.775890684203754510e-01
-1.759413415815016535e+00
-1.292393990896443245e+00
-1.900463637431888675e-01
-1.899351437469188053e-01
-1.213394781660003030e+00
-4.941813605865031933e-01
-6.397813105756001706e-01
1.420379016967650232e+00
5.235800344162497844e-01
-1.058871594102059221e+00
-5.450523495242322047e-01
2.706307692740844928e+00
1.629816709223234628e-01
-8.389230205602296042e-01
-1.301971001721114796e+00
-8.203300398582175079e-01
-2.112727093830652214e-01
1.062532436310578143e+00
1.079163888468358534e+00
1.653080819394046497e+00
1.128341763919034291e+00
5.390341394652600204e-01
-2.317855216344142655e-01
-1.461183556217194590e-01
-8.443647716549107507e-01
-1.648848892848491232e+00
7.384422442937409459e-01
-2.600230620108663349e+00
-1.865860544460282266e+00
-2.307497230870364291e+00
-1.617134077177358353e+00
-5.550754712795447077e-01
-1.023941480852459396e+00
-4.076845945320553555e-01
3.427374951486536481e-01
1.437049872220510782e-01
-2.687547522888333873e-02
1.724159421318925689e-01
5.910612494556047869e-01
2.267538789645426323e-01
-2.337843373884601894e-01
-9.494179330510719161e-01
7.262085730483616164e-01
-2.025349859649785866e+00
3.787087440956707907e-01
1.641845158981462216e+00
-1.012772395550705085e+00
-1.215846868950298143e+00
2.872322674673215975e-02
1.088115232345059580e+00
-1.384469809398798157e+00
4.693993145961276037e-01
-8.592846311159431094e-01
-1.809140895114842662e+00
-6.866304366006555915e-01
-9.382780972153600407e-01
-1.215088125540604080e+00
-1.426975690569654898e+00
2.768920341277028019e-01
8.277272688431741576e-02
-7.676438028210559594e-02
-1.057286862614315703e+00
-1.245805802857371081e+00
6.781550677586408726e-01
8.223783026113129502e-01
4.060764707195906320e-01
1.207692881327260270e-02
3.911335782067073552e-01
-1.252161310999839738e+00
4.425896958484562549e-01
-1.454743917296697608e+00
7.554675038652668428e-01
-6.253051940566248801e-01
-1.528125525590221079e+00
1.552653180873130534e+00
3.695991413889413435e-01
-9.590613646031234119e-01
-2.038331505555572409e+00
-1.666901904750340002e-01
-4.588669403813241399e-01
-1.318823992685666857e+00
7.877807263036589180e-01
-1.325426650575936893e+00
-1.817124317601623018e-01
7.417370752379300880e-01
-1.665848789545230968e+00
-1.148905409958153490e+00
-4.516511463808585702e-01
1.536556208744247476e-01
-3.275958666760885318e-01
-2.631807341587459326e-01
-4.785506764469277252e-01
6.471086258751854725e-01
6.015713640259136019e-01
-4.385426154153966583e-02
-9.977379408681497086e-01
-3.513547366888660761e-01
-1.569663987868186394e+00
-8.891867157971077296e-01
2.725991467041825531e-02
2.694529359514917233e-01
2.083240004478819352e-01
-1.601251244508240801e-01
-9.338458478432410947e-01
-1.142560922317418903e+00
1.060872102372899084e+00
-4.841289617342551810e-01
7.917608930407217249e-01
1.006264796382738025e+00
6.728388820896464839e-01
-5.975321181203049337e-01
1.768924999723015201e+00
8.974404787264940175e-01
-2.195423942125801275e+00
2.433195862944514398e-01
6.072094654081717779e-01
2.483678803986952843e+00
1.297032016512721375e+00
-6.156259697438741796e-01
8.735603682727285380e-01
-1.112031429058759208e-01
-1.070967135662756586e+00
-7.116420102582996510e-01
-1.234709278949865041e+00
1.148688100215802699e+00
-6.364950012010395231e-01
-8.179285388228195453e-02
-1.902606822638367667e+00
-2.361022493793649146e-02
-1.055960115539917421e+00
-1.663750403160528579e+00
2.027872108286703223e-01
1.164308970372496921e+00
-2.786044020647851505e-01
-6.045265484636446196e-01
2.302066202361924496e+00
-3.652890417300773684e-01
-9.505883344012746594e-01
2.801249536370512772e+00
-2.207622943788405678e-01
-3.747898446394454908e+00
-1.165129271460831450e+00
6.238412154628047990e-01
-5.073661413536383058e-02
6.394056290076872706e-01
1.224348715308018143e+00
-1.838402563613381335e-01
-6.905338261293084701e-01
-3.751652602822191374e-01
1.924036783357998992e+00
-1.699785448733977522e-01
-9.730212418447229394e-01
-1.563592226251447198e-02
-1.667679700797967790e+00
-2.020853340602267068e+00
-9.853563463332344341e-01
-3.178584701893600872e-01
4.962240328569842429e-01
-1.018772687395519627e+00
-5.458065723623336529e-01
-1.004517720259741287e+00
-7.566942299653280080e-02
1.542261210141258720e+00
-1.537633943758754361e-02
2.853154309744926342e-01
6.253823588281964829e-01
3.795900118482087859e-01
-1.831276675626744843e-01
5.947992588997286917e-02
-7.092762586455825247e-01
1.404416868396830331e+00
5.696140156353448614e-01
4.617609136685075222e-01
-1.353336356326527712e+00
-1.416295667263548719e+00
7.385575193771385383e-01
1.565207288947855435e+00
-1.587940372102259134e+00
-5.477784101519809212e-01
-6.470378055658222438e-01
6.342885717026591763e-01
-3.942369133195261277e+00
-2.629487810073093623e+00
-2.529416067437439075e+00
-2.278034939600526165e+00
-1.706152153713391018e+00
-2.834311640165504187e+00
-6.628256732358328573e-01
-5.044629489842774595e-01
-1.056124118452513860e+00
-8.872784661123090943e-01
-1.562571712402933244e+00
-1.637924425677413476e+00
-3.511795642488146019e+00
-1.799036080662682169e+00
-2.400644318867821703e+00
-9.715951043855166613e-01
2.653237296503348497e-01
8.267522608705270282e-02
5.872675286509315695e-01
-8.911454638860545341e-01
-1.144319582429333543e-01
7.866712575152897680e-01
1.417350005340233532e-01
2.413726885557360979e-01
-3.193835776677148575e-01
-1.365738354143610778e+00
-3.574289146394764027e-01
-5.143028870301249444e-01
-2.254638608229813546e+00
3.460390952688405242e-01
-1.675428455466746680e+00
-1.098481621373241346e+00
-1.451452797392858152e+00
-1.879968504259587059e+00
-3.720867361746439173e+00
-3.722051897276978050e+00
-1.934481251753207509e+00
-2.575281642297766904e+00
-1.078733284570636775e+00
-1.086613952155234930e+00
-1.441207132358467424e+00
-8.556172763300557982e-01
-3.703275026513190293e-01
5.482562285984455830e-01
5.545948899681472088e-01
1.056742282546484744e-02
-6.638297152798553480e-01
-1.498645119155086747e-01
2.065492447885297622e+00
-1.089359020395779476e+00
8.716803500976876284e-01
-7.035640161278668980e-01
-8.709933561880763842e-01
-2.278082983878904066e+00
-7.561666372683287785e-01
2.050371439037376453e-01
4.246189680541485600e-01
-6.836030124928765828e-01
1.240919247029444117e+00
-2.415851447533977847e+00
8.687328229998740881e-01
-1.368644735214692876e+00
7.438396600560128746e-01
-1.058808039307987281e+00
6.991820497078540253e-01
4.128521923189095166e-01
1.230219410875217134e+00
1.551405358278179214e-01
9.216260036641181763e-01
-9.524888915978160231e-01
-2.910572294762427403e-01
1.218606231343889318e-01
-7.352981156605955526e-01
-4.008467243036459848e-01
5.882860265203557759e-01
1.139941585405647384e+00
1.093304837138644042e-01
