-4.774293527327879705e-01
1.728106270635907382e-01
8.737249184209689989e-01
4.887707261351163512e-01
1.395611198965324498e-02
-1.617826614943207675e+00
1.847503463110013525e-02
5.155212758221308089e-01
9.346678745628976825e-01
-1.910949145212613498e+00
-1.673690908181859394e+00
1.481574279250202686e+00
-7.386930943289096718e-02
-1.881404950714791635e+00
4.866445398852900506e-01
-1.145687874488162894e+00
-2.272132674789135165e-01
1.505169204103225411e+00
-2.295520318148260297e-01
2.191471245334210227e+00
2.663877355501294009e+00
-2.917245618043344813e-01
-5.107610691675513737e-01
-6.125540330009394685e-01
1.855688295388214781e-01
-1.590058418244827410e+00
-2.104003309466170868e-02
1.032991587667476674e+00
-1.198330297402006306e-01
-1.567454427081930834e+00
3.179373797734358353e-01
-8.861145040439695197e-01
5.644442115850845099e-01
-3.302647737705885489e-01
-1.125207385975586671e+00
9.912038366399948952e-01
-1.267092685908171035e+00
8.063885115452624763e-01
-6.674362167046227201e-02
4.432494537914491994e-01
1.207832850435688776e+00
-7.762108822089694993e-01
-8.462638156128351463e-01
-8.619814340707657729e-01
-1.164562190830219279e+00
7.384485355257891515e-01
3.670510293144726988e-02
1.301627120457966302e-01
-2.654815035913873564e-02
-2.447490566092648034e+00
7.559146284299154139e-01
5.214867040232594730e-01
1.269544965904281897e+00
-5.923899421047633673e-01
2.076306280139501581e-01
-3.254443185937341831e-01
-8.518432721524157869e-02
2.855387644447042184e-01
7.261330335686395909e-02
-9.457183472111196920e-01
1.519093913862273215e+00
-1.622535174993990248e+00
-8.993787426138363239e-01
-1.230471904889624657e+00
-1.017016349416998588e+00
-8.285007348182623632e-01
-1.433510918753622798e+00
-2.378386831294777348e+00
5.317856966896732374e-01
-4.048286420556658216e-01
-1.144760959509595999e+00
-1.148940792600015914e+00
-1.139051984779310134e+00
-6.494662021641378624e-01
-1.316940418113235367e+00
-1.102499168960677123e+00
-1.443598546463664397e-03
5.186529005164087769e-01
-3.403382424600410738e-01
-1.047086170435896468e+00
-1.613139200654985617e+00
-1.515987826546942308e-01
3.219582898286080797e-01
5.346179204925921580e-01
5.786085727447232152e-01
-6.307404597004355462e-02
1.068564805929333172e-01
1.545439086579118104e+00
-2.584343751661800637e-01
-4.462239001886382228e-01
-2.889713811601375415e-01
-8.217374792238933967e-01
-2.680440881497174299e+00
-1.004204811856755697e+00
-5.025300450415456366e-01
-1.893774996474969941e+00
-2.482225113592916976e+00
-3.463322042895585984e+00
-5.731733922302123529e-01
-8.544777796264598768e-01
-4.897900220600321930e-01
4.440205573335551104e-02
6.812719253086959581e-01
-1.151393328435301289e+00
-5.388007638960270462e-01
-7.089913916953874962e-01
-4.770492552190414015e-01
8.300128892409271986e-01
-4.410365097940481816e-01
-2.143068815707674935e-01
-3.793830796915713122e-01
-3.628857087757940414e-02
-3.217838607925605499e-01
-1.149465053733693454e+00
-1.720132651534635876e-02
1.224379980373574206e+00
2.191736930213849521e-01
-7.116693061846190993e-01
-6.992612481616943265e-01
-1.238680190768382816e-01
-4.741095375467965778e-01
-1.189963926312024967e+00
6.614427058732958997e-01
1.354739023226783523e+00
-1.796916023355139558e+00
-9.523306285492708634e-01
-3.052194148357385117e+00
-3.056851924257851572e+00
-9.869874118635210136e-01
-8.996826602039988963e-01
-1.754719845662617184e+00
1.132607914536496230e+00
5.219214685027823153e-01
6.130184078708612594e-01
-5.837645556920018075e-01
1.168765115673918303e-01
3.595532265502700553e-01
1.339368172414016955e+00
2.274674721325054827e-01
3.646807456715982498e-01
-3.670434581586228262e-01
-1.898166291909949344e+00
-5.486361848344808445e-01
9.852664427826536286e-01
-3.912026690831530984e-01
-3.866701161469149328e-01
8.083351356636735430e-01
-7.063728355887796129e-01
-7.445523712044851417e-01
-1.647368065331086706e+00
-1.600945730877018747e+00
-1.238010053501484187e+00
1.148399960658620600e+00
-2.051514832621495810e+00
1.836885655003728246e-01
-1.297334019914089920e+00
-2.496815057851705877e+00
-5.305788870332254215e-01
-1.125170744482726803e+00
9.355078336723235410e-02
-5.098860817126574796e-01
-2.290470741771275964e+00
1.387339670454530438e+00
7.558451233823036686e-02
1.172888179250726415e+00
2.275307089550720807e+00
-6.570228400527423629e-01
4.341352764152842103e-01
-5.514181687580596014e-01
1.670204938640355019e+00
5.546632399909532385e-01
-1.127892855882680845e+00
8.120966460805357778e-01
1.322883879863149037e+00
-8.531478867375401620e-01
-2.392268543560593930e+00
-2.123452182675803213e-01
6.927588310664142268e-01
-1.677409943649017299e+00
-2.290716362405542661e-01
-8.559339316122921426e-01
-1.225266500867759796e-02
8.059824855423096401e-02
-5.734649458866862837e-01
-8.545492678469331915e-01
4.041283721722273015e-01
5.349795128843920500e-01
6.694399969772947892e-03
2.182236659708810311e+00
1.772142096934828714e+00
-1.110622835211149129e+00
4.451036098947350750e-01
-4.500712239147132698e-01
1.174816663153367857e+00
-1.059844868659144179e+00
-1.720160309767575280e+00
-4.451426472953389779e-01
1.252297579710949682e+00
-4.586076850590000697e-01
-1.977450889964824932e-01
-6.840155455256520523e-02
1.084351455195376124e+00
6.651813066685741127e-01
6.051870478636495188e-01
1.604515682387079645e+00
3.821666642319832552e-01
1.407664976955035785e+00
6.725087338572933726e-01
1.845397520988324658e+00
7.717509450390129810e-01
7.148384105942979794e-01
-3.653285729548544913e-01
1.876746470929448352e+00
9.637164731039163934e-01
1.041714097169209596e+00
1.627347404503978190e-01
7.364595205255515253e-01
8.256168481958365835e-01
6.023671026945794926e-01
1.059260125651540818e+00
-9.713145425801397170e-01
5.574392419748221972e-01
-5.238873019217588078e-01
6.078427575700258156e-01
5.898898459842792930e-01
-6.560935426775850177e-01
5.630235176554205800e-01
1.854811621513091424e+00
-7.982380789348757499e-01
-2.489876230111383038e-01
2.447128755065459682e-01
1.137122934050729950e-01
6.311429868187978798e-02
1.488176981795280747e-02
2.382058468044436494e-01
2.444790673833205641e-01
-1.557627388231689114e+00
-6.440975366244227063e-01
-1.276030979427115186e+00
-5.800315682551525631e-01
-2.487334437978797608e-01
9.675047806473330292e-01
1.022779860977667932e+00
-1.238159598375220341e-02
-6.880713403177416421e-01
1.351131340178668649e+00
1.476928965183619491e+00
1.380548566353987150e+00
-5.276359858268285796e-01
6.931313330151310792e-01
-7.760589900214399928e-02
1.003918396131365576e+00
6.334648656248753618e-01
1.300951241523614632e+00
-2.916877018002090316e-01
-7.330117759665399912e-01
-6.974977832040918369e-01
-1.327395201320801521e-01
-1.110692589655699170e+00
-1.405277266202937581e+00
-8.485215467932069044e-01
-1.409344436539515577e+00
-2.719290975896819784e-01
6.586530039734344033e-01
6.702801553684011315e-01
3.537645248264087994e-01
5.918500766988252781e-01
1.313334159541432733e+00
7.340924241534010353e-01
2.078960394176833926e-01
5.598388668078169150e-01
9.776845514792924519e-01
4.570060973785560199e-01
-3.970913495891269518e-01
4.612094362033399841e-01
-1.968089662663816020e+00
-5.633276423162032476e-01
-1.148574917945269114e+00
3.422063208272822510e-01
1.142916640100008818e+00
6.751092320867797536e-01
6.007796360750669029e-01
-5.874384888191003934e-02
-1.588833373831067541e-01
-7.952917274982811147e-03
-1.410522894992818799e+00
-3.367299142370957510e-01
-6.972775355043893397e-02
-3.006527741030686207e-01
1.298213244487743223e+00
-3.713351957798727287e-01
4.339959584282516158e-01
1.385746051424700864e+00
-1.021618972846539242e+00
-1.796902883054171340e+00
-6.920400070076249133e-01
2.855233969519198056e-01
-1.852114358328364574e+00
-1.208844060002584042e+00
8.372258351540130539e-01
-2.562379044223288993e+00
9.958283672405664477e-01
-5.224724333567164480e-01
-1.778823790827735785e+00
-7.798184326633712526e-01
-5.363103081170277342e-01
5.212865452769421815e-01
-1.087591146168691569e+00
-1.325570937573037344e+00
-5.563167042251790928e-01
-1.462968887375192040e+00
1.541627325957887873e+00
-4.542644182309316658e-01
2.042506567466824685e-01
8.074996515583733325e-01
3.199141817777609309e-01
-1.093772941868986215e-01
-7.871733455213748565e-01
3.378159715346822078e-03
2.094083400173038179e+00
3.152985529141930865e+00
1.111001402402341798e+00
-1.579729026196193820e+00
1.107015004933396662e+00
7.105537857679593561e-01
3.754426321702768909e+00
9.509132352004767696e-01
-1.641632307130420410e+00
-4.069609072080648260e-01
-5.133287083542324991e-01
-1.112308141053584665e+00
-1.396183907727070572e+00
-9.778857324822549935e-02
4.406435106240522703e-01
-1.984041964791995460e-01
1.522419384452144531e+00
-6.863938123551245329e-01
-3.245932164427035582e-01
-1.344649557763214043e+00
-8.573510148161826994e-01
3.586725608714467772e-01
1.176557635468158391e+00
6.991647380636666076e-02
1.132489370428076292e+00
1.577971551414442786e+00
3.292876993710484257e+00
2.295055139775460606e+00
1.334708239789907269e+00
1.355838303882134221e+00
-6.683769925894137431e-01
-9.235203983024022900e-01
1.977343848273533711e+00
9.946908124169296928e-01
-3.903087235486258355e-01
1.595106331965311597e+00
-1.344007565523566150e-01
5.593956645255893090e-01
5.107791079810292123e-01
1.019153652427353673e+00
-1.320986093297087827e+00
-9.301066588841523375e-01
1.131706199544760677e-01
-8.071021435646276165e-01
-1.665758536234850651e-01
8.488877994160825002e-01
-1.141321270400730281e+00
6.672425867624778295e-01
-7.029174062746822438e-01
2.798934946149923775e+00
1.174974473965191279e+00
3.453641620136677304e+00
4.146533442652692969e+00
2.436948603984110839e+00
1.831003244261556473e+00
1.919532550254434478e+00
-1.507606074204647095e-01
7.457123845297217168e-02
-1.490448782095724845e+00
-9.184195353331651157e-01
1.523839684723213628e+00
-1.106256713412546056e+00
3.231322839338294367e-02
9.906242306021465494e-01
6.583747515459579258e-01
9.188162786848329266e-02
-4.660260506028686134e-01
-1.431811239036972605e+00
-1.391106381725303764e+00
-1.253249165737325921e+00
-4.041059761951322771e-01
-1.898280023476810463e+00
-9.142860844540148801e-03
5.882898141322447927e-01
3.947426099013601197e-01
1.750627504426867376e-01
2.137569014999743722e+00
1.021220030373213961e+00
2.495416837864822490e+00
2.919790895619947424e+00
1.482336695251357694e+00
-2.064359787802530211e-01
3.622597033765997954e-01
-1.213010219501958309e+00
3.436680460649689794e-01
8.633122556669592385e-01
-8.448949087538996927e-02
-1.172532061157337768e+00
7.546208146106503367e-01
6.492699129079374520e-01
5.088027033675384114e-01
7.793300972223775602e-01
-6.076395331315153081e-01
8.819884496578891397e-01
6.387392297970677646e-01
-1.117939472569762449e+00
-1.225030069917829589e+00
-6.256430266990766764e-01
-2.294875160281088622e+00
-1.249619208616232324e+00
1.423748570884244002e-01
-1.346808574852565776e+00
-7.017145628459517948e-01
-2.854584025745522391e-01
-4.370924881912665039e-01
1.520331418903783538e+00
-1.941779963827245103e-01
1.297547431980747845e+00
1.555369348178493150e+00
9.224177012680434551e-02
2.069713871254189375e+00
1.029261188602087040e+00
1.054861894753399865e+00
-2.872294980706736611e-01
-2.693306027988442874e+00
-2.275155298166139151e+00
1.400810973029016360e+00
1.305135519503854757e+00
2.058046652076821470e+00
-3.945126484661225508e-01
5.594460814635913298e-02
-1.463779375561492957e+00
-1.406581642284742695e-01
3.473890337995221289e-01
-4.626791384633451854e-01
-2.331123889468075916e+00
-1.403281079041982959e+00
-2.596180340727022307e-01
1.312207892795785646e+00
1.060166045920757583e+00
3.666945153835824978e-01
7.859746430288039321e-01
-6.800659328088527467e-01
-2.742020749233879506e+00
3.007511520509019154e-01
2.799985777325874614e-01
-9.879627613735763036e-01
2.329281151082894574e+00
-5.960585254838942498e-02
3.610371625074920154e-01
-3.457703955448082067e-01
-1.920494712169333040e-01
-5.515637265036363868e-01
-8.380916553571310379e-01
-8.556941793102810223e-01
1.257713999236827362e+00
8.171388005903575946e-01
9.637533538281944923e-01
1.417580881839364537e-01
-1.636050671362972553e+00
3.955833251725337507e-01
-1.256203747972898688e+00
-1.481666858082707705e+00
-2.196730744443964767e+00
-2.044234386492609357e+00
-8.516069179059754246e-01
1.190131258894069788e+00
-1.102473184879126711e+00
6.735789149369211248e-01
-2.010533502772040571e+00
-2.900353543887403074e+00
-2.547377905202792281e+00
-1.657511018697874539e+00
-1.174227604866596719e+00
-1.478052414865321518e-01
1.012937576044012022e+00
1.870762180088894500e+00
-1.551063315219307182e+00
4.715697880336452985e-01
-9.082067146937787827e-01
9.285711549782215135e-01
6.476518210456212454e-01
7.820841516206969990e-01
9.953362655929877401e-02
-1.492591710135376948e+00
6.222332165412426397e-01
-2.302200738572333094e+00
9.898735434556557022e-01
-9.915850115518426433e-01
-8.552305785521228110e-01
-3.040565099334172405e+00
-8.937658242211802273e-01
-2.533123021840857914e-02
-9.241140914887935320e-01
6.950247381391833068e-01
7.505284844886100926e-01
2.131668786960179696e-01
2.542348234463310819e-01
-1.126554730891386136e+00
-9.463135596608897027e-01
-3.355663652948929765e-01
9.415575022107884884e-01
-4.996900366547704087e-01
-1.549239407706808125e+00
-1.326170051312332676e+00
-8.127514450922094236e-01
8.497449599619149030e-01
-2.182354975352031268e+00
-1.205451704872403607e+00
-9.014729076268752639e-01
7.342350506752062800e-02
-7.802663968162364405e-01
-5.290341345358308134e-01
-8.315730643434721125e-01
2.365225738260827715e-01
7.392638785006685476e-01
3.663690983203547469e-01
-9.608675678498353190e-02
-3.206703592551677584e+00
-1.832509324351575764e+00
-1.308829177149905876e+00
-1.070435911819988956e-01
-1.167273405852846391e-01
-7.413519923705655934e-01
1.029428670128739398e+00
5.746372195203774957e-02
1.310398741407755141e+00
-2.597875147744622470e+00
-6.786457950285830210e-01
-2.020470790665299887e+00
-8.505195182886406968e-01
-6.731194150986444802e-01
-2.994083063658590671e+00
-3.506152758826026616e+00
-3.922773195790739686e-01
-1.641769631510672900e+00
-2.560455416367397041e-01
-3.035373317157840090e-01
-1.301819119842192451e+00
-2.186704611990694103e-01
-1.671319743311943329e+00
2.143982728903361668e-01
-9.997274580082445017e-02
-1.030705462623166424e+00
-1.533131688125387360e+00
-9.761644449288738867e-01
-2.439372139569251807e+00
-2.099112846698422408e-01
6.463573025887210388e-01
-6.876763105537483378e-01
-2.585718517437702313e-01
-1.023541126102297971e+00
7.516008925888398862e-01
-1.205192245426880415e+00
-9.707891857160777516e-01
-1.276318160933465506e+00
-1.527068942570474874e+00
-1.880386812627633963e+00
-3.616693926696793682e+00
-1.791411741755052800e+00
-7.347615835030140152e-01
-7.462363861800132003e-01
-1.869349935901751136e+00
-1.056990727044228473e+00
-7.509083765096699059e-01
-6.532705347285312492e-01
-1.206071463154293477e+00
1.174572178075285578e+00
-3.857241617851607240e-01
1.490871120923196180e+00
-8.785647661852836743e-01
-9.410248843682597619e-02
-7.146832332435204549e-01
1.387268714643695444e-01
1.404789873806407741e+00
-6.253705682802886967e-01
-1.132261047985899216e+00
2.330753355679643368e-02
6.368645966541542913e-01
2.110460806510798537e-01
-2.779644114756109063e-01
-5.260098791756888659e-01
1.422728903039228998e-01
-1.146592026995969738e+00
-3.765696343521285350e-01
-2.748657787823760579e+00
-1.260072095672405190e+00
-1.878446551842184453e+00
-2.768906067932446646e+00
-1.453870717720513905e+00
-3.226294142127252851e+00
-4.567302776595124070e-01
-1.972458258634501860e+00
-2.912354516019386441e+00
-5.233619598562236908e-01
5.897482533063455046e-01
-2.091571157665054859e+00
-2.880743228235728814e+00
-5.171838962552871566e-01
-2.618912496499036235e-01
2.289408682810107898e-01
-1.763582827996000926e-02
1.767551578839879345e-01
-7.507111617762800559e-01
-6.158932276180701937e-01
-3.398901581596155963e-01
-1.933228561030874426e-01
-4.631460932137236308e-01
1.391303931840471575e-01
1.253313021408800854e+00
-7.769938806218771310e-01
3.860555455949841730e-01
-1.387856835994438987e+00
-6.983808019514601284e-01
-4.945336952422764165e-01
-1.236966173499697841e-01
-4.562299798782512572e-01
-3.129315951236611437e-01
1.178248834258641908e+00
4.512573061097624461e-01
-4.816952258969194323e-01
-8.842935885933111972e-01
-1.362702393768722375e+00
-1.237322511130615199e+00
-6.329999462123585552e-01
3.186567132242640876e-01
-1.071136302635769866e+00
2.114134406383871845e+00
-5.597492048603820436e-01
8.445329984163044701e-01
-2.116127992783053191e+00
-1.217799499567191690e+00
1.324591796712167202e+00
-1.297654855036465271e+00
1.410096984760718319e+00
2.214330969957049033e-01
-8.383438407089459365e-02
-1.384297553194598462e+00
-8.741242396738851950e-01
-2.678526585262470117e-01
-8.632449982458317850e-01
1.034308930232260282e-01
2.569229542356873952e-01
6.132748339956263228e-01
3.314237967897433190e-01
9.096416367597620622e-02
1.295658785259715895e+00
-9.355997551331375339e-01
-4.356709970687270284e-01
8.068119105268468649e-01
-1.515343246344322603e+00
-7.612084066121244108e-01
7.128664618354013660e-01
1.044764152164717297e+00
-1.035753759824010967e+00
2.775652490141514162e-01
3.551591142048634575e-01
4.649387817374481813e-01
-7.924128920645019392e-01
1.826122795746332184e+00
-1.759634675313860308e-01
3.153665323336663495e-01
4.273720259689636203e-01
-8.666443602500403243e-01
-1.238636255407036035e+00
-2.551086769956238065e+00
1.799892285915135060e-01
1.844362566547664395e+00
8.743287648364446163e-01
6.499209888356988207e-01
6.995314936078099732e-01
1.542865325991466641e+00
6.994131145174735664e-01
-1.818818705850261119e-01
-1.022808487886938567e+00
-6.112936765138727857e-01
-1.109481186327480495e+00
7.897253305577565941e-02
-4.403605063160954125e-01
-1.950791730706120664e+00
1.107730114311754610e+00
-8.109660308644076609e-01
2.143533838544197656e-01
4.720825382374303492e-01
1.435235886835043662e+00
2.295028466081842744e+00
5.129925255869058898e-01
-4.037843214088221444e-01
3.795517464173550626e-01
-1.329340278541190967e+00
3.224805106820497619e-02
7.323110928152669619e-01
3.961162867393151071e-02
9.418579355120014762e-01
1.205179925187011003e+00
-1.123274939057723243e+00
1.589850458299855829e+00
2.345571506105494086e-01
1.305300115689340013e+00
2.464600170632559095e+00
-1.525285742031485536e-01
-3.513935495217944405e-02
-3.150891912424989005e-01
-3.027960363229469931e-01
1.093887866013779075e-01
-4.146295911654993560e-01
1.341481745765380484e+00
-7.107136703370087183e-01
1.542693813528907443e+00
1.069756603661730754e+00
1.480522491113894334e+00
1.927094065684749724e+00
3.280545032643075731e-01
9.903247436107621704e-01
6.328682599828189259e-01
6.708989840083495748e-01
1.013960413508967040e+00
1.342000578542548617e+00
3.354030291715683454e+00
-1.873821624824179022e+00
-7.089066942456127007e-01
1.331187659717036897e+00
2.342047915524548163e+00
4.231170248363794739e-01
1.376231897044578600e-01
1.009003779408508050e+00
5.288299844390985660e-01
-3.490632898229745762e-01
1.219744651967634708e-01
-8.960360884163924844e-01
-6.289156615237267989e-02
1.531677230692414682e+00
1.991487139470168977e+00
1.168919068919050952e+00
-8.484977630248614622e-01
-5.597847870396132075e-01
2.342331586727001980e-01
9.465036444519612235e-01
-9.024923339762142005e-02
-1.459698592246610332e-02
2.015803915396193524e+00
5.556045529752048212e-02
-1.060748061105048157e+00
-5.870836385595535889e-01
-1.292048402509932359e+00
1.035097078550965666e+00
-1.907118482374448587e-01
-5.620428182365149183e-01
6.687770283998977217e-01
1.532274629264278376e+00
9.767188731341275298e-01
1.758598762990050066e-02
-1.939531815415865834e+00
4.439620587355552761e-01
6.692252051795122281e-01
-1.815481863889132574e+00
1.326216395208411392e+00
-2.607562199593407848e-01
1.644811794034907182e+00
-2.500763528630290944e-01
2.798305514718749110e-01
6.747105902377127651e-02
3.570841537317295117e-02
1.743067313888977954e-01
-4.980329970156531227e-01
-8.833915368807662705e-02
6.038182411595420795e-01
-1.740420854812744708e-02
-4.010891971645348386e-01
5.628443582960305225e-01
2.129826822839905320e-01
-4.107699439897618543e-01
-3.202280080012995800e-01
-1.897014874449362010e-01
1.462973565028289624e-01
