-1.485149527603116137e+00
4.629066869329170886e-01
-4.271129860790062183e-01
1.842055031970419199e+00
-1.585114127627077707e+00
7.417851311543082193e-01
-1.106526268718962980e+00
-9.459744193629999742e-01
-8.745387528113578446e-01
-1.060718807792787599e+00
-2.229843977143379230e-01
5.533275832052865217e-01
6.640832155959620897e-02
-8.294292328130618008e-01
1.096376689664045445e+00
7.907462518582166755e-01
-8.097995064765959317e-01
5.198145164406309249e-01
1.833857283009597605e+00
5.208182860419404703e-01
-9.367592120576729853e-01
2.224268272680172687e-01
-2.885707444608264227e-01
8.135819160855278787e-01
-1.351887283251422822e+00
1.177345431263646374e-04
-5.121035233185098345e-01
5.341399020855835955e-01
6.207914318859962810e-01
6.494111150760076834e-01
1.501175323936571493e+00
-1.074035345774833339e-02
1.242825193177689025e+00
8.502128794945652546e-01
-6.126757616153856167e-01
1.987357682781999424e-01
-1.226318842542313492e+00
-9.729361218160331726e-01
1.551403893351613217e+00
6.953565763905226182e-01
8.857417916739124958e-03
8.619369455914336342e-01
-1.865931397295337024e-01
1.338052349159990051e+00
-3.826208891608484652e-01
8.865716643192951274e-01
-1.467878914316174954e-01
3.310757850280623416e-01
1.356997391008367915e+00
2.603195135979063379e-01
5.736824827441636687e-01
-1.475801468089863233e+00
-6.059655811974983264e-01
-4.711148509871962431e-01
-9.869759904663171282e-03
1.511043345345990829e+00
5.898277626881541780e-01
-1.077743027876131299e+00
2.432971355171854033e-01
2.587391656877363055e-01
-6.468085803098870823e-01
4.029033965149351193e-01
-4.559053725964655190e-01
-2.689343113271813190e-01
-8.485608406646349966e-01
-5.904964089311168784e-01
2.025572120311323943e+00
-6.184773231988257569e-01
-6.002065410397922768e-02
1.805441030153959625e+00
2.444829155292938538e-01
8.707861040687495113e-02
9.024525584332001582e-01
1.394061221420020091e+00
1.349247227055543785e+00
-1.027335337417518479e+00
-1.979922205902424848e+00
-1.227348946374610950e-01
8.568608410714666501e-01
2.043222346479351526e+00
-8.871109218617856396e-01
-2.784135731812276582e+00
-7.026315363050651408e-01
-5.769927491949602416e-01
9.308369325046323972e-01
1.876135372593554562e+00
-2.268128539263720711e+00
1.435754954606104805e+00
1.360100352725730710e+00
-5.287033057908331335e-01
9.313737526746904694e-01
-2.029677497391015606e-01
3.646383177475027715e-01
-1.196371865118117883e+00
9.940571908587194638e-01
6.831693409489506541e-01
5.581000294003717332e-01
6.745537097983903552e-01
-1.760252138865562310e-01
9.276608378828414825e-01
1.021121192079245787e+00
-5.840715505700712074e-01
1.165407629839246395e+00
-4.130677537074446959e-01
4.363131844661223280e-01
-5.709547701452187818e-01
1.646047115614108769e+00
1.538443998756023223e+00
7.841733787175082515e-01
2.450526863307799008e+00
1.113804211763403385e-01
1.385246997267800262e-01
8.689399718003690820e-01
1.308387230674888491e+00
9.901160746256408851e-01
9.289190689209493312e-01
-1.280227744356693620e+00
9.267565065611342856e-01
-3.977813953818308268e-01
9.914361814656514893e-01
3.994849075580407805e-01
-3.359991099652534507e-02
-9.461867093410503138e-01
-1.118583924241207006e+00
-1.084309187742489744e+00
6.409533382725125517e-01
2.195742129179632796e-01
-5.409600217377278364e-01
2.456709757524317417e-01
-9.095425702372750276e-01
1.639744713208362292e-01
2.063900650670007220e-01
2.356190299659388199e+00
-4.959647084081943852e-02
-4.502146276838031591e-01
6.100024188274719705e-01
1.215231385299110761e-01
1.333277864622874238e-02
-2.649256554000339881e-01
-3.014820443860279919e-01
-2.735218578880439511e-01
-8.074294322881589991e-01
4.495147943965337456e-01
-7.616159860742663934e-01
2.910040808301648241e-01
2.065123918917974588e-01
-1.926269279751489538e+00
9.395968729061118241e-01
9.491653622470322751e-03
-1.899032938888032485e+00
-4.746365833237196213e-02
-2.134108981602818034e+00
-1.360272721963529996e+00
-1.811445738777299752e+00
-1.248193687065358048e+00
-1.298899662206123518e+00
-1.341539591683361010e+00
-1.224260577317245025e+00
-8.557197157258749076e-01
9.006302602945245317e-01
1.857858865489412925e-01
-1.276550320927905213e+00
1.110555980377968766e+00
1.516495610423512330e+00
7.484336350640582447e-01
-2.355079272568861182e+00
-2.583239702235426427e-01
-5.641623947117822002e-01
1.373423233648058073e+00
-4.625294568293432107e-01
-2.122308074691251267e+00
-1.977839336020607908e+00
1.255045047504284694e+00
3.327950979135331222e-01
-5.172768489214759624e-01
-1.643151958040353966e+00
1.242009341971265446e+00
-9.311130480022682399e-01
-2.020551424395157891e+00
-6.603124464046758457e-02
-5.017695041427686631e-01
-1.433862688015156373e+00
-1.784069035805456727e+00
-2.319981770246087649e+00
-5.607132259506110161e-01
6.412596085072935770e-01
-6.859877425046174704e-01
-1.482668854162048966e+00
-1.201709952740781517e+00
-3.830038609704499164e-01
-7.969263201036358435e-01
-1.113909630053911304e+00
-3.090882164618277805e+00
-1.195013352594792799e+00
-1.908090461525423220e-01
9.699476819971593333e-02
-1.773055136310503488e-01
1.364946573969433585e-01
-6.373685519987325188e-02
-1.907683095782265401e-02
-8.703704840790250641e-01
-7.530083577989518107e-01
8.004901802179211767e-01
2.527956965370160014e-01
-1.847086748090426500e+00
8.556516680804466812e-01
-2.330968182405086964e+00
-1.248505759659453540e+00
-6.032658612465758852e-01
-1.136907987954014265e+00
2.828096046819413290e-01
-4.601197126841517493e-01
-6.725161696086372487e-01
7.601977296180664201e-01
-5.393024682644713685e-01
-1.161550120512161305e-01
-6.056084859010385513e-01
7.280002240344694009e-01
-2.364356802983274886e+00
-8.981146206325145709e-01
-1.779400796274801744e+00
-1.414769995559425952e+00
9.797257593687690447e-01
5.875946280337615013e-01
-1.099491764842277952e+00
1.339638073942292840e+00
2.198641864387949063e+00
1.024514666274679797e+00
1.114741714310665710e+00
-7.045525249881463836e-02
-9.012320197929869492e-01
-1.388449202021455609e-01
-8.311840779284297431e-01
6.014845582151101544e-01
-5.449669558086630422e-02
-1.005335886377795918e+00
-2.915147888786798536e+00
-6.285492152020532020e-01
-2.807270187070059486e-01
4.584227631378576251e-01
6.796424306456931852e-01
-2.373190352880480136e-01
-8.409354665985906419e-01
-1.729992646393073041e+00
-7.992582787348389006e-01
-3.849394727347386636e-01
-2.980767894363017589e+00
-1.628695657084960668e+00
-2.713915621306671522e+00
-8.791480051391871164e-01
1.662292991868276337e-01
-5.955813983055004979e-01
-1.075764309209393810e+00
-2.119767498653757798e+00
1.357537526136280315e+00
-1.428594956258697479e+00
-1.994366172898201395e+00
1.171843355638435780e+00
5.867390938941657863e-01
2.216287649292796758e+00
9.053705123616587747e-01
2.350468144590505126e-01
-3.038417027955103711e-01
-2.748075325642037825e+00
3.710521859794163047e-01
-2.800017867744063471e-01
-7.958340415045588312e-01
3.861314643052526918e-01
5.007231041012419892e-01
1.970899347331338980e+00
-7.786947212889413494e-01
1.603689305480130584e-02
-1.810994531270422592e-01
-1.426368553476847545e+00
-1.257156068685148176e+00
-8.719512157488911175e-01
-4.585716517195297826e+00
-1.535455145538404675e+00
3.999207035171113700e-03
-3.814648939864984101e-01
1.997207586563043979e-01
-1.168005623905985946e+00
-1.708705082043259216e+00
5.117311144517754790e-02
1.025922450374007339e-01
1.521680005935431290e-01
-1.206472686519166171e+00
-1.119880377251477155e+00
-6.899283159876264948e-01
-2.685839584370266486e-01
2.695083628886405513e-01
3.067559744246307618e-01
7.001339406064477355e-01
2.451139059164626766e-01
-9.385725994526302740e-01
-8.068514894593363795e-01
1.045492680851226153e+00
2.919740604021050956e+00
-4.456163094388406742e-01
1.162508561884802338e+00
-9.859558594607373827e-01
-5.134320276955187667e-01
-1.248401679789764795e+00
1.144830711384245525e+00
-2.044601484015258652e+00
-1.851569086820991972e+00
1.314787631173273963e-01
1.336652676082026314e+00
-3.982274437001999678e-01
1.235781300820890972e-02
1.400301019276360082e+00
1.461994725643300796e+00
1.946170311846849021e-01
1.002298350718390463e+00
-3.631813122377129943e-01
1.351919942220866533e+00
5.205624739725693839e-01
9.577588095505268351e-01
-8.040443078004824162e-01
-9.405317520509880458e-01
1.495955765450419084e-01
2.764350126593639323e-01
-1.837801404099434377e+00
-1.921878139721940881e+00
-1.593864860348516821e+00
6.789413339790593138e-01
-1.390567954521807703e+00
1.049658382227740550e+00
4.938308146982343105e-01
1.572102144955144665e+00
9.086679169115967625e-01
2.559918582611146576e+00
-2.223893527215551114e+00
7.123436967442965395e-01
1.519463331448829502e+00
-7.224746510743932371e-01
8.739504317557389435e-01
-1.322370038051781327e+00
-1.163046574901412666e-01
-3.614661446271502654e-01
6.857484110121826459e-01
1.916647491594040353e+00
1.167120192463300787e+00
9.239279468105240367e-01
1.609584032133298537e-01
3.400911428150204530e-01
9.709899943012794132e-01
1.082764727875342281e+00
-6.949076558821858374e-01
-8.077494905776312351e-01
-1.292271388742763483e+00
-3.175709840834125774e+00
8.862040914383438883e-01
9.076948885377140730e-01
5.715602682281231139e-01
3.194421631520161786e-01
4.484878547107318258e-01
1.313583891663593572e+00
2.192560244375181711e+00
2.147889687279389115e+00
1.998218433021546614e-01
-2.429376416969776797e-01
-1.735123128782305901e+00
1.362948013066411557e+00
-3.713571819229802840e-01
2.936469561338911349e-01
6.653995222645706642e-01
-6.672343753580278758e-01
-1.343682105653665748e-01
-1.371596816403289676e+00
2.385275689866160675e+00
1.579848037272383099e+00
1.950145700476262345e+00
-2.790427117187361250e-01
9.253920704317728507e-01
-8.321231315419539420e-01
-1.465523723598850525e+00
-1.888815739780275393e+00
-1.106553427305516202e+00
-1.663052353775554604e+00
-5.225099900799816677e-01
9.531300950614000067e-01
-2.400244080985158845e-01
9.606654515484067680e-01
-1.438326732187296397e-01
9.229379183397167230e-01
2.344431710443021011e+00
1.040119137157448970e+00
1.022072473334251663e+00
-1.888815043516105296e+00
7.895156388037233297e-01
-1.997617943429666365e+00
9.058818435735918051e-01
9.388696568116365604e-02
-1.485450537037310559e+00
-3.669814466295183430e-02
-1.509631865674468720e+00
7.146792443456725374e-01
1.508440808218705964e+00
2.215400349256923196e+00
1.148560807662695332e-01
4.418646099538060534e-01
8.008103104057564536e-01
2.255892423861725060e+00
1.172948197481178262e-01
-1.540495390768148010e+00
-2.479717322706886051e+00
-3.328124102317480681e-01
-7.026368025909500437e-02
3.973974660735203335e-01
1.158773237126830669e+00
7.860868316202752615e-01
1.311374665472889056e+00
3.218845644231834058e+00
2.150261163350815075e+00
5.053767219781880593e-01
6.954664039955302801e-01
5.621506159045599471e-01
-7.729010469626176327e-01
4.556369857664527290e-01
9.258672793311145677e-01
-1.860858324526656615e-01
-4.831313356300916823e-02
-1.330517849499903926e+00
5.837357892817564287e-02
8.220839650680281663e-01
7.109919620858180522e-01
3.297053148422645630e-01
7.703887257545897205e-01
6.337715264367487222e-01
3.332096519715436411e+00
1.927116438304877555e+00
1.400994285676771200e+00
-2.834946876595065279e-01
-2.302792597596023949e+00
-1.135344668754863368e-01
5.851904705845076826e-01
1.640117640087563444e+00
8.023091618671864822e-01
7.455864234357667542e-01
-2.594889526344349995e-01
-5.083153534932643991e-01
-4.546749860470052362e-01
2.646203072622680952e-01
-8.295172479821790734e-01
5.883538658036050473e-01
-9.816667870831715659e-01
-7.850058856184999323e-01
-8.526057286026670345e-01
-2.751739723297155771e-01
4.359760132792383502e-01
-1.831252385115266224e+00
-2.191292605767308554e+00
1.391365091914875229e+00
1.191277340404689467e+00
1.583572593368554715e+00
1.523521832744250126e+00
8.642392572492484104e-02
1.502395161693472758e+00
2.069039513533810659e+00
-3.190408210114325516e-01
-1.476222816753949285e+00
-1.400355714251521499e+00
4.919389884779861583e-02
-2.177363803445948043e-01
-6.446319482549728308e-01
1.692868153900735528e+00
-1.078794165888645518e+00
3.438873236482325457e-01
1.742194323196334604e+00
-5.394305047186623847e-01
5.915031417185397933e-01
-1.576087406675424463e+00
1.169987712372625721e-01
3.547412900024982108e-01
6.169725299375404814e-01
2.545657678012452241e+00
2.230305632683241279e-01
-6.191822462157094975e-01
-9.139036866025577188e-01
-2.724562000579661136e-01
-2.108386385856683420e-01
7.216740059522210871e-01
1.459239779677962423e-01
1.616937159131577761e+00
2.886268939485116536e-01
7.528273589111385000e-01
6.079923080682019254e-01
1.639671897199359296e-01
6.982111816088893974e-01
-9.481238245398764253e-01
1.556386896836161327e-01
4.326145910253394455e-01
-7.714561032025790688e-01
1.332028545375955053e-01
2.156477943122244237e-02
1.805606151443330809e+00
-1.988631157657838822e+00
-5.083475151653455981e-01
-1.409733853024225381e+00
-1.236131796421986895e+00
2.874593027477552742e-01
3.278345050720796183e-01
1.371076075047297671e+00
1.354671946676868632e+00
-4.670392473574426218e-01
-2.140615413346793477e-02
-6.181174371576139137e-01
-1.666272648271341028e+00
-1.945471345623472237e+00
-1.269807236938899075e+00
-6.866789150862643298e-01
2.786834944961457672e-01
1.078036935358485993e+00
1.501930103263841687e+00
-4.204458500426266343e-01
-9.183000974271384731e-01
-9.752079989393230841e-01
-1.015265800953477626e+00
1.199899616833158600e+00
3.443244269202089813e-01
1.234917833197909376e+00
2.348077534571680336e-01
-1.233067391632478138e+00
-9.163526715749196194e-01
-3.117559541228102082e-01
4.005292245893453673e-01
-1.117499184940490942e+00
-1.276704076078262473e-01
-9.788953662175201575e-01
1.102821663385484596e+00
-1.303064120685516025e+00
4.570267964619962320e-01
2.674047363616499293e-02
6.835120437420005857e-01
-4.540324996090112086e-01
-1.660623418096705217e+00
-2.126951061233369078e+00
-9.994217468829913464e-01
1.072782595824291807e+00
-1.930838575193205342e+00
1.373381444434688792e+00
2.554190900807360887e+00
1.438116442166358588e+00
3.142421516858803221e-01
-3.458089469870955224e-01
1.341763305984441379e+00
1.023133314625564338e+00
1.151215793203898441e+00
2.818818338396612555e-01
9.573507658791757802e-01
1.373199889680499552e+00
-4.260330193555582068e-01
1.378244960964288168e+00
-1.604860700641875804e+00
-2.681250958941082452e+00
-1.170164451904068814e+00
-8.613206866237693715e-01
-1.308499819153537524e+00
-3.392013769797112555e-01
2.153524828999399787e+00
1.078865980036316952e+00
1.029148158142493052e+00
-1.032439935960507871e+00
5.009222948793103924e-01
-7.658944310678426071e-01
1.373293687669798313e+00
-2.217402924781490370e+00
2.569818194982054216e+00
-1.439945032604342368e+00
-2.321194834336526847e-01
-3.807067356495250077e-01
1.316371592826505399e+00
-6.445503171462768632e-01
2.069105466046158526e+00
-2.692438092694987573e-01
9.185635788789991985e-02
-3.003903789288085990e-01
6.568312175625696803e-01
-1.759664654373576775e+00
5.138992041802935562e-01
-1.236451652961723768e+00
-3.265686860017296550e-02
-6.101654367578867033e-01
1.497776468287574048e+00
8.807193807768221028e-01
2.730720876489321824e+00
1.879361287641466705e-01
-1.692069863613193226e+00
8.682929819443040431e-01
-6.391708109189265796e-01
-9.495226940022016837e-01
-8.899940746217881449e-01
-2.031692627879295276e+00
-3.149981276589603141e+00
-1.440218562579885120e+00
-1.067673731955746108e+00
-7.105198329013007186e-01
2.155592664524580204e+00
-4.954583087110825401e-01
1.491155416112833310e+00
1.853489980869523282e-02
1.458025394194157442e+00
7.282862215677687878e-01
1.607015512475152008e-01
-9.371200224678934987e-01
2.943606751322314641e-01
-5.100221212663776926e-01
-2.956039066146351590e+00
-2.249305776469844531e+00
-1.395782925992583801e+00
2.000569954486121627e-01
2.039183690057604914e-01
-1.638109716356900503e+00
7.804684349414049427e-01
-1.176515184249488311e+00
-5.458212947000098403e-01
4.646800844369871064e-01
-5.173206766756086594e-01
1.007066964777325824e+00
6.756105135156146302e-01
-7.970367371654746291e-02
-1.405461048882493402e-01
-1.318651467442315095e+00
-1.515584503801269411e-01
-2.021043625080504391e+00
-3.797864839934747051e-04
1.442572334094125663e+00
-8.639879507385735957e-01
-1.291609210537357555e+00
-1.194940116439118100e-01
2.534924905565731468e+00
4.399213778371349193e-01
-2.865617525095480178e-01
5.978507635588108382e-01
-1.741492660735045828e+00
-9.710207312102454580e-01
7.498540040717909250e-01
9.024126315166213219e-01
1.351525559625021744e+00
-3.693841739760990173e-01
-6.138610494045678712e-01
-7.531120095801642489e-02
-1.904116105564381545e-01
-8.227041589457025905e-01
1.033723346364300195e-02
8.958714278348979265e-01
-2.619503565810637480e-01
-2.391894436425704651e+00
4.623010400588204449e-01
-1.063676088691800359e-01
-5.932983330177511450e-01
5.966447445315018472e-01
-3.253139688086530978e-01
-8.355900507637504804e-01
-1.345924158396561321e+00
2.182061863196880669e+00
-5.832461647794061621e-01
7.241875931122224164e-02
5.134929230483677998e-01
-1.333493325138687347e+00
2.629854698460790119e-01
-1.016197355670503510e+00
4.161051046175834323e-02
-3.375327492584897504e-01
-1.338558853017791428e+00
-4.000297834712316369e-01
1.056180048368148494e+00
8.210115147067624797e-01
9.308056161471474077e-01
-1.202808378420028079e+00
-1.155092529218320507e+00
-3.095645111403879518e-02
-1.708067787955070305e+00
-3.928709922104366981e-01
1.074391046437466413e+00
6.571403163927340696e-01
-2.228458288052795333e-01
5.412159239391071130e-01
-2.005454385604886758e-01
5.297067298456925588e-02
-2.260257858771848871e-01
6.364022230089548537e-02
-1.822086744606698838e+00
-4.209810427365913155e-01
-1.058377576928750896e+00
6.890638012501134613e-01
-8.355539486630123580e-01
3.704526226911076248e-01
-1.525152944854720305e+00
6.145608791514279440e-02
9.919755402390275645e-01
-5.014201500365201847e-01
9.089048072743458606e-01
7.404029758721384358e-01
6.017187417596722154e-01
2.385392539683692248e-01
7.886633541331824482e-01
1.596174466483198717e+00
9.010574969059054196e-01
-7.631165743389920486e-01
9.192904730593269846e-01
-2.303128485886616339e-01
1.441623191265769544e+00
-2.203466116120938664e-03
8.602795520880123226e-01
-1.408767995676416494e-02
-2.370617821885743215e+00
-1.034536724895547266e-01
-1.266789231774359425e+00
-6.651140223324627510e-01
2.529447623811395887e-02
-6.124510781359761014e-01
1.810736222247979921e+00
-1.563755220608905594e+00
5.297998309225072644e-01
4.435780387670260755e-02
-9.257967239650002900e-02
3.797874845008346600e-01
1.189594198461293884e+00
7.651320632685645329e-01
8.892932693093602570e-01
-6.907271263529243255e-01
-9.225984229494661737e-02
1.943991877310041749e+00
1.926625434943690207e+00
-1.221500879588046429e+00
-2.537210900554993209e+00
2.570974742646003341e-01
1.195663905919154724e+00
1.791018532428983567e+00
-3.077529630937491656e-01
-1.702769696746762526e-02
8.097408967391523937e-01
-6.323626121526350063e-01
-2.818779196626834960e-01
8.444427454788479004e-01
2.871006076679173402e-01
3.666368839218585030e-01
-7.673675650970965267e-02
7.610789427387913975e-01
-2.975895682797753961e-01
1.222909462400588287e+00
1.279529328586755499e+00
-1.005789960265500493e+00
1.212648642498544538e+00
-8.969247769773400769e-01
1.148183526446134861e+00
-2.450447688602224935e-02
-7.887915492729175027e-01
-8.790740204243350231e-01
-9.491705069073688161e-01
-8.891768798139746410e-01
-2.035005708375169142e+00
-1.304526506562354138e+00
-1.367559081002896582e+00
1.047440404101033923e-01
9.408198318259259896e-01
-5.029095471063322886e-01
-7.669153585668487816e-01
-6.438620284046672193e-01
4.855990662003193958e-01
-5.004681493936771197e-01
-1.398302097052264603e+00
6.101925103443247567e-01
-3.190101448956081387e-01
-4.790526597526559294e-01
-2.422540563504164801e+00
9.685701955043211075e-01
4.903532925021475974e-01
-1.089386955473379492e+00
1.249641405852899290e+00
-1.634951095892988038e+00
-3.898855017146088953e-01
2.246110671276774495e-01
-4.539865744300121686e-01
1.756007749231176529e+00
3.936654252894984940e-01
5.684447296644467018e-01
4.536263344166170941e-01
1.815419546847352739e-01
-1.910200065431451932e+00
-5.129514447352770956e-01
-2.122952163867385111e-02
