-3.517095502060927914e-01
-1.694803194224368426e+00
1.930608431350539611e+00
-1.166219390405832668e+00
8.454474270276877979e-02
9.659661121267228978e-01
-8.023228941729637631e-02
-7.661138921623269482e-01
1.242309064833894694e-01
9.234122540717382144e-01
4.528069253515434878e-01
8.630132826745743335e-01
-3.980671010172973645e-01
1.230688653352380646e+00
8.058698093877345592e-01
4.235398010601998386e-01
-5.425784121014068928e-01
-5.454212279324771595e-01
-1.225699254997683965e-02
-3.611819959507015509e-01
1.148916101712512371e-02
8.418946715201383046e-01
-1.132366052918680976e+00
6.515138230521930751e-01
5.819510019064857431e-01
2.895685323843271708e-01
9.621298239045547041e-01
1.654371124096967405e+00
2.040343501101292922e+00
1.299327559038582214e-01
-6.272355163087017793e-01
-2.793599336357146037e-02
9.497267070375831066e-02
-4.281630235010888130e-01
2.760832272771597262e-01
-1.088986837562241572e+00
-4.033455053508100407e-01
6.076431765396019813e-01
6.388597751775545452e-01
1.680122451321440780e-01
-5.431881300094234533e-01
-4.048051573365983313e-01
-9.279524069136244613e-01
2.839225809305597203e-01
4.902171123557676896e-02
-2.750602317528119123e-01
-2.517926481050694054e-01
-4.422372339953459242e-02
6.759839172873064461e-01
-2.766290445590644964e+00
-1.862227552604132308e+00
-1.174417687070869354e+00
1.245696576497965224e-01
8.321243790282375485e-01
1.557009505679648020e+00
-6.167449615351964232e-01
2.679826899979697585e-01
-1.865702664603099414e+00
-2.627704665553564634e-01
-1.621901606383942429e+00
1.857595697898752896e-01
1.158657776670198314e-01
1.572456595733967788e+00
9.494857074080756409e-02
1.129208850686743482e+00
5.861543478672043284e-01
1.323031845035836263e+00
-1.427459548237413056e-01
1.392193048314251669e-01
1.217922409653321436e+00
-2.884209692222271748e+00
-2.335312447339089881e-01
-1.088114267441227412e+00
-1.112182952837933447e+00
1.259990358929238496e+00
8.971304432575477605e-01
-2.197984515963118946e-01
8.491633765844364135e-01
-8.657410006953150106e-01
2.498123370380251618e-01
-1.105762096905227976e+00
-1.698247132372687485e-01
3.729986869062525412e-01
6.593928933289676664e-01
-1.760696338953988471e+00
-1.411210244277535386e+00
6.768944808995268625e-01
3.771010737400926072e-02
-1.332843778117454858e-01
4.360960209139594368e-01
-1.167239106603140397e-01
-7.858398352251350083e-01
2.479366229907530528e+00
-1.299518225754735079e+00
1.351670482999093093e+00
1.781953007732325123e+00
-2.988263158357700178e-01
-1.381894986131696257e+00
1.500863647502768961e-01
-1.069623379255320694e+00
6.033927990643040973e-01
-1.234868452488599305e-01
7.905295542421417188e-02
-1.908541793132570996e+00
3.982623102280612448e-01
1.616891050221183068e+00
7.666560453423423155e-03
7.877282113907275729e-01
7.860309481004003063e-01
8.061589689028791916e-01
-6.701220035487474025e-01
1.108741408659809524e+00
-6.083612984056310236e-01
2.291625596421131283e-01
2.731769248231026292e+00
-1.297955288116682926e+00
-5.011560690122107697e-01
-1.293689968681103641e+00
-1.303315559711128113e+00
-1.756029163869853083e+00
-9.568140764762357309e-01
3.710513288021721756e-01
-1.325466376014813097e+00
1.629874423217336776e+00
-1.730711574561929256e+00
-1.514196964302751303e+00
-7.574825867926022749e-01
-5.616977977825571289e-02
-1.236987345351730827e+00
5.921367418593195264e-01
4.226280431724968589e-01
2.117916084496498930e-01
-8.262132556569085073e-01
-1.260195374402911517e+00
1.213804770418167367e+00
1.078313629241317573e+00
2.331835630061924736e+00
3.896946866020143396e-01
-1.052336361192435898e+00
-1.292157422008787249e+00
-2.180472173082785403e+00
-1.478735408112068717e+00
-7.467609102729184656e-01
-2.019107127915591160e-01
-7.638616699967681889e-01
-5.508854880715298163e-01
1.976721058827665356e+00
-8.652200690081236489e-01
2.021666940348188224e-01
4.907940965190724092e-01
-5.569543938347620848e-01
-3.780779156686747133e-01
-1.915076256499228524e+00
3.672789515929559268e-01
1.056659046016234393e+00
4.565982042788450102e-01
-1.248173337351041967e+00
1.778260323955854094e+00
-7.004979494370677795e-01
1.116665170320282119e+00
-7.714124577060828269e-02
-2.121736995943222792e-01
1.695909505419758823e+00
7.998765204280328112e-01
-5.913253110557863401e-01
4.726719419498472963e-01
-2.544603692987684962e+00
-1.098517881572791621e+00
8.728750960388101943e-01
-1.949837299071259356e+00
9.034165928748414398e-01
9.194054465557602862e-01
-7.464201035751797386e-01
-3.686137553492109253e-01
4.027754658611130134e-01
1.063652855732466707e+00
-2.087484632024410036e+00
1.505154432057813629e+00
-8.715679897780005680e-02
-1.664956563742847395e+00
1.315622886944795011e+00
-2.011781414604257634e+00
1.318211910006396259e+00
-1.405940567545468145e+00
-1.036492476276853703e+00
-5.803349706691440790e-01
-1.884386203123391779e+00
-4.859811396603817002e-01
-6.999306551398012388e-01
-1.345425303361585945e+00
5.580553540549487712e-01
-1.511724626517616521e+00
2.292674765739750153e+00
-1.205327886947068272e+00
2.286582361318620915e-01
1.518191500326116161e+00
2.227840271385618520e-01
8.637649500900267396e-01
2.662848982247353335e-01
-1.765852567833395004e-01
-5.520591111446727650e-01
-4.418702364322810716e-01
-8.237552866376340877e-01
2.415715103205046954e-01
-5.421288778443030809e-01
-1.751748642114584031e+00
-1.035124289319339308e+00
9.357248000222864182e-01
6.535826531138471118e-01
-3.250979347981126644e-01
-1.772192954578458268e+00
-3.657891339161633559e-01
4.963397811267095672e-01
-8.409208210268069861e-01
-1.238037044586915325e+00
2.121121986518032243e-01
-1.110916193277633246e+00
-1.363986994692024668e-01
3.658616775877586158e-01
1.230739257428272060e+00
2.038103573970704574e-01
1.301741640899722219e+00
9.532780069087063435e-01
-1.648645422045500186e-01
2.791477507628474242e-01
-5.510419160609391076e-01
1.427192805914083429e-01
-1.295903521378525269e+00
-1.359265070167504863e+00
-7.666112772214633830e-01
-2.035113025825268096e+00
-4.323914679724094046e-01
3.811472538443520519e-01
-6.303658310343114302e-01
-7.710511042392532710e-01
-2.253931792848606008e+00
8.092556288190239089e-01
-6.112745803796112432e-01
-2.830292307620246861e-02
5.094513098583027810e-01
2.154880378143951836e-01
-6.780806327251348575e-01
-1.743692147055347696e+00
-1.419615118228212403e+00
-6.391135008807279361e-01
1.068107387202340774e+00
-1.125541670442607334e+00
1.120536389167182234e+00
1.291455001483498677e+00
-8.765763975059949198e-01
2.293282031134352472e+00
1.105080419057801411e+00
-1.307284685460693638e-02
2.600293515907022290e-01
-3.786878720442836688e-01
3.749085245126594912e-01
-1.929894872111765081e-01
5.338158960594697744e-01
-1.979953911207356754e+00
-8.009553921252476893e-01
-2.344797390473499554e+00
-5.649303319207774621e-01
-1.189788974342375905e-01
-4.626527774045247621e-01
-5.502622458662381755e-01
5.096035716683111616e-01
1.633334748885639343e+00
-1.047939045831546290e+00
-1.010617390816697991e+00
9.822640973462928859e-02
1.028090956626711606e-02
-1.610799543606135309e+00
-2.855998371512377121e-01
2.898626853545112070e-01
-1.684061392548107383e+00
-4.144303275033023315e-01
-8.484207775486860559e-01
1.160064507972523584e+00
-6.672542469851346914e-01
-1.284683368217794275e+00
1.786502212497432351e+00
4.814282640502494104e-01
4.976853842475070233e-01
7.620794953293892615e-02
-1.152380924315938415e+00
-8.049778857681453292e-01
-9.077628516960789540e-01
-9.362125544532421406e-01
-6.250770525838906799e-01
-4.216464189176503119e-01
-6.558561950513791539e-01
1.837493072303524322e+00
4.368236604586973604e-01
-2.736765947143777744e-01
-9.866840646928536351e-01
-2.066062663402205679e+00
6.731181914311836767e-01
-1.398468741876548904e+00
-3.124629135827817206e-01
-9.208113013707737160e-01
-8.570050428623245953e-01
-1.573973519011311328e+00
1.112825437017948005e+00
-1.251703456966213546e+00
-1.823777899097881905e+00
1.954432344990954640e+00
-5.480330390886223313e-01
9.675214172946431379e-01
4.356385199176953105e-01
1.288864046218691328e+00
-1.068062252558629632e+00
-6.868178943069677134e-01
-2.498125928080400460e+00
-2.581618356152028504e+00
-1.093622985061948050e-01
-6.004348889822829216e-01
-4.073815539944695141e-01
-3.972987784120160515e-01
4.605538037357689296e-01
3.304166195600367617e-01
-1.305492479929037941e+00
4.935798760801077822e-01
-1.440598024147546896e+00
-1.818992425479985853e+00
1.289157874127432990e+00
-1.917334575887692294e+00
-4.788512507537605600e-01
-1.098307608753303244e+00
-2.820473532890180213e+00
-3.762252770439768468e-01
-1.722522332580165516e+00
-1.319992910586152313e+00
-1.254860264371628897e+00
-1.980961615502748741e+00
1.100716505600335127e-01
1.837482788305809522e-01
1.080994831535856626e+00
-1.316269392332364729e+00
-4.043400635640026497e-01
-8.490233180084350018e-01
-2.123562227374168110e+00
-6.825892269342430652e-01
-2.201207810748147947e-02
-1.593937650592282429e+00
-6.509549628047969216e-01
-2.983848636084534545e-01
-5.739293701431470440e-01
1.396480420653863685e+00
-1.475155638502645417e-01
-1.142204043895958393e-01
-2.943772355227481707e+00
-3.428538542134719425e+00
-1.818291501479536443e+00
-5.291005677601764434e-01
-2.828693486154514769e+00
-1.019917848205135646e+00
-2.862359711802753837e-01
-5.831672987735928571e-01
-1.316106565749197266e+00
1.232431499842872730e-01
-1.956568486982780186e+00
-2.213676202779924385e+00
-6.825117480714253393e-01
-1.029249504753537048e+00
6.819517934304208939e-02
-2.254706979083943852e-01
3.529895898176135804e-01
2.078855079293626229e+00
-9.916448621668866314e-01
-7.621887728338196943e-01
-5.278467072596190190e-01
6.104162492645703875e-02
-1.038488854716970583e-01
-6.059964581730633570e-01
9.932273099893418333e-01
1.627564827423728377e-01
1.356529956034750128e+00
-1.666665938295075922e+00
-4.243996397638791218e-01
-1.749318455460674882e+00
-1.333073553318322890e+00
-3.905856570960451468e-01
-5.269753000441583790e-01
-1.686113969035728744e+00
-1.236106844245842940e+00
-9.327720195764013233e-01
3.232267850164027845e-01
1.336933561799525050e+00
1.963737071893558728e+00
2.709736323269216207e-01
3.117195625972227768e-01
-5.672832177426790912e-01
-4.939970108709738905e-02
1.024131406032851466e+00
5.711252055524277393e-01
-1.762324268258252502e+00
-4.259845126153327666e-01
6.781230336728409913e-01
1.317581516023496047e+00
1.994491397914047726e+00
1.067945109900120704e+00
1.509583559669970487e+00
1.302970644848401971e+00
-5.294993253733327326e-03
2.343750711973241252e+00
-4.149460014110848971e-01
-2.058479501157302050e+00
-4.694792102967097064e-02
-1.585951600923591664e+00
-3.176606746486569377e-01
-1.182920944507902528e+00
-2.307429104410707588e+00
5.766146007253778460e-01
1.979329072144141444e+00
1.591229452340517714e+00
2.185922201555956068e+00
1.530767192139924522e-02
-5.326174289189781197e-01
-1.047252976375092848e+00
-5.277273823490735705e-02
1.530261898411676258e+00
8.242685451503127814e-01
1.184146039126449806e-01
1.005353838475936623e+00
1.246346025662017576e+00
2.032703745516660998e+00
7.963348196307755700e-01
1.386876221720256819e+00
2.743251016507004092e+00
2.140549637452387799e+00
1.779647345327281194e+00
1.507792913990264605e+00
3.676874079168281462e+00
-5.778360476125253831e-01
-1.525949568394634248e+00
-1.652896648198862728e+00
1.396013908966135642e+00
6.185743809234740542e-01
-6.843070134180210262e-01
9.376796996235946535e-01
1.106653747676890287e+00
5.642590172212060828e-01
1.216042222258726158e+00
2.425164306825378091e+00
-4.695239849195793208e-02
6.524376371239664074e-01
9.689599773289254703e-01
-9.823668787879740183e-01
-6.841407372413642607e-01
-2.162023630890533621e+00
-3.487141917636835120e-01
-1.277198777368249605e+00
-1.717082467640347054e-01
1.279940074497554647e+00
1.156728599188372231e+00
8.440101161528772433e-01
1.074775360502074006e+00
-5.662377307437271856e-01
4.618770165956516127e-01
9.821016646598861033e-02
1.244962442208133568e+00
-7.761730640895060374e-01
-1.336604733732175587e+00
-3.930864235405397977e-01
1.459881421971545912e+00
8.272440132233147558e-01
3.194057147321244017e+00
1.548367176664140699e+00
2.916557483294211384e+00
-1.842890584481774174e-01
4.734621001519100369e-01
1.153601525206114697e+00
-1.895657203850442007e+00
-3.800687133863516198e-01
-1.992792431045347312e+00
3.307194461741416649e-03
-2.146113059354393560e+00
-3.335941886233841913e-01
1.461260172115264266e+00
-8.756121031297172674e-01
2.984665923055085934e-01
6.319576059502235443e-01
2.405822880738855141e-01
6.338857938716346840e-01
1.942191765048654484e-01
2.864364725142486134e-02
1.588418888374173443e+00
1.713949286565338515e+00
1.031386053934201241e+00
-1.506884586104217105e-01
-8.251259439760981751e-01
8.194308621587595987e-01
8.967517622217634488e-01
1.623512321907681633e-01
6.022431332857677289e-01
9.449145453556558050e-02
2.329598123556576805e+00
7.937909022039827400e-01
1.435043876394272777e+00
1.054209307077742297e+00
1.897920590058573165e+00
-8.973908196677109206e-02
1.663756186140096460e+00
2.121638682017331357e-01
9.940772963094585135e-01
-5.969644449150070253e-02
-4.961156445100505658e-02
-1.658970154112499262e+00
1.958893921943054839e-01
6.240539676956550208e-01
2.035840224449428915e-01
-7.481188118357096073e-01
1.621930874231512831e+00
4.096341761338235243e-01
-4.779779919736618643e-01
-9.662958981606259989e-01
1.337126649527193845e+00
2.873225360319463517e-01
5.667994862591908545e-01
4.521498962339803307e-01
1.669194299244106228e+00
-5.544033087575768459e-02
4.837065347866260079e-01
2.015143438572958079e+00
-2.382504090566069377e-01
7.550236951545447051e-01
1.829426314508049156e+00
2.176435636144505192e+00
-2.490864944955840099e-01
6.245110362960539785e-01
-2.326964708227412526e+00
-3.538819607854965660e-02
-2.308306628436148367e-01
2.283472809296823447e-01
-1.229603282615396642e+00
2.451349860903280220e-01
-4.238641611488320193e-01
-2.181147201076764297e+00
1.158628043605180569e+00
-4.263616152823120342e-01
6.618256497604858568e-01
-1.231373177809284014e+00
1.259545381578857093e+00
1.392748073965179856e+00
-9.225506950469570810e-01
6.891741507730189120e-01
9.055705150537417536e-01
8.522950295678842769e-01
-7.253782470676404248e-01
1.079080108181436071e+00
6.704187803586914018e-01
5.530144437471775642e-01
1.661249991836636797e+00
1.231625520019555609e+00
1.108144263455606682e+00
2.805329585070453824e+00
1.204555744122566718e+00
-1.347520194690754285e-02
-2.633434121107734449e-01
-3.016470876225663816e-02
-4.836387209026552503e-01
8.831632388523849020e-01
1.621364400264353689e+00
1.736050265979769414e+00
6.628014121763635691e-01
-3.236502024165348046e-01
7.230825392546985642e-01
-3.738434015920074072e-01
2.755657195672162607e-01
1.516933445780940692e+00
-5.085498183941162820e-01
1.119484534124626895e+00
1.846159517673240824e+00
-1.348189809209275447e+00
5.882734257897191954e-01
1.997084053338081013e-03
-1.791566016854054810e-01
2.111429624441424124e+00
2.840622729676339997e+00
-2.110667609859048777e-01
6.543753169812023263e-01
1.375969673945960148e+00
2.060323263030837460e+00
-5.090371186179835084e-01
1.393045238597075686e-01
-1.161416005058566014e+00
1.035762172125162861e+00
-3.811373963078952265e-01
8.327697460508508565e-01
-2.915627207685106415e-01
-1.837422795779176221e+00
-6.957574795537448953e-01
1.769873242140437564e-01
1.076477702410078841e-01
-5.827912465009232879e-01
1.588394556490425602e-01
1.732659416146790754e+00
6.397255174627669572e-01
9.913185151077983370e-01
1.773615802004683939e+00
6.092176014475405577e-01
-2.719693268781491757e-01
4.756641151627434561e-02
-1.085231611397741602e+00
-5.398630446448331455e-01
4.937002628199833043e-01
-9.596432465700337477e-01
-1.390679418004622525e-01
7.240986198845070776e-01
-1.645015265098928314e-01
1.666183234546783354e-01
3.085344373951308394e-02
1.573553754082791967e+00
4.239012188869709097e-01
1.257466226071232152e+00
-8.240028040937442677e-01
-1.603742492360776151e+00
1.651997515598248922e+00
4.735360053967857530e-01
-9.063289551217421636e-01
3.448473860502470484e-02
8.541232866620538378e-01
-5.892510984080732150e-01
1.247292569237414606e+00
1.759937810333952690e+00
2.242820780532473468e-01
-1.951884796519855192e-01
-5.766785400536235118e-01
1.612419180716838651e+00
-1.278001905483711953e+00
-9.695079645269988333e-01
9.820819461614950230e-01
-7.631637253235243890e-01
-1.483289298488497998e+00
5.857619046911692884e-01
-8.496084945885684636e-01
-1.439833468680918882e-01
1.221265118771330593e+00
-1.275478295327301836e+00
2.084301295452482439e+00
4.642312006951798686e-01
4.954683414838014638e-02
-5.679789651562845432e-01
-2.478921045572887727e-01
-2.466936502124777164e-01
1.311495324030575726e-01
3.002583410270079356e-01
-1.060183152251450295e-01
1.419998142750906744e+00
1.968139994067747534e+00
-3.339243007654255080e-01
-2.709954562515253795e-01
2.398364312385267816e+00
-3.571315415659576664e-01
9.962283780063229122e-01
-3.708549963702354457e-01
-1.032075915957298973e+00
-1.422481992400221218e+00
-4.603366292377268354e-01
-3.349246458264115156e-01
-1.467625911521283522e+00
-3.468533514542440077e+00
-1.428037375668200548e+00
-1.018085604705870395e+00
-2.700881682595755784e+00
-1.203832180197427215e+00
6.976104349008598327e-01
8.115660032613415398e-01
7.090779310348050979e-01
1.190287204333165122e-01
1.770206060120296521e-01
9.641415277493786684e-01
-6.298246048661906293e-01
4.517442194134608791e-01
-1.071833482528094406e+00
-3.699448537776064416e-01
9.815955036195871397e-01
-1.551615455684514311e+00
-1.677550750627148091e+00
-1.367349605812186786e+00
-6.090996568956857926e-01
-1.712897969730859726e+00
-1.427835992576073076e+00
3.619238546124024514e-01
3.916892441334910990e-01
1.774257025094134188e-01
1.004760980598637943e-01
-2.405789242139733108e+00
-1.235548307394843948e-01
-1.048741624294270869e+00
-1.075348816944737163e+00
-1.238786783915286627e+00
-5.912077015433429006e-01
-7.811081542281838042e-01
-9.815195249163553015e-01
-1.139252317847172069e+00
-4.093880179594532320e-01
1.520148351442544898e+00
-1.745921480921492686e+00
2.914039151733430200e-01
-9.343928329285784429e-01
-1.176293599335483941e+00
-3.084547400770847325e-01
9.008329238792415206e-01
-1.762965340571494843e-01
1.975048117429547778e+00
-2.745175767953453305e-01
-2.476432571176100106e-01
3.682993318814363759e-01
-1.741185951405155308e+00
4.829636907022559489e-02
-1.944738685812007928e+00
-2.003934058804485829e+00
-8.958654357171350613e-01
-1.112215210128704168e+00
-2.451711931924481558e+00
-2.456112466894497526e-01
-7.998236117570750592e-01
-9.234550708322694090e-01
-5.989514955900134829e-01
-6.824823338208798607e-01
-1.215947315411710639e+00
1.652193221537408441e+00
-1.929895201526541593e+00
-1.095863782259766994e+00
2.292041224016214823e-02
3.825780512085370511e-01
-1.198253741974198761e+00
1.800577860354257487e+00
-8.237489025315714031e-01
3.293335062574746508e-01
-1.246591515100436559e-01
3.643567250244930666e-01
-1.951078753313791658e+00
-9.790627528692175119e-01
1.025335635885069596e+00
-2.186406941857098385e+00
-1.521925618020448345e+00
-9.380189996272276787e-01
3.547729144198645823e-01
-1.605232852590928072e+00
-1.096143397206533060e-01
-2.195510999091397630e-01
5.879307877034520846e-01
-5.241312636656132451e-01
-2.252418342703415455e+00
-1.181812743420463052e+00
-1.022344139253297257e+00
-3.797045240398989607e-01
-8.438250492119629340e-03
4.947208849834031086e-01
-1.174280344455141067e+00
-2.279972481355809766e+00
1.976384325121499863e+00
-1.459069154756945375e-01
-5.645178850915124613e-01
-8.198814832808214437e-01
1.381310901791640511e+00
-3.796458693498450110e-01
-9.646611521220416208e-02
-8.025467014531513232e-01
-9.034383820280950106e-01
1.194468949541565683e+00
-4.484788039923428005e-01
-5.383663843571243612e-01
-1.078260965034347901e-01
7.347106950685190242e-03
3.681320772093801263e-01
-5.436239577989021576e-01
8.772045710619433834e-01
8.376003859581196975e-01
1.135613074898258024e+00
2.120339585549994577e-01
-1.031953668598991625e-01
3.673137190792750695e-01
2.760007900159998639e-01
-7.432640949363746863e-01
1.363091810149560934e-01
-1.294175183074323110e+00
-1.112133470593196227e+00
-1.083998332914938079e+00
1.233101747633730483e+00
1.424832981663042952e+00
-2.077558649833549376e-01
