-2.403865200440355177e-01
1.009882823365214843e+00
1.327717463339298742e+00
2.220145802883314590e-01
3.009725159712041131e-01
5.687893883434896880e-01
1.488707704802478604e+00
-1.760116688774283622e+00
-7.404043409132003983e-01
-1.539701147859233454e-01
-9.231354474895766549e-01
-9.535392385576098029e-01
-9.174558466374169718e-01
3.935649563563263786e-01
-1.154215629238197760e-01
-5.712074653939903657e-01
-1.528684600026847917e+00
-2.107474897345834597e-01
-9.706962411120112488e-01
-3.910656274868781201e-01
-3.255390098409847166e-01
1.792152629071643188e+00
7.571266314577126399e-01
-1.420701827905774817e+00
3.807082255312255192e-02
2.005130798766393774e+00
-9.006591474060813285e-01
1.914902053418943706e-01
7.609938722863560656e-01
-3.540007090115607213e-01
-3.179115627417020695e-01
1.412277960129280530e+00
-4.028428678388433770e-01
3.096744245793874306e-01
4.281184902847483785e-03
-1.630906998300807098e+00
-8.581397018691764300e-01
-1.020469000913039048e-01
1.050580973273077090e+00
-6.288633847592137727e-01
1.715573701192991685e-01
4.799133300152880199e-01
-1.582386075425765704e+00
7.018426163867169665e-01
4.111316257047162859e-01
-3.504401140310713786e-02
1.628895722959904813e+00
-4.154424535144103647e-02
1.635897103484184878e-01
1.680064173157270080e+00
1.976179731739960144e-01
-1.187364395805709405e+00
-1.605530688790482996e+00
-1.577502239537024176e+00
1.552317195344827372e+00
1.677976923197550096e+00
1.722884781713596603e+00
-9.240076673369755911e-01
1.123071109476666413e-01
-2.287185639834489748e-01
-2.253413573119607272e-01
-1.152158440522343508e+00
-1.709270099716132307e+00
1.648244570006897503e+00
-1.574644747148639112e-01
-2.149954251444715858e+00
1.046416071277376930e-01
6.184958210654476624e-02
-1.546433387545105911e-02
-3.924703706261316594e-01
2.144291228540821326e+00
-9.090706276084780102e-01
-1.209187181584684190e+00
-9.258846799703855934e-01
2.488197437658541955e-01
-2.102659353852591728e+00
6.418040818197758846e-01
7.671863137092728158e-01
-1.253215221382032452e+00
1.865011564727661719e+00
-6.758104469878747356e-01
-4.354680327528577533e-02
-1.635866781116144031e+00
-8.291971295678600695e-01
-1.830938639812828422e-02
6.799495742276908672e-01
-3.004138746288237405e-01
-1.443657713429672418e+00
-5.469822747032653254e-01
4.168137468618238195e-01
2.578337962039303766e-01
1.190876649308715736e-02
-1.507901653825078681e+00
1.299600496213689116e+00
1.071192314359189268e+00
-2.731531867320728668e-02
8.160655384215355079e-01
7.118076259017139806e-01
-1.081858285110124246e-01
2.904135735456358502e-01
-8.476994944702701540e-01
-3.077184624885526687e-01
3.536024834876594913e-01
8.372997404200590577e-01
-1.258363364524826888e+00
1.927399913744073240e-02
7.005227293896222340e-01
-7.960084775419495884e-02
-1.747287471963073990e+00
-3.649345371001837091e+00
-7.131274115702660454e-01
5.172271834590801420e-01
-1.208460224081597589e+00
-1.796098926418503439e+00
3.803775592410784667e-01
1.599945410983627081e+00
1.706606200557227782e+00
-1.728985722377888612e+00
4.156240596314961788e-01
1.205435206755281818e+00
-5.323120269757469075e-02
1.617441530856495113e+00
1.432603053982348218e+00
3.430037278788822808e-01
-1.809999589664265329e+00
-2.055877115847281889e-01
-4.911624721807365535e-01
1.807195204906592245e+00
1.337465225987586326e+00
6.791245669452122824e-01
-2.295150077132365463e-01
-2.863594596351536903e-01
-4.594664818010366081e-01
5.082940924987693343e-01
-2.161511659724338674e+00
-5.824818198645954626e-01
1.104238203712793132e+00
4.451328647682161743e-01
-3.487015238421639629e-01
-8.225617614870012195e-01
3.198340726770049769e-01
6.347843916517383889e-01
-8.682573526706467426e-01
2.260439276665805686e+00
-3.897676088686010676e-01
1.357559727495555091e+00
9.551233288726191928e-01
-4.792068760804979455e-02
1.732729994208270563e+00
6.144794369785936405e-01
2.081761897074775547e+00
1.115360705638983596e+00
-1.138636123518551591e+00
1.075174978195825526e+00
5.166534278740055885e-01
5.341327592409855773e-01
7.916657915865018547e-01
-5.123829253193015187e-01
1.226346346325560832e+00
-6.287002103267639308e-01
-2.806456209984087846e-01
-2.013274329298343712e+00
-2.696159431995081679e+00
-2.407917914724973851e+00
1.700170422919043411e-01
-1.154027754874285883e+00
-9.010804868220387842e-01
-4.891192143283076277e-01
9.050411018811472807e-01
-1.353545543095342696e+00
-1.058390994038475252e+00
-2.068884893555692217e-01
5.693080797335846599e-01
1.470489025753878742e+00
2.062827359474745936e+00
2.081591514815888999e+00
-5.843987032240061802e-02
1.743232298734687991e+00
-4.222404176983181497e-03
6.919250457795452780e-01
3.451671926704308335e-01
7.407645601620622688e-01
-4.513296643523642127e-01
-4.393801724480596582e-01
1.664746127140178111e-01
-8.941536067338762273e-01
1.003958483088739806e+00
-4.900345696300288378e-01
-4.576854410230157266e-01
8.980321399250384973e-01
-1.298101916969835790e+00
-3.496406594934013512e+00
-9.332536140916850576e-01
-2.273663777743931969e-01
-4.300624201387630019e-01
-4.374789789796556527e-01
-1.031251765978064228e+00
6.354582757059500375e-01
1.239452092475385347e+00
3.861193132694870633e-01
2.375043447374113992e+00
1.239090056931194006e+00
1.496184987094549834e+00
2.060120642362352150e+00
2.320348714993300254e-01
1.172022732162169234e+00
8.438658898642080741e-01
8.216766933385901694e-01
7.418222009747402756e-01
5.881661306825467506e-01
-4.103603743709842711e-01
-9.820756223361000181e-01
1.270112622179067063e+00
-8.342742130414511348e-02
7.244520961794578273e-01
3.452938374653620190e-01
8.748048725342502663e-02
-6.531956810149428527e-01
-2.800548788343431572e-01
1.669984324891141458e+00
-2.064676098122280479e+00
-1.814912237594842104e+00
5.966133743750030582e-01
1.611849358907472496e+00
8.093291842057354080e-01
-1.223607852917333760e+00
-5.205309104826983946e-01
-8.584874570798954885e-01
2.564888731459367688e-01
2.325641829019462481e+00
1.275114943610940133e+00
3.342103570095311671e-01
2.350519982267706087e+00
4.468240623098629904e-01
8.493387125159514994e-01
1.400139901922520691e+00
3.332813379699899325e+00
1.844894531846013042e+00
1.022993730488766184e+00
-1.047039919403657954e-01
-9.565517175386978321e-01
-6.133740476860887192e-01
7.448748489224540359e-01
8.491585843465222494e-01
1.312641254934943102e+00
6.702552592151420630e-01
4.025288289701435263e-01
2.507194570031631708e-01
-4.647306865675768228e-01
1.792832922793855088e+00
-6.460388819666122995e-01
2.410953668232188735e-02
2.171141630514671572e+00
-2.869053429405407640e-01
2.440956428895922237e+00
1.200059353521413019e+00
1.183198591275693934e+00
1.167749668009388397e+00
2.416781633845135779e+00
1.873390693279373131e+00
2.432320797934956619e-02
-1.462589487691690615e-01
7.842885927368131727e-01
-2.406525983265395963e-01
1.456410531146361320e+00
2.006036098703984472e+00
2.880708988006949856e+00
7.223632719461485774e-01
1.533614348545373485e+00
8.259507885550859685e-01
7.838649430036559451e-01
2.087786640220027579e+00
1.977256453929935043e-01
-2.935122384704295651e-01
2.436656169069951083e+00
-8.207788734613853388e-01
-3.399056339500678425e-01
-1.298278447386004508e+00
-1.354062848623558413e+00
1.881157830165467726e-01
3.436393194846761312e-01
9.142539451602337275e-01
1.006429731183699827e+00
1.512873765806487247e+00
4.873249944983311654e-01
4.472516577597084320e-01
-1.569857197633577339e+00
-1.227930578248465521e+00
-1.719009356032827895e+00
-7.643268046142196459e-01
-6.452202391779338075e-01
-2.034630089360352834e+00
1.224649084563015133e+00
4.458369613709836976e+00
3.313750915188254265e+00
1.291553822411378283e+00
1.772041509643215385e+00
3.985019764728656710e+00
1.085017054354052046e+00
1.320437312745793790e+00
1.842549184877494861e+00
2.754311965049709432e-01
1.761652505810071601e+00
5.531709052530813242e-01
-3.825261157115564248e-01
1.165309098424987866e+00
5.538340237393734045e-01
7.992057376825072446e-01
6.667032510698754910e-01
1.719068995607106354e+00
-5.287385266930495070e-02
-3.988919084285601213e-02
4.738863319569631694e-01
-8.512002876009904240e-01
-2.910501949503685459e+00
-1.118738121064908775e+00
-2.954489580983267416e+00
9.865978279294582154e-02
-5.657963125349698696e-01
-2.471593846112008386e+00
-1.663696067867622030e+00
-2.955074405541327831e+00
-2.054011834587918806e+00
7.911406443077325656e-01
7.261475606133528382e-01
-5.560028965304191217e-01
5.173960453252933744e-01
-1.213327984121900516e-01
1.095173632937849861e+00
6.629462540748358723e-01
-1.635622584623238396e+00
-1.307808309050982221e+00
-1.406997328123547275e+00
7.205002971884486573e-01
3.423819794213031065e-01
-5.043751267319735998e-01
6.195632011152528429e-02
4.322734797169360266e-01
4.671668091758652275e-01
1.340362589639456925e-01
-5.864503975935934088e-01
-4.504085226837457046e-01
-6.456005966129216844e-01
-1.342698482804459026e+00
-3.179219022999302258e-01
-1.031727337991886762e+00
-1.575157697159955683e+00
-1.728209658816787786e-01
-1.080533436592743257e+00
-3.144026867893397803e+00
-4.842784131894012134e+00
-1.056583658603331255e+00
-1.663609293041745929e-01
-2.322272541698717330e+00
-1.130926907614310917e+00
-2.644789629254142849e+00
-1.919510281268241414e+00
-1.174033055765600242e+00
-2.601229308578038690e+00
3.938950480990436875e-01
5.693842930500820909e-01
7.644706963302909664e-01
-1.849678896486267876e-01
4.364340299271750601e-01
2.649275411468262065e-01
-6.457129290660675036e-02
-1.139956504988573815e+00
5.564755695269479885e-01
-7.713359616385705442e-01
-1.302502943679818781e+00
1.194991889343792746e-01
4.321217950097324123e-01
-5.122175337684020668e-01
-3.034791441668844847e-01
-6.025455726939661361e-01
-2.619230025084248181e-01
-1.780303205490867180e+00
-2.862167384565753814e+00
-1.415077641049982793e+00
-8.492115561265280999e-01
2.703149046236665853e-01
1.048479768886846131e+00
6.911892220960946798e-01
-2.203286084229448605e+00
-2.433730403809774234e+00
-1.568987225735098301e+00
-3.622363764243821116e-01
1.932403267352787779e+00
1.084416898519865891e+00
8.294011881371173844e-01
9.348101294867904310e-01
7.747031840456326535e-01
-8.609745206242919169e-01
-1.689686647634402350e+00
-1.236054423838834015e+00
3.244390638848516917e-02
-2.032024688031284665e+00
-6.789162293761354938e-01
-1.694249959772887948e+00
9.191527582931219298e-02
-4.417208964113739089e-01
-1.678246426683680959e+00
1.998013716508128257e-01
-1.938795968021016947e+00
-2.335696398617736591e+00
-1.539078893302975093e+00
-3.245852517214352417e+00
-4.716273369078671229e-01
4.230975268518816779e-01
-1.545613230935713567e+00
2.571865408232349437e-01
-1.220011264215324909e+00
-7.406741247720083354e-01
4.244749821589102190e-01
1.208608245587732943e+00
5.919257164500952850e-01
1.681700674776042348e+00
-2.063165486141210203e-01
9.629132725047732932e-02
-2.291481880769316581e-01
-1.171219530365497530e+00
1.146803910464955223e+00
3.141727927211232507e-01
-1.020014742541716091e+00
-3.498718698389823856e-01
8.289189292641527818e-01
-3.409548060248663859e-01
1.226320911025690297e+00
-6.262360207915093069e-01
-9.094083604847242874e-01
-5.695683689588807441e-01
-1.525656865682905927e+00
-1.613616604289163980e+00
-2.472740453012358675e+00
-6.560439941026464661e-01
-1.410645868438240136e+00
-1.224230548509830596e+00
-1.248505451267230670e+00
3.287301936083797949e-01
1.430312868627906520e+00
6.708975080968275773e-01
1.300285800638821598e+00
1.525687591432342671e+00
7.926068450687718814e-01
-3.856312847954326828e-01
-5.520095586692088663e-01
2.436226160497904913e-01
4.654400019412378159e-02
-3.013556778450593665e+00
6.782597517571484769e-01
9.458978746117541192e-01
2.412613937621883031e-01
-1.029544504360345503e+00
-2.073593647724489397e+00
1.050501933822205247e+00
-1.662959401725779274e-01
-1.664491563921176809e+00
3.352321561922190218e-01
-1.688606238810594684e+00
-2.353941040091928727e+00
-2.071812100263147549e+00
1.282937775876666787e-03
-1.529913371230303909e+00
-2.843849256890969013e-01
-2.041821823979674821e+00
-8.241099032398010449e-01
8.089038298046691278e-01
1.525579903633588863e+00
1.860031055364038455e+00
2.235555650053764332e-01
4.474110703864137006e-01
2.139934744339512876e-02
-9.930389247755611049e-01
-3.956241726841519535e-01
-1.252393211400145923e+00
3.266772830902597291e-01
-6.008541407635953346e-01
-6.660263856425162610e-01
-1.305339923451277195e-01
5.393047768023381261e-01
-3.480983419558795755e-01
1.669766862898914406e+00
-1.274011050748241169e+00
-8.952641321410871322e-01
-2.107788193045662950e-01
-1.612598789367869934e+00
2.898872320532449032e-01
-1.136420062033999534e-01
-9.485753781397793238e-01
-2.190437128656543386e+00
-2.363044341064012566e-01
-1.028808958170783106e+00
-5.630243734342695872e-01
4.025887440905599468e-01
8.971929604291023486e-01
3.251403534959131925e-01
-3.453737944996243536e-01
6.651749317835844999e-02
7.104937995924464067e-01
-2.213717952611654327e-01
-4.269160403487613775e-02
8.738419431463860521e-02
-2.116042776956619242e+00
-2.662812355010478194e-01
-8.907201361876648793e-01
3.757091322687906576e-01
-1.222743724272732813e+00
1.293406463105866155e+00
5.371891243926369963e-01
-3.756966848863317887e-01
-2.284342525388645129e+00
-1.967149702990009130e+00
8.993891923298151791e-01
-1.515797125911010790e+00
-2.211703800107575280e+00
1.109655833253285762e-01
-1.553424062511252313e+00
-1.315645784742428548e+00
-1.476610853737564399e+00
2.862005805502295108e-01
2.883969208454020272e-01
1.611054228110986974e+00
3.979672933940787138e-01
-2.114389842475313253e-01
1.126346265000350011e-01
1.442787873265430010e+00
-2.000824687815262681e+00
-1.404310681958748752e+00
-9.224210019986999187e-01
2.288328206206897697e-01
-2.742151114067838957e-01
-8.283656883306264596e-02
-1.218137262215200689e+00
-2.213081507774781631e+00
6.630941106013701347e-01
3.097942347520207806e-01
-3.659295551626408072e-01
1.560180821720194844e-01
-9.119013239131917858e-02
-1.953399219659617547e-01
3.370116309238192498e-01
4.421804954766035967e-01
-1.723677424231838895e+00
-1.120775952010660381e+00
1.182976009895733593e+00
-9.843833736001930679e-02
7.755542584355007429e-02
-1.142742357244027840e+00
-1.552851296446140061e+00
-1.438745956017873029e+00
-7.550113732315395509e-01
-9.849751898141148598e-02
8.262618388435036820e-01
3.044706013298960734e+00
2.939151916853823265e-01
7.939753031790478532e-01
1.407559782548821747e+00
-8.494496548919352463e-01
-1.621178884457262104e+00
-6.390228873475300997e-01
1.427725385001052116e-01
1.872277994903424059e+00
9.732364899385376189e-01
-6.252879983035751765e-01
6.564803572442289292e-01
1.519346671498991164e+00
-7.236082048228542618e-01
1.033419428349333202e+00
3.016278675377642160e-01
1.314434557337320175e+00
-1.664480686020956834e-01
2.001411286422487557e+00
1.002259870856706314e+00
3.418447538273856612e+00
1.173593576323641807e+00
6.064331319124238728e-01
-4.199785421420462739e-01
-1.800026895020801154e+00
-1.543964647856895578e+00
5.278567020875221116e-01
-5.094657308679256813e-01
7.173657017428523019e-01
3.437214793077416619e-01
5.485797223761967878e-01
-9.491312999186342081e-01
4.496249463290263315e-01
-6.850600080547276649e-01
1.071362649059824257e+00
-7.010338344241167086e-01
1.515772691480183454e+00
-4.604075667756558216e-02
-1.171587795160893730e+00
1.998499782222350030e+00
3.457552894685291811e-01
-6.512056319887620237e-01
2.417902782948178508e+00
1.369049415754107768e+00
1.040591645442437319e+00
1.710887584487158941e+00
2.040462856941042347e+00
1.706804988338908258e+00
9.790426408250062495e-01
1.767507104830253750e+00
1.788971609658200679e+00
2.630394382239412021e+00
1.617413544883456566e+00
1.233067821230869221e+00
-2.648320974778380354e-01
-7.195808762307098760e-01
-8.379789380608213545e-01
1.817444906079009603e-01
-2.599699218748138252e-01
-2.044486804042111139e+00
1.247905709270677732e-01
7.398496832673121526e-01
-1.026335972724254919e+00
9.650463906851276530e-01
1.168235923016045286e+00
1.992187872248187386e+00
1.386914344055389048e+00
7.672439099778730620e-01
6.892705788219742891e-01
4.159250339747700975e-01
-1.171714836707402618e+00
1.546498674053834455e+00
5.660469265766672198e-01
-3.061086451676557352e-01
3.705874346208569703e-01
1.012067759099146258e+00
-8.320226116045360554e-01
1.196156217503393959e+00
8.908562353120006438e-01
8.457478442168215871e-01
9.128925519740244132e-01
-7.862449583968316169e-01
-1.423591891493816153e+00
-1.901562859377883274e+00
-1.985509655945607854e-01
1.182896320332753382e+00
-3.258702148071522253e-01
-2.213180852080977659e-02
-7.046470700015010635e-01
9.974056676277019001e-03
3.287921034766192602e-02
-4.742422031114513215e-01
-4.967714222823734205e-01
5.587438399624178320e-01
5.488631312402970641e-01
1.998629165311877898e-01
-6.736723926222627501e-01
2.582583413550410878e+00
3.101323557863222558e+00
9.512214503865128457e-01
-1.104001052156633911e+00
-1.486061194427684140e-01
7.154143688797878209e-01
-1.172823264221088735e+00
-5.968478190559131091e-01
5.527620078949226912e-01
-6.537145862992185807e-02
-5.326722196095742268e-01
4.617284108391342401e-02
1.409983537157756484e+00
-8.506712767467757008e-02
-3.014341863428232848e+00
-8.990979897056395886e-01
-4.535934463232770275e-01
-2.172958933129387205e-01
4.412270471123250770e-01
1.643229425051161208e+00
1.568340025496205159e-01
5.197187935880729359e-01
2.542150947491518889e-02
-3.110932080767853658e-01
4.792856528570260677e-01
-2.016765740662126716e-01
5.568495644458508753e-01
1.098005164433657921e+00
2.013306757681506909e+00
1.282615336565976261e+00
1.448272922645214900e+00
-1.111281824826655162e+00
-1.250100535871409013e+00
-2.725243427325121370e-01
-2.083352972100050160e-01
-3.196624451157275004e-01
1.849903369891509719e+00
1.477362446951877128e+00
-1.571896782589059960e+00
1.066199085916836209e+00
1.818677945207706204e-01
-2.091861653145169253e+00
-1.390632298551721657e+00
1.543754551287533638e-01
-2.422093900622853013e+00
-1.969004157732743288e+00
1.620221472955513997e+00
-1.144002306048012230e+00
1.978792425589327220e+00
-1.398131479587470860e+00
-1.922082395742306549e+00
-3.735368163658892571e-01
-3.942504094473214815e-01
-4.843009544841362923e-01
-1.021468816761450071e+00
6.617032890831493763e-02
7.676989472562680827e-01
9.645192275012188787e-01
9.977706310840094295e-01
1.434518292608447654e+00
8.121545410837874845e-01
1.124391867258838218e+00
5.410223640861350214e-01
9.423575794755647550e-01
4.302705671409661203e-01
2.783213468164101312e-01
-5.114387596493760041e-02
-1.757268992683952979e-01
1.524514472164511636e+00
-1.567206040751361718e+00
-2.129379012248101333e+00
-1.084048649343744425e-01
-7.038503535681320811e-01
-8.465233991680458647e-01
-1.141543704025181349e-01
3.179697898758257479e-01
3.299818415525874737e-01
-1.914616535135961417e+00
-4.827279249961342056e-01
4.378597553936938724e-01
1.388528804585811516e+00
-5.441076320164998092e-01
1.177303179359203478e+00
-1.888397965294191350e+00
-5.158294313522213681e-01
5.592030740431316316e-01
1.032846832959786854e+00
3.992878773106605661e-01
7.784028175377537551e-01
8.929436284091823994e-01
-1.469273903742171816e+00
-6.548014097363696884e-01
-9.995678973955450797e-01
-9.890296898114963042e-01
4.960502863013524499e-01
6.920136732225912191e-01
1.906547155698933571e-01
5.332285700083179147e-01
-1.447943913366534219e-01
3.865729257634817340e-01
3.746656621896577999e-01
-1.995713781423940958e+00
-5.206563568047704038e-01
6.691492734270569898e-01
-6.930152363654166203e-01
1.504950761352831901e+00
2.548273869188009688e-01
-8.015051502125095650e-01
-1.084373485298203210e+00
-1.010463575620077492e+00
2.354438629494584323e-01
1.640183735027117562e+00
8.406092734412725642e-01
1.262464010303446571e+00
-2.373633574440871807e-01
-3.878670753073540922e-01
-1.171093970842455700e+00
-9.064963561291820016e-01
5.838455188010883701e-01
-1.924158414475169554e+00
-1.126606468366530667e+00
-7.413729594283954838e-02
1.060065943248391873e+00
2.260407862352304953e+00
-4.672224201948048661e-01
5.222917107941674741e-01
-5.803405201736836494e-01
-9.635245278811434000e-01
9.227578265531557467e-01
-8.626148956906724008e-01
3.383293790440184967e+00
3.876283017190368385e-01
-2.105887006801646866e+00
4.145252594791872247e-01
