-1.556553869393426381e-01
-9.176324857300565130e-01
-1.624438923986744332e-01
-1.222015729688000985e+00
1.310939038091641695e+00
2.601960653131468182e-01
-5.979010385446431597e-01
5.644470074963364725e-01
-8.059180788282339636e-01
-1.557505770049256721e+00
1.199805148826329271e+00
1.908519528795884004e-02
-9.527364186447211392e-01
-2.589360881516509671e+00
4.770785761673169145e-01
-5.459736264810657880e-02
1.281982476639228485e+00
-4.235364045687218804e-01
-1.220257779969941697e-01
7.002548748132696455e-01
7.884690182637672795e-02
-1.164449120979355712e+00
-1.098749319230394983e+00
3.484287522628088524e-02
3.252313400454914794e-01
-2.044295702049457653e+00
-8.770056092809074277e-01
-8.137623614492218715e-01
1.299567873864332368e+00
1.234853451818128445e+00
-9.898224678107270247e-01
-1.541190776223055892e+00
6.529128138102785472e-01
-8.873529574308868240e-01
1.394012356224079596e+00
-1.398892626427136410e+00
1.400598186582335369e+00
1.237338020324889820e+00
-4.244313164276409256e-01
-1.605316593212140264e+00
-7.894256945943568526e-01
-6.071579948946296268e-01
1.067101168225617513e+00
4.227967257846808047e-01
4.999411726284780921e-01
-2.308472459186117209e+00
-9.668510659214559627e-03
-1.564165411799386174e+00
-1.166356829337628298e+00
-8.611965171441145206e-03
6.874768689449511916e-02
-5.645524786292349662e-01
-1.283134033473385616e+00
-4.737592174328058015e-01
-7.330052813934379019e-01
9.841831146057702373e-01
-4.492351249149826864e-01
1.218094047524750589e+00
-1.590305276376454913e+00
-3.489588382396376781e-02
2.077944830693547462e-01
1.218000744123443502e+00
-1.276619469119404826e+00
-1.598245778242569859e+00
2.076891346608300826e-01
4.746188084382955696e-01
-1.198172218087691782e-01
5.851277647787684888e-01
2.052218458498846321e+00
4.037426103262212740e-01
-3.929569045071725775e-01
-9.659425446456963993e-01
9.137134761031163732e-01
4.758202777619996438e-01
1.112834874586260625e+00
-8.003264522030960615e-01
-5.326322673397744512e-02
-4.805552676714400784e-01
-6.080502397172354856e-01
7.942604384170340870e-01
1.797433573973841181e+00
-9.061694966330108292e-02
-2.655244460363171410e-01
-2.472005933753288698e+00
8.330548429618955808e-01
-8.321357134371303310e-01
2.329254651545985544e-01
-1.115932403744063078e-01
-5.121149050304966144e-01
-5.331689812331247280e-01
-2.503998104279267500e-01
1.650051542240648095e+00
1.507044416986877744e+00
-4.396049029315834966e-01
5.921217342346033474e-01
-9.792798102064493859e-01
2.231991923567223923e-01
1.350474774576659653e+00
1.219433115994319694e+00
8.833907921765969673e-02
6.400408133787511833e-01
8.551563818451429766e-02
-5.090523709157906973e-01
-1.686643253550652366e+00
-3.480695885372044329e-01
4.466389701286329061e-01
1.657979536235329732e-01
2.335474522646613024e-02
-3.659268755437459775e-01
-1.549163627944219468e-01
-1.743324554906183099e+00
-3.792137279581470621e-01
5.786047544564884015e-01
9.072830574334628251e-01
6.536769140695162239e-01
8.324222005161037163e-01
-1.469614533473671658e+00
-8.536176257776156850e-01
1.197174157845382059e+00
-3.201411841300395578e-01
-6.461789407146984431e-03
8.928386504323908568e-01
-1.249503467806942769e+00
3.391788141304891840e-02
-7.012478156032669885e-01
4.000927923615262283e-01
8.396912801452651731e-01
-8.795641055360110538e-01
1.965807888831339723e+00
-1.410774330882091920e+00
-6.989577965685650485e-01
3.529129822438952235e-01
1.270718146470664944e+00
1.236706352040051415e+00
-9.406556454580555435e-03
3.466881428637089146e-01
-4.460640955592236057e-01
-2.855068710606254237e-02
4.839586534230734816e-01
1.018010548186245812e+00
-3.901696028526193682e-01
-8.262021519541601355e-01
1.168604469156064862e+00
-1.772244509804923041e-01
1.445061805682989753e-01
1.163313045265056689e-01
3.889230196408968981e-03
1.269905235875112282e-01
3.148504903826097601e-01
-4.371817252475445059e-01
1.284552139199743426e+00
-1.530798493515463654e-01
-3.038455253879462914e-01
9.737126091677081874e-01
5.706945286683658969e-01
6.707368851192867520e-01
-6.321381428368946231e-01
-1.439693570848526560e+00
1.023447635277743295e+00
4.608972031867608621e-01
-1.415712119842220895e+00
-9.579993093401243526e-03
3.899436725564113804e-01
-4.456586618515103182e-01
5.862543934086621444e-01
4.887140736708106004e-01
-5.605504194883874636e-01
5.573489370189496084e-01
-1.030491003392022126e-01
-7.603030945452685652e-01
-2.685459027793011821e-01
-8.939244452526541318e-01
-9.969411844158641012e-01
9.568564838673819517e-02
8.220352662679208944e-01
-3.050293850732949119e-01
9.411794602939766996e-01
-9.688756422881517061e-02
-4.948342203836147285e-02
1.431367483378181704e-01
-2.690434609979521774e-01
-1.611452287970184694e+00
1.384843168874907882e+00
4.193410016294195630e-01
7.726009066321374297e-01
-1.050283428651421630e-01
-5.653267780945724352e-01
4.634802215968967798e-01
-6.446091422421951211e-01
-1.850901785651898779e+00
2.087673479303953084e-01
-1.336207405751234756e+00
1.632318941042887106e+00
-7.618708890663642430e-01
-4.752453220046513604e-01
-7.654735672796164625e-01
-4.482479694681645865e-01
1.956451321502707730e+00
-5.740531730212419803e-02
6.978410541566513192e-01
7.491214970167665854e-02
5.742475894890358007e-02
6.624557963019217510e-01
6.576125987607186474e-01
1.356010724804670220e+00
-5.969912682643866431e-01
-4.374579601470176549e-01
-2.486556254785788900e-01
-2.729641364108486568e-01
1.983657434036476541e-01
2.224740876726205574e-01
-1.082037967230853770e+00
1.339811577531036801e-01
-2.753374043835323803e+00
5.998290729723465553e-01
-2.168491901912779074e-01
-2.121290895094354312e+00
-1.356225902551008389e+00
3.667869227366767348e-01
-1.576744918792814421e+00
4.056766975973843392e-01
-7.151688477348632222e-01
-3.191272245747770464e-01
1.604070505279465708e+00
-1.999975060325405729e-01
8.434544238367491786e-01
-1.160362463678702577e-01
1.306497302909479963e+00
4.875985907601314562e-01
-9.522069200272331724e-01
-1.627523209928830816e+00
-9.096916031241953915e-01
1.232294720644648178e+00
1.059430684706959669e+00
-1.830274797742882098e-01
1.068579164585955699e+00
-9.861283360469158543e-01
1.029382045965102854e+00
2.716152375619359724e-02
8.290590603770666700e-01
-5.072014033140653799e-01
1.969320018522973670e-01
-2.395525357991007187e+00
-1.026134330625216640e+00
-3.046747855467533614e-02
2.396281780674214268e+00
-4.492253357434426442e-01
-1.277216785999327531e+00
5.381850363541803572e-01
-1.871372184148700546e+00
2.917975216600963151e-01
-2.959890098854286999e-01
1.455110945098663455e+00
5.306413175148606554e-01
-1.319003224274850339e-01
8.192172303979813330e-01
-1.107194919371085717e+00
3.461078009413146028e-01
-1.057664774713269029e+00
-1.252096531478913199e+00
-1.659253601752876950e+00
-1.063365315065735617e+00
1.170232757931798151e+00
1.262620718514184004e+00
7.447670846906367936e-01
5.930191242296278809e-01
8.994102472524710956e-01
3.101950226642893327e-01
-4.727978742191903949e-01
-7.485549620253629799e-01
-5.234694168460796160e-02
-1.034471753390809656e+00
1.058263927491841283e+00
-2.968567256545988631e+00
-2.481435276803140244e+00
-4.844097610745349280e-01
-2.571697464263640320e+00
-1.822009363852309605e+00
-5.814118927115554530e-02
1.493824842330855107e+00
1.288012231714306399e-01
2.473352396973124423e-01
-7.212803570684042653e-02
2.675408734466768745e-01
1.160349420869830395e+00
6.932609870127047769e-01
7.165118173967075510e-01
8.410096140995525493e-01
-1.442068093894665282e+00
2.760056652626973195e-01
-1.292133469950347280e+00
-9.007501662642850015e-02
-1.046867888050720508e+00
9.323128264466955528e-01
-5.388590739277760999e-01
-8.478587295586069716e-01
-1.981492138186984775e+00
-7.356046774643726360e-01
-4.852529852677652245e-01
7.820103087673012654e-01
-1.632102016815872025e-01
-6.952513967555185026e-01
1.380731161916751271e+00
-1.230707350222798979e+00
6.804957665167457592e-02
5.526549226996313458e-01
-7.519331549322648689e-01
-6.090772152925012506e-01
-1.839288889937525262e+00
-3.856527876777115504e-01
5.575181356329346194e-01
-1.789763061885563777e+00
-1.047689944541244200e+00
-4.670306272408071835e-01
4.823955847586930967e-01
9.899927507197635312e-02
-9.207904408981263389e-01
-4.771298227903982281e-01
-1.888217316992660821e+00
-2.585567887940731779e+00
-8.588797021400570442e-01
-1.713192445348567183e+00
-6.965986383693769657e-01
-3.121029389986378355e+00
-1.321852109810325748e+00
-1.615977186551968980e+00
-8.008689492043542801e-02
-1.328208969530946471e+00
-1.834167537446948604e+00
1.148666409908678798e-01
-1.211235346646147626e+00
-8.901769545820954477e-01
-7.129001562226049415e-01
5.256581352838572974e-01
-4.456933427809282866e-02
1.897246919385964514e-01
9.935285660597636959e-01
-5.849143211218027494e-01
-1.051831448338255148e+00
5.664368764347235130e-01
9.182762861819573352e-01
-3.367049019570620971e-01
-1.749919356135823278e+00
-1.209094566778846858e+00
-2.831020380377779144e+00
-1.134029363558618497e+00
-2.625700644843293130e+00
-2.603131265937536298e+00
-1.513030781871490760e+00
-3.581657422095344767e+00
-1.721415547023232850e+00
-2.120402818413750889e+00
2.848332647080567548e-01
-3.817405605562200765e-01
1.084271006626763567e+00
2.162848560446615775e-01
-3.306218968119687407e-01
6.053772331044315891e-01
-1.858957288403212171e+00
-5.700638811036146114e-01
-9.256901556531023090e-01
-1.123998942841062387e+00
-7.171193755092311051e-01
2.828740751026214695e-01
-7.132829699099908494e-01
7.369615880590161261e-01
-8.242085741199630666e-01
1.297381126348176039e+00
-1.077889031405566550e-01
9.176792519800380799e-01
-1.652389016727368487e+00
-1.349166367464877059e+00
-1.087453525795766263e+00
-1.481107504408325726e+00
-5.382235056134438977e-01
-2.699216945720739336e+00
-1.948332078567999170e-01
4.802732744812974186e-01
2.026734455165222770e-01
-5.082568324207277222e-01
-1.614418168994554481e+00
-1.008006830088953532e+00
-6.271227338949856289e-01
3.648275232833447790e-02
-9.284360149536936557e-01
-2.555956255363883156e-01
-1.133441783959456828e-01
-1.779305392880914605e+00
-7.544866713947453452e-01
1.192809669902494818e+00
5.742637655942716135e-01
9.388951838669031824e-01
5.512493218049517862e-01
8.566712488994374652e-01
-1.309988421190475094e+00
1.569566116664844468e-01
2.896821020566437532e+00
-6.500242390342314547e-01
1.848123240702016501e+00
-2.035544773658188450e-02
9.994876762718518659e-01
-7.765684229302202354e-03
-1.448011565025416170e+00
3.618500493738519563e-01
-1.319882508115932884e+00
-5.734829112844201937e-01
-1.026188191262201066e+00
-1.227306332309425763e+00
6.694334579512739580e-01
9.507196418943839600e-01
-4.245276260141085944e-01
1.845046677594006423e+00
6.590511307268130947e-01
-1.829439277079464299e+00
1.401652184431120940e+00
3.721725251119369915e-01
-1.216625109306944917e-02
8.126093999703016824e-01
1.475737848910083194e+00
5.523957895753526248e-01
-1.599940145481687948e+00
-1.267035957182613526e+00
-2.235093433492602311e-01
-3.365140898592982599e-01
-1.224713830524569502e+00
9.977429104575442631e-01
1.048703831912575657e+00
1.785511896330909787e+00
1.610992843693818344e+00
-1.052461212846170779e+00
-1.360237002266871720e+00
-1.828461335851426339e+00
-2.269836777286684981e+00
-2.267419462937898977e+00
1.280475274545683328e+00
2.037937516608419486e+00
5.228879466306438628e-01
-1.301867186491778572e+00
1.100693310677051534e-01
-2.820103824899213851e-01
2.389224048418143176e-01
6.262626614708310946e-01
-1.194624265195489282e-01
-4.994354247116498668e-01
1.871806396126759475e-01
1.316940783713574037e+00
1.582569996916799449e+00
8.674601922160622980e-01
5.460422498812894654e-01
-1.031004707241460538e+00
-1.355391439779516372e+00
1.594471922884841408e+00
-8.213541162556862174e-01
3.780633874757292623e-01
2.016398657495540814e+00
1.868739770415994039e+00
-1.885076385352740455e-02
1.412309789467699028e+00
2.752249853116737643e+00
-3.227211645856571942e-01
-1.032394536212684955e+00
1.421705902322933701e+00
1.278666823772387273e+00
1.123870059136182098e+00
2.060681799493712774e+00
2.787045909628878437e+00
1.035518780556035967e+00
9.008352838211670932e-02
1.077503248920631401e-01
1.174558266330619077e-01
-1.081803532779522792e+00
1.969547137443158069e-01
2.185945647715767048e+00
-4.444316210721327987e-01
-1.503056594728978457e+00
4.233292293830853703e-01
-1.299729667810493261e+00
-6.835306294975651564e-01
-4.910844832574171592e-01
-9.062672820216211012e-01
-1.602192141548098414e+00
8.167091578141589814e-01
1.016799585761177127e+00
1.769951040250410390e+00
9.781172040429183534e-01
2.815370052978699800e+00
1.281062662694104404e+00
-8.455809748528851921e-01
2.464474061220387924e+00
3.680473747027432352e-01
2.110161499585220035e+00
1.606645928843912108e+00
8.105656849650708651e-01
-6.232526928211052919e-01
-6.509847444658897198e-01
1.727113473354971562e+00
-9.116919013322941634e-01
4.560786215501477781e-01
2.267757333490025839e-01
1.485645799149572788e-01
1.558780292804933021e+00
1.155670826081323987e+00
-3.631794910178244851e-01
3.974972774483991889e-01
-5.571531586145437309e-01
-1.227581100713914131e+00
3.225780214489882836e-01
-8.712412385859855668e-01
4.827626496254929789e-01
5.291602797577421580e-01
-1.469633695848751476e+00
-5.448839219947474444e-01
1.447304854462222234e+00
6.486528249145699920e-01
1.374901837944414895e+00
1.758382091797817237e+00
2.803174101478292268e+00
2.650963425887892466e+00
3.103675362557135831e+00
3.211827141617922265e+00
5.556951337149130810e-01
4.604763015378401936e-01
-1.765260295260501211e-01
7.783402027846463289e-01
5.390724316053384646e-01
-4.310949004945031637e-01
5.275913408884930211e-01
1.809512881109942128e+00
2.623449639422197777e+00
3.016654176872172188e-01
1.355883339037686763e+00
1.890036569772463593e-01
-6.040525920900593482e-01
-7.617527485913828666e-01
5.316644348769714590e-01
-2.343790987117857771e-01
-7.784636716072457219e-01
-8.379802001146662294e-01
6.994391151493816183e-01
-1.288311236644068269e-01
-1.586860285536064452e-01
-1.525951811632988653e+00
-1.383955967260745323e+00
6.178620765591281705e-01
-8.077993959863293272e-01
8.322009708266125960e-02
2.086963588786729495e+00
3.071119367592084259e+00
1.019486996461524964e+00
7.721793352491649332e-01
8.225450643472729251e-01
1.576591414588568885e+00
4.302484582413877989e-01
5.317307642660409339e-01
7.312510229891445723e-01
1.932774677999478330e+00
2.487007050167657773e+00
6.311770270988595888e-01
2.869825208603684064e-01
6.525022541737902637e-01
-2.040587565328798869e-01
-5.156272478444411389e-01
-1.364688145523558216e-01
-3.197917171570335403e-03
6.269664198109144992e-01
-1.938680059228055086e+00
-4.094851647545172391e-01
7.450537907970866680e-01
-1.085165438868126025e-01
1.255773235233255403e-01
-2.865360635610800344e+00
1.711048798668018511e+00
1.137521064403091753e+00
-5.957347338432293637e-02
-6.525446376737259468e-01
-6.132713824901173671e-01
1.642887682617902578e-01
1.164017621501390432e+00
-8.502141061456053306e-01
1.869910548633819891e+00
1.185986797092141165e+00
-4.829841744967384165e-01
1.418376660389864208e+00
-2.610394476839733024e-01
1.717062967495474268e+00
-3.755845603933737897e-01
-7.174135075384860949e-01
-4.286515999672591559e-01
-8.976788905580920797e-02
-5.172237053382903182e-01
1.868078351743015508e-01
1.102169319516822066e+00
6.242594620308659081e-01
2.417971984704535560e-01
-1.114490320836543757e+00
-2.260370752883130996e-01
3.493683482757416973e-03
-1.397968797139885755e+00
-1.708909557320093198e+00
9.311108479903759116e-01
-1.437672743293569033e-01
1.500908886228420058e-01
-6.028370341516520181e-01
1.022025003279317668e+00
1.189552628481027385e+00
9.427206124840447066e-01
9.159803073559386055e-01
-2.240512377934722021e+00
1.069080999032522294e+00
3.408176406208656695e-01
4.959237789792649842e-01
1.256932137987943898e+00
1.014558535236563142e+00
-2.971713233510352437e-01
-2.712762905639762301e-01
1.383142815864497388e+00
-7.390592036365525308e-01
-1.223312921962033561e+00
1.347438510992106320e+00
1.440540314937120758e+00
5.606838322445185652e-01
1.891145622250057556e+00
-1.225760333134241487e+00
1.404146464426557550e+00
6.708123361063144108e-01
-2.402114100826084009e+00
-7.855227112222259445e-01
4.651069972809101505e-01
8.017754946677230210e-01
-1.657059871941071627e+00
-1.155889881895865834e+00
-1.807209289365313110e+00
-1.623196950888194934e+00
-4.768663536797668745e-01
1.145476464741904898e+00
4.683568385861728856e-01
7.724967887693741098e-01
1.539157167792844172e+00
5.683047947028373459e-01
2.208344803067807227e+00
9.227489246854966298e-01
-4.074681085156739990e-01
1.411315998989350062e-01
-1.304142667781788223e+00
-2.217715149810558284e+00
5.849174236997028986e-01
-2.833255089433066587e-01
-3.437790701877874167e-01
1.863117523912535045e+00
2.988064066077891212e-01
2.462605618507519301e-01
-1.159495017554805635e-01
9.062325501672047201e-01
3.400938247986278196e-01
-5.091713550979577452e-01
-1.879420889082639379e+00
-4.427139470795397602e-01
-1.764395198357980865e-01
4.403912255679717780e-01
8.025067540340340422e-01
-4.101635832880463628e-01
-1.551996190663926356e+00
1.603646978350681929e+00
-6.976043328254630804e-01
7.070961264390481782e-01
1.274467107887937434e-01
2.341964071237686795e+00
2.235933052599678117e+00
-2.282142007312643717e+00
5.039742566836591386e-01
-1.261272210143216665e-01
-1.176955947769446009e+00
1.096349817062948900e-01
5.802734477986170036e-01
-1.005721965065035306e+00
5.910531414302863107e-01
-1.733738689304718639e+00
3.840138170604782686e-01
-2.647821771860318085e-01
-1.446196174230051756e+00
-7.206133203409680055e-02
1.384857563447753348e-01
-9.989274654930295760e-01
-1.162130425788345134e+00
-7.530961372896195494e-01
-2.523714490634384244e+00
4.690719751866609943e-01
-4.826958280936483048e-01
-2.436015881442260334e+00
1.914245741088673070e+00
-1.570536929765935064e+00
2.266720031915290534e-01
-2.252727691505984897e-01
1.883915214440052388e+00
1.836973978256319917e-01
-4.073087968677594484e-01
5.490206227421732255e-01
-7.554438423622046317e-01
1.090121178710684591e+00
-9.305556022375223169e-01
1.429971353592573324e+00
2.251306949631250109e+00
7.873358922724752462e-01
2.476568833153325044e-01
-4.739414121135918645e-01
3.707817183814054451e-01
-6.150765253021769352e-01
7.840541854731342131e-01
-2.599031325093216216e-01
3.340862247140432562e-01
-8.526843042531959682e-01
2.876622761520992166e-01
-1.249312678446898861e+00
-2.157649518874379113e-01
-1.439048374084960891e+00
2.454856665457093023e-01
5.078332220972390232e-01
4.282181571057268599e-01
3.473939719627117118e-01
-1.351192663578476560e+00
9.095455420517795098e-01
-1.746525042095142366e+00
-1.214987609582304090e-01
-3.571880686276969752e-01
-2.288445245600812528e-01
8.740404456042918380e-01
-8.917237913033823071e-01
1.348770789002158965e+00
1.119130169853024825e-01
-3.065185141905946153e-01
4.736454131760352293e-02
-9.377120371149573197e-01
-1.025127811460359251e+00
-5.227536128940551974e-01
2.166491250236196597e-01
-1.410730094942022061e+00
-4.327699083517345113e-01
-1.716549835020582115e+00
1.634972272153833117e+00
1.270967887446493361e+00
4.143090031952946783e-01
2.367612769774770851e-02
5.083701676695239202e-01
-1.901725908961121314e-01
5.129961465072253590e-01
-5.764335465211981591e-01
-2.880693162028996612e-02
-1.308769452073772710e+00
-3.531637725126536842e-01
6.556197273466343733e-02
6.511459250551643319e-01
-1.771331501470092551e+00
9.372615994809182505e-01
-6.596254226035099810e-01
2.680888582955616717e-01
2.918935947238454620e-01
4.619952203285940806e-01
5.118873264854802985e-01
-2.731932841662661898e-02
3.331443488141145881e-01
-5.351823031280440457e-01
-5.055762645490415874e-01
-1.183061424616866225e-01
4.364539983996427175e-01
-1.819621549346556399e+00
2.900592806212360167e-02
-9.665826646110332598e-01
-1.686882754251077532e-01
7.919758662781228864e-01
-2.367047487941336570e+00
8.421555382133185663e-01
9.213645298293297037e-01
1.508283008114822632e+00
-1.030653995825229652e+00
2.998858931091481494e-01
-1.572751706241870107e+00
-9.626986782309983059e-01
-1.186398505518778679e+00
1.086149867334787356e+00
-1.103214277726707992e+00
1.044172584524444503e+00
-1.320100846479381973e+00
6.821488504550287102e-01
4.500042060381839182e-01
