-2.228520913588381003e-01
-3.867488928018336658e-01
3.834636667735906723e-01
1.614830418630412712e-01
-3.024118704199190155e-01
8.647314841435833621e-01
-4.032774867497933569e-01
3.983817554013766582e-01
-3.781347938075680370e-01
-1.030804502051990923e+00
-1.581255230415785640e+00
-1.441798963346772711e+00
2.419561439334560138e+00
8.415271093329208529e-01
6.937222575038837213e-01
6.414092456129930064e-02
-1.287574043245759692e-01
-5.899632771072909065e-01
1.513616945543254433e+00
-2.481492438995619165e-01
2.956824776847230551e-01
-1.098251978793467920e+00
-7.970883645964870201e-01
2.452610091912664769e-01
-3.713036924311714781e-02
1.187246051289090332e+00
-7.107132706150256496e-01
-1.358730399602428307e-01
6.726395668556113261e-01
-2.371905404682590479e+00
-1.301694977146389487e+00
-7.643092786885558043e-01
1.141440579762348806e+00
-8.129373163878492736e-01
7.650250234880180342e-03
9.318580043803222912e-01
9.584040710071068947e-01
1.186396812748291563e+00
1.613590192948819446e+00
3.531426345267930644e-01
-1.599542700526532357e+00
-6.307196616683315993e-01
1.125984381711024218e+00
-9.326955504781480055e-01
1.383922168267204045e+00
-1.681580140750970065e-01
-1.921117345483263350e-01
-6.521337102333328861e-01
-2.701509331030797156e+00
-2.749269273439882699e-01
-8.867895187542111923e-01
-1.034992729307038672e+00
-1.026841861827859859e+00
-3.993708706906417549e-01
5.914013613730653707e-02
-1.400698691111101013e+00
7.510890051434137016e-01
2.453328051867711690e-01
-8.888960148905665770e-01
1.058184812304445499e+00
2.115026922011384869e+00
-1.341051020984295739e-01
-3.866550007116827947e-01
5.671104002618442275e-01
1.444173803147995816e+00
-1.328384409403020827e+00
4.517816992004962118e-01
-4.626832941324774406e-01
1.551073678220635133e+00
3.767917514675459545e-01
5.021555826788737242e-01
3.946161780245743267e-01
8.456214318117798168e-02
-3.048588176385417375e-02
2.209073616586200162e-01
7.844865858023079008e-01
-2.901247632288274092e-01
-7.147846995815930471e-02
-3.870728610773739309e-01
1.244160139933193215e-01
-4.048167893650569393e-01
-1.579751184921732277e+00
2.082480620566612428e-01
5.194580936398033311e-01
1.337691418226957696e+00
-7.491915211331672264e-01
-4.417643063120331171e-01
1.445888096966122971e+00
7.094753350808165326e-02
1.347886938006869650e+00
-4.904802142754512151e-02
-1.695117467275543577e+00
5.371449932788465720e-01
7.516423866306491952e-01
-8.478387963068734212e-02
7.323599480706958209e-01
2.729843665373987704e+00
1.916341093002013052e+00
2.118601782570797010e+00
-8.294396748986485046e-02
5.278194457617408908e-01
5.653398664810956875e-01
7.988075217789758486e-02
1.112951841768308192e+00
-4.902619362766894029e-01
1.048600190182226388e+00
-4.497231676490907049e-01
7.486510056834979610e-01
-5.045439037300998297e-01
7.824922826015797694e-01
-6.333780648146837278e-01
-4.820123335149023580e-01
-5.416399995350636987e-01
5.227789263055323404e-02
-1.760186967911902656e+00
8.499629632363425724e-01
2.405978241629311287e-01
5.402399461165153793e-01
2.684961851918882259e-01
1.120499271757921411e+00
-1.472822005996297368e-01
6.416352859746837778e-01
1.854033589134168158e+00
7.149107074984190069e-01
7.659627775147166695e-02
1.173033273112497499e+00
1.122715182712486381e+00
1.247871135895262551e+00
1.520977755996676839e+00
-1.005641621802150915e-01
1.810259260727271613e+00
2.861734110434321354e-01
-5.255722548824436346e-01
-2.171249682846571882e-01
2.607874709922819445e-01
7.024090509054027320e-01
3.154401077966384470e-01
-7.314629349534193525e-02
-1.314787535729161405e+00
1.179660435636874727e+00
-8.043372046151592292e-01
1.367481110781119780e+00
-2.849717435256162723e-01
2.383286239090111724e+00
5.413320686422352229e-02
9.305980405358218466e-01
-1.210972566847577037e+00
2.174818505509474420e+00
8.729162280817851505e-01
-7.996310010406811886e-01
5.043811730836837010e-02
1.463269762107978655e+00
7.538286731657461992e-01
1.072220345036879019e+00
1.201037242110832848e+00
1.910350484975504859e-01
1.977597731334479469e+00
1.998505288236253508e+00
1.555327626405476060e+00
2.079925841016053045e+00
5.173553726077867454e-01
1.797693587380489733e-01
9.409909360788645816e-02
-5.490815748593884660e-01
-8.336557460346357695e-01
-9.175606869569027380e-01
-3.479726326025384675e-01
-5.666744789922287806e-01
1.115835856408763149e+00
2.406767290462202835e-02
-8.047460827449819387e-01
-1.942247698133936940e+00
-2.819218127524051321e-01
-9.308640791216832300e-01
-8.895711485481551384e-02
4.048566093809431443e-01
1.709276280599179021e+00
-2.951921958841667859e-01
5.719061091108990080e-01
1.124720806306867438e+00
-1.287185505013090960e-02
1.450174874097033051e+00
1.685106600037306723e+00
2.442481962577980781e+00
1.240348657115923903e+00
7.725760828569140370e-01
1.760413737432557468e+00
-9.723841645831449165e-01
9.326736288310747414e-01
9.217202617234110384e-02
-1.010351977369780552e-01
-2.032343530243752472e+00
-1.721382099171030244e+00
-9.943080933915676711e-01
1.036733383989682178e+00
-1.827246134399878708e+00
2.573900897915646913e-01
-1.162254604556973270e+00
8.717860730932345259e-01
1.521487354856453145e+00
1.137247425245812259e-02
-1.200512122149575811e+00
-3.614134914038579782e-01
8.159877216555453394e-01
3.095155501418695443e-01
6.542464770080462788e-01
1.084415791127371076e+00
1.022116390739444380e+00
9.124796057208275357e-01
2.836710180480593646e+00
2.129362589695601216e+00
1.603936289561701312e+00
-4.279331837908014746e-01
5.030084792428084484e-01
-2.169205871685089271e+00
-5.208778168748037229e-01
-1.514804688178513326e+00
-1.252770211474571127e+00
1.345030628509276405e-01
-1.299560276705162609e+00
2.316812254340678834e-01
-5.142733531861073404e-01
-1.481314058989703808e+00
-1.783611919510675214e+00
9.480683747064043709e-01
5.656186459405083689e-01
-6.796975463707476406e-01
8.875118112311821683e-01
3.238389726037552152e-02
-6.708136220786518056e-01
2.707516463192187750e-01
1.550208970932179242e-01
-5.174778899469766325e-01
2.081200105294668923e+00
6.995931461720118483e-01
9.800716582009308953e-01
-4.115947864969302650e-01
-1.703745356055346827e+00
-8.949855039378460386e-01
-1.800131218199266581e+00
-6.456805697404625066e-01
-2.230721976353696512e+00
-4.318359944789889604e-01
-2.324265669717319405e+00
-6.582258821401253401e-01
-1.408015078745559201e+00
6.270230041749880190e-02
-8.585548473966354566e-01
-1.224602741605408385e+00
7.094156690606448490e-02
-1.013934558877583658e+00
-1.437864577215505424e+00
-9.865107126649356184e-01
-9.887946684057838942e-01
-1.708708911221543003e+00
1.926427273042848887e+00
-6.326848329101610879e-01
5.505270624338931551e-01
-8.783040946092467438e-01
8.117221626244600641e-01
1.014696565918642435e+00
1.346866746591371955e-01
2.128998279757743806e+00
1.293853918325706509e+00
6.134685434303499552e-01
-1.874473562349626699e+00
-4.120968830821042928e-01
-2.251307927404362363e-01
-1.907669207325277894e+00
-3.334461030548787064e-01
5.235808471121479180e-01
6.960585342017828747e-01
-2.812902577076290545e-01
-2.999160480551420482e-01
-3.717337980867278513e-01
-9.017761261448482557e-01
-8.014660578057830609e-02
-1.872178717363012224e+00
-7.630918251813175734e-01
-2.779855641475155736e-01
-2.379699036882638730e+00
-8.298750864260164839e-01
-1.142535765183982921e+00
-4.206941899116383582e-02
-2.615322114185771873e+00
2.000473233493633707e+00
-1.206989789890770305e-02
5.988729208836267581e-01
9.167053676508631899e-01
1.306058095907682404e+00
1.228383989945832422e+00
-4.507575619937050360e-01
-1.295052595947661755e+00
-1.135532928164852517e+00
3.370619366038892228e-01
-9.771560445556426444e-01
-8.573204292986719155e-01
7.878032070238302209e-01
-1.519123867168520325e+00
1.933095398694441303e-01
1.110310516138332204e+00
-1.010180265246889864e+00
-1.490252620577361853e+00
-4.911413715321309437e-01
-1.070528698030371206e+00
-6.973309891617091028e-01
7.404196236475775184e-01
1.434952776821546427e+00
3.534047412743224759e-01
-9.272366032813997849e-01
1.312976649706118826e+00
-4.801212797255292597e-01
1.401665815946858684e+00
-1.840307344917382570e+00
1.712052982347220143e+00
-7.975650490822889793e-01
2.026594990361660908e+00
-2.155470271389121173e+00
-1.695329417141599126e+00
-1.897798164383378838e-01
9.202287228080924253e-01
7.511689119921109992e-01
-3.828327744921938142e-02
1.912890875701868942e-01
1.298962076152390677e-01
-1.301659294964677416e-01
3.075318142251520226e-01
-4.195600497968626774e-01
2.550973195404856675e+00
-1.072546051157082347e+00
-7.117762024906749696e-01
1.376644730030142760e+00
-7.451505603037886782e-01
-1.516332518164285492e+00
-5.793455402989187153e-01
3.249678558682393970e-01
1.819370371507266881e+00
-8.950176106797532727e-01
-8.364797505684150591e-01
9.944517816607859606e-01
5.073698503943803173e-01
6.176716459590400055e-01
2.303710890561997404e-01
-2.385918973996093762e+00
-2.250928082797733598e+00
-6.342058169836813919e-01
-1.225435710274500600e+00
1.918173643089663150e-01
5.345384260372101348e-01
2.249317514683610408e+00
-4.066551407125045814e-01
-7.727431814208626237e-01
7.726239361989127863e-01
5.871894437132293421e-01
7.342539838509014594e-01
2.420873930793623618e-01
7.994432970654556936e-01
1.592041582772160346e+00
2.172102551905560563e+00
1.759360109371278735e+00
1.906812986323936032e+00
-2.857424846722577544e-02
-3.411866380205693106e-01
-1.775327146321077909e-01
1.814620583644931839e+00
4.166720416318006048e-01
-1.810738224256931428e+00
-1.134515823372750365e+00
1.493752484732640662e+00
2.259026830679783659e-01
-1.476956745255561532e-01
-3.811344418905215359e-01
2.995137246185946081e-02
1.453973557205642919e+00
-3.102257568754381301e-01
-7.477445976931167415e-01
3.362905388572712262e-01
2.414292281901316561e-01
-5.941093096815847074e-01
1.538254848249251128e-01
1.004583993113655094e+00
6.358205480699466450e-02
1.443881055403159197e-01
-1.051668482690376161e+00
-3.038333341664537501e-01
5.943803329836158111e-01
1.120007032829834825e+00
2.072862787900968229e+00
1.041344757041194891e+00
-7.199636442434121930e-01
9.597489759643093032e-01
3.245254599473840762e-01
-3.626898071590695660e-01
-1.188419035397191292e+00
4.963656689099330555e-01
-5.623834281320845285e-01
-3.129763882542965225e-01
-7.238033781875753414e-01
1.700803824622493521e-01
-1.694438257035364659e+00
-6.649149914034764575e-02
-6.070169807507278525e-01
-6.739110935545348235e-01
-6.634703039337226382e-01
4.546890282501144243e-01
1.084056597015123913e+00
-1.555644524326090128e+00
-1.871603632188858279e+00
-1.578783987196487049e+00
-1.592461145174233872e+00
-2.793951374143140987e-01
-1.263954556686505581e+00
1.315457529126967451e+00
1.111550823728023607e+00
-5.888603935659122435e-01
4.381155116267788641e-01
1.815409922499253981e-01
1.448434631910112402e-01
-1.076750207393582626e+00
8.073971056183195660e-01
-3.666115210201279506e-01
5.111236778588330587e-01
-2.448746510112229102e-02
-2.451826421435533199e+00
3.804857939039169024e-01
9.066552670286097404e-02
8.797010531706161984e-01
1.622276096638015641e+00
6.616173125685701484e-01
6.082544989057261375e-01
-1.213363527577087320e+00
1.053719010786494659e+00
-5.289643304577675842e-01
-9.098371594071430479e-01
-1.245928875644295442e-01
-1.109877636138393520e+00
2.465832871447028729e-01
-7.776961656292799008e-01
-1.237420393346209124e+00
4.151493829135776692e-01
-5.374528724558054193e-01
8.209067096134567976e-01
2.150796197607084626e+00
3.352252407689437774e-01
1.992647651104323403e+00
1.395115419437697568e+00
9.114066374095965983e-01
-7.988445585126653647e-02
-2.290981020286735059e-02
-6.247598343146070210e-01
-1.051106764099906998e+00
9.582950975022080931e-01
2.494310529254108177e-01
3.633953290015767279e-01
3.051480709435065442e-01
-1.778088098359016156e+00
4.687062162496831719e-01
-2.394353079033449738e+00
3.400743421306349212e-01
-2.670611301509415170e-01
1.808958080068710089e-02
-7.377655365045565627e-01
-7.668723704681256192e-01
1.297193542845478831e+00
1.376308509834234473e+00
7.775054112163988229e-01
-3.924694376199890367e-01
-4.964194651706897547e-03
3.484999401337612324e-01
8.142523281577963568e-01
1.426821839720818108e+00
1.226352379392262382e+00
2.653389351581517008e+00
1.802633701035109004e+00
-9.934745592083651933e-02
3.282996890900503062e-01
9.323723263273490935e-02
-9.800606378367550109e-01
2.954841721101832963e-01
1.111133037137758350e+00
2.350700347993408990e+00
2.796527714028662626e+00
1.765581237960242245e+00
-1.220641404126489582e-01
-7.600831904366176506e-01
5.849106673079282892e-01
-1.263089754468114778e+00
-1.012799066581100860e+00
-2.586971929776277768e-01
-1.457123253460171020e+00
-3.501230708089595467e-01
-6.177653687681053940e-01
-1.689266545890569349e+00
-1.646399539199284723e+00
7.925810831495230246e-01
-2.166407467572223133e+00
1.666375203865528620e+00
8.667271674434342543e-01
2.379892149377651922e+00
5.367569218139137677e-01
1.417258466493857672e+00
1.449692776644549985e+00
1.792605159479520316e-01
-8.194588520272173549e-01
4.231926577512836740e-01
4.710591654296141240e-01
1.958533579462550522e-01
5.229010441510938412e-01
1.875498912966858667e+00
1.852037093729801409e+00
1.565605905186044255e+00
2.959402347008623479e+00
-4.808181485582256331e-01
-9.049297104705229522e-01
6.332659309224657473e-01
-5.363646026817688872e-01
-7.125477554069398201e-01
-1.768926835522958818e+00
-2.723489981147127481e-01
-1.965112073905339596e+00
8.918985355160266026e-01
-3.450135017021118689e-01
5.348965877906705080e-01
-8.923193425989333072e-01
5.475178378854749228e-01
9.888322852079988179e-01
5.404884148057708115e-01
2.725350325578171251e+00
2.609516580395137009e+00
2.197847739260022415e+00
-1.252896154900102088e+00
-3.926336181517899315e-01
-8.353651417984471195e-01
1.105216627695306819e+00
-1.350159417700426134e-01
9.521217539971090771e-01
2.274747006522900517e+00
1.295931574176299172e-01
7.141411058746159890e-01
1.021455231637475647e+00
1.210023531209660219e-01
-6.142421868388862061e-01
-2.230641966827369704e-01
1.184211160358117798e+00
2.337635795600984667e-01
-1.256312091151423616e+00
-3.443613285363217980e+00
1.101716992445830767e+00
-5.834408247000071740e-02
1.520268945136965089e+00
-3.660548540232946291e-01
-8.600734587241135043e-02
1.000762599410611298e+00
3.075802828544486278e+00
2.511567076618315131e+00
2.045428091664868830e+00
1.652187841803644197e+00
4.594614194558022668e-01
-4.741907444410161099e-01
2.736359206500790231e-01
-1.121427849693124479e+00
-5.161108850930448133e-01
6.049898211643514045e-01
1.958945536914383778e+00
2.134564741752915662e+00
8.193771259517132911e-04
-8.643680474919475110e-01
4.046698659589960112e-01
5.175882615489240113e-01
1.013610583222618322e+00
1.701274200616435417e+00
1.271541121144765585e+00
2.274298010119480407e-01
2.216356850887044594e+00
2.718534410047238614e-01
5.174707845458965672e-01
4.252652389213151113e-02
2.113948233151612843e+00
-8.338835232079372384e-01
1.352673888185949025e+00
9.961595058446811590e-01
-6.586489801197464855e-01
2.529514885945348457e+00
2.327008434760852840e+00
-4.936672781198808146e-01
5.432071530964582839e-01
3.487569995471896389e-01
7.432278575866512194e-01
-6.041008379536914052e-01
1.154045996336936913e-01
2.767418315495878467e+00
-1.818494478493710986e-01
1.471587496780508264e+00
3.518484188524685141e+00
1.441402318448458564e+00
1.456871253716658821e+00
1.728557244757358280e+00
1.472354927426464455e+00
1.276820165971120247e+00
7.830168055164407059e-01
5.831160562748524123e-01
-8.350537968828669610e-01
-1.424142136281923987e+00
1.525234252066982599e-01
-4.682622731364435298e-01
-6.534269364789226930e-01
1.186035295473634621e+00
-1.914707398551695750e-01
1.190804706365358623e+00
-7.503106611568006734e-01
-3.118192550517113748e-01
3.415438965765314805e+00
5.924059715499475631e-01
9.673914288530317540e-01
9.280160844625278127e-01
-1.143525855554811260e-01
-5.396600667343871560e-01
-3.686847664083523490e+00
-9.875016782524542736e-01
-6.360933622557403133e-01
-7.551112262856877200e-01
1.076660005114748353e+00
1.250513036711901949e+00
-1.515415253676069829e-01
9.906325972124778723e-01
5.482688185350145238e-01
-2.885780904275248915e+00
-5.442918502414667570e-02
-4.792940430244598260e-01
1.637091641126567465e+00
-3.947200557441596369e-01
2.528694970627524685e-01
-3.273122259793615485e-01
-1.423884228904195970e+00
-1.993570227290142327e+00
-4.575572220414953484e-01
4.192377735521891635e-01
-1.120559509976152140e-01
3.398958006221026173e-01
1.022529001648452951e+00
3.066236355326275032e-01
5.474636958667369324e-01
-3.397323066304879791e-01
-9.673462738144329720e-02
-2.743902421966946559e+00
7.919412139190105115e-01
9.845160484584140059e-01
8.369126921666125707e-01
1.152567274541669295e+00
2.185061392567030580e+00
-5.316217022162266215e-01
-2.904772144951737745e-01
-2.755126202826575499e-01
-8.772659227883092825e-01
9.201867656189964828e-01
-5.270496670956997809e-01
-1.210022537707085677e+00
9.438551178452697643e-01
2.911539961556131040e-01
6.118625114512135088e-01
-7.738277412145092016e-02
-9.909023114183741487e-01
4.118460961562985800e-01
1.457770438880240382e-01
7.188929891892130719e-01
2.249330447906498220e-01
1.171662937660358894e+00
6.374745511776269691e-02
1.131152429649072921e+00
1.573773534804786545e-01
8.636333977733104961e-01
-1.030455669925753437e+00
-4.708255621787449940e-01
3.162321018647672455e-01
-9.195167305228836296e-01
5.355769582919597260e-01
-7.738236332064193368e-01
4.186907876655300842e-01
4.224590588667305191e-01
-2.446165758626114850e-01
7.282831799555880004e-01
6.408620709608245924e-01
7.064216358054420386e-01
8.431806034608664568e-02
2.687210862801814315e+00
-7.710583351500824301e-02
1.266336238610497045e+00
1.273550620592048543e-01
2.378557769152924994e-01
1.576181985218037873e+00
-6.820904007151047388e-01
7.791569277363004087e-01
1.809255377351847716e-01
-1.661052926726360290e+00
5.646091238992419908e-02
1.496517699329359630e+00
-9.730777003203593400e-01
7.835254868848821053e-01
-3.486883579095224617e-01
-9.260370635022225905e-01
1.063034024777854136e-01
2.634832233554986192e-01
3.225094889918315166e-01
8.422002453753880680e-01
8.413783212913222842e-02
6.234227710240355380e-01
3.030525995435167652e-01
1.009163545212947266e+00
6.164468186246034875e-01
-4.598564229267899650e-01
1.536485857512080999e+00
-1.511491224882701934e+00
-5.941695841658242161e-01
7.993453636632856796e-01
9.855688134260726097e-01
-1.738450762738050548e+00
2.996155131092429480e-01
-5.440687901748518795e-01
4.027148970026484531e-01
1.566892663014514797e+00
5.294063335993662855e-01
-8.213396992337843039e-02
2.260840217746829417e+00
1.112365594720758771e-01
2.714200307280227320e-01
-3.885402213843724972e-01
4.465383599870262898e-01
-1.273600961174575996e+00
-4.334603609200019525e-01
9.574582468600942864e-01
6.660849105628079414e-01
-5.232365015199650360e-01
1.755221032894680677e+00
-4.277797596991377849e-01
5.742209357700286398e-01
4.126688590454812289e-01
-9.636956688019696626e-01
1.072127079976571640e+00
-3.266677219782406771e-01
7.537961165970775701e-01
-5.479028612001282106e-01
8.127763116208924776e-01
1.931695886383399285e+00
-3.594610809414441333e-01
1.496225847718298363e+00
-4.577770502589711965e-01
-6.296718116443993096e-02
-4.875648404479809295e-01
2.374241293852910051e+00
-4.142778406902313248e-01
1.303888586757106838e+00
-5.827428424611210689e-01
2.311013232086357727e-01
-1.606592967850379194e+00
1.487823623202048973e+00
-1.334230867470055815e+00
5.617536508827265518e-01
-1.959665252502105881e+00
4.601309876112777975e-01
4.859866090729931254e-01
-2.396880971485381429e-01
-1.434062240333041860e+00
-1.927430722262979401e+00
3.330245303994585487e-02
7.983150564516550141e-01
1.174132148185386804e+00
-3.911791245964217623e-02
1.139439479062094529e+00
1.719011176927624840e+00
1.673004472617515836e-01
-1.013465205188437634e+00
-3.422978644220761035e-01
-1.909287988530411484e-01
4.862971774747287812e-01
1.736180632206304475e+00
-9.635667743369585869e-01
-4.249345210615491641e-01
3.591662092530910066e-01
1.645731684714792642e-01
1.750356189456667044e+00
-7.973565411245567836e-01
1.130379303544246872e+00
7.631539834314693405e-01
6.183354150173081543e-01
