-1.357421875000000000e-01
-5.078125000000000000e-02
3.010253906250000000e-01
1.154785156250000000e-01
-3.085937500000000000e-01
8.937988281250000000e-01
-1.453857421875000000e+00
1.496582031250000000e-01
8.708496093750000000e-01
9.313964843750000000e-01
8.942871093750000000e-01
5.261230468750000000e-01
4.367675781250000000e-01
1.412109375000000000e+00
1.889160156250000000e+00
-1.228759765625000000e+00
-2.658691406250000000e-01
-7.158203125000000000e-01
5.839843750000000000e-01
1.477050781250000000e-01
2.783203125000000000e+00
1.344238281250000000e+00
-5.473632812500000000e-01
-1.353027343750000000e+00
6.843261718750000000e-01
-9.497070312500000000e-02
9.160156250000000000e-01
3.205566406250000000e-01
9.458007812500000000e-01
-6.545410156250000000e-01
-6.967773437500000000e-01
-1.104980468750000000e+00
1.461914062500000000e+00
2.622070312500000000e-01
6.105957031250000000e-01
4.931640625000000000e-01
-3.703613281250000000e-01
-1.424072265625000000e+00
-1.056152343750000000e+00
1.033447265625000000e+00
-8.168945312500000000e-01
-7.080078125000000000e-02
4.147949218750000000e-01
1.849121093750000000e+00
3.825683593750000000e-01
-1.499267578125000000e+00
2.839355468750000000e-01
1.247558593750000000e-01
8.859863281250000000e-01
-6.054687500000000000e-02
1.704101562500000000e-01
-2.963867187500000000e-01
4.257812500000000000e-01
-2.426757812500000000e-01
1.374755859375000000e+00
-1.984863281250000000e+00
-1.521240234375000000e+00
4.904785156250000000e-01
-4.223632812500000000e-01
9.992675781250000000e-01
4.008789062500000000e-01
-9.587402343750000000e-01
4.238281250000000000e-01
5.061035156250000000e-01
6.914062500000000000e-01
1.199218750000000000e+00
3.432617187500000000e-01
3.581542968750000000e-01
1.828613281250000000e-01
7.893066406250000000e-01
1.268066406250000000e+00
-4.223632812500000000e-01
-9.978027343750000000e-01
2.050048828125000000e+00
-2.409667968750000000e-01
-9.494628906250000000e-01
-2.185058593750000000e-01
1.442382812500000000e+00
6.540527343750000000e-01
-1.126220703125000000e+00
-9.201660156250000000e-01
4.819335937500000000e-01
1.746093750000000000e+00
-4.982910156250000000e-01
-3.220214843750000000e-01
-1.400634765625000000e+00
-1.514648437500000000e+00
-1.774902343750000000e-01
2.129882812500000000e+00
1.435546875000000000e-01
-1.684570312500000000e-01
3.491210937500000000e-01
4.931640625000000000e-01
7.587890625000000000e-01
-3.771972656250000000e-01
1.174072265625000000e+00
1.215332031250000000e+00
-2.307128906250000000e-01
1.628662109375000000e+00
2.026367187500000000e-02
-9.106445312500000000e-02
-1.269531250000000000e-02
7.209472656250000000e-01
8.537597656250000000e-01
4.414062500000000000e-01
5.830078125000000000e-01
-3.522949218750000000e-01
-7.565917968750000000e-01
-1.371826171875000000e+00
1.034912109375000000e+00
7.871093750000000000e-01
-4.675292968750000000e-01
4.008789062500000000e-01
3.706054687500000000e-01
-5.241699218750000000e-01
-2.893066406250000000e-01
1.420898437500000000e-01
-6.821289062500000000e-01
9.033203125000000000e-01
-2.783203125000000000e-02
-8.330078125000000000e-01
-1.003662109375000000e+00
-4.199218750000000000e-02
-1.383056640625000000e+00
-1.567382812500000000e+00
1.032714843750000000e-01
1.252441406250000000e-01
-1.439697265625000000e+00
-4.492187500000000000e-02
4.003906250000000000e-01
-5.539550781250000000e-01
2.468017578125000000e+00
-1.736328125000000000e+00
1.883544921875000000e+00
7.629394531250000000e-01
-1.144775390625000000e+00
-1.031250000000000000e+00
-6.140136718750000000e-01
-7.407226562500000000e-01
-1.420898437500000000e-01
7.629394531250000000e-01
-7.185058593750000000e-01
-1.364746093750000000e-01
-9.299316406250000000e-01
-2.049316406250000000e+00
-9.204101562500000000e-02
7.331542968750000000e-01
-1.138916015625000000e+00
-4.511718750000000000e-01
-3.725585937500000000e-01
-8.950195312500000000e-01
-1.007568359375000000e+00
7.490234375000000000e-01
-1.374755859375000000e+00
-9.072265625000000000e-01
-5.295410156250000000e-01
-2.648681640625000000e+00
-2.514648437500000000e-01
-5.339355468750000000e-01
8.571777343750000000e-01
-2.868652343750000000e-01
7.158203125000000000e-01
-1.371826171875000000e+00
-1.244140625000000000e+00
-9.865722656250000000e-01
5.541992187500000000e-01
-7.695312500000000000e-01
-1.118164062500000000e-01
-1.025390625000000000e+00
1.081054687500000000e+00
5.307617187500000000e-01
-1.334472656250000000e+00
-7.202148437500000000e-02
-1.414062500000000000e+00
-3.764648437500000000e-01
-9.206542968750000000e-01
-7.268066406250000000e-01
-3.261718750000000000e-01
-7.114257812500000000e-01
-1.752197265625000000e+00
-7.873535156250000000e-01
-1.677734375000000000e+00
7.353515625000000000e-01
-4.497070312500000000e-01
-9.765625000000000000e-04
-1.054687500000000000e-01
-1.347656250000000000e-01
-1.290527343750000000e+00
-2.279541015625000000e+00
2.939453125000000000e-01
-1.160888671875000000e+00
-3.771972656250000000e-01
-6.154785156250000000e-01
6.679687500000000000e-01
1.293945312500000000e-02
-1.933593750000000000e-01
1.812011718750000000e+00
4.438476562500000000e-01
-4.101562500000000000e-02
8.859863281250000000e-01
-3.491210937500000000e-01
-9.726562500000000000e-01
-5.131835937500000000e-01
-8.376464843750000000e-01
-1.364257812500000000e+00
-7.385253906250000000e-01
-1.277832031250000000e+00
4.777832031250000000e-01
-2.973632812500000000e-01
-4.990234375000000000e-01
-9.172363281250000000e-01
3.420410156250000000e-01
2.587890625000000000e-01
-6.796875000000000000e-01
-1.554199218750000000e+00
-1.358886718750000000e+00
-6.311035156250000000e-01
-2.868652343750000000e-01
-5.712890625000000000e-01
-1.515136718750000000e+00
-2.215332031250000000e+00
5.871582031250000000e-01
-1.199218750000000000e+00
-2.270507812500000000e-01
-3.579101562500000000e-01
6.530761718750000000e-01
-1.080566406250000000e+00
1.018554687500000000e+00
-1.367675781250000000e+00
-2.343750000000000000e-01
-2.340087890625000000e+00
-7.805175781250000000e-01
-1.810791015625000000e+00
6.762695312500000000e-01
-1.132080078125000000e+00
-1.944580078125000000e+00
-1.447509765625000000e+00
-7.243652343750000000e-01
2.003417968750000000e+00
-5.253906250000000000e-01
-7.792968750000000000e-01
-1.554443359375000000e+00
-1.698242187500000000e+00
-3.087646484375000000e+00
-1.164550781250000000e+00
-6.745605468750000000e-01
-1.374511718750000000e+00
-8.872070312500000000e-01
-1.065185546875000000e+00
6.928710937500000000e-01
-4.348144531250000000e-01
9.504394531250000000e-01
-1.215820312500000000e-01
5.429687500000000000e-01
4.470214843750000000e-01
1.723632812500000000e-01
-1.943359375000000000e-01
8.774414062500000000e-01
6.237792968750000000e-01
1.208496093750000000e+00
-1.242675781250000000e+00
-7.731933593750000000e-01
-1.605468750000000000e+00
-1.185058593750000000e+00
-3.146972656250000000e-01
-9.570312500000000000e-02
5.615234375000000000e-03
2.023925781250000000e-01
7.348632812500000000e-02
-2.795898437500000000e+00
-1.125976562500000000e+00
-2.234130859375000000e+00
6.108398437500000000e-01
-3.927490234375000000e+00
-1.797363281250000000e+00
-2.059082031250000000e+00
-1.820068359375000000e+00
-2.778320312500000000e-01
6.865234375000000000e-01
-1.323242187500000000e-01
-7.343750000000000000e-01
1.691162109375000000e+00
8.757324218750000000e-01
2.868652343750000000e-01
-7.314453125000000000e-01
-1.016845703125000000e+00
-4.973144531250000000e-01
-1.101074218750000000e+00
1.885742187500000000e+00
3.715820312500000000e-01
3.920898437500000000e-01
4.663085937500000000e-02
-8.283691406250000000e-01
2.221679687500000000e+00
5.512695312500000000e-01
-1.867675781250000000e-01
-4.816894531250000000e-01
-1.628662109375000000e+00
-1.331298828125000000e+00
-9.519042968750000000e-01
-4.714355468750000000e-01
-1.336181640625000000e+00
-2.602539062500000000e-01
-1.156738281250000000e+00
-1.176025390625000000e+00
-9.055175781250000000e-01
-4.624023437500000000e-01
-9.274902343750000000e-01
6.982421875000000000e-01
-5.288085937500000000e-01
-7.714843750000000000e-02
1.394042968750000000e-01
9.145507812500000000e-01
8.229980468750000000e-01
-3.471679687500000000e-01
1.447753906250000000e+00
7.238769531250000000e-01
3.122558593750000000e-01
-1.408691406250000000e-01
6.291503906250000000e-01
5.573730468750000000e-01
-6.081542968750000000e-01
4.931640625000000000e-01
4.353027343750000000e-01
-2.932128906250000000e-01
2.062988281250000000e-01
1.120605468750000000e-01
-1.247802734375000000e+00
-7.854003906250000000e-01
1.397216796875000000e+00
1.286621093750000000e-01
1.233886718750000000e+00
-2.539550781250000000e+00
-7.072753906250000000e-01
-2.995605468750000000e-01
9.284667968750000000e-01
1.131103515625000000e+00
9.377441406250000000e-01
2.397460937500000000e-01
1.094726562500000000e+00
-2.392578125000000000e-02
3.369140625000000000e-01
1.193603515625000000e+00
-1.855468750000000000e-01
-1.141845703125000000e+00
7.126464843750000000e-01
1.390380859375000000e+00
5.603027343750000000e-01
4.465332031250000000e-01
5.300292968750000000e-01
3.955078125000000000e-02
1.468017578125000000e+00
1.120605468750000000e+00
9.287109375000000000e-01
1.188964843750000000e-01
1.269531250000000000e+00
8.173828125000000000e-01
-1.542968750000000000e-01
-4.785156250000000000e-01
-4.331054687500000000e-01
-1.081298828125000000e+00
-5.791015625000000000e-01
1.881347656250000000e+00
-2.172851562500000000e-01
1.311279296875000000e+00
9.375000000000000000e-02
1.514892578125000000e+00
-6.052246093750000000e-01
-1.091064453125000000e+00
5.151367187500000000e-01
8.659667968750000000e-01
1.423339843750000000e+00
7.380371093750000000e-01
9.863281250000000000e-02
8.898925781250000000e-01
-2.802734375000000000e-01
-2.734375000000000000e-01
-3.637695312500000000e-01
-6.437988281250000000e-01
3.349609375000000000e-01
8.366699218750000000e-01
1.416015625000000000e-01
3.793945312500000000e-01
-1.589355468750000000e-01
1.574707031250000000e-01
7.338867187500000000e-01
9.912109375000000000e-02
2.141113281250000000e-01
5.141601562500000000e-01
1.735839843750000000e+00
-2.133789062500000000e-01
-4.418945312500000000e-02
4.875488281250000000e-01
-6.513671875000000000e-01
8.750000000000000000e-01
-6.098632812500000000e-01
7.243652343750000000e-01
-3.386230468750000000e-01
2.309326171875000000e+00
1.208251953125000000e+00
-4.809570312500000000e-02
1.645996093750000000e+00
4.157714843750000000e-01
1.614013671875000000e+00
7.727050781250000000e-01
-1.007080078125000000e+00
7.468261718750000000e-01
8.510742187500000000e-01
5.617675781250000000e-01
-2.214355468750000000e-01
1.281738281250000000e-01
-2.880859375000000000e-01
1.881103515625000000e+00
3.969726562500000000e-01
2.498291015625000000e+00
5.131835937500000000e-01
-6.462402343750000000e-01
2.519531250000000000e-01
6.535644531250000000e-01
1.571777343750000000e+00
2.209472656250000000e-01
8.789062500000000000e-03
4.431152343750000000e-01
-8.554687500000000000e-01
-1.396728515625000000e+00
1.120605468750000000e-01
9.450683593750000000e-01
1.038818359375000000e+00
1.219238281250000000e+00
2.849121093750000000e-01
5.046386718750000000e-01
-9.343261718750000000e-01
6.186523437500000000e-01
-6.191406250000000000e-01
3.793945312500000000e-01
1.081298828125000000e+00
7.145996093750000000e-01
1.870605468750000000e+00
1.362060546875000000e+00
3.876953125000000000e-01
9.873046875000000000e-01
-1.740722656250000000e-01
2.571044921875000000e+00
-8.178710937500000000e-01
-9.101562500000000000e-01
-1.124511718750000000e+00
-1.555908203125000000e+00
-1.724121093750000000e+00
-2.841796875000000000e-01
1.795410156250000000e+00
-4.970703125000000000e-01
-1.879638671875000000e+00
-1.521728515625000000e+00
-8.430175781250000000e-01
1.046630859375000000e+00
2.482910156250000000e+00
-1.296386718750000000e-01
1.499511718750000000e+00
5.981445312500000000e-01
1.782714843750000000e+00
-9.848632812500000000e-01
-2.111816406250000000e-01
1.037109375000000000e+00
5.192871093750000000e-01
5.053710937500000000e-01
-7.756347656250000000e-01
-5.646972656250000000e-01
2.355957031250000000e-01
-1.978515625000000000e+00
3.999023437500000000e-01
3.146972656250000000e-01
2.563476562500000000e-02
5.014648437500000000e-01
-2.348632812500000000e-01
3.745117187500000000e-01
-8.422851562500000000e-02
-6.374511718750000000e-01
-9.233398437500000000e-01
5.698242187500000000e-01
2.475585937500000000e-01
-1.117919921875000000e+00
2.470703125000000000e-01
4.638671875000000000e-02
-4.067382812500000000e-01
4.711914062500000000e-02
1.133300781250000000e+00
1.607910156250000000e+00
7.666015625000000000e-01
1.450195312500000000e-01
3.769531250000000000e-01
1.636718750000000000e+00
7.395019531250000000e-01
-7.155761718750000000e-01
9.152832031250000000e-01
5.664062500000000000e-02
3.369140625000000000e-01
1.330566406250000000e-01
-7.226562500000000000e-02
-6.591796875000000000e-03
1.201171875000000000e-01
-1.744873046875000000e+00
-1.133544921875000000e+00
4.472656250000000000e-01
9.328613281250000000e-01
-9.423828125000000000e-02
-9.174804687500000000e-01
7.429199218750000000e-01
-1.829101562500000000e+00
-1.169189453125000000e+00
-1.137207031250000000e+00
-5.717773437500000000e-01
6.098632812500000000e-01
-1.266113281250000000e+00
3.422851562500000000e-01
-9.738769531250000000e-01
-2.897949218750000000e-01
-1.640625000000000000e-01
-1.318847656250000000e+00
3.303222656250000000e-01
1.307617187500000000e+00
-8.239746093750000000e-01
-4.514160156250000000e-01
-1.158935546875000000e+00
2.358398437500000000e-01
-1.061035156250000000e+00
5.688476562500000000e-01
-1.605957031250000000e+00
-1.054443359375000000e+00
-2.442871093750000000e+00
-5.605468750000000000e-01
-1.926269531250000000e-01
-7.753906250000000000e-01
1.375000000000000000e+00
8.835449218750000000e-01
-1.190673828125000000e+00
8.896484375000000000e-01
8.662109375000000000e-01
-1.295654296875000000e+00
-8.857421875000000000e-01
-1.745117187500000000e+00
-1.258056640625000000e+00
-6.826171875000000000e-01
-4.948730468750000000e-01
-1.716064453125000000e+00
7.348632812500000000e-02
-9.880371093750000000e-01
1.328125000000000000e+00
-3.603515625000000000e-01
-8.222656250000000000e-01
9.753417968750000000e-01
6.611328125000000000e-01
-6.582031250000000000e-01
-5.288085937500000000e-01
-3.266601562500000000e-01
-8.190917968750000000e-01
-4.687500000000000000e-02
5.700683593750000000e-01
9.025878906250000000e-01
1.108398437500000000e-01
-2.797851562500000000e-01
-1.588867187500000000e+00
1.733398437500000000e-01
7.739257812500000000e-02
-1.924804687500000000e+00
-2.067871093750000000e-01
-9.711914062500000000e-01
-5.488281250000000000e-01
-2.468750000000000000e+00
-1.431396484375000000e+00
-1.558837890625000000e+00
5.500488281250000000e-01
-1.012695312500000000e+00
1.217529296875000000e+00
-1.069335937500000000e-01
1.651123046875000000e+00
1.749511718750000000e+00
9.790039062500000000e-01
3.735351562500000000e-01
4.033203125000000000e-01
9.516601562500000000e-01
-1.910400390625000000e+00
-2.968750000000000000e-01
-2.126953125000000000e+00
6.845703125000000000e-01
-1.009521484375000000e+00
5.588378906250000000e-01
1.417480468750000000e+00
-6.149902343750000000e-01
3.247070312500000000e-02
1.205566406250000000e+00
3.896484375000000000e-01
-2.468261718750000000e+00
-1.701904296875000000e+00
-9.619140625000000000e-01
-1.044189453125000000e+00
-1.281982421875000000e+00
-5.314941406250000000e-01
-3.066406250000000000e-01
3.278808593750000000e-01
-1.131347656250000000e+00
1.577148437500000000e-01
-1.882324218750000000e-01
1.836669921875000000e+00
4.621582031250000000e-01
1.131835937500000000e+00
1.130615234375000000e+00
1.025146484375000000e+00
-1.070800781250000000e+00
-4.604492187500000000e-01
-1.289794921875000000e+00
-3.801269531250000000e-01
1.048095703125000000e+00
1.696289062500000000e+00
1.805908203125000000e+00
7.209472656250000000e-01
-1.032714843750000000e+00
-2.226562500000000000e-01
4.245605468750000000e-01
1.086669921875000000e+00
-6.596679687500000000e-01
6.325683593750000000e-01
4.528808593750000000e-01
-2.583007812500000000e-01
1.322265625000000000e+00
5.139160156250000000e-01
-3.756835937500000000e+00
-1.297363281250000000e+00
-8.115234375000000000e-01
-1.278320312500000000e+00
2.138671875000000000e-01
-6.479492187500000000e-01
1.806640625000000000e-01
8.723144531250000000e-01
8.129882812500000000e-01
8.332519531250000000e-01
-2.425048828125000000e+00
-6.267089843750000000e-01
7.783203125000000000e-01
-1.038574218750000000e+00
-5.444335937500000000e-02
1.540527343750000000e-01
-1.623779296875000000e+00
7.224121093750000000e-01
-1.253173828125000000e+00
-1.179199218750000000e-01
6.855468750000000000e-01
-1.488769531250000000e+00
-1.204345703125000000e+00
1.286621093750000000e-01
-1.888916015625000000e+00
2.023925781250000000e-01
-3.564453125000000000e-02
-1.639160156250000000e+00
-1.282470703125000000e+00
-2.512451171875000000e+00
-2.095458984375000000e+00
1.166992187500000000e-01
-2.685546875000000000e-01
3.627929687500000000e-01
2.690429687500000000e-01
-2.568359375000000000e-01
-1.977539062500000000e-02
9.230957031250000000e-01
-1.698486328125000000e+00
4.052734375000000000e-02
-6.711425781250000000e-01
8.481445312500000000e-01
-1.192382812500000000e+00
-1.157958984375000000e+00
-1.611572265625000000e+00
8.659667968750000000e-01
1.802734375000000000e+00
3.974609375000000000e-01
1.167968750000000000e+00
1.379394531250000000e-01
-4.660644531250000000e-01
-8.447265625000000000e-02
-7.768554687500000000e-01
9.511718750000000000e-01
-6.789550781250000000e-01
-1.372558593750000000e+00
-5.197753906250000000e-01
-1.220703125000000000e-01
3.435058593750000000e-01
-2.744140625000000000e-01
-5.793457031250000000e-01
-2.005615234375000000e+00
3.442382812500000000e-02
-8.381347656250000000e-01
1.243408203125000000e+00
-4.289550781250000000e-01
3.752441406250000000e-01
-2.319335937500000000e-02
5.290527343750000000e-01
1.257568359375000000e+00
-1.796386718750000000e+00
1.948242187500000000e-01
-1.394042968750000000e+00
-1.403808593750000000e+00
1.064453125000000000e-01
-3.305664062500000000e-01
-1.394287109375000000e+00
1.038085937500000000e+00
-8.083496093750000000e-01
7.111816406250000000e-01
-5.783691406250000000e-01
7.324218750000000000e-01
7.543945312500000000e-01
-3.571777343750000000e-01
-5.168457031250000000e-01
-8.693847656250000000e-01
-6.428222656250000000e-01
2.512207031250000000e-01
-1.123046875000000000e-02
1.233642578125000000e+00
6.540527343750000000e-01
2.504882812500000000e-01
1.694335937500000000e+00
2.702636718750000000e-01
-1.215820312500000000e-01
1.960693359375000000e+00
7.812500000000000000e-03
-5.319824218750000000e-01
1.389892578125000000e+00
2.812500000000000000e-01
-5.131835937500000000e-01
-2.104492187500000000e-01
-8.000488281250000000e-01
1.070556640625000000e+00
3.957519531250000000e-01
-1.290771484375000000e+00
-5.947265625000000000e-01
1.306640625000000000e+00
3.693847656250000000e-01
9.328613281250000000e-01
-2.056152343750000000e+00
-4.243164062500000000e-01
7.373046875000000000e-02
-7.802734375000000000e-01
1.059082031250000000e+00
1.775146484375000000e+00
1.106201171875000000e+00
-5.187988281250000000e-01
1.181396484375000000e+00
2.211181640625000000e+00
-4.912109375000000000e-01
1.165039062500000000e+00
-1.225585937500000000e-01
1.080810546875000000e+00
-7.495117187500000000e-01
-2.849121093750000000e-01
1.285888671875000000e+00
-2.005126953125000000e+00
-1.186035156250000000e+00
-1.242675781250000000e-01
2.319335937500000000e-02
-1.110839843750000000e-01
-1.047363281250000000e-01
-1.156738281250000000e+00
-1.405273437500000000e+00
-5.900878906250000000e-01
-3.295898437500000000e-02
3.466796875000000000e-01
-1.212158203125000000e+00
9.680175781250000000e-01
-1.687255859375000000e+00
-3.469238281250000000e-01
-9.296875000000000000e-01
3.999023437500000000e-01
4.428710937500000000e-01
-6.755371093750000000e-01
-2.805175781250000000e-01
-2.046875000000000000e+00
5.346679687500000000e-01
-3.955078125000000000e-01
-5.786132812500000000e-02
-1.026611328125000000e+00
7.277832031250000000e-01
1.691406250000000000e+00
-1.122314453125000000e+00
-1.888427734375000000e+00
1.213378906250000000e-01
2.802734375000000000e-01
2.570800781250000000e-01
