-5.339355468750000000e-01
-7.507324218750000000e-01
4.523925781250000000e-01
1.461914062500000000e+00
6.257324218750000000e-01
1.365722656250000000e+00
3.835449218750000000e-01
4.467773437500000000e-02
-2.045898437500000000e-01
2.385253906250000000e-01
4.467773437500000000e-01
-1.714355468750000000e+00
-9.675292968750000000e-01
-5.434570312500000000e-01
2.990722656250000000e-01
-9.912109375000000000e-02
5.102539062500000000e-01
-3.215332031250000000e-01
1.119873046875000000e+00
4.086914062500000000e-01
9.096679687500000000e-01
9.772949218750000000e-01
-1.668212890625000000e+00
4.724121093750000000e-01
7.038574218750000000e-01
-8.134765625000000000e-01
-1.442138671875000000e+00
-1.663818359375000000e+00
-6.201171875000000000e-01
-6.472167968750000000e-01
-7.653808593750000000e-01
7.644042968750000000e-01
6.970214843750000000e-01
-6.716308593750000000e-01
1.231445312500000000e+00
4.248046875000000000e-02
8.876953125000000000e-01
1.120605468750000000e-01
-7.773437500000000000e-01
8.144531250000000000e-01
8.691406250000000000e-02
-9.184570312500000000e-01
7.768554687500000000e-01
-2.668457031250000000e-01
2.211914062500000000e-01
-7.832031250000000000e-01
1.192626953125000000e+00
1.672363281250000000e-01
-1.324707031250000000e+00
-7.495117187500000000e-02
5.119628906250000000e-01
6.591796875000000000e-02
-3.920898437500000000e-01
6.755371093750000000e-01
-1.236083984375000000e+00
6.823730468750000000e-01
2.665039062500000000e+00
2.851562500000000000e-01
9.370117187500000000e-01
-3.056640625000000000e-01
-2.001953125000000000e+00
-1.519531250000000000e+00
-9.228515625000000000e-01
1.282470703125000000e+00
1.404296875000000000e+00
2.724609375000000000e-01
-3.247070312500000000e-01
-9.853515625000000000e-01
1.043457031250000000e+00
-6.347656250000000000e-01
6.201171875000000000e-02
4.772949218750000000e-01
5.192871093750000000e-01
1.402587890625000000e+00
9.421386718750000000e-01
-1.254882812500000000e-01
3.195800781250000000e-01
6.240234375000000000e-01
4.609375000000000000e-01
-4.916992187500000000e-01
-1.725830078125000000e+00
-5.388183593750000000e-01
3.830566406250000000e-01
8.278808593750000000e-01
-2.532226562500000000e+00
-4.387207031250000000e-01
-4.501953125000000000e-01
8.437500000000000000e-01
5.690917968750000000e-01
-4.155273437500000000e-01
-5.375976562500000000e-01
-2.041503906250000000e+00
9.809570312500000000e-01
-2.529052734375000000e+00
-6.472167968750000000e-01
-8.886718750000000000e-02
-3.173828125000000000e-01
1.909179687500000000e-01
1.850585937500000000e-01
-2.080810546875000000e+00
-9.716796875000000000e-01
-9.509277343750000000e-01
1.739501953125000000e+00
1.774902343750000000e-01
1.718750000000000000e-01
-7.932128906250000000e-01
3.347167968750000000e-01
-1.233642578125000000e+00
-1.159667968750000000e-01
4.833984375000000000e-01
9.160156250000000000e-01
1.479248046875000000e+00
9.155273437500000000e-01
9.277343750000000000e-02
1.264160156250000000e+00
1.832763671875000000e+00
-7.409667968750000000e-01
6.284179687500000000e-01
1.379394531250000000e-01
2.202148437500000000e-01
-3.295898437500000000e-01
-1.242675781250000000e+00
-1.617187500000000000e+00
-1.583740234375000000e+00
-1.382568359375000000e+00
-1.933105468750000000e+00
-2.424316406250000000e-01
-2.001464843750000000e+00
3.654785156250000000e-01
-1.229248046875000000e+00
9.355468750000000000e-01
1.040039062500000000e-01
-5.637207031250000000e-01
9.042968750000000000e-01
1.776367187500000000e+00
1.757812500000000000e+00
1.395507812500000000e+00
2.096191406250000000e+00
-1.404296875000000000e+00
-4.824218750000000000e-01
-4.975585937500000000e-01
-8.776855468750000000e-01
6.311035156250000000e-01
-1.103027343750000000e+00
-7.087402343750000000e-01
-2.487548828125000000e+00
-9.997558593750000000e-01
-1.927490234375000000e+00
-2.435302734375000000e+00
-1.991699218750000000e+00
-1.613525390625000000e+00
-7.663574218750000000e-01
-4.418945312500000000e-02
1.350097656250000000e-01
2.077636718750000000e-01
-7.578125000000000000e-01
3.571777343750000000e-01
-4.619140625000000000e-01
3.691406250000000000e-01
-2.177734375000000000e-01
1.560791015625000000e+00
1.452392578125000000e+00
3.159179687500000000e-01
1.824462890625000000e+00
1.424316406250000000e+00
1.464843750000000000e-02
1.057373046875000000e+00
7.482910156250000000e-01
3.000488281250000000e-01
-6.027832031250000000e-01
1.575683593750000000e+00
-1.092041015625000000e+00
-5.615234375000000000e-01
-1.505371093750000000e+00
-1.780761718750000000e+00
-9.533691406250000000e-01
-8.713378906250000000e-01
-8.217773437500000000e-01
-1.015380859375000000e+00
8.374023437500000000e-01
1.344482421875000000e+00
-5.004882812500000000e-02
-2.048339843750000000e-01
-1.254394531250000000e+00
-8.710937500000000000e-01
1.035644531250000000e+00
8.623046875000000000e-01
1.394042968750000000e+00
-1.020019531250000000e+00
-9.033203125000000000e-02
1.326660156250000000e+00
-2.270507812500000000e-01
-2.434082031250000000e-01
3.564453125000000000e-01
2.341308593750000000e-01
1.208984375000000000e+00
-1.285888671875000000e+00
5.825195312500000000e-01
7.019042968750000000e-01
-5.783691406250000000e-01
3.220214843750000000e-01
-8.093261718750000000e-01
-1.927490234375000000e+00
-4.597167968750000000e-01
6.892089843750000000e-01
-4.982910156250000000e-01
4.736328125000000000e-02
3.002929687500000000e-02
-1.017822265625000000e+00
1.053710937500000000e+00
-1.636718750000000000e+00
-4.687500000000000000e-01
1.135253906250000000e-01
2.104492187500000000e-01
-1.768798828125000000e+00
3.281250000000000000e-01
-2.404785156250000000e-01
4.282226562500000000e-01
-1.359863281250000000e-01
2.358886718750000000e+00
2.457275390625000000e+00
-4.770507812500000000e-01
-9.177246093750000000e-01
-1.745605468750000000e-01
1.049316406250000000e+00
4.094238281250000000e-01
-3.195800781250000000e-01
-5.747070312500000000e-01
-1.759033203125000000e+00
-1.104248046875000000e+00
-1.883544921875000000e+00
2.866210937500000000e-01
3.312988281250000000e-01
-2.763671875000000000e-01
5.446777343750000000e-01
-1.806640625000000000e-02
-5.451660156250000000e-01
-1.705078125000000000e+00
-1.986328125000000000e+00
-1.535400390625000000e+00
1.192626953125000000e+00
7.666015625000000000e-01
-5.905761718750000000e-01
-2.275390625000000000e-01
-5.747070312500000000e-01
1.357910156250000000e+00
2.438964843750000000e-01
-9.760742187500000000e-01
1.340087890625000000e+00
3.686523437500000000e-01
-3.360595703125000000e+00
1.062011718750000000e-01
-4.965820312500000000e-01
1.780517578125000000e+00
6.193847656250000000e-01
-4.550781250000000000e-01
-3.320312500000000000e-01
-1.235107421875000000e+00
-1.031982421875000000e+00
-2.695312500000000000e-01
-1.254882812500000000e+00
2.722167968750000000e-01
4.201660156250000000e-01
9.167480468750000000e-01
1.793212890625000000e+00
-3.117675781250000000e-01
-2.791748046875000000e+00
-1.902832031250000000e+00
5.034179687500000000e-01
-1.757812500000000000e-01
5.207519531250000000e-01
2.849121093750000000e-01
-3.032226562500000000e-01
5.559082031250000000e-01
2.141845703125000000e+00
2.710937500000000000e+00
1.770019531250000000e-01
1.040283203125000000e+00
-1.400634765625000000e+00
3.688964843750000000e-01
1.930908203125000000e+00
-4.792480468750000000e-01
-1.168212890625000000e+00
1.741210937500000000e+00
1.621582031250000000e+00
1.144775390625000000e+00
3.468017578125000000e+00
2.280273437500000000e-01
1.525634765625000000e+00
2.784912109375000000e+00
3.141845703125000000e+00
3.514892578125000000e+00
3.750488281250000000e+00
2.096923828125000000e+00
-1.216552734375000000e+00
-2.386962890625000000e+00
9.179687500000000000e-02
-2.490234375000000000e-02
-1.145751953125000000e+00
5.981445312500000000e-01
-3.354492187500000000e-01
-9.641113281250000000e-01
7.666015625000000000e-01
1.284179687500000000e-01
1.189453125000000000e+00
2.091552734375000000e+00
5.288085937500000000e-01
-9.162597656250000000e-01
8.620605468750000000e-01
8.840332031250000000e-01
1.660156250000000000e-01
-2.009277343750000000e-01
4.418945312500000000e-01
1.062500000000000000e+00
2.837890625000000000e+00
4.638427734375000000e+00
3.915527343750000000e+00
1.391357421875000000e+00
2.944580078125000000e+00
1.371826171875000000e+00
2.147949218750000000e+00
1.558837890625000000e+00
-1.183837890625000000e+00
-2.116210937500000000e+00
2.299804687500000000e-01
-1.591796875000000000e-01
-1.313476562500000000e-01
-9.350585937500000000e-02
1.614746093750000000e+00
1.498779296875000000e+00
1.770507812500000000e+00
1.113037109375000000e+00
2.485351562500000000e-01
1.027099609375000000e+00
4.013671875000000000e-01
4.785156250000000000e-02
1.563720703125000000e+00
-7.031250000000000000e-01
9.619140625000000000e-02
-1.404785156250000000e+00
9.257812500000000000e-01
1.272949218750000000e+00
2.409423828125000000e+00
3.443359375000000000e+00
1.767822265625000000e+00
1.490722656250000000e+00
2.214355468750000000e-01
1.381103515625000000e+00
-3.193359375000000000e-01
2.289794921875000000e+00
-7.163085937500000000e-01
3.439941406250000000e-01
8.786621093750000000e-01
4.748535156250000000e-01
1.029296875000000000e+00
8.632812500000000000e-01
2.089111328125000000e+00
2.057373046875000000e+00
2.186279296875000000e+00
2.633300781250000000e+00
-1.201171875000000000e-01
-8.347167968750000000e-01
2.040527343750000000e+00
-2.678222656250000000e-01
2.055664062500000000e-01
-7.934570312500000000e-02
-6.435546875000000000e-01
-1.049804687500000000e+00
-2.019775390625000000e+00
2.626953125000000000e+00
3.166992187500000000e+00
3.078613281250000000e+00
8.078613281250000000e-01
1.604003906250000000e-01
1.185546875000000000e+00
5.458984375000000000e-01
1.799560546875000000e+00
1.123779296875000000e+00
-1.458251953125000000e+00
-5.988769531250000000e-01
-1.694335937500000000e-01
-2.202148437500000000e-01
5.371093750000000000e-03
-1.262207031250000000e-01
4.887695312500000000e-01
-4.404296875000000000e-01
2.020996093750000000e+00
2.390869140625000000e+00
-1.672363281250000000e-01
-1.534179687500000000e+00
-1.291503906250000000e+00
1.399658203125000000e+00
4.030761718750000000e-01
3.603515625000000000e-01
2.785644531250000000e-01
1.329101562500000000e+00
-3.679199218750000000e-01
2.141113281250000000e-01
-2.260742187500000000e-01
1.574218750000000000e+00
4.248046875000000000e-02
1.316406250000000000e+00
5.932617187500000000e-02
1.302246093750000000e+00
6.567382812500000000e-02
-4.020996093750000000e-01
-2.129150390625000000e+00
3.315429687500000000e-01
3.916015625000000000e-01
5.966796875000000000e-01
-4.489746093750000000e-01
1.494140625000000000e-01
5.595703125000000000e-01
8.447265625000000000e-02
4.460449218750000000e-01
1.242675781250000000e-01
1.992187500000000000e-01
3.405761718750000000e-01
-1.010742187500000000e+00
-7.241210937500000000e-01
-1.953125000000000000e-02
2.504882812500000000e-01
-6.352539062500000000e-01
-4.711914062500000000e-02
4.370117187500000000e-02
-1.342773437500000000e-02
3.881835937500000000e-01
1.879882812500000000e-02
-4.973144531250000000e-01
3.833007812500000000e-02
9.807128906250000000e-01
1.095947265625000000e+00
-8.081054687500000000e-02
-5.800781250000000000e-01
-2.941894531250000000e-01
-4.980468750000000000e-02
-2.146240234375000000e+00
3.620605468750000000e-01
1.318359375000000000e-02
-1.447265625000000000e+00
-1.268066406250000000e+00
6.765136718750000000e-01
-1.401855468750000000e+00
2.946777343750000000e-01
-1.431884765625000000e+00
-9.541015625000000000e-01
-1.718505859375000000e+00
1.204589843750000000e+00
2.539062500000000000e-02
-7.163085937500000000e-01
-1.499023437500000000e+00
-1.678466796875000000e+00
1.141845703125000000e+00
-7.275390625000000000e-01
-1.121093750000000000e+00
2.048339843750000000e-01
1.259277343750000000e+00
2.094726562500000000e-01
-1.397460937500000000e+00
1.745605468750000000e-01
-7.102050781250000000e-01
-1.420654296875000000e+00
-1.250976562500000000e+00
1.091796875000000000e+00
7.363281250000000000e-01
-6.774902343750000000e-01
3.898925781250000000e-01
-3.637695312500000000e-02
-1.043212890625000000e+00
-7.119140625000000000e-01
-4.028320312500000000e-02
1.214111328125000000e+00
1.445312500000000000e-01
-1.492919921875000000e+00
-2.441406250000000000e-03
1.777099609375000000e+00
-1.154052734375000000e+00
2.182617187500000000e+00
-4.858398437500000000e-02
-2.504638671875000000e+00
1.772460937500000000e-01
-3.525390625000000000e-01
1.741455078125000000e+00
2.297363281250000000e-01
2.941894531250000000e-01
3.083496093750000000e-01
1.979736328125000000e+00
7.666015625000000000e-01
1.721435546875000000e+00
-2.856445312500000000e-01
-1.116210937500000000e+00
3.144531250000000000e-01
-8.784179687500000000e-01
1.674804687500000000e-01
-5.568847656250000000e-01
-6.347656250000000000e-03
-1.606445312500000000e-01
-3.735351562500000000e-01
-1.923095703125000000e+00
-1.987304687500000000e-01
-1.219482421875000000e+00
-6.396484375000000000e-02
-6.408691406250000000e-01
-3.648437500000000000e+00
2.565917968750000000e-01
2.311767578125000000e+00
-1.525878906250000000e+00
-2.929687500000000000e-01
-3.042480468750000000e+00
-1.434814453125000000e+00
-7.487792968750000000e-01
3.542480468750000000e-01
7.353515625000000000e-01
8.691406250000000000e-01
2.321777343750000000e-01
2.140625000000000000e+00
2.824707031250000000e-01
1.023925781250000000e+00
-5.400390625000000000e-01
-7.053222656250000000e-01
-2.597656250000000000e-01
-1.004882812500000000e+00
2.685546875000000000e-03
-1.673828125000000000e+00
8.891601562500000000e-01
-1.015869140625000000e+00
-1.738525390625000000e+00
9.333496093750000000e-01
2.600097656250000000e-01
4.257812500000000000e-01
-4.606933593750000000e-01
9.868164062500000000e-01
-6.511230468750000000e-01
8.837890625000000000e-02
2.038574218750000000e-01
-9.682617187500000000e-01
-1.805664062500000000e+00
-2.451171875000000000e-01
-1.610107421875000000e+00
7.265625000000000000e-01
-4.248046875000000000e-02
1.049072265625000000e+00
-6.508789062500000000e-01
-4.416503906250000000e-01
7.326660156250000000e-01
-3.930664062500000000e-01
-4.099121093750000000e-01
-6.257324218750000000e-01
2.827148437500000000e-01
-1.332519531250000000e+00
-1.786376953125000000e+00
8.503417968750000000e-01
-2.624023437500000000e+00
-1.633789062500000000e+00
-3.148437500000000000e+00
-6.379394531250000000e-01
-1.633544921875000000e+00
-1.560546875000000000e+00
-1.950683593750000000e-01
-1.147460937500000000e-02
-2.395019531250000000e-01
1.246582031250000000e+00
-1.022216796875000000e+00
4.760742187500000000e-02
-1.356933593750000000e+00
-1.174316406250000000e-01
4.431152343750000000e-01
-2.128662109375000000e+00
-1.560058593750000000e+00
2.502441406250000000e-01
-3.098144531250000000e-01
-9.057617187500000000e-01
1.398681640625000000e+00
5.329589843750000000e-01
-1.308593750000000000e-01
-8.977050781250000000e-01
-1.258789062500000000e+00
4.443359375000000000e-02
5.776367187500000000e-01
-5.166015625000000000e-01
1.193847656250000000e-01
-2.897705078125000000e+00
9.638671875000000000e-01
-1.203857421875000000e+00
9.387207031250000000e-01
-1.591796875000000000e+00
1.745605468750000000e-01
-4.875488281250000000e-01
4.638671875000000000e-02
-7.128906250000000000e-02
-2.343261718750000000e+00
2.336425781250000000e-01
-8.618164062500000000e-02
-4.428710937500000000e-01
7.836914062500000000e-02
-8.112792968750000000e-01
-9.533691406250000000e-01
-5.356445312500000000e-01
-2.250976562500000000e-01
9.565429687500000000e-01
-3.364257812500000000e-01
1.228027343750000000e-01
8.723144531250000000e-01
-6.164550781250000000e-01
-6.215820312500000000e-01
-1.937011718750000000e+00
-2.492675781250000000e-01
-1.228271484375000000e+00
1.027343750000000000e+00
-9.541015625000000000e-01
-1.403076171875000000e+00
2.561035156250000000e-01
8.178710937500000000e-01
2.026367187500000000e-02
-4.763183593750000000e-01
6.711425781250000000e-01
-9.807128906250000000e-01
-9.020996093750000000e-01
-1.319824218750000000e+00
4.875488281250000000e-01
-9.868164062500000000e-01
-3.464355468750000000e-01
-1.856933593750000000e+00
-1.213623046875000000e+00
-2.512207031250000000e-01
-1.618652343750000000e-01
-2.235839843750000000e+00
6.945800781250000000e-01
1.454589843750000000e+00
1.965332031250000000e-01
5.549316406250000000e-01
4.077148437500000000e-02
-9.526367187500000000e-01
-4.721679687500000000e-01
-7.841796875000000000e-01
-1.035888671875000000e+00
2.238525390625000000e+00
-1.528320312500000000e-01
3.952636718750000000e-01
7.246093750000000000e-01
6.770019531250000000e-01
-1.474365234375000000e+00
1.138671875000000000e+00
2.236328125000000000e-01
1.369628906250000000e+00
7.170410156250000000e-01
-8.005371093750000000e-01
-1.436035156250000000e+00
-4.658203125000000000e-01
-1.151367187500000000e+00
-1.166992187500000000e+00
-2.084472656250000000e+00
-8.115234375000000000e-01
1.083496093750000000e+00
-4.125976562500000000e-02
-7.800292968750000000e-01
-1.953125000000000000e-02
4.294433593750000000e-01
2.939453125000000000e-01
2.592773437500000000e-01
8.027343750000000000e-01
-2.949218750000000000e-01
-1.848632812500000000e+00
9.936523437500000000e-01
-9.038085937500000000e-01
1.716552734375000000e+00
1.255859375000000000e+00
1.398925781250000000e-01
-1.335693359375000000e+00
-1.248291015625000000e+00
-9.821777343750000000e-01
-9.934082031250000000e-01
-7.126464843750000000e-01
1.075927734375000000e+00
3.884277343750000000e-01
1.162109375000000000e-01
-1.722900390625000000e+00
-1.494628906250000000e+00
1.128906250000000000e+00
-1.918457031250000000e+00
-4.157714843750000000e-01
-8.137207031250000000e-01
-1.017822265625000000e+00
-3.454589843750000000e-01
1.835937500000000000e-01
-2.561035156250000000e-01
4.570312500000000000e-01
-5.549316406250000000e-01
1.474121093750000000e+00
4.899902343750000000e-01
-4.436035156250000000e-01
1.151611328125000000e+00
-3.442382812500000000e-01
-9.228515625000000000e-01
-1.513671875000000000e-02
3.403320312500000000e-01
-5.168457031250000000e-01
-1.233154296875000000e+00
3.457031250000000000e-01
-4.155273437500000000e-01
1.078369140625000000e+00
-1.132324218750000000e+00
6.860351562500000000e-02
-2.880859375000000000e-02
-3.190917968750000000e-01
-3.852539062500000000e-01
1.019531250000000000e+00
-3.623046875000000000e-01
9.033203125000000000e-02
1.855468750000000000e-02
-1.428955078125000000e+00
-5.322265625000000000e-02
-1.530273437500000000e+00
-2.939453125000000000e-01
-1.704101562500000000e-01
-7.578125000000000000e-01
3.530273437500000000e-01
-1.684570312500000000e-02
1.121826171875000000e+00
1.549804687500000000e+00
5.664062500000000000e-02
7.536621093750000000e-01
-9.648437500000000000e-01
3.596191406250000000e-01
2.412109375000000000e-01
8.920898437500000000e-01
-6.926269531250000000e-01
1.743164062500000000e-01
-1.355712890625000000e+00
4.248046875000000000e-02
-4.882812500000000000e-03
7.668457031250000000e-01
9.306640625000000000e-01
-3.295898437500000000e-02
2.346191406250000000e-01
1.168457031250000000e+00
4.531250000000000000e-01
1.398437500000000000e+00
-7.438964843750000000e-01
2.268798828125000000e+00
1.126953125000000000e+00
8.627929687500000000e-01
2.003662109375000000e+00
-2.190185546875000000e+00
2.409912109375000000e+00
-1.089843750000000000e+00
1.291503906250000000e-01
-1.631347656250000000e+00
-6.784667968750000000e-01
4.465332031250000000e-01
5.732421875000000000e-01
9.680175781250000000e-01
1.233398437500000000e+00
2.927246093750000000e-01
5.632324218750000000e-01
-1.532226562500000000e+00
-9.912109375000000000e-01
-1.933593750000000000e+00
3.476562500000000000e-01
-1.257812500000000000e+00
-2.034667968750000000e+00
2.319335937500000000e-02
-5.563964843750000000e-01
5.988769531250000000e-01
5.136718750000000000e-01
-2.707519531250000000e-01
-9.663085937500000000e-01
1.100585937500000000e+00
-1.249023437500000000e+00
-9.814453125000000000e-02
-3.068847656250000000e-01
3.634277343750000000e+00
3.972167968750000000e-01
1.069335937500000000e+00
-1.288818359375000000e+00
-3.525390625000000000e-01
-6.962890625000000000e-01
-1.018798828125000000e+00
-7.243652343750000000e-01
-1.635009765625000000e+00
1.245117187500000000e-02
3.833007812500000000e-01
-8.249511718750000000e-01
1.021484375000000000e+00
