6.228027343750000000e-01
-9.179687500000000000e-02
-4.763183593750000000e-01
-1.020507812500000000e-01
3.532714843750000000e-01
8.718261718750000000e-01
1.121337890625000000e+00
2.697753906250000000e-01
2.050781250000000000e-02
1.919189453125000000e+00
-1.000244140625000000e+00
-4.567871093750000000e-01
1.074218750000000000e-02
-1.037597656250000000e-01
1.435546875000000000e-01
8.481445312500000000e-01
4.257812500000000000e-01
4.418945312500000000e-01
1.036132812500000000e+00
-2.177734375000000000e-01
-4.211425781250000000e-01
-1.002929687500000000e+00
-9.926757812500000000e-01
-1.484130859375000000e+00
-7.475585937500000000e-01
4.931640625000000000e-01
-1.485595703125000000e+00
5.764160156250000000e-01
8.693847656250000000e-01
1.187988281250000000e+00
-8.178710937500000000e-01
3.166503906250000000e-01
1.766845703125000000e+00
-1.305175781250000000e+00
2.541503906250000000e-01
-1.054199218750000000e+00
-1.207275390625000000e+00
-1.195556640625000000e+00
1.669189453125000000e+00
8.857421875000000000e-01
8.420410156250000000e-01
-8.835449218750000000e-01
-3.945312500000000000e-01
-7.661132812500000000e-01
-5.075683593750000000e-01
8.615722656250000000e-01
-4.873046875000000000e-01
8.657226562500000000e-01
4.941406250000000000e-01
-4.287109375000000000e-01
-1.340332031250000000e-01
1.288818359375000000e+00
-4.748535156250000000e-01
1.815429687500000000e+00
-5.908203125000000000e-02
3.122558593750000000e-01
4.746093750000000000e-01
1.600585937500000000e+00
-7.377929687500000000e-01
-1.525634765625000000e+00
-3.823242187500000000e-01
-3.793945312500000000e-01
-4.248046875000000000e-02
-1.266357421875000000e+00
2.016601562500000000e-01
-4.963378906250000000e-01
5.090332031250000000e-01
-3.605957031250000000e-01
-1.471679687500000000e+00
2.612304687500000000e-02
3.618164062500000000e-01
1.811523437500000000e-01
-9.113769531250000000e-01
9.355468750000000000e-01
3.842773437500000000e-01
2.980957031250000000e-01
3.676757812500000000e-01
5.754394531250000000e-01
-4.599609375000000000e-01
1.323242187500000000e+00
3.017578125000000000e-01
9.250488281250000000e-01
-1.440429687500000000e+00
7.131347656250000000e-01
6.657714843750000000e-01
-8.391113281250000000e-01
-6.250000000000000000e-02
-1.045410156250000000e+00
-1.520996093750000000e-01
8.886718750000000000e-01
1.427001953125000000e+00
1.041748046875000000e+00
-9.479980468750000000e-01
-4.772949218750000000e-01
-4.445800781250000000e-01
1.449462890625000000e+00
-1.919433593750000000e+00
-7.377929687500000000e-01
-5.449218750000000000e-01
1.443847656250000000e+00
-1.862792968750000000e-01
-4.230957031250000000e-01
1.122314453125000000e+00
-2.376220703125000000e+00
-2.729492187500000000e-01
1.110839843750000000e-01
7.443847656250000000e-01
-5.627441406250000000e-01
-9.838867187500000000e-02
-3.649902343750000000e-01
-1.582031250000000000e-01
-2.122558593750000000e+00
3.745117187500000000e-01
-3.024902343750000000e-01
-1.645996093750000000e+00
6.518554687500000000e-02
-6.853027343750000000e-01
1.468994140625000000e+00
-2.192382812500000000e-01
7.795410156250000000e-01
9.714355468750000000e-01
5.776367187500000000e-01
5.927734375000000000e-01
-7.214355468750000000e-01
1.795654296875000000e+00
8.300781250000000000e-03
1.270263671875000000e+00
-1.782226562500000000e-02
-2.404785156250000000e-01
-9.873046875000000000e-01
2.323730468750000000e+00
1.416503906250000000e+00
7.766113281250000000e-01
4.643554687500000000e-01
-1.647705078125000000e+00
-5.939941406250000000e-01
1.829345703125000000e+00
1.433837890625000000e+00
-9.440917968750000000e-01
-2.414062500000000000e+00
-1.020507812500000000e-01
-2.472656250000000000e+00
2.392578125000000000e-02
1.232910156250000000e+00
1.294677734375000000e+00
1.476806640625000000e+00
3.161621093750000000e-01
4.733886718750000000e-01
-4.455566406250000000e-01
1.567871093750000000e+00
-1.287597656250000000e+00
1.174804687500000000e+00
-7.751464843750000000e-01
3.356933593750000000e-01
2.739257812500000000e-01
-3.349609375000000000e-01
2.714843750000000000e-01
1.039306640625000000e+00
-1.393310546875000000e+00
3.723144531250000000e-01
7.250976562500000000e-02
9.594726562500000000e-02
-4.904785156250000000e-01
1.654785156250000000e+00
4.562988281250000000e-01
-1.586425781250000000e+00
1.344970703125000000e+00
6.323242187500000000e-01
6.955566406250000000e-01
-7.709960937500000000e-01
1.855468750000000000e+00
4.882812500000000000e-03
-1.065917968750000000e+00
4.965820312500000000e-01
1.238037109375000000e+00
-1.048095703125000000e+00
1.071777343750000000e-01
-8.764648437500000000e-01
1.214355468750000000e+00
1.077148437500000000e+00
3.930664062500000000e-01
-9.482421875000000000e-01
-6.726074218750000000e-01
-4.614257812500000000e-01
8.200683593750000000e-01
2.395019531250000000e-01
6.445312500000000000e-02
-1.359863281250000000e-01
4.047851562500000000e-01
2.588378906250000000e+00
-1.862792968750000000e-01
8.037109375000000000e-01
1.423339843750000000e+00
-2.134765625000000000e+00
9.948730468750000000e-01
-1.342529296875000000e+00
-7.770996093750000000e-01
-7.666015625000000000e-02
5.207519531250000000e-01
-1.034667968750000000e+00
-2.796875000000000000e+00
8.071289062500000000e-01
-1.020507812500000000e-01
5.620117187500000000e-01
1.625732421875000000e+00
4.318847656250000000e-01
3.420410156250000000e-01
-5.322265625000000000e-02
1.554687500000000000e+00
3.044433593750000000e-01
5.712890625000000000e-02
3.527832031250000000e-01
-3.310546875000000000e-01
1.877441406250000000e-01
7.795410156250000000e-01
1.076171875000000000e+00
1.046875000000000000e+00
-1.352539062500000000e-01
2.902832031250000000e-01
2.025634765625000000e+00
1.490478515625000000e+00
-1.301513671875000000e+00
-1.258300781250000000e+00
2.498046875000000000e+00
-1.566162109375000000e+00
3.964843750000000000e-01
-1.594238281250000000e-01
-2.084960937500000000e-01
-3.388671875000000000e-01
4.316406250000000000e-01
2.480712890625000000e+00
1.259765625000000000e-01
5.866699218750000000e-01
2.949218750000000000e-01
-7.592773437500000000e-01
3.303222656250000000e-01
-8.012695312500000000e-01
1.464843750000000000e-01
-1.110839843750000000e-01
-4.860839843750000000e-01
-1.748046875000000000e-01
-1.582031250000000000e-01
2.631835937500000000e-01
-6.477050781250000000e-01
6.591796875000000000e-02
1.430664062500000000e+00
5.378417968750000000e-01
1.297119140625000000e+00
2.059326171875000000e+00
3.293945312500000000e+00
6.989746093750000000e-01
2.314453125000000000e-01
-5.637207031250000000e-01
1.284423828125000000e+00
1.730468750000000000e+00
2.643310546875000000e+00
1.807617187500000000e+00
1.404785156250000000e+00
1.970214843750000000e-01
1.065429687500000000e+00
8.813476562500000000e-01
7.248535156250000000e-01
6.269531250000000000e-01
4.133300781250000000e-01
-2.856445312500000000e-02
1.528320312500000000e-01
-6.110839843750000000e-01
-3.569335937500000000e-01
-1.357421875000000000e-01
2.539062500000000000e-01
-1.600585937500000000e+00
1.499267578125000000e+00
6.198730468750000000e-01
2.094726562500000000e-01
4.821777343750000000e-01
9.592285156250000000e-01
1.298828125000000000e+00
1.570312500000000000e+00
1.056884765625000000e+00
9.716796875000000000e-02
6.347656250000000000e-02
1.158691406250000000e+00
4.450683593750000000e-01
2.458496093750000000e-01
-2.077636718750000000e-01
-6.923828125000000000e-01
2.592773437500000000e-01
9.462890625000000000e-01
-5.065917968750000000e-01
4.951171875000000000e-01
1.920410156250000000e+00
7.324218750000000000e-01
9.953613281250000000e-01
9.392089843750000000e-01
2.297607421875000000e+00
7.292480468750000000e-01
9.787597656250000000e-01
-1.481933593750000000e+00
2.204589843750000000e-01
1.770019531250000000e-01
-8.881835937500000000e-01
3.747558593750000000e-01
-7.382812500000000000e-01
-3.703613281250000000e-01
5.976562500000000000e-01
1.945800781250000000e-01
-1.669921875000000000e-01
-3.640136718750000000e-01
-5.195312500000000000e-01
-1.099609375000000000e+00
-4.997558593750000000e-01
-3.090820312500000000e-01
9.890136718750000000e-01
1.221679687500000000e+00
-3.759765625000000000e-02
7.409667968750000000e-01
-2.170410156250000000e-01
-1.811523437500000000e-01
1.565673828125000000e+00
6.579589843750000000e-01
1.642333984375000000e+00
2.090576171875000000e+00
1.700195312500000000e+00
6.901855468750000000e-01
2.088867187500000000e+00
2.292968750000000000e+00
1.474609375000000000e-01
-8.244628906250000000e-01
3.454589843750000000e-01
-8.701171875000000000e-01
-2.576904296875000000e+00
-1.758056640625000000e+00
-6.818847656250000000e-01
-2.062988281250000000e-01
-4.353027343750000000e-01
-9.274902343750000000e-01
1.933593750000000000e-01
-2.882080078125000000e+00
-7.446289062500000000e-01
7.519531250000000000e-02
-6.848144531250000000e-01
-1.601806640625000000e+00
-7.202148437500000000e-02
1.016601562500000000e+00
-1.691894531250000000e-01
2.511718750000000000e+00
5.712890625000000000e-02
1.403076171875000000e+00
1.039062500000000000e+00
7.604980468750000000e-01
2.964355468750000000e+00
2.357177734375000000e+00
2.381103515625000000e+00
1.843261718750000000e-01
1.125976562500000000e+00
6.176757812500000000e-01
4.809570312500000000e-01
-2.753906250000000000e+00
3.459472656250000000e-01
-1.740966796875000000e+00
-3.173828125000000000e+00
-5.913085937500000000e-01
1.660156250000000000e-01
-5.615234375000000000e-02
1.611083984375000000e+00
2.666015625000000000e-01
6.323242187500000000e-01
6.818847656250000000e-01
-1.879882812500000000e-02
-3.405761718750000000e-01
-5.856933593750000000e-01
-9.846191406250000000e-01
9.587402343750000000e-01
-6.486816406250000000e-01
-1.050781250000000000e+00
2.740478515625000000e+00
7.338867187500000000e-01
1.855957031250000000e+00
1.363769531250000000e+00
2.268310546875000000e+00
2.583496093750000000e+00
6.408691406250000000e-01
1.806640625000000000e-01
1.928710937500000000e-01
-7.229003906250000000e-01
-2.060546875000000000e+00
-2.160400390625000000e+00
-1.841064453125000000e+00
-1.374267578125000000e+00
-1.428710937500000000e+00
5.070800781250000000e-01
-1.725585937500000000e+00
5.642089843750000000e-01
-5.185546875000000000e-01
1.472900390625000000e+00
4.638671875000000000e-03
-1.300292968750000000e+00
-9.074707031250000000e-01
-1.144531250000000000e+00
-1.062011718750000000e+00
-2.348388671875000000e+00
-1.438964843750000000e+00
1.180908203125000000e+00
-9.892578125000000000e-01
-9.748535156250000000e-01
1.222900390625000000e+00
4.802246093750000000e-01
1.458984375000000000e+00
4.196777343750000000e-01
6.706542968750000000e-01
-5.344238281250000000e-01
-9.765625000000000000e-02
5.104980468750000000e-01
4.318847656250000000e-01
-1.930175781250000000e+00
-1.867919921875000000e+00
-1.059570312500000000e-01
1.393066406250000000e+00
-1.137695312500000000e-01
-9.277343750000000000e-02
-1.855468750000000000e-02
-2.441406250000000000e-04
-1.488281250000000000e+00
-9.536132812500000000e-01
9.799804687500000000e-01
-1.520751953125000000e+00
-9.868164062500000000e-01
-1.424560546875000000e+00
-2.990722656250000000e-01
-1.697021484375000000e+00
-2.000976562500000000e+00
-2.348632812500000000e-01
1.274414062500000000e-01
9.299316406250000000e-01
1.041992187500000000e+00
2.228515625000000000e+00
6.276855468750000000e-01
-1.647949218750000000e-01
-4.013671875000000000e-01
-4.191894531250000000e-01
8.947753906250000000e-01
1.080322265625000000e+00
1.521484375000000000e+00
-7.714843750000000000e-02
-5.051269531250000000e-01
-1.008300781250000000e-01
5.183105468750000000e-01
-2.858886718750000000e-01
-6.088867187500000000e-01
-1.030273437500000000e-01
-2.612304687500000000e-01
-5.742187500000000000e-01
-8.608398437500000000e-01
-8.664550781250000000e-01
-1.036376953125000000e+00
-1.769042968750000000e+00
-2.201171875000000000e+00
-1.869140625000000000e+00
-2.831542968750000000e+00
-3.505126953125000000e+00
7.341308593750000000e-01
1.541748046875000000e+00
5.800781250000000000e-01
1.402343750000000000e+00
-5.847167968750000000e-01
-9.384765625000000000e-01
2.282714843750000000e-01
7.446289062500000000e-02
5.874023437500000000e-01
-5.100097656250000000e-01
5.498046875000000000e-01
2.352783203125000000e+00
-7.170410156250000000e-01
1.308593750000000000e+00
-6.833496093750000000e-01
-1.938476562500000000e-01
-5.388183593750000000e-01
-4.394531250000000000e-03
1.342529296875000000e+00
6.188964843750000000e-01
-1.037597656250000000e+00
7.583007812500000000e-01
-7.873535156250000000e-01
-7.624511718750000000e-01
-2.583984375000000000e+00
-1.939941406250000000e+00
-4.167968750000000000e+00
-1.539062500000000000e+00
-3.309814453125000000e+00
-2.468261718750000000e-01
9.001464843750000000e-01
3.417968750000000000e-01
4.699707031250000000e-01
-5.527343750000000000e-01
5.852050781250000000e-01
2.172851562500000000e-01
-1.491210937500000000e+00
2.656250000000000000e-01
6.274414062500000000e-02
2.333984375000000000e-01
-1.035156250000000000e-01
-1.458496093750000000e+00
-3.181152343750000000e-01
-2.102050781250000000e-01
1.579589843750000000e+00
3.269042968750000000e-01
9.699707031250000000e-01
1.386230468750000000e+00
-1.383056640625000000e+00
-1.777343750000000000e-01
1.072265625000000000e+00
9.685058593750000000e-01
-4.355468750000000000e-01
7.424316406250000000e-01
-3.213623046875000000e+00
-2.129150390625000000e+00
-1.066894531250000000e+00
-5.246582031250000000e-01
-8.000488281250000000e-01
-1.333984375000000000e+00
-1.814697265625000000e+00
6.520996093750000000e-01
-2.108886718750000000e+00
1.408691406250000000e-01
-4.978027343750000000e-01
-1.250000000000000000e-01
-2.189453125000000000e+00
-7.734375000000000000e-01
4.487304687500000000e-01
-1.346923828125000000e+00
2.558593750000000000e-01
-8.947753906250000000e-01
1.189697265625000000e+00
4.423828125000000000e-01
4.304199218750000000e-01
-1.574707031250000000e+00
1.225830078125000000e+00
9.816894531250000000e-01
-1.743164062500000000e-01
-2.460937500000000000e-01
-8.444824218750000000e-01
-1.953125000000000000e-03
-8.574218750000000000e-01
-1.923828125000000000e+00
-1.525878906250000000e-01
1.633789062500000000e+00
6.013183593750000000e-01
1.329101562500000000e+00
3.679199218750000000e-01
5.070800781250000000e-01
-8.095703125000000000e-01
3.708496093750000000e-01
-1.510009765625000000e+00
4.172363281250000000e-01
-1.218261718750000000e-01
-1.633300781250000000e+00
3.974609375000000000e-01
7.070312500000000000e-01
-1.150634765625000000e+00
-1.347656250000000000e+00
-1.291503906250000000e+00
-1.707275390625000000e+00
1.024658203125000000e+00
-5.100097656250000000e-01
3.903808593750000000e-01
-1.049560546875000000e+00
7.207031250000000000e-01
-5.336914062500000000e-01
-1.834472656250000000e+00
-6.149902343750000000e-01
-1.111572265625000000e+00
-1.776855468750000000e+00
-9.104003906250000000e-01
-1.687011718750000000e+00
1.181640625000000000e-01
-3.789062500000000000e-01
-1.117431640625000000e+00
-9.594726562500000000e-01
-3.566894531250000000e-01
1.675781250000000000e+00
-5.373535156250000000e-01
-1.271728515625000000e+00
-2.927246093750000000e-01
-1.484375000000000000e+00
-2.185058593750000000e-01
-1.349853515625000000e+00
1.741455078125000000e+00
-2.500000000000000000e-01
4.042968750000000000e-01
-1.473632812500000000e+00
1.512695312500000000e+00
-4.016113281250000000e-01
4.125976562500000000e-01
5.175781250000000000e-02
-3.847656250000000000e-01
-2.090820312500000000e+00
3.327636718750000000e-01
-2.555908203125000000e+00
3.867187500000000000e-01
-1.957763671875000000e+00
-6.127929687500000000e-02
-1.379394531250000000e-01
2.758789062500000000e-02
1.200927734375000000e+00
-2.993164062500000000e-01
1.434570312500000000e+00
-1.953613281250000000e+00
-1.008544921875000000e+00
-1.835937500000000000e-01
-2.807617187500000000e-01
-8.605957031250000000e-01
-1.794921875000000000e+00
-5.314941406250000000e-01
1.025390625000000000e-01
1.591796875000000000e-01
1.687500000000000000e+00
-1.520507812500000000e+00
-2.514648437500000000e-01
-7.536621093750000000e-01
-3.078613281250000000e-01
4.736328125000000000e-02
-1.619628906250000000e+00
-1.130371093750000000e+00
-1.288574218750000000e+00
5.046386718750000000e-01
-7.138671875000000000e-01
-7.592773437500000000e-01
-5.036621093750000000e-01
-6.611328125000000000e-01
1.058593750000000000e+00
-1.180664062500000000e+00
-4.809570312500000000e-01
6.059570312500000000e-01
-3.330078125000000000e-01
-1.210449218750000000e+00
1.458496093750000000e+00
-1.173828125000000000e+00
3.305664062500000000e-01
-4.035644531250000000e-01
-7.160644531250000000e-01
-9.714355468750000000e-01
1.679931640625000000e+00
4.111328125000000000e-01
4.438476562500000000e-01
5.510253906250000000e-01
-5.783691406250000000e-01
6.552734375000000000e-01
1.171875000000000000e-02
-5.771484375000000000e-01
8.771972656250000000e-01
-8.095703125000000000e-01
6.301269531250000000e-01
-1.007324218750000000e+00
-2.246337890625000000e+00
-4.709472656250000000e-01
-8.056640625000000000e-02
-2.233886718750000000e-01
2.824707031250000000e-01
7.922363281250000000e-01
5.324707031250000000e-01
1.410644531250000000e+00
7.910156250000000000e-01
-9.189453125000000000e-01
3.308105468750000000e-01
-1.092041015625000000e+00
7.871093750000000000e-01
-6.911621093750000000e-01
2.658691406250000000e-01
-6.196289062500000000e-01
-2.296875000000000000e+00
9.360351562500000000e-01
5.129394531250000000e-01
2.111816406250000000e-01
1.828613281250000000e-01
1.059326171875000000e+00
8.859863281250000000e-01
3.745117187500000000e-01
7.402343750000000000e-01
1.123046875000000000e-01
4.001464843750000000e-01
1.325195312500000000e+00
3.466796875000000000e-01
-1.367187500000000000e-01
1.186035156250000000e+00
2.097167968750000000e-01
-7.807617187500000000e-01
8.967285156250000000e-01
2.350097656250000000e+00
7.968750000000000000e-01
3.884277343750000000e-01
3.274169921875000000e+00
3.442382812500000000e-01
-1.246582031250000000e+00
1.412109375000000000e+00
-4.360351562500000000e-01
1.723632812500000000e-01
8.613281250000000000e-01
1.734619140625000000e+00
6.127929687500000000e-02
-6.481933593750000000e-01
-4.995117187500000000e-01
1.938476562500000000e-01
2.351074218750000000e-01
3.190917968750000000e-01
-5.126953125000000000e-02
1.285400390625000000e+00
-1.158203125000000000e+00
1.339843750000000000e+00
9.824218750000000000e-01
-2.741699218750000000e-01
1.608154296875000000e+00
-1.452636718750000000e-01
2.101562500000000000e+00
2.170410156250000000e-01
7.834472656250000000e-01
1.670410156250000000e+00
-4.843750000000000000e-01
4.562988281250000000e-01
-1.346435546875000000e+00
1.037597656250000000e+00
-2.752929687500000000e+00
1.735839843750000000e-01
-1.292968750000000000e+00
1.974121093750000000e+00
4.052001953125000000e+00
5.615234375000000000e-02
-5.375976562500000000e-01
5.405273437500000000e-01
1.417968750000000000e+00
6.325683593750000000e-01
5.439453125000000000e-01
7.849121093750000000e-01
-1.336181640625000000e+00
-7.207031250000000000e-01
1.022949218750000000e-01
-6.755371093750000000e-01
7.204589843750000000e-01
-5.004882812500000000e-01
1.395996093750000000e+00
3.913574218750000000e-01
-1.003906250000000000e+00
1.769042968750000000e+00
-9.951171875000000000e-01
-3.698730468750000000e-01
3.718261718750000000e-01
2.902832031250000000e-01
-2.343750000000000000e-01
3.981933593750000000e-01
1.887207031250000000e-01
-1.106201171875000000e+00
-7.265625000000000000e-01
7.124023437500000000e-01
3.168945312500000000e-01
-1.154785156250000000e-01
-1.885253906250000000e+00
-1.050781250000000000e+00
8.676757812500000000e-01
-1.639160156250000000e+00
4.101562500000000000e-02
2.216796875000000000e-01
1.083007812500000000e+00
8.906250000000000000e-01
4.619140625000000000e-01
5.705566406250000000e-01
1.811035156250000000e+00
-1.659179687500000000e+00
-1.441162109375000000e+00
1.238525390625000000e+00
1.066406250000000000e+00
7.741699218750000000e-01
-4.697265625000000000e-01
-6.257324218750000000e-01
8.205566406250000000e-01
-5.625000000000000000e-01
6.850585937500000000e-01
2.922363281250000000e-01
2.055664062500000000e-01
-1.738525390625000000e+00
9.023437500000000000e-01
1.472167968750000000e-01
1.096191406250000000e-01
1.128173828125000000e+00
1.124023437500000000e+00
1.026611328125000000e+00
