3.527832031250000000e-01
-9.277343750000000000e-03
-5.898437500000000000e-01
-1.428955078125000000e+00
-1.347656250000000000e-01
1.719482421875000000e+00
1.377441406250000000e+00
2.814941406250000000e-01
-6.604003906250000000e-01
-9.118652343750000000e-01
2.111816406250000000e+00
5.068359375000000000e-01
1.542968750000000000e-01
-7.221679687500000000e-01
7.521972656250000000e-01
1.726562500000000000e+00
-1.433593750000000000e+00
1.879882812500000000e-01
-1.554687500000000000e+00
-1.566162109375000000e+00
3.571777343750000000e-01
-1.042480468750000000e+00
-4.584960937500000000e-01
-1.024658203125000000e+00
-1.525634765625000000e+00
-1.230468750000000000e+00
-7.836914062500000000e-01
1.352539062500000000e-01
-2.517089843750000000e-01
-2.985839843750000000e-01
-2.595214843750000000e-01
-2.465820312500000000e-02
2.497558593750000000e-01
-3.623046875000000000e-01
5.412597656250000000e-01
-1.012451171875000000e+00
-6.250000000000000000e-01
-6.337890625000000000e-01
-1.079589843750000000e+00
-1.818359375000000000e+00
-5.549316406250000000e-01
7.106933593750000000e-01
2.004638671875000000e+00
4.814453125000000000e-01
4.775390625000000000e-01
-3.061523437500000000e-01
1.716308593750000000e-01
-5.664062500000000000e-01
-2.612304687500000000e-01
1.955566406250000000e-01
-5.280761718750000000e-01
1.316894531250000000e+00
5.595703125000000000e-01
6.215820312500000000e-01
-5.322265625000000000e-01
-7.749023437500000000e-01
-1.807861328125000000e+00
1.083984375000000000e-01
2.595214843750000000e-01
3.459472656250000000e-01
-1.147460937500000000e-02
-4.997558593750000000e-01
1.342773437500000000e-02
-1.045410156250000000e+00
1.555175781250000000e-01
6.147460937500000000e-01
-2.614746093750000000e-01
1.472167968750000000e+00
2.424316406250000000e-01
4.614257812500000000e-02
3.432617187500000000e-01
1.103271484375000000e+00
-1.652832031250000000e-01
-5.437011718750000000e-01
-1.547851562500000000e+00
-3.732910156250000000e-01
-1.865234375000000000e-01
2.490234375000000000e-01
-1.351806640625000000e+00
-9.670410156250000000e-01
-1.752685546875000000e+00
1.491699218750000000e-01
-3.151855468750000000e-01
9.782714843750000000e-01
1.342529296875000000e+00
-3.610839843750000000e-01
-1.486816406250000000e+00
1.398925781250000000e-01
5.161132812500000000e-01
1.793945312500000000e+00
5.744628906250000000e-01
-7.038574218750000000e-01
8.874511718750000000e-01
2.464111328125000000e+00
-5.808105468750000000e-01
1.357421875000000000e+00
2.827148437500000000e-01
3.266601562500000000e-01
1.678955078125000000e+00
4.765625000000000000e-01
-8.532714843750000000e-01
-1.684570312500000000e-02
-1.523925781250000000e+00
-5.375976562500000000e-01
2.790527343750000000e-01
-7.937011718750000000e-01
-2.543945312500000000e-01
-1.387939453125000000e+00
-5.959472656250000000e-01
5.234375000000000000e-01
-9.616699218750000000e-01
-5.100097656250000000e-01
1.079101562500000000e-01
1.000732421875000000e+00
-5.690917968750000000e-01
1.733886718750000000e+00
1.149902343750000000e+00
-1.578613281250000000e+00
1.034423828125000000e+00
5.454101562500000000e-01
6.936035156250000000e-01
-1.516113281250000000e-01
-1.778808593750000000e+00
4.616699218750000000e-01
1.317138671875000000e+00
-1.796142578125000000e+00
-7.045898437500000000e-01
1.073486328125000000e+00
-1.430664062500000000e-01
6.208496093750000000e-01
-1.242675781250000000e-01
-1.378906250000000000e+00
-2.257568359375000000e+00
-4.680175781250000000e-01
-1.979980468750000000e+00
-1.660156250000000000e+00
4.211425781250000000e-01
2.270507812500000000e+00
-1.379882812500000000e+00
-1.082275390625000000e+00
-1.431396484375000000e+00
7.272949218750000000e-01
-4.553222656250000000e-01
5.979003906250000000e-01
1.149658203125000000e+00
1.003417968750000000e+00
3.212890625000000000e-01
-1.138671875000000000e+00
-5.004882812500000000e-02
-4.404296875000000000e-01
-5.798339843750000000e-01
2.078125000000000000e+00
8.793945312500000000e-01
-6.547851562500000000e-01
-2.255859375000000000e-01
-8.242187500000000000e-01
-8.593750000000000000e-01
-4.387207031250000000e-01
-1.966796875000000000e+00
-1.138183593750000000e+00
-2.014160156250000000e-01
-1.136474609375000000e+00
-4.648437500000000000e-01
6.699218750000000000e-01
6.923828125000000000e-01
-9.958496093750000000e-01
-1.578369140625000000e+00
1.069091796875000000e+00
3.063964843750000000e-01
-9.179687500000000000e-02
9.377441406250000000e-01
-7.958984375000000000e-01
-6.423339843750000000e-01
7.641601562500000000e-02
5.920410156250000000e-01
-1.601562500000000000e-01
-1.437011718750000000e+00
-1.320556640625000000e+00
1.828125000000000000e+00
-1.953613281250000000e+00
-7.116699218750000000e-01
-1.057128906250000000e+00
-2.750976562500000000e+00
-1.062011718750000000e+00
1.540527343750000000e-01
1.437255859375000000e+00
4.829101562500000000e-01
-2.238525390625000000e+00
-1.201904296875000000e+00
-1.312011718750000000e+00
-2.091796875000000000e+00
-1.674804687500000000e+00
-2.484619140625000000e+00
8.669433593750000000e-01
-3.833007812500000000e-02
1.931152343750000000e+00
-4.343261718750000000e-01
-4.545898437500000000e-01
8.376464843750000000e-01
1.647949218750000000e-01
-3.076171875000000000e-02
-4.938964843750000000e-01
-1.687255859375000000e+00
9.443359375000000000e-01
-5.273437500000000000e-01
-1.197509765625000000e+00
7.770996093750000000e-01
-9.985351562500000000e-01
3.041992187500000000e-01
7.941894531250000000e-01
-4.973144531250000000e-01
-1.000976562500000000e+00
-6.171875000000000000e-01
-1.315917968750000000e+00
-1.821533203125000000e+00
-1.607910156250000000e+00
-7.177734375000000000e-01
-2.189697265625000000e+00
-6.389160156250000000e-01
1.185058593750000000e+00
-4.445800781250000000e-01
-2.282226562500000000e+00
-6.616210937500000000e-02
8.374023437500000000e-02
-2.775878906250000000e-01
1.216552734375000000e+00
2.663574218750000000e-01
2.783203125000000000e-02
-1.645019531250000000e+00
-8.354492187500000000e-01
-1.174072265625000000e+00
1.185058593750000000e+00
-7.053222656250000000e-01
2.722167968750000000e-01
-5.307617187500000000e-01
2.387695312500000000e-01
-3.251953125000000000e-01
-4.052734375000000000e-02
3.486328125000000000e-01
-9.924316406250000000e-01
-9.011230468750000000e-01
2.421875000000000000e-01
-8.005371093750000000e-01
-3.132324218750000000e-01
-6.535644531250000000e-01
-9.377441406250000000e-01
-3.159179687500000000e-01
-7.934570312500000000e-02
1.146240234375000000e+00
8.637695312500000000e-01
-1.596679687500000000e-01
-5.454101562500000000e-01
1.635742187500000000e-01
-1.419433593750000000e+00
6.962890625000000000e-01
1.239990234375000000e+00
-1.596679687500000000e-01
4.284667968750000000e-01
-2.121582031250000000e-01
-4.016113281250000000e-01
2.214355468750000000e-01
-1.395507812500000000e+00
2.373046875000000000e-01
-9.570312500000000000e-02
2.800292968750000000e-01
5.263671875000000000e-01
-3.515625000000000000e-01
2.900390625000000000e-01
3.210449218750000000e-01
-3.688964843750000000e-01
-8.295898437500000000e-01
1.747558593750000000e+00
-3.542480468750000000e-01
-5.344238281250000000e-01
-1.464843750000000000e-02
2.458496093750000000e-01
-5.632324218750000000e-01
3.872070312500000000e-01
8.913574218750000000e-01
-1.271240234375000000e+00
8.493652343750000000e-01
-1.789794921875000000e+00
1.284423828125000000e+00
1.367187500000000000e-02
-1.155761718750000000e+00
-7.636718750000000000e-01
-1.301269531250000000e+00
7.167968750000000000e-01
-3.676757812500000000e-01
1.158203125000000000e+00
6.765136718750000000e-01
-1.318115234375000000e+00
-4.436035156250000000e-01
6.201171875000000000e-02
5.258789062500000000e-01
9.069824218750000000e-01
9.033203125000000000e-02
1.595947265625000000e+00
1.656250000000000000e+00
5.375976562500000000e-01
-4.514160156250000000e-01
-1.263183593750000000e+00
1.408447265625000000e+00
7.382812500000000000e-01
1.265380859375000000e+00
1.624755859375000000e+00
1.809082031250000000e-01
-8.195800781250000000e-01
-6.950683593750000000e-01
4.011230468750000000e-01
-3.254394531250000000e-01
-7.363281250000000000e-01
1.159179687500000000e+00
-1.758056640625000000e+00
-6.843261718750000000e-01
-9.008789062500000000e-02
5.849609375000000000e-01
-1.998291015625000000e+00
-5.847167968750000000e-01
6.259765625000000000e-01
-6.647949218750000000e-01
6.303710937500000000e-01
7.153320312500000000e-01
1.002441406250000000e+00
8.488769531250000000e-01
-8.713378906250000000e-01
-9.240722656250000000e-01
5.222167968750000000e-01
3.815917968750000000e-01
-7.810058593750000000e-01
-2.007812500000000000e+00
-1.721435546875000000e+00
1.721191406250000000e-01
5.153808593750000000e-01
1.552734375000000000e-01
1.970214843750000000e-01
3.684082031250000000e-01
-2.490234375000000000e-02
1.418457031250000000e-01
5.249023437500000000e-02
6.030273437500000000e-02
8.522949218750000000e-01
-8.908691406250000000e-01
-1.575683593750000000e+00
-9.836425781250000000e-01
-5.451660156250000000e-01
-1.898925781250000000e+00
-5.126953125000000000e-01
-5.268554687500000000e-01
-1.347656250000000000e-01
2.651367187500000000e-01
3.232421875000000000e-01
2.102050781250000000e+00
-1.899658203125000000e+00
1.311523437500000000e+00
-1.094970703125000000e+00
-1.217041015625000000e+00
-7.448730468750000000e-01
1.358154296875000000e+00
2.165527343750000000e-01
-6.462402343750000000e-01
5.266113281250000000e-01
-5.576171875000000000e-01
5.004882812500000000e-01
6.975097656250000000e-01
1.059326171875000000e+00
6.591796875000000000e-03
-1.374267578125000000e+00
1.090332031250000000e+00
-1.568603515625000000e+00
-2.061767578125000000e+00
-1.615234375000000000e+00
-1.286621093750000000e-01
-2.348632812500000000e-01
1.035644531250000000e+00
3.037109375000000000e-01
-3.549804687500000000e-01
1.083984375000000000e-01
-1.106689453125000000e+00
-3.718261718750000000e-01
2.353515625000000000e-01
-2.392578125000000000e-02
-6.579589843750000000e-01
-1.096923828125000000e+00
-7.385253906250000000e-01
-7.526855468750000000e-01
-6.354980468750000000e-01
5.725097656250000000e-01
-2.111816406250000000e-01
1.149658203125000000e+00
-8.627929687500000000e-01
1.081298828125000000e+00
-9.020996093750000000e-01
1.418945312500000000e+00
1.054687500000000000e-01
-5.498046875000000000e-01
2.011718750000000000e-01
-1.401367187500000000e-01
-1.038818359375000000e+00
-3.952636718750000000e-01
-6.005859375000000000e-01
-1.203613281250000000e+00
6.281738281250000000e-01
2.179687500000000000e+00
-5.026855468750000000e-01
-7.307128906250000000e-01
-2.001953125000000000e-01
1.430664062500000000e-01
4.677734375000000000e-01
-6.501464843750000000e-01
-7.990722656250000000e-01
3.264160156250000000e-01
7.368164062500000000e-01
9.521484375000000000e-03
-4.995117187500000000e-01
8.840332031250000000e-01
8.186035156250000000e-01
3.208007812500000000e-01
2.111816406250000000e-01
2.014160156250000000e-01
-1.249511718750000000e+00
-9.614257812500000000e-01
1.513671875000000000e-01
1.212402343750000000e+00
1.245361328125000000e+00
2.358398437500000000e-01
-6.042480468750000000e-01
5.178222656250000000e-01
-4.270019531250000000e-01
1.523193359375000000e+00
-1.696777343750000000e+00
-7.883300781250000000e-01
1.424804687500000000e+00
6.809082031250000000e-01
-7.709960937500000000e-01
1.408691406250000000e-01
-4.523925781250000000e-01
6.723632812500000000e-01
1.055908203125000000e+00
-7.324218750000000000e-03
-1.472167968750000000e+00
5.126953125000000000e-02
2.604492187500000000e+00
-1.243164062500000000e+00
1.246826171875000000e+00
-1.521972656250000000e+00
8.283691406250000000e-01
3.378906250000000000e-01
-2.229736328125000000e+00
4.067382812500000000e-01
-6.337890625000000000e-01
-1.089355468750000000e+00
-1.867675781250000000e-01
8.139648437500000000e-01
4.057617187500000000e-01
-1.459472656250000000e+00
7.739257812500000000e-02
-1.065185546875000000e+00
-4.555664062500000000e-01
1.404296875000000000e+00
-1.505615234375000000e+00
1.144042968750000000e+00
-1.665039062500000000e-01
3.830566406250000000e-01
-1.286621093750000000e+00
6.662597656250000000e-01
-2.197265625000000000e-01
-1.647216796875000000e+00
1.113281250000000000e-01
-1.166992187500000000e-01
7.580566406250000000e-01
-7.690429687500000000e-02
4.599609375000000000e-01
3.239746093750000000e-01
8.454589843750000000e-01
-8.227539062500000000e-01
-2.521972656250000000e+00
-4.648437500000000000e-01
-6.276855468750000000e-01
7.797851562500000000e-01
3.716308593750000000e+00
6.210937500000000000e-01
1.123046875000000000e-02
1.149169921875000000e+00
-9.719238281250000000e-01
6.945800781250000000e-01
7.885742187500000000e-01
9.509277343750000000e-01
-1.612548828125000000e+00
-6.281738281250000000e-01
-2.602539062500000000e-01
4.199218750000000000e-01
-2.583007812500000000e-01
4.609375000000000000e-01
5.986328125000000000e-01
8.320312500000000000e-01
3.491210937500000000e-01
1.521972656250000000e+00
2.111816406250000000e-01
1.996582031250000000e+00
-8.247070312500000000e-01
2.058349609375000000e+00
-1.230468750000000000e+00
1.687255859375000000e+00
3.857421875000000000e-02
3.718261718750000000e-01
-7.009277343750000000e-01
-1.057128906250000000e+00
-3.588867187500000000e-01
1.936035156250000000e-01
1.857910156250000000e-01
1.957519531250000000e+00
1.392822265625000000e+00
2.758789062500000000e-01
1.286865234375000000e+00
3.286132812500000000e-01
-1.748291015625000000e+00
5.915527343750000000e-01
8.461914062500000000e-01
2.231445312500000000e-01
9.841308593750000000e-01
-5.085449218750000000e-01
-6.550292968750000000e-01
-9.963378906250000000e-01
-7.307128906250000000e-01
2.585449218750000000e+00
1.469970703125000000e+00
8.642578125000000000e-02
-1.210449218750000000e+00
1.031738281250000000e+00
9.082031250000000000e-01
2.995605468750000000e-01
-7.436523437500000000e-01
-4.731445312500000000e-01
7.226562500000000000e-01
7.819824218750000000e-01
-1.763183593750000000e+00
7.934570312500000000e-01
1.626953125000000000e+00
2.368164062500000000e-02
-1.287841796875000000e+00
1.393310546875000000e+00
1.935058593750000000e+00
-1.598632812500000000e+00
-3.686523437500000000e-02
9.311523437500000000e-01
-1.034179687500000000e+00
-2.148437500000000000e-01
-8.820800781250000000e-01
-6.040039062500000000e-01
7.255859375000000000e-01
-1.504150390625000000e+00
2.644042968750000000e-01
1.583984375000000000e+00
-2.214355468750000000e-01
1.163818359375000000e+00
-6.320800781250000000e-01
-1.464843750000000000e-02
4.565429687500000000e-02
-1.360107421875000000e+00
1.162109375000000000e+00
1.948730468750000000e+00
-2.773437500000000000e-01
-1.201171875000000000e-01
1.798828125000000000e+00
7.094726562500000000e-01
1.538085937500000000e-01
-2.888183593750000000e-01
8.430175781250000000e-01
-3.098144531250000000e-01
4.375000000000000000e-01
5.915527343750000000e-01
8.420410156250000000e-01
2.497558593750000000e-01
-1.110107421875000000e+00
-3.164062500000000000e-01
-1.347900390625000000e+00
-1.361572265625000000e+00
-8.032226562500000000e-01
-2.290283203125000000e+00
-6.816406250000000000e-01
1.363525390625000000e+00
7.932128906250000000e-01
2.423339843750000000e+00
3.466308593750000000e+00
5.273437500000000000e-01
1.335693359375000000e+00
-3.400878906250000000e-01
-2.495117187500000000e-01
-1.569580078125000000e+00
8.591308593750000000e-01
2.216552734375000000e+00
-2.114257812500000000e-01
-6.003417968750000000e-01
-1.506347656250000000e+00
3.476562500000000000e-01
-2.022705078125000000e+00
-5.444335937500000000e-01
5.710449218750000000e-01
-9.707031250000000000e-01
-1.563720703125000000e+00
-1.514404296875000000e+00
1.250244140625000000e+00
-1.166259765625000000e+00
-2.953857421875000000e+00
-1.110351562500000000e+00
-1.754394531250000000e+00
-1.741210937500000000e+00
-1.616943359375000000e+00
-9.521484375000000000e-03
-1.455078125000000000e-01
6.201171875000000000e-01
4.868164062500000000e-01
-1.331542968750000000e+00
-2.893066406250000000e-01
2.028808593750000000e-01
5.722656250000000000e-01
-1.063720703125000000e+00
8.903808593750000000e-01
1.916503906250000000e-01
-1.003906250000000000e+00
-1.193603515625000000e+00
-3.427734375000000000e-01
2.177734375000000000e-01
-1.754882812500000000e+00
-1.019775390625000000e+00
-1.315429687500000000e+00
-1.448730468750000000e+00
8.037109375000000000e-01
-1.042968750000000000e+00
-2.109130859375000000e+00
-9.243164062500000000e-01
6.135253906250000000e-01
1.484375000000000000e+00
-1.486083984375000000e+00
-1.051025390625000000e+00
-8.105468750000000000e-01
-7.097167968750000000e-01
1.551025390625000000e+00
2.243652343750000000e-01
1.262939453125000000e+00
7.573242187500000000e-01
4.431152343750000000e-01
5.048828125000000000e-01
1.088134765625000000e+00
-9.682617187500000000e-01
4.980468750000000000e-02
-5.393066406250000000e-01
-7.324218750000000000e-03
-3.759765625000000000e-01
-1.060302734375000000e+00
-9.458007812500000000e-01
1.304687500000000000e+00
-7.121582031250000000e-01
-1.368164062500000000e+00
-6.135253906250000000e-01
2.197265625000000000e-02
-6.062011718750000000e-01
-4.011230468750000000e-01
-1.609375000000000000e+00
-7.775878906250000000e-01
-1.085205078125000000e+00
2.243652343750000000e-01
-1.101806640625000000e+00
1.110351562500000000e+00
-7.041015625000000000e-01
2.995605468750000000e-01
-2.158203125000000000e-01
-8.305664062500000000e-01
2.451171875000000000e-01
-8.000488281250000000e-01
-1.154785156250000000e+00
2.236328125000000000e-01
-1.178710937500000000e+00
-5.249023437500000000e-01
1.500244140625000000e+00
3.544921875000000000e-01
-1.577148437500000000e+00
-1.255859375000000000e+00
-1.425781250000000000e+00
-5.395507812500000000e-02
3.222656250000000000e-02
2.978515625000000000e-01
3.881835937500000000e-02
-2.083496093750000000e+00
6.760253906250000000e-01
-1.387695312500000000e+00
-8.271484375000000000e-01
-8.715820312500000000e-02
-1.875000000000000000e-01
6.657714843750000000e-01
1.034912109375000000e+00
-1.292968750000000000e+00
-9.956054687500000000e-01
1.098632812500000000e+00
2.766113281250000000e+00
-1.556884765625000000e+00
1.859375000000000000e+00
1.033447265625000000e+00
1.156982421875000000e+00
-2.111816406250000000e-01
-1.394775390625000000e+00
-3.994140625000000000e-01
-5.078125000000000000e-02
3.081054687500000000e-01
-1.613769531250000000e-01
3.823242187500000000e-01
4.155273437500000000e-01
-6.071777343750000000e-01
1.336914062500000000e+00
-2.749023437500000000e-01
-2.914550781250000000e+00
5.747070312500000000e-01
-6.230468750000000000e-01
4.152832031250000000e-01
1.007324218750000000e+00
2.988281250000000000e-01
-5.424804687500000000e-01
7.731933593750000000e-01
-2.712402343750000000e-01
7.304687500000000000e-01
4.216308593750000000e-01
-2.595214843750000000e-01
-1.611328125000000000e-02
1.257324218750000000e+00
-7.727050781250000000e-01
1.106445312500000000e+00
1.714111328125000000e+00
1.793945312500000000e+00
7.067871093750000000e-01
-8.691406250000000000e-01
1.906738281250000000e-01
3.269042968750000000e-01
-7.910156250000000000e-01
-3.896484375000000000e-01
2.094726562500000000e-01
1.056396484375000000e+00
-4.638671875000000000e-03
7.236328125000000000e-01
1.556884765625000000e+00
-2.604980468750000000e-01
-9.257812500000000000e-01
-1.288574218750000000e+00
1.909423828125000000e+00
-1.219970703125000000e+00
-5.268554687500000000e-01
7.714843750000000000e-02
-1.788574218750000000e+00
2.304687500000000000e-01
-7.160644531250000000e-01
-5.903320312500000000e-01
5.979003906250000000e-01
-1.944824218750000000e+00
7.033691406250000000e-01
4.257812500000000000e-01
1.879638671875000000e+00
6.794433593750000000e-01
-3.457031250000000000e-01
-5.607910156250000000e-01
-1.525634765625000000e+00
1.177490234375000000e+00
-5.468750000000000000e-01
-1.108398437500000000e-01
5.983886718750000000e-01
-1.293945312500000000e-02
-3.427734375000000000e-01
-1.865234375000000000e+00
3.857421875000000000e-01
6.274414062500000000e-02
3.898925781250000000e-01
-1.409912109375000000e+00
-6.882324218750000000e-01
1.436035156250000000e+00
1.953125000000000000e-03
4.116210937500000000e-01
-1.434570312500000000e+00
6.538085937500000000e-01
-2.558593750000000000e-01
-5.839843750000000000e-01
7.592773437500000000e-01
-7.907714843750000000e-01
1.261230468750000000e+00
-9.104003906250000000e-01
1.276611328125000000e+00
