2.382812500000000000e-01
1.104003906250000000e+00
-1.113281250000000000e-01
-1.562500000000000000e-02
-1.924316406250000000e+00
1.265136718750000000e+00
-2.556152343750000000e-01
-6.738281250000000000e-02
5.537109375000000000e-01
-1.149902343750000000e+00
7.324218750000000000e-02
-1.056152343750000000e+00
1.073486328125000000e+00
-2.895507812500000000e-01
2.406005859375000000e+00
3.735351562500000000e-02
-2.856445312500000000e-02
8.508300781250000000e-01
-7.080078125000000000e-01
-7.709960937500000000e-01
9.204101562500000000e-02
1.268798828125000000e+00
-5.549316406250000000e-01
1.538085937500000000e-02
-5.644531250000000000e-01
-1.772460937500000000e-01
-7.805175781250000000e-01
1.306152343750000000e-01
-7.895507812500000000e-01
1.610351562500000000e+00
-1.552490234375000000e+00
2.231445312500000000e-01
-1.530761718750000000e-01
1.271972656250000000e-01
-1.746093750000000000e+00
2.416992187500000000e-01
-2.762207031250000000e+00
-4.919433593750000000e-01
1.219970703125000000e+00
9.545898437500000000e-01
-3.833007812500000000e-02
-3.457031250000000000e-01
4.853515625000000000e-01
-1.023925781250000000e+00
-1.147216796875000000e+00
-9.838867187500000000e-02
8.540039062500000000e-01
-1.778076171875000000e+00
3.050537109375000000e+00
-1.484375000000000000e-01
6.728515625000000000e-01
-7.893066406250000000e-01
-2.176513671875000000e+00
-4.921875000000000000e-01
5.974121093750000000e-01
1.494140625000000000e-01
-5.637207031250000000e-01
-1.186279296875000000e+00
-7.778320312500000000e-01
-6.333007812500000000e-01
4.174804687500000000e-01
4.951171875000000000e-01
5.222167968750000000e-01
6.350097656250000000e-01
2.160644531250000000e-01
-1.710693359375000000e+00
-1.320312500000000000e+00
2.751464843750000000e-01
5.959472656250000000e-01
1.895996093750000000e+00
1.520019531250000000e+00
-5.092773437500000000e-01
-4.125976562500000000e-01
8.044433593750000000e-01
1.543457031250000000e+00
1.020996093750000000e+00
-1.419677734375000000e+00
-1.462646484375000000e+00
4.409179687500000000e-01
1.930419921875000000e+00
-1.037597656250000000e-01
2.744140625000000000e-01
-6.047363281250000000e-01
1.018554687500000000e+00
-4.541015625000000000e-02
8.986816406250000000e-01
4.611816406250000000e-01
-1.490234375000000000e+00
1.562500000000000000e-01
9.812011718750000000e-01
1.620605468750000000e+00
-8.757324218750000000e-01
1.094970703125000000e+00
5.939941406250000000e-01
-1.015625000000000000e+00
1.021972656250000000e+00
4.536132812500000000e-01
-6.323242187500000000e-02
-1.035156250000000000e+00
7.778320312500000000e-01
-9.946289062500000000e-01
6.518554687500000000e-01
-9.580078125000000000e-01
8.325195312500000000e-02
-1.699462890625000000e+00
-8.273925781250000000e-01
-1.745605468750000000e-01
-1.179199218750000000e+00
9.633789062500000000e-01
-5.686035156250000000e-01
-1.062744140625000000e+00
2.592773437500000000e-01
-2.724609375000000000e-01
-4.819335937500000000e-01
-7.421875000000000000e-01
1.093017578125000000e+00
1.629394531250000000e+00
2.910156250000000000e-01
-4.672851562500000000e-01
9.531250000000000000e-01
7.600097656250000000e-01
-4.665527343750000000e-01
-2.341308593750000000e-01
9.570312500000000000e-01
-1.454833984375000000e+00
1.877441406250000000e-01
-1.139404296875000000e+00
-9.250488281250000000e-01
-5.009765625000000000e-01
-1.289306640625000000e+00
-2.270507812500000000e-02
1.857421875000000000e+00
-1.982421875000000000e+00
-1.735595703125000000e+00
2.807617187500000000e-02
-1.483642578125000000e+00
-2.441406250000000000e-04
1.321044921875000000e+00
-6.342773437500000000e-01
-1.105957031250000000e-01
3.127441406250000000e-01
-3.984375000000000000e-01
-2.358398437500000000e-01
2.197265625000000000e-02
-4.548339843750000000e-01
-8.557128906250000000e-01
-1.319335937500000000e+00
-1.057861328125000000e+00
9.694824218750000000e-01
-2.045898437500000000e+00
-1.582031250000000000e-01
-3.093261718750000000e-01
6.909179687500000000e-02
1.053955078125000000e+00
4.687500000000000000e-01
-1.118652343750000000e+00
1.155029296875000000e+00
-5.712890625000000000e-01
5.354003906250000000e-01
4.533691406250000000e-01
-2.797851562500000000e-01
-5.600585937500000000e-01
-1.444580078125000000e+00
-5.859375000000000000e-02
-1.434082031250000000e+00
-8.291015625000000000e-01
-6.337890625000000000e-01
9.333496093750000000e-01
6.518554687500000000e-02
-2.534179687500000000e-01
4.846191406250000000e-01
-4.291992187500000000e-01
1.324951171875000000e+00
-1.768066406250000000e+00
-1.972656250000000000e-01
1.835937500000000000e-01
-1.202880859375000000e+00
8.315429687500000000e-01
5.043945312500000000e-01
1.975585937500000000e+00
-4.687500000000000000e-02
2.036376953125000000e+00
1.609130859375000000e+00
5.849609375000000000e-01
1.301757812500000000e+00
7.102050781250000000e-01
1.655517578125000000e+00
1.833740234375000000e+00
3.825683593750000000e-01
-7.578125000000000000e-01
-5.368652343750000000e-01
-1.444580078125000000e+00
-4.809570312500000000e-02
1.659667968750000000e+00
-3.803710937500000000e-01
-5.627441406250000000e-01
3.144531250000000000e-01
1.357421875000000000e+00
4.982910156250000000e-01
6.274414062500000000e-01
7.778320312500000000e-01
6.704101562500000000e-01
-1.511230468750000000e-01
3.393554687500000000e-02
1.070800781250000000e+00
3.256835937500000000e-01
6.625976562500000000e-01
1.022949218750000000e+00
1.846191406250000000e+00
2.403076171875000000e+00
1.134765625000000000e+00
1.887695312500000000e+00
1.645019531250000000e+00
5.268554687500000000e-01
2.082031250000000000e+00
-6.208496093750000000e-01
1.875000000000000000e-01
9.489746093750000000e-01
5.664062500000000000e-01
-1.210937500000000000e-01
1.904296875000000000e-02
-1.744628906250000000e+00
2.448730468750000000e-01
-1.367919921875000000e+00
3.220214843750000000e-01
1.027832031250000000e-01
-1.524169921875000000e+00
1.160644531250000000e+00
4.887695312500000000e-01
1.107910156250000000e+00
1.690673828125000000e+00
2.133789062500000000e-01
1.625000000000000000e+00
1.297851562500000000e+00
1.395263671875000000e+00
7.365722656250000000e-01
-3.449707031250000000e-01
5.183105468750000000e-01
2.010742187500000000e+00
1.550292968750000000e-01
2.489746093750000000e+00
1.993896484375000000e+00
3.669433593750000000e-01
5.490722656250000000e-01
1.970214843750000000e-01
-6.770019531250000000e-01
-3.190917968750000000e-01
7.214355468750000000e-01
-2.302246093750000000e-01
5.566406250000000000e-01
4.465332031250000000e-01
-1.061035156250000000e+00
-9.318847656250000000e-01
2.941894531250000000e-01
2.632080078125000000e+00
-3.146972656250000000e-01
8.518066406250000000e-01
1.300292968750000000e+00
2.005126953125000000e+00
9.018554687500000000e-01
-1.059570312500000000e-01
8.322753906250000000e-01
1.620605468750000000e+00
1.674804687500000000e+00
2.751464843750000000e-01
2.568115234375000000e+00
2.983154296875000000e+00
2.596435546875000000e+00
3.178710937500000000e-01
-4.130859375000000000e-01
3.422851562500000000e-01
1.599121093750000000e+00
6.926269531250000000e-01
1.835937500000000000e-01
1.908935546875000000e+00
1.540527343750000000e-01
-1.040771484375000000e+00
2.296386718750000000e+00
1.159667968750000000e-01
5.224609375000000000e-01
4.418945312500000000e-01
3.493652343750000000e-01
1.525878906250000000e+00
-1.096191406250000000e+00
-1.126220703125000000e+00
3.862304687500000000e-01
1.015380859375000000e+00
3.156005859375000000e+00
1.613037109375000000e+00
1.092285156250000000e+00
1.656494140625000000e+00
3.524414062500000000e+00
7.441406250000000000e-01
1.482910156250000000e+00
8.032226562500000000e-01
6.105957031250000000e-01
-1.411132812500000000e+00
-5.932617187500000000e-01
1.308593750000000000e-01
-1.174804687500000000e+00
-4.812011718750000000e-01
1.148681640625000000e+00
2.556152343750000000e-01
1.276367187500000000e+00
5.383300781250000000e-01
1.267822265625000000e+00
-5.966796875000000000e-01
-1.207031250000000000e+00
3.244628906250000000e-01
9.313964843750000000e-01
-7.756347656250000000e-01
-7.746582031250000000e-01
6.335449218750000000e-01
2.286376953125000000e+00
1.639648437500000000e+00
1.240234375000000000e-01
5.993652343750000000e-01
2.314208984375000000e+00
-5.217285156250000000e-01
3.857421875000000000e-02
8.308105468750000000e-01
2.272460937500000000e+00
1.240478515625000000e+00
-1.506347656250000000e-01
-5.541992187500000000e-02
9.677734375000000000e-01
1.775146484375000000e+00
7.001953125000000000e-01
5.117187500000000000e-01
1.874755859375000000e+00
1.999267578125000000e+00
-6.691894531250000000e-01
7.199707031250000000e-01
8.051757812500000000e-01
-1.074218750000000000e-02
1.032470703125000000e+00
9.685058593750000000e-01
-2.861328125000000000e-01
8.796386718750000000e-01
-4.526367187500000000e-01
-2.138671875000000000e-01
4.133300781250000000e-01
8.022460937500000000e-01
1.315429687500000000e+00
-6.787109375000000000e-02
-7.741699218750000000e-01
7.128906250000000000e-02
-9.033203125000000000e-02
-1.980468750000000000e+00
-1.732421875000000000e+00
-5.407714843750000000e-01
-6.171875000000000000e-01
-4.741210937500000000e-01
1.216064453125000000e+00
4.230957031250000000e-01
1.875000000000000000e-01
-3.803710937500000000e-01
3.400878906250000000e-01
-2.492675781250000000e-01
1.783203125000000000e+00
-4.711914062500000000e-02
9.582519531250000000e-01
-4.223632812500000000e-02
3.498535156250000000e-01
6.250000000000000000e-02
-1.030761718750000000e+00
-5.646972656250000000e-01
-4.179687500000000000e-01
-3.139648437500000000e-01
-7.666015625000000000e-01
-1.613769531250000000e+00
-1.221923828125000000e+00
-1.613769531250000000e+00
-1.970947265625000000e+00
-1.029541015625000000e+00
-2.359130859375000000e+00
-3.147460937500000000e+00
1.928710937500000000e-01
-7.421875000000000000e-02
3.251953125000000000e-01
2.878417968750000000e-01
7.614746093750000000e-01
-5.590820312500000000e-01
1.210449218750000000e+00
1.077148437500000000e+00
-2.260742187500000000e-01
-7.812500000000000000e-02
-2.758789062500000000e-02
-8.842773437500000000e-01
8.161621093750000000e-01
-7.807617187500000000e-01
6.389160156250000000e-01
1.704589843750000000e+00
7.031250000000000000e-02
-2.499511718750000000e+00
2.304687500000000000e-01
1.489257812500000000e-02
-1.044433593750000000e+00
-1.694824218750000000e+00
-1.211425781250000000e+00
-8.784179687500000000e-01
-1.951416015625000000e+00
-7.973632812500000000e-01
-2.171875000000000000e+00
-3.122314453125000000e+00
-4.775390625000000000e-01
1.689453125000000000e-01
-7.778320312500000000e-01
1.067138671875000000e+00
-6.328125000000000000e-01
-6.022949218750000000e-01
-9.453125000000000000e-01
-1.799316406250000000e-01
-1.219970703125000000e+00
-2.333984375000000000e-01
-1.005859375000000000e-01
2.836914062500000000e-01
-3.308105468750000000e-01
-1.005126953125000000e+00
2.081787109375000000e+00
1.162109375000000000e-01
3.774414062500000000e-01
6.975097656250000000e-01
-1.677246093750000000e-01
-2.341308593750000000e-01
-2.644042968750000000e-01
-1.904296875000000000e-01
-1.888183593750000000e+00
-5.671386718750000000e-01
-1.946044921875000000e+00
-4.404296875000000000e-01
-1.557128906250000000e+00
-1.558593750000000000e+00
-2.081054687500000000e+00
-1.204833984375000000e+00
-4.255371093750000000e-01
5.178222656250000000e-01
-9.567871093750000000e-01
8.010253906250000000e-01
-3.308105468750000000e-01
5.834960937500000000e-01
-1.655273437500000000e-01
-2.435302734375000000e+00
-8.027343750000000000e-01
4.099121093750000000e-01
-1.777099609375000000e+00
1.410888671875000000e+00
-3.989257812500000000e-01
7.551269531250000000e-01
2.250000000000000000e+00
-1.392578125000000000e+00
-2.305175781250000000e+00
-1.278808593750000000e+00
-1.033203125000000000e+00
-2.503417968750000000e+00
-4.882812500000000000e-04
-1.362792968750000000e+00
-1.042480468750000000e-01
-1.166992187500000000e-01
3.481445312500000000e-01
-6.958007812500000000e-02
-2.807373046875000000e+00
-1.602294921875000000e+00
-1.937255859375000000e+00
-7.229003906250000000e-01
-1.337402343750000000e+00
-1.100341796875000000e+00
-3.869628906250000000e-01
-8.361816406250000000e-01
-8.566894531250000000e-01
1.472167968750000000e+00
-1.200439453125000000e+00
-4.340820312500000000e-01
-2.414062500000000000e+00
-8.508300781250000000e-01
3.034912109375000000e+00
3.679199218750000000e-01
-1.296630859375000000e+00
4.211425781250000000e-01
-6.801757812500000000e-01
-1.042724609375000000e+00
-1.032470703125000000e+00
4.790039062500000000e-01
-1.009277343750000000e+00
-1.628662109375000000e+00
6.906738281250000000e-01
-6.420898437500000000e-02
2.238769531250000000e-01
-1.666503906250000000e+00
1.196289062500000000e-02
-1.481201171875000000e+00
-1.434814453125000000e+00
-8.046875000000000000e-01
5.683593750000000000e-01
-2.097167968750000000e+00
-1.902099609375000000e+00
1.101074218750000000e-01
-6.384277343750000000e-01
-1.837158203125000000e+00
-2.221679687500000000e-01
-6.362304687500000000e-01
-5.244140625000000000e-01
-1.130126953125000000e+00
-9.399414062500000000e-01
-1.474609375000000000e+00
-5.390625000000000000e-01
7.924804687500000000e-01
5.517578125000000000e-01
-1.179443359375000000e+00
-2.004394531250000000e-01
-1.747802734375000000e+00
-1.154785156250000000e-01
8.359375000000000000e-01
-6.967773437500000000e-01
1.765136718750000000e-01
7.287597656250000000e-01
-6.401367187500000000e-01
-1.106689453125000000e+00
-1.149169921875000000e+00
-1.750000000000000000e+00
-1.262695312500000000e+00
-1.238281250000000000e+00
-1.599121093750000000e-01
5.983886718750000000e-01
6.433105468750000000e-01
6.748046875000000000e-01
3.908691406250000000e-01
-7.827148437500000000e-01
5.344238281250000000e-01
1.616210937500000000e-01
-7.458496093750000000e-01
-2.407226562500000000e-01
1.429687500000000000e+00
9.716796875000000000e-02
1.448974609375000000e+00
3.654785156250000000e-01
6.308593750000000000e-01
-5.217285156250000000e-01
6.669921875000000000e-01
9.594726562500000000e-02
-5.285644531250000000e-01
1.794433593750000000e-01
-4.562988281250000000e-01
-2.203369140625000000e+00
1.953125000000000000e-01
-1.953369140625000000e+00
-8.352050781250000000e-01
-8.898925781250000000e-01
-3.742675781250000000e-01
-3.542480468750000000e-01
8.869628906250000000e-01
-1.591796875000000000e-01
1.178222656250000000e+00
-7.670898437500000000e-01
2.043457031250000000e+00
1.070800781250000000e+00
-9.968261718750000000e-01
-7.512207031250000000e-01
1.405761718750000000e+00
-2.687988281250000000e-01
-1.147460937500000000e-02
1.816406250000000000e-01
4.768066406250000000e-01
9.169921875000000000e-01
5.590820312500000000e-02
1.019287109375000000e+00
4.182128906250000000e-01
8.642578125000000000e-01
-3.300781250000000000e-01
-7.934570312500000000e-01
-1.547363281250000000e+00
-1.298095703125000000e+00
-1.397460937500000000e+00
1.977539062500000000e-02
-4.980468750000000000e-02
-6.323242187500000000e-01
-6.030273437500000000e-02
7.585449218750000000e-01
-1.184082031250000000e-01
2.010742187500000000e+00
-7.968750000000000000e-01
8.737792968750000000e-01
9.755859375000000000e-01
1.306640625000000000e+00
1.490966796875000000e+00
-5.627441406250000000e-01
-1.337646484375000000e+00
9.963378906250000000e-01
2.080078125000000000e-01
1.604003906250000000e-01
-1.366210937500000000e+00
-7.578125000000000000e-01
-6.237792968750000000e-01
1.627441406250000000e+00
-2.868652343750000000e-01
8.232421875000000000e-01
4.514160156250000000e-01
5.444335937500000000e-02
-5.258789062500000000e-01
-1.269287109375000000e+00
-4.370117187500000000e-02
-1.645996093750000000e+00
-9.816894531250000000e-01
1.555175781250000000e-01
8.198242187500000000e-01
1.118164062500000000e-01
-6.542968750000000000e-01
-6.252441406250000000e-01
1.254882812500000000e-01
-1.059814453125000000e+00
1.439208984375000000e+00
-7.321777343750000000e-01
-1.083984375000000000e-01
-3.664550781250000000e-01
9.667968750000000000e-02
-3.198242187500000000e-02
4.750976562500000000e-01
-1.747802734375000000e+00
2.368164062500000000e-01
3.774414062500000000e-01
-2.497558593750000000e-01
-8.000488281250000000e-01
1.293945312500000000e+00
1.210937500000000000e-01
1.105224609375000000e+00
1.904296875000000000e+00
1.904052734375000000e+00
-1.054931640625000000e+00
8.437500000000000000e-01
5.407714843750000000e-01
-7.392578125000000000e-01
-9.252929687500000000e-02
2.822265625000000000e-01
-1.148437500000000000e+00
-1.571289062500000000e+00
-1.531738281250000000e+00
-3.356933593750000000e-01
-7.033691406250000000e-01
1.530761718750000000e-01
1.172851562500000000e+00
1.328125000000000000e+00
-6.945800781250000000e-01
2.041015625000000000e-01
-1.237548828125000000e+00
-1.294677734375000000e+00
-6.313476562500000000e-01
-1.823730468750000000e-01
1.171875000000000000e-01
-5.915527343750000000e-01
-4.199218750000000000e-01
-6.403808593750000000e-01
9.030761718750000000e-01
5.039062500000000000e-01
-1.513671875000000000e-01
9.643554687500000000e-02
1.591308593750000000e+00
-3.154296875000000000e-01
1.188720703125000000e+00
1.207763671875000000e+00
2.438964843750000000e-01
1.090820312500000000e+00
6.372070312500000000e-01
1.118408203125000000e+00
8.415527343750000000e-01
-1.538330078125000000e+00
1.162597656250000000e+00
-5.139160156250000000e-01
2.385253906250000000e-01
3.916015625000000000e-01
2.221679687500000000e-02
-2.290039062500000000e-01
3.420410156250000000e-01
-1.057617187500000000e+00
3.249511718750000000e-01
5.185546875000000000e-01
-1.086425781250000000e+00
5.673828125000000000e-01
-1.613281250000000000e+00
2.026123046875000000e+00
1.807861328125000000e+00
1.638183593750000000e+00
9.157714843750000000e-01
1.271972656250000000e+00
8.315429687500000000e-01
1.159912109375000000e+00
1.045166015625000000e+00
1.166503906250000000e+00
1.863281250000000000e+00
-5.737304687500000000e-02
1.320800781250000000e+00
-2.001953125000000000e-02
1.142822265625000000e+00
5.920410156250000000e-01
1.990478515625000000e+00
-6.359863281250000000e-01
-1.348876953125000000e+00
1.091308593750000000e-01
5.527343750000000000e-01
-7.971191406250000000e-01
-1.632324218750000000e+00
-2.167968750000000000e-01
5.451660156250000000e-01
-1.870117187500000000e-01
4.785156250000000000e-01
-1.511230468750000000e-01
-9.873046875000000000e-01
1.268310546875000000e+00
1.044677734375000000e+00
1.530761718750000000e+00
1.396972656250000000e+00
4.520996093750000000e+00
1.752929687500000000e+00
1.720947265625000000e+00
2.504638671875000000e+00
1.794677734375000000e+00
8.498535156250000000e-01
6.574707031250000000e-01
1.822509765625000000e+00
1.505615234375000000e+00
2.852783203125000000e+00
6.079101562500000000e-02
1.731445312500000000e+00
8.398437500000000000e-02
-6.757812500000000000e-01
7.470703125000000000e-01
-1.021972656250000000e+00
-4.309082031250000000e-01
3.098144531250000000e-01
1.027832031250000000e-01
-1.276855468750000000e+00
-7.097167968750000000e-01
3.586425781250000000e-01
3.398437500000000000e-01
1.549560546875000000e+00
4.084472656250000000e-01
1.279296875000000000e-01
-4.121093750000000000e-01
6.708984375000000000e-01
1.663330078125000000e+00
-9.597167968750000000e-01
3.541015625000000000e+00
1.640625000000000000e-01
6.481933593750000000e-01
5.085449218750000000e-01
8.718261718750000000e-01
-7.993164062500000000e-01
1.355712890625000000e+00
-3.193359375000000000e-01
-5.209960937500000000e-01
1.496826171875000000e+00
5.988769531250000000e-01
4.763183593750000000e-01
-3.037109375000000000e-01
7.119140625000000000e-01
3.564453125000000000e-02
9.101562500000000000e-01
-1.585693359375000000e+00
-7.812500000000000000e-01
-2.527099609375000000e+00
5.085449218750000000e-01
3.378906250000000000e-01
-9.548339843750000000e-01
1.124267578125000000e+00
-4.543457031250000000e-01
4.760742187500000000e-01
-8.193359375000000000e-01
-8.256835937500000000e-01
-1.656494140625000000e+00
5.932617187500000000e-02
-6.845703125000000000e-01
9.396972656250000000e-01
-2.171142578125000000e+00
4.023437500000000000e-01
4.028320312500000000e-02
1.953125000000000000e-03
1.977050781250000000e+00
-3.488769531250000000e-01
1.385253906250000000e+00
-1.151611328125000000e+00
-1.337402343750000000e+00
-1.750244140625000000e+00
-1.224853515625000000e+00
-1.327148437500000000e+00
-8.132324218750000000e-01
