1.742431640625000000e+00
6.096191406250000000e-01
-1.344482421875000000e+00
-2.119873046875000000e+00
-1.015380859375000000e+00
5.605468750000000000e-01
1.871093750000000000e+00
1.098632812500000000e-02
4.882812500000000000e-01
-2.869628906250000000e+00
5.534667968750000000e-01
9.008789062500000000e-01
2.600341796875000000e+00
-5.224609375000000000e-01
-8.249511718750000000e-01
2.821777343750000000e+00
-8.356933593750000000e-01
-9.472656250000000000e-02
8.100585937500000000e-01
-1.426269531250000000e+00
9.052734375000000000e-01
-6.533203125000000000e-01
-1.193847656250000000e-01
3.085937500000000000e-01
-2.060546875000000000e-01
2.597656250000000000e-01
-3.002929687500000000e-01
-6.137695312500000000e-01
-5.083007812500000000e-01
2.260253906250000000e+00
-6.433105468750000000e-01
5.510253906250000000e-01
1.656250000000000000e+00
-1.579589843750000000e-01
3.044433593750000000e-01
2.351074218750000000e-01
1.295410156250000000e+00
-7.695312500000000000e-01
2.390136718750000000e-01
7.910156250000000000e-01
-2.929687500000000000e-03
2.323242187500000000e+00
4.426269531250000000e-01
1.600097656250000000e+00
-1.352050781250000000e+00
-4.482421875000000000e-01
-5.075683593750000000e-01
1.589355468750000000e-01
7.099609375000000000e-01
6.030273437500000000e-02
7.355957031250000000e-01
-1.369384765625000000e+00
1.840820312500000000e-01
-3.906250000000000000e-01
-1.198242187500000000e+00
-7.263183593750000000e-01
-6.047363281250000000e-01
1.322021484375000000e+00
-4.450683593750000000e-01
5.344238281250000000e-01
1.171875000000000000e-01
-5.798339843750000000e-01
-2.795410156250000000e-01
8.154296875000000000e-01
-7.849121093750000000e-01
4.240722656250000000e-01
1.684814453125000000e+00
-2.788085937500000000e-01
-3.686523437500000000e-01
2.225097656250000000e+00
-2.734375000000000000e-01
-3.879394531250000000e-01
1.164306640625000000e+00
1.206054687500000000e+00
1.416503906250000000e+00
-6.906738281250000000e-01
-6.538085937500000000e-01
1.113769531250000000e+00
-2.824707031250000000e-01
2.427490234375000000e+00
6.276855468750000000e-01
4.543457031250000000e-01
2.287597656250000000e-01
4.321289062500000000e-02
-5.070800781250000000e-01
-1.352050781250000000e+00
-4.174804687500000000e-02
-5.571289062500000000e-01
-1.010009765625000000e+00
-1.171875000000000000e-02
8.493652343750000000e-01
-2.558593750000000000e-01
1.116210937500000000e+00
7.731933593750000000e-01
6.496582031250000000e-01
-5.654296875000000000e-01
-2.192382812500000000e-01
1.093261718750000000e+00
-8.740234375000000000e-02
3.010498046875000000e+00
1.263671875000000000e+00
2.189941406250000000e-01
-2.807617187500000000e-02
1.315673828125000000e+00
1.101562500000000000e+00
1.039062500000000000e+00
-5.122070312500000000e-01
-4.418945312500000000e-01
-4.865722656250000000e-01
-7.165527343750000000e-01
-7.817382812500000000e-01
-3.818359375000000000e-01
9.060058593750000000e-01
-1.295654296875000000e+00
3.337402343750000000e-01
5.620117187500000000e-01
-9.621582031250000000e-01
-7.636718750000000000e-01
9.492187500000000000e-01
-5.996093750000000000e-01
8.081054687500000000e-01
-1.497802734375000000e+00
8.854980468750000000e-01
-6.992187500000000000e-01
-8.691406250000000000e-01
-4.272460937500000000e-02
-5.178222656250000000e-01
7.111816406250000000e-01
5.324707031250000000e-01
9.606933593750000000e-01
3.007812500000000000e-01
-3.674316406250000000e-01
8.447265625000000000e-01
-6.743164062500000000e-01
3.195800781250000000e-01
-7.622070312500000000e-01
2.064208984375000000e+00
3.879394531250000000e-01
-7.160644531250000000e-01
1.017333984375000000e+00
1.149902343750000000e-01
3.288574218750000000e-01
-3.374023437500000000e-01
-2.490234375000000000e-02
-1.417724609375000000e+00
-1.640380859375000000e+00
1.467041015625000000e+00
5.659179687500000000e-01
-1.778808593750000000e+00
9.245605468750000000e-01
3.913574218750000000e-01
-1.391357421875000000e+00
5.241699218750000000e-01
4.394531250000000000e-02
6.960449218750000000e-01
8.115234375000000000e-01
-1.787109375000000000e-01
5.634765625000000000e-01
-7.988281250000000000e-01
3.331542968750000000e+00
-8.220214843750000000e-01
1.684082031250000000e+00
5.898437500000000000e-01
6.838378906250000000e-01
7.666015625000000000e-02
-9.916992187500000000e-01
8.015136718750000000e-01
8.950195312500000000e-01
1.215820312500000000e+00
7.275390625000000000e-01
-5.322265625000000000e-02
6.577148437500000000e-01
-1.973144531250000000e+00
-8.154296875000000000e-01
1.500732421875000000e+00
-7.675781250000000000e-01
1.751220703125000000e+00
1.360107421875000000e+00
5.270996093750000000e-01
-2.495117187500000000e-01
1.671142578125000000e+00
-6.511230468750000000e-01
3.288574218750000000e-01
-4.177246093750000000e-01
8.266601562500000000e-01
-2.248046875000000000e+00
6.745605468750000000e-01
-1.033691406250000000e+00
1.635742187500000000e+00
4.479980468750000000e-01
1.599609375000000000e+00
3.197998046875000000e+00
1.789306640625000000e+00
-5.354003906250000000e-01
-5.810546875000000000e-02
5.488281250000000000e-01
-1.291015625000000000e+00
-1.153564453125000000e+00
-1.806640625000000000e-02
4.973144531250000000e-01
2.626953125000000000e-01
-3.295898437500000000e-02
-1.132324218750000000e+00
-1.712158203125000000e+00
-1.065429687500000000e+00
-3.540039062500000000e-01
8.999023437500000000e-01
2.199218750000000000e+00
9.179687500000000000e-02
1.854492187500000000e+00
2.243652343750000000e+00
-1.231689453125000000e+00
4.133300781250000000e-01
3.137207031250000000e-01
8.002929687500000000e-01
1.047119140625000000e+00
3.010742187500000000e+00
1.189697265625000000e+00
1.643066406250000000e+00
4.150390625000000000e-02
-3.510742187500000000e-01
1.137695312500000000e-01
-1.672363281250000000e-01
-1.401123046875000000e+00
7.958984375000000000e-01
9.262695312500000000e-01
4.177246093750000000e-01
1.507080078125000000e+00
-4.238281250000000000e-01
8.603515625000000000e-01
-6.518554687500000000e-01
-2.487792968750000000e-01
9.814453125000000000e-01
-6.254882812500000000e-01
8.259277343750000000e-01
-5.273437500000000000e-02
1.974609375000000000e+00
5.788574218750000000e-01
1.958984375000000000e+00
-1.126464843750000000e+00
1.684570312500000000e-02
-3.281250000000000000e-01
2.502441406250000000e-01
-4.853515625000000000e-01
6.135253906250000000e-01
-1.024169921875000000e+00
-9.995117187500000000e-01
-1.766357421875000000e+00
-3.654785156250000000e-01
2.565917968750000000e-01
4.663085937500000000e-02
-1.894531250000000000e-01
1.149169921875000000e+00
3.564453125000000000e-02
2.610107421875000000e+00
-8.959960937500000000e-02
-1.679687500000000000e-01
-6.372070312500000000e-02
5.117187500000000000e-01
3.239746093750000000e-01
-2.404785156250000000e-01
2.714843750000000000e-01
1.307861328125000000e+00
1.368652343750000000e+00
3.798828125000000000e+00
-4.812011718750000000e-01
-5.771484375000000000e-01
-3.220947265625000000e+00
-4.550781250000000000e-01
-8.522949218750000000e-01
-2.726562500000000000e+00
-2.464843750000000000e+00
-2.240722656250000000e+00
-1.050537109375000000e+00
-1.169921875000000000e+00
-2.538085937500000000e+00
-8.151855468750000000e-01
-3.479003906250000000e-01
2.248535156250000000e-01
9.958496093750000000e-01
7.666015625000000000e-01
1.028564453125000000e+00
-7.585449218750000000e-01
1.689453125000000000e+00
-1.045166015625000000e+00
2.751464843750000000e-01
5.822753906250000000e-01
-5.966796875000000000e-01
1.798095703125000000e+00
7.819824218750000000e-01
7.844238281250000000e-01
1.893554687500000000e+00
-3.149414062500000000e-01
-1.743408203125000000e+00
-2.835937500000000000e+00
-2.716796875000000000e+00
-2.650878906250000000e+00
-1.949707031250000000e+00
-2.601806640625000000e+00
-2.027832031250000000e+00
-3.592041015625000000e+00
-1.893554687500000000e+00
-2.236572265625000000e+00
-1.574707031250000000e-01
1.513427734375000000e+00
6.188964843750000000e-01
-3.029785156250000000e-01
-6.225585937500000000e-01
-1.077392578125000000e+00
-2.832031250000000000e-01
-3.813476562500000000e-01
1.148681640625000000e+00
3.989257812500000000e-01
-1.416992187500000000e+00
1.456542968750000000e+00
-1.137695312500000000e-01
6.130371093750000000e-01
2.275390625000000000e-01
3.645019531250000000e-01
4.467773437500000000e-01
-4.731445312500000000e-01
-1.324951171875000000e+00
-1.223876953125000000e+00
-2.556396484375000000e+00
4.074707031250000000e-01
-7.973632812500000000e-01
3.857421875000000000e-02
-7.985839843750000000e-01
-1.298828125000000000e-01
-4.199218750000000000e-01
-1.344970703125000000e+00
-1.025146484375000000e+00
-2.221679687500000000e-01
1.096191406250000000e-01
-9.179687500000000000e-02
-2.270263671875000000e+00
-3.332519531250000000e-01
-1.379394531250000000e-01
-3.947753906250000000e-01
9.938964843750000000e-01
2.373046875000000000e-01
2.124755859375000000e+00
8.754882812500000000e-01
-1.877441406250000000e-01
4.125976562500000000e-02
1.000976562500000000e-01
7.568359375000000000e-03
7.460937500000000000e-01
1.035156250000000000e-01
-1.383789062500000000e+00
-2.028076171875000000e+00
-9.548339843750000000e-01
-1.231445312500000000e+00
-9.978027343750000000e-01
-1.251220703125000000e+00
-5.109863281250000000e-01
-1.652587890625000000e+00
-1.370361328125000000e+00
-1.644775390625000000e+00
1.438720703125000000e+00
4.650878906250000000e-01
-1.110351562500000000e+00
6.508789062500000000e-01
-1.389160156250000000e-01
1.895751953125000000e+00
6.281738281250000000e-01
-1.643066406250000000e-01
-4.577636718750000000e-01
1.058349609375000000e+00
-5.361328125000000000e-01
4.799804687500000000e-01
2.128906250000000000e-01
5.065917968750000000e-01
4.645996093750000000e-01
-7.307128906250000000e-01
6.564941406250000000e-01
-1.010498046875000000e+00
-1.443603515625000000e+00
-8.283691406250000000e-01
-1.683105468750000000e+00
-1.764648437500000000e+00
-1.501220703125000000e+00
-1.184814453125000000e+00
1.086425781250000000e-01
1.049804687500000000e-01
8.496093750000000000e-01
-8.288574218750000000e-01
1.143554687500000000e+00
-1.938720703125000000e+00
-4.980468750000000000e-02
-4.931640625000000000e-01
3.275634765625000000e+00
-8.000488281250000000e-01
3.757324218750000000e-01
4.711914062500000000e-02
-1.189208984375000000e+00
1.212646484375000000e+00
2.209472656250000000e-01
-5.532226562500000000e-01
2.802734375000000000e-01
3.845214843750000000e-01
-9.455566406250000000e-01
1.400146484375000000e+00
-2.527587890625000000e+00
-1.608886718750000000e-01
-1.342285156250000000e+00
-1.395263671875000000e+00
2.006835937500000000e-01
-1.322265625000000000e+00
-2.605224609375000000e+00
-2.246093750000000000e-01
-5.419921875000000000e-02
6.750488281250000000e-01
-4.907226562500000000e-01
-4.973144531250000000e-01
1.372070312500000000e+00
-6.835937500000000000e-03
1.525878906250000000e-01
1.317626953125000000e+00
1.382812500000000000e+00
-5.092773437500000000e-01
4.191894531250000000e-01
-6.118164062500000000e-01
-1.677978515625000000e+00
-6.240234375000000000e-01
5.673828125000000000e-01
9.328613281250000000e-01
-3.442382812500000000e-01
-4.616699218750000000e-01
3.708496093750000000e-01
4.277343750000000000e-01
-1.007568359375000000e+00
-8.715820312500000000e-01
-3.025390625000000000e+00
-9.970703125000000000e-01
-1.451904296875000000e+00
-1.722656250000000000e+00
-5.288085937500000000e-01
-1.647949218750000000e-01
-1.063964843750000000e+00
-9.140625000000000000e-01
-6.589355468750000000e-01
1.035156250000000000e+00
-4.934082031250000000e-01
1.008300781250000000e-01
-1.705078125000000000e+00
5.834960937500000000e-02
5.849609375000000000e-01
-4.763183593750000000e-01
-1.764648437500000000e+00
6.728515625000000000e-01
-6.232910156250000000e-01
3.452148437500000000e-01
-1.089355468750000000e+00
-6.623535156250000000e-01
9.536132812500000000e-01
-3.366699218750000000e-01
-4.973144531250000000e-01
-2.978515625000000000e-01
-1.530761718750000000e+00
-3.076171875000000000e-01
-1.513916015625000000e+00
-1.116455078125000000e+00
-1.662353515625000000e+00
-2.464599609375000000e+00
-1.728515625000000000e-01
-2.556152343750000000e-01
6.840820312500000000e-01
4.458007812500000000e-01
-1.037597656250000000e-01
6.589355468750000000e-01
1.918457031250000000e+00
-3.686523437500000000e-01
1.394775390625000000e+00
-6.328125000000000000e-01
5.810546875000000000e-01
-1.242675781250000000e-01
-7.309570312500000000e-01
6.135253906250000000e-01
-5.590820312500000000e-02
-5.434570312500000000e-01
-6.623535156250000000e-01
-7.687988281250000000e-01
-2.893066406250000000e-01
-9.035644531250000000e-01
-2.731933593750000000e-01
-6.940917968750000000e-01
7.692871093750000000e-01
-1.348632812500000000e+00
-1.476806640625000000e+00
-2.039550781250000000e+00
-1.352050781250000000e+00
-5.139160156250000000e-01
-2.709960937500000000e-01
-8.417968750000000000e-01
8.229980468750000000e-01
2.473144531250000000e-01
6.330566406250000000e-01
4.650878906250000000e-01
-5.761718750000000000e-01
1.040771484375000000e+00
-5.771484375000000000e-01
5.087890625000000000e-01
4.301757812500000000e-01
-6.552734375000000000e-01
2.578125000000000000e-01
-1.223144531250000000e-01
1.130371093750000000e-01
1.832763671875000000e+00
1.202880859375000000e+00
-1.515625000000000000e+00
1.702392578125000000e+00
-6.721191406250000000e-01
-2.152099609375000000e+00
-2.171142578125000000e+00
-9.067382812500000000e-01
-1.709960937500000000e+00
-1.995361328125000000e+00
-1.912841796875000000e+00
5.361328125000000000e-01
6.857910156250000000e-01
-1.965576171875000000e+00
1.218750000000000000e+00
1.605468750000000000e+00
-6.250000000000000000e-02
1.640625000000000000e-01
1.845703125000000000e-01
2.270507812500000000e-02
2.949218750000000000e-01
1.342773437500000000e+00
1.503173828125000000e+00
2.470703125000000000e-01
1.964843750000000000e+00
-1.078369140625000000e+00
-1.407226562500000000e+00
-1.593017578125000000e+00
-5.341796875000000000e-01
-2.836914062500000000e-01
-1.423095703125000000e+00
8.347167968750000000e-01
-7.753906250000000000e-01
1.076171875000000000e+00
-6.245117187500000000e-01
5.664062500000000000e-01
-1.521972656250000000e+00
-1.261962890625000000e+00
-1.856933593750000000e+00
1.428710937500000000e+00
-9.050292968750000000e-01
2.274414062500000000e+00
-2.624511718750000000e-01
3.479003906250000000e-01
-1.757812500000000000e-01
-2.307128906250000000e-01
-5.363769531250000000e-01
-4.575195312500000000e-01
-4.299316406250000000e-01
-1.406494140625000000e+00
6.098632812500000000e-01
1.243652343750000000e+00
-3.454589843750000000e-01
-6.579589843750000000e-01
1.718750000000000000e-01
1.732666015625000000e+00
-4.052734375000000000e-02
3.989257812500000000e-01
-7.001953125000000000e-01
-6.298828125000000000e-02
4.333496093750000000e-01
-9.970703125000000000e-01
-9.636230468750000000e-01
9.536132812500000000e-01
-1.165771484375000000e+00
1.094970703125000000e+00
2.012207031250000000e+00
2.282714843750000000e-01
4.858398437500000000e-01
1.535156250000000000e+00
-1.975097656250000000e-01
-1.677978515625000000e+00
1.836914062500000000e+00
2.951660156250000000e-01
5.598144531250000000e-01
4.821777343750000000e-01
-6.467285156250000000e-01
-1.923339843750000000e+00
9.570312500000000000e-02
-7.678222656250000000e-01
-3.349609375000000000e-01
3.437500000000000000e-01
-1.168945312500000000e+00
1.540771484375000000e+00
-1.969238281250000000e+00
-2.558593750000000000e-01
2.272949218750000000e-01
-2.546386718750000000e-01
-5.141601562500000000e-01
-7.976074218750000000e-01
9.082031250000000000e-01
1.029785156250000000e+00
1.264648437500000000e+00
1.121337890625000000e+00
1.950927734375000000e+00
1.214599609375000000e+00
4.394531250000000000e-01
2.905273437500000000e-01
1.245117187500000000e+00
1.424804687500000000e+00
-3.603515625000000000e-01
1.132812500000000000e+00
-1.206054687500000000e-01
1.177490234375000000e+00
6.958007812500000000e-01
-8.300781250000000000e-03
-4.008789062500000000e-01
6.289062500000000000e-01
5.449218750000000000e-01
7.492675781250000000e-01
2.702636718750000000e-01
-5.700683593750000000e-01
-8.315429687500000000e-01
1.051513671875000000e+00
-1.035400390625000000e+00
2.556152343750000000e-01
6.811523437500000000e-02
-8.173828125000000000e-01
3.774414062500000000e-01
3.728027343750000000e-01
1.911621093750000000e+00
-2.443847656250000000e-01
1.283935546875000000e+00
1.344238281250000000e+00
1.059326171875000000e+00
-8.225097656250000000e-01
9.082031250000000000e-02
-6.420898437500000000e-02
1.351806640625000000e+00
1.372314453125000000e+00
4.992675781250000000e-01
9.467773437500000000e-01
-7.893066406250000000e-01
7.014160156250000000e-01
1.093261718750000000e+00
4.729003906250000000e-01
-2.722167968750000000e-01
-1.638183593750000000e-01
-1.210937500000000000e-01
-1.486816406250000000e-01
2.229003906250000000e-01
-9.812011718750000000e-01
-1.316406250000000000e+00
-3.125000000000000000e-02
-1.589355468750000000e+00
9.929199218750000000e-01
-8.498535156250000000e-01
1.894775390625000000e+00
-6.911621093750000000e-01
7.192382812500000000e-01
1.030029296875000000e+00
-4.807128906250000000e-01
1.667236328125000000e+00
-9.008789062500000000e-02
3.881835937500000000e-01
-1.706054687500000000e+00
1.590576171875000000e+00
4.704589843750000000e-01
-7.531738281250000000e-01
1.958251953125000000e+00
-9.487304687500000000e-01
1.029785156250000000e+00
6.933593750000000000e-01
1.626708984375000000e+00
-4.440917968750000000e-01
-7.177734375000000000e-02
1.107666015625000000e+00
1.691162109375000000e+00
-6.735839843750000000e-01
-7.067871093750000000e-01
6.176757812500000000e-01
1.821289062500000000e-01
1.127929687500000000e-01
1.258544921875000000e+00
-3.964843750000000000e-01
3.149414062500000000e-02
5.859375000000000000e-02
1.020751953125000000e+00
-1.765136718750000000e-01
1.740478515625000000e+00
-1.430664062500000000e-01
7.475585937500000000e-01
9.355468750000000000e-01
-1.257324218750000000e-01
-2.807617187500000000e-02
-3.508300781250000000e-01
2.659423828125000000e+00
1.767333984375000000e+00
-2.629394531250000000e-01
2.131347656250000000e-01
-2.395019531250000000e-01
1.928710937500000000e-02
3.903808593750000000e-01
-3.217041015625000000e+00
-4.711914062500000000e-02
-3.300781250000000000e-01
2.944091796875000000e+00
-1.750976562500000000e+00
-3.134765625000000000e-01
-8.422851562500000000e-02
-8.056640625000000000e-03
9.379882812500000000e-01
-1.891113281250000000e+00
1.404541015625000000e+00
1.422363281250000000e+00
-7.631835937500000000e-01
7.307128906250000000e-01
1.004638671875000000e+00
6.240234375000000000e-01
2.612304687500000000e-02
-6.279296875000000000e-01
9.528808593750000000e-01
4.697265625000000000e-01
-6.555175781250000000e-01
1.990234375000000000e+00
1.582519531250000000e+00
1.639892578125000000e+00
4.916992187500000000e-01
-5.151367187500000000e-02
-1.753173828125000000e+00
7.878417968750000000e-01
-3.811035156250000000e-01
7.556152343750000000e-01
-9.291992187500000000e-01
-2.758789062500000000e-01
5.546875000000000000e-01
-2.009277343750000000e-01
-4.438476562500000000e-01
4.077148437500000000e-01
2.138916015625000000e+00
-1.210449218750000000e+00
-5.959472656250000000e-01
-5.710449218750000000e-01
1.060546875000000000e+00
1.385742187500000000e+00
1.506591796875000000e+00
1.630859375000000000e-01
7.307128906250000000e-01
-1.108398437500000000e-01
7.038574218750000000e-01
-4.853515625000000000e-01
-2.373046875000000000e-01
2.265625000000000000e-01
-1.085205078125000000e+00
-6.311035156250000000e-01
-3.486328125000000000e-01
1.754150390625000000e+00
1.125732421875000000e+00
-5.029296875000000000e-01
-7.170410156250000000e-01
1.249023437500000000e+00
4.804687500000000000e-01
-8.959960937500000000e-02
3.518066406250000000e-01
-2.217041015625000000e+00
4.555664062500000000e-01
6.665039062500000000e-02
-2.424316406250000000e-01
9.812011718750000000e-01
-1.733398437500000000e-02
-3.559570312500000000e-01
1.174316406250000000e+00
7.536621093750000000e-01
-1.844726562500000000e+00
-2.709960937500000000e-02
5.854492187500000000e-01
3.190917968750000000e-01
2.226562500000000000e-01
4.389648437500000000e-01
-5.932617187500000000e-02
-1.545410156250000000e-01
1.027832031250000000e-01
6.179199218750000000e-01
-1.159912109375000000e+00
-2.392578125000000000e-02
-1.779785156250000000e-01
