5.747070312500000000e-01
1.013671875000000000e+00
1.279296875000000000e-01
8.632812500000000000e-01
1.162841796875000000e+00
-3.222656250000000000e-02
-1.473876953125000000e+00
1.342773437500000000e-01
-1.878906250000000000e+00
-3.317871093750000000e-01
-2.326660156250000000e-01
6.350097656250000000e-01
5.356445312500000000e-01
1.660888671875000000e+00
-6.113281250000000000e-01
1.654541015625000000e+00
-3.503417968750000000e-01
-1.351318359375000000e+00
-1.742431640625000000e+00
-1.939208984375000000e+00
-1.926269531250000000e-01
6.113281250000000000e-01
-1.213378906250000000e+00
-5.996093750000000000e-01
-2.935302734375000000e+00
5.424804687500000000e-01
1.437744140625000000e+00
5.168457031250000000e-01
-7.761230468750000000e-01
1.210937500000000000e-01
-2.392578125000000000e-02
-3.466796875000000000e-01
4.194335937500000000e-01
4.228515625000000000e-01
-2.919921875000000000e-01
-4.291992187500000000e-01
-6.689453125000000000e-02
-1.117431640625000000e+00
5.859375000000000000e-03
1.578857421875000000e+00
-1.706542968750000000e-01
-5.981445312500000000e-02
8.471679687500000000e-02
8.837890625000000000e-02
-4.758300781250000000e-01
7.934570312500000000e-02
-1.306152343750000000e-01
6.877441406250000000e-01
3.618164062500000000e-01
-1.132568359375000000e+00
-1.562500000000000000e-02
-2.600097656250000000e-01
-1.330322265625000000e+00
-1.735839843750000000e-01
2.529296875000000000e-01
1.522216796875000000e+00
3.935546875000000000e-01
1.173583984375000000e+00
-7.380371093750000000e-01
-2.258300781250000000e-01
1.076904296875000000e+00
-5.158691406250000000e-01
3.154296875000000000e-01
6.904296875000000000e-01
-1.018066406250000000e-01
4.643554687500000000e-01
1.826171875000000000e-01
4.069824218750000000e-01
2.138183593750000000e+00
2.514648437500000000e-02
-1.826171875000000000e-01
4.150390625000000000e-02
-1.370361328125000000e+00
5.192871093750000000e-01
1.918457031250000000e+00
-6.870117187500000000e-01
4.628906250000000000e-01
-1.698974609375000000e+00
2.464843750000000000e+00
4.362792968750000000e-01
-1.441650390625000000e+00
3.330078125000000000e-01
-1.245117187500000000e-01
-1.938964843750000000e+00
-2.622070312500000000e-01
1.140869140625000000e+00
1.093017578125000000e+00
8.266601562500000000e-01
-1.943359375000000000e-01
1.583007812500000000e+00
4.438476562500000000e-01
-3.466796875000000000e-01
-4.226074218750000000e-01
-2.263183593750000000e+00
-7.707519531250000000e-01
2.077636718750000000e-01
-2.927246093750000000e-01
6.469726562500000000e-02
-2.839355468750000000e-01
-3.596191406250000000e-01
-1.265136718750000000e+00
5.791015625000000000e-01
-7.722167968750000000e-01
-2.175292968750000000e-01
-1.367187500000000000e-02
1.956054687500000000e+00
1.398681640625000000e+00
-1.187988281250000000e+00
6.081542968750000000e-01
-4.716796875000000000e-01
-2.004394531250000000e-01
8.422851562500000000e-01
6.040039062500000000e-01
-6.049804687500000000e-01
2.082763671875000000e+00
-9.987792968750000000e-01
-1.284179687500000000e-01
-1.784423828125000000e+00
-8.642578125000000000e-02
4.450683593750000000e-01
4.052734375000000000e-01
-1.726074218750000000e-01
-4.802246093750000000e-01
7.407226562500000000e-01
3.291015625000000000e-01
-7.241210937500000000e-01
-1.377441406250000000e+00
-7.341308593750000000e-01
1.206542968750000000e+00
7.722167968750000000e-01
1.393310546875000000e+00
8.542480468750000000e-01
-3.662109375000000000e-01
-1.174804687500000000e+00
-3.425292968750000000e-01
-1.802490234375000000e+00
3.608398437500000000e-01
1.708984375000000000e-02
-1.380615234375000000e+00
-1.188964843750000000e-01
2.478027343750000000e-01
-1.025390625000000000e-02
-2.014160156250000000e+00
-9.106445312500000000e-02
8.520507812500000000e-02
5.507812500000000000e-01
4.370117187500000000e-01
7.429199218750000000e-01
-6.855468750000000000e-01
8.813476562500000000e-02
4.418945312500000000e-01
5.747070312500000000e-01
-5.102539062500000000e-01
-3.930664062500000000e-02
9.506835937500000000e-01
3.393554687500000000e-01
-2.270507812500000000e-01
-1.813964843750000000e-01
1.427001953125000000e+00
1.687988281250000000e+00
2.390136718750000000e-01
1.838867187500000000e+00
-3.955078125000000000e-01
-5.104980468750000000e-01
-3.259277343750000000e-01
-8.642578125000000000e-01
3.535156250000000000e-01
1.013183593750000000e-01
-8.525390625000000000e-01
1.194335937500000000e+00
-7.602539062500000000e-01
6.918945312500000000e-01
9.936523437500000000e-02
9.841308593750000000e-01
-3.032226562500000000e-01
-1.362548828125000000e+00
7.424316406250000000e-01
8.996582031250000000e-01
6.562500000000000000e-01
-1.056640625000000000e+00
5.217285156250000000e-01
5.749511718750000000e-01
-4.873046875000000000e-01
-3.713378906250000000e-01
-5.297851562500000000e-02
2.854003906250000000e-01
2.212646484375000000e+00
-3.322753906250000000e-01
4.614257812500000000e-02
1.683837890625000000e+00
5.107421875000000000e-01
1.950683593750000000e+00
7.175292968750000000e-01
-1.828857421875000000e+00
-7.211914062500000000e-01
1.391601562500000000e-02
-3.186035156250000000e-01
-3.786621093750000000e-01
1.608886718750000000e-01
3.920898437500000000e-01
-6.213378906250000000e-01
-6.562500000000000000e-01
-1.358154296875000000e+00
-1.849853515625000000e+00
-1.743408203125000000e+00
-6.093750000000000000e-01
-1.015136718750000000e+00
4.489746093750000000e-01
1.965332031250000000e-01
-5.258789062500000000e-01
7.873535156250000000e-01
-4.892578125000000000e-01
9.458007812500000000e-01
-7.697753906250000000e-01
-1.784179687500000000e+00
7.460937500000000000e-01
3.085937500000000000e-01
-1.632324218750000000e+00
4.687500000000000000e-01
6.164550781250000000e-01
-7.614746093750000000e-01
3.315429687500000000e-01
1.954833984375000000e+00
1.848144531250000000e-01
6.857910156250000000e-01
4.609375000000000000e-01
1.079101562500000000e+00
-3.527832031250000000e-01
-5.004882812500000000e-02
-4.780273437500000000e-01
-1.042724609375000000e+00
-7.434082031250000000e-01
-1.731201171875000000e+00
-1.420898437500000000e+00
-4.819335937500000000e-01
-1.685058593750000000e+00
-3.220214843750000000e-01
-8.291015625000000000e-01
4.331054687500000000e-01
-1.003417968750000000e+00
9.946289062500000000e-01
-3.615722656250000000e-01
-2.551269531250000000e-01
1.398681640625000000e+00
7.700195312500000000e-01
7.429199218750000000e-01
7.934570312500000000e-02
-9.104003906250000000e-01
3.801269531250000000e-01
2.034423828125000000e+00
1.303466796875000000e+00
-1.614257812500000000e+00
2.075195312500000000e-01
1.501953125000000000e+00
-1.638183593750000000e-01
-4.111328125000000000e-01
1.418457031250000000e-01
-4.511718750000000000e-01
-1.470947265625000000e+00
-1.735839843750000000e+00
-1.080810546875000000e+00
-1.552978515625000000e+00
-1.743164062500000000e-01
-1.572509765625000000e+00
-2.646484375000000000e-01
-1.369628906250000000e+00
-2.180175781250000000e+00
-1.375732421875000000e+00
-5.722656250000000000e-01
2.270507812500000000e-02
7.377929687500000000e-01
5.393066406250000000e-01
-1.452636718750000000e-01
-4.509277343750000000e-01
2.244384765625000000e+00
5.639648437500000000e-02
-3.117675781250000000e-01
-1.373779296875000000e+00
-9.907226562500000000e-01
-2.442138671875000000e+00
-2.131347656250000000e-01
-2.846679687500000000e+00
-3.896484375000000000e-01
-1.711181640625000000e+00
-1.306396484375000000e+00
-6.215820312500000000e-01
-1.684570312500000000e+00
-1.711425781250000000e-01
7.153320312500000000e-02
-1.173095703125000000e+00
-3.740234375000000000e-01
-8.984375000000000000e-01
-5.805664062500000000e-01
-3.259521484375000000e+00
-2.363769531250000000e+00
-9.936523437500000000e-02
-1.000000000000000000e+00
-2.919921875000000000e-01
-1.226806640625000000e+00
-9.987792968750000000e-01
-3.005371093750000000e-01
-4.001464843750000000e-01
2.275390625000000000e-01
-9.243164062500000000e-01
3.896484375000000000e-01
1.352050781250000000e+00
1.193115234375000000e+00
1.564941406250000000e-01
1.206787109375000000e+00
-2.387695312500000000e-01
-2.631835937500000000e-01
-1.395507812500000000e+00
7.084960937500000000e-01
2.841796875000000000e-01
-1.720703125000000000e+00
-1.430908203125000000e+00
-1.171142578125000000e+00
2.905273437500000000e-01
-2.441406250000000000e-01
8.325195312500000000e-01
-9.526367187500000000e-01
7.778320312500000000e-01
-8.967285156250000000e-01
-6.455078125000000000e-01
-4.072265625000000000e-01
1.945800781250000000e-01
1.653320312500000000e+00
-4.794921875000000000e-01
1.273193359375000000e+00
-6.184082031250000000e-01
-2.404785156250000000e-01
4.650878906250000000e-01
6.215820312500000000e-01
4.428710937500000000e-01
3.874511718750000000e-01
-9.638671875000000000e-01
-3.364257812500000000e-01
8.535156250000000000e-01
6.079101562500000000e-01
-2.634277343750000000e-01
-8.674316406250000000e-01
-1.074218750000000000e-01
1.662597656250000000e-01
4.479980468750000000e-01
5.932617187500000000e-02
9.130859375000000000e-01
1.192138671875000000e+00
1.154296875000000000e+00
1.512207031250000000e+00
2.886230468750000000e+00
5.930175781250000000e-01
6.411132812500000000e-01
1.604003906250000000e-01
-2.573242187500000000e-01
7.543945312500000000e-02
9.438476562500000000e-01
1.010253906250000000e+00
-5.456542968750000000e-01
1.107666015625000000e+00
5.166015625000000000e-01
2.134277343750000000e+00
-5.227050781250000000e-01
1.227783203125000000e+00
-1.268798828125000000e+00
-4.758300781250000000e-01
-9.760742187500000000e-01
-6.613769531250000000e-01
1.318115234375000000e+00
-1.347656250000000000e-01
1.220703125000000000e+00
1.462646484375000000e+00
1.232910156250000000e-01
1.350097656250000000e+00
1.145507812500000000e+00
-2.314453125000000000e-01
1.774658203125000000e+00
2.340820312500000000e+00
3.577392578125000000e+00
1.654541015625000000e+00
8.601074218750000000e-01
-3.476562500000000000e-01
1.524169921875000000e+00
1.018554687500000000e+00
1.355957031250000000e+00
1.398925781250000000e-01
6.381835937500000000e-01
7.895507812500000000e-01
-2.504882812500000000e-01
1.471923828125000000e+00
2.274658203125000000e+00
3.715820312500000000e-01
1.511474609375000000e+00
-9.895019531250000000e-01
-6.047363281250000000e-01
-1.448486328125000000e+00
-4.492187500000000000e-02
-1.333251953125000000e+00
-7.429199218750000000e-01
7.504882812500000000e-01
4.475097656250000000e-01
-1.630859375000000000e-01
6.215820312500000000e-01
1.726074218750000000e-01
2.606689453125000000e+00
2.930419921875000000e+00
6.767578125000000000e-01
-1.093750000000000000e+00
2.220458984375000000e+00
8.154296875000000000e-01
3.027343750000000000e-01
-3.410644531250000000e-01
-1.532470703125000000e+00
5.437011718750000000e-01
-6.469726562500000000e-02
8.518066406250000000e-01
-8.376464843750000000e-01
-8.840332031250000000e-01
-8.286132812500000000e-01
1.321777343750000000e+00
-2.543945312500000000e-01
1.362304687500000000e-01
-1.651367187500000000e+00
-8.254394531250000000e-01
9.533691406250000000e-01
4.221191406250000000e-01
1.386230468750000000e+00
1.145019531250000000e+00
7.036132812500000000e-01
6.340332031250000000e-01
2.486572265625000000e+00
2.475341796875000000e+00
1.996337890625000000e+00
1.310791015625000000e+00
-9.785156250000000000e-01
-4.216308593750000000e-01
6.811523437500000000e-01
-6.896972656250000000e-01
1.369873046875000000e+00
-8.293457031250000000e-01
-6.010742187500000000e-01
-1.956787109375000000e+00
1.036376953125000000e+00
-4.931640625000000000e-01
-3.439941406250000000e-01
-2.756347656250000000e-01
-1.526367187500000000e+00
-1.155761718750000000e+00
2.426757812500000000e-01
1.262451171875000000e+00
-9.243164062500000000e-01
1.490234375000000000e+00
-5.444335937500000000e-02
-1.367675781250000000e+00
2.082519531250000000e-01
2.034179687500000000e+00
1.757812500000000000e-02
3.979492187500000000e-01
8.603515625000000000e-01
1.322998046875000000e+00
1.976074218750000000e+00
-3.227539062500000000e-01
6.071777343750000000e-01
-6.884765625000000000e-02
-1.468750000000000000e+00
-1.854003906250000000e+00
1.023193359375000000e+00
9.523925781250000000e-01
3.603515625000000000e-01
-2.635009765625000000e+00
9.138183593750000000e-01
-2.515380859375000000e+00
7.224121093750000000e-01
-1.558593750000000000e+00
3.059082031250000000e-01
-5.861816406250000000e-01
-8.779296875000000000e-01
-1.148681640625000000e+00
5.964355468750000000e-01
-2.583007812500000000e-01
1.906005859375000000e+00
2.320556640625000000e+00
-1.993652343750000000e+00
2.895507812500000000e-01
1.032226562500000000e+00
2.058837890625000000e+00
1.684082031250000000e+00
3.539794921875000000e+00
1.738281250000000000e-01
-1.665771484375000000e+00
-1.278320312500000000e+00
-1.622314453125000000e+00
1.049316406250000000e+00
3.210449218750000000e-01
1.380371093750000000e+00
1.236572265625000000e+00
9.228515625000000000e-02
1.807373046875000000e+00
-3.547363281250000000e-01
9.648437500000000000e-01
7.883300781250000000e-01
-1.236083984375000000e+00
2.246093750000000000e-02
1.355712890625000000e+00
1.734375000000000000e+00
-7.438964843750000000e-01
2.534423828125000000e+00
8.977050781250000000e-01
4.394531250000000000e-01
6.757812500000000000e-01
2.478027343750000000e+00
1.827392578125000000e+00
3.020019531250000000e-01
1.321289062500000000e+00
2.094726562500000000e+00
9.611816406250000000e-01
3.740234375000000000e-01
-1.344970703125000000e+00
-2.329101562500000000e+00
-2.619873046875000000e+00
5.722656250000000000e-01
9.472656250000000000e-01
3.627929687500000000e-01
1.096679687500000000e+00
9.572753906250000000e-01
1.812255859375000000e+00
0.000000000000000000e+00
2.944580078125000000e+00
-1.912353515625000000e+00
-3.940429687500000000e-01
-1.135009765625000000e+00
-2.843505859375000000e+00
1.318603515625000000e+00
-7.075195312500000000e-01
3.881835937500000000e-02
6.469726562500000000e-01
-1.104003906250000000e+00
-3.955078125000000000e-01
5.439453125000000000e-01
1.216552734375000000e+00
9.252929687500000000e-02
1.093750000000000000e+00
6.796875000000000000e-01
7.421875000000000000e-01
-4.738769531250000000e-01
-3.474121093750000000e-01
-6.850585937500000000e-01
-2.545898437500000000e+00
-1.751464843750000000e+00
-5.266113281250000000e-01
2.109375000000000000e-01
2.117919921875000000e+00
1.562011718750000000e+00
1.773925781250000000e+00
1.024658203125000000e+00
6.860351562500000000e-01
2.961425781250000000e-01
-2.602539062500000000e-01
-1.866455078125000000e+00
1.572509765625000000e+00
-1.503906250000000000e-01
-3.825683593750000000e-01
-1.494628906250000000e+00
4.848632812500000000e-01
-1.416259765625000000e+00
-1.123046875000000000e-01
-5.249023437500000000e-01
1.974365234375000000e+00
5.109863281250000000e-01
1.340820312500000000e+00
2.133056640625000000e+00
1.479736328125000000e+00
-1.290039062500000000e+00
-1.742187500000000000e+00
4.782714843750000000e-01
-4.350585937500000000e-01
-1.490966796875000000e+00
-2.565917968750000000e-01
1.649414062500000000e+00
-1.397949218750000000e+00
-1.261718750000000000e+00
1.012207031250000000e+00
1.901367187500000000e+00
-1.224609375000000000e+00
1.355468750000000000e+00
1.430175781250000000e+00
-1.005859375000000000e-01
9.133300781250000000e-01
2.133056640625000000e+00
-4.565429687500000000e-02
-8.654785156250000000e-01
5.541992187500000000e-02
-1.052978515625000000e+00
6.186523437500000000e-01
8.269042968750000000e-01
-5.419921875000000000e-02
2.114990234375000000e+00
1.170654296875000000e+00
-5.922851562500000000e-01
-2.416992187500000000e+00
-3.593750000000000000e-01
-2.774658203125000000e+00
5.356445312500000000e-01
-2.927246093750000000e-01
-5.205078125000000000e-01
2.685546875000000000e-03
1.437255859375000000e+00
1.127929687500000000e+00
2.379150390625000000e+00
6.198730468750000000e-01
-3.540039062500000000e-02
3.222656250000000000e-01
-6.103515625000000000e-03
-1.095214843750000000e+00
5.048828125000000000e-01
-1.021972656250000000e+00
1.083984375000000000e+00
3.481445312500000000e-01
-5.517578125000000000e-01
-5.834960937500000000e-01
-6.398925781250000000e-01
-1.115722656250000000e-01
1.171875000000000000e+00
8.837890625000000000e-01
6.374511718750000000e-01
-4.504394531250000000e-01
6.608886718750000000e-01
1.462890625000000000e+00
1.453125000000000000e+00
1.353027343750000000e+00
2.910156250000000000e-01
-2.783203125000000000e-02
2.095703125000000000e+00
-1.595214843750000000e+00
-8.381347656250000000e-01
-8.085937500000000000e-01
8.725585937500000000e-01
2.382812500000000000e-01
-8.017578125000000000e-01
-3.452148437500000000e-01
-6.511230468750000000e-01
-8.950195312500000000e-01
-2.233886718750000000e-01
-9.331054687500000000e-01
1.013183593750000000e+00
-4.018554687500000000e-01
3.432617187500000000e-01
6.791992187500000000e-01
2.197265625000000000e-01
1.405029296875000000e+00
-1.515869140625000000e+00
5.688476562500000000e-02
3.786621093750000000e-01
5.783691406250000000e-01
-1.186523437500000000e-01
1.577880859375000000e+00
-4.616699218750000000e-01
-1.256835937500000000e+00
5.512695312500000000e-01
-2.011718750000000000e-01
-4.279785156250000000e-01
-2.160644531250000000e-01
-5.976562500000000000e-01
1.206298828125000000e+00
9.248046875000000000e-01
5.402832031250000000e-01
-2.807617187500000000e-01
-2.336425781250000000e-01
2.316406250000000000e+00
-4.907226562500000000e-02
4.948730468750000000e-01
-5.786132812500000000e-01
1.527099609375000000e+00
-2.612304687500000000e-01
-1.882324218750000000e-01
-6.706542968750000000e-01
6.315917968750000000e-01
2.929687500000000000e-01
-8.381347656250000000e-01
-4.929199218750000000e-01
-6.884765625000000000e-02
-1.608886718750000000e-01
9.987792968750000000e-01
5.109863281250000000e-01
7.272949218750000000e-01
-3.491210937500000000e-02
5.124511718750000000e-01
-1.560058593750000000e-01
1.027832031250000000e-01
1.062255859375000000e+00
1.278076171875000000e+00
1.110351562500000000e+00
-3.330078125000000000e-01
-2.148437500000000000e-02
-5.725097656250000000e-01
-1.069091796875000000e+00
-3.295898437500000000e-01
-4.064941406250000000e-01
-1.290527343750000000e+00
-3.195800781250000000e-01
3.657226562500000000e-01
2.182861328125000000e+00
-5.913085937500000000e-01
-1.439208984375000000e+00
1.504638671875000000e+00
1.404541015625000000e+00
-1.352783203125000000e+00
5.000000000000000000e-01
-1.578369140625000000e+00
1.188720703125000000e+00
9.047851562500000000e-01
-1.946533203125000000e+00
1.080322265625000000e+00
8.662109375000000000e-01
5.383300781250000000e-01
-5.937500000000000000e-01
1.237060546875000000e+00
7.790527343750000000e-01
-4.824218750000000000e-01
1.054443359375000000e+00
-1.286376953125000000e+00
4.599609375000000000e-01
-2.368164062500000000e-01
3.935546875000000000e-01
3.481445312500000000e-01
-1.034667968750000000e+00
-1.583740234375000000e+00
2.424072265625000000e+00
-4.465332031250000000e-01
-1.066650390625000000e+00
-7.133789062500000000e-01
1.299072265625000000e+00
1.640625000000000000e-01
-2.795410156250000000e-01
9.458007812500000000e-01
-1.510009765625000000e+00
-8.996582031250000000e-01
-5.895996093750000000e-01
1.949951171875000000e+00
-1.270507812500000000e+00
-5.053710937500000000e-01
2.016601562500000000e-01
1.586181640625000000e+00
9.033203125000000000e-02
-2.687988281250000000e-01
6.884765625000000000e-02
-1.046386718750000000e+00
2.646484375000000000e-01
-1.387451171875000000e+00
7.570800781250000000e-01
-7.180175781250000000e-01
-6.909179687500000000e-02
-1.806640625000000000e-01
-5.302734375000000000e-01
-1.215820312500000000e-01
5.664062500000000000e-01
-2.602539062500000000e-01
-6.638183593750000000e-01
-6.916503906250000000e-01
-1.549560546875000000e+00
6.306152343750000000e-01
-3.203125000000000000e-01
2.247070312500000000e+00
8.037109375000000000e-01
9.833984375000000000e-01
8.437500000000000000e-01
-9.194335937500000000e-01
-8.725585937500000000e-01
-3.984375000000000000e-01
7.885742187500000000e-01
-1.056396484375000000e+00
-2.089599609375000000e+00
-1.820800781250000000e+00
2.441406250000000000e-03
-1.637451171875000000e+00
9.772949218750000000e-01
9.746093750000000000e-01
-1.544189453125000000e+00
1.030761718750000000e+00
-4.279785156250000000e-01
-5.288085937500000000e-01
3.400878906250000000e-01
1.253173828125000000e+00
-8.811035156250000000e-01
1.288574218750000000e+00
