-8.400878906250000000e-01
1.997314453125000000e+00
-6.535644531250000000e-01
2.246093750000000000e-01
-1.557617187500000000e-01
1.696777343750000000e-01
2.041015625000000000e-01
-7.436523437500000000e-01
3.024902343750000000e-01
2.758789062500000000e-01
-9.045410156250000000e-01
-3.466796875000000000e-01
-5.959472656250000000e-01
7.119140625000000000e-01
1.371093750000000000e+00
2.858886718750000000e-01
-6.933593750000000000e-01
5.034179687500000000e-01
8.959960937500000000e-02
-1.662597656250000000e-01
8.977050781250000000e-01
-3.430175781250000000e-01
4.694824218750000000e-01
5.378417968750000000e-01
1.347656250000000000e-01
3.845214843750000000e-01
-1.341552734375000000e+00
2.573242187500000000e-01
-1.172851562500000000e+00
4.790039062500000000e-01
8.422851562500000000e-02
5.754394531250000000e-01
8.610839843750000000e-01
4.719238281250000000e-01
2.196289062500000000e+00
3.571777343750000000e-01
-2.487792968750000000e-01
1.328857421875000000e+00
-1.150634765625000000e+00
-6.789550781250000000e-01
-1.327636718750000000e+00
-3.776855468750000000e-01
-1.011474609375000000e+00
3.222656250000000000e-02
-4.577636718750000000e-01
6.979980468750000000e-01
-7.055664062500000000e-01
1.399658203125000000e+00
2.104492187500000000e-01
-5.698242187500000000e-01
9.296875000000000000e-01
-4.694824218750000000e-01
3.779296875000000000e-01
1.855468750000000000e-02
3.635253906250000000e-01
-3.598632812500000000e-01
9.379882812500000000e-01
-8.874511718750000000e-01
1.486328125000000000e+00
1.325683593750000000e+00
-1.121337890625000000e+00
-5.507812500000000000e-01
1.305908203125000000e+00
1.867675781250000000e-01
9.670410156250000000e-01
-1.733398437500000000e-01
1.687988281250000000e+00
-8.454589843750000000e-01
-4.152832031250000000e-01
1.419677734375000000e+00
3.703613281250000000e-01
-7.280273437500000000e-01
-3.620605468750000000e-01
7.314453125000000000e-01
3.857421875000000000e-02
5.297851562500000000e-02
7.106933593750000000e-01
1.348876953125000000e+00
2.334716796875000000e+00
-1.515136718750000000e+00
-1.344970703125000000e+00
2.646484375000000000e-01
1.042480468750000000e-01
5.263671875000000000e-01
-2.492675781250000000e-01
9.570312500000000000e-02
-1.133544921875000000e+00
-3.808593750000000000e-01
4.562988281250000000e-01
2.922363281250000000e-01
-6.389160156250000000e-01
-9.753417968750000000e-01
3.984375000000000000e-01
-2.561035156250000000e-01
-6.362304687500000000e-01
-2.829589843750000000e-01
-1.922363281250000000e+00
5.297851562500000000e-02
8.168945312500000000e-01
2.897949218750000000e-01
1.257324218750000000e+00
1.019775390625000000e+00
-6.096191406250000000e-01
2.092285156250000000e-01
8.811035156250000000e-01
-2.395019531250000000e-01
-5.187988281250000000e-01
-8.666992187500000000e-02
1.587158203125000000e+00
1.857666015625000000e+00
-1.562744140625000000e+00
3.515625000000000000e-02
2.978515625000000000e-02
-5.151367187500000000e-01
1.043701171875000000e+00
-1.564941406250000000e-01
1.266845703125000000e+00
-5.515136718750000000e-01
-2.243652343750000000e-01
8.603515625000000000e-01
-7.827148437500000000e-01
-7.187500000000000000e-01
-2.983398437500000000e-01
7.170410156250000000e-01
-3.242187500000000000e-01
-1.580322265625000000e+00
4.316406250000000000e-01
-9.060058593750000000e-01
6.237792968750000000e-01
1.298339843750000000e+00
-7.641601562500000000e-01
4.570312500000000000e-01
-7.006835937500000000e-01
7.634277343750000000e-01
1.269775390625000000e+00
-1.749511718750000000e+00
6.445312500000000000e-02
1.195800781250000000e+00
-1.394042968750000000e+00
6.359863281250000000e-01
2.265625000000000000e-01
2.460937500000000000e+00
-6.040039062500000000e-01
1.800781250000000000e+00
-2.713378906250000000e+00
9.597167968750000000e-01
8.400878906250000000e-01
-2.237792968750000000e+00
1.919921875000000000e+00
-4.506835937500000000e-01
-6.711425781250000000e-01
6.806640625000000000e-01
-1.276855468750000000e+00
5.495605468750000000e-01
3.071289062500000000e-01
8.540039062500000000e-01
-1.721191406250000000e-01
-8.173828125000000000e-01
1.231445312500000000e+00
-7.897949218750000000e-01
9.643554687500000000e-01
-1.669921875000000000e-01
5.786132812500000000e-02
3.625488281250000000e-01
-1.406738281250000000e+00
-7.668457031250000000e-01
7.917480468750000000e-01
6.118164062500000000e-01
-3.432617187500000000e-01
-4.777832031250000000e-01
-8.791503906250000000e-01
-1.601562500000000000e-01
-1.908935546875000000e+00
-1.171386718750000000e+00
-9.375000000000000000e-01
-3.310546875000000000e-01
1.327392578125000000e+00
-1.324951171875000000e+00
-1.103515625000000000e+00
1.112548828125000000e+00
-4.379882812500000000e-01
-1.489257812500000000e-01
-1.512451171875000000e+00
-1.297119140625000000e+00
7.229003906250000000e-01
-9.194335937500000000e-01
6.633300781250000000e-01
1.217041015625000000e+00
1.264160156250000000e+00
2.517089843750000000e-01
5.302734375000000000e-01
4.306640625000000000e-01
1.664062500000000000e+00
2.828613281250000000e+00
-6.625976562500000000e-01
-7.531738281250000000e-01
-1.807373046875000000e+00
-1.635742187500000000e+00
-1.063964843750000000e+00
3.000488281250000000e-01
-8.835449218750000000e-01
1.307861328125000000e+00
3.510742187500000000e-01
1.185546875000000000e+00
-2.297363281250000000e-01
-2.028564453125000000e+00
-1.334960937500000000e+00
-5.986328125000000000e-01
-1.244384765625000000e+00
1.158691406250000000e+00
-1.044677734375000000e+00
-9.277343750000000000e-02
1.802978515625000000e+00
8.200683593750000000e-01
9.296875000000000000e-01
-1.979980468750000000e-01
-4.804687500000000000e-01
1.462402343750000000e+00
-1.104736328125000000e+00
-3.227539062500000000e-01
9.301757812500000000e-01
-1.118164062500000000e+00
-2.919921875000000000e-01
4.514160156250000000e-01
-7.380371093750000000e-01
-1.664794921875000000e+00
7.180175781250000000e-01
-5.886230468750000000e-01
1.327392578125000000e+00
-1.892089843750000000e-01
1.158447265625000000e+00
1.240722656250000000e+00
-8.308105468750000000e-01
-1.168212890625000000e+00
-1.026611328125000000e+00
1.097900390625000000e+00
-1.302978515625000000e+00
3.369140625000000000e-01
-9.348144531250000000e-01
-3.842773437500000000e-01
-7.631835937500000000e-01
-1.351806640625000000e+00
4.831542968750000000e-01
-5.878906250000000000e-01
1.529785156250000000e+00
1.621826171875000000e+00
-1.222412109375000000e+00
6.340332031250000000e-01
-2.421142578125000000e+00
2.441406250000000000e-01
-2.724609375000000000e-01
-9.252929687500000000e-02
-1.503906250000000000e-01
-6.022949218750000000e-01
8.417968750000000000e-01
-2.382812500000000000e-01
-1.202636718750000000e+00
5.959472656250000000e-01
-5.583496093750000000e-01
-3.554687500000000000e-01
-8.454589843750000000e-01
1.096191406250000000e-01
-1.282958984375000000e+00
2.580566406250000000e-01
-3.002929687500000000e-01
-8.928222656250000000e-01
-1.081054687500000000e+00
2.294921875000000000e-02
-2.460937500000000000e-01
-1.637207031250000000e+00
-9.301757812500000000e-02
1.209960937500000000e+00
2.050781250000000000e-01
1.127197265625000000e+00
-2.385253906250000000e-01
1.308593750000000000e-01
1.085937500000000000e+00
-3.291015625000000000e-01
-2.631835937500000000e-01
1.055175781250000000e+00
5.117187500000000000e-01
2.629394531250000000e-01
1.245849609375000000e+00
9.765625000000000000e-01
3.015136718750000000e-01
-1.158447265625000000e+00
7.812500000000000000e-01
-1.103759765625000000e+00
1.243408203125000000e+00
8.750000000000000000e-01
1.020751953125000000e+00
-3.232421875000000000e-01
-4.477539062500000000e-01
-4.064941406250000000e-01
-1.137207031250000000e+00
-1.339599609375000000e+00
7.299804687500000000e-02
-1.429931640625000000e+00
-8.271484375000000000e-01
8.498535156250000000e-01
1.100097656250000000e+00
2.295898437500000000e+00
-7.421875000000000000e-01
-2.216796875000000000e-01
-1.096923828125000000e+00
1.938476562500000000e+00
6.940917968750000000e-01
-2.707519531250000000e-01
5.908203125000000000e-02
1.240966796875000000e+00
-1.187255859375000000e+00
8.134765625000000000e-01
-4.321289062500000000e-01
3.054199218750000000e-01
-5.500488281250000000e-01
-4.287109375000000000e-01
-3.178710937500000000e-01
-1.507080078125000000e+00
9.912109375000000000e-02
-3.320312500000000000e-02
-4.638671875000000000e-01
-1.353027343750000000e+00
-6.552734375000000000e-01
-1.444824218750000000e+00
-3.449707031250000000e-01
-1.408691406250000000e+00
-2.187255859375000000e+00
6.237792968750000000e-01
-5.004882812500000000e-02
2.805175781250000000e-01
-2.246093750000000000e-01
1.487060546875000000e+00
-3.991699218750000000e-01
4.091796875000000000e-01
-1.301025390625000000e+00
-2.856445312500000000e-01
-1.363525390625000000e+00
9.421386718750000000e-01
-1.752929687500000000e-01
2.160644531250000000e-01
-5.078125000000000000e-02
-1.757568359375000000e+00
1.188964843750000000e-01
-5.490722656250000000e-01
8.120117187500000000e-01
-1.066406250000000000e+00
4.331054687500000000e-01
-3.483886718750000000e-01
-3.642578125000000000e-01
-2.404785156250000000e-01
6.909179687500000000e-02
2.717285156250000000e-01
-6.662597656250000000e-01
3.320312500000000000e-02
-1.062500000000000000e+00
1.025390625000000000e+00
1.636962890625000000e+00
1.127685546875000000e+00
3.986816406250000000e-01
-5.490722656250000000e-01
-1.425781250000000000e+00
-8.190917968750000000e-01
2.685546875000000000e-01
5.048828125000000000e-01
-4.077148437500000000e-01
-7.934570312500000000e-02
1.933593750000000000e-01
1.362548828125000000e+00
-4.077148437500000000e-01
-5.571289062500000000e-01
-3.752441406250000000e-01
5.224609375000000000e-02
1.330566406250000000e-01
-3.693847656250000000e-01
-2.376708984375000000e+00
-4.296875000000000000e-01
-8.469238281250000000e-01
-8.288574218750000000e-01
1.022949218750000000e-01
2.416992187500000000e-01
-5.197753906250000000e-01
-1.442871093750000000e-01
-9.189453125000000000e-01
-5.664062500000000000e-02
5.705566406250000000e-01
-8.344726562500000000e-01
-7.416992187500000000e-01
-3.868652343750000000e+00
9.362792968750000000e-01
2.807617187500000000e-01
8.803710937500000000e-01
-6.770019531250000000e-01
1.900634765625000000e+00
-4.807128906250000000e-01
-1.242675781250000000e-01
-7.397460937500000000e-01
-7.583007812500000000e-01
5.808105468750000000e-01
-2.010986328125000000e+00
1.589111328125000000e+00
2.268066406250000000e-01
-5.761718750000000000e-02
-2.124023437500000000e-02
-1.563476562500000000e+00
-4.147949218750000000e-01
2.541503906250000000e-01
-1.809082031250000000e-01
-2.782714843750000000e+00
-8.027343750000000000e-01
-7.170410156250000000e-01
3.603515625000000000e-01
1.237304687500000000e+00
-1.425781250000000000e+00
-6.962890625000000000e-01
1.011962890625000000e+00
-3.210449218750000000e-01
-7.648925781250000000e-01
-1.320800781250000000e-01
-8.100585937500000000e-01
1.136230468750000000e+00
2.292236328125000000e+00
-6.118164062500000000e-01
5.983886718750000000e-01
-5.417480468750000000e-01
4.003906250000000000e-01
1.134765625000000000e+00
-1.072998046875000000e+00
-8.710937500000000000e-01
-1.595703125000000000e+00
7.448730468750000000e-01
-5.014648437500000000e-01
5.334472656250000000e-01
-1.793212890625000000e+00
2.265625000000000000e-01
-5.124511718750000000e-01
1.662597656250000000e-01
4.965820312500000000e-01
-4.353027343750000000e-01
-6.701660156250000000e-01
-7.531738281250000000e-01
9.995117187500000000e-01
-6.765136718750000000e-01
3.759765625000000000e-01
-1.397705078125000000e+00
-4.221191406250000000e-01
6.843261718750000000e-01
1.456298828125000000e+00
7.756347656250000000e-01
-1.247070312500000000e+00
-3.813476562500000000e-01
-7.446289062500000000e-02
-1.403808593750000000e-01
-4.538574218750000000e-01
1.960449218750000000e-01
1.723632812500000000e-01
2.370605468750000000e-01
1.904296875000000000e+00
1.298828125000000000e+00
-1.905029296875000000e+00
1.357666015625000000e+00
5.087890625000000000e-01
-2.080078125000000000e-01
8.520507812500000000e-02
-6.308593750000000000e-01
-1.771972656250000000e+00
1.228027343750000000e-01
-9.667968750000000000e-02
2.106933593750000000e-01
8.977050781250000000e-01
-1.357421875000000000e+00
-3.928222656250000000e-01
-7.707519531250000000e-01
-4.372558593750000000e-01
1.054931640625000000e+00
6.347656250000000000e-03
-1.186523437500000000e-01
3.037109375000000000e-01
-8.442382812500000000e-01
-4.562988281250000000e-01
-2.656250000000000000e-01
-2.905273437500000000e-02
7.573242187500000000e-01
-2.509765625000000000e-01
-8.813476562500000000e-01
-1.820800781250000000e+00
-1.544433593750000000e+00
1.901855468750000000e-01
-3.398437500000000000e-01
2.534179687500000000e-01
-1.934082031250000000e+00
-9.042968750000000000e-01
-1.193847656250000000e-01
-1.445312500000000000e-01
3.425292968750000000e-01
1.170654296875000000e+00
1.133544921875000000e+00
9.401855468750000000e-01
-8.190917968750000000e-01
2.827148437500000000e-01
1.480224609375000000e+00
4.396972656250000000e-01
-2.617187500000000000e-01
-5.541992187500000000e-02
1.043457031250000000e+00
-1.697021484375000000e+00
-1.928710937500000000e-02
5.273437500000000000e-01
-2.440917968750000000e+00
1.942138671875000000e+00
1.441406250000000000e+00
1.571777343750000000e+00
1.625732421875000000e+00
-4.418945312500000000e-02
1.592773437500000000e+00
-1.085937500000000000e+00
1.098632812500000000e+00
6.926269531250000000e-01
-7.739257812500000000e-01
-3.703613281250000000e-01
-5.737304687500000000e-01
1.159179687500000000e+00
-8.696289062500000000e-01
-5.815429687500000000e-01
1.686035156250000000e+00
-3.845214843750000000e-01
7.490234375000000000e-01
9.375000000000000000e-01
-1.665039062500000000e-01
2.324951171875000000e+00
-4.125976562500000000e-02
-3.295898437500000000e-01
6.791992187500000000e-01
7.614746093750000000e-01
2.111572265625000000e+00
-1.743164062500000000e+00
1.207275390625000000e+00
2.000488281250000000e+00
-1.216308593750000000e+00
2.259765625000000000e+00
-5.776367187500000000e-01
1.935791015625000000e+00
1.552734375000000000e-01
-9.570312500000000000e-02
1.275146484375000000e+00
4.001464843750000000e-01
6.579589843750000000e-01
-9.909667968750000000e-01
2.746582031250000000e-01
-2.062988281250000000e-01
-1.828613281250000000e-01
2.861328125000000000e-01
1.140869140625000000e+00
8.569335937500000000e-02
-1.371826171875000000e+00
-5.720214843750000000e-01
-1.122558593750000000e+00
-5.024414062500000000e-01
6.545410156250000000e-01
1.592285156250000000e+00
-8.300781250000000000e-03
-4.919433593750000000e-01
8.637695312500000000e-01
-1.232910156250000000e+00
-6.765136718750000000e-01
-9.958496093750000000e-01
1.716308593750000000e-01
-2.512207031250000000e-01
4.072265625000000000e-01
1.020263671875000000e+00
2.561035156250000000e-01
4.150390625000000000e-02
9.499511718750000000e-01
-2.392578125000000000e-01
-9.697265625000000000e-01
-3.510742187500000000e-01
1.729003906250000000e+00
2.394531250000000000e+00
-2.841796875000000000e-01
7.700195312500000000e-01
-1.531494140625000000e+00
1.953125000000000000e+00
-1.193603515625000000e+00
-8.815917968750000000e-01
3.515625000000000000e-02
-4.013671875000000000e-01
1.170410156250000000e+00
-7.551269531250000000e-01
6.152343750000000000e-02
-2.607421875000000000e-01
9.008789062500000000e-02
-1.151855468750000000e+00
3.522949218750000000e-01
-6.738281250000000000e-01
-9.741210937500000000e-01
1.665039062500000000e-01
9.187011718750000000e-01
8.872070312500000000e-01
-2.893066406250000000e-01
-2.995605468750000000e-01
-8.662109375000000000e-01
-7.263183593750000000e-01
-4.987792968750000000e-01
-2.048339843750000000e-01
-8.554687500000000000e-01
-5.126953125000000000e-01
-3.413085937500000000e-01
9.594726562500000000e-01
-3.920898437500000000e-01
3.823242187500000000e-01
-5.458984375000000000e-01
-2.005371093750000000e+00
1.441406250000000000e+00
-8.813476562500000000e-02
-2.133789062500000000e-01
-8.527832031250000000e-01
3.935546875000000000e-01
-1.109130859375000000e+00
-3.403320312500000000e-01
-7.717285156250000000e-01
-1.244140625000000000e+00
-1.880126953125000000e+00
1.709716796875000000e+00
-5.375976562500000000e-01
1.019287109375000000e+00
-3.032226562500000000e-01
-1.721435546875000000e+00
1.096923828125000000e+00
1.552734375000000000e-01
2.854003906250000000e-01
-1.391601562500000000e-01
5.834960937500000000e-01
-1.344238281250000000e+00
3.957519531250000000e-01
-3.315429687500000000e-01
1.264404296875000000e+00
3.435058593750000000e-01
5.976562500000000000e-01
-7.368164062500000000e-01
4.028320312500000000e-02
2.719726562500000000e+00
4.208984375000000000e-01
-6.298828125000000000e-02
7.250976562500000000e-02
8.151855468750000000e-01
1.042724609375000000e+00
-3.095703125000000000e-01
-1.356201171875000000e+00
5.102539062500000000e-02
-1.464843750000000000e-01
-9.375000000000000000e-01
-8.327636718750000000e-01
4.057617187500000000e-01
-7.111816406250000000e-01
-1.579101562500000000e+00
1.339843750000000000e+00
-4.111328125000000000e-01
7.500000000000000000e-01
-1.940917968750000000e+00
-1.623046875000000000e+00
2.148437500000000000e-02
1.389160156250000000e-01
-3.872070312500000000e-01
2.516601562500000000e+00
-1.225341796875000000e+00
9.265136718750000000e-01
-1.317871093750000000e+00
-1.328369140625000000e+00
2.333984375000000000e-01
6.494140625000000000e-01
6.464843750000000000e-01
-8.439941406250000000e-01
7.902832031250000000e-01
1.916503906250000000e+00
3.442382812500000000e-02
-5.332031250000000000e-01
1.458496093750000000e+00
-1.147949218750000000e+00
-2.287109375000000000e+00
6.623535156250000000e-01
5.820312500000000000e-01
-3.662109375000000000e+00
-2.500000000000000000e-01
5.468750000000000000e-01
4.348144531250000000e-01
1.207031250000000000e+00
-4.841308593750000000e-01
-4.458007812500000000e-01
-1.522216796875000000e+00
2.476074218750000000e+00
2.578125000000000000e-01
9.509277343750000000e-01
8.979492187500000000e-01
-7.268066406250000000e-01
-1.041259765625000000e+00
-1.218994140625000000e+00
3.647460937500000000e-01
-6.828613281250000000e-01
-2.939453125000000000e-01
8.862304687500000000e-01
-5.212402343750000000e-01
-9.521484375000000000e-02
4.760742187500000000e-01
-1.207519531250000000e+00
1.394042968750000000e-01
4.841308593750000000e-01
4.035644531250000000e-01
-1.215820312500000000e-01
7.534179687500000000e-01
-1.213867187500000000e+00
-8.491210937500000000e-01
3.964843750000000000e-01
8.859863281250000000e-01
-9.204101562500000000e-02
8.293457031250000000e-01
-1.342773437500000000e+00
-5.078125000000000000e-01
8.425292968750000000e-01
4.367675781250000000e-01
-4.951171875000000000e-01
1.875000000000000000e+00
2.238281250000000000e+00
-3.500976562500000000e-01
-5.346679687500000000e-02
9.838867187500000000e-02
2.454101562500000000e+00
-9.106445312500000000e-01
-2.402343750000000000e-01
7.636718750000000000e-01
-4.362792968750000000e-01
4.936523437500000000e-01
-8.696289062500000000e-01
1.193847656250000000e-01
4.008789062500000000e-01
-1.196289062500000000e-01
-1.426269531250000000e+00
1.597900390625000000e+00
3.283691406250000000e-01
1.520507812500000000e+00
-3.359375000000000000e-01
1.306152343750000000e+00
-2.081054687500000000e+00
-5.449218750000000000e-01
8.427734375000000000e-01
-3.266601562500000000e-01
-9.645996093750000000e-01
3.347167968750000000e-01
-1.717773437500000000e+00
1.120605468750000000e-01
1.328125000000000000e+00
-8.666992187500000000e-02
-4.445800781250000000e-01
1.322753906250000000e+00
1.528564453125000000e+00
7.583007812500000000e-01
1.460449218750000000e+00
1.476562500000000000e+00
1.290283203125000000e+00
2.150878906250000000e-01
-1.776611328125000000e+00
3.063964843750000000e-01
1.445068359375000000e+00
-3.557128906250000000e-01
-5.405273437500000000e-01
-1.049560546875000000e+00
-8.537597656250000000e-01
-5.356445312500000000e-01
3.234863281250000000e-01
9.587402343750000000e-01
-4.575195312500000000e-01
-1.464843750000000000e-02
2.363525390625000000e+00
1.440185546875000000e+00
-6.835937500000000000e-01
6.582031250000000000e-01
-3.417968750000000000e-02
9.985351562500000000e-02
-5.615234375000000000e-03
4.729003906250000000e-01
1.009521484375000000e+00
-7.514648437500000000e-01
-5.522460937500000000e-01
-1.317871093750000000e+00
-2.128906250000000000e+00
-8.061523437500000000e-01
