-1.953125000000000000e-03
-4.548339843750000000e-01
-1.503906250000000000e-01
1.255859375000000000e+00
-1.774902343750000000e-01
-1.511962890625000000e+00
1.431884765625000000e+00
-1.553222656250000000e+00
-5.456542968750000000e-01
4.328613281250000000e-01
-5.625000000000000000e-01
-9.174804687500000000e-01
-3.195800781250000000e-01
1.542236328125000000e+00
1.096923828125000000e+00
6.252441406250000000e-01
1.978271484375000000e+00
1.377197265625000000e+00
6.433105468750000000e-01
-8.151855468750000000e-01
1.621093750000000000e-01
-6.811523437500000000e-02
-1.166503906250000000e+00
-1.364746093750000000e-01
2.407226562500000000e-01
7.568359375000000000e-01
6.110839843750000000e-01
-2.451171875000000000e-01
-1.175048828125000000e+00
-4.597167968750000000e-01
-6.733398437500000000e-01
-5.100097656250000000e-01
1.069335937500000000e-01
-5.327148437500000000e-01
4.396972656250000000e-01
3.796386718750000000e-01
-6.616210937500000000e-01
-2.661132812500000000e-01
1.048828125000000000e+00
7.182617187500000000e-01
-7.795410156250000000e-01
1.948242187500000000e-01
1.218261718750000000e-01
5.905761718750000000e-01
8.395996093750000000e-01
8.129882812500000000e-02
6.877441406250000000e-01
9.667968750000000000e-01
-1.149658203125000000e+00
1.018798828125000000e+00
-1.056884765625000000e+00
-5.405273437500000000e-01
8.251953125000000000e-01
1.553955078125000000e+00
-2.465820312500000000e-01
-1.508789062500000000e-01
2.712402343750000000e-01
-1.442871093750000000e+00
1.616943359375000000e+00
-2.673339843750000000e-01
4.797363281250000000e-01
6.501464843750000000e-01
-1.141845703125000000e+00
1.026123046875000000e+00
2.729492187500000000e-01
-1.024169921875000000e+00
1.802978515625000000e+00
-8.991699218750000000e-01
-1.864013671875000000e+00
6.965332031250000000e-01
-1.208251953125000000e+00
1.301269531250000000e-01
-1.937500000000000000e+00
-2.000000000000000000e+00
-1.034667968750000000e+00
5.151367187500000000e-02
-4.489746093750000000e-01
-3.354492187500000000e-01
-2.817382812500000000e-01
8.666992187500000000e-02
-2.100830078125000000e+00
-1.022705078125000000e+00
-2.194580078125000000e+00
2.336425781250000000e-01
1.069335937500000000e-01
1.960693359375000000e+00
1.481933593750000000e-01
2.124023437500000000e-01
-1.129638671875000000e+00
8.496093750000000000e-02
2.539062500000000000e-02
5.192871093750000000e-01
-4.956054687500000000e-02
6.904296875000000000e-01
1.159179687500000000e+00
-1.528076171875000000e+00
8.234863281250000000e-01
2.404785156250000000e-01
-2.683105468750000000e-01
-5.778808593750000000e-01
7.641601562500000000e-02
3.725585937500000000e-01
1.033691406250000000e+00
-5.603027343750000000e-01
-1.033691406250000000e+00
1.233398437500000000e+00
-5.231933593750000000e-01
-6.118164062500000000e-01
2.272949218750000000e-01
-5.991210937500000000e-01
-1.789550781250000000e-01
1.848144531250000000e-01
-3.645019531250000000e-01
1.218261718750000000e-01
1.437988281250000000e-01
7.348632812500000000e-01
-1.579589843750000000e-01
9.677734375000000000e-01
-1.578857421875000000e+00
-6.574707031250000000e-01
-2.851562500000000000e-01
3.173828125000000000e-03
-8.977050781250000000e-01
-5.109863281250000000e-01
-1.777343750000000000e-01
-2.441894531250000000e+00
1.057373046875000000e+00
-1.027099609375000000e+00
2.368164062500000000e-02
1.661132812500000000e+00
5.742187500000000000e-01
1.249267578125000000e+00
8.754882812500000000e-01
-1.039550781250000000e+00
1.813964843750000000e+00
-1.032470703125000000e+00
2.241210937500000000e-01
9.309082031250000000e-01
5.883789062500000000e-02
3.718261718750000000e-01
-1.884765625000000000e-01
2.031250000000000000e-01
-6.040039062500000000e-01
-1.025390625000000000e+00
-1.037597656250000000e+00
-1.196044921875000000e+00
-1.136718750000000000e+00
-4.609375000000000000e-01
8.227539062500000000e-02
2.565917968750000000e-01
-2.583251953125000000e+00
7.932128906250000000e-01
-5.314941406250000000e-01
-1.975097656250000000e-01
-5.769042968750000000e-01
-7.128906250000000000e-01
2.268066406250000000e-01
2.111816406250000000e+00
1.557373046875000000e+00
-3.220214843750000000e-01
8.852539062500000000e-01
-9.294433593750000000e-01
1.964843750000000000e+00
-8.437500000000000000e-01
9.143066406250000000e-01
2.001953125000000000e-02
1.906250000000000000e+00
-1.994628906250000000e-01
7.446289062500000000e-02
-8.515625000000000000e-01
-6.008300781250000000e-01
-1.000976562500000000e-02
-1.135009765625000000e+00
-5.732421875000000000e-01
-8.513183593750000000e-01
-1.010253906250000000e+00
-1.701904296875000000e+00
-5.781250000000000000e-01
-6.931152343750000000e-01
-5.168457031250000000e-01
1.149902343750000000e-01
-2.033203125000000000e+00
6.184082031250000000e-01
-2.319335937500000000e-02
-3.237304687500000000e-01
8.605957031250000000e-01
8.544921875000000000e-03
8.886718750000000000e-02
1.619873046875000000e+00
-3.752441406250000000e-01
1.322753906250000000e+00
3.842773437500000000e-01
4.645996093750000000e-01
-8.327636718750000000e-01
2.595214843750000000e-01
-5.332031250000000000e-01
2.036132812500000000e-01
-1.101806640625000000e+00
-5.305175781250000000e-01
-6.250000000000000000e-01
-1.230224609375000000e+00
-8.764648437500000000e-01
3.652343750000000000e-01
-9.221191406250000000e-01
8.474121093750000000e-01
-7.153320312500000000e-02
1.001220703125000000e+00
-1.159667968750000000e-01
3.144531250000000000e-01
-3.254394531250000000e-01
-9.919433593750000000e-01
-1.283447265625000000e+00
5.576171875000000000e-01
8.640136718750000000e-01
1.130859375000000000e+00
1.358886718750000000e+00
-4.902343750000000000e-01
-7.873535156250000000e-01
5.830078125000000000e-01
9.704589843750000000e-01
1.423095703125000000e+00
-7.900390625000000000e-01
1.841796875000000000e+00
-9.230957031250000000e-01
6.384277343750000000e-01
2.453613281250000000e-01
1.302001953125000000e+00
8.417968750000000000e-01
-3.398437500000000000e-01
-9.516601562500000000e-01
5.776367187500000000e-01
-1.168701171875000000e+00
-3.811035156250000000e-01
7.404785156250000000e-01
4.082031250000000000e-01
7.934570312500000000e-02
1.865234375000000000e-01
-1.741699218750000000e+00
-1.863281250000000000e+00
1.215087890625000000e+00
1.275146484375000000e+00
-7.387695312500000000e-01
2.656250000000000000e-01
8.178710937500000000e-02
2.929687500000000000e-03
-8.701171875000000000e-01
-4.719238281250000000e-01
1.387695312500000000e+00
1.208496093750000000e+00
7.426757812500000000e-01
1.302490234375000000e+00
9.270019531250000000e-01
1.319091796875000000e+00
-5.363769531250000000e-01
5.307617187500000000e-01
-1.511230468750000000e+00
-1.038085937500000000e+00
9.553222656250000000e-01
-2.856445312500000000e-01
-1.477050781250000000e-01
1.337890625000000000e+00
-6.679687500000000000e-01
-7.668457031250000000e-01
4.555664062500000000e-01
-1.147705078125000000e+00
-1.618652343750000000e-01
6.762695312500000000e-01
-6.520996093750000000e-01
1.068115234375000000e+00
4.531250000000000000e-01
5.612792968750000000e-01
-1.157470703125000000e+00
-1.483398437500000000e+00
6.279296875000000000e-01
1.384521484375000000e+00
1.076416015625000000e+00
7.097167968750000000e-01
3.991699218750000000e-01
3.234863281250000000e-01
-1.625732421875000000e+00
-1.752929687500000000e-01
8.288574218750000000e-01
-4.560546875000000000e-01
-7.072753906250000000e-01
-1.043212890625000000e+00
-1.808593750000000000e+00
-2.307128906250000000e-01
-3.051757812500000000e-01
-3.093261718750000000e-01
1.083496093750000000e+00
8.813476562500000000e-02
4.501953125000000000e-01
1.673095703125000000e+00
1.214843750000000000e+00
1.045166015625000000e+00
-1.254150390625000000e+00
-9.150390625000000000e-01
-1.850585937500000000e-01
-1.093017578125000000e+00
-1.199462890625000000e+00
1.327148437500000000e+00
-4.204101562500000000e-01
-4.191894531250000000e-01
1.055908203125000000e+00
2.836914062500000000e+00
2.999511718750000000e+00
-1.184570312500000000e+00
-9.765625000000000000e-04
-8.234863281250000000e-01
9.111328125000000000e-01
3.039306640625000000e+00
-1.313476562500000000e-01
8.471679687500000000e-02
1.018310546875000000e+00
7.062988281250000000e-01
-1.090820312500000000e+00
-8.015136718750000000e-01
-6.423339843750000000e-01
-8.056640625000000000e-03
9.443359375000000000e-01
1.969726562500000000e+00
1.509277343750000000e+00
8.688964843750000000e-01
-1.431396484375000000e+00
-1.261474609375000000e+00
-2.928466796875000000e+00
-1.155273437500000000e+00
-1.216308593750000000e+00
-1.606933593750000000e+00
-3.070556640625000000e+00
-4.960937500000000000e-01
-1.689453125000000000e-01
-1.471435546875000000e+00
-6.677246093750000000e-01
2.714599609375000000e+00
-1.070312500000000000e+00
9.194335937500000000e-01
-7.517089843750000000e-01
-7.390136718750000000e-01
-1.030273437500000000e+00
1.358642578125000000e+00
-7.717285156250000000e-01
6.398925781250000000e-01
8.566894531250000000e-01
1.618896484375000000e+00
1.681884765625000000e+00
-5.920410156250000000e-01
1.187744140625000000e+00
1.697265625000000000e+00
1.943359375000000000e+00
-1.554443359375000000e+00
-1.195068359375000000e+00
-1.823730468750000000e+00
-2.233886718750000000e-01
-2.765869140625000000e+00
1.342773437500000000e-02
-1.146972656250000000e+00
-1.525390625000000000e+00
-1.197753906250000000e+00
-1.283691406250000000e+00
3.515625000000000000e-02
4.077148437500000000e-01
5.771484375000000000e-01
4.604492187500000000e-01
-1.302001953125000000e+00
8.352050781250000000e-01
7.021484375000000000e-01
-1.212890625000000000e+00
-1.187744140625000000e+00
-7.209472656250000000e-01
3.090820312500000000e-01
-6.738281250000000000e-01
3.203125000000000000e-01
-1.796875000000000000e-01
1.380859375000000000e+00
3.793945312500000000e-01
8.078613281250000000e-01
-1.755371093750000000e-01
-2.232666015625000000e+00
-2.880126953125000000e+00
-2.544433593750000000e+00
-1.995117187500000000e+00
-6.855468750000000000e-01
-1.257812500000000000e+00
-1.991943359375000000e+00
-1.545166015625000000e+00
6.848144531250000000e-01
-5.097656250000000000e-01
-5.017089843750000000e-01
1.394775390625000000e+00
4.291992187500000000e-01
-4.228515625000000000e-01
-6.894531250000000000e-01
1.078613281250000000e+00
6.967773437500000000e-01
-1.106201171875000000e+00
2.527832031250000000e+00
-3.276367187500000000e-01
4.174804687500000000e-01
1.815673828125000000e+00
5.732421875000000000e-01
1.714355468750000000e+00
1.197998046875000000e+00
-5.473632812500000000e-01
1.553710937500000000e+00
-1.153808593750000000e+00
-2.384521484375000000e+00
-3.154296875000000000e-01
-1.774658203125000000e+00
2.766113281250000000e-01
-1.409179687500000000e+00
1.674804687500000000e-01
-4.047851562500000000e-01
-1.151611328125000000e+00
6.418457031250000000e-01
-7.409667968750000000e-01
1.512451171875000000e+00
3.691406250000000000e-01
7.731933593750000000e-01
4.138183593750000000e-01
2.644042968750000000e-01
-8.823242187500000000e-01
1.689208984375000000e+00
6.196289062500000000e-01
1.304199218750000000e+00
-9.855957031250000000e-01
7.473144531250000000e-01
-9.716796875000000000e-02
-2.031250000000000000e-01
6.872558593750000000e-01
-2.539062500000000000e-02
4.589843750000000000e-01
-3.220214843750000000e-01
-2.064453125000000000e+00
-1.759277343750000000e+00
-2.690185546875000000e+00
-9.667968750000000000e-02
-1.781005859375000000e+00
-3.825683593750000000e-01
-1.907226562500000000e+00
1.650390625000000000e-01
6.879882812500000000e-01
5.366210937500000000e-01
-1.302734375000000000e+00
1.464843750000000000e-03
1.479492187500000000e+00
-7.568359375000000000e-02
2.968750000000000000e-01
2.449462890625000000e+00
-6.379394531250000000e-01
-3.591308593750000000e-01
4.245605468750000000e-01
1.079101562500000000e-01
1.360595703125000000e+00
5.664062500000000000e-01
4.824218750000000000e-01
1.110839843750000000e-01
1.201171875000000000e-01
1.013671875000000000e+00
-3.276367187500000000e-01
-1.026123046875000000e+00
-2.736328125000000000e+00
-2.089355468750000000e+00
1.738281250000000000e-01
-1.239501953125000000e+00
-6.777343750000000000e-01
-8.134765625000000000e-01
1.032714843750000000e-01
9.326171875000000000e-02
-6.079101562500000000e-01
2.076904296875000000e+00
3.771972656250000000e-01
-3.269042968750000000e-01
1.014404296875000000e+00
5.043945312500000000e-01
1.708984375000000000e-02
8.317871093750000000e-01
-1.618652343750000000e-01
6.567382812500000000e-02
-9.238281250000000000e-01
-3.129882812500000000e-01
5.759277343750000000e-01
8.349609375000000000e-02
-1.288574218750000000e+00
-1.545898437500000000e+00
-1.625488281250000000e+00
6.689453125000000000e-01
-1.636474609375000000e+00
-1.973388671875000000e+00
-1.807861328125000000e+00
-9.528808593750000000e-01
-1.210693359375000000e+00
-1.762695312500000000e+00
6.918945312500000000e-01
7.009277343750000000e-01
6.206054687500000000e-01
2.348632812500000000e-01
-4.130859375000000000e-01
4.304199218750000000e-01
-2.248535156250000000e-01
-2.397460937500000000e-01
6.003417968750000000e-01
9.611816406250000000e-01
3.122558593750000000e-01
2.626464843750000000e+00
6.088867187500000000e-01
-1.374755859375000000e+00
-1.587158203125000000e+00
1.866455078125000000e+00
8.520507812500000000e-02
2.264404296875000000e+00
-1.673828125000000000e+00
6.523437500000000000e-01
1.135253906250000000e-01
-4.074707031250000000e-01
-4.650878906250000000e-01
4.077148437500000000e-02
-3.100097656250000000e+00
-5.024414062500000000e-01
-4.248046875000000000e-01
1.584228515625000000e+00
1.088867187500000000e+00
-8.479003906250000000e-01
1.005859375000000000e-01
1.781982421875000000e+00
2.034179687500000000e+00
3.352050781250000000e-01
-9.174804687500000000e-01
-7.534179687500000000e-01
-5.693359375000000000e-01
1.500976562500000000e+00
-8.601074218750000000e-01
8.200683593750000000e-01
-5.646972656250000000e-01
-5.046386718750000000e-01
-9.792480468750000000e-01
-1.536376953125000000e+00
1.587402343750000000e+00
7.634277343750000000e-01
2.258300781250000000e+00
-6.689453125000000000e-02
1.672607421875000000e+00
-7.983398437500000000e-01
1.985595703125000000e+00
1.299804687500000000e+00
1.127929687500000000e+00
1.204589843750000000e+00
-1.479003906250000000e+00
3.151855468750000000e-01
2.373046875000000000e-01
1.612304687500000000e+00
2.366699218750000000e+00
-7.775878906250000000e-01
7.453613281250000000e-01
1.849121093750000000e+00
5.388183593750000000e-01
2.284423828125000000e+00
-9.577636718750000000e-01
3.981933593750000000e-01
6.857910156250000000e-01
1.329345703125000000e+00
5.273437500000000000e-01
1.044921875000000000e-01
1.367187500000000000e-02
7.888183593750000000e-01
6.105957031250000000e-01
2.463378906250000000e-01
2.314453125000000000e-01
-4.787597656250000000e-01
1.406494140625000000e+00
2.263427734375000000e+00
1.279541015625000000e+00
5.566406250000000000e-02
1.055908203125000000e+00
-3.498535156250000000e-01
-1.239746093750000000e+00
6.472167968750000000e-01
-1.058837890625000000e+00
1.124511718750000000e+00
-1.755615234375000000e+00
1.773925781250000000e+00
-1.479736328125000000e+00
8.503417968750000000e-01
3.269042968750000000e-01
2.851562500000000000e-01
1.250488281250000000e+00
1.967773437500000000e-01
-3.559570312500000000e-01
-3.781738281250000000e-01
-8.696289062500000000e-01
7.451171875000000000e-01
-1.228759765625000000e+00
1.081298828125000000e+00
-3.544921875000000000e-01
5.705566406250000000e-01
2.236328125000000000e-01
8.588867187500000000e-01
1.383056640625000000e+00
5.102539062500000000e-02
1.436279296875000000e+00
1.236816406250000000e+00
-3.935546875000000000e-01
1.843994140625000000e+00
4.936523437500000000e-01
-2.448730468750000000e-01
-2.990722656250000000e-01
-1.999511718750000000e-01
-4.045410156250000000e-01
1.029296875000000000e+00
5.134277343750000000e-01
1.920410156250000000e+00
1.735107421875000000e+00
1.671142578125000000e+00
-1.760253906250000000e+00
-1.142578125000000000e-01
1.096191406250000000e+00
1.156250000000000000e+00
-3.930664062500000000e-02
-4.062500000000000000e-01
1.720947265625000000e+00
1.433105468750000000e-01
-8.266601562500000000e-01
-5.224609375000000000e-01
-1.163330078125000000e+00
1.325439453125000000e+00
-1.879882812500000000e-01
5.039062500000000000e-01
4.724121093750000000e-01
-4.177246093750000000e-01
5.715332031250000000e-01
-1.076660156250000000e-01
-6.762695312500000000e-01
-8.149414062500000000e-01
-1.650390625000000000e+00
1.038574218750000000e+00
3.164062500000000000e-01
-9.765625000000000000e-02
-8.659667968750000000e-01
1.205566406250000000e+00
-5.153808593750000000e-01
5.048828125000000000e-01
2.465820312500000000e-01
1.521240234375000000e+00
-5.957031250000000000e-02
2.363281250000000000e-01
1.879638671875000000e+00
-1.277343750000000000e+00
-2.355957031250000000e-01
3.027343750000000000e-01
3.952636718750000000e-01
1.122558593750000000e+00
-8.498535156250000000e-01
-1.701660156250000000e-01
2.390136718750000000e-01
5.939941406250000000e-01
7.050781250000000000e-01
-9.396972656250000000e-01
5.615234375000000000e-03
2.177001953125000000e+00
1.166992187500000000e+00
1.434326171875000000e+00
1.258789062500000000e+00
-1.102050781250000000e+00
-1.212402343750000000e+00
9.235839843750000000e-01
1.533203125000000000e-01
-1.398925781250000000e-01
-1.253417968750000000e+00
-1.434082031250000000e+00
2.148437500000000000e-02
1.413085937500000000e+00
3.085937500000000000e-01
2.016601562500000000e-01
3.186035156250000000e-01
9.526367187500000000e-01
-9.738769531250000000e-01
-1.186279296875000000e+00
-1.836669921875000000e+00
8.979492187500000000e-01
-4.096679687500000000e-01
8.955078125000000000e-01
7.341308593750000000e-01
6.147460937500000000e-01
-1.811523437500000000e-01
4.941406250000000000e-01
8.083496093750000000e-01
7.080078125000000000e-03
1.022705078125000000e+00
-2.194824218750000000e-01
1.439208984375000000e+00
-5.881347656250000000e-01
-7.111816406250000000e-01
-5.048828125000000000e-01
5.725097656250000000e-01
-1.801757812500000000e-01
-1.452880859375000000e+00
1.175048828125000000e+00
1.000000000000000000e+00
-5.014648437500000000e-01
1.320068359375000000e+00
5.256347656250000000e-01
-4.711914062500000000e-01
2.282714843750000000e-01
7.539062500000000000e-01
1.650390625000000000e-01
-1.028320312500000000e+00
1.101806640625000000e+00
-1.390625000000000000e+00
-6.374511718750000000e-01
3.266601562500000000e-01
4.082031250000000000e-01
-4.130859375000000000e-01
1.493164062500000000e+00
1.767822265625000000e+00
1.212890625000000000e+00
-6.794433593750000000e-01
-2.312011718750000000e-01
1.352050781250000000e+00
7.646484375000000000e-01
-2.517089843750000000e-01
9.594726562500000000e-02
4.670410156250000000e-01
-2.126464843750000000e-01
8.408203125000000000e-01
5.866699218750000000e-01
8.256835937500000000e-01
-1.073242187500000000e+00
-1.705322265625000000e+00
-9.106445312500000000e-01
-2.482910156250000000e-01
2.617187500000000000e-01
-9.218750000000000000e-01
2.502441406250000000e+00
-3.952636718750000000e-01
-4.472656250000000000e-01
5.097656250000000000e-01
4.748535156250000000e-01
-1.587890625000000000e+00
7.912597656250000000e-01
1.038085937500000000e+00
-1.334228515625000000e+00
-1.081298828125000000e+00
-1.843994140625000000e+00
-3.530273437500000000e-01
2.644042968750000000e+00
-1.849853515625000000e+00
2.397460937500000000e-01
-2.785644531250000000e-01
1.342285156250000000e+00
4.680175781250000000e-01
-1.206787109375000000e+00
5.444335937500000000e-02
-1.100341796875000000e+00
1.679931640625000000e+00
1.430175781250000000e+00
-7.089843750000000000e-01
-5.119628906250000000e-01
1.037841796875000000e+00
5.322265625000000000e-02
-3.190917968750000000e-01
-1.327636718750000000e+00
-1.628417968750000000e-01
1.476318359375000000e+00
7.109375000000000000e-01
5.471191406250000000e-01
1.042236328125000000e+00
8.164062500000000000e-01
9.543457031250000000e-01
-6.079101562500000000e-02
-4.885253906250000000e-01
1.066894531250000000e+00
1.101562500000000000e+00
6.677246093750000000e-01
1.928710937500000000e-01
1.519531250000000000e+00
4.780273437500000000e-01
-6.721191406250000000e-01
6.657714843750000000e-01
6.601562500000000000e-01
1.547851562500000000e-01
-1.110839843750000000e-01
7.314453125000000000e-01
7.319335937500000000e-01
-1.802734375000000000e+00
